<?xml version="1.0"?>
<opencv_storage>
<opencv_ml_svm>
  <format>3</format>
  <svmType>C_SVC</svmType>
  <kernel>
    <type>LINEAR</type></kernel>
  <C>5.9999999999999998e-001</C>
  <term_criteria><iterations>10000000</iterations></term_criteria>
  <var_count>12160</var_count>
  <class_count>2</class_count>
  <class_labels type_id="opencv-matrix">
    <rows>2</rows>
    <cols>1</cols>
    <dt>i</dt>
    <data>
      -1 1</data></class_labels>
  <sv_total>1</sv_total>
  <support_vectors>
    <_>
      2.33499784e-004 4.21501871e-004 2.25005293e-004 4.28784522e-004
      4.32818400e-004 -6.33285672e-005 -4.96316206e-005 -2.34535037e-004
      1.33074054e-005 -1.43028563e-004 9.99850818e-005 3.61313614e-005
      1.72457250e-004 -2.45970383e-004 2.19096997e-004 7.70228144e-005
      -3.43878055e-005 2.81254819e-004 -7.42576522e-005 1.75641297e-004
      3.87563923e-004 1.07586013e-004 -1.66486352e-004 -1.20332452e-005
      6.81514910e-004 8.21113208e-005 -4.32006520e-004 -1.70885454e-004
      -4.40175645e-004 5.45389194e-005 3.98227479e-004 -1.70698870e-004
      2.87323812e-004 2.23911309e-004 -4.24943370e-004 -1.70169369e-005
      2.69059528e-004 -3.48244384e-007 -1.79961971e-005 -1.31121895e-004
      -2.41495836e-005 -1.98505204e-005 -4.21506666e-005
      -3.10928590e-005 -2.96996950e-005 -4.15266877e-005
      -8.72103628e-005 8.01703500e-005 8.43694124e-006 -1.10395456e-004
      -1.18486649e-004 -6.99058319e-006 1.86931120e-005 1.95574703e-005
      -6.74122493e-005 -1.63701668e-004 -2.61038640e-005
      -2.02559295e-006 1.97060745e-005 4.18120180e-005 4.77475514e-005
      -8.35525043e-006 -2.72525594e-005 -5.11922326e-006 4.90848777e-007
      5.78179561e-006 -2.93288076e-006 -1.96666777e-004 -1.96652953e-004
      -1.76659178e-005 2.44171679e-006 5.16115188e-006 4.23386664e-005
      2.23639199e-005 -3.27932430e-005 -6.79479563e-005 5.52398933e-006
      -4.85691862e-006 1.98023568e-004 1.53669564e-004 9.49087553e-006
      7.45986972e-006 1.66329392e-005 1.54176058e-004 2.52988302e-005
      7.49159790e-006 4.62103708e-006 4.37204762e-005 1.04667433e-005
      7.20392472e-006 2.11880742e-005 1.00141551e-006 3.26493609e-005
      4.90126013e-006 1.93225729e-004 1.05628833e-005 -9.22219624e-005
      1.96953246e-004 4.61762189e-004 -7.56588415e-005 -2.14036307e-004
      7.59343457e-005 4.92698528e-005 6.36529512e-005 -1.72917833e-004
      9.47732042e-005 3.93495255e-004 1.08087268e-004 -3.00937565e-004
      -6.62229359e-005 3.78945842e-004 5.45137969e-004 -4.62104144e-005
      -1.50844702e-004 -3.97949218e-004 -3.57290955e-005
      -2.62417860e-004 -8.87208007e-005 1.75833455e-004 4.73776076e-004
      2.39167697e-004 1.99631286e-005 -4.25009755e-004 1.14389892e-004
      -3.45393957e-004 -2.91000440e-004 5.89325064e-005 -2.45073825e-005
      5.14955667e-004 1.11734254e-004 -1.74107936e-005 2.57399632e-004
      4.73586770e-005 -4.39136456e-005 -6.65589032e-005 -1.43680131e-006
      -3.46838460e-005 -1.01646940e-004 -1.26107616e-005
      -2.66757197e-005 -8.82444947e-005 -5.72887657e-005 5.38744716e-005
      -2.34710005e-005 -1.17512376e-004 -1.18826712e-004
      -1.30000226e-005 -1.76110655e-006 1.09332932e-005 -1.29875931e-004
      -1.89362865e-004 -2.53251837e-005 1.97596455e-006 2.14899883e-005
      3.56370292e-005 4.57313872e-005 -2.63421716e-005 -4.20120268e-005
      2.39156549e-007 5.05634171e-006 8.72126748e-006 6.10312145e-006
      -1.52579014e-004 -1.92445033e-004 -3.06234033e-005 7.34764853e-008
      1.40533630e-005 5.08651610e-005 6.15703248e-005 3.80454867e-006
      -6.42946106e-005 -1.40752354e-005 4.45093519e-007 1.60819269e-004
      1.34829577e-004 4.03093363e-005 1.03785305e-005 2.12651594e-005
      1.09717737e-004 1.77674556e-005 1.03619677e-005 3.66160452e-006
      4.95215281e-005 1.37657707e-005 1.37602865e-005 1.29118562e-005
      -3.16410205e-006 4.09011482e-005 1.69490668e-005 2.95478065e-004
      1.88175429e-004 4.81881842e-004 3.71784321e-004 2.45894596e-004
      1.80627874e-004 1.10580841e-004 1.41173557e-004 1.39726864e-004
      2.45011383e-004 -1.30061642e-004 2.53111357e-005 5.02393057e-004
      5.65577939e-004 -1.02522565e-004 3.91434354e-004 6.41058374e-004
      1.09028544e-004 -4.89857266e-005 1.56490249e-004 -6.01647516e-005
      -1.43831285e-005 8.21992580e-005 -2.58966582e-004 4.87506564e-004
      2.28034492e-004 2.09960752e-004 4.91278442e-005 2.81856119e-005
      -1.14903072e-004 1.98735419e-004 1.61447213e-004 -3.25668574e-004
      5.01980481e-004 4.24357568e-004 3.22128799e-005 -3.54720687e-004
      1.57121380e-004 5.24932657e-005 -2.45021838e-005 -7.89700352e-005
      4.68705548e-006 -1.24788894e-005 -1.14990391e-004 -2.70461624e-006
      -4.30902537e-006 -9.37309742e-005 -3.91896938e-005 2.96576072e-005
      -2.71534209e-005 -5.17499975e-005 -1.43535901e-004 7.21921378e-006
      7.81270865e-006 1.00117913e-005 -9.18582373e-005 -1.24004611e-004
      -2.97150928e-005 7.30872762e-006 2.42048354e-005 3.03574016e-005
      3.30262665e-005 3.15491779e-005 -2.60852412e-005 1.07796159e-005
      3.32820878e-006 1.68547740e-005 -1.36325434e-005 -2.16009183e-004
      -2.19013193e-004 -2.40300392e-006 6.23951109e-006 1.14049681e-005
      2.96278176e-005 5.06984470e-005 -3.04301357e-005 -6.36498517e-005
      -3.75197874e-006 4.46503191e-006 1.47918763e-004 1.77141104e-004
      5.57696658e-005 1.13899887e-005 1.99407677e-005 7.30460597e-005
      3.07132068e-005 1.87960595e-005 8.76633203e-006 3.86717002e-005
      7.81587551e-006 1.15330749e-005 1.75642947e-006 1.40604061e-006
      2.47296557e-005 2.36877968e-005 2.31937869e-004 7.05154453e-005
      1.05506078e-004 4.49221174e-004 4.33941139e-004 9.05974448e-005
      3.12273449e-004 2.66635470e-004 2.52696627e-004 4.04419610e-004
      2.01632225e-004 3.19290666e-005 8.95512858e-005 1.75062843e-004
      -4.14248731e-004 1.97296496e-004 2.60555564e-004 5.54946309e-004
      -2.53655919e-004 2.61384732e-004 1.69029063e-005 -1.45908227e-004
      -5.19799942e-004 -8.07566903e-005 -1.55821981e-004 2.42535039e-004
      2.27934041e-004 1.06243424e-005 5.08279889e-004 6.87740569e-004
      3.31655348e-004 -1.23696882e-005 -4.07040279e-005 -6.26519963e-004
      -1.09710832e-004 1.38595991e-004 -1.89743703e-004 2.95219070e-004
      5.25271680e-005 -1.60837553e-005 -7.96956738e-005 1.65699403e-005
      3.06475613e-006 -4.22414851e-005 -7.33983612e-008 -3.05870049e-006
      -1.38750911e-004 -9.59083482e-005 -4.80460494e-006
      -1.59621086e-005 -9.47999870e-005 -2.04731201e-004 2.53972812e-005
      6.31065222e-006 1.76690937e-005 -8.43446323e-005 -1.40342978e-004
      -2.29229772e-005 2.79669553e-006 1.95091197e-005 1.34673091e-005
      2.51424080e-005 -2.88514148e-005 -3.23119602e-005 -4.30658338e-006
      3.02157514e-006 2.93757894e-005 1.12205826e-005 -1.89886152e-004
      -1.30972316e-004 -2.07676003e-005 -2.49550089e-006 1.48283207e-005
      4.86427743e-005 2.30383412e-005 -3.57738827e-005 -4.79914706e-005
      -1.27428411e-005 2.54895447e-008 1.70139610e-004 1.63742850e-004
      1.84198489e-005 6.58943191e-006 3.12167322e-005 4.97614674e-005
      2.17514607e-005 1.28939919e-005 4.91184664e-006 2.82025539e-005
      1.77754155e-005 1.13614142e-005 1.39683143e-005 -4.92665947e-007
      2.53707858e-005 2.44010625e-005 2.41980029e-004 1.45888887e-004
      9.16434365e-005 -2.73432906e-005 1.50326319e-004 -2.86293798e-004
      4.98863752e-004 3.79357749e-004 2.49595614e-004 -9.71608461e-005
      9.36131910e-005 -4.58603899e-005 1.10414563e-004 -2.38414388e-004
      -1.05594321e-004 3.41632433e-004 1.50767562e-004 1.89444545e-004
      2.04823344e-004 -2.58492335e-004 -1.75216672e-004 1.50524764e-004
      1.93581567e-004 3.30365117e-004 -5.06608376e-005 1.43605590e-004
      6.15850557e-004 1.16087373e-004 3.23690940e-004 -1.28862870e-004
      1.96686669e-004 9.37349614e-005 -2.57642736e-004 -2.29335143e-004
      8.27685435e-005 -6.29344795e-005 -3.52359639e-005 3.43720370e-004
      4.03454942e-005 -1.63729474e-005 -3.70468697e-005 2.61803671e-005
      -5.13219265e-006 -9.17434954e-006 -7.13366808e-006 8.07961806e-006
      -1.18445874e-004 -6.62884704e-005 1.13528149e-005 -4.94554697e-005
      -1.48545732e-004 -1.49188476e-004 -5.13660495e-007 1.84195887e-005
      6.47446359e-006 -5.79944099e-005 -1.76162124e-004 -4.82746918e-006
      3.82372764e-006 7.35700132e-006 2.44537714e-005 -1.11204872e-005
      -9.05131092e-005 -5.46856318e-005 -6.77754952e-006
      -5.12772118e-008 1.51269041e-005 -2.05586457e-006 -8.46509065e-005
      -1.29529013e-004 3.68487258e-006 6.90554634e-006 5.63735557e-006
      2.11096340e-005 2.49712921e-005 -1.16776937e-005 -1.97459722e-005
      1.51810727e-005 -7.41800932e-007 9.93962094e-005 5.75715567e-005
      3.93343689e-005 2.05130054e-005 3.29687391e-005 4.06747349e-005
      6.33556874e-006 1.24843182e-005 2.08291726e-006 2.15376695e-005
      2.26087718e-006 2.22357885e-005 1.86071156e-005 -3.42140893e-008
      5.96631617e-006 1.95800767e-005 2.73492100e-004 -1.26836676e-004
      3.58883350e-004 3.74186027e-004 -2.68179283e-004 -1.02979095e-004
      6.28416528e-005 -2.27186065e-005 2.85256654e-004 -1.25253835e-004
      3.88717599e-004 1.74596600e-004 5.88169089e-004 -7.74469736e-005
      -9.30186216e-005 1.46252148e-006 1.30712127e-004 1.41845856e-004
      1.53252360e-004 -6.47829511e-005 1.13474904e-004 5.33791201e-004
      -3.68979323e-004 -5.40130350e-005 -1.72187909e-004
      -1.41993616e-004 -4.99190646e-005 -9.29503512e-005 4.79235081e-004
      2.49627366e-004 3.00577405e-004 3.44967229e-005 2.49363482e-004
      -3.89949855e-004 5.23765164e-004 2.60460103e-004 1.82600372e-004
      2.00452458e-004 4.17094161e-005 -3.91447284e-005 -2.75119437e-005
      -6.85265559e-006 -1.71895299e-005 -1.22756101e-004
      -2.24896849e-005 -2.82791825e-005 -1.38629373e-004
      -8.71597804e-005 6.73624891e-005 5.90897298e-006 -7.27743827e-005
      -1.08690416e-004 -1.54870140e-005 2.74696449e-005 1.78504979e-005
      -7.24172714e-005 -1.25368533e-004 -2.39067340e-005 1.12526859e-005
      8.69970881e-006 3.36763806e-005 1.50982505e-005 -2.64138293e-006
      -6.30550812e-006 9.86733539e-007 1.79556946e-006 1.29556847e-005
      2.48913057e-005 -9.79126271e-005 -1.86791978e-004 -2.72322613e-005
      -5.33783304e-006 8.44513670e-006 3.40642437e-005 7.61731062e-005
      2.24590913e-005 -2.71292247e-005 -7.36137554e-006 2.83869349e-006
      8.64986578e-006 5.36774241e-005 7.65993827e-005 1.98940579e-005
      2.87079838e-005 5.04216550e-005 2.83951395e-005 1.73521948e-005
      4.48764411e-007 3.84201849e-005 1.52122948e-005 1.06944271e-005
      2.43117620e-006 4.63386277e-006 5.12784100e-005 2.67772903e-005
      2.21685346e-004 2.09914055e-004 2.52392783e-004 1.83131007e-004
      1.34633287e-004 1.09360972e-005 -5.35521176e-005 7.24480924e-005
      -2.35374973e-005 -1.23182748e-004 6.52933377e-005 9.88421671e-005
      3.40668339e-004 8.09720805e-005 1.21316938e-004 1.93467258e-005
      1.53866538e-004 -2.83832414e-005 -4.03055776e-004 -2.42367287e-006
      3.62102524e-004 4.82674252e-004 -6.22294465e-005 -2.15482563e-004
      2.78607185e-004 3.18088423e-004 1.67251768e-004 -3.71263275e-004
      -3.65084386e-004 2.19909984e-004 2.91758130e-004 1.65388919e-004
      -5.54756525e-006 -1.98086287e-004 2.23017356e-004 1.14216637e-004
      -2.73936748e-004 3.34025797e-004 7.40115574e-005 -1.53727997e-005
      -3.02274766e-005 7.10437871e-006 1.50254382e-005 -1.05954990e-004
      -3.03435481e-005 -2.82469809e-005 -1.26518149e-004
      -8.94164114e-005 6.82025711e-005 -4.22132762e-005 -1.00882542e-004
      -1.82742719e-004 -1.17163481e-005 2.66523057e-005 2.28665649e-005
      -1.32872825e-004 -9.78078824e-005 -2.19357407e-005 3.79581911e-006
      1.65753063e-005 3.88015651e-005 3.19394167e-005 -7.20914322e-005
      -3.10662108e-005 4.67812555e-007 -1.51712300e-007 1.14118220e-005
      1.34079255e-005 -1.49577449e-004 -1.48942505e-004 -1.11494837e-005
      3.20478398e-006 1.19007964e-005 2.05112719e-005 3.09238676e-005
      7.52185451e-006 -3.57990939e-005 -6.96287316e-006 -4.23901201e-006
      7.96604145e-005 6.71826201e-005 5.60668268e-005 1.38478827e-005
      1.52829016e-005 9.55020150e-005 1.69189570e-005 5.07605682e-006
      1.12061230e-006 5.09516212e-005 1.28937745e-005 4.40005442e-006
      9.13021177e-006 2.09467748e-006 1.42870140e-005 2.00262930e-005
      2.73438694e-004 -4.58693939e-005 4.47729341e-004 2.66068353e-004
      -1.77908787e-005 -1.49829921e-005 -1.88270678e-005 1.44696271e-004
      -5.94050243e-006 -1.12624890e-004 1.14658236e-004 1.01517362e-004
      3.22172447e-004 1.87940590e-004 2.05217133e-004 -2.51857364e-005
      -7.53619024e-005 3.14267818e-004 1.86774123e-004 -1.49077736e-004
      1.89463884e-004 3.38643353e-004 4.50515421e-004 -4.94305801e-004
      -3.45107313e-004 2.01420462e-005 3.49147413e-005 2.32842227e-004
      2.76622741e-004 -4.31024746e-005 3.99667158e-004 4.82272531e-004
      -6.23313972e-005 4.48544997e-005 2.73651385e-004 4.42860852e-004
      -1.70140862e-004 2.35397005e-004 6.19374405e-005 -6.81782840e-005
      -6.79863879e-005 1.08707300e-005 -5.59461914e-005 -1.41300945e-004
      2.02836254e-005 -3.77817814e-005 -1.07547588e-004 -1.27468069e-004
      6.90964443e-005 5.49026254e-006 -3.04557871e-005 -1.01435653e-004
      -3.03802299e-005 -4.06708250e-006 -4.20238075e-006 1.60902036e-005
      -6.71636008e-005 5.17676199e-006 8.95574885e-006 -4.77404319e-006
      5.11713688e-006 3.19073042e-005 3.79348494e-005 2.51052666e-006
      5.91519347e-006 -5.88123498e-007 2.90813796e-006 4.33375635e-006
      -1.00479032e-004 -1.17611577e-004 -3.86656029e-005
      -2.85392775e-006 1.48304935e-005 2.08455913e-005 5.30480747e-006
      -1.14143741e-005 -2.44777984e-005 2.84344492e-006 -4.78526090e-007
      2.39653436e-005 4.80048657e-005 3.06299589e-005 1.17375030e-005
      2.12314280e-005 5.11518047e-005 2.04183216e-005 1.12809757e-005
      2.97919860e-006 4.82639080e-005 3.35773825e-006 1.76799967e-005
      1.58041184e-005 -1.70884107e-006 2.66111583e-005 1.82779440e-005
      2.27822122e-004 -2.93527482e-005 2.84615147e-004 1.32434769e-004
      -2.11979888e-004 5.27184340e-004 -1.91747677e-004 6.82121317e-004
      4.37513518e-004 -2.07300604e-004 -7.42529402e-004 -1.10504923e-004
      1.83558495e-005 -2.62050627e-004 1.26464860e-004 5.69046751e-005
      1.01175203e-004 6.44138490e-004 2.83952395e-005 -2.07496967e-004
      3.40206498e-005 4.66025609e-004 5.37191983e-004 6.45114458e-004
      -3.23241984e-004 1.24051992e-004 1.03211234e-004 -1.44789999e-004
      -1.56644863e-004 1.81831592e-006 3.98698234e-004 2.74226273e-004
      3.47070920e-004 2.67849769e-004 -2.17998095e-004 2.52816186e-004
      -3.88361281e-004 1.17543190e-004 -3.41585946e-005 -1.56197075e-005
      -7.14615089e-005 3.64815132e-005 -1.03497277e-005 -4.04381701e-008
      2.58928703e-005 2.48941869e-005 -8.48742930e-005 -1.05966159e-004
      1.69862651e-005 2.06264631e-005 2.70673045e-005 -9.99795011e-005
      -1.14005652e-005 4.84971861e-006 3.48368826e-006 -4.85162236e-005
      -1.34130067e-004 -2.43740051e-005 1.55108035e-006 1.82106360e-005
      1.84282799e-005 3.04032383e-005 2.87312396e-005 -1.78113951e-005
      7.83130508e-006 8.91080788e-007 2.47586058e-006 -1.83269294e-005
      -1.50510154e-004 -1.00980520e-004 -2.48769484e-005 1.21783955e-006
      -3.11786152e-006 2.20542133e-005 5.70999073e-005 -3.11146869e-005
      -4.70670420e-005 -6.13556176e-006 9.06946923e-007 5.75286467e-005
      1.09734137e-005 4.58996183e-005 1.90945939e-005 9.48791057e-006
      6.50275033e-005 1.96161000e-005 1.05245190e-005 1.57961369e-006
      5.04819945e-005 1.10723622e-005 -2.69378404e-007 1.67623275e-005
      -2.52348718e-006 2.77589006e-005 1.78725804e-005 2.12297848e-004
      -2.00136739e-004 -1.89590297e-004 -7.24271813e-004
      -2.39206798e-004 2.31194324e-004 1.20159903e-005 8.66603295e-005
      3.13564524e-004 3.59584112e-004 2.62619666e-004 -3.63322702e-004
      -2.64630362e-004 -8.47714546e-005 2.51102232e-004 -1.11916961e-004
      -1.66351718e-004 1.05332270e-004 3.44540662e-004 2.57043925e-004
      -2.77283572e-004 -9.14228294e-005 2.79905624e-004 2.17493478e-004
      1.44521706e-004 2.64416914e-004 2.21223701e-004 -3.23191271e-005
      -9.64733772e-005 7.89227852e-005 -6.19062339e-004 1.58426206e-004
      3.01343272e-004 4.10753099e-004 6.47593770e-005 2.93896883e-004
      -2.31921964e-004 1.68819301e-004 -5.26913618e-006 -6.45970545e-007
      -1.64409994e-005 1.14633103e-005 6.35206516e-006 -5.60184490e-005
      -5.78968502e-006 5.07098912e-006 -1.21729936e-004 -3.97825643e-005
      9.57911880e-007 -1.71148331e-005 -8.23580995e-005 -1.44322650e-004
      8.47538286e-006 2.62124559e-006 4.49282516e-006 -4.32300803e-005
      -1.38301271e-004 -3.26771478e-005 9.62556533e-006 2.74318372e-005
      1.61771495e-005 1.20238838e-005 5.59533000e-005 -3.10744581e-005
      7.26930375e-006 -4.12443399e-007 -6.83327744e-006 1.19749041e-006
      -8.47552583e-005 -8.25273164e-005 -8.39360473e-006 1.90712262e-006
      1.58236980e-005 5.39436769e-006 7.91887305e-006 1.35776554e-006
      -1.87849582e-005 2.58343630e-006 1.03093953e-006 7.47179438e-005
      1.95873527e-005 3.19000101e-005 2.93995959e-006 4.73328728e-005
      6.38090132e-005 2.54401784e-005 8.95473568e-006 -1.48061429e-006
      2.60444504e-005 1.64261510e-005 1.61365861e-005 2.26627999e-005
      -3.34025026e-006 3.54687909e-005 1.54512691e-006 1.74369270e-004
      -1.40885139e-004 -6.76126001e-006 -1.43489262e-004 1.10505855e-004
      1.60947151e-004 -4.06580875e-005 -1.23479927e-004 5.31653350e-004
      -2.09905029e-005 -1.31137844e-004 -2.12038984e-004 1.94678083e-004
      -5.95307152e-004 -4.83752170e-004 -3.08092451e-004
      -3.94335919e-004 6.20164268e-004 2.85110320e-004 4.47427650e-004
      -4.53401037e-004 -1.84287215e-004 -1.41445227e-004
      -3.28308932e-004 -4.17593867e-004 -1.85148834e-004 1.72752392e-004
      -3.69850342e-004 2.90935277e-004 -5.90102922e-004 -2.38180015e-004
      -3.54581862e-004 -2.68746429e-004 -4.09881817e-004 1.71637323e-004
      -3.38564896e-005 1.85509285e-004 2.24089628e-004 5.47698255e-006
      1.41785665e-006 -2.37817258e-005 2.99484564e-005 1.52509001e-005
      -2.44066050e-005 6.70431120e-007 1.02865988e-005 -4.81078278e-005
      -5.08247977e-005 1.91879894e-006 -8.53377151e-006 -8.96099227e-005
      -1.93214742e-004 8.69364430e-006 1.12795296e-005 6.74188550e-006
      -1.93437936e-005 -7.10544045e-005 -2.73915202e-006 4.15886547e-007
      2.54804272e-005 5.44275963e-006 -1.24621351e-006 9.02314787e-005
      1.01628739e-005 -1.28150905e-005 3.49438756e-006 6.69923793e-006
      -2.32294897e-005 -1.00608195e-004 -1.18302531e-004
      -5.19081477e-005 7.06013998e-006 5.37811047e-006 2.52411155e-005
      9.15814417e-006 -2.69447446e-005 -5.42279340e-005 -8.75033948e-006
      3.74445631e-006 9.06911737e-006 -1.78899791e-006 5.43050301e-005
      -1.06996754e-006 1.66441259e-006 4.85699602e-005 2.75720868e-005
      1.10265182e-005 1.42496515e-006 4.78577167e-005 1.18087564e-005
      1.79619547e-005 5.46732599e-006 -2.85260228e-007 1.43886546e-005
      -2.75719526e-006 1.76150614e-004 -6.15392346e-005 -1.01089463e-004
      -6.75178599e-004 -7.19769101e-004 9.62982595e-005 -2.41296701e-004
      4.24616301e-005 1.29210239e-004 -1.56383830e-004 2.73313257e-004
      2.22303337e-004 -1.31292603e-004 -4.36328322e-004 -2.32956329e-004
      -2.51668593e-004 1.53537374e-004 1.92053165e-004 -1.46165083e-004
      8.19564884e-005 -2.04480719e-004 -4.01146302e-004 -4.64976329e-004
      -7.54377834e-005 -1.33370282e-004 -1.11864472e-004 3.09883151e-004
      -7.01354642e-004 -9.61374753e-005 -4.54169582e-004
      -1.94098990e-004 -5.36988198e-004 2.59220978e-004 -1.03542669e-004
      -3.52116331e-004 1.00347206e-004 -2.72478239e-004 2.29051104e-004
      2.04875942e-005 -3.20236904e-006 3.54919612e-005 4.28971871e-005
      2.30954993e-005 -2.37488221e-005 1.63010573e-005 -6.43284329e-006
      -1.03256614e-004 -1.86769888e-004 8.34565799e-006 -1.28584634e-005
      -1.30619563e-004 -3.39628546e-004 1.04467108e-005 2.41788621e-005
      1.01969681e-005 -4.97933579e-005 -1.05536026e-004 -5.23477465e-005
      -1.34434401e-006 5.50530349e-005 2.23180814e-005 5.39183893e-005
      4.50990810e-005 -1.74077868e-005 -7.32588705e-006 -5.67824918e-006
      1.30577146e-005 7.87650879e-006 -1.40397533e-004 -1.29958455e-004
      -3.59517944e-005 -6.26943392e-006 9.92358764e-006 1.87794649e-005
      -6.74050398e-006 1.04172468e-004 -2.55060386e-005 -9.71581539e-006
      -3.23636050e-006 1.05067884e-004 1.57252231e-004 3.93636765e-005
      6.76676018e-006 4.78117909e-006 4.74833578e-005 2.42845308e-005
      1.28330676e-005 2.33496712e-006 3.70045891e-005 2.66519291e-005
      2.33559767e-005 -4.72175998e-006 1.15145883e-006 1.37350139e-006
      1.29435793e-005 1.55108602e-004 2.14574160e-004 3.25528614e-004
      1.55620830e-004 -5.88853844e-004 1.61844131e-004 -8.72873861e-005
      3.53067182e-004 4.07642801e-004 6.01617910e-004 4.63936012e-004
      4.17999079e-004 -4.39417818e-005 3.14303063e-004 -3.11316544e-004
      -3.13870958e-004 -2.49467412e-004 3.54988122e-004 2.17051478e-004
      -1.74073502e-004 -2.25777767e-004 -3.85154213e-004
      -2.68164673e-004 -8.10091951e-005 -1.53577479e-004
      -1.77269510e-004 1.82850476e-004 -1.10671128e-004 -3.35040939e-004
      -4.20417753e-004 -3.58654303e-004 -3.07677721e-004
      -3.54648801e-005 3.74902156e-004 -6.84304687e-005 -4.75663473e-005
      7.03003752e-005 2.48638098e-004 3.63230829e-005 -1.05166855e-005
      -6.13920793e-006 7.76183697e-006 -4.58725226e-005 -9.25042768e-005
      1.09608400e-005 1.80814550e-005 -1.16539108e-004 -1.90164297e-004
      3.09096067e-005 8.52692210e-006 -1.03440361e-004 -3.48736794e-004
      -1.80135175e-005 2.99631029e-005 2.63137667e-006 -5.11043290e-005
      -1.82582298e-004 -5.92397810e-005 -2.49996856e-006 4.40297481e-005
      2.85463793e-005 3.81972714e-005 5.88857183e-005 -2.38664907e-005
      -1.40402944e-005 2.31630179e-006 2.09790996e-005 2.06993354e-005
      -1.00215148e-004 -1.21114150e-004 -5.04770287e-005 5.18283969e-007
      1.73780409e-005 1.81463747e-005 9.34201598e-005 5.35307045e-005
      -1.92747830e-005 8.66410858e-007 -3.59534124e-006 1.40379736e-004
      1.43159341e-004 7.79694528e-005 4.59773582e-006 1.77871043e-005
      5.40874134e-005 3.58153993e-005 1.59668543e-005 -4.95792938e-006
      6.07352813e-005 2.39667079e-005 2.30385776e-005 1.60413747e-005
      3.16170349e-006 -4.76048808e-006 1.02099966e-005 1.51427987e-004
      -4.99254325e-004 3.62638413e-004 -7.69474427e-005 -2.32791834e-004
      -6.61727172e-005 6.51751270e-006 -2.32480990e-004 4.25140286e-004
      -1.85268495e-004 2.16703207e-004 3.50985611e-005 5.69734175e-006
      1.11820773e-004 -6.96403149e-004 -1.76857448e-005 1.07253414e-004
      8.57905616e-005 -1.91525949e-004 -4.26010985e-004 -6.27138244e-004
      -2.04431257e-004 3.36554476e-005 -1.47139639e-004 1.73946159e-004
      -4.22056910e-004 -2.96561222e-004 8.65209950e-005 8.57106716e-005
      3.27924477e-006 -2.82618828e-004 -7.15040642e-006 -7.62116804e-004
      -7.03823986e-004 3.25822009e-004 7.09126107e-005 -3.34091252e-004
      2.35218889e-004 2.03843756e-005 1.80569932e-005 8.63007608e-006
      2.29463294e-005 2.00060967e-005 -4.50220759e-005 1.08462127e-005
      3.06966576e-005 -2.86845516e-005 -1.72686618e-004 1.47459341e-005
      -2.72989600e-005 -8.71385419e-005 -1.73199718e-004 1.49499383e-005
      6.28470343e-006 -2.14398424e-005 -7.29682506e-005 -1.27473540e-004
      -5.42473208e-005 1.25373629e-006 1.66170885e-005 1.74433844e-005
      1.76820959e-005 -8.56765655e-006 -6.91966125e-005 -1.75821897e-005
      -4.45051501e-006 6.47486104e-006 1.86866174e-007 -7.15086862e-005
      -6.88216387e-005 5.25296309e-006 8.07705237e-006 2.02843203e-005
      3.49833681e-005 5.58533357e-005 -4.61522291e-007 1.13753267e-005
      -1.41417877e-005 8.37326479e-006 -2.65681615e-006 9.36602592e-005
      4.27928244e-005 2.03230320e-005 -8.05194213e-006 5.83030196e-005
      1.42957906e-005 1.51873701e-005 -4.85216060e-006 3.44031400e-006
      1.07967599e-005 1.62022770e-005 -1.35478858e-005 -4.88796832e-006
      -1.27735238e-005 2.60720790e-005 2.03962729e-004 2.32571343e-004
      1.74638888e-004 4.99719208e-005 1.71931664e-004 -2.20204354e-004
      -2.96352868e-004 1.09431814e-004 3.85842606e-004 4.69892082e-004
      -1.70735530e-006 2.98118539e-004 5.92155324e-004 3.35013319e-004
      3.15312471e-004 -2.12829444e-004 -7.68887674e-007 -4.24012214e-005
      1.57693430e-005 3.48375877e-004 3.78333760e-004 -1.57555929e-004
      -9.57855955e-005 -7.46416990e-005 -6.70526526e-004
      -2.74591468e-004 -1.56403796e-004 3.50114628e-004 1.30898363e-004
      1.81296607e-004 1.86677324e-004 -2.68029602e-004 1.96295034e-004
      -3.97171330e-004 -5.86491042e-005 -4.08718406e-005
      -2.40362046e-004 1.39259369e-004 2.48274027e-005 3.69847908e-006
      -1.70083895e-005 3.43972933e-005 2.34306171e-005 -6.23090309e-005
      8.17384773e-007 1.36205499e-005 -5.58674765e-005 -1.83045646e-004
      1.45477952e-005 -3.05330541e-005 -4.25493818e-006 -1.00624377e-004
      -1.21365622e-006 2.92129153e-005 5.15956117e-006 -1.24335245e-004
      -5.09112942e-005 -1.94432450e-005 1.48277604e-005 2.94934052e-005
      2.04367698e-005 3.91144131e-005 1.16535775e-005 -3.96444811e-005
      -1.30604049e-005 3.69221402e-006 -8.29641067e-007 -2.25423337e-005
      -1.05456595e-004 -8.80710359e-005 -1.86547077e-005
      -1.68737097e-006 1.31464949e-005 5.39161647e-006 6.47315619e-006
      3.28780843e-005 -4.44662001e-005 -1.19512988e-005 4.72477240e-007
      5.59759865e-005 1.32025700e-004 6.42789601e-005 1.55511370e-005
      6.95128529e-006 6.37261255e-005 5.52181928e-006 3.22275491e-006
      2.47640173e-006 1.82883159e-005 1.80466759e-005 1.98694615e-005
      7.50771960e-006 3.78803929e-006 -1.96277470e-005 4.27256191e-006
      1.27483901e-004 8.11913196e-005 2.02292344e-004 3.78276192e-004
      2.13014471e-004 -2.13867039e-004 -1.59961448e-004 1.84229619e-004
      1.87588987e-004 4.73530905e-004 1.01578051e-004 3.25231405e-004
      3.62761552e-004 -2.67846717e-005 3.89757653e-004 2.02036201e-004
      1.50551408e-004 2.93918041e-004 -1.79329698e-004 1.78566421e-004
      -5.85503367e-005 2.47706397e-004 -2.83474568e-004 -3.65821470e-005
      1.15116032e-004 7.08013831e-005 -3.01235232e-005 -5.76608058e-004
      1.39962387e-004 2.20324189e-004 3.00790969e-004 2.94922007e-004
      -1.56029360e-004 -2.65419978e-004 -1.11981091e-004 5.32981721e-005
      -3.23494227e-004 1.72730390e-004 1.16644605e-005 -5.70997436e-005
      -5.64137008e-005 3.14076824e-005 -4.30980162e-006 -8.72078890e-005
      4.22075536e-005 7.78212961e-006 -7.65213408e-005 -2.33171795e-005
      8.10998063e-006 9.37392088e-006 -4.85522178e-005 -1.63685851e-004
      6.88257660e-006 9.75049079e-006 -8.68127972e-006 -5.81686581e-005
      -7.49225146e-005 2.17025763e-006 1.58942948e-005 2.51716210e-005
      -2.66785173e-006 4.84539050e-005 8.07230390e-005 -2.07724570e-005
      -2.44637863e-006 1.10946962e-006 -4.09970698e-006 -3.02666995e-005
      -5.85804883e-005 -9.40867540e-005 -2.05030901e-005 6.57957253e-006
      5.39393795e-006 6.72745182e-006 6.33121090e-006 1.47155451e-005
      -2.12570030e-005 -1.44032292e-005 -6.09618269e-007
      -2.90583685e-005 1.01973324e-004 1.61102562e-005 8.17823548e-006
      4.50209836e-006 7.03980404e-005 2.62884059e-005 1.52707089e-005
      -7.47297179e-007 2.52394075e-005 1.05272284e-005 2.25116128e-005
      -4.45149817e-006 2.07560447e-006 9.75442276e-007 4.51224469e-006
      1.41088502e-004 -1.60598909e-004 -3.69344081e-004 -9.79803881e-005
      3.80353798e-004 2.75129511e-004 7.26080616e-005 3.75829171e-004
      3.42085026e-004 -6.00241947e-005 -1.47915605e-004 5.42892303e-005
      2.22810995e-004 7.86298988e-005 -6.82391255e-005 -1.53683723e-004
      2.70336022e-004 5.36700918e-006 3.35221412e-004 -8.58355415e-005
      -3.29938892e-004 1.66713638e-004 2.66412389e-004 -2.10022554e-004
      -2.62911271e-005 -3.47332534e-004 -1.74923567e-004 4.65117591e-005
      4.64538811e-004 -2.22143863e-004 -1.63970020e-004 9.38271696e-005
      -2.35361622e-005 -8.79452855e-005 1.68226106e-004 -1.49296422e-004
      -1.22158075e-004 1.23230391e-004 -5.90662239e-005 1.51549621e-005
      9.01332442e-006 1.89487910e-005 4.84270277e-005 7.34036730e-005
      1.64238245e-005 5.05623939e-005 1.28105981e-004 7.65446111e-006
      -2.17103097e-005 -2.69879802e-005 1.68136485e-005 1.57054383e-004
      9.75189323e-006 6.52843028e-006 -5.73284569e-006 -1.50958949e-005
      -2.52324480e-005 -4.55821873e-006 9.83922746e-006 2.46321906e-005
      -2.89370155e-006 -4.74449917e-005 -6.10072966e-005 4.97085239e-006
      -9.06963123e-006 5.61101206e-006 -1.20569202e-005 -2.92329059e-005
      -4.97459914e-005 2.67737723e-005 1.37931174e-005 1.60187119e-006
      7.81490053e-006 -6.12857264e-007 -5.50249461e-005 -5.42650268e-005
      -2.40197478e-005 -2.25158383e-005 1.50701942e-006 -9.60893885e-005
      -9.60125835e-005 -2.23846419e-005 -1.01508140e-005 8.97831160e-006
      -1.11384034e-004 -1.07920769e-005 6.33731986e-007 -4.12261670e-006
      -3.85435487e-005 1.89244633e-006 6.33268155e-006 -1.27012054e-005
      -3.50344635e-006 2.47603693e-005 -6.65515302e-007 1.12408961e-004
      3.71386705e-004 1.07345360e-004 -1.72366868e-004 2.42726674e-004
      2.42105845e-004 -3.04793339e-005 2.68061587e-004 -1.81803814e-004
      -2.34628998e-004 -2.75380095e-004 -2.95500824e-004 6.35506658e-005
      4.61236894e-004 -1.85991841e-004 2.93489866e-005 -1.57300601e-004
      -1.53517874e-004 2.47438380e-004 3.98431730e-004 6.71124872e-005
      1.05824285e-004 -2.08330704e-004 5.09199162e-005 -3.98384145e-005
      -2.59521708e-004 -5.18152141e-004 -5.77048166e-004 1.82400545e-004
      4.72204149e-004 -1.98382360e-004 -4.32196597e-004 1.30423665e-004
      -6.91882015e-005 -1.77513342e-004 -2.38224064e-004
      -2.97237566e-004 4.55295012e-005 -1.31719662e-005 -4.66342408e-006
      -1.08039876e-005 1.68838433e-005 3.22182459e-005 3.24941539e-005
      1.58214534e-005 2.43591385e-005 1.14416413e-004 3.77626893e-005
      5.61556044e-005 5.43656779e-006 4.80590061e-005 1.99624646e-005
      1.66621321e-005 -1.73443175e-006 -9.66168773e-006 -2.28072749e-005
      -2.60509273e-006 -8.61811895e-006 7.42081693e-006 1.99921760e-005
      5.90085756e-006 -9.28425743e-006 -1.28244879e-004 1.25995175e-005
      -5.66226572e-006 4.58724935e-006 -1.19199804e-005 -5.11039798e-005
      -8.03701623e-005 -3.87628315e-005 1.81900486e-005 1.44194200e-005
      1.55105990e-005 -1.83013162e-005 -3.07097034e-005 -1.47993424e-005
      -3.28623282e-005 -1.31930983e-006 -1.74326078e-006
      -1.40743403e-004 -2.69836728e-005 -1.68323568e-005
      -4.20179185e-006 -9.46147065e-006 -5.23635972e-005
      -3.65984420e-006 1.16799845e-006 5.98333685e-008 -1.37456054e-005
      1.00353127e-005 1.30896442e-005 -2.86847899e-006 -3.42566000e-006
      4.00993595e-005 1.05368790e-005 1.34064554e-004 4.09397908e-005
      -1.39070442e-004 1.14203751e-004 -1.40279648e-004 -1.58035546e-004
      2.30348698e-004 -3.42202577e-004 1.05588908e-004 1.46805280e-004
      -1.07578009e-004 -3.42432671e-004 -4.95426997e-004 3.16404148e-005
      -8.23461141e-006 -1.23013277e-004 -4.40033036e-004 4.09829663e-005
      5.38490640e-005 2.05612261e-004 3.99907789e-004 -1.56930237e-005
      -2.70596036e-004 4.59181283e-005 -5.38604509e-004 -2.00508352e-004
      -6.00294559e-004 -5.89096089e-005 -9.73947535e-005
      -5.30882680e-004 -3.82497674e-004 1.10239460e-004 -2.10192986e-004
      -1.59918447e-004 -1.80579969e-004 -7.87303550e-004
      -1.36182265e-004 1.91742860e-004 9.20743423e-006 1.59296396e-005
      4.36714890e-006 5.41185982e-005 2.40116606e-005 5.76731109e-005
      1.22370966e-005 3.91939175e-005 -5.20697940e-005 1.36070985e-005
      1.26477471e-005 -2.07495559e-005 -6.26972032e-005 -1.23697493e-004
      1.31471279e-005 1.28483543e-005 -9.13255099e-006 -6.13082302e-005
      -1.22941827e-004 6.15692352e-006 1.44061496e-005 1.44657906e-005
      2.33658629e-005 -2.53446269e-005 -1.24838814e-004 -2.14356387e-005
      3.51299627e-006 3.76326670e-006 -7.79306083e-006 -1.81904343e-005
      -1.68665229e-005 4.74114750e-005 -2.05121046e-006 6.05062132e-006
      2.42876231e-005 1.84329856e-005 4.63704919e-006 6.34551252e-005
      -1.82815384e-005 2.10203871e-006 1.46171635e-006 -1.13289054e-004
      8.27698568e-006 4.43249155e-005 -5.29428689e-006 -2.91071842e-006
      -8.41333313e-005 1.59408883e-005 1.03546545e-005 -1.49274706e-006
      -2.44245548e-005 -2.84925318e-006 1.94952336e-005 -9.94878746e-007
      4.36394566e-006 -3.46836441e-006 6.87029296e-006 1.22387355e-004
      1.64925877e-004 -3.97120020e-004 1.89369792e-004 -1.89277362e-005
      3.34830169e-004 2.37286891e-004 -1.03448474e-004 -2.89298623e-005
      -2.52524915e-004 3.35777295e-004 -3.94754228e-004 -5.80027809e-005
      -1.76130445e-004 -3.49364098e-004 -2.86935450e-004
      -1.37519441e-004 -5.03735318e-005 -1.62677316e-004
      -2.85525486e-004 -4.34041431e-004 -2.29529396e-004
      -3.75481613e-004 -7.72105050e-005 -1.28779226e-004
      -1.63179313e-004 -6.38297468e-004 -2.25398489e-005
      -4.63471719e-004 -6.68485067e-004 4.26471379e-005 -1.24713843e-004
      1.48219857e-004 -2.71123892e-004 -2.83602538e-004 -7.39121519e-004
      -5.03553611e-006 2.98311264e-004 -2.85266105e-005 8.90138926e-006
      8.15662224e-006 3.12209668e-005 4.38873067e-005 -1.28329784e-005
      2.13202002e-005 3.79816993e-005 2.44238636e-005 -8.93002725e-005
      -1.45789581e-005 8.82748736e-006 -7.31086184e-005 -1.10665707e-004
      5.69905933e-006 8.67921699e-006 -2.21334767e-006 -1.27137813e-004
      -1.21109508e-004 4.38509778e-006 3.63219419e-006 4.26745137e-005
      1.94979439e-005 -3.80246347e-005 -2.01088609e-004 -4.52751265e-005
      -7.83929954e-006 3.80756114e-006 1.22624670e-006 1.50728201e-005
      1.56207170e-006 -2.55632331e-005 3.93653718e-005 2.29995803e-005
      1.80024399e-005 2.36097803e-005 -1.90605970e-005 -4.67936188e-005
      -1.36009721e-005 -2.51789720e-006 3.80130928e-006 -1.26569876e-006
      3.97514013e-005 2.63615584e-005 2.71904833e-006 1.54370409e-005
      -1.60706022e-005 -2.97202700e-006 1.19342239e-005 -1.45708634e-006
      -1.28511474e-005 3.48953290e-006 2.02863630e-005 8.06824937e-006
      -3.27302064e-006 1.47067849e-005 2.00745781e-005 1.57252609e-004
      -4.01043741e-004 -4.59860166e-004 -3.97141819e-004 1.81190597e-004
      1.12698644e-005 -1.22274796e-004 -5.18067100e-005 -6.97940268e-005
      -1.92620864e-004 -3.70383525e-004 -2.46211188e-004
      -3.62482329e-004 -6.83879072e-004 2.97003484e-004 2.09672129e-004
      9.08644943e-005 2.42033100e-004 7.85523807e-005 -3.10104282e-004
      -3.80300335e-004 -4.45441721e-004 -2.16806424e-004 2.83814996e-004
      -3.52497969e-004 7.16718278e-005 -1.76183050e-004 7.45841171e-005
      -2.74193328e-004 -3.67531087e-004 9.90160697e-005 -9.01543244e-005
      -1.57553048e-004 -5.90774405e-004 -4.76499787e-004
      -7.34472414e-005 -5.71753517e-005 2.54303217e-004 -1.14545701e-005
      2.24486630e-005 -6.83688950e-006 3.71363967e-005 2.85249826e-005
      -5.25262039e-005 3.24461398e-005 6.39981736e-005 8.17659384e-005
      -5.34116443e-005 -3.10181313e-005 2.23149732e-006 1.59137335e-006
      -2.18187452e-005 1.44352607e-005 2.81716366e-005 7.17777039e-006
      1.42626868e-005 -3.57814934e-005 2.34067684e-005 2.15426608e-005
      3.75587369e-005 4.89855047e-005 5.08227868e-006 -9.23000698e-005
      -6.88635828e-006 1.91570780e-005 3.41289001e-006 2.25650183e-005
      -2.06674940e-005 -1.37214432e-004 -1.82549102e-005 1.13598644e-005
      2.60887155e-005 1.95188222e-005 1.11578638e-005 -8.31620710e-005
      -2.13824140e-004 -3.44725595e-005 -1.62707402e-005 1.62734423e-007
      1.28690317e-005 -1.37914889e-004 -4.11391266e-005 -1.67133621e-005
      4.33048945e-006 -4.55633781e-005 4.42250666e-006 2.04581994e-007
      4.46265460e-007 2.70306555e-005 3.07484379e-006 2.92170648e-006
      -5.02689954e-006 6.27570046e-007 6.56529528e-006 1.46763955e-006
      1.79804847e-004 1.36258268e-005 -3.11348813e-005 7.89359765e-005
      -3.63093102e-004 2.37414170e-005 -2.25043204e-005 -4.32460401e-005
      -1.62576674e-004 -1.46351289e-004 9.07086505e-005 -1.50497988e-004
      -2.31535771e-004 -7.37413357e-005 9.48610759e-005 -8.97003047e-005
      -1.33274434e-005 4.52868735e-005 3.45440640e-005 -1.42929450e-004
      -6.97514624e-005 -6.75315154e-004 3.36391240e-005 2.61742476e-004
      -2.89794494e-004 8.67329363e-005 -1.15893235e-004 -2.63834518e-004
      -4.93279076e-004 -2.79603642e-004 -2.10776634e-004
      -2.76963576e-004 4.45197045e-004 2.13402105e-004 1.28825908e-004
      4.59711227e-005 -2.56567891e-005 2.15012755e-004 1.18313537e-005
      7.22068717e-006 8.56028873e-006 2.38698321e-005 3.80084093e-005
      1.20550885e-005 1.69307550e-005 3.39616781e-005 1.52348715e-004
      3.41029299e-005 -4.01890757e-005 -2.61159221e-005 -2.07903540e-005
      -6.87874199e-005 -7.74829232e-007 6.95941708e-006 -3.59242913e-005
      -4.89619633e-005 -2.95444806e-005 -2.51848383e-006 2.38202369e-006
      3.82624094e-005 1.38277428e-005 -3.35574696e-005 -5.64874535e-005
      -1.59944520e-005 2.33031801e-006 2.01050526e-007 7.64827746e-006
      -5.05743492e-006 -6.39087521e-005 2.62422436e-005 3.73556031e-005
      6.74064358e-006 1.75380555e-005 2.61531368e-005 -8.38122578e-005
      -1.07420412e-004 1.04158175e-006 -1.52891585e-006 3.95611687e-006
      -3.12624820e-006 -8.27334661e-005 3.64203629e-006 6.44021702e-006
      4.81156803e-006 -1.13725917e-004 1.42089948e-005 1.05979734e-006
      1.10558824e-006 -3.08469826e-005 1.02439590e-005 2.39443143e-005
      -2.99078747e-005 4.77794356e-006 -2.49313962e-005 -1.19522292e-005
      1.23822552e-004 -3.48504254e-004 -3.32603755e-004 5.80104825e-005
      -2.32201292e-005 -4.64086552e-005 2.73426296e-004 1.67030565e-004
      6.57523851e-005 -8.53379242e-005 -9.12445103e-005 -6.30349270e-004
      3.08593997e-004 6.19219791e-004 3.91466092e-005 -5.92282158e-004
      4.02214791e-005 -7.08724247e-006 -5.05240569e-005 -5.36674692e-004
      1.18912889e-004 -5.61574649e-004 2.43200018e-004 4.16431547e-004
      -1.43040408e-004 -1.11730471e-004 1.66721700e-004 -3.31914547e-004
      2.42438837e-004 -1.61191463e-004 2.98525993e-004 -1.33384630e-004
      -4.53066423e-005 -3.09294293e-004 -1.61345219e-004 1.32336238e-004
      -3.62576946e-004 1.15278686e-004 -1.49393509e-006 1.95724606e-005
      -6.09754125e-006 3.62587016e-005 2.26943430e-005 -6.87224456e-005
      2.24898922e-005 2.94700840e-005 5.25022842e-005 2.61007463e-005
      -2.84585585e-005 3.78950717e-005 5.48396092e-005 5.36997723e-005
      4.01712214e-006 1.77648672e-005 -1.02716649e-005 -1.67712606e-005
      1.82845014e-007 1.57807754e-005 9.16517001e-006 1.87999158e-005
      4.85799546e-006 -2.39332931e-005 -6.58747813e-005 -2.03449817e-005
      8.21133744e-006 2.34912136e-006 4.81387178e-006 4.96127768e-006
      -1.52749912e-004 -1.37738552e-005 1.68654915e-005 8.66079608e-006
      1.11664585e-005 9.90069475e-006 -1.11350464e-005 -1.57771239e-004
      -1.56383467e-005 1.17535155e-005 3.35781806e-006 -1.00831305e-004
      -3.92950678e-005 2.61654695e-005 -7.20526896e-006 1.06586594e-005
      -9.64217033e-005 4.66382699e-006 1.10040201e-005 8.82219297e-007
      -7.54266648e-006 2.43682080e-005 2.28662448e-005 8.41475776e-006
      1.25819918e-006 -1.12417601e-005 1.41410464e-005 1.07741260e-004
      1.83222233e-004 -4.37718030e-004 3.00414376e-005 -2.76261591e-004
      4.92571795e-004 2.77793588e-004 6.61969170e-005 4.21600445e-004
      1.69256193e-004 -1.48780236e-004 3.27274989e-004 3.53021751e-004
      3.14846897e-004 4.79239767e-004 3.06163129e-004 1.89265149e-004
      1.30707151e-004 -2.53856007e-004 -2.83366899e-005 -2.89217569e-004
      -1.53023240e-004 -1.48273568e-004 -1.13196293e-005
      -5.27025026e-004 6.65865082e-005 -4.44625417e-004 3.94004368e-004
      2.41630696e-005 1.37014271e-004 -5.35300002e-004 -9.46834989e-005
      -5.39555804e-005 2.29850208e-004 5.35574218e-004 2.89941148e-004
      2.94429716e-004 9.82635829e-005 -6.85787381e-006 4.30177388e-005
      5.56268651e-006 -8.38544850e-007 4.20201795e-005 3.10239666e-005
      5.15984630e-006 3.08010021e-005 1.23758815e-004 1.47908422e-005
      -3.72965842e-005 -2.47443968e-005 -1.39802742e-005 5.02052462e-005
      1.65916608e-005 -2.82571546e-006 -4.67119025e-005 -6.98128570e-005
      -2.12624291e-005 8.84937799e-006 5.41262398e-006 1.07210617e-005
      -1.98386329e-006 -3.94872659e-005 -5.69383046e-005
      -2.65854778e-005 -2.91246943e-006 -1.14185434e-006 3.75231457e-006
      -2.00543072e-005 3.07326263e-005 -2.89779819e-005 2.40618338e-005
      1.75943696e-005 3.05815001e-006 -1.79415269e-006 -5.15128813e-005
      -5.19010209e-005 1.03139864e-005 1.94048043e-005 2.83515351e-006
      -7.33380002e-005 -1.07519656e-004 2.42562528e-005 1.03755856e-005
      -1.22638284e-007 -3.31552510e-005 4.25711642e-006 8.12987764e-006
      -1.13472765e-006 -2.82679375e-005 1.20269815e-005 5.26098665e-006
      -2.33947176e-005 -2.12580335e-006 -5.47652598e-006
      -8.73726719e-007 1.20790457e-004 3.43126216e-004 4.46476333e-004
      -7.97268076e-005 2.11348408e-004 -2.70946242e-004 6.50583461e-005
      2.72835081e-004 2.23788433e-004 1.55340997e-004 -5.28627934e-005
      -1.20378085e-004 1.08733453e-004 -1.92578722e-004 -4.85111123e-005
      3.53875541e-004 -6.47784473e-005 -1.27935215e-004 -3.17741251e-005
      -8.16298925e-005 -1.35674127e-004 2.54650309e-004 -3.87171225e-004
      -1.81040770e-004 3.11635406e-004 6.09253533e-004 6.16730322e-005
      3.53452138e-004 -1.84147197e-004 -4.48355364e-004 -2.24853313e-004
      3.70316586e-004 5.90944801e-005 2.04399956e-004 3.96440591e-004
      8.41334258e-005 -7.49360843e-005 1.36935399e-004 -1.02815250e-006
      2.49171262e-005 -3.49984584e-005 2.32634811e-005 5.32963350e-006
      3.04763253e-005 9.46193268e-006 2.63513703e-005 -2.63038346e-005
      2.27617875e-005 -2.24105333e-005 -7.02643883e-005 1.14185077e-005
      -1.93084190e-007 -1.34370594e-005 -6.56610473e-006 1.72271541e-006
      -4.19073149e-005 -3.22010965e-005 8.73460340e-006 1.02091490e-005
      1.82770764e-005 2.06917084e-005 4.02227452e-005 -1.94007407e-005
      -2.28509161e-005 1.16363499e-005 -1.20133707e-008 -1.64464273e-005
      -1.90791470e-005 -3.51978742e-005 3.69542904e-005 2.00290851e-005
      4.55079407e-006 8.80347216e-006 -3.50484811e-006 -3.49592628e-005
      -1.48772569e-005 -6.67683753e-006 6.32403726e-006 -2.85805686e-006
      -1.97250720e-005 3.12417887e-006 9.90650642e-006 -1.40226987e-007
      -1.65208403e-005 -7.24461352e-005 1.69068517e-005 9.06762489e-006
      2.12170244e-006 1.94902150e-005 2.82544238e-006 5.24303186e-006
      -6.81915571e-006 -5.08314315e-007 -2.87547191e-005
      -2.44325429e-006 2.47739863e-005 -2.53970647e-004 -2.30878737e-004
      -3.73056318e-005 1.03850989e-005 3.56201752e-004 1.79413953e-004
      1.29144537e-004 3.48953268e-004 -2.39235480e-004 -8.80401058e-005
      1.20536410e-004 -1.97476693e-004 -3.90090427e-004 1.37000970e-004
      9.44924759e-005 1.85408368e-004 -5.38114749e-004 -9.62758495e-005
      9.81484554e-005 -1.91658874e-005 4.09339846e-004 1.87820333e-004
      3.30708863e-004 -3.79606732e-004 -4.09828644e-005 -5.86066126e-005
      1.67671547e-004 -2.90653377e-004 -2.16691595e-004 -1.99658505e-004
      4.46318663e-005 2.26158358e-004 -4.25331818e-005 2.59894558e-004
      -3.43647349e-004 2.49821314e-004 1.92980297e-004 -3.26092777e-005
      -6.99738649e-008 4.97927658e-006 1.62937631e-005 1.31784263e-005
      1.37715615e-005 1.63749592e-005 3.16393853e-005 -8.78490682e-005
      -5.07266814e-005 -7.59600334e-006 1.96103174e-005 1.51898905e-006
      -9.36980869e-005 9.80600998e-006 2.16606823e-005 2.18969271e-005
      -3.31370247e-005 -5.46516712e-005 1.06195266e-005 8.74768921e-006
      2.39056953e-005 2.11605729e-005 -3.52318530e-005 -1.32035362e-004
      -1.64310095e-005 -8.59801446e-007 4.54991505e-006 -3.53567270e-006
      9.03371529e-006 -4.02241130e-005 7.26775397e-005 2.10879944e-006
      -1.77389654e-006 1.08503800e-005 3.37330457e-005 -4.27107625e-006
      -2.53172198e-006 -1.59862320e-005 -1.13442875e-005
      -4.18128820e-006 2.06343515e-007 2.42538517e-005 1.63998502e-005
      -5.82148232e-006 -2.98271752e-005 -7.43897908e-005 9.56456552e-006
      1.74688121e-005 1.08412291e-006 1.07240439e-005 1.51376580e-005
      1.43417410e-005 -1.54739992e-005 -2.08422921e-006 -6.57146211e-006
      -6.41894803e-006 9.90527260e-005 -2.78889434e-004 -1.84361255e-004
      -2.29635451e-004 -2.52045400e-004 3.28614115e-004 -1.74567918e-004
      -1.40923303e-005 -7.21265678e-004 -1.97160334e-004
      -2.42082038e-004 -4.61296935e-004 -2.71925615e-004
      -1.89752391e-004 -1.99712042e-004 -4.71445703e-004 5.15686297e-005
      -4.64097917e-004 -8.97443169e-005 2.31907601e-004 -3.98014934e-004
      -4.50998748e-004 -4.01088357e-004 -3.06937029e-004
      -1.72010055e-004 1.99432136e-004 -9.20790626e-005 5.96802158e-004
      5.91190241e-004 -3.11368436e-004 -3.40977596e-004 -2.98386934e-004
      1.48145511e-004 -4.15414921e-004 -6.18755876e-005 -4.40026542e-006
      3.10618343e-004 2.06152254e-004 -1.21021048e-005 1.25576598e-005
      -9.42907548e-007 5.33394377e-005 3.60830236e-005 2.18504174e-005
      3.01037671e-005 4.94164742e-005 7.20334310e-006 -1.22880767e-004
      -1.66767095e-005 4.77339199e-005 -1.76672020e-005 -1.04215156e-004
      4.56303133e-006 8.89698367e-006 2.08757010e-005 -4.00889148e-005
      -9.80102413e-005 -3.20997315e-005 2.11699125e-006 3.78158620e-005
      -9.31234626e-006 -6.09654744e-005 -1.26916013e-004
      -5.42477428e-005 -2.09316950e-005 2.77933600e-006 1.04072421e-006
      1.75865716e-006 5.32482081e-005 8.45845934e-005 2.76879910e-005
      8.08727782e-006 3.43183601e-005 -2.40910117e-006 1.69080668e-005
      3.19093997e-005 -3.67769189e-006 -4.95939094e-006 1.00300360e-006
      -7.43637283e-005 -8.20647838e-005 8.91673153e-006 -1.21487237e-005
      1.21078911e-005 -5.90331292e-005 4.08459164e-006 6.84342331e-006
      2.60613865e-006 1.98465614e-006 1.07330225e-005 2.07104695e-005
      -1.19594088e-005 -2.01602390e-007 -2.38861394e-005
      -2.81800067e-006 1.24557308e-004 -1.41705837e-004 -3.21041443e-005
      8.18235349e-005 -3.20939842e-004 1.21329889e-004 -4.41011623e-004
      -2.31696089e-004 -4.19229676e-004 -3.53684154e-004
      -2.86449969e-004 -4.80769231e-004 -1.54367910e-004
      -3.92146612e-004 4.40511903e-005 -6.50814385e-004 -4.41493496e-004
      -5.39446773e-004 -7.92363571e-005 -7.10352151e-006
      -4.59359522e-004 -2.91835371e-004 -3.43384367e-004 3.32050258e-004
      -6.02513202e-004 1.14243456e-004 -2.15368753e-004 2.33415354e-004
      3.35598306e-004 -5.96252445e-004 -6.66453969e-004 2.21345370e-004
      2.88728217e-004 -3.96847929e-004 -3.90647270e-004 -4.89886967e-004
      -5.62596397e-005 2.73386424e-004 1.10304936e-005 3.15887664e-005
      -2.26059365e-006 3.94628587e-005 5.72883073e-005 -6.18346394e-006
      1.53595847e-005 5.19523019e-005 1.12885602e-004 -6.12615040e-005
      1.25811703e-005 1.66630562e-005 4.87482030e-005 -2.36697656e-006
      1.48347081e-005 -1.01378748e-006 4.88699584e-007 -4.81682255e-005
      -1.15401330e-004 -2.62954363e-005 2.20595175e-005 2.83568206e-005
      1.98579928e-005 -6.67478380e-005 -1.34975533e-004 -8.35067258e-005
      -2.45445135e-005 1.90418075e-006 1.85751924e-005 1.45476233e-005
      4.57438291e-005 -5.04593027e-006 -8.24922608e-006 1.19417964e-005
      2.61647165e-005 2.66732022e-005 -2.66440165e-005 -3.03939432e-005
      -1.30375383e-005 -1.29572145e-005 1.88783687e-007 -1.05263971e-004
      -9.64224819e-005 -1.21743619e-006 6.87457259e-006 -1.85385816e-005
      -1.37465773e-004 1.36903518e-005 6.23026835e-006 -3.74224510e-006
      -1.73413846e-005 2.21570463e-006 2.14660922e-005 -1.14369514e-005
      -1.30055309e-006 -1.31076577e-005 2.96433836e-006 1.19165663e-004
      -6.66516018e-004 -7.47489859e-004 -4.72393527e-004 2.43073213e-004
      7.65451288e-004 -4.43784753e-004 -2.28075936e-004 -8.06535245e-004
      -1.63221011e-005 -1.24990111e-004 -1.03404105e-004
      -5.18241723e-004 -1.33870228e-004 3.89364373e-004 -3.12056771e-004
      -1.86458899e-004 6.58823774e-005 -1.06201776e-004 1.28917265e-004
      -3.25247471e-004 -3.60157777e-004 -2.29529061e-004 1.98568843e-004
      2.22372182e-004 -2.56511412e-004 -2.91749486e-004 1.16602889e-004
      8.72890669e-005 1.28376720e-004 4.92810213e-005 -1.89473343e-004
      3.20655410e-004 -1.43667712e-004 -9.71145491e-005 -2.75034603e-004
      4.39630530e-004 2.27166136e-004 -1.17940544e-005 7.48025468e-006
      -1.58272087e-005 1.74840789e-005 3.62417959e-005 -4.16404291e-005
      1.72623222e-005 4.76269270e-005 1.69909807e-004 -6.78315337e-005
      4.58772729e-006 2.39926903e-005 7.99102418e-005 -3.87225782e-006
      9.04254648e-006 3.42875501e-005 2.21743558e-005 3.52962888e-005
      7.64947617e-005 -1.24260414e-005 1.59805604e-005 2.83307018e-005
      5.58639804e-005 -2.59323497e-005 3.22452888e-006 1.72237549e-006
      -1.63484783e-005 -3.67255780e-006 8.35146420e-006 -1.27591893e-005
      -6.01170104e-005 -1.56636001e-004 -7.09277447e-005 8.86525322e-006
      1.28727734e-005 2.23246061e-005 -6.38792626e-005 -1.85827463e-004
      -5.75368358e-005 -1.67561702e-005 6.46767944e-007 -8.20132118e-005
      -9.51208276e-005 -2.81238772e-006 -2.63784877e-005
      -2.08815782e-005 -1.43092839e-004 4.90561115e-006 7.19170021e-006
      -1.51439667e-006 2.69559332e-005 1.84286528e-005 3.24886132e-005
      -8.58477415e-006 -2.42269721e-006 8.55209237e-006 5.54096368e-006
      1.35401744e-004 3.16227051e-005 -3.62700703e-005 -6.73790462e-004
      -2.69575336e-004 2.81735323e-004 -3.68832523e-004 -1.05620187e-004
      -3.43681517e-004 -5.61974826e-004 -3.68943991e-004
      -3.75317526e-004 -2.68879521e-004 -2.79718777e-004
      -2.32804650e-005 -2.81136163e-004 -2.70715333e-004
      -9.62610939e-005 3.81571910e-004 2.19928843e-004 -2.03487332e-004
      -6.59008874e-005 -2.02244919e-004 5.91574390e-005 -9.18556907e-005
      -2.28786375e-004 -4.25250328e-004 -1.61524193e-004
      -1.29563283e-004 -1.78330884e-005 -3.05022229e-004
      -3.39414837e-004 3.43713589e-004 2.92831159e-004 -8.34819220e-004
      3.49989423e-005 1.41981916e-004 2.01943258e-004 1.45022414e-005
      1.67429880e-005 1.58088369e-005 4.31110129e-005 4.50168664e-005
      4.14253227e-005 1.96892470e-005 2.62775320e-005 1.63926496e-004
      -1.33815101e-005 1.89971925e-005 -7.35115009e-006 3.88252447e-005
      -9.62093764e-005 6.57675946e-006 8.78838637e-006 -2.65924264e-005
      3.45825640e-007 -3.76134267e-005 -5.84068875e-005 7.69631333e-006
      3.02324879e-005 1.46873799e-005 -4.79236842e-005 -9.46358487e-005
      -2.34914587e-005 -8.84254769e-006 -3.85880003e-006 1.52080693e-005
      2.30860624e-005 -1.19560318e-005 -8.33391532e-005 -4.71247149e-005
      1.25981642e-005 2.71033741e-006 4.55085174e-005 1.65789970e-005
      -3.89398811e-005 -2.25961830e-005 -3.89322713e-006 1.15733606e-007
      -2.35171119e-005 -2.53880808e-005 1.12171265e-005 -4.99439295e-007
      2.29239640e-006 -2.47410993e-004 -1.19714505e-005 1.36878907e-005
      -4.24849668e-006 -3.24571447e-005 8.06308799e-006 1.42134559e-005
      -1.40327174e-005 -8.55605958e-006 -1.31230527e-005 2.13732596e-006
      1.25350300e-004 -5.66464849e-004 -4.46633931e-004 -6.15510740e-004
      7.71502455e-005 -2.54356455e-005 -5.29456185e-004 -3.44834523e-004
      5.09813253e-004 5.25280193e-005 -5.92106444e-005 -1.37648894e-004
      -8.51072182e-005 2.33445462e-004 -1.35081820e-004 -7.56558904e-004
      -1.40019096e-004 -1.72765125e-004 1.47965882e-004 4.05037390e-005
      -1.60815456e-004 -2.15759519e-005 -2.20798102e-004
      -6.21137908e-004 -1.72631742e-004 -8.37598403e-004
      -1.01684156e-004 -2.31589220e-004 3.27722431e-004 -3.60771577e-004
      -2.62272981e-004 -2.62997724e-004 -3.03812820e-004
      -2.57655163e-004 -5.77644503e-004 -8.46459880e-005
      -1.20787350e-004 1.55682821e-004 -8.42979205e-007 7.75194349e-006
      -1.38077769e-006 3.20802028e-005 2.19875747e-005 6.03914145e-007
      1.48781255e-005 3.70189809e-005 7.68992104e-005 2.65359540e-005
      3.74465685e-007 2.04074258e-005 2.12305513e-005 -2.65646777e-005
      2.41978451e-005 4.63227252e-006 -2.82319661e-006 3.91126086e-005
      6.10183451e-005 1.56279839e-005 1.37398602e-005 2.48286779e-005
      1.40688746e-006 4.96658549e-006 -2.33953233e-005 -9.66944299e-007
      5.25937412e-006 2.29986631e-006 6.26375731e-006 1.07164515e-005
      -3.42597632e-005 -1.05508632e-004 -2.55642535e-005 7.58899660e-006
      2.15100481e-005 1.19413799e-005 -3.33153948e-005 -1.60797368e-004
      -2.96721937e-005 -1.50651849e-005 -2.39744304e-006
      -5.15259017e-005 -5.38787972e-005 -9.99432996e-006
      -2.46204181e-005 7.20137905e-006 -2.61824491e-004 1.23856662e-005
      1.39228487e-005 -2.22271865e-006 -2.57875181e-005 2.47420685e-005
      2.21716818e-005 -8.93598735e-006 7.40490350e-007 2.40898880e-005
      3.45075250e-006 1.22077399e-004 -4.79870563e-004 2.94207770e-004
      -1.41019758e-004 -4.84540622e-004 2.10952596e-004 -1.30942179e-004
      2.25317606e-004 1.64158846e-004 9.26175017e-006 4.17259580e-004
      -5.46529045e-005 -2.49404693e-004 2.29308571e-005 -2.08987520e-004
      6.38798592e-005 4.03066690e-004 2.72836565e-004 8.07739925e-005
      4.40343516e-004 -8.63151581e-005 5.22132206e-004 -3.15597368e-004
      -2.29574929e-004 3.82141588e-004 -3.18870356e-004 -3.13033612e-004
      1.92387437e-004 2.23126859e-004 1.24373226e-004 1.22648824e-004
      1.67026286e-004 1.55465314e-004 -3.07236216e-004 -1.15184950e-004
      1.27502906e-004 1.26340165e-004 1.10787456e-004 -8.97631890e-006
      4.18676836e-006 1.48656090e-005 -4.52045388e-005 5.10743921e-005
      9.39407037e-005 1.45822087e-005 2.02814554e-005 9.03522086e-005
      4.14149727e-005 6.68972234e-006 -4.02374390e-005 3.86684187e-005
      2.13649328e-005 2.35304447e-006 -1.04197843e-005 -1.38753394e-005
      -6.32953379e-005 -2.12159066e-005 -1.38409569e-005
      -1.54292331e-006 1.07236692e-005 -1.73254250e-006 -1.73288299e-006
      -8.06419703e-005 -1.10945193e-005 1.44120850e-005 1.88130014e-006
      2.27407531e-006 9.51811103e-007 5.97916442e-005 -5.09678321e-005
      6.30585328e-006 3.98520569e-006 4.15147679e-006 9.19275953e-006
      1.00491270e-005 2.90808821e-005 -2.19281810e-005 -1.08775893e-007
      -3.27196335e-006 -8.23958471e-005 -1.11795700e-004 1.23732070e-006
      7.79233744e-007 1.31389415e-005 -1.34631948e-004 -1.22042493e-005
      1.23358150e-005 -1.21926826e-006 -2.19003286e-005 1.69579180e-005
      1.72847231e-005 -4.39600217e-006 -1.00632985e-006 -1.64821722e-006
      -2.54962720e-006 3.87390101e-005 -1.49138985e-004 -5.67183088e-005
      -1.52344684e-004 3.52726027e-004 -2.37694665e-004 -5.20613503e-005
      1.33730660e-004 1.54226393e-004 -2.36649808e-004 -7.34644855e-005
      -1.05755171e-004 1.08232547e-004 -1.72403626e-004 -5.22992923e-005
      -6.77531061e-005 2.23088718e-004 2.72087520e-004 2.43122529e-004
      1.43845624e-004 -1.40879274e-004 -2.05275923e-004 4.05539031e-005
      -3.19422979e-004 -1.01308353e-004 3.99088967e-005 2.36078035e-004
      1.94586813e-004 -3.54963413e-005 -1.42459437e-004 -1.19432916e-004
      -5.79645042e-004 9.68676177e-005 3.06229776e-004 4.87357000e-004
      2.32338352e-004 2.81971385e-004 1.53721921e-004 4.02282312e-005
      4.20675815e-006 -4.40412350e-006 3.47425666e-005 2.03262989e-005
      4.20452161e-005 2.63494039e-005 1.78707269e-005 7.34251880e-005
      1.07020169e-004 -5.39496455e-007 -5.90884520e-005 -4.89645427e-005
      -5.99429004e-005 -8.09541689e-006 1.68354552e-006 -2.47950538e-005
      -4.38275019e-005 -5.63372232e-005 -2.29365723e-005 8.71649172e-006
      1.83477787e-005 2.43250997e-006 -2.82450292e-005 2.66241441e-005
      -3.63829131e-005 -1.75013174e-005 2.90771209e-006 5.97114740e-006
      -4.86583167e-006 2.29199177e-005 9.09397386e-006 3.34688593e-005
      4.16876628e-006 7.18699039e-006 8.93822380e-006 -4.12353656e-005
      -5.43317583e-006 3.73037619e-006 1.09572720e-005 2.81521437e-007
      -1.62019205e-004 -1.09901612e-005 2.68496042e-005 -1.43445664e-006
      -3.62210903e-006 -1.24006983e-004 -1.44132528e-005 7.29798148e-006
      -2.60647585e-006 -3.59957703e-005 8.04192314e-006 2.14862812e-005
      -9.99654003e-006 9.62739932e-007 -1.52820576e-005 -1.57668387e-006
      9.25343702e-005 5.91649550e-005 1.51047716e-004 -2.58059503e-004
      -2.77815387e-004 3.34419718e-004 3.90202040e-004 2.62899906e-004
      -7.56048539e-005 -1.79936003e-004 -9.99895638e-005 1.29809079e-004
      -1.45249593e-004 1.18562428e-004 1.55314774e-004 -1.40649427e-004
      1.55344853e-004 -2.37204440e-004 -3.07478243e-004 -3.54023970e-004
      -1.58865849e-004 2.92751443e-004 6.47016277e-005 2.52187689e-004
      3.38522077e-004 2.39544490e-004 3.29161485e-005 4.14500944e-004
      2.76550214e-004 -9.37414734e-005 -5.53347018e-005 -1.39022077e-005
      5.36801563e-005 2.54371145e-004 1.68381986e-004 4.78806942e-005
      2.89482326e-004 1.66834463e-004 2.65952053e-006 4.08530923e-006
      9.41075268e-006 2.74767663e-005 4.29093743e-005 8.42867594e-005
      1.69025843e-005 3.31425399e-005 5.44183677e-005 1.05340849e-004
      -3.13736273e-005 -4.04815619e-005 -6.43483436e-005
      -2.56273743e-005 -7.24902247e-006 3.78642085e-006 -3.32667878e-005
      -1.26824758e-004 -1.54702677e-004 -2.35079460e-005 1.34352267e-005
      2.08496785e-005 1.30935587e-005 -5.68460273e-005 -7.63188873e-005
      -5.69175427e-005 -8.49240405e-006 2.28609883e-006 -1.72745547e-006
      -3.30660150e-005 4.95417844e-005 6.82332247e-005 7.69325925e-006
      1.27322619e-005 2.41956914e-005 1.29156160e-005 -2.25672829e-005
      1.31804176e-004 -6.79791628e-006 3.28973183e-005 6.06087724e-006
      -1.05195810e-004 -8.05422460e-005 1.24093640e-005 5.41544750e-006
      1.28608217e-005 -7.32222325e-005 -7.19347372e-006 1.34028769e-005
      5.90784157e-006 -5.93572186e-005 8.51827099e-006 2.15148702e-005
      -2.97784936e-005 1.68857497e-007 -7.44708086e-006 -7.68952304e-006
      1.13350878e-004 3.43265885e-004 -1.42206991e-004 -1.57915885e-004
      8.45177146e-006 1.56735434e-004 -3.05171037e-004 6.16092293e-005
      3.18103586e-004 4.09970380e-004 -2.02553274e-004 -1.96629015e-004
      -5.28967241e-004 -5.80211272e-005 2.72533653e-004 8.87207352e-005
      1.28772939e-004 9.72002599e-005 3.70523136e-004 3.29085651e-006
      -4.63842343e-006 -1.54272828e-004 8.63602545e-005 4.76745663e-005
      -5.96850114e-005 5.91799580e-005 7.80708360e-005 5.47484597e-005
      2.29888145e-004 -3.45885550e-004 -2.27040422e-004 3.85962921e-004
      4.37769166e-004 -8.17056571e-005 -1.66309706e-004 -2.92485725e-004
      -2.54645653e-004 1.29604159e-004 -4.95285167e-006 1.40296743e-006
      -3.84773011e-005 4.15560280e-005 1.52900739e-005 5.96202835e-006
      1.31343104e-005 5.48676799e-005 4.70767664e-005 -5.39621687e-005
      -1.44332689e-005 -3.68779206e-006 -7.77504247e-005
      -1.92499483e-005 -1.70068301e-006 3.93755181e-006 -1.30471035e-005
      -5.56098603e-005 -8.85126574e-005 4.28035946e-006 1.32226078e-005
      2.72287107e-005 2.09824375e-005 8.31579925e-008 -1.88780414e-005
      -2.93436933e-005 -6.53247935e-006 -2.36512415e-006 8.57932719e-006
      -2.11660845e-005 6.87035281e-005 3.07794508e-005 1.58497987e-005
      3.00378770e-006 1.47973915e-005 -6.58272529e-006 9.82380789e-006
      3.52198294e-005 -9.62396462e-006 -1.58710081e-005 5.34453102e-006
      -7.26035505e-005 -7.01213503e-005 -2.51321649e-006 3.77098019e-007
      -1.28250422e-005 -1.05512394e-004 1.18308371e-005 1.40472630e-005
      5.13787381e-006 7.39994948e-006 9.48951947e-006 2.39901001e-005
      4.23003803e-006 2.59686180e-006 -6.97724454e-006 6.64162087e-007
      1.01805977e-004 -1.40186865e-004 -6.36078708e-004 -3.82920058e-004
      -2.00129489e-005 1.47899729e-004 -1.14141425e-004 -3.10788251e-004
      2.54854327e-004 2.55562220e-004 -4.70349856e-004 -3.16084770e-004
      -1.10653447e-004 1.20384693e-005 4.27090592e-004 -1.99174669e-004
      -4.06129839e-004 -1.48075284e-004 7.38703166e-005 6.33218806e-005
      -3.23804095e-004 4.66991842e-005 2.91882607e-004 6.45112654e-004
      -4.24308906e-004 1.48397172e-004 8.10365309e-005 5.95886435e-004
      1.38655625e-004 -3.04179703e-004 2.49948527e-004 4.81210918e-006
      -8.94584737e-005 1.92774620e-004 1.67794686e-004 4.44603997e-004
      -3.66360073e-005 2.18794259e-004 -1.08068502e-006 1.60813506e-005
      2.40494192e-005 3.18156453e-005 4.17843803e-005 6.75129922e-006
      2.56385702e-005 2.91194065e-005 -1.95735552e-007 -2.52083792e-005
      -1.57383590e-006 -4.86087947e-006 -8.70282747e-005
      -1.29728491e-004 9.96981362e-006 7.05578577e-006 -1.77603724e-005
      -9.01874810e-005 -2.17970810e-004 -1.01859705e-005 1.19370989e-005
      2.28848985e-005 1.97815007e-005 -3.56113087e-005 -4.69379193e-005
      -3.33173011e-005 4.10656003e-006 2.60731849e-006 -2.30168666e-006
      1.29388663e-005 8.70350923e-005 1.49878961e-005 1.38799478e-005
      2.23397365e-005 2.46532327e-005 3.06646762e-005 8.23713526e-006
      5.63221038e-005 2.46041554e-006 4.24963946e-006 3.39447797e-006
      -6.15057943e-005 -1.01618173e-006 1.89645489e-005 -9.71758254e-007
      1.45881404e-005 -1.64766214e-004 1.57255147e-006 1.80872594e-005
      -1.31115985e-006 1.14260738e-005 9.93714821e-006 1.22525789e-005
      8.24434301e-006 -1.64364690e-006 -5.97632652e-006 -1.09854182e-006
      9.36255747e-005 4.54523921e-004 -1.51255459e-004 -4.59845120e-004
      -5.28422592e-004 1.71570806e-004 -4.44098958e-004 -5.18474495e-004
      -2.48562545e-004 3.07010516e-004 5.61508241e-005 5.83068293e-004
      1.81044001e-004 -1.14791575e-004 1.47896717e-004 -2.17528301e-004
      -3.16190650e-004 -4.42942226e-004 4.29248175e-004 4.94820233e-005
      -4.49261752e-005 1.25350853e-004 -5.86062903e-004 -5.96056743e-005
      -6.56167162e-004 -1.56144342e-005 -3.84060986e-005 3.49429436e-004
      5.27242628e-005 4.36428963e-004 1.99759539e-004 1.04394581e-004
      -2.37487038e-004 -2.32318358e-004 2.69035372e-005 1.82729273e-005
      1.93681990e-004 2.33800194e-004 -3.98327757e-005 7.62760828e-006
      1.99634324e-005 4.46872000e-005 3.70778362e-005 -7.39067691e-005
      1.99172937e-005 3.86220891e-005 -8.62859997e-006 -1.23581398e-004
      2.38220928e-005 2.27541523e-006 4.40737131e-005 -5.02256189e-005
      4.03368904e-006 1.94821623e-005 5.89706087e-006 7.43279452e-005
      7.13503323e-005 4.72895263e-005 1.16109759e-005 1.69757477e-005
      1.80228544e-005 -2.12016475e-005 -1.15503772e-005 2.78136213e-006
      8.51101049e-006 1.21714686e-006 5.79956031e-006 -2.31193899e-005
      -2.13866406e-005 -1.16440606e-004 -1.90500632e-005 1.32692685e-005
      2.92742407e-005 1.72572129e-006 -8.40646462e-005 -3.95185780e-005
      -1.68615406e-005 -2.29993984e-005 -2.90775006e-006
      -5.49603537e-005 -1.11254456e-004 1.48562349e-005 -1.35652126e-005
      -2.90677945e-005 -8.81067535e-005 -4.98337431e-006 2.57555748e-005
      1.10101928e-006 -6.59324996e-006 9.79056222e-006 3.04863606e-005
      1.93989263e-006 -1.08471500e-006 6.00562817e-006 8.78564060e-006
      8.27353142e-005 8.57721097e-005 1.62655095e-004 2.53129983e-004
      -2.92710320e-004 -7.66799931e-005 3.97874874e-006 -6.72303315e-004
      -3.06941714e-004 6.06317306e-004 -2.55056773e-004 1.15555631e-004
      -5.63937829e-005 6.13306824e-004 2.05235570e-004 -6.91885478e-004
      -4.53464076e-004 -5.16460452e-004 7.75420995e-005 5.42067282e-005
      2.77873914e-004 2.00480004e-004 1.70208528e-004 -2.44105031e-004
      -8.63143432e-005 -6.24899913e-005 1.09113244e-004 1.03018501e-004
      2.92795012e-004 1.67361723e-004 -3.43242209e-005 3.38859012e-004
      4.87122947e-004 2.71813624e-004 -1.90981751e-004 -5.05609612e-004
      -8.77952843e-005 1.01308840e-004 1.12961761e-005 1.84273613e-005
      -2.47811604e-005 2.93277608e-005 3.46087327e-005 -3.31842202e-005
      8.32847854e-006 2.73429705e-005 1.02410246e-004 -1.17190240e-004
      6.58403053e-007 -4.63002925e-006 4.80941380e-005 5.86862552e-005
      8.87622264e-006 -9.02235661e-006 -1.54829449e-005 -2.64050759e-005
      2.16267126e-005 5.49133711e-006 3.45270428e-006 1.90225401e-005
      1.65105230e-005 -6.30874638e-005 6.08369692e-006 -3.51507369e-005
      -3.21709763e-006 -1.61331718e-006 -6.61316199e-006
      -6.25018401e-006 3.30198636e-005 -5.71623423e-005 -9.12635130e-007
      1.12165508e-005 1.27459834e-005 3.34495307e-005 -3.90453642e-005
      9.10784365e-006 -1.75900987e-005 1.73809519e-006 -2.35637344e-006
      -8.60924993e-005 1.60875959e-006 8.34932234e-006 -6.88129035e-007
      3.90800281e-008 -1.75108042e-004 2.58215205e-005 1.58173025e-005
      1.53760618e-006 -1.20718942e-005 1.71386364e-005 1.89343882e-005
      -1.01344540e-005 3.12929956e-006 -9.03736145e-006 4.41733300e-006
      3.72029754e-005 -1.41292967e-005 -6.81565289e-005 -3.15162848e-004
      2.10834129e-004 1.26914048e-004 5.53075864e-004 -1.38842384e-004
      -3.76486132e-004 5.22327282e-005 -1.81196054e-004 -4.46590304e-004
      1.28522734e-004 6.00491534e-004 -2.33633196e-004 -3.98004573e-004
      -1.37096344e-004 -1.29178534e-005 -2.32105551e-004 4.25402599e-004
      4.64540790e-005 -2.46020034e-004 -2.15987602e-005 -9.95115770e-005
      5.91505435e-004 -2.65792361e-004 -4.98473120e-004 -1.19093726e-004
      6.82922429e-004 -2.35010433e-004 -4.36686765e-004 -2.98308383e-004
      -3.23645480e-004 -7.82480856e-005 1.79659837e-005 -1.55257352e-004
      -2.48495016e-005 1.33997251e-004 6.52882682e-006 8.71563861e-006
      7.82824372e-006 3.95829993e-005 2.62877638e-005 8.36001982e-006
      1.00640946e-005 3.44128166e-005 5.04393611e-005 -5.97041399e-005
      2.83431618e-005 1.79172566e-005 6.86335989e-005 1.06647210e-004
      3.24841085e-006 1.48994586e-005 -2.28239733e-005 1.67337055e-006
      1.07988133e-004 5.64685834e-005 1.69648174e-005 1.81193573e-005
      1.39460581e-005 -6.39784557e-005 -5.74170226e-005 -3.48993890e-005
      5.05886283e-006 2.98712806e-008 1.10361443e-005 -3.69431291e-005
      -8.72942546e-005 -8.69355936e-005 2.97029001e-005 1.23392783e-005
      1.50754477e-005 2.26009088e-005 -1.23811275e-004 -1.35372014e-004
      -1.07004726e-005 -7.55640394e-006 -1.40029726e-006
      -1.16655501e-004 -1.28903223e-004 6.26999326e-006 -1.45798858e-005
      1.14073755e-005 -4.91011160e-005 -1.44516443e-005 5.61198078e-007
      4.01879970e-006 -4.90489674e-006 1.36522031e-005 6.62106959e-006
      3.81714290e-006 -2.12069745e-006 -1.28874799e-005 2.33313654e-006
      1.46850100e-004 4.16252704e-004 -3.10926727e-004 -1.45292026e-004
      2.54788058e-004 -4.72410058e-004 1.18008859e-006 -2.41819129e-004
      -6.70110923e-004 5.65744936e-004 2.11963270e-004 -5.84770314e-005
      -7.62982891e-005 -2.66814204e-005 2.41011701e-004 3.24393564e-004
      4.31688568e-005 6.20344290e-005 -8.50394031e-007 7.84655931e-005
      3.43501044e-004 6.85046834e-005 -2.62711110e-004 -2.93808174e-004
      -4.40943768e-005 -9.15175333e-005 -3.43479915e-004
      -4.32767090e-004 -1.88559075e-004 -1.97071222e-005 1.74639092e-004
      -3.50608811e-004 -7.82657415e-004 1.23329184e-004 1.38585863e-004
      -6.27162954e-005 -5.34961582e-005 1.68941100e-004 -6.75094088e-006
      3.93361661e-005 -5.38117263e-007 -2.62030153e-005 7.22768091e-005
      5.28116652e-005 1.31141223e-006 1.86446869e-005 5.17971166e-005
      3.98086740e-005 -6.28498265e-006 -5.82246321e-006 4.69837905e-005
      4.53405009e-005 -2.46242507e-005 -6.93669733e-007 -2.88373012e-005
      -1.79066519e-005 4.74083427e-005 1.41372504e-006 2.91690026e-006
      1.60026793e-005 -9.96832932e-006 -8.76749691e-005 -1.19947726e-004
      -2.80883651e-005 -2.05691940e-005 -7.42244083e-007
      -1.04665423e-005 -1.35933733e-005 1.07965925e-005 -2.23808438e-005
      2.27073797e-005 1.30993276e-005 5.68868154e-006 -5.87251316e-006
      -4.31557164e-005 -4.11806686e-005 -1.96448163e-005 4.17830097e-006
      -4.02962144e-007 -5.48991229e-005 -4.40312688e-005 1.48872914e-007
      1.33714582e-006 9.33495642e-007 -4.83459553e-005 -1.27162984e-005
      2.13853746e-005 7.50065851e-007 -4.30884975e-005 4.42629471e-006
      1.39610220e-005 -5.02396779e-006 -4.75652178e-006 -3.31883007e-006
      3.87417958e-006 4.92498257e-005 -1.24162078e-004 -4.03230311e-004
      -1.40703836e-004 -1.66638114e-004 2.09368984e-004 -2.57565960e-004
      1.05462073e-004 -6.58246354e-005 -1.75141817e-004 -4.56538517e-004
      1.48415405e-004 5.00616559e-004 -3.02611879e-005 -3.45481880e-004
      -3.14603647e-004 -4.16601097e-006 -1.77973285e-004
      -2.15091146e-004 -6.13268581e-004 -6.71396629e-005 1.92859894e-004
      -1.30846252e-004 2.29856465e-004 -1.92275475e-004 5.06298784e-005
      7.58909955e-005 -8.30103818e-005 5.44541617e-005 -4.70970874e-004
      3.57790734e-004 1.22059673e-005 -4.20614175e-004 5.15286054e-004
      2.44245632e-004 -3.30765499e-004 1.72805565e-004 2.13758161e-004
      -1.60079690e-005 9.84637973e-006 -5.04383788e-005 2.53676790e-005
      -2.00470527e-006 -3.33761745e-005 -8.07400738e-006 3.63969302e-005
      1.01697697e-004 2.81595694e-005 -4.23476223e-007 -4.84445663e-005
      -1.90362789e-005 -3.41972700e-005 4.32141860e-006 5.34000401e-006
      -1.49077023e-005 3.59627447e-005 -2.37960994e-005 -2.46529316e-006
      1.72781438e-005 2.13035819e-005 5.76972707e-006 -2.23614297e-005
      -2.67936539e-005 -1.43265279e-005 3.08452263e-006 4.41966131e-006
      8.03600506e-006 -9.32973489e-006 2.13097865e-005 3.48920512e-005
      3.22455999e-005 1.62118668e-005 9.08874881e-006 1.81913365e-005
      -1.87162332e-005 3.26358349e-005 -4.87150055e-006 1.49550021e-006
      1.52112182e-006 -8.63023743e-005 -1.58338633e-004 1.83015800e-005
      -2.60768502e-006 7.59667455e-006 -1.50661988e-004 -2.86136947e-005
      2.40266017e-005 4.98489158e-007 -8.99417046e-006 1.31993493e-005
      1.66795035e-005 1.22739777e-006 3.33739922e-006 -4.81749794e-006
      -3.32012087e-006 2.00261074e-005 1.74199504e-005 -4.08135296e-004
      -3.85272928e-004 -1.44290607e-004 -2.47498218e-004
      -1.65299090e-004 -1.81098250e-004 1.44821970e-005 1.97121131e-004
      -4.65620542e-006 -2.68501986e-004 -2.24460033e-004
      -9.93204885e-005 -9.44201456e-005 -5.88150579e-004
      -2.32323306e-004 4.96020366e-005 9.20785387e-005 -2.62649090e-004
      -7.90809689e-004 6.49966241e-005 3.32561292e-004 9.42122497e-005
      -8.64911635e-005 3.72994866e-004 9.49032983e-005 2.19968191e-004
      -2.16737797e-004 -7.36864924e-004 -7.38919771e-005 6.60586738e-005
      1.72859203e-004 9.41420731e-005 2.67514872e-004 7.52550659e-006
      2.54045299e-004 1.82812320e-004 1.17224836e-005 1.22919027e-005
      1.03423326e-005 3.24656139e-005 4.29392785e-005 4.23505844e-005
      1.14091999e-005 2.67288997e-005 9.48035158e-005 1.47051163e-004
      2.35674652e-005 -1.43274838e-005 -6.97705109e-005 -8.47554111e-005
      2.08470556e-005 1.50088872e-005 -3.38656027e-005 2.04977805e-005
      -9.52937335e-005 -6.79976074e-006 1.40297589e-005 2.60871311e-005
      6.61590184e-006 -1.01230929e-004 -7.42528428e-005 -2.96239032e-005
      -1.28902184e-005 -5.75932461e-007 -3.93958726e-006
      -5.35109984e-006 6.71025336e-005 8.49083444e-005 9.38234007e-005
      1.92813150e-005 1.69732118e-006 -1.79994026e-006 1.44563992e-005
      1.08292115e-005 -1.07437154e-005 1.01136820e-005 -1.79584822e-006
      -1.87924015e-004 -1.24819853e-004 7.41324448e-006 3.05746170e-007
      3.55652592e-005 -2.62620335e-004 -1.23143509e-005 2.30081223e-005
      -2.42541910e-006 -5.01040886e-005 2.26847533e-006 5.62426567e-006
      -1.06027055e-005 -1.56260444e-006 -8.15530893e-006 9.26581833e-006
      8.03107905e-005 3.27389804e-004 -3.14913195e-004 -6.47445675e-004
      4.05767467e-004 2.24307150e-005 -1.20468567e-005 -1.06297564e-004
      -5.25237629e-005 8.33735321e-005 -1.13985363e-004 -2.46099866e-004
      -1.49488667e-004 -1.28218890e-004 -2.76916166e-004
      -2.15110413e-006 2.21725422e-004 1.63648438e-004 -6.89821100e-005
      -2.01677452e-004 -4.20052762e-004 -2.70734396e-004
      -1.08279120e-004 5.79097599e-004 2.30003498e-004 -1.61851440e-005
      -1.67131322e-004 -2.21677154e-004 -3.55734170e-004
      -3.47556692e-004 2.92061508e-004 -8.69321229e-005 2.53299077e-004
      -3.77742428e-004 -2.30504884e-004 3.45119297e-005 -3.57671292e-004
      1.91110463e-004 1.73301123e-005 2.56026979e-005 1.79852032e-005
      4.60667725e-005 3.12307675e-005 4.07209991e-005 1.83146476e-005
      4.52581371e-005 1.26799117e-004 9.67287415e-005 -3.04005534e-005
      1.78232294e-005 3.34567881e-006 -5.55123916e-005 1.41966166e-005
      -3.97122312e-006 -2.72467259e-005 1.45331542e-005 -1.06474297e-004
      2.35738862e-005 1.57814043e-006 1.77332058e-005 -9.91718352e-008
      -7.16714130e-005 -3.76271491e-005 -3.61592174e-005 1.43090415e-006
      -3.74904886e-007 2.66634220e-006 -3.59144506e-005 -1.13833039e-005
      4.96332268e-006 4.00950012e-005 1.43110165e-005 2.02305200e-005
      2.25327531e-005 2.24420342e-006 -2.42522910e-005 2.90524781e-007
      2.26975408e-006 3.52915640e-006 -1.19991892e-004 -1.43325989e-004
      1.67119942e-005 -1.15992434e-005 1.03485645e-005 -1.91146741e-004
      -5.46117633e-007 9.31363320e-006 -2.27699024e-006 -5.36437001e-005
      -9.28765417e-007 1.36655372e-005 -3.48238100e-005 1.68838426e-006
      -8.39780296e-006 9.41750329e-007 9.06032001e-005 2.49370642e-004
      -5.07193385e-004 4.49677667e-004 -4.75506895e-005 1.22044359e-004
      3.62008495e-006 -1.10636574e-004 2.36945649e-004 1.34357120e-004
      2.65667128e-004 -4.33659006e-004 1.30062734e-004 1.95793153e-004
      2.64705479e-004 1.57232338e-004 -5.75978775e-004 4.72212356e-004
      3.38732178e-004 -3.04263202e-004 -6.39368431e-004 3.16710793e-004
      8.21391368e-005 -3.80376092e-004 2.46899494e-004 3.29792470e-004
      -2.05705917e-004 1.10715286e-004 3.35895485e-004 -2.01999224e-004
      1.80622068e-004 -2.04003867e-004 2.27388067e-004 1.84722376e-004
      3.94264061e-004 -1.98475012e-004 4.04825347e-004 2.51808728e-004
      -8.35207993e-006 2.59011103e-005 -1.55722444e-006 4.31332010e-005
      4.40289041e-005 2.53591788e-005 2.51572801e-005 3.96320247e-005
      1.21897123e-004 5.75960694e-005 -1.65978690e-005 4.83566609e-008
      3.02905719e-005 6.74865805e-005 2.30140249e-005 -1.27291542e-005
      -3.01153741e-005 -3.06232869e-005 -1.93762666e-004 3.23678541e-005
      1.78958617e-005 -2.66203438e-006 -7.43745159e-006 -9.54018251e-005
      -1.08927474e-004 -3.32360178e-005 3.93721939e-006 2.61536911e-006
      1.11073741e-005 -5.06050173e-006 4.64517543e-005 -1.39888716e-005
      5.55766710e-005 2.05657379e-005 2.59447152e-005 2.22038288e-005
      2.12712639e-005 3.83764818e-005 4.23640404e-006 -4.08322057e-006
      2.10840426e-006 -1.64699362e-004 -1.90039282e-004 1.68883471e-005
      9.83794394e-007 3.23972267e-006 -1.93387954e-004 -8.62325487e-006
      2.64834271e-005 -1.04766798e-006 -5.69128242e-005 5.71012652e-006
      1.74392644e-005 -1.89247021e-005 -6.04367187e-006 1.01047308e-005
      1.01150226e-005 5.32372542e-005 1.48820807e-004 1.63634923e-005
      2.79855914e-004 1.93729458e-004 1.87978163e-004 -2.73606311e-005
      -1.53723668e-004 2.76727224e-004 -4.14281705e-004 -2.76681239e-004
      3.52437521e-004 7.11114088e-004 4.43816622e-004 2.74844147e-004
      -4.85353783e-004 1.26049519e-004 -4.02724487e-004 -2.12950341e-004
      -5.31497819e-004 4.95812674e-005 1.57415823e-004 -4.46026592e-004
      3.64834239e-004 3.83771316e-004 5.71189448e-004 -5.52952406e-004
      1.73778360e-004 1.91239014e-004 1.13139882e-004 2.68817617e-004
      -1.60638083e-004 2.75563041e-004 3.57713172e-004 -1.11310394e-004
      -4.17582196e-004 -4.57540955e-005 2.44644780e-005 -3.08544513e-005
      1.09771090e-005 -1.71713418e-005 3.41612358e-005 5.89902083e-005
      2.05803339e-008 3.41070663e-005 5.04411983e-005 1.80631425e-004
      -2.74755384e-005 1.65450929e-005 4.42223500e-005 9.56382282e-005
      3.14233075e-005 4.04732527e-005 6.82558266e-007 -4.73569389e-006
      8.67062317e-006 -2.48382312e-005 6.50149232e-005 2.16250828e-005
      4.01321540e-006 -2.90267108e-005 -2.11179213e-005 -4.03934682e-005
      -1.46531784e-005 3.50579080e-006 -3.68683982e-006 -1.56223869e-005
      -1.60844229e-005 3.36872040e-006 -5.01006871e-005 1.34287820e-005
      1.54401841e-005 2.02057090e-005 -2.30260775e-005 -1.00335586e-004
      -8.16244665e-006 -3.99069286e-005 -9.38302583e-006
      -4.64194500e-007 -5.16236360e-005 -9.51198163e-005
      -1.27412761e-006 -1.33298263e-005 -8.81610595e-006
      -1.54493784e-004 2.26123120e-006 5.57572093e-006 -1.69947725e-006
      -1.21620760e-005 1.06063353e-005 1.14325558e-005 -1.75617461e-005
      -4.33434116e-006 8.89700516e-007 5.44609122e-007 2.80927852e-005
      2.65845854e-004 -2.00584454e-005 1.67794409e-004 1.65792953e-004
      -1.57522401e-004 -4.68696642e-004 1.05734085e-004 -1.97653775e-004
      -4.01568454e-004 -3.87694163e-005 1.45486396e-004 8.64593458e-005
      5.10685612e-004 1.12477592e-005 -3.04494984e-004 -2.22118688e-004
      -8.65526017e-005 -1.56477880e-004 4.31285211e-004 -1.35028647e-004
      -4.86865902e-004 -1.15876064e-004 -2.19214653e-005 1.14992828e-004
      -2.35569278e-005 -2.86068593e-004 -5.36242384e-004 5.21775510e-004
      -1.82070900e-004 9.90278131e-005 -3.59271420e-004 -4.95671877e-004
      3.47617402e-004 9.23722037e-005 -4.78309157e-005 -5.12218510e-004
      1.04868523e-004 -3.69639383e-005 2.72558445e-005 -2.33108913e-005
      3.99198216e-005 3.58191319e-005 -1.88113027e-005 3.37578640e-005
      6.33866293e-005 8.86382113e-005 -5.37493688e-005 4.02701044e-005
      5.35098407e-005 1.04696104e-004 7.96290333e-005 1.03962275e-005
      -1.34854181e-005 -3.13139208e-005 3.12818520e-005 7.11298198e-005
      7.14334674e-005 2.29123452e-005 2.78061289e-005 -2.14891497e-006
      -2.69344728e-005 2.27576147e-005 9.87114436e-006 2.32370949e-005
      -2.07489120e-006 -1.42709569e-005 -6.07963229e-005
      -1.48312456e-005 -1.17374555e-004 8.28971588e-006 6.96863253e-006
      1.87968853e-005 -2.90095941e-005 -3.79310150e-005 -9.82290512e-005
      -5.26109434e-005 -1.12547978e-005 -1.00421130e-006
      -1.24976083e-004 -1.93683256e-004 -4.56776106e-005
      -1.47965120e-005 -1.92468178e-005 -1.30504268e-004
      -5.78174922e-006 8.10717211e-006 -3.36405651e-006 4.13678281e-005
      2.22029826e-006 2.86940976e-005 -7.14929138e-006 2.82661517e-007
      -2.94628535e-006 1.27054536e-005 1.04222177e-004 3.71414058e-006
      2.90465628e-004 2.71859928e-004 3.78137251e-004 -6.06212416e-006
      -3.70376976e-004 4.95447021e-005 -2.72519537e-004 -2.92669662e-004
      4.25538339e-004 2.94791331e-004 -4.86001336e-005 -2.69084761e-004
      1.28594853e-004 2.24815623e-004 -4.09868007e-005 -3.31016519e-004
      -4.60611627e-004 1.42350575e-004 1.72128741e-004 2.85821607e-005
      -3.12630145e-004 1.69316598e-004 4.68247454e-005 4.10783578e-005
      -4.61506716e-004 -3.11226700e-004 1.07965141e-004 1.90300954e-004
      -3.42237065e-004 -4.77909402e-004 -3.34800017e-004
      -4.70104605e-005 -2.03095376e-004 -2.15502310e-004
      -1.53881963e-004 1.61100019e-004 9.61326714e-006 1.73913686e-005
      -1.96127621e-006 2.92460190e-005 5.88148032e-005 -3.00741867e-005
      8.76405102e-006 4.21652840e-005 4.82528922e-005 6.56285602e-006
      -5.37601636e-006 -9.50154208e-006 1.56305741e-005 -5.99686973e-005
      1.34985257e-005 1.72592499e-005 -4.03824743e-005 6.56698194e-006
      9.01160311e-005 4.58935901e-005 2.02056544e-005 5.33400680e-006
      7.35742105e-006 -5.62727037e-005 -5.25650030e-005 9.26219400e-006
      1.06557500e-005 2.73673095e-006 3.20588333e-006 -1.54387981e-005
      -1.47661312e-005 -9.02618121e-005 4.14411079e-006 1.68385177e-005
      1.33052390e-005 -2.12656469e-005 -8.45463292e-005 -7.76666129e-005
      -2.10012768e-005 -1.98348862e-005 -3.59678393e-006
      -1.66223108e-005 -3.71833739e-005 -2.07319281e-005
      -1.15914290e-005 -2.43028285e-006 -5.72686113e-005 9.78744265e-006
      1.15254270e-005 4.98553902e-007 -1.29494538e-005 4.59897001e-006
      4.68412600e-006 -2.18051719e-005 4.01733041e-006 -6.15371664e-006
      1.44144451e-006 9.07421418e-005 2.46652598e-006 -6.51815280e-005
      2.43681308e-004 3.76802163e-005 3.19049359e-005 -4.51430533e-004
      1.89116166e-004 -2.28699791e-004 -3.33838689e-004 1.84256089e-004
      2.07141784e-004 2.08613259e-004 -7.96473469e-005 -5.44715265e-004
      9.45527499e-005 2.22579711e-005 1.12097849e-004 1.05562918e-004
      -8.21933281e-005 -1.34637346e-004 -2.35242362e-004 3.68073379e-004
      -1.71002495e-004 -4.90251346e-004 -2.26059652e-004
      -1.02868100e-004 -3.48950562e-004 1.80395204e-004 -2.32160528e-004
      -1.36264716e-004 -9.39819074e-005 5.48454060e-004 1.81121708e-004
      9.08968941e-005 9.52589617e-005 1.98598398e-004 1.12770096e-004
      -2.93577455e-006 -2.21934788e-005 -1.60145519e-005
      -9.55365340e-006 2.15852451e-005 4.13682064e-005 2.41263551e-005
      4.96237735e-005 -1.13828855e-005 -7.38020317e-005 -2.11752504e-005
      3.97426857e-006 3.84041850e-005 -3.27673442e-005 -3.41266855e-006
      -6.16883199e-007 -1.62426677e-005 -1.74833895e-005
      -4.65876099e-007 -1.16987558e-005 1.34306956e-005 9.68219410e-006
      2.60588899e-006 -2.86891664e-005 -3.62507744e-005 -1.75187397e-005
      1.37981806e-005 -1.30196668e-007 -4.72612072e-007 1.10252040e-005
      -5.60352646e-006 -6.72551614e-005 -7.96209497e-006 1.24273565e-005
      6.59824218e-006 6.42313034e-006 -4.52591485e-005 -1.74649347e-006
      -5.09520419e-007 1.39169806e-005 -3.48600821e-007 3.67279572e-005
      -2.23068273e-005 -3.11040117e-006 -7.62983018e-006 1.12849484e-005
      4.84117436e-006 -1.11507052e-005 7.35563026e-006 1.82372958e-006
      2.20782317e-006 6.43573503e-006 7.63023763e-006 -4.36054916e-006
      2.91891365e-006 -3.02284343e-006 8.61718127e-006 3.14690697e-005
      -2.38560373e-004 7.44140343e-005 -2.11774764e-004 -2.91792589e-004
      5.03396208e-004 -7.94581647e-005 2.57045700e-004 2.23350275e-004
      1.58760085e-004 -7.41568438e-005 2.86460301e-004 -1.43530051e-004
      -3.00818883e-005 1.22279554e-004 2.90625321e-004 7.30783722e-005
      -1.43651050e-004 -1.52697510e-004 -1.61360891e-004 1.22223471e-004
      2.31414509e-004 -2.29657948e-004 -4.18042822e-004 -2.72659090e-005
      2.72054604e-004 -1.80622679e-004 2.72101228e-004 -5.18853019e-004
      -3.69429199e-006 3.51827075e-005 8.92737298e-005 7.10445805e-004
      -3.81550926e-004 5.20573631e-005 4.94273409e-005 -3.82821490e-005
      1.14282862e-004 2.61391324e-005 1.84404453e-005 -2.49398108e-005
      1.56164751e-005 1.45888707e-005 4.66400561e-005 -1.01008914e-006
      8.76194827e-006 6.79043569e-006 -6.28779219e-007 -2.61724836e-005
      -6.87898646e-005 -1.06530306e-005 -5.25353680e-005
      -3.81748850e-006 2.25848407e-006 5.74460955e-006 8.02967406e-005
      4.99441876e-006 -1.76883361e-006 1.53036508e-005 1.62123633e-005
      1.78765840e-005 -4.95205086e-006 1.65379988e-005 -1.00183615e-005
      -1.33013327e-005 -1.18667981e-006 1.06000298e-005 -7.87468935e-007
      4.75384950e-005 -5.22510663e-006 2.76671726e-005 6.16081343e-006
      1.58430375e-005 2.60821125e-005 -2.58385298e-005 3.08148833e-006
      -1.51502345e-005 1.48190256e-005 3.51766721e-006 -6.13747761e-005
      -1.08946624e-004 -1.87553871e-006 -1.08131071e-005 1.09302573e-005
      -1.19047487e-004 -5.40673682e-006 1.24259159e-005 -7.88458863e-007
      1.57959657e-005 6.40384087e-006 1.22237925e-005 -2.36076194e-005
      3.24949178e-006 -2.37085915e-005 -6.16875877e-006 1.68902477e-006
      -1.75810419e-004 -2.30837177e-004 4.71352425e-004 1.42409204e-004
      -7.05132261e-005 -1.44007936e-004 2.90177151e-004 6.42238374e-005
      1.80270334e-004 1.70042476e-004 -2.94563419e-004 -4.02370606e-005
      -1.96407113e-004 -6.88393411e-005 -1.34385613e-004
      -2.75242521e-004 -2.50347919e-004 2.89508840e-004 -2.43509319e-004
      1.47266765e-004 1.41449884e-004 1.74384244e-004 2.61914945e-004
      -3.89548921e-004 -1.25823310e-004 -6.84455445e-005
      -1.36711888e-005 -1.36522838e-004 -3.93547816e-005 4.29765147e-004
      2.34074672e-004 -1.93094209e-004 1.07285805e-005 1.82370117e-004
      -8.90426090e-005 -8.10251149e-005 1.74621877e-004 1.85672598e-005
      1.76511021e-005 2.95721875e-005 1.86801954e-005 2.05880006e-005
      3.75729360e-005 2.45483134e-005 2.05069318e-005 7.33635807e-006
      1.44724447e-006 -2.17829129e-005 1.32469677e-005 4.20295009e-006
      -1.01081234e-004 1.03370312e-005 5.05402613e-006 -2.83094923e-005
      -4.94655833e-005 -3.44684231e-005 -3.78597106e-005 1.17213194e-005
      2.42068854e-005 1.06394664e-005 -7.63547068e-005 -1.09778230e-004
      -5.00321657e-005 -1.25237621e-005 -1.15101648e-006 1.08776931e-005
      -1.03465754e-005 1.11724024e-004 5.59121145e-005 4.80007075e-005
      7.08338712e-006 1.12072257e-005 2.35791522e-005 4.24295140e-005
      5.65680857e-005 -9.31222621e-006 5.10938617e-006 -5.39520101e-007
      -6.10425923e-005 -6.58785648e-005 3.48759459e-005 2.01254352e-006
      3.84023861e-006 -1.62759839e-004 6.26255542e-006 1.57125269e-005
      3.56796568e-006 -2.62946796e-005 -3.72416866e-006 1.45789536e-005
      -3.39300641e-005 2.82822754e-007 -7.51235621e-006 -6.86004478e-006
      6.88197269e-006 -4.88323043e-004 -2.65661947e-004 2.59058143e-004
      4.59069794e-004 2.54398707e-004 -1.00664307e-004 -1.93692700e-004
      -4.06512758e-004 -2.56805273e-004 7.49002356e-005 -3.04062851e-004
      6.13228476e-005 2.28875477e-004 2.90979195e-004 -1.52806475e-004
      -1.97978137e-004 2.60442583e-004 -1.43084864e-004 -3.51727038e-004
      -3.68580295e-005 1.21430050e-004 4.99031215e-004 3.15939717e-004
      2.72687503e-005 -4.63291333e-004 -7.51041807e-005 3.36117431e-004
      -1.71796219e-005 3.39836464e-004 2.58110085e-004 4.63342090e-004
      2.68010685e-004 -1.01519116e-004 3.85127321e-004 -2.00221257e-004
      3.11862561e-004 1.33617024e-004 -2.11015031e-005 8.00633370e-006
      1.06499219e-005 3.49139773e-005 4.02485748e-005 3.79915946e-005
      2.47198500e-006 1.48422523e-005 1.42922974e-004 -2.06823261e-005
      -2.74177328e-005 9.42750376e-007 -2.22912095e-005 4.40528929e-005
      2.50799458e-005 -1.46275024e-005 -2.09954851e-005 -7.22532859e-005
      -1.21703648e-004 -1.34437732e-005 2.03457639e-005 1.95860302e-005
      8.12242888e-006 -1.18494034e-004 -1.74883418e-004 -7.12606634e-005
      3.38801624e-006 -6.34811386e-007 -1.52934990e-005 1.86728212e-005
      9.67526721e-005 6.75806659e-005 2.61373480e-005 1.08898948e-005
      2.81515877e-005 1.84809596e-005 2.08082674e-005 9.06768109e-005
      2.17738125e-005 3.71534748e-006 -4.78712354e-006 -1.06838525e-004
      -8.35685350e-005 4.91463579e-005 8.84118617e-006 1.73267324e-006
      -8.40320863e-005 2.80540007e-005 1.82445056e-005 -1.94738413e-006
      -8.60787113e-005 -9.23645257e-006 2.11123079e-005 -6.52899007e-006
      -9.69483426e-006 -2.74314999e-007 -1.74233064e-005 4.75394554e-005
      -1.72950473e-004 -3.59608639e-005 3.26860783e-004 -1.01463622e-004
      6.55940792e-004 -1.27807885e-004 -2.12060724e-004 -1.72103319e-004
      3.28376394e-004 -7.99728514e-005 -1.85905068e-004 1.23205333e-004
      1.32184016e-006 -3.09566210e-004 -1.19651428e-004 4.34807007e-004
      1.11382105e-004 2.65381968e-004 1.70207015e-004 -4.31585679e-004
      -6.71685339e-005 5.31013124e-004 3.18268751e-004 -1.73414708e-004
      7.21470569e-005 2.05576376e-004 4.52140288e-004 -1.22267098e-004
      -2.55603227e-004 -1.29265691e-005 1.95879446e-004 1.37756506e-004
      -2.63580558e-004 -1.30570726e-004 -7.52500855e-005 1.34008049e-004
      1.28350657e-004 -8.60140244e-006 -1.64297239e-006 -3.31018782e-006
      3.05685462e-005 1.77698621e-005 4.52132044e-005 -5.87104114e-006
      2.63400998e-005 2.94643778e-005 -6.28235939e-005 5.76983348e-006
      1.83245375e-005 3.14987374e-005 -2.16774129e-006 2.21607279e-005
      -4.07037902e-007 2.97685483e-006 -1.03518669e-005 -1.23470774e-004
      4.63854485e-006 2.09855480e-005 1.27681824e-005 -4.99498310e-006
      -7.36766597e-005 -7.35120193e-005 -4.42207747e-005
      -4.15166505e-006 -1.12916348e-006 -1.72277269e-005
      -1.32400119e-005 2.59131593e-005 2.49171389e-005 4.66830643e-005
      2.01121165e-005 1.57159793e-005 9.13863630e-007 2.43349605e-005
      2.40731661e-005 -7.68409427e-006 -7.73605916e-006 -3.56637884e-007
      -9.81489848e-006 -6.78850993e-005 2.73663372e-005 5.36925154e-006
      -1.32558298e-005 -1.29074935e-004 2.28126214e-006 2.24027026e-005
      -5.86695933e-006 -9.81671383e-006 8.83271605e-006 2.07322173e-005
      -8.57364921e-006 -5.35467370e-006 -1.74948445e-006
      -6.68394068e-006 5.81749555e-005 -4.89011945e-005 -3.04502202e-004
      7.60522380e-006 -3.45144363e-004 9.08198781e-005 -3.14182020e-004
      2.86867842e-004 4.95288405e-004 2.31668702e-004 -2.85321148e-004
      -2.01514660e-004 -2.48141791e-004 -1.60708863e-004
      -1.59360003e-004 2.71312805e-004 3.10294679e-004 -5.70144621e-005
      1.52437104e-004 -2.55004095e-004 6.99487355e-005 3.32824246e-004
      1.63423349e-004 -2.74176527e-005 -2.35509564e-004 2.57282023e-004
      -9.79907200e-005 4.01598481e-005 -1.48978201e-004 2.14520638e-004
      2.37046523e-004 -4.26068254e-005 -7.51413172e-005 -1.01356579e-006
      -9.21852843e-005 -2.29063618e-004 6.04032284e-005 1.63254372e-004
      -2.55906798e-005 -7.83392716e-006 -1.98778198e-005 4.02908699e-005
      1.18907462e-006 -2.19588273e-005 8.37577954e-006 4.46889062e-005
      5.18462730e-005 -8.10352532e-008 -1.18390390e-005 9.42647330e-006
      3.00558077e-005 -4.40021649e-005 3.31225237e-005 4.85062992e-006
      -6.48782816e-006 5.77909559e-005 1.19120414e-005 1.80729494e-005
      2.29113484e-005 3.05557114e-005 1.94863242e-005 -4.30810105e-005
      -2.27738965e-005 -2.77063882e-005 3.64812718e-006 2.29888542e-006
      -3.12005319e-008 -6.05081223e-005 2.87432636e-006 -5.94065068e-006
      4.28017993e-005 1.65658512e-005 1.42657518e-005 -1.70295007e-005
      -4.35930961e-005 -2.90756052e-005 -6.96749776e-005
      -3.73319654e-006 7.76758327e-007 5.42213456e-006 -1.10149864e-004
      -4.68830513e-005 -8.98585677e-006 4.76039162e-007 -8.45257018e-005
      1.56218211e-005 2.91246010e-006 -4.55367717e-006 -8.06995740e-006
      4.20735614e-006 1.93691467e-005 -1.02414901e-006 -5.58134298e-006
      1.81398866e-006 -4.59962422e-007 5.01680333e-005 2.08026118e-004
      -5.04763739e-004 -2.76414532e-004 -5.51564735e-004 4.36622999e-004
      2.25019903e-004 4.04740931e-005 -3.03730136e-004 -5.71595796e-004
      4.88078103e-006 -7.08014340e-005 -2.71730416e-004 7.37144146e-005
      6.82338869e-005 -9.86535379e-005 3.09421448e-004 -9.08707079e-005
      -2.75971106e-004 2.37098968e-004 -2.34574454e-005 4.30092099e-004
      4.08983469e-005 -5.94411802e-004 -1.31551991e-004 -4.22196754e-004
      -3.28943890e-004 -4.12713329e-004 -1.03169630e-004 1.93245985e-004
      1.53475310e-004 -1.14549402e-004 -6.69073488e-005 -2.11588427e-004
      -1.86662714e-004 -1.62116965e-004 -6.37941921e-005 1.55291491e-004
      -4.00729077e-005 8.63522382e-006 -9.94608854e-007 2.11336010e-005
      1.75473324e-005 -6.58815916e-005 1.41827841e-005 3.63743529e-005
      8.31700090e-005 7.44877252e-005 -1.77038837e-005 5.19603273e-005
      6.96022762e-005 2.06458699e-005 2.94882866e-005 6.00862813e-006
      3.57987083e-005 1.30009532e-004 1.33502632e-004 7.20295793e-005
      7.62110813e-006 2.57658394e-005 6.59307898e-006 8.38067263e-006
      1.26644882e-004 9.66841162e-006 -2.57558031e-006 1.63255368e-006
      -2.49921914e-006 -2.56985513e-005 -4.94436572e-005
      -2.17356908e-004 -7.10406721e-006 1.10723995e-005 2.97776533e-005
      -1.05126287e-006 -7.31184555e-005 -1.74757661e-004
      -4.67438622e-005 -2.06962959e-005 -2.94123856e-006
      -2.87946878e-005 -1.71465668e-004 -6.45893815e-005
      -1.61294520e-005 -1.98456073e-005 -1.15629300e-004
      -6.85906298e-006 -8.92612115e-006 2.27824808e-006 -1.43008847e-005
      1.75014484e-005 1.26949899e-005 -5.87895147e-006 3.62868576e-007
      3.79803532e-006 -9.01208023e-006 -1.35895843e-005 -2.64595030e-004
      -2.71889032e-004 -2.51773803e-004 -3.65646352e-004
      -1.26338142e-004 6.74464172e-005 1.23303849e-004 -2.43622388e-004
      -4.17230534e-004 -2.61741428e-004 2.00215669e-004 -3.55926168e-004
      -2.81942514e-004 -9.02312386e-005 5.19741676e-004 -1.63269742e-005
      -1.73315289e-004 -2.97366409e-004 -5.24501484e-005 1.18865086e-004
      -1.07140950e-004 -6.49638241e-004 4.07933694e-004 -2.17742891e-005
      9.13138429e-005 -3.17156082e-004 2.92932291e-005 -5.21326845e-004
      1.50762586e-004 2.22782983e-004 -6.88266649e-004 1.97078509e-004
      1.87068188e-004 -8.55999970e-005 -3.06198985e-004 6.59590878e-005
      1.20108663e-004 5.05339176e-006 2.47118824e-005 2.87069179e-005
      4.10489556e-005 2.24948963e-005 5.42400157e-005 -5.82593998e-007
      3.79671510e-005 9.59728350e-005 1.10220477e-004 -3.23676140e-005
      -1.80093321e-005 -7.04559488e-006 6.11017167e-005 3.70400812e-005
      -1.60498962e-006 -2.61408713e-005 -1.04592509e-005 2.94219153e-005
      1.12645348e-005 1.24341223e-005 1.75462246e-005 4.24702057e-006
      -4.25567960e-005 9.23643438e-006 -8.46515650e-006 -1.93029791e-005
      1.48283721e-006 1.71883369e-006 -2.02891169e-006 6.08649680e-005
      -9.61265905e-005 1.36523904e-005 2.16957451e-005 1.35940372e-005
      -2.08220536e-005 -3.49537440e-005 -4.33869936e-005
      -2.08341826e-005 1.11714189e-005 1.14536512e-007 2.20052025e-005
      -2.52948783e-004 -7.15572314e-005 -1.43708839e-005 2.07337707e-005
      -1.58703784e-004 5.83404744e-006 3.64541484e-006 1.37898292e-006
      -1.73696862e-005 2.03456748e-005 1.86745674e-005 -9.49968580e-006
      -8.33869478e-007 -2.00003033e-005 -2.25897184e-005 1.28319316e-005
      2.07538305e-005 -2.01901523e-004 -4.78559814e-004 -5.80914028e-004
      -7.04802165e-004 2.47753400e-004 -2.20830902e-004 -1.42348566e-004
      -1.60510783e-004 1.75743684e-004 -4.13237023e-004 -3.72023816e-004
      -5.70452597e-004 1.45313650e-004 -1.32772751e-004 8.52922385e-005
      -3.64964544e-005 -4.03251644e-004 1.50446576e-004 1.72828179e-004
      5.95020210e-005 -4.59581730e-004 -1.41510784e-004 2.94216763e-004
      1.58084978e-004 5.84092231e-005 -7.09630622e-005 -2.95483151e-005
      3.80976599e-005 2.44413328e-004 -3.84492829e-004 9.23660336e-005
      9.10623348e-005 -3.22001695e-004 -2.16597124e-004 -5.37926622e-004
      2.21103794e-004 6.37814637e-008 2.19030208e-005 -1.62956144e-006
      1.50989008e-005 5.60298577e-005 1.65651963e-005 -2.37074187e-006
      1.92150765e-005 4.04683960e-005 5.58141119e-006 2.10180610e-006
      1.10709871e-005 1.86703210e-006 6.57398850e-005 -1.73803221e-006
      -6.64498316e-007 -8.48359196e-006 1.03729490e-005 -4.27671184e-005
      1.45863314e-005 1.42614872e-005 1.90726587e-005 2.42735882e-006
      -8.02673458e-006 -3.05258909e-005 -4.20383585e-005
      -1.27735475e-005 1.91286722e-006 7.81046037e-006 2.35476018e-005
      5.90179552e-005 -2.36137803e-005 3.59214027e-005 1.04043911e-005
      1.68212919e-005 1.04301726e-005 -3.87271793e-005 -5.59141108e-006
      -3.20737199e-005 -5.33095272e-006 -4.31032231e-006
      -9.04723493e-005 -1.32031215e-004 2.21953305e-005 -8.24647304e-006
      -1.19852268e-006 -1.44374382e-004 -1.20280629e-005 1.26821105e-005
      1.98544808e-006 8.25810184e-006 4.90475668e-006 1.69475607e-005
      -1.56563910e-005 -1.56215060e-006 -2.95118866e-006
      -2.15043510e-005 -7.96788663e-005 -4.65598336e-004 2.32389270e-004
      3.16334976e-004 -1.43138517e-004 -3.02194705e-004 3.09214432e-004
      2.37085856e-004 -1.46137299e-005 -5.02242910e-005 -1.91282234e-004
      8.70731019e-005 -3.49246511e-005 2.75232247e-004 9.26313878e-005
      -7.79016482e-005 -5.31320848e-006 2.82290537e-004 1.49162108e-004
      -3.26226909e-005 4.84788052e-006 3.37675592e-004 1.67110775e-004
      -2.23483250e-004 9.63157290e-005 1.41137119e-004 7.20868775e-005
      -1.92638065e-004 -2.19504276e-004 2.08991652e-004 5.45609393e-004
      -6.80111725e-006 -7.74053406e-005 1.31066248e-004 1.42728939e-004
      -1.68873856e-004 1.32080504e-006 1.10129637e-004 2.66761326e-005
      2.97477118e-006 -4.86447279e-005 1.54605987e-005 -6.34150774e-006
      9.94541836e-008 -8.71990778e-006 -1.33629483e-005 -1.43743586e-004
      -6.17457263e-005 1.12851712e-005 -3.67426910e-005 1.66976292e-007
      -9.86945743e-005 -3.33079624e-005 -1.19226961e-005
      -1.28182091e-005 6.35929973e-005 3.30419680e-005 -8.81282904e-006
      8.37359948e-006 1.91970230e-005 4.64398227e-006 -2.70024830e-005
      3.97957507e-007 -7.80146638e-006 -5.80219012e-006 -3.97856684e-006
      1.45977874e-005 1.00876423e-005 3.05502181e-005 1.04317414e-005
      2.50216203e-006 1.49757343e-005 1.88287740e-005 1.61669614e-005
      -3.76246826e-005 3.56188866e-005 -8.48589298e-006 1.22556557e-005
      5.58095098e-006 1.59515912e-005 -4.16174225e-005 4.45515288e-005
      -8.67150266e-006 -2.73152978e-006 -5.13702726e-005 1.75162477e-005
      1.07443548e-005 -5.43642727e-007 1.08580089e-005 5.33097364e-006
      2.13403218e-005 -1.45648246e-005 3.49858283e-006 -1.48816262e-005
      2.34205800e-006 1.10163011e-004 -8.04475076e-006 -2.18049783e-004
      -1.62005614e-004 1.56871334e-004 4.95033397e-004 -3.08539486e-004
      -1.08790802e-004 9.07043868e-005 1.56961425e-004 -3.34393262e-004
      -2.74663798e-005 1.24304890e-004 -2.19084206e-004 2.73880200e-004
      1.85553363e-005 -3.77353834e-004 1.82557967e-004 4.27104067e-004
      -4.75958775e-004 3.50057759e-004 6.54576055e-004 4.61006915e-004
      1.13715672e-004 2.20561109e-004 1.19967270e-004 -1.80017538e-004
      -3.97856202e-004 -3.28874448e-004 2.67905096e-004 7.08064181e-005
      3.80965066e-004 -5.83912115e-005 -3.06179718e-004 -4.02905716e-005
      -2.47745484e-004 -1.17494448e-004 6.19360799e-005 -1.59122465e-005
      -8.97810696e-006 7.33186562e-006 4.23842503e-005 1.15574005e-006
      2.53653889e-005 2.50425255e-005 2.45434385e-005 -1.10631438e-004
      -1.05241001e-004 -1.41083174e-005 -3.45758849e-006 4.67353566e-005
      -7.40508549e-005 1.84083103e-006 1.38227979e-005 -1.58530802e-005
      2.09433747e-005 2.72993893e-005 9.51476906e-008 5.94461198e-006
      1.97974241e-005 1.21363328e-005 -3.48349058e-005 -4.03309532e-005
      -3.82784965e-005 -1.78118698e-005 1.20244613e-006 -5.87817567e-006
      3.46367210e-006 8.07501783e-005 8.43978851e-005 -4.47430551e-007
      1.93105079e-005 4.88639944e-006 1.68917213e-005 -1.60723012e-005
      1.44595233e-005 9.87706812e-007 -1.60119562e-005 -2.71150407e-006
      4.38948018e-006 -7.45421275e-005 1.55787093e-005 -2.39721248e-006
      2.32372095e-005 -2.28292374e-005 3.45141598e-005 1.37091547e-005
      -4.61419995e-006 -1.85803638e-005 2.38845696e-005 2.01261423e-006
      -1.43614279e-005 1.01106116e-006 -3.24214261e-006 -1.67549861e-005
      -3.12963039e-006 1.63565142e-004 -1.10721790e-004 -5.33882703e-005
      -3.36367753e-004 2.93019635e-004 7.38874151e-005 -2.23563402e-005
      2.00270864e-004 1.65204227e-004 -3.39037324e-005 -5.58508676e-004
      -1.73762062e-004 9.37585137e-005 5.78163425e-004 4.91968589e-004
