<?xml version="1.0"?>
<opencv_storage>
<opencv_ml_svm>
  <format>3</format>
  <svmType>C_SVC</svmType>
  <kernel>
    <type>LINEAR</type></kernel>
  <C>5.9999999999999998e-001</C>
  <term_criteria><iterations>10000000</iterations></term_criteria>
  <var_count>12160</var_count>
  <class_count>2</class_count>
  <class_labels type_id="opencv-matrix">
    <rows>2</rows>
    <cols>1</cols>
    <dt>i</dt>
    <data>
      -1 1</data></class_labels>
  <sv_total>1</sv_total>
  <support_vectors>
    <_>
      -5.89961201e-005 2.93608755e-004 1.73892346e-004 -1.17266376e-004
      -2.16246390e-005 4.34005924e-005 2.85167825e-005 3.79565085e-004
      1.90632090e-005 3.76355107e-004 1.47378494e-004 3.45973909e-004
      -1.97513174e-004 7.33592533e-005 1.79090130e-004 3.39842045e-005
      -3.27461603e-005 -3.25702218e-004 9.19889862e-005 1.54963112e-004
      3.51710274e-004 1.63215936e-005 1.04046914e-004 3.56314922e-005
      3.28906899e-004 -1.10924906e-004 -4.21107456e-004 -7.50749095e-005
      5.43846181e-005 3.94654431e-004 -5.21886046e-004 6.13700104e-005
      4.30632499e-004 3.03954526e-004 3.30803334e-004 -5.31427722e-005
      1.92333420e-004 3.61631555e-006 -3.56525743e-005 -1.38836622e-004
      3.39199651e-005 -4.72245447e-005 -1.31338238e-004 1.09425109e-005
      -1.24870030e-005 -1.38741379e-004 -1.27165782e-004 5.27858465e-005
      6.16163525e-005 -7.54637658e-005 -1.93345229e-004 -1.87704791e-006
      2.22471572e-005 3.06498919e-006 -2.77726958e-005 -8.50289871e-005
      -3.81617292e-006 6.07926904e-006 2.68169006e-005 4.77093563e-005
      3.36293051e-005 1.29042360e-006 -3.22775632e-005 7.99816553e-006
      -3.05542386e-007 -6.24375161e-007 -1.53025815e-006
      -1.58198120e-004 -1.71431093e-004 -1.64110988e-005 4.48665605e-006
      1.58403800e-005 4.18213094e-005 6.67765198e-005 2.30417190e-005
      -3.43193351e-005 9.66407970e-006 2.21895152e-006 1.72514163e-004
      8.55260660e-005 4.31718072e-005 2.66178131e-006 2.92326695e-006
      1.41060707e-004 1.49649322e-005 7.75021726e-006 8.27136432e-007
      3.92338407e-005 1.31417519e-005 1.31808802e-005 1.50284413e-005
      7.01298575e-008 1.83370903e-005 1.58214134e-005 1.79734212e-004
      -1.97547546e-004 4.37362847e-004 2.30348742e-004 -1.85702993e-005
      -7.41260417e-004 1.61403106e-004 4.27010964e-005 5.74668884e-005
      -3.58469988e-005 -3.02691013e-004 9.50985850e-005 3.21747939e-004
      2.62835500e-004 9.73422402e-007 3.92843504e-004 2.08229700e-004
      1.61182925e-005 2.74941296e-004 -3.81668739e-004 -8.90449758e-009
      -5.95721940e-006 -1.09942055e-004 2.28204211e-004 3.76270589e-004
      4.99904563e-004 1.61246935e-004 7.00331875e-005 -1.02651011e-005
      -5.74298938e-005 2.80464621e-004 -2.11666367e-004 -1.26730782e-004
      3.35989636e-004 7.94583291e-004 1.34302813e-004 5.39045795e-005
      1.74874760e-004 1.70930671e-005 -1.62765227e-005 -2.77103027e-005
      3.67959874e-005 -3.34208889e-005 -9.81258054e-005 4.21122559e-006
      -4.79584196e-006 -1.78388742e-004 -9.78535463e-005 7.81295385e-005
      -2.02698156e-005 -9.10717572e-005 -1.18795651e-004 2.06965142e-005
      4.24275458e-006 -6.85857503e-006 -5.53983118e-005 -1.85453493e-004
      -2.85456845e-005 1.11384388e-005 3.10380165e-005 2.76273458e-005
      3.78527293e-005 2.60545130e-005 -2.41923171e-005 4.40523445e-006
      1.20844629e-006 1.41075407e-005 4.53128041e-006 -9.81848716e-005
      -1.70160798e-004 -4.00878343e-005 1.36417184e-005 1.02075637e-005
      3.13949640e-005 4.27238847e-005 3.23834320e-005 -2.10455964e-005
      -7.02425223e-006 2.40231020e-006 1.36736839e-004 9.78508178e-005
      3.63315849e-005 -2.60411616e-006 1.58400562e-005 1.04813342e-004
      2.21632235e-005 1.35930213e-005 3.81244490e-006 1.75767782e-005
      1.20448149e-005 7.00018199e-006 8.51605546e-006 7.59881118e-007
      2.95127884e-005 1.06661400e-005 1.82285483e-004 1.67373699e-004
      2.07884965e-004 2.98266648e-004 4.14914772e-004 -1.82709719e-005
      1.10238369e-004 1.40930017e-004 9.60022662e-005 -1.09511639e-004
      -2.13143067e-004 2.31317666e-004 4.80685529e-004 -1.64899961e-004
      -1.11646834e-004 3.94464994e-004 5.61084424e-004 2.55815045e-004
      -3.29364790e-004 -2.15198052e-005 3.24540393e-004 1.43771700e-004
      -3.53782525e-004 -2.74915103e-004 3.01495136e-004 2.19168549e-004
      5.02598006e-004 -1.34354239e-004 5.83466957e-004 -5.70132863e-004
      2.41578935e-004 7.00012060e-006 -2.19253809e-004 6.84963306e-005
      3.02247063e-004 1.03879494e-004 -1.51772532e-004 1.54535257e-004
      5.65189475e-005 9.83671998e-006 -5.23975905e-005 4.47314142e-006
      -2.90449657e-006 -9.85645311e-005 -8.72542114e-006
      -1.57918657e-005 -1.43892146e-004 -7.90290651e-005
      -1.32662071e-005 -1.06962098e-005 -9.74180584e-005
      -1.24112892e-004 1.04179753e-005 1.04510091e-005 -4.30401087e-007
      -6.68481662e-005 -1.13029644e-004 -1.91198214e-005 6.06599633e-006
      1.82003041e-005 4.73173095e-005 5.42537709e-005 5.09056808e-005
      -4.14143033e-005 -5.86331680e-006 -3.09169970e-008 1.44032319e-005
      -2.45912106e-005 -1.43245546e-004 -1.72304222e-004
      -1.13597571e-005 -1.74443278e-006 9.24793221e-006 3.40151491e-005
      6.47254783e-005 1.35871987e-005 -5.40418550e-005 -4.25419728e-007
      -2.00995942e-007 1.50486463e-004 1.61216958e-004 2.84234266e-005
      1.48404570e-005 2.68605945e-005 1.23793274e-004 2.15096406e-005
      6.95941389e-006 2.51907568e-006 1.47203264e-005 7.03252908e-006
      1.59041629e-005 1.40031452e-005 8.03562443e-007 9.29918497e-006
      7.35681260e-006 1.36764371e-004 9.23765856e-006 -1.85303434e-004
      -1.15716139e-005 3.29457805e-004 -2.06115015e-004 5.85929782e-004
      4.74097236e-004 1.72563479e-004 -2.51586986e-004 1.26468221e-004
      -1.83696466e-005 2.98794272e-004 2.49819394e-004 -8.14619852e-005
      4.42781253e-004 2.53910664e-004 -7.01224199e-005 -7.62402051e-005
      -3.98288626e-004 1.34992981e-004 4.90760314e-004 -2.46946787e-004
      -6.74348907e-004 4.04894759e-004 -3.91868089e-005 1.93694563e-004
      -9.84192520e-005 -2.65184353e-005 3.13989789e-004 7.30289976e-005
      -5.97579601e-005 5.17042245e-005 -3.33885517e-004 1.44574573e-004
      1.12641486e-004 -6.06034118e-005 2.95909500e-004 4.23649180e-005
      -9.19518880e-006 -4.54246729e-005 5.17113403e-006 -6.72453325e-006
      -6.04154593e-005 -2.58283144e-005 -2.82443452e-005
      -1.95985194e-004 -9.54480493e-005 -1.12705631e-008
      -2.50721750e-005 -1.40268166e-004 -2.21410068e-004 2.42002770e-005
      2.22204562e-005 3.70999237e-006 -9.37329241e-005 -1.67128805e-004
      -5.23987837e-005 4.45643946e-006 2.37528839e-005 5.38887580e-005
      5.50331752e-005 -7.46926526e-005 -5.22245537e-005 8.20372804e-007
      -3.91080761e-007 2.28585996e-005 1.56046972e-005 -7.37671071e-005
      -1.65163627e-004 -2.06473233e-005 3.42866360e-006 2.28275221e-005
      4.40891054e-005 6.29675342e-005 3.52807729e-005 -3.79203811e-005
      -5.67727739e-006 -6.91483024e-007 1.94899534e-004 1.31749897e-004
      4.43288845e-005 1.61732496e-005 9.87793283e-006 1.35995986e-004
      2.81440643e-005 1.28614392e-005 5.19332502e-007 3.58146790e-005
      9.81168978e-006 2.59358603e-005 6.29214946e-006 1.65858808e-006
      2.07209887e-005 2.00308386e-005 1.65063524e-004 -4.17693045e-005
      3.42976127e-004 4.35880094e-004 4.62365831e-004 -1.22680256e-004
      1.34931353e-004 2.93909136e-004 2.03275820e-004 -9.10237723e-005
      9.56239892e-005 3.66129214e-004 9.64363862e-005 3.22655687e-004
      1.89046405e-004 3.86702159e-005 5.14814572e-004 3.92520888e-004
      3.20214895e-005 -8.13227598e-005 3.39844322e-004 2.49100762e-004
      3.26630281e-004 3.82899952e-006 -4.07064741e-004 5.48159296e-004
      -2.53345905e-004 4.25488761e-005 2.18914124e-006 8.46790208e-005
      1.68554441e-004 2.72959122e-004 -1.86532518e-004 -4.71244188e-004
      2.02402720e-004 3.44289845e-004 -3.70272028e-004 2.18889138e-004
      5.05685493e-005 -2.43781269e-005 -3.71757124e-005 2.65969084e-005
      -3.87017317e-005 -2.19359481e-005 4.43914223e-006 -3.84112936e-005
      -1.59795440e-004 -1.25581981e-004 -1.95262583e-005
      -3.40402075e-005 -6.59712459e-005 -1.98428519e-004
      -4.76805963e-006 1.88327522e-006 -2.47958887e-005 -1.00387078e-004
      -1.09464585e-004 3.05482126e-006 7.84216081e-006 3.46116394e-005
      2.24111500e-005 8.38023152e-006 -7.01258541e-005 -2.56205076e-005
      -2.65126033e-007 2.01986040e-006 6.83016196e-006 1.97024583e-005
      -8.67006456e-005 -7.84381991e-005 -3.23112945e-005 8.03055536e-006
      1.16902784e-005 2.83141580e-005 8.07534961e-005 3.01748041e-005
      -4.10277607e-005 1.56820170e-005 -3.81331574e-007 1.84461940e-004
      9.84240105e-005 5.05447497e-005 2.70031251e-005 1.76575395e-005
      4.17630690e-005 2.34191521e-005 2.53223388e-005 3.63318259e-006
      2.58362288e-005 1.18777552e-006 1.13137066e-005 8.25699408e-006
      1.63036646e-006 -5.08090943e-006 1.15468793e-005 2.29437850e-004
      -5.74418373e-005 7.24707716e-005 2.10801110e-004 -1.00377445e-004
      -2.85204413e-004 3.28037626e-004 4.38008370e-004 1.90108578e-004
      5.43741626e-004 1.80413495e-004 1.49055064e-004 8.13799197e-005
      5.02372277e-005 1.33134445e-005 -9.35858479e-005 1.89054248e-004
      1.02878323e-004 2.37753862e-004 -3.70875059e-005 2.13580162e-004
      1.44473510e-004 -1.99777623e-005 -2.61671346e-004 -3.56231641e-004
      3.18367180e-004 1.79083072e-004 2.68391595e-004 5.76630933e-004
      5.35577419e-004 4.30318672e-004 -1.28126499e-004 1.21784731e-004
      -1.76867863e-004 5.01237228e-005 -1.39629934e-004 -8.04190786e-005
      2.11438135e-004 4.27156992e-005 -2.97233892e-005 -3.56190685e-005
      1.00348216e-005 -1.73424705e-005 -8.97847422e-005 -5.47819900e-006
      -5.61305842e-006 -1.54080495e-004 -1.58254057e-004 1.55816051e-005
      -9.73397437e-006 -8.74276666e-005 -1.94968816e-004 1.10658139e-005
      1.98970629e-005 1.16625524e-005 -1.22311185e-005 -1.13203743e-004
      -3.03870565e-005 1.39302401e-007 3.15666548e-005 3.46532215e-005
      5.40450710e-005 6.12517397e-006 -3.48989342e-005 8.34167224e-007
      2.75753905e-006 1.23653072e-005 3.11579856e-006 -1.09591958e-004
      -1.63107063e-004 1.57497816e-005 1.10569260e-006 9.49081368e-006
      2.69528773e-005 6.47492488e-005 1.15756829e-005 -6.05877540e-005
      6.58721365e-006 1.93381311e-006 6.24824388e-005 9.51359107e-005
      4.69376755e-005 1.57202394e-005 2.49201439e-005 7.26805010e-005
      3.71914830e-005 1.12724974e-005 1.57954366e-006 4.39036048e-005
      1.34763513e-005 1.46078000e-005 1.93854576e-005 3.53329528e-006
      1.18572589e-005 2.55494124e-005 2.05656892e-004 3.59225305e-006
      9.26189387e-005 1.91605839e-004 8.20888163e-005 2.03108182e-004
      -1.45811282e-005 4.80489951e-004 8.09464327e-005 -2.86973693e-004
      -8.64749472e-006 -3.31657138e-005 3.11157753e-004 2.64074071e-004
      -2.12290761e-004 2.37945264e-004 2.75962288e-004 -1.98272974e-004
      -1.23869642e-004 2.66216375e-004 1.70463289e-004 3.62869148e-004
      1.37301583e-006 -1.47854807e-004 -2.09432401e-004 4.46649239e-004
      1.46230741e-004 1.27133215e-004 -1.10264205e-004 -7.44673307e-005
      7.20049720e-005 6.18001741e-006 -2.65813374e-004 1.11470952e-004
      2.64068076e-004 2.78561958e-004 4.75591776e-004 3.09981377e-004
      2.54447314e-005 -4.51401206e-007 -3.23802669e-005 2.33836181e-005
      -7.07621575e-006 -9.20106249e-005 -2.12947543e-006
      -2.08787569e-005 -1.31992027e-004 -1.42734076e-004 1.00941907e-005
      -2.35419229e-005 -6.38945203e-005 -1.61256452e-004
      -2.31417816e-005 6.08001665e-006 8.24475865e-006 -1.06932705e-004
      -1.05120474e-004 -1.57610375e-005 1.04080782e-005 3.11124459e-005
      3.59032201e-005 4.84755401e-005 -3.64152911e-005 -1.85067784e-005
      -3.67460257e-006 1.71390525e-006 1.09834564e-005 2.27459532e-005
      -8.31323923e-005 -1.58558803e-004 -1.29097853e-005 1.06648331e-005
      1.72082437e-005 3.35913937e-005 1.50244568e-005 -6.24813038e-005
      -3.81034733e-005 -1.98127564e-005 -5.24192615e-007 1.27989930e-004
      9.90443950e-005 4.57365204e-005 2.52719701e-006 2.20635593e-005
      1.32089626e-004 2.22606832e-005 1.51166250e-005 2.64376695e-006
      3.58469588e-005 1.44087235e-005 2.73571113e-005 1.13299329e-005
      3.79474636e-006 2.61648947e-005 2.03208474e-005 1.33665351e-004
      -6.56903139e-005 4.18725482e-004 2.16449116e-004 8.79229701e-005
      -5.61322202e-004 4.92095191e-004 1.38283285e-005 1.53104091e-004
      5.86565875e-005 2.04512486e-004 1.75406938e-004 2.70080462e-004
      -1.11076057e-004 2.99559382e-004 1.04994666e-004 1.73590510e-004
      -1.98061007e-005 1.02974409e-005 -2.49291566e-004 2.03695454e-005
      -1.02273480e-004 3.80332553e-004 -6.59313882e-005 1.24225087e-004
      4.15769719e-005 2.44854891e-004 4.86961799e-005 3.08139977e-004
      -1.39414304e-004 5.12539700e-005 2.45158008e-004 1.09565350e-004
      3.33458556e-005 2.30106030e-004 3.71190574e-004 1.25226434e-004
      1.00026460e-004 5.08261692e-005 -4.49660620e-005 -6.42305240e-005
      -6.33911839e-007 -2.09249833e-006 -6.46003828e-005
      -2.97664137e-005 -1.65419660e-005 -4.40420590e-005
      -8.96386264e-005 2.91443484e-005 1.57651430e-005 -5.76729180e-005
      -1.32877816e-004 -8.69778887e-006 8.21139929e-006 7.11171765e-007
      -4.10223329e-005 -7.34555651e-005 -1.69796531e-005
      -2.82035103e-006 1.96111250e-005 1.16676574e-005 4.61422569e-005
      -1.71147949e-005 -2.30503738e-005 -1.35034488e-005
      -4.56477181e-007 1.98015755e-006 -1.03011334e-005 -7.83399082e-005
      -3.31509655e-005 -2.50786670e-005 1.96541032e-006 6.94903201e-006
      1.87488295e-005 -5.04041225e-007 -1.19077258e-005 -9.98303312e-006
      -2.19619460e-006 -2.17779711e-006 5.48784228e-005 1.13590948e-004
      1.41710379e-005 3.34712104e-006 1.69559917e-005 6.54916730e-005
      1.55489215e-005 5.19994092e-006 2.10850862e-006 3.13144192e-005
      9.82025358e-006 1.46999139e-006 6.51061146e-006 2.11679958e-006
      1.96855108e-005 2.80056265e-005 2.15838503e-004 -3.45538429e-004
      2.73194193e-004 1.10115499e-004 2.24464347e-005 -1.50436696e-004
      4.17350930e-005 2.63317343e-004 3.98951779e-005 -2.51146004e-004
      1.49695261e-004 -6.56580669e-005 -1.22022619e-004 -2.01148287e-005
      -1.10386318e-004 7.08658408e-005 3.78073339e-004 2.39691886e-004
      2.32144055e-004 -3.97452357e-004 -1.30582906e-004 4.95179083e-005
      7.86243181e-005 5.80618856e-004 -2.13013918e-004 1.41533077e-004
      -4.15072755e-005 -2.53652433e-005 2.55179330e-004 -2.39029803e-004
      3.76737822e-004 2.61853100e-004 2.35976011e-004 -4.09105443e-004
      -6.84780462e-005 1.88667836e-004 -2.80479464e-004 2.88032479e-005
      -2.82445180e-005 -5.02727153e-006 -4.66260644e-005 3.46550078e-005
      -2.42786573e-005 -1.31252491e-005 6.02364207e-006 2.21204027e-005
      -2.73520182e-005 -2.85230708e-005 -1.79519975e-005 1.16923693e-005
      2.07687626e-005 1.86846119e-005 -1.48712234e-005 1.68895913e-005
      6.49359117e-006 -1.15840812e-005 -9.09908340e-005 -2.28971430e-006
      6.15011777e-006 2.27970777e-005 2.98348550e-005 1.22470028e-005
      3.24723405e-005 -5.45823150e-006 2.30682917e-006 2.46731815e-006
      3.89794604e-006 -1.41020682e-005 -1.25467763e-004 -1.37054420e-004
      -3.04815730e-005 4.46150034e-006 1.55840571e-005 2.18119294e-005
      3.29586182e-005 -9.82442180e-006 -5.74357000e-005 1.74569649e-007
      4.60244252e-007 7.83411597e-005 5.74881278e-006 3.45943663e-005
      -8.73580393e-006 1.45374188e-005 2.45976207e-005 3.56281248e-006
      1.02154336e-005 1.17863988e-006 2.93320172e-005 7.39785082e-006
      1.08481390e-005 2.69765155e-006 -2.26421275e-006 1.07217311e-005
      -9.71946793e-006 1.23879086e-004 -3.88883986e-004 -4.02547128e-004
      1.51074841e-004 -4.43883946e-005 2.19011963e-006 -2.37312401e-004
      1.18463191e-004 2.90936325e-004 2.34221719e-004 4.12071298e-004
      -3.28714086e-004 -1.01671256e-004 -2.92707031e-004 2.32615275e-004
      -1.88166858e-004 -1.09721965e-004 -2.39527493e-004 1.85532685e-004
      -3.85077554e-004 -3.83593404e-004 -3.07530077e-004 4.03800397e-004
      -9.14208649e-005 9.56630756e-005 3.28195660e-004 4.53910703e-004
      -2.02112104e-004 5.25003474e-004 -5.11453545e-004 -2.87965784e-004
      -1.49907442e-004 4.39179072e-004 2.85255403e-004 6.59128564e-005
      9.82449637e-005 1.07631524e-004 1.07774467e-004 -7.30534475e-006
      -8.11275549e-006 -2.34318741e-005 2.19058384e-005 1.46604361e-005
      -1.69180112e-005 -4.03468721e-006 1.32694004e-006 -2.94919901e-005
      -4.32494271e-005 -8.18111403e-006 -1.37730021e-005
      -1.05521060e-004 -1.52885754e-004 1.35994524e-005 4.93674088e-006
      -5.02549847e-006 -4.81677016e-005 -1.37489813e-004
      -5.86606220e-005 5.32172908e-006 2.20231886e-005 3.77658725e-005
      4.74240842e-005 5.57173153e-005 -1.77618385e-005 -1.51358618e-005
      4.12216906e-007 -1.18024536e-006 -2.79409160e-005 -7.59717004e-005
      -1.22552796e-004 -2.12921368e-005 5.84983945e-006 7.19785930e-006
      6.98488066e-006 -2.07475150e-005 7.31838736e-005 -2.74694648e-005
      6.03978197e-006 -2.55668283e-006 1.08997127e-004 1.00238351e-004
      4.51181222e-005 -5.47352101e-006 1.66983154e-005 8.68117568e-005
      8.88319573e-006 3.00345914e-006 -1.54613599e-006 2.15049240e-005
      1.62267497e-005 1.34421316e-005 -1.38251444e-005 -1.90878382e-006
      -1.23262917e-005 1.73375629e-005 1.59551477e-004 -1.19373748e-004
      2.96374870e-004 -4.29753563e-004 -7.03197802e-005 3.40330007e-004
      -3.48224101e-004 -3.62599065e-004 -2.68622185e-004 3.73599207e-004
      -6.75172487e-005 2.14601649e-004 -2.24493837e-004 -1.05351661e-004
      -1.74454355e-004 -3.92185320e-004 3.34446195e-005 1.52290639e-004
      3.26539477e-004 2.72056295e-005 -1.97725400e-004 7.24155034e-005
      1.08644599e-004 3.45478067e-004 5.60204571e-005 -4.97326721e-004
      -2.18097470e-004 -4.87797843e-005 -1.11908143e-004
      -2.39589848e-004 -9.82081328e-005 -9.21850587e-005
      -2.48783093e-004 -2.52045604e-004 -1.71302745e-004 2.80809181e-004
      1.81209165e-004 1.02837548e-004 -3.20752115e-005 3.94596645e-006
      -2.66517472e-005 3.50756454e-005 2.92588538e-005 -2.59225053e-005
      2.25065050e-005 1.16709689e-005 -5.14128769e-005 -1.24663260e-004
      1.18756236e-006 -1.74143088e-006 -1.15807641e-004 -1.50411477e-004
      -9.56449458e-006 1.88210524e-005 -2.88433293e-005 -3.09293901e-005
      -1.46707418e-004 -1.34628035e-005 -6.75994352e-006 2.88518695e-005
      1.24481658e-005 3.42462372e-005 5.56742561e-005 -2.71755271e-005
      -1.28736528e-005 -7.31197179e-006 -6.51114624e-006
      -1.05850231e-005 -2.93356024e-005 -9.02552274e-005
      -3.81307946e-005 9.60216312e-006 1.43427833e-005 2.88192277e-005
      2.96898379e-005 7.73102365e-005 -3.45726548e-005 -2.58567206e-006
      3.26245822e-006 7.09470114e-005 1.13635106e-004 3.58172074e-005
      5.08517542e-006 -2.22032741e-005 8.69117357e-005 2.34920262e-005
      2.45350147e-005 1.85545268e-008 1.66462996e-005 9.38365611e-006
      1.31312090e-005 1.65471340e-006 -3.28543706e-006 -1.96325054e-005
      1.88455283e-006 1.46718405e-004 -7.29489402e-005 1.49638672e-005
      -4.21102275e-004 -7.44688616e-004 1.51267814e-005 -1.01070946e-004
      3.09091447e-005 2.09436301e-004 1.88443344e-004 -1.41219702e-004
      -1.99477854e-005 -4.56215348e-004 -6.52671210e-004 5.73327343e-005
      -3.43305524e-004 -2.11679231e-004 6.28958165e-004 8.18117314e-006
      1.87131354e-005 -8.69477692e-004 -1.41757628e-004 1.85678109e-005
      1.27313673e-004 -4.09586442e-004 -1.18095362e-004 3.78976751e-004
      -1.84651304e-004 2.49652687e-004 -1.89517552e-004 -4.45853191e-004
      -2.44949450e-004 2.18098328e-004 -5.04853844e-004 -8.53649326e-005
      1.41643337e-004 5.47945565e-005 1.77818336e-004 7.39431152e-006
      1.49574544e-005 -5.93330196e-006 3.95828538e-005 3.88563385e-005
      -4.64843179e-005 1.34429433e-006 6.78550805e-006 -4.38861525e-006
      -1.44552876e-004 -7.01734371e-006 1.18833268e-005 -9.89740001e-005
      -2.16699889e-004 -4.07996049e-006 2.91336291e-005 1.69120412e-005
      -6.09855815e-005 -1.26644620e-004 -2.44841631e-005 4.16349030e-006
      2.20413003e-005 5.88351359e-005 6.94991322e-005 4.49253130e-005
      -2.82649526e-005 -6.19811726e-006 -1.96426322e-006 1.64025059e-005
      -2.92518889e-005 -1.14685077e-004 -1.22741301e-004
      -7.05794309e-006 1.06615435e-005 1.59073043e-005 2.78737225e-005
      2.87952789e-005 1.72091295e-005 -4.69336373e-005 -1.62784784e-006
      -1.22856636e-006 5.81400564e-005 2.80024396e-005 1.86738598e-005
      -1.61941091e-006 -2.75472448e-005 1.36884584e-004 3.05866092e-006
      3.61603179e-006 3.09882739e-006 4.62703028e-005 1.29452665e-005
      1.91130257e-005 7.47045169e-006 2.00364525e-006 -2.67037449e-005
      1.52824778e-005 1.40527103e-004 2.93651596e-004 -1.77445268e-004
      -5.46235024e-005 -4.21611476e-004 2.53352900e-005 -2.37257322e-004
      1.14645947e-004 -1.98012771e-004 2.52417143e-004 1.34583228e-004
      2.17781679e-004 4.93476837e-005 -8.34530569e-004 -1.44062520e-004
      -1.52263965e-004 2.78088351e-004 3.77888529e-004 5.22670452e-005
      1.97930291e-004 -3.98675125e-004 6.78062061e-005 -4.04150283e-004
      -2.03323434e-004 -1.38409973e-007 -4.44723730e-004 3.19638319e-004
      1.87328369e-005 1.95867950e-004 -6.62678867e-005 2.35289597e-004
      -6.41250983e-004 -2.33197308e-004 -1.43791098e-004 5.85795060e-005
      7.48031671e-005 -2.78254185e-004 1.87918908e-004 6.67942322e-006
      1.41883284e-005 -2.63421334e-005 2.98445248e-005 1.18751677e-005
      -3.78123295e-005 1.28311331e-005 2.17068246e-005 -4.36832597e-005
      -1.36942457e-004 -4.37028530e-006 -6.98292706e-006
      -7.25749924e-005 -2.61010980e-004 -1.55476282e-005 2.55509822e-005
      -1.68868264e-005 -7.79403126e-005 -1.07628934e-004
      -2.68257390e-005 -2.68709027e-006 2.14231459e-005 4.05618848e-005
      2.07875673e-005 1.07186606e-005 -4.82883661e-005 -3.27850212e-005
      -1.72636567e-006 1.60600812e-005 -1.98298276e-005 -7.38335293e-005
      -8.37325133e-005 1.89021262e-006 -8.82612483e-007 9.73204715e-006
      3.89015622e-005 8.09320627e-005 9.65015861e-005 -3.26783738e-005
      -4.01843408e-006 -1.32322918e-006 1.08788336e-004 1.17535019e-004
      4.99987982e-005 7.07839308e-006 -1.74514153e-005 5.63171416e-005
      2.81059783e-005 1.55985999e-005 -4.54209658e-006 4.04302518e-005
      1.65546098e-005 2.20387446e-005 -1.39719905e-005 1.39489293e-006
      -3.38823666e-005 -1.05841264e-006 9.52955816e-005 2.33334053e-004
      2.82559718e-004 1.24825048e-004 -1.61910357e-004 1.59291158e-004
      -2.94081343e-004 -1.80704563e-004 -2.06928744e-004 2.24597852e-006
      4.52106469e-004 5.07606426e-004 -1.30866611e-004 -2.53450766e-004
      -4.39297553e-004 1.46206978e-004 2.92357465e-004 3.12601624e-004
      -2.60316156e-005 -2.04300217e-004 2.21953451e-005 -1.50524560e-004
      -7.03839352e-004 -3.38173239e-004 -2.64086440e-004 7.44421850e-005
      -3.27318645e-004 -2.54295854e-004 3.26413807e-004 -3.90047731e-004
      5.64526854e-005 -3.39204998e-004 -8.80220468e-005 -8.26516989e-005
      1.02971913e-004 -2.37821019e-004 -2.69633980e-004 1.97998845e-004
      -8.57067243e-006 -9.72947873e-006 -2.34083927e-005 5.09882420e-006
      1.08038184e-005 -9.29568796e-006 1.64623525e-005 2.71003209e-005
      4.00406589e-006 -1.01793514e-004 2.01355451e-005 -1.71250690e-006
      -7.61315896e-005 -2.62397371e-004 2.20545371e-005 3.62346582e-005
      1.28458960e-005 -5.91443131e-005 -1.03749051e-004 -2.78790048e-005
      5.72104682e-006 2.03504223e-005 4.11112342e-005 4.09631830e-005
      -6.68826851e-006 -2.23825464e-005 -1.89365201e-005
      -1.39507063e-006 6.21863910e-006 -4.23695055e-005 -1.30234475e-004
      -1.08638116e-004 -3.30975854e-005 6.55580652e-006 2.40836671e-005
      2.88381416e-005 1.71864267e-005 6.20386636e-005 -4.89087361e-005
      -4.62585649e-006 2.10764028e-006 3.84741106e-005 1.04360217e-004
      4.55007939e-005 3.17894501e-006 -1.12320959e-005 4.51969354e-005
      3.55597113e-005 1.23647933e-005 1.09327758e-007 1.84245291e-005
      9.83438804e-006 2.27898618e-005 -6.44821012e-006 -4.45448819e-007
      -1.31147026e-005 1.10958417e-005 1.77525537e-004 1.23222053e-004
      3.28410009e-004 -3.40826482e-005 -1.37065972e-005 -4.69847204e-004
      -1.04275452e-004 3.88583605e-004 -2.37727836e-005 1.67001781e-004
      -2.96985017e-005 1.70066953e-004 2.60902976e-004 7.56155569e-005
      3.64432490e-004 6.64130348e-005 -3.87769614e-005 1.22507627e-005
      -2.43304778e-004 2.69200304e-004 6.37620615e-005 -1.77080365e-004
      -4.46153426e-005 -4.39420808e-004 -8.90201482e-005 4.68826584e-005
      1.74532062e-004 -2.15589404e-004 7.35308568e-005 -7.98613764e-005
      -1.52828361e-004 -2.94827696e-005 3.70271475e-004 -4.45012498e-004
      -3.18137172e-004 -1.30384957e-004 4.29668107e-005 2.18200657e-004
      7.98333895e-006 8.15292788e-006 -4.35740039e-005 4.70498417e-005
      9.62212471e-006 -4.75211382e-005 1.16387191e-005 -2.66465946e-007
      -8.39201584e-006 -1.51949818e-004 2.58817327e-005 -1.97930203e-005
      -2.13823496e-005 -2.06261291e-004 1.58477596e-005 3.40633305e-005
      -4.85191549e-006 -1.03249477e-004 -6.00451567e-005
      -4.19360513e-005 1.27350231e-005 3.84786363e-005 4.75579654e-005
      3.44426735e-005 2.00812701e-005 -3.39900289e-005 -1.44737141e-005
      8.88648060e-007 1.05846711e-005 -3.23012464e-005 -1.37921073e-004
      -1.48951527e-004 -2.86887862e-005 1.42481103e-005 1.33358471e-005
      2.97862589e-005 1.32628838e-005 3.72067989e-005 -5.16616674e-005
      -4.01094712e-006 3.05786102e-006 5.29215613e-005 1.36657662e-004
      3.69349691e-005 -7.21969218e-006 -7.81338895e-006 5.37953201e-005
      1.62151755e-005 2.49225595e-005 1.11378938e-006 3.48295507e-005
      1.07806745e-005 2.14689844e-005 3.56234932e-006 2.98290252e-006
      -7.20717981e-006 1.07227906e-005 1.22446567e-004 -2.31838509e-004
      5.18225075e-004 2.06833458e-004 3.86337226e-004 5.27383781e-005
      -2.65842918e-005 -2.50244902e-005 1.15309420e-004 2.86515075e-004
      2.15431850e-004 4.57412389e-004 4.52425826e-004 -7.35537687e-005
      3.53837560e-004 4.22165147e-004 2.80267937e-004 3.14121688e-004
      1.15711999e-004 1.08466542e-004 9.97920433e-005 7.10444874e-005
      -1.52579101e-004 -2.55079271e-004 -1.20575442e-005 1.87961457e-004
      1.76371286e-005 -1.99612521e-004 1.81257928e-004 2.05867167e-004
      3.50759045e-004 1.92879394e-004 -9.45377033e-005 -5.09171514e-004
      3.00182641e-004 9.70093970e-005 -1.80026022e-004 7.48118182e-005
      -6.57736928e-006 -4.35515831e-005 -4.19693897e-005
      -1.56324622e-005 -9.68298446e-006 1.02981639e-005 1.42768149e-005
      -2.70740543e-006 -3.28656715e-005 -3.09962707e-005 1.65821257e-005
      -8.57408941e-006 -3.48967951e-005 -1.04907522e-004 6.69870451e-006
      -4.35339871e-006 -2.01408966e-005 -1.03856728e-004
      -7.93069194e-005 -1.83990123e-005 8.69800988e-006 1.88760041e-005
      2.78819298e-005 1.28831898e-005 3.37963820e-006 -4.32897723e-005
      -5.19896321e-006 3.56430451e-006 1.47365949e-006 -1.91649133e-006
      -3.94280432e-005 -6.99073717e-005 -2.41164616e-005 7.91691036e-006
      -2.86290947e-006 2.72600446e-005 4.97926158e-005 6.41363658e-005
      -1.16293668e-005 -6.79248524e-006 1.69244902e-006 2.91763035e-006
      6.92244939e-005 1.73234057e-005 1.23254649e-005 4.60082083e-006
      1.40553839e-005 2.38596404e-005 5.95600204e-006 -2.35618836e-006
      2.22428826e-005 2.07912326e-005 8.31437410e-006 -3.10640689e-006
      3.12018415e-006 4.32652030e-007 1.00655807e-005 2.03570453e-004
      2.67184601e-004 3.85365769e-004 1.00660756e-004 2.35031679e-004
      1.76609508e-004 -6.92264148e-005 1.95501358e-004 -1.46126637e-004
      5.72891659e-005 5.99613031e-006 2.46648764e-004 1.52504494e-004
      1.43632060e-004 -2.32132297e-004 -7.66824742e-005 -2.20052243e-004
      -7.95984452e-005 -2.21233102e-004 2.52112397e-004 -8.36627587e-005
      3.20500840e-004 7.25050922e-005 -2.15653472e-005 -4.22703015e-005
      1.53026107e-004 -3.33535922e-004 -1.46137740e-004 5.38331631e-004
      -1.11792833e-004 -2.48090189e-004 -3.57374258e-004
      -8.27566910e-005 7.01999961e-005 4.85588855e-004 -4.39647010e-005
      -4.00841091e-004 5.53042846e-005 -2.25678632e-005 4.80934250e-006
      1.11743948e-005 3.36270205e-005 3.98669472e-005 4.97944420e-005
      9.06276728e-006 2.94398178e-005 1.23622405e-004 4.41977936e-005
      -8.64900812e-006 -5.71637756e-005 3.09382485e-005 5.52044221e-005
      -4.28507661e-007 -1.02725990e-005 -2.19950471e-005
      -8.06620847e-006 -1.72286764e-006 -7.44901536e-006 1.73365388e-005
      2.19868089e-005 -4.77560025e-006 -5.82872053e-005 -1.05554616e-004
      -1.10259216e-005 2.12076679e-006 4.75746947e-006 -1.96288443e-006
      -5.46567644e-005 -5.65271257e-005 3.33808712e-005 1.15744888e-005
      7.83336691e-006 1.73029966e-005 1.40038833e-006 -1.23289556e-006
      -3.86606189e-005 -3.50295486e-005 -6.45188265e-007
      -5.72054830e-007 -4.82354153e-005 -3.47865607e-005
      -2.68673939e-005 -7.66319260e-007 8.96724123e-006 -1.02514743e-004
      5.43006900e-006 7.97069424e-006 6.39452651e-007 -4.23874844e-005
      1.61516018e-005 1.69514315e-005 1.02141994e-005 -2.29178522e-006
      6.43154499e-006 3.18225193e-006 8.44209571e-005 1.47663261e-004
      1.15600131e-004 -2.59649969e-004 -1.15656570e-004 8.13864244e-006
      8.30885372e-004 1.05462081e-004 1.34402566e-004 -4.51338474e-006
      -2.62622576e-004 -2.64922361e-004 -2.74533784e-004
      -4.81311523e-004 3.29200499e-004 2.93865189e-004 -2.35130337e-005
      -3.90260771e-004 2.62896880e-004 5.07662073e-004 6.59569778e-005
      1.07364292e-004 -4.14826442e-004 -1.27342282e-004 -2.74064456e-004
      -1.44280013e-004 -9.96744784e-005 -5.49561693e-004 7.26590079e-005
      -3.19547893e-004 -1.38045187e-004 7.69732651e-005 -3.31458519e-004
      1.14539718e-004 1.72342334e-005 -4.26037732e-004 -3.83943989e-004
      2.15386481e-005 -4.10231260e-005 8.19659090e-006 -1.66707960e-005
      2.12588129e-005 1.49364223e-005 3.48186659e-005 9.85795123e-006
      3.96737232e-005 1.20541052e-004 1.29720705e-004 -3.14800964e-005
      -4.69746010e-006 3.35823388e-005 4.91581959e-005 1.03627572e-005
      -7.94061270e-006 -2.04246317e-005 -5.51471057e-005
      -5.69518816e-005 9.62757076e-006 -7.52485732e-007 1.53864876e-005
      -5.12498855e-006 -4.96962275e-005 -8.39887725e-005
      -4.67727150e-005 7.05810180e-006 1.73382762e-006 -2.38171087e-005
      -4.02394871e-005 -2.44941439e-005 4.86413956e-005 2.70000546e-005
      4.07688094e-006 2.61148143e-005 5.99974510e-006 -2.71515692e-005
      2.36161468e-005 -6.36339746e-006 1.75856821e-005 2.45288145e-008
      -1.46754115e-004 -4.04109196e-005 -1.92576663e-005
      -1.71363135e-005 2.74782997e-006 -3.11448093e-005 -1.17086847e-005
      1.75715122e-005 5.56813166e-006 -1.73317676e-005 2.10200633e-005
      3.37309939e-005 -2.13238354e-006 -5.22356731e-006 -3.70792463e-006
      -1.43505858e-005 9.07457070e-005 -2.74781924e-004 -4.01109137e-004
      9.72930575e-005 4.38969524e-004 -1.84223682e-005 -2.28715999e-005
      -4.86127188e-004 -7.38668023e-005 2.61417852e-004 -1.29726744e-004
      -8.39189124e-006 -4.85251279e-004 1.07832711e-004 -1.02833605e-004
      3.58794932e-005 1.68270009e-004 -9.93545618e-005 -2.82962777e-004
      -1.16236450e-004 -2.34643758e-005 2.63379014e-004 -2.96107319e-004
      2.28105753e-004 7.75316512e-005 -3.24835913e-004 -4.53999150e-004
      -9.30679453e-005 -5.98901497e-005 -5.01736649e-005
      -9.37769510e-005 3.16219375e-004 6.86460407e-005 -4.27348772e-004
      -2.22967850e-004 -5.36297855e-004 -6.23628803e-005 6.21062063e-005
      -3.78864133e-005 7.30749343e-006 -2.04321668e-006 3.65640808e-005
      4.34494068e-005 4.89721206e-005 9.95309802e-006 2.13420062e-005
      8.88609356e-005 9.24761262e-005 -1.16240444e-005 -3.11359945e-005
      -1.00603338e-005 2.31045124e-005 3.71349197e-005 -3.91258345e-006
      -1.63060395e-005 -1.22756668e-004 -8.85657428e-005 8.57343912e-006
      2.88678325e-006 2.63286638e-005 1.01702899e-005 -4.88956675e-006
      -8.33415470e-005 -3.99199453e-005 1.21732674e-005 1.39930023e-006
      -7.72183557e-006 -1.79425151e-005 -5.31612613e-006 5.81644490e-005
      2.40314216e-006 3.23349122e-005 1.31075094e-005 2.59683884e-006
      3.61334764e-006 4.83083659e-006 -1.66136051e-005 1.04076225e-005
      2.13010844e-006 -1.16898533e-004 -2.55919185e-005 8.54907466e-006
      -9.06637797e-006 5.76909486e-007 -7.36532602e-005 -5.89486945e-006
      1.14655795e-005 -6.26240876e-007 -4.32708330e-005 1.05491981e-005
      2.78183143e-006 -2.05754441e-005 -1.64114306e-006 1.33302672e-006
      8.35907304e-006 9.12486867e-005 2.40693815e-004 -7.71993888e-004
      -2.19411391e-004 2.41231581e-004 -4.93769650e-004 -2.89301151e-005
      -3.53378622e-004 -8.13405204e-005 -2.38458524e-004
      -2.06761215e-005 -5.75920043e-004 -2.63817259e-004
      -6.26910478e-005 -1.25343460e-004 -1.99501374e-005
      -2.15411957e-004 1.58553157e-005 -1.63423509e-004 2.07396617e-004
      -7.08018488e-004 -5.72418212e-004 -3.21195344e-004
      -1.97150992e-004 -3.51096242e-004 -1.64537531e-004
      -2.65091367e-004 -3.38170357e-004 7.94698208e-005 -1.17710209e-003
      -3.86607164e-004 -4.49396262e-004 1.65559424e-004 -7.29221385e-004
      -2.44096853e-004 -6.01746608e-004 -4.34946065e-004 2.15964814e-004
      -3.47188143e-005 1.47170149e-005 -2.11643601e-006 4.68483377e-005
      4.51943852e-005 -2.47721418e-005 9.41247163e-006 4.36494847e-005
      7.82887582e-005 -9.60533362e-005 -6.15822819e-006 3.96057067e-006
      -4.70427476e-005 -1.96386736e-005 1.78712344e-005 2.67783289e-005
      9.62435024e-006 -1.00205616e-004 -1.44446210e-004 2.49310579e-005
      1.55315374e-005 3.31794326e-005 7.34807418e-006 1.27480716e-005
      -1.38472125e-004 -3.62376377e-005 1.15432358e-005 -2.32869047e-006
      6.33806576e-006 -3.05065296e-005 -6.42629020e-005 2.76126120e-005
      3.01793516e-005 2.00355444e-005 8.70744771e-006 -5.54910912e-006
      -1.80629886e-005 -1.15755742e-004 -1.29212058e-005
      -1.12448060e-005 2.21404616e-006 4.00412391e-005 -1.61477656e-005
      2.13857838e-005 -1.43910565e-005 -1.24743374e-005 -1.34262314e-006
      1.67640483e-005 1.19158394e-005 -2.08554638e-006 -2.66352545e-005
      -2.95540099e-006 1.32673849e-005 -7.41858094e-006 9.47866909e-007
      1.52098310e-005 6.61353579e-006 1.55120739e-004 -2.84634996e-004
      -4.21649485e-004 -4.98242851e-004 1.48864958e-004 2.23500720e-005
      -1.28368571e-004 -2.29205471e-004 -3.08441900e-004
      -1.27500956e-004 -2.76181410e-004 -6.25003187e-004
      -4.51734726e-004 -5.13088191e-004 -5.14731764e-005 9.42191691e-005
      2.48988235e-005 -1.09985216e-004 3.50380637e-004 -6.60578662e-005
      -6.76430762e-004 -3.34357610e-004 -2.01940944e-004 1.92297462e-004
      -7.31712673e-004 -2.79286964e-004 -4.71328560e-004
      -2.88215961e-004 -1.40449643e-004 -9.18441045e-004
      -4.72419837e-004 -1.70383486e-004 -1.33681151e-005
      -1.13505026e-004 -6.09523908e-004 2.56509753e-004 1.57471426e-004
      1.90360573e-004 -8.47913088e-006 8.48096715e-006 -1.63998611e-005
      2.88387619e-005 2.94771580e-005 -2.67794494e-005 1.94605436e-005
      4.97330693e-005 8.17085529e-005 -8.76884806e-005 -1.70840922e-005
      -2.90072109e-007 -1.55642738e-005 -5.85306043e-006 1.06599491e-005
      3.26355766e-005 6.49343065e-006 -9.94129441e-005 -1.70686530e-004
      5.87743534e-006 1.04584442e-005 3.44481814e-005 3.81051650e-005
      -8.59160900e-006 -7.92517021e-005 -4.35353249e-005 9.65653908e-006
      3.73304260e-006 1.78515838e-005 -1.40933626e-005 -7.31411055e-005
      -3.61464736e-005 3.94822018e-006 8.80130210e-006 1.36411991e-005
      1.30867074e-005 -2.25907570e-005 -5.23994022e-005 -1.59243518e-005
      -1.01149280e-005 9.27021688e-007 5.39070061e-005 -2.69471584e-005
      1.89452726e-006 -1.89069342e-005 -1.75788482e-005 5.10064565e-005
      1.27453086e-005 5.19236801e-006 -1.76322305e-006 1.67477665e-005
      3.16725595e-006 2.57059546e-005 -4.31609305e-006 -3.85254140e-007
      -1.64593064e-006 7.49530273e-006 7.93249783e-005 1.12735092e-004
      2.41910384e-004 -3.82178026e-004 -3.43983585e-004 -4.20819415e-004
      1.25575389e-004 -2.58051878e-004 -1.53127185e-004 -4.53576155e-004
      -1.24457642e-004 -3.60383245e-004 -4.52903114e-005
      -1.66535596e-004 5.07121324e-004 4.78348898e-004 2.89645541e-004
      -4.27734660e-004 -9.94968796e-005 -4.75004170e-004
      -1.56399401e-004 -6.19659491e-004 -9.51072943e-005 3.29689297e-004
      -2.63695343e-004 1.87604135e-004 1.29157561e-004 9.92136338e-005
      -3.80676152e-004 -5.09644218e-004 -5.30737743e-004
      -2.32848732e-004 7.51253610e-005 1.06084539e-004 2.17771361e-004
      4.50977968e-005 7.47216036e-005 1.65495963e-004 -1.34628335e-005
      1.50096157e-005 -2.61784453e-006 3.32922427e-005 5.31292171e-005
      1.17242753e-005 2.35877342e-005 3.60176273e-005 5.52172824e-005
      -5.74933656e-005 -1.44115047e-005 -1.76385347e-005 3.01982345e-006
      -6.82060054e-005 -8.41560359e-006 1.15793227e-005 -2.52844238e-005
      -8.46848634e-005 -4.46594058e-005 4.78630091e-006 2.36982714e-006
      1.55775015e-005 3.61676866e-005 7.00404001e-008 -8.76681879e-005
      -4.82209907e-005 -7.45937996e-006 1.76556398e-006 1.72633747e-006
      -8.59509692e-006 -8.52487501e-005 1.46536458e-005 8.19120123e-006
      1.03271923e-005 1.93228898e-005 1.11060281e-005 -6.51005394e-005
      -9.59785903e-005 -1.21753474e-005 5.42700400e-006 1.92043649e-006
      1.43530715e-005 -5.44168906e-005 -2.05221409e-006 1.25910128e-005
      4.59022522e-006 5.91061616e-005 8.86794351e-006 1.46414086e-005
      2.83125951e-006 6.97462701e-006 9.29081671e-006 2.47471908e-005
      -1.57704199e-005 -1.88929744e-006 -2.04649550e-005 5.02712237e-006
      1.37409443e-004 1.85103963e-005 1.82823889e-004 3.30529991e-004
      -2.22668052e-004 -3.05901020e-004 -3.52597097e-004 2.51189398e-004
      4.68089165e-005 -1.90103718e-004 -6.57060824e-004 -3.05012858e-004
      5.26381154e-005 -1.41739132e-004 -3.26771042e-005 -3.95564799e-004
      1.54045396e-004 3.66221153e-004 -2.47174001e-004 -2.41414702e-004
      -2.90749042e-004 1.98078575e-004 4.67280079e-005 5.72273682e-004
      -3.91866168e-004 2.96090759e-004 7.65057805e-004 -3.14726611e-004
      -3.45330627e-004 -1.31559136e-004 -1.05263825e-004
      -2.00197130e-004 7.83694995e-005 1.88257603e-004 -2.01501403e-004
      4.24746395e-004 -2.50937563e-004 9.23820699e-005 -3.09511670e-005
      -1.36492167e-006 -4.47188104e-005 4.38550269e-005 1.80666921e-005
      -3.87793989e-005 2.20200400e-005 4.59462390e-005 9.14514094e-005
      -1.57790164e-005 -3.73573494e-005 1.87192818e-005 4.99572452e-005
      2.89794534e-005 8.45906470e-006 7.50107620e-006 -9.16417594e-006
      -3.51153394e-005 2.45462561e-005 2.16272929e-005 1.56811584e-005
      3.00191241e-005 1.22820466e-005 -3.19003266e-005 -2.47796652e-005
      -9.48657635e-006 2.81133566e-007 3.65851093e-007 8.62246452e-006
      -4.01096077e-005 -1.97341593e-004 -2.85315709e-005 1.38737714e-005
      2.91028246e-005 1.53092951e-005 4.52141794e-005 -5.83011888e-006
      -1.36629082e-004 -5.26991134e-005 -9.44684143e-006
      -1.83752832e-006 -1.96359360e-005 -3.76368007e-005
      -8.63808793e-007 -1.24303924e-005 -5.41864347e-006
      -1.13611541e-005 1.44320047e-005 2.49065815e-005 3.92943775e-006
      2.52322752e-005 8.91901345e-006 2.22683298e-006 -9.47685476e-006
      3.95111419e-006 9.61246042e-006 2.36630895e-005 8.75099795e-005
      1.29392982e-004 -1.29335967e-004 -4.25426661e-005 7.93988802e-005
      5.19862399e-004 3.76725548e-005 3.70513560e-004 -3.95434618e-005
      -3.90049390e-004 1.46860300e-004 2.71341763e-004 2.96609884e-004
      3.72089940e-004 2.80728476e-004 1.73731198e-004 -6.19301063e-005
      2.23782354e-006 -7.34461137e-005 6.44948916e-004 -2.16135140e-005
      -2.00571041e-004 -7.97031462e-005 1.85551573e-004 -7.70677070e-005
      -2.51175225e-004 3.56576420e-005 7.21368560e-005 2.67117983e-004
      -2.12669373e-004 8.28232442e-005 -2.22009941e-004 -8.79769359e-005
      2.61529349e-004 8.75091064e-004 4.14556634e-005 1.15987750e-004
      6.45117470e-005 3.00049373e-006 4.46751073e-005 -3.44966952e-006
      -2.38324101e-005 6.73190807e-005 7.95582673e-005 -2.95904465e-005
      1.07112810e-005 1.25426828e-004 2.27828750e-005 -2.26126831e-005
      -5.20031426e-005 1.73549161e-005 1.05128085e-004 -7.22942877e-006
      -6.59786156e-006 -4.25576109e-005 -7.09751475e-005
      -2.87599164e-006 2.78291623e-006 4.39824134e-006 3.96807118e-005
      -5.38773611e-006 -3.94385934e-005 -2.91118013e-005
      -1.70657950e-005 -2.46065326e-007 1.65556216e-007 1.38675077e-005
      -2.00975883e-005 -3.82060243e-005 -1.61578610e-005 2.02721913e-005
      9.05546585e-006 1.04261881e-005 -3.94620065e-006 -2.52899808e-005
      -8.61515855e-006 -2.28796071e-005 1.27237472e-005 9.11545754e-008
      -4.15415707e-005 -8.73760509e-005 1.45502863e-005 5.19335345e-006
      4.62493608e-006 -1.07719410e-004 -1.01264895e-005 5.79458720e-006
      -1.53258122e-006 -8.88745853e-006 6.24783979e-006 1.29657692e-005
      -8.83281609e-006 -2.72733701e-006 -1.82454369e-006
      -5.09417805e-006 6.05201130e-005 2.86111579e-004 3.56796227e-005
      2.49107488e-005 -7.77739333e-005 -8.98766448e-005 2.65033537e-004
      2.32653023e-004 -2.54174374e-004 -3.54697753e-004 5.29102435e-005
      1.31478810e-004 -5.55650273e-004 -6.69507775e-004 4.82929754e-004
      1.71020685e-004 -4.35197057e-004 -1.35692346e-004 9.12965479e-005
      3.27271351e-004 -4.68653998e-005 1.94248874e-004 -4.25025937e-005
      2.04883036e-004 3.49654525e-004 3.79154400e-004 6.32143128e-005
      1.10172798e-004 -2.81431916e-004 -1.40396340e-004 2.14766333e-004
      -4.99357644e-004 5.07032964e-005 8.22110014e-005 -4.06469098e-006
      1.15989133e-004 3.67968780e-004 1.68788509e-004 -2.35375210e-005
      2.64252731e-006 -8.98256621e-006 1.93833530e-005 2.15532036e-005
      1.04928868e-005 1.09150496e-005 2.71950994e-005 1.71950905e-005
      6.46781336e-005 -1.73566459e-005 -1.91992785e-005 -4.52858658e-005
      -1.69156228e-005 -1.53686397e-005 1.59420142e-005 -2.16994499e-006
      1.16662086e-005 -1.53435521e-005 -2.52799564e-005 1.04936589e-005
      1.04090750e-005 2.42350634e-005 7.08464086e-006 -7.14613952e-006
      -3.33613934e-005 -3.78540062e-006 -1.13681992e-007
      -1.76150490e-006 -1.27312687e-005 -2.52370337e-005 1.76504636e-006
      -1.67480794e-005 -6.55253530e-007 1.08601898e-005 1.47209657e-005
      -3.04126952e-005 -1.23349200e-005 -1.77086204e-005
      -1.11529644e-005 -2.96885815e-007 3.43410684e-005 -5.53220561e-005
      6.86209523e-006 -1.63802888e-005 -1.19893430e-005 -8.62292145e-005
      2.93212543e-005 2.27957171e-005 5.59087937e-007 -1.63592836e-006
      1.08393615e-005 1.27431713e-005 -3.66706308e-006 1.47105914e-006
      -2.82774108e-005 3.83208999e-007 -2.95000586e-006 1.75364432e-004
      5.77392202e-005 -2.33759871e-004 -2.78611231e-004 5.65355236e-004
      -3.10878182e-004 1.03145485e-005 2.04781070e-004 -1.37026800e-004
      -3.50728049e-004 -9.79189426e-005 -3.50901100e-005 7.92865176e-005
      1.88226608e-004 1.63082601e-004 2.33022423e-004 -2.36362448e-005
      1.10947782e-004 2.04195443e-004 -2.44639682e-006 -4.56817070e-004
      1.18304502e-004 -1.55579139e-004 1.27540057e-004 1.27773077e-004
      1.32167726e-004 8.36174804e-005 3.03645706e-004 -2.26959761e-004
      -7.24355050e-004 -3.81168822e-004 5.12462924e-004 -1.03244267e-004
      1.26778701e-004 -3.27260816e-004 -1.04548046e-004 1.93333617e-004
      -1.51109844e-005 2.91202514e-006 -3.32588788e-005 2.03086474e-005
      1.07775395e-005 3.11520889e-005 2.05971719e-005 4.89406775e-005
      2.21750524e-005 -4.61048649e-006 -1.12746602e-005 3.28802889e-005
      -1.29801701e-005 -2.44156254e-005 9.34968739e-006 1.02254558e-006
      -2.97011757e-005 1.76125159e-005 -1.61623248e-005 -2.36532069e-005
      2.89947748e-005 3.97071453e-005 4.16877492e-006 -3.69292211e-005
      -6.98811346e-005 -2.97284132e-005 3.26819963e-006 4.05137143e-006
      4.35891343e-006 -8.90088450e-006 -1.95235270e-006 6.71880298e-006
      -7.13098188e-006 -1.40585564e-006 1.89614657e-005 1.75817677e-005
      -5.22788196e-006 -1.69000225e-006 -2.55283903e-005
      -1.41306728e-005 4.28018723e-007 3.73182934e-006 -3.51146300e-005
      -6.57215935e-007 -1.29502741e-005 -1.95472894e-005
      -1.28264306e-004 -7.22180812e-006 2.43716204e-005 -9.88986017e-007
      -3.12114062e-005 1.56723545e-005 1.86516390e-005 -1.44548503e-005
      -3.87825730e-006 -2.49323894e-005 -9.76672709e-006 6.09329181e-005
      -4.46887221e-004 3.79483477e-004 -1.14911694e-004 -2.65870767e-004
      2.17621200e-004 -4.26662737e-005 4.76759596e-004 1.08022468e-004
      5.74526086e-004 -1.88485603e-004 2.31044178e-004 3.15569254e-004
      -6.23707427e-004 3.52383562e-004 -1.74532935e-004 -7.29383610e-004
      -8.11311242e-004 -5.99039122e-005 -8.80372027e-005 1.64554949e-004
      -2.05929638e-004 -3.74182709e-004 -9.95727023e-005
      -3.19554638e-005 -8.54793980e-005 4.55476184e-005 1.96248424e-004
      2.64297356e-004 -7.44685312e-005 -2.07915044e-004 -4.99696296e-004
      1.24193830e-004 -4.58108116e-004 -5.99467487e-004 -2.08603204e-004
      2.90424970e-004 1.39439886e-004 -1.23004857e-005 3.03232525e-007
      7.26319740e-006 3.62461760e-005 3.83157385e-005 4.70818850e-005
      1.28548036e-005 4.11085784e-005 2.19312460e-005 -4.09251770e-005
      -4.45299520e-006 1.71334214e-005 -1.44559253e-005 -7.18408191e-005
      1.45997892e-005 1.89150960e-005 -1.34138481e-005 -6.02310574e-005
      -7.32451590e-005 -5.33193561e-005 1.46600551e-005 3.06426191e-005
      1.81624855e-005 -5.59191940e-005 -1.63717647e-004 -8.06490280e-005
      -2.00285485e-005 -3.13372743e-006 8.79889831e-006 1.26412642e-005
      7.01078752e-005 1.36866132e-004 -2.50818684e-005 -1.20808397e-006
      2.25678341e-005 3.81636819e-005 5.87048780e-005 4.57219867e-005
      -9.61146634e-006 -1.75655732e-005 1.02182912e-006 1.75923560e-005
      -1.03235492e-004 2.59414392e-005 2.03397531e-006 -2.33303927e-005
      -1.29213979e-004 2.46862346e-005 1.20355098e-005 -5.44131308e-006
      -3.11115800e-005 -7.72847955e-007 1.83417342e-005 -1.55515081e-005
      -3.90408695e-006 -2.43114737e-005 7.65438108e-006 9.64344144e-005
      -1.11413821e-004 -1.59673888e-004 -2.20653776e-004
      -4.73402964e-004 5.69982658e-005 -6.41413208e-004 -9.84625513e-005
      -7.56030029e-004 -6.04240748e-004 -1.76972171e-004
      -4.78444301e-004 -3.44909611e-004 -7.94699125e-004 4.87902522e-004
      3.50313203e-004 -7.66411758e-005 -4.52698558e-004 -4.82838979e-004
      3.12310258e-005 -4.79144956e-006 3.08610447e-006 -2.03157761e-004
      -7.92249339e-005 -4.10975539e-004 -5.55373204e-004
      -3.70028109e-004 -4.30273249e-005 8.58331841e-005 -1.35002309e-004
      -4.10484587e-004 -1.33224443e-004 7.48689854e-005 -1.35120834e-004
      -4.34367103e-004 -3.07401242e-005 1.87740632e-004 2.13415682e-004
      -1.64031535e-005 1.89202201e-005 -9.94452421e-007 2.57863358e-005
      3.97759322e-005 9.03340515e-006 2.09507580e-005 5.02420880e-005
      4.37338276e-005 -1.08153763e-004 8.46111732e-007 2.12158757e-005
      -8.06072148e-006 -3.81523423e-005 2.82282308e-005 2.28658264e-005
      -1.07916685e-005 -3.27938360e-005 -8.69572905e-005
      -5.02401163e-005 1.30681892e-005 2.63682341e-005 3.68079891e-005
      -5.14989915e-005 -1.64739948e-004 -7.91188213e-005
      -3.05832036e-005 -5.50749633e-007 1.97446025e-005 -6.27772943e-006
      5.51058620e-005 3.05603789e-005 -1.37812677e-007 8.02663908e-006
      2.24637643e-005 1.83824868e-005 -9.28884674e-006 -1.96881010e-005
      -1.35457549e-005 -3.50321498e-005 3.38679143e-007 1.93808555e-005
      -6.97740979e-005 3.66029672e-005 -7.21047763e-006 -3.57902513e-006
      -7.86479795e-005 9.11554525e-006 2.43670565e-005 -5.83856547e-007
      -2.16909248e-005 8.09565609e-006 1.79461040e-005 -1.41174105e-005
      1.17114134e-007 9.03964008e-007 -9.78887692e-006 1.25991734e-004
      -1.14930117e-004 -5.58983127e-004 -4.69277962e-004
      -3.21462721e-004 -7.09555534e-005 -1.88627164e-004
      -6.87182110e-005 -1.94489636e-004 2.99937761e-004 1.51527318e-004
      -5.52749378e-004 -1.03531766e-003 -5.09091653e-004 2.58043554e-004
      -6.04730973e-004 1.84238961e-004 -5.79117215e-004 -1.44272242e-004
      8.72507590e-005 -3.71689122e-004 -5.36229461e-004 -3.12438933e-004
      6.58430363e-005 3.52045550e-004 -3.72599898e-004 -3.47469235e-004
      -2.87390540e-005 4.35045717e-004 -2.30803984e-004 8.25174993e-006
      -7.59470975e-004 3.27277899e-004 -2.97638529e-004 -2.22016388e-005
      -1.46098959e-004 -3.81449849e-004 2.58651737e-004 -2.79833257e-005
      2.50601970e-005 -1.80549650e-005 3.99045457e-005 4.75691813e-005
      -4.65559533e-005 1.82989643e-005 4.56359085e-005 1.19204102e-004
      -4.68911931e-005 -4.97559267e-006 -1.71083889e-006 6.18384956e-006
      -6.52870367e-005 1.74381821e-005 2.50996964e-005 -3.41922023e-005
      2.68096628e-005 -1.72988293e-005 -3.20365325e-005 9.78871230e-006
      3.62453429e-005 2.48737997e-005 -3.48752073e-005 -4.85271703e-005
      -1.64291996e-005 -1.23244681e-005 -9.49954199e-007 1.08250251e-005
      -4.16593684e-005 -2.92921486e-005 -7.41207550e-005
      -2.07738249e-005 1.46104103e-005 2.18024397e-005 2.55785853e-005
      2.02433203e-005 -8.06815660e-005 -5.31787991e-005 7.79455490e-007
      -1.06269681e-006 9.03672844e-006 -4.77229041e-005 -1.65941055e-005
      -1.44829810e-005 -4.72875145e-005 -1.30247994e-004
      -8.25834741e-006 1.58417824e-005 -4.22354378e-006 3.29761406e-006
      1.82857802e-005 2.41655071e-005 -1.16064693e-005 1.12707517e-006
      -1.79970891e-006 1.13670994e-005 1.13360489e-004 -3.17786689e-005
      -2.44210823e-004 -1.35863607e-004 -2.72122270e-004 2.11303442e-004
      -6.80346915e-004 -3.67261731e-004 7.83465930e-006 -1.19713135e-004
      7.97566390e-005 -4.29522275e-004 -3.82546947e-004 -3.15211801e-004
      -1.62767115e-004 -1.61191507e-004 1.46149439e-004 -2.50014768e-004
      2.48608849e-004 2.87470466e-004 -3.01892123e-005 -4.75792709e-004
      -5.60522349e-005 2.90424447e-004 -2.19280177e-004 -5.18750108e-004
      -7.29972497e-004 -5.19627822e-004 -1.41874971e-005 3.10066935e-005
      -3.20347172e-004 1.10643836e-004 1.83075914e-004 1.45533522e-005
      -7.31108594e-005 -1.73361812e-004 -3.79938429e-004 2.53421109e-004
      -8.34092930e-007 1.37028528e-005 -1.01361311e-005 2.82658730e-005
      3.13535602e-005 3.63605113e-006 2.01706389e-005 1.37761635e-005
      1.01282552e-004 -4.30403015e-005 1.77395195e-005 1.31693548e-006
      1.34999073e-005 -6.43330786e-005 -9.49019977e-006 7.16096656e-006
      -4.35261154e-006 -1.04883120e-005 6.29505757e-006 -4.56328817e-005
      1.16575748e-005 2.32382317e-005 3.74706069e-005 8.15932071e-006
      -3.66241838e-005 -4.89864578e-005 6.63387664e-006 -3.67147754e-006
      4.25865164e-006 -5.97278131e-006 -2.60905672e-005 -7.42784759e-005
      -1.40936263e-005 1.29733517e-005 1.09858038e-005 3.55803932e-005
      -2.19489539e-005 -1.06548796e-004 -4.42860583e-005
      -2.55324958e-005 8.50359339e-009 1.31977722e-005 -4.35274378e-005
      9.72571797e-006 -1.64662270e-005 -1.75015775e-005 -1.85240366e-004
      6.48442665e-006 7.38245717e-006 1.60654270e-006 4.02582009e-006
      1.39815220e-005 1.92409625e-005 -4.73248474e-006 -2.23140296e-006
      -8.16960619e-006 5.59159253e-006 1.30386266e-004 -1.93858199e-004
      -2.22910836e-004 -4.50520856e-005 5.91016651e-005 1.28544954e-004
      -3.56227130e-004 1.40654316e-004 1.83069234e-004 7.94038177e-004
      2.66799965e-004 -1.42787176e-004 6.91022478e-006 -3.49808164e-004
      6.50664151e-004 -2.44848889e-005 4.25456492e-005 -2.13943291e-004
      2.37884215e-005 1.93610962e-004 -4.03776321e-005 -2.59772776e-007
      -3.70683963e-004 1.76624832e-004 -3.26728070e-004 -7.19969466e-005
      1.26788582e-004 -5.44189068e-004 1.81909767e-004 3.42862739e-004
      -1.06743057e-004 -3.87442182e-004 -3.60346981e-004 1.43922778e-004
      -1.65246631e-004 -2.11517021e-004 -1.27562409e-004 2.05675708e-004
      1.78710422e-006 5.87972590e-006 -1.02803288e-005 3.13904457e-005
      4.24015197e-005 2.88678712e-006 2.43987797e-005 4.20059405e-005
      5.83496440e-005 -6.33046584e-005 -1.30978378e-005 -6.01595411e-006
      6.92545582e-005 -6.24401946e-005 1.33354547e-006 9.82528582e-006
      -3.81961217e-005 1.99747919e-005 1.59277588e-005 7.01819545e-006
      4.81246161e-006 4.17340379e-005 4.36855271e-006 5.36910193e-006
      2.97517508e-005 -9.94478251e-006 -3.56455848e-006 1.40939278e-006
      -1.53689405e-006 1.57153067e-006 -5.31523365e-005 -8.29163764e-005
      -3.16321639e-005 1.22058291e-005 1.35888577e-005 1.75791720e-005
      -3.59584446e-005 -9.25552667e-005 -4.92294494e-005
      -8.14070336e-006 3.76290063e-006 1.11412191e-006 -7.69011676e-005
      2.31671511e-005 -2.31983195e-005 -5.41712870e-006 -1.46401566e-004
      1.07094047e-005 1.58019720e-005 1.62026424e-006 -4.78698485e-006
      8.66649316e-006 1.55681864e-005 -2.38655230e-005 -2.12161217e-006
      7.10331187e-006 1.04737546e-006 8.55967010e-005 -2.61092355e-004
      3.37002828e-004 -5.27956814e-004 1.02568192e-004 1.32304820e-004
      -4.78708214e-004 7.18472409e-004 9.19911399e-005 3.61599581e-004
      2.68288975e-004 3.59905243e-004 2.28407778e-004 2.90422922e-005
      -1.19310687e-004 -6.67786589e-005 1.76971880e-004 7.25549835e-005
      5.16985419e-005 1.52935652e-004 1.11907400e-004 -4.25173712e-005
      -2.42990936e-004 -2.54187296e-004 -6.84688392e-004
      -1.68658109e-004 -1.99893213e-004 1.03363898e-004 7.33420835e-004
      -2.07871062e-006 -7.99327390e-005 2.74226069e-004 -1.07249834e-005
      -4.13913338e-004 -5.96442260e-004 -1.25595834e-004
      -2.93448014e-004 1.13302740e-004 5.00707620e-006 3.86630290e-006
      -1.30920025e-005 -1.37698917e-005 2.73116148e-005 7.64263750e-005
      9.70670408e-006 3.22241613e-005 5.17114386e-005 4.43671024e-006
      -2.47283406e-005 -1.43285315e-005 1.91921517e-005 -5.80081942e-005
      -1.47076171e-005 -1.04644459e-005 -2.93658322e-005
      -4.69007173e-005 5.64195625e-006 3.18138473e-006 5.77563060e-006
      2.97455972e-005 -9.20359435e-006 -1.40520788e-005 1.66217360e-005
      -3.23580425e-005 2.15276214e-006 3.86320062e-006 7.89482056e-006
      1.15744406e-005 -4.03709819e-005 -3.72234790e-005 1.54202480e-005
      1.01909454e-005 2.35592779e-006 9.90908120e-006 1.43124753e-005
      1.21815774e-005 -1.63729092e-005 -4.09864788e-006 -7.28390660e-007
      -1.92931839e-006 -1.78724786e-005 1.50388050e-005 -6.10275765e-006
      -4.26906035e-006 -1.57097369e-004 -1.49414109e-006 6.63315268e-006
      1.53673795e-006 -2.39449364e-005 3.30117746e-006 1.98176349e-005
      -9.27517704e-006 -2.96941742e-008 -5.71457804e-006
      -8.50723609e-006 7.56758745e-005 4.86302633e-006 -2.11500650e-004
      -3.21693748e-004 -1.93361848e-004 2.78141873e-004 -4.13537200e-005
      1.83969154e-004 3.23171203e-004 -1.32866437e-004 1.71766675e-004
      -3.02878791e-004 -1.19487152e-006 2.87551142e-004 1.30491244e-004
      -1.66067854e-004 2.93431804e-004 5.54694925e-005 -1.31056353e-004
      -4.33799549e-004 -6.07939910e-005 2.31732221e-004 -3.10924843e-005
      -4.27957944e-004 -3.42590152e-004 -6.07141847e-005 2.35834814e-004
      -1.95627454e-005 -2.32405233e-004 2.80486012e-004 -7.05603670e-005
      -3.15554964e-004 1.01777432e-005 -2.39565430e-004 5.69324708e-004
      2.10943937e-004 4.25837468e-004 1.80322779e-004 1.10199298e-005
      1.37994484e-005 9.75496187e-006 1.56202022e-005 2.56475159e-005
      5.48279932e-005 7.68968039e-006 3.77289725e-005 1.43967467e-004
      8.86739581e-005 -4.07957214e-006 -5.11323597e-005 -7.65408549e-006
      -3.22728198e-007 -7.24540087e-006 -8.73434692e-006
      -3.38604113e-005 -1.88862978e-005 1.78322443e-006 -2.62784965e-006
      7.22048026e-006 5.61787056e-006 -1.67521484e-005 -6.33571108e-005
      1.82428994e-005 -2.62541926e-005 -1.27368576e-005 -9.60061584e-007
      1.15224766e-005 -6.09463859e-006 3.64548141e-005 5.71172131e-006
      2.19864378e-005 6.05443893e-006 1.23762493e-005 1.72393429e-005
      -3.84190571e-005 3.70216571e-006 -1.17764184e-005 -4.16304374e-006
      7.84396619e-008 -1.18567506e-004 -1.21380501e-004 -5.85970781e-007
      -2.15422446e-007 -1.26756076e-005 -2.12039129e-004
      -1.24118169e-005 1.16373276e-005 8.29156704e-007 -5.60839253e-005
      1.92072412e-006 1.64311514e-005 -4.86820909e-006 -4.55259112e-007
      -3.03879369e-005 -9.03123691e-006 1.25897262e-004 -1.17488074e-004
      -4.72723943e-004 -3.25565401e-004 1.27948966e-004 4.55611989e-005
      3.20207269e-004 2.50177225e-004 1.77708775e-004 -5.94180165e-005
      4.57525020e-004 4.26981387e-006 -1.10221743e-004 3.65016633e-004
      4.68209124e-004 -3.42868036e-004 7.82378629e-005 1.26022307e-004
      -8.46404364e-005 -4.07285523e-004 -2.25744981e-004
      -9.44495696e-005 1.30997490e-004 -8.58507519e-006 -2.62466754e-004
      4.44351492e-004 3.38359852e-004 2.75272323e-004 -3.10383562e-004
      8.05314994e-006 4.35975700e-004 2.85152957e-004 4.90913924e-004
      -4.54351830e-005 1.49365951e-004 5.02330833e-004 2.95236270e-004
      1.48280305e-004 -1.65098845e-005 2.09867812e-005 1.10723950e-005
      2.85415936e-005 2.30019468e-005 6.81060046e-005 1.03483735e-005
      7.92186529e-006 5.51759367e-005 5.31550504e-005 -2.54147853e-005
      -4.69096849e-005 -7.74738437e-005 -6.85546911e-005 5.63712319e-006
      3.82086228e-006 -6.27817717e-005 -8.06808384e-005 -1.24227168e-004
      -3.50295977e-006 1.58731800e-005 2.74040212e-005 6.73793011e-006
      -6.76584796e-006 -5.14246749e-005 -4.75721390e-005
      -2.99336693e-006 -7.20055425e-007 -2.75134335e-006
      -7.16485556e-006 6.25049433e-005 6.93787006e-005 2.70958917e-005
      2.03200379e-005 5.40253859e-006 7.50425897e-006 -2.46967793e-005
      4.55165755e-005 1.10257433e-005 -1.45185822e-007 9.57534780e-007
      -4.82143114e-005 -2.33082719e-005 3.23434142e-005 2.44481344e-005
      2.03542713e-005 -9.33490810e-005 -1.55446087e-005 1.01673395e-005
      5.25515816e-006 -4.76686873e-005 1.88799404e-005 1.39729991e-005
      -2.98796676e-005 -8.08126856e-007 -3.69710287e-005 7.45154784e-006
      7.73912470e-005 1.73505483e-004 4.44967782e-006 9.73049391e-005
      -6.91438909e-005 -9.12219621e-005 -1.09891902e-004 9.91635825e-005
      4.33648711e-005 6.38760685e-004 -7.72109197e-005 1.17359821e-004
      -2.92326091e-004 -1.97693134e-005 -1.58432580e-004
      -3.17135600e-005 -1.03027203e-004 4.16222538e-005 2.23731855e-004
      5.14240674e-005 -1.65127218e-004 8.45498653e-005 -2.05146906e-004
      6.15555851e-004 1.13478702e-004 3.63693660e-004 -1.02431979e-004
      1.40872740e-004 1.36433382e-005 -1.32171015e-004 9.47278841e-006
      1.55378046e-004 5.77948929e-004 1.30280372e-004 -2.55179795e-004
      1.14128074e-004 1.30669781e-004 1.46527585e-004 -2.05789547e-006
      1.84455930e-005 1.66482587e-005 3.95495663e-005 6.18111590e-005
      7.73355932e-005 8.78416904e-006 2.89265645e-005 2.12364048e-005
      2.34073668e-005 -3.70861417e-005 -1.82135282e-005 -8.98039580e-005
      -1.84958742e-004 4.45185560e-006 -1.08154416e-006 -6.94350674e-005
      -1.77625816e-006 -9.90576809e-005 -2.62906360e-005 5.20329240e-006
      2.13448275e-005 5.11735880e-006 -5.38942186e-005 -7.23160338e-005
      -5.73324360e-005 -1.39246586e-005 -1.17406876e-006 1.02620807e-005
      8.94859204e-006 8.30679419e-005 9.24446722e-005 3.83292281e-005
      1.21102958e-005 1.85105910e-005 2.16945100e-005 5.51221237e-005
      8.56067854e-005 1.27194626e-005 -1.80543539e-005 4.01136640e-006
      -5.73584621e-005 -1.36394956e-005 1.44495798e-005 -6.97986889e-006
      1.08249524e-005 -1.45342143e-004 2.32835191e-005 2.14249485e-006
      3.13205214e-006 -3.38444879e-005 -3.16005298e-006 1.13120868e-005
      -3.44507826e-005 3.74943670e-006 -2.40723930e-005 4.44448278e-006
      7.03490659e-005 2.59351436e-005 -1.89833372e-004 -2.69208773e-004
      -6.15976969e-005 3.98521690e-004 -5.07110672e-005 -7.69549588e-005
      -2.13084335e-004 5.46415162e-004 2.27935889e-004 -3.72395822e-004
      -5.28018456e-004 3.10945004e-004 1.27855790e-004 -2.93076766e-004
      -6.10796968e-004 -1.92043502e-004 3.91195383e-004 3.81621874e-007
      -4.59158546e-005 1.04792802e-004 2.28869321e-004 8.09811056e-004
      1.47662911e-004 9.27013534e-005 2.11136576e-004 1.21065066e-004
      -5.07590739e-005 -5.22602058e-004 1.50364416e-004 1.50752341e-004
      1.37980489e-004 4.32992601e-005 -5.53530772e-005 -4.59830742e-004
      1.81752475e-004 2.16345623e-004 -6.28994385e-005 2.52621758e-005
      -3.08529070e-006 3.87955770e-005 4.14638598e-005 1.28942920e-005
      3.61230705e-005 4.41358461e-005 6.99983357e-005 -3.89161663e-008
      -5.30314082e-006 -7.54818166e-006 -3.22656348e-007
      -1.22337311e-004 2.10982726e-005 9.76760293e-006 -2.21170212e-005
      -5.54385542e-006 -1.21466626e-004 -1.50471924e-005 1.15293451e-005
      1.89157854e-005 -4.70872601e-006 -7.87325916e-005 -4.83702424e-005
      -2.22916642e-005 -1.10728442e-005 -2.31760828e-006 2.04826538e-005
      -5.00018950e-006 7.53797576e-005 3.68745204e-005 1.21991764e-006
      1.60623331e-005 2.59334865e-005 8.65652510e-006 -5.63481372e-005
      2.75553357e-005 -3.30810735e-006 6.05630191e-007 -6.74408852e-007
      -6.99776574e-005 -9.89710607e-005 6.26410065e-006 -8.25953157e-006
      1.42893159e-005 -1.41024095e-004 9.68678341e-006 9.15013061e-006
      -5.28411965e-006 6.65025482e-006 1.95458852e-005 2.74845388e-005
      -1.67936669e-005 -1.94037830e-006 1.69419650e-006 9.13764234e-006
      7.77818641e-005 3.26187765e-005 -6.20922539e-004 -3.11598385e-004
      -3.59980419e-004 4.48377221e-004 -1.65346413e-004 -5.33137703e-004
      -4.65994177e-004 -1.15806950e-004 2.31584767e-004 -2.98630679e-004
      -8.72578385e-005 6.25942630e-005 3.55927419e-004 -1.82698263e-004
      -1.07321517e-004 -5.00289199e-004 1.67433973e-004 3.68524234e-005
      -8.24149320e-005 1.09883651e-004 -6.23110041e-004 1.38967109e-004
      -2.80409469e-004 8.28127231e-005 -1.93768801e-006 -2.63749855e-004
      2.61569803e-004 1.94519744e-004 4.16035903e-007 -1.65042045e-004
      -1.52123976e-004 -5.65920840e-004 5.48914286e-005 -5.01525588e-004
      4.08945780e-004 2.14178086e-004 -1.49057378e-005 1.27072872e-005
      -3.18905368e-005 2.48838223e-005 3.73540861e-005 -2.60915604e-005
      2.59028147e-005 6.94844493e-005 1.33912166e-004 2.13394196e-006
      2.21554565e-005 2.26059183e-005 2.32486982e-005 -1.03029288e-005
      2.75942512e-005 1.42185690e-005 8.81563574e-006 5.83227447e-005
      3.83311235e-005 2.44391213e-005 1.26609357e-005 2.36342239e-005
      2.68182544e-006 -1.00188927e-005 1.23839882e-005 -3.64586663e-006
      -4.12564259e-006 -3.77911562e-007 -3.93715226e-007
      -1.62223532e-005 -1.49775560e-005 -9.81558915e-005
      -3.14342542e-005 1.92093921e-005 2.62241156e-005 2.33461401e-006
      -7.29868116e-005 -4.40697622e-005 -4.97921719e-005
      -3.99338069e-006 -1.00006446e-006 -4.38512434e-005
      -1.74190835e-004 -2.32382954e-005 -2.17537399e-005
      -3.89945926e-005 -2.02817988e-004 -1.71195425e-005 9.96419567e-006
      9.16847682e-007 -3.35120512e-006 1.34945558e-005 1.42756126e-005
      -1.51275490e-005 -1.14823035e-006 3.77951596e-006 -7.69868348e-006
      8.18289554e-005 1.59154559e-004 -2.10300248e-004 3.94740819e-005
      -4.16923169e-004 3.13618366e-005 8.96780984e-005 -8.00866692e-004
      -3.95277923e-004 2.50990153e-004 -2.25790063e-004 4.90898310e-005
      -5.78448758e-004 1.22776881e-004 3.90604400e-004 -4.62912576e-004
      -5.11220947e-004 -3.44346277e-004 4.79387934e-004 -8.32052901e-005
      -1.30680739e-004 -1.34323680e-004 -7.06475868e-004
      -5.56557032e-004 -5.07215329e-004 -6.69603367e-007 4.05932406e-005
      -1.85688783e-004 -3.75856071e-005 -2.31321828e-005
      -1.81001917e-004 2.29394907e-004 1.30079818e-004 -1.18691729e-004
      -4.98506823e-004 5.24432971e-006 -3.26850597e-004 2.08203928e-004
      1.29558221e-005 7.72669227e-006 6.95885046e-006 3.85892599e-005
      4.11967048e-005 6.62994080e-006 9.73603619e-006 3.64354601e-005
      1.41337456e-004 6.93362890e-005 -1.87661153e-005 -9.93273261e-006
      2.80283839e-005 -4.05238570e-005 2.49685072e-005 1.09948342e-005
      -1.69789328e-005 -4.78569689e-007 2.40651552e-005 1.87452206e-005
      1.28357169e-005 2.43880058e-005 3.81317841e-005 -1.51362474e-004
      -5.22219998e-005 -1.13429169e-005 4.18272793e-006 -2.09007999e-006
      -5.13087252e-006 -2.16364351e-005 1.74164106e-005 -7.64482902e-005
      5.67910974e-005 1.25412944e-005 1.75444420e-005 1.38331861e-005
      -7.36487636e-005 -6.89995359e-005 -3.83555471e-006
      -5.28049623e-006 4.74110237e-007 -2.26374614e-005 -1.17314870e-004
      -1.54416011e-005 6.48344621e-006 -9.91348134e-006 -2.75056664e-004
      -1.04625190e-006 1.23023483e-005 -1.22493702e-007 -4.26141560e-005
      1.07316764e-005 2.24591131e-005 -2.37421955e-005 1.08775851e-006
      -2.24483574e-006 -2.84713838e-006 1.34547096e-004 -8.30203226e-006
      -4.10818175e-004 -2.96684855e-004 -2.23354480e-004
      -2.21241226e-005 1.09355147e-004 1.74417233e-004 -1.92198087e-004
      1.28838874e-004 -2.19021415e-004 -2.18214816e-004 5.36246458e-004
      2.50252895e-004 -2.62544403e-004 8.52737721e-005 -2.09227874e-004
      -3.45354027e-004 3.58861098e-006 3.00646789e-004 2.00359165e-004
      -1.98424706e-004 5.16694636e-005 -3.55345604e-004 3.89585330e-005
      -3.53086012e-004 -5.89881034e-004 -2.82081368e-004 9.19531085e-005
      -2.97551218e-004 5.90441050e-005 4.10870620e-004 -2.51764759e-005
      5.28318269e-005 -6.89158696e-005 -3.13969358e-004 1.34035450e-004
      1.79363153e-004 2.30688602e-006 1.85465869e-005 -1.30297149e-005
      3.44978253e-005 4.25067410e-005 -3.08498056e-005 2.51116471e-005
      2.95467707e-005 1.24984916e-004 2.02509964e-005 -5.99561918e-006
      -7.41025724e-006 5.86494389e-005 1.07845022e-004 1.01015867e-005
      -5.25502901e-006 -1.75421646e-005 1.95121684e-005 5.92765609e-005
      2.73730602e-005 1.51649338e-005 3.21094849e-005 -3.93191203e-006
      -6.62216771e-005 -2.49004424e-005 -2.12007199e-005
      -1.55120779e-005 -4.79680011e-006 4.40950231e-007 3.16921023e-006
      -2.81682605e-005 -1.24157581e-004 2.42830065e-005 7.16810882e-006
      7.91963794e-006 2.88076881e-005 -1.04671279e-004 -1.23715537e-004
      7.03092766e-008 -1.93494598e-005 -2.51944903e-006 -8.73133176e-005
      -2.10584389e-004 -2.37756867e-005 1.09662788e-005 1.49378811e-005
      -1.42244986e-004 1.46762238e-006 1.03918201e-005 -1.87400428e-006
      -2.42024071e-005 1.71281681e-005 2.37899494e-005 -2.26545103e-006
      5.08731048e-008 -2.68043550e-006 9.89189175e-006 1.46537277e-004
      1.07272012e-004 2.47552438e-004 6.69881294e-004 5.61296009e-004
      -4.82240051e-004 -7.97836910e-005 -3.44728265e-004
      -7.10576598e-004 1.99995600e-004 1.34748290e-004 2.80781765e-004
      2.70602322e-004 3.75980191e-004 2.79420987e-004 2.15850610e-004
      -4.08497290e-004 -1.45505866e-004 -4.01504758e-006
      -9.96770177e-005 1.81284093e-004 -1.04947634e-004 -9.32630428e-005
      -3.14675475e-004 2.76013510e-004 1.71120133e-004 -4.11469548e-004
      1.35255861e-004 -1.78177306e-005 -1.45498736e-004 8.44394017e-005
      -3.58792095e-005 -3.73267103e-004 8.02895229e-005 -2.55954685e-004
      -2.30617326e-004 5.19784400e-004 1.60327705e-004 -2.04452135e-005
      1.01811391e-004 -1.71093495e-006 -1.32943669e-005 9.38510784e-005
      5.61815214e-005 1.06916259e-005 3.29995491e-005 4.79656301e-005
      6.23377709e-005 -8.14123359e-006 -2.39914825e-005 7.12650362e-005
      9.80994446e-005 -2.22917442e-005 -1.43737270e-005 -1.54674544e-005
      1.90400515e-005 3.32759701e-005 4.35748334e-005 9.21342235e-006
      1.26809018e-005 -1.40409384e-006 -8.80738662e-005 -7.45552243e-005
      -1.94280983e-005 -2.03934133e-006 -2.49185518e-006 9.77834679e-006
      -9.48463548e-006 1.04050314e-005 -1.10324225e-004 5.31269179e-005
      6.86424664e-006 1.50491724e-005 -1.16645160e-005 -6.22798907e-005
      -2.71275949e-005 -7.01145837e-006 1.29780506e-006 -1.56678323e-006
      -7.46992519e-005 -6.75360498e-005 -2.91125925e-005
      -4.92776053e-006 2.08166693e-006 -1.24174810e-004 -2.50853482e-005
      1.69959330e-005 2.46295758e-006 -3.01459004e-005 6.71208045e-006
      1.73803674e-005 -8.09670109e-006 1.95662369e-006 -2.17299330e-005
      7.13692998e-006 -8.18879271e-005 5.57845124e-006 -1.89639410e-004
      -1.75946829e-004 -2.75691593e-004 -4.49155079e-004 2.57028762e-004
      4.14639071e-004 -7.66216908e-005 -6.43979292e-005 -6.35414181e-005
      -2.75038965e-005 2.78924475e-004 -3.03818906e-005 -8.19623820e-005
      -4.80594084e-004 3.95074108e-004 -2.74821272e-004 1.53182157e-006
      -2.51025602e-004 -1.83205702e-004 4.62875250e-005 2.14657688e-004
      -3.10869684e-004 8.20870337e-005 1.85291676e-004 -8.75322148e-005
      -5.09481970e-006 9.74030536e-006 -4.23162128e-004 6.28437789e-004
      1.23397229e-004 8.47592019e-005 3.66078282e-004 -8.48173368e-005
      8.12849030e-005 4.76245739e-004 1.93806816e-004 1.64809680e-005
      -9.07973345e-007 -3.53131327e-005 2.40957143e-005 4.17698129e-006
      -2.34631843e-005 -1.06026109e-005 9.82736947e-006 -2.11235474e-005
      2.33310948e-005 -3.45212720e-006 -2.99926114e-006 -4.38679454e-005
      -5.02411785e-005 -3.13226119e-005 -7.02842772e-006
      -1.76036228e-005 -1.05036006e-005 -6.72896276e-005
      -6.11494261e-006 9.13510576e-006 1.28043548e-005 -5.69385747e-007
      -2.15134514e-005 -8.54878635e-006 -2.24812320e-005
      -2.04106491e-005 -2.96700023e-006 7.05384127e-006 -2.21356331e-005
      5.84354202e-005 5.68623045e-006 3.40298975e-005 1.28970969e-005
      1.12313655e-005 2.07962130e-005 -3.05130452e-005 4.41204465e-005
      5.68634596e-006 9.63395223e-007 6.44092552e-006 1.90884766e-005
      -1.14432965e-004 2.58361870e-005 5.30225134e-006 4.70792202e-006
      -7.85763914e-005 -1.10617584e-005 1.89418606e-005 -6.73897716e-007
      -1.30386388e-005 8.62049819e-006 1.01685891e-005 -2.99029034e-005
      2.50671337e-006 -1.78629052e-005 1.52590728e-005 1.15091287e-004
      -4.24177997e-004 -8.16452448e-005 -2.97308020e-006 5.68896321e-005
      -4.07703483e-005 -1.36737741e-004 -1.77617985e-004 6.87792854e-005
      1.99231159e-004 -3.38430516e-004 -4.80062998e-004 9.39434103e-005
      -4.10732464e-004 7.60862167e-005 -1.81976102e-005 3.01884487e-004
      3.82078033e-005 3.77472054e-004 -4.02307720e-004 -3.56705750e-005
      3.36274214e-004 -2.12483719e-005 -3.45145127e-005 -1.83101161e-004
      -4.50998414e-005 1.62699347e-004 -3.18623876e-004 -2.58896122e-004
      -5.84601774e-004 2.76465900e-004 1.40339063e-004 3.07867187e-004
      -9.01250605e-005 -1.42078658e-004 -2.52964364e-005 1.37816123e-005
      2.84222217e-004 3.57827557e-005 1.92564476e-005 2.76694700e-005
      3.86805405e-005 3.35712612e-005 5.89229676e-005 1.59507181e-005
      2.36888754e-005 9.01122403e-005 3.16021360e-005 -3.34966571e-005
      -2.81088414e-005 -7.56366790e-005 -1.23857200e-004 7.09183269e-006
      -3.40380598e-006 -6.54429459e-005 -6.66823689e-005
      -1.18820230e-004 -2.68955773e-005 8.95015546e-006 1.59479805e-005
      1.58708572e-005 -1.14291914e-004 -9.56689910e-005 -6.88716100e-005
      -3.42211642e-005 8.06346577e-007 2.38213961e-005 7.86374221e-006
      9.70333786e-005 1.38602976e-004 6.87395805e-005 1.52986304e-005
      2.14293759e-005 3.91663161e-005 6.03391527e-006 4.00175632e-005
      -1.23954380e-009 1.91217350e-006 6.01231633e-008 -1.23930717e-004
      -1.11366004e-004 1.63969507e-005 2.95846871e-006 1.26180248e-005
      -1.20615696e-004 -1.25941524e-005 1.54843256e-005 3.28833744e-006
      -9.67531159e-005 7.65062305e-006 9.41072540e-006 -2.55813266e-005
      2.20614561e-006 -7.96933182e-006 1.94196637e-005 9.66703228e-005
      -2.92936282e-004 -4.55226284e-004 -2.38676759e-004 2.69428623e-004
      3.83849343e-004 2.52320489e-004 -4.83569202e-005 -2.76249484e-004
      3.14236269e-004 2.92867247e-004 -5.42432361e-004 -4.62392694e-004
      1.06814732e-004 2.95027770e-004 2.24084841e-004 1.62469034e-004
      -9.35563075e-005 4.91044892e-004 -2.08139289e-004 -4.83154261e-004
      -8.56840416e-005 2.18912290e-004 4.11699963e-004 7.60592593e-005
      9.36504584e-005 -3.45181354e-004 9.16448698e-005 3.74609663e-004
      -6.43801701e-004 2.85505157e-005 -7.80911141e-005 3.04986985e-004
      -4.25718259e-004 -6.65442640e-005 -1.29063369e-006 1.86244972e-004
      1.84133358e-004 -2.46586660e-006 2.07736939e-005 5.80520100e-006
      3.66032727e-005 5.28032906e-005 8.38428386e-005 2.35612752e-005
      3.30768671e-005 2.08034198e-005 2.10815942e-005 -2.07925332e-005
      -1.22469201e-005 -7.77150926e-005 -1.04596278e-004 1.78226510e-005
      1.20119294e-005 -5.16305408e-005 -1.94716904e-005 -1.56091264e-004
      -6.03882427e-006 1.91897616e-005 3.52039751e-005 2.62282015e-006
      -8.50544238e-005 -1.32735731e-004 -4.94262131e-005
      -2.30619880e-005 5.64862262e-007 2.57078336e-005 -1.49094658e-005
      7.69533290e-005 4.99879752e-005 3.83106999e-005 8.40543726e-006
      2.26214561e-005 2.31482936e-005 6.76605941e-006 1.13746726e-004
      -4.68702183e-006 4.15248081e-007 -3.14015125e-007 2.12159248e-005
      -5.68174364e-005 -2.50715679e-008 -3.85264138e-006
      -2.92402510e-005 -1.36745250e-004 5.28482997e-006 1.36486360e-005
      -1.35123480e-006 -6.85872656e-005 -1.38732582e-006 2.51110068e-005
      -3.59006517e-005 -5.06040078e-006 -6.48448747e-007 5.14014346e-006
      9.44894564e-005 9.55389478e-005 -3.04126152e-004 -3.46207788e-004
      9.97501920e-005 1.08553089e-004 3.58509191e-004 -7.35325884e-005
      1.47322105e-004 4.26794140e-004 -9.63802377e-005 -2.73192767e-004
      2.18676360e-005 -1.29119609e-004 2.09341742e-004 2.62774207e-004
      -3.41135456e-004 -1.07876724e-004 -1.85453959e-004
      -5.58697648e-005 -1.05817351e-004 -1.09234315e-004 1.37543411e-005
      2.56857777e-004 2.66376319e-005 -5.69414406e-005 -1.55693866e-004
      2.71365076e-004 1.23659163e-004 -2.17725596e-004 1.18944707e-004
      2.78245076e-004 1.52166715e-004 -9.42226543e-005 -3.23404151e-006
      -4.61138581e-004 4.31056134e-004 1.68770654e-004 -2.73154947e-005
      1.41825285e-005 1.08032664e-005 4.55547488e-005 6.23244996e-005
      -1.78594073e-005 1.14827299e-005 3.76843964e-005 1.01191763e-004
      -3.01984455e-005 -1.66976242e-005 5.09851816e-006 -1.81250698e-006
      -6.25027824e-005 1.56626429e-005 1.93101532e-005 1.62417073e-005
      -1.01073501e-005 -9.87387320e-005 6.78776360e-006 1.44463438e-005
      2.17048309e-005 1.51217118e-005 -4.09280983e-005 -4.76183632e-005
      -5.05912467e-005 -1.05453646e-005 8.87984754e-007 -1.00479374e-005
      -2.71349636e-005 6.88265063e-005 -2.13278618e-005 9.11723419e-006
      2.45840092e-005 2.84613179e-005 -1.65446727e-005 -1.33285166e-005
      2.68810054e-005 -2.40340032e-005 -3.09729307e-006 -3.72862905e-006
      -5.82190478e-005 -1.84904093e-005 -3.02084459e-006
      -1.53800738e-005 -3.15993020e-006 -1.25187173e-004 2.70744858e-005
      1.14663435e-005 -1.42254100e-006 -3.11280419e-005 1.89551956e-005
      1.99774913e-005 -1.79262061e-005 -3.30876247e-007 -2.88136016e-005
      9.43640953e-006 2.52017999e-005 -1.94750624e-004 -6.07573966e-005
      1.70851505e-004 -3.19610081e-005 2.20739515e-004 9.01604944e-005
      1.21493104e-004 -3.07940718e-005 2.17252382e-004 4.82090109e-004
      -6.18947088e-005 -2.23750569e-004 1.47291954e-004 -3.27523703e-005
      -2.57949025e-004 -1.59772419e-004 6.25665707e-005 -6.46114786e-005
      -3.93774244e-004 1.94752938e-004 3.35398479e-004 -2.09292397e-004
      2.97679333e-004 -2.78955740e-005 7.12235487e-005 -1.98532172e-004
      3.20348554e-005 -1.30954097e-004 2.47960590e-004 -1.26359329e-004
      -3.57722573e-004 6.55091950e-004 7.56070585e-005 1.02267935e-004
      -2.17695138e-004 -4.74408327e-004 1.32895570e-004 -2.35793432e-005
      9.34070704e-006 -1.17428845e-005 4.69049010e-005 1.64352514e-005
      -3.43892898e-005 2.20511720e-005 4.34375033e-005 5.96928148e-005
      -1.31354420e-004 2.59020817e-005 2.05321576e-005 4.24937753e-005
      -1.10079955e-005 2.19274662e-005 7.39473398e-006 -3.91161348e-006
      1.46348220e-005 -1.97762747e-005 3.40484185e-005 6.21107938e-006
      2.77444360e-005 7.52489314e-006 2.91148681e-005 -1.94737640e-005
      -1.16430101e-005 -2.64544497e-006 -3.43955276e-006
      -7.18721731e-006 -4.71337735e-005 -2.79058750e-005
      -1.13349808e-004 -1.67440667e-005 1.67243506e-005 1.14991317e-005
      2.67609107e-006 -7.61349147e-005 -2.31194717e-005 -4.21683908e-005
      -4.30594173e-006 1.28875547e-006 1.59291521e-005 -4.58880495e-005
      -2.25953645e-005 -2.06588884e-005 -9.76552383e-006
      -4.35568254e-005 2.62507674e-005 1.71253923e-005 -2.53604139e-006
      -1.91187082e-005 1.64296926e-005 1.80355091e-005 -4.57904935e-006
      4.02382057e-006 1.25575725e-005 5.67138750e-006 8.32132428e-005
      2.52206926e-004 3.19418032e-004 1.84822158e-004 2.15700580e-004
      -5.08392346e-004 -1.68919025e-004 3.28966125e-005 -7.66861369e-004
      -6.10185787e-004 -7.37198889e-007 2.74178135e-004 -8.37719926e-005
      2.94003345e-004 -4.21003439e-004 -1.40447271e-004 4.97847168e-007
      -1.43305107e-004 -2.51883670e-004 1.65590740e-004 -2.02635274e-004
      -7.66760204e-005 2.27312503e-005 -3.07276961e-004 -2.53637318e-005
      3.09589523e-004 -1.45956859e-004 -2.19389272e-004 -1.95307948e-004
      2.97598570e-004 -1.31417473e-004 -1.14337541e-004 1.41847748e-004
      -1.08557219e-006 -1.18805576e-004 1.10392248e-004 -3.45607332e-005
      1.87562473e-004 1.18510416e-005 1.72808723e-005 -9.47969693e-006
      2.26435022e-005 3.94116651e-005 -5.44048589e-006 1.52204175e-005
      6.32333831e-005 3.63950458e-005 -8.86732814e-005 2.50831945e-005
      2.37833738e-005 8.72802702e-005 4.10526482e-005 2.30643909e-005
      -4.59206255e-008 4.25070220e-006 3.86619540e-005 5.29750323e-005
      4.67743448e-005 9.24033066e-006 1.68518363e-006 1.29210084e-005
      -3.24785033e-005 -5.76525163e-005 -1.12574253e-005
      -3.55245152e-006 1.86045986e-006 -1.75178229e-005 -3.05532703e-005
      -4.56123889e-005 -1.38942225e-004 -1.53118945e-005 1.02139174e-005
      1.90332721e-005 1.11141480e-005 -8.04253214e-005 -7.46669248e-005
      -7.87617410e-006 -1.30572907e-005 5.94824451e-006 1.71052052e-005
      -1.09976005e-004 -5.98993138e-005 -1.40628617e-005
      -1.65389429e-005 -6.81802194e-005 -1.24222024e-005 2.17405545e-006
      -5.60120895e-007 3.02312810e-006 3.68653991e-006 4.74356602e-006
      -2.75483558e-006 2.07761786e-006 -6.59216857e-006 -4.11477777e-006
      8.62940433e-005 -1.51578890e-004 1.00513716e-004 2.95463164e-004
      2.03115458e-004 1.10464338e-004 1.16391253e-004 -2.64828006e-004
      -2.11792780e-004 -1.71337902e-004 -1.94832712e-004
      -4.97546862e-005 -1.84534467e-004 -3.20114719e-004
      -7.45408543e-005 2.76141363e-004 3.25537927e-004 1.24722974e-005
      -4.21906530e-004 2.00167909e-004 2.84297887e-004 -1.42763471e-004
      -1.83004639e-004 1.50943179e-005 3.90788155e-005 -2.56996631e-004
      -1.43575060e-004 1.53374160e-004 -3.72565482e-005 -9.39371876e-006
      -8.08983896e-005 -6.33801974e-004 3.18025355e-004 2.85921327e-004
      4.00928344e-004 -1.15619485e-004 -2.75185826e-004 9.13296099e-005
      1.83582470e-005 9.52856317e-006 -9.12215819e-006 2.42288315e-005
      4.24114805e-005 8.92069420e-006 -1.51858194e-006 4.08542510e-005
      3.92512957e-005 2.18750902e-005 -1.36728931e-005 -3.61079515e-006
      4.40125077e-005 -3.60449412e-005 4.58450677e-006 6.55785561e-006
      1.14360137e-005 4.60122064e-005 6.08000955e-005 5.42733733e-006
      1.33708518e-005 2.30448986e-005 2.33372907e-006 -2.06166533e-005
      -3.96848882e-005 -2.31054928e-005 -5.33145385e-006 3.53614519e-006
      8.86199075e-007 -1.34324437e-005 9.35737717e-007 -1.44999052e-004
      2.41384242e-007 1.61467451e-005 2.48726865e-005 -4.39254472e-006
      -8.01279893e-005 -6.93915281e-005 -2.77208219e-005
      -8.29448527e-006 -1.70135434e-006 3.91990725e-005 -9.20560706e-005
      -1.25693150e-005 -1.47974306e-005 9.48980414e-006 -9.31376344e-005
      -5.42201042e-006 1.22069032e-005 3.28170063e-006 -1.72334312e-005
      1.04945766e-005 1.57305312e-005 -6.85366558e-007 -1.95776079e-006
      1.08134554e-005 2.16818216e-006 7.62858981e-005 7.11116299e-004
      1.79147915e-004 1.60093565e-004 1.74805478e-004 -3.50961345e-004
      -4.51972119e-005 -6.43037638e-005 -3.31987481e-004
      -2.67865515e-004 -1.78210059e-004 2.12566723e-004 3.07776674e-004
      -1.09111308e-004 3.05040285e-005 -2.57279025e-004 -3.63607629e-004
      1.20847217e-004 -7.80107221e-005 3.35176563e-004 1.00422534e-004
      -1.90899649e-004 3.06482834e-005 -7.02930702e-005 2.92662589e-004
      -3.85580963e-004 -1.25291874e-004 -3.05482390e-005
      -9.99918120e-005 1.26003404e-004 -2.35022861e-004 -1.65408856e-005
      -3.30765251e-005 1.87212252e-004 -2.13882115e-004 -2.45953765e-004
      -1.60023556e-004 9.86334417e-005 1.97591885e-006 -8.43898488e-006
      -4.66755273e-006 4.22858247e-005 1.04960709e-005 5.47303716e-006
      -5.26919735e-007 3.89761453e-006 4.29946049e-005 -2.41115595e-005
      2.38764551e-006 2.90761054e-005 1.44595418e-007 -5.19920141e-005
      -1.16615538e-005 -6.71254202e-006 -1.82835156e-005 9.79652555e-007
      5.19883361e-005 1.58081748e-005 3.41141617e-006 2.09182836e-005
      8.38516189e-006 -1.28491565e-005 2.46205927e-005 8.51613822e-006
      -9.20679838e-007 -5.21126822e-007 7.17719422e-006 -8.90801039e-006
      -3.76774660e-005 -8.83799366e-005 -2.23022762e-005 1.10449946e-005
      1.50822971e-005 5.37842106e-006 -4.93691114e-005 -5.82846769e-005
      -2.77813124e-005 -1.06563284e-005 2.65035555e-006 9.91346024e-005
      -5.76538605e-006 -5.00495526e-006 -2.30931278e-006 1.26402374e-005
      -4.33706518e-005 -1.11238405e-005 1.48731970e-005 -2.08339998e-006
      -1.36820991e-005 5.66572635e-006 1.46276270e-005 -1.72096497e-005
      2.88523847e-006 -5.74354408e-006 -4.10590110e-006 -8.70903750e-006
      -4.24992089e-004 3.64998814e-005 4.01567697e-004 -3.23509485e-005
      1.83583412e-004 -2.62266782e-004 2.14991218e-004 1.01449383e-004
      2.22874631e-004 -1.44903286e-004 1.64220357e-004 -7.23057165e-005
      -1.40236705e-004 -1.75199704e-004 1.59388619e-005 -3.69650115e-005
      -1.84304139e-004 3.68866567e-005 -3.00644693e-004 -7.83249343e-005
      3.09472758e-004 7.85814336e-005 -1.60985161e-004 1.09041772e-004
      -3.24702705e-005 3.41268256e-004 1.81719279e-005 -4.78079019e-004
      1.33337962e-004 1.85946614e-004 1.01416968e-004 6.74071547e-004
      -4.60653595e-004 -6.20165156e-005 -2.21546085e-004
      -2.86539813e-004 1.61424046e-004 -8.06999992e-007 1.68699644e-005
      -1.17429418e-005 2.81560606e-005 1.37230572e-005 2.73770547e-006
      -3.48488106e-006 6.56035081e-006 1.96778274e-005 1.79241488e-005
      -2.20522452e-005 -3.96491268e-005 -8.13869610e-006 3.34627148e-005
      -3.07835876e-006 -1.55094058e-005 -2.22943145e-005
      -8.73064437e-006 2.84575817e-005 1.09693119e-005 1.06860944e-005
      2.53022099e-005 -6.67656468e-006 -3.97661024e-005 1.05546778e-005
      -1.98817270e-005 -8.75113801e-006 -1.20557695e-006 7.13979944e-006
      9.83963491e-006 -8.49545998e-008 -1.41403452e-005 3.85016829e-005
      9.93807680e-006 1.53473702e-005 1.46276216e-005 -5.61812158e-006
      -2.33237115e-005 4.45862133e-006 1.03024049e-005 -1.06511459e-006
      -6.68643988e-005 -1.13787602e-004 -6.91172772e-006
      -1.30655080e-005 -1.63985760e-006 -9.58533274e-005 4.51974302e-006
      3.67891516e-006 2.31952257e-007 -2.50805224e-005 1.37037923e-005
      8.91698255e-006 -2.43839531e-005 -4.42701867e-006 6.07585616e-006
      2.95416862e-006 7.12725086e-005 1.27530757e-005 2.84859474e-004
      -2.03977659e-004 5.61812012e-005 1.50571213e-004 -2.02885378e-004
      4.22449157e-005 5.85550242e-006 4.82259456e-005 -2.42655384e-004
      4.43816680e-005 -1.68435276e-004 1.52388675e-004 2.87034025e-004
      -3.83401630e-006 1.55390924e-004 7.26937360e-005 -6.49904996e-006
      -2.09971520e-004 2.18949339e-004 1.90375198e-004 -1.01928228e-004
      3.56367731e-004 -3.56324425e-004 9.34087948e-005 1.94813358e-004
      3.97997152e-004 -8.53709134e-005 -5.74002916e-005 2.29691272e-004
      1.70059036e-004 -1.20824967e-004 5.99590203e-005 1.52404944e-004
      5.58600332e-005 4.55874630e-004 1.46778082e-004 1.75914483e-005
      1.10076980e-005 3.38896498e-005 5.02605981e-005 2.24793566e-005
      4.08880369e-005 1.76680460e-005 3.24856737e-005 8.68747738e-005
      2.35566881e-006 -1.92814987e-005 -9.32626244e-006 -2.72771285e-005
      1.30772041e-005 1.69829873e-005 1.69588600e-006 -4.79416922e-005
      -1.10398149e-004 -3.06217189e-005 -1.61542575e-005 1.27944759e-005
      2.25373642e-005 1.22810197e-005 -3.53191535e-005 -1.35798473e-004
      -4.29380088e-005 -1.42800727e-005 -1.55581574e-006
      -1.36812678e-005 -1.13865644e-005 1.19294404e-004 1.02969439e-004
      4.77010544e-005 1.71258907e-005 1.09758421e-005 4.19985872e-006
      -1.46881366e-005 6.95322669e-005 1.39620533e-005 6.43467638e-006
      8.08884806e-007 -4.83122822e-005 -1.19861303e-004 2.16288372e-005
      -8.40338453e-006 -4.86337649e-006 -1.54313035e-004
      -9.70102701e-006 5.68501218e-006 -9.82681172e-007 -3.99885612e-005
      1.94884933e-006 1.98391012e-006 -4.13635462e-005 -2.81608141e-006
      -2.18905079e-005 -1.36872732e-005 3.09323186e-005 -2.01727293e-004
      -4.57134913e-004 2.20943239e-005 2.39468733e-004 2.50743731e-004
      -3.36673038e-005 -1.21551355e-004 -2.95215199e-004 7.82851857e-005
      7.41205367e-005 -1.54759196e-004 3.41069768e-004 3.16103746e-004
      -9.46024738e-005 -3.17179714e-004 -2.22217306e-004
      -4.52704580e-006 -9.33413030e-005 -2.07509584e-005
      -1.45437778e-004 2.36698543e-005 4.04724473e-004 4.44969919e-004
      -7.22330224e-005 -1.97143730e-004 -3.32391355e-004 3.63357743e-004
      -6.61959930e-004 -6.06300055e-005 6.71773014e-005 2.84254085e-004
      6.10043411e-004 -4.20672353e-004 2.10020095e-004 3.06812290e-004
      1.68794882e-004 1.00912497e-004 -1.07753331e-005 1.24632952e-005
      3.49152651e-005 5.04104937e-005 4.04042912e-005 3.65491032e-005
      2.66306797e-005 3.78744371e-005 1.30409797e-004 7.23815974e-005
      -2.73586611e-005 3.00155966e-006 2.06984241e-005 3.18562779e-005
      2.53764993e-005 -1.11130721e-005 -3.78314762e-005 -4.38051466e-005
      -1.72593194e-004 -2.51891615e-005 1.62099313e-005 3.51527742e-005
      -2.07368885e-005 -1.01366371e-004 -2.00427559e-004
      -6.67573840e-005 -1.86554353e-005 2.85404809e-007 2.51545930e-006
      1.47135652e-005 1.61706048e-004 9.79607794e-005 3.74270494e-005
      1.85292611e-005 2.13565709e-005 1.33789108e-005 9.27708061e-006
      1.11060865e-004 1.95610173e-005 5.22594428e-006 -5.40183635e-007
      -1.98650359e-005 -5.67288625e-005 6.71469070e-006 -2.19721369e-005
      -1.25043498e-005 -2.24936986e-004 -2.00764334e-005 1.37172538e-005
      -4.72198417e-006 -7.97636312e-005 -2.89886339e-006 1.85655445e-005
      -3.31562260e-005 -1.57889508e-006 -1.07368096e-005
      -7.71319537e-006 6.56089833e-006 -1.81582902e-004 1.96988796e-004
      2.85240938e-004 4.69266961e-004 1.70079584e-004 -4.04916122e-004
      2.17272012e-004 -4.97435503e-005 -1.95130386e-004 9.08539660e-005
      -2.60205299e-004 6.11778160e-005 2.48502300e-004 -1.89910119e-004
      -1.31247434e-004 -7.69001272e-005 -9.64467017e-006 7.34488494e-005
      -3.27216199e-004 -4.21610632e-004 3.78788740e-004 -2.23686106e-006
      4.07025975e-004 2.13070380e-004 8.10131241e-005 -5.36159168e-005
      2.64417729e-004 -1.73512046e-004 -2.32073406e-004 -2.31548707e-004
      2.06574623e-004 2.61010166e-004 -1.03738486e-004 -2.67063024e-005
      3.36753379e-004 8.85256333e-004 1.29766020e-004 -8.10171241e-006
      3.08820854e-005 8.85901409e-006 1.62029228e-005 5.69001713e-005
      4.47138591e-005 9.36284778e-006 1.96402307e-005 9.34237323e-005
      5.75295271e-005 -4.35986567e-006 1.08410995e-006 -2.58129185e-005
      -2.72445641e-006 3.04579826e-005 3.08801077e-006 -8.29278542e-006
      -4.07211737e-005 -1.67644044e-004 -1.38140767e-005 2.78766074e-005
      1.32435789e-005 9.59826593e-006 -5.98148654e-005 -1.18238837e-004
      -3.39468097e-005 -1.30596609e-005 -3.61810635e-006
      -8.76973172e-006 -8.57909072e-006 7.15559581e-005 3.21648477e-005
      3.96237483e-005 1.93407723e-005 2.05062024e-005 -1.41296523e-005
      -2.03252148e-005 3.60700469e-005 -2.48025972e-005 1.94843255e-006
      3.69877444e-006 -3.85648273e-005 -1.81145697e-005 3.48282242e-006
      -7.46997739e-006 1.30925935e-006 -1.83698023e-004 1.86172692e-005
      -1.56442852e-007 -5.90478976e-006 -9.14583325e-006 6.06760341e-006
      1.91394938e-005 -2.70135970e-005 -8.67725066e-006 -5.12557699e-006
      -1.75847367e-006 5.62307650e-005 -3.68260284e-004 -1.48462699e-004
      3.19757703e-004 -2.14776941e-004 -2.01357121e-004 -1.17941581e-005
      -8.01510760e-005 -1.51631582e-004 5.57443826e-004 -4.12160618e-004
      -1.43840793e-004 -5.14287785e-005 -1.52536450e-004
      -1.36273491e-004 2.59952998e-004 1.72730506e-004 7.25719292e-005
      -5.85835951e-004 5.07712539e-005 -3.49227659e-004 -2.46088621e-005
      2.89918651e-004 2.67498457e-004 -5.70619537e-004 6.52160088e-006
      5.82278626e-005 4.94083157e-004 1.67768769e-004 -4.81325143e-004
      -1.08834953e-004 -3.20016639e-004 2.73089099e-004 2.66718940e-004
      -7.23687699e-005 2.64664995e-004 -2.08346464e-005 2.17791589e-004
      -1.02899694e-005 9.89676118e-006 -3.13019591e-005 2.33600294e-005
      2.23828865e-005 -2.31744743e-005 1.84868513e-005 2.40403078e-005
      1.22489640e-004 -1.45020031e-005 -4.06001845e-006 5.18304387e-006
      3.33118660e-005 7.17002740e-006 2.08812289e-005 2.12063642e-005
      1.26907325e-005 4.91647515e-005 -3.13987875e-005 8.94787991e-006
      8.24038398e-006 3.54939366e-005 3.72819595e-005 -4.52119515e-008
      -4.57049600e-006 -2.13375461e-005 1.15538796e-005 -1.75343109e-006
      7.81295421e-006 -6.98718941e-005 -6.10402712e-005 -8.70215081e-005
      2.51264937e-005 8.60427735e-006 2.32634156e-005 1.64927951e-005
      -1.01225130e-004 -9.34779018e-005 -4.33125279e-005
      -1.26546693e-005 7.92357753e-007 7.90234935e-007 -7.48302336e-005
      -5.72809186e-005 -1.14959257e-005 -7.83574342e-006
      -1.06318956e-004 1.64352623e-005 1.74901415e-005 -3.38875066e-006
      1.30041180e-005 4.67271229e-006 2.59531007e-005 -1.18555918e-005
      -8.01660292e-007 -2.16856224e-005 8.75016485e-006 4.77690592e-005
      1.07721695e-004 1.26805069e-004 -2.83713569e-004 -3.53488140e-004
      2.95326405e-004 -8.44046517e-005 2.33575862e-004 -6.73522227e-005
      6.14907112e-005 -9.56403528e-005 -1.74981338e-004 -4.76582172e-005
      -2.40570007e-004 -1.44662379e-004 2.61268928e-004 2.91541393e-004
      -1.46348757e-004 -3.13443539e-004 5.24653820e-004 -1.92201442e-005
      2.31126338e-004 -6.53750394e-005 -3.60948325e-004 3.42934109e-005
      -1.07117892e-004 -5.25094627e-004 1.32706273e-005 -1.81318843e-004
      -1.52173699e-004 1.47901810e-004 2.48974160e-004 -1.17883064e-004
      -4.95711975e-005 -1.06472478e-004 -3.59863450e-004
      -2.38908047e-004 2.29660378e-004 -1.25432562e-005 4.07061316e-006
      -2.44773091e-005 2.59515127e-005 2.13592284e-005 -8.03955554e-005
      2.66618645e-005 2.60461293e-005 9.26003631e-005 -7.86003056e-006
      2.74358263e-006 6.15519957e-006 3.86304273e-005 3.82226208e-005
      1.67749986e-005 1.19617853e-005 -1.77393995e-005 6.32718875e-005
      5.79276893e-005 2.65108229e-005 2.33487826e-005 2.07976318e-005
      2.32447801e-005 -4.10074754e-005 3.65121741e-005 -1.72023174e-005
      -5.04030731e-006 5.50727236e-006 1.45092054e-005 -1.83769753e-005
      -4.43883546e-005 -1.85668323e-004 -4.86071040e-005 1.71767533e-005
      1.74498964e-005 3.13614655e-005 -4.48457722e-005 -1.32084024e-004
      -5.87825634e-005 -1.49911502e-005 6.68420228e-007 8.03347575e-005
      -1.21639314e-004 -5.65467053e-005 -1.43150537e-005
      -9.56361782e-006 -4.06361978e-005 1.90884521e-006 -1.13832459e-006
      7.34486719e-007 1.21552093e-005 1.54423542e-005 1.67270136e-005
      -1.25387496e-005 -1.51170627e-006 -3.63842969e-006
      -2.22040253e-005 3.13138771e-005 -2.91646611e-005 -2.63372960e-004
      -4.19366916e-005 8.65230541e-005 2.31832200e-005 -9.02184547e-005
      -1.14862312e-004 -3.64338484e-004 -3.03045847e-004 1.12224559e-004
      -4.28489409e-004 -3.16155027e-004 -1.68464292e-004 6.82435275e-005
      3.18343256e-004 -2.47266726e-004 -2.48095253e-004 1.94367225e-004
      3.07366456e-004 1.08973953e-004 8.94645127e-005 3.86216698e-006
      -1.45072936e-005 1.98680456e-004 -8.46016992e-005 -2.18081390e-004
      2.37675122e-005 -1.71958218e-005 4.11998160e-004 2.36235530e-004
      -3.23804852e-004 3.51014896e-005 -7.79854236e-005 -1.75262452e-004
      -2.25887095e-004 -1.89488201e-004 1.14205694e-004 1.36762921e-007
      5.04432819e-006 -7.43496344e-007 4.05244828e-005 2.11532406e-005
      2.38512484e-006 -4.66448864e-006 3.67317916e-005 1.27451713e-004
      2.62430531e-005 -2.27881465e-005 2.27210393e-007 2.90621920e-005
      8.79406143e-005 4.78550373e-006 8.73434874e-006 -3.61345119e-005
      6.13143202e-005 1.02196973e-004 2.50476678e-005 1.57786453e-005
      4.03584963e-005 2.05221240e-005 -8.10358142e-006 1.63136988e-007
      -1.95514494e-005 -2.23346869e-005 -5.74677051e-006 3.85080511e-006
      -7.77504920e-006 -4.84841730e-005 -1.32975198e-004 4.73742404e-007
      1.53529691e-005 1.76595895e-005 1.39391905e-005 -3.63449253e-005
      -9.65421932e-005 -3.76395838e-005 2.84310909e-006 -8.00920873e-007
      -2.54205461e-005 -1.29694890e-004 -7.83916912e-005
      -2.80609561e-006 -5.32655986e-006 -1.22832178e-004
      -7.39974325e-007 1.65426525e-006 -1.48744766e-006 5.12637416e-006
      -1.68221538e-006 1.99630613e-005 -2.45337214e-005 -3.94786184e-006
      -3.12465563e-005 -3.75415061e-006 6.16225370e-005 6.51016162e-005
      3.53016658e-005 -5.09795849e-004 -7.98612833e-004 -1.36461400e-004
      -1.06652114e-004 -5.69217518e-005 -2.42330570e-004
      -6.77101343e-005 -2.35975313e-004 -1.46984705e-004
      -4.32838511e-004 -6.66268868e-004 2.62889924e-004 -1.33746624e-004
      1.77502079e-005 -3.63421241e-005 1.08373890e-004 2.08441706e-004
      -1.03326616e-004 -2.64414819e-004 -3.82410624e-004 9.51926122e-005
      2.03518561e-004 2.10806567e-004 -3.04371297e-005 -7.78987960e-005
      -1.64483747e-004 -7.75858643e-005 -1.42399194e-005
      -1.58100302e-004 -2.84870126e-004 1.27919393e-005 1.63204095e-004
      8.87510832e-005 -1.03028011e-004 1.15663388e-004 -4.80512153e-006
      3.18919156e-005 -8.89240982e-006 -1.07527503e-005 7.25740902e-005
      -1.28078418e-005 1.04792143e-005 3.78335753e-005 7.74418804e-005
      1.90769460e-005 -1.01924497e-005 8.75117712e-006 3.87589571e-005
      6.10064308e-005 -3.50661617e-006 -8.11121663e-006 -1.23956779e-005
      2.38889061e-005 4.60931915e-005 3.62247556e-005 4.05078617e-006
      2.12639861e-005 1.45402673e-005 -5.65657274e-006 2.77114868e-005
      -1.07836477e-005 -2.02308256e-005 2.72770507e-007 1.63010236e-006
      1.89121056e-006 -1.71568063e-005 -2.95620339e-005 -1.35119708e-005
      5.68538144e-006 5.85992029e-006 4.31725812e-006 -5.27748634e-005
      -5.19989990e-005 -2.16373646e-005 -7.36082848e-006
      -2.65591370e-006 -3.02292920e-005 -1.66966725e-004
      -4.24587306e-005 -1.39173699e-005 -7.85251632e-006
      -7.65087389e-005 -1.41168330e-005 1.15201074e-005 6.11172618e-006
      1.68135612e-005 1.59154479e-005 1.92028274e-005 -5.18780723e-007
      3.73107946e-006 -1.80724819e-005 -7.10929680e-006 -5.76576713e-005
      -4.45425365e-004 3.20275067e-005 3.69041634e-004 -6.92931790e-005
      1.34787217e-004 6.27992558e-005 2.98840081e-004 2.40272886e-004
      2.66585819e-004 -7.09965476e-004 -3.34054290e-004 -4.60158080e-005
      9.17780199e-005 -2.69014941e-004 1.01369267e-004 -2.31673712e-005
      3.46255663e-004 -3.29627044e-004 -6.71165108e-005 3.82887840e-004
      -1.13882517e-004 2.32218386e-004 -1.68474304e-004 6.56436314e-005
      2.15449225e-004 1.50986743e-004 7.85826269e-005 -2.14344236e-005
      1.16519623e-004 1.96467081e-004 1.98807131e-004 -1.01054327e-004
      -4.73696855e-005 1.99300688e-004 3.41929590e-005 2.03081727e-004
      6.40662474e-005 5.23811032e-005 -2.91978040e-006 -2.26278019e-007
      2.14166866e-005 8.16653846e-006 2.84765174e-005 -2.61458827e-005
      -6.95571043e-006 -6.85951600e-005 -2.49929508e-005 1.62575689e-005
      -7.60855328e-005 -4.31962835e-005 -6.40287180e-005
      -1.24949429e-005 -8.89721832e-006 -5.98371189e-005
      -1.58950133e-005 3.97333934e-005 -8.26878295e-006 5.50651703e-006
      2.79782798e-005 2.48041706e-005 -4.78862457e-005 -1.18553626e-005
      -2.18056884e-005 -6.25324947e-006 -7.54647047e-008 1.02191179e-005
      4.90443745e-006 1.81133400e-005 2.78342795e-005 1.88676568e-005
      8.67821109e-006 1.69160430e-005 2.52725458e-005 1.39351168e-005
      5.09552738e-005 -2.36281517e-006 1.76229732e-005 2.77672302e-006
      -1.68540937e-005 -1.00758816e-005 2.26728353e-005 1.60662457e-005
      -1.34438778e-006 -6.24754466e-005 3.33754565e-006 1.95925131e-005
      4.37150675e-007 -3.33126227e-005 -1.79285996e-006 2.32562106e-005
      -2.57581978e-005 -2.73750675e-006 -1.60930631e-005 8.90881984e-006
      8.00681883e-005 -4.33203328e-004 -4.48769453e-004 3.77717588e-005
      -6.84291808e-005 3.71605711e-004 -1.90605351e-004 2.18839545e-004
      -6.99164884e-005 3.64706211e-004 -3.69158544e-004 -2.48758064e-004
      1.64000172e-004 2.02074938e-004 2.36669192e-004 -1.17690834e-004
      -6.41396109e-005 3.37482750e-004 -2.23612660e-004 -1.96175984e-004
      -1.14576622e-004 2.79236090e-004 2.40912661e-004 -8.44026654e-005
      -4.08551889e-004 4.08365187e-004 -6.69459841e-005 -4.38501651e-004
      -3.23183631e-004 -2.41135902e-004 1.75350768e-004 6.28907292e-005
      -1.47961575e-004 -4.92382154e-004 1.82328458e-005 -7.92520295e-005
      -1.92564170e-004 9.62066115e-005 -2.20433976e-005 1.29520586e-005
      1.60623540e-006 2.68350122e-005 3.30428920e-005 3.36697049e-005
      1.01887290e-005 1.69566338e-005 -6.89561639e-005 -1.15306611e-004
      7.28236000e-006 -1.57473405e-005 -1.33235435e-005 -6.96592906e-005
      1.88373326e-006 -1.48595541e-006 -2.46676263e-005 -8.70353906e-005
      -9.59346653e-005 -4.19975986e-005 1.07310680e-005 1.62500710e-005
      4.40675940e-005 -6.80559242e-005 -1.17226402e-004 -4.24622667e-005
      -1.57097438e-005 4.85639566e-006 1.15830589e-005 -1.08750351e-006
      1.18346645e-004 1.18860567e-004 2.68956319e-005 1.09117564e-005
      1.21468966e-005 3.63934087e-005 4.81850584e-005 4.42351338e-005
      1.78073642e-005 3.75778967e-007 -4.29334114e-006 1.39031636e-005
      -4.97307446e-005 5.86479400e-005 4.07741436e-006 4.62714388e-006
      -3.74038937e-005 1.98811194e-005 1.34222300e-005 1.11793713e-006
      2.26413135e-006 5.48716298e-006 2.63394813e-005 -2.19015728e-005
      -1.93079381e-006 -6.32330512e-006 -1.87066962e-005 2.89516465e-005
      -3.28389840e-004 -6.29276838e-005 -1.24754108e-004
      -1.29161563e-004 1.37058305e-004 2.80335895e-004 -1.41825003e-004
      -3.03997775e-004 6.59443205e-004 -2.47343996e-004 -1.60122203e-004
