<?xml version="1.0"?>
<opencv_storage>
<opencv_ml_svm>
  <format>3</format>
  <svmType>C_SVC</svmType>
  <kernel>
    <type>LINEAR</type></kernel>
  <C>5.9999999999999998e-001</C>
  <term_criteria><iterations>10000000</iterations></term_criteria>
  <var_count>4608</var_count>
  <class_count>2</class_count>
  <class_labels type_id="opencv-matrix">
    <rows>2</rows>
    <cols>1</cols>
    <dt>i</dt>
    <data>
      -1 1</data></class_labels>
  <sv_total>1</sv_total>
  <support_vectors>
    <_>
      2.47336488e-004 4.50272433e-004 2.45253555e-004 4.89050522e-004
      4.58397553e-004 -6.12602526e-005 -6.08785049e-005 -2.76318198e-004
      6.10471470e-005 -1.22826721e-004 1.04376908e-004 3.33238677e-005
      1.98137393e-004 -2.74310965e-004 2.22181989e-004 1.00244441e-004
      -4.09727545e-005 2.72133184e-004 -8.29725614e-005 1.76730711e-004
      3.97921918e-004 1.52268505e-004 -1.96331806e-004 -1.64799421e-005
      7.72351224e-004 1.00630001e-004 -4.46785823e-004 -1.79844516e-004
      -4.77430236e-004 8.95294797e-005 4.58319439e-004 -1.38508069e-004
      2.19505309e-004 2.68037751e-004 -4.57149290e-004 -4.05807659e-005
      1.88494632e-005 -1.03124061e-004 2.31397338e-004 5.09101257e-004
      -8.18713961e-005 -2.00079696e-004 1.32181245e-004 2.72748694e-005
      8.43850212e-005 -1.83426688e-004 1.21959252e-004 4.75709036e-004
      1.33827343e-004 -3.08107032e-004 -2.42331826e-005 4.47721774e-004
      5.69338212e-004 -4.79082919e-005 -1.46904596e-004 -4.11963643e-004
      -2.46781383e-005 -2.39206478e-004 -1.22033867e-004 1.74134489e-004
      5.08664583e-004 2.73712503e-004 1.74832294e-005 -4.37359733e-004
      1.44342615e-004 -3.30069539e-004 -3.21686297e-004 7.89271580e-005
      -5.23115750e-006 5.88677940e-004 1.33035355e-004 2.71327808e-005
      1.83429831e-004 5.08613477e-004 3.92083981e-004 2.52630474e-004
      2.17047753e-004 1.28686646e-004 1.63832490e-004 1.43048092e-004
      2.46364885e-004 -1.03332772e-004 3.21412044e-005 5.37182204e-004
      5.76053921e-004 -1.06118350e-004 4.26234503e-004 6.98416319e-004
      1.44021455e-004 -5.09891979e-005 1.98083450e-004 -7.41058830e-005
      -3.38255086e-005 1.28527085e-004 -3.11228388e-004 4.89808794e-004
      2.66782125e-004 2.41652451e-004 6.06224494e-005 1.08154472e-005
      -1.23094476e-004 2.06296871e-004 1.80507079e-004 -3.28069495e-004
      5.51726785e-004 4.40513628e-004 4.40445438e-005 -3.72855691e-004
      9.56682052e-005 1.20699173e-004 5.21499314e-004 4.91102110e-004
      9.31164686e-005 3.19502840e-004 2.82750902e-004 2.82513705e-004
      3.99741461e-004 1.99805960e-004 6.21796353e-005 1.41205397e-004
      2.32869003e-004 -4.92373540e-004 1.93955391e-004 2.49361387e-004
      5.66912582e-004 -2.60150351e-004 2.45766802e-004 2.94289265e-007
      -1.55228699e-004 -5.59930981e-004 -9.64514111e-005
      -1.41859957e-004 2.92795070e-004 2.57197564e-004 -6.84688257e-006
      5.71438693e-004 7.02551042e-004 3.09547118e-004 -3.49665279e-005
      -3.53196697e-007 -6.65411702e-004 -9.62945196e-005 1.39488708e-004
      -2.15014516e-004 1.34452974e-004 9.62107079e-005 -6.31172443e-005
      1.61724456e-004 -2.98131490e-004 4.98858746e-004 4.09358385e-004
      2.76599720e-004 -7.88315956e-005 9.37462755e-005 -8.98809812e-005
      7.72239291e-005 -2.35597749e-004 -5.92683064e-005 3.77616525e-004
      1.71659820e-004 2.04863245e-004 2.12276704e-004 -2.79822445e-004
      -1.32359535e-004 1.58098992e-004 2.17710447e-004 3.60524486e-004
      -7.33204724e-005 1.41496363e-004 6.84295490e-004 1.91227562e-004
      3.68750334e-004 -1.52757086e-004 2.13497347e-004 7.35561334e-005
      -2.90127326e-004 -2.05050965e-004 1.02488906e-004 -6.58504941e-005
      -1.58131297e-005 -1.85285287e-004 3.79231584e-004 3.66609020e-004
      -2.76577164e-004 -1.46343344e-004 5.62509413e-005 1.62047509e-005
      3.32058407e-004 -1.74984103e-004 3.96315620e-004 2.31159283e-004
      6.37929305e-004 -5.49016186e-005 -1.28306274e-004 -5.28268765e-006
      1.49407540e-004 1.34729984e-004 2.06610392e-004 -1.20669712e-004
      1.41530269e-004 6.15630881e-004 -4.01177065e-004 -3.71563583e-005
      -2.03132877e-004 -1.84187418e-004 -9.96450035e-005
      -1.26558778e-004 5.45789604e-004 2.82520952e-004 3.44401255e-004
      -3.94169110e-005 2.60718429e-004 -4.19211574e-004 6.08965347e-004
      3.15132813e-004 2.15458596e-004 2.42248701e-004 2.99495179e-004
      1.92340653e-004 1.07706124e-004 1.56673213e-005 -9.82153870e-005
      6.48518981e-005 -2.85928236e-005 -1.30817629e-004 1.00756697e-004
      8.45376635e-005 3.82283528e-004 8.01474525e-005 1.25034901e-004
      4.44154239e-006 1.61177522e-004 -2.73248534e-005 -4.26014070e-004
      4.13062935e-006 4.08377615e-004 5.25724667e-004 -7.29464300e-005
      -1.98272173e-004 2.99253326e-004 3.25609726e-004 1.50868538e-004
      -4.44104313e-004 -3.78561759e-004 2.58710643e-004 3.24666209e-004
      2.12095707e-004 -3.84615396e-006 -2.18881105e-004 2.55658553e-004
      1.56808252e-004 -2.84121168e-004 -7.11975808e-005 4.91247920e-004
      3.02558125e-004 -4.28344756e-005 -1.00723955e-005 -2.53170037e-005
      1.69467297e-004 -1.49177613e-005 -1.35256560e-004 1.70499916e-004
      1.41405515e-004 3.30962328e-004 1.73470660e-004 2.02506897e-004
      -1.06655762e-005 -8.20550340e-005 3.11103766e-004 1.99540576e-004
      -1.43414189e-004 2.31421815e-004 3.74191557e-004 4.98657813e-004
      -4.70507599e-004 -2.98875297e-004 1.79669780e-006 3.28371170e-005
      2.18841262e-004 2.97144696e-004 -1.83163047e-005 4.14049631e-004
      4.84782242e-004 -9.05325796e-005 1.04081431e-004 3.14508710e-004
      4.91193321e-004 -1.68289291e-004 -2.44000421e-005 3.01114225e-004
      1.28642176e-004 -1.93653017e-004 5.38021908e-004 -1.65473146e-004
      7.23965117e-004 4.97394300e-004 -2.22780858e-004 -8.28090124e-004
      -1.07205553e-004 4.41730253e-006 -2.48261320e-004 1.13479640e-004
      5.01027935e-005 8.09404301e-005 7.27238657e-004 4.26193146e-005
      -2.73226295e-004 5.48235585e-005 5.27210126e-004 5.62422036e-004
      7.25703489e-004 -3.52530566e-004 1.28498112e-004 7.20423486e-005
      -1.69277380e-004 -1.26014696e-004 -6.81892607e-006 4.15611430e-004
      2.42172988e-004 3.27850052e-004 2.79588974e-004 -2.52293685e-004
      2.88738229e-004 -4.56277921e-004 -2.12338709e-004 -2.05401651e-004
      -7.78034737e-004 -2.83876550e-004 2.49503180e-004 4.07085499e-005
      1.05076673e-004 3.16489371e-004 3.16729303e-004 2.51656253e-004
      -3.92736169e-004 -2.31411570e-004 -6.10011812e-005 2.75156170e-004
      -1.49323561e-004 -1.61687654e-004 6.58000426e-005 3.69881367e-004
      2.57742067e-004 -2.92573241e-004 -1.20611090e-004 2.74084829e-004
      1.92160398e-004 1.88739723e-004 3.04877613e-004 2.06643090e-004
      -3.91633475e-005 -6.08004812e-005 1.20189630e-004 -6.76286232e-004
      1.22066769e-004 3.21463245e-004 4.77224006e-004 8.27725526e-005
      3.54010466e-004 -2.34584644e-004 -1.65028658e-004 -2.48880988e-005
      -1.38226125e-004 1.22556841e-004 1.86919249e-004 -7.80301270e-005
      -9.48515735e-005 5.65209426e-004 2.42438473e-005 -1.78350238e-004
      -2.12121449e-004 2.64201895e-004 -6.65266416e-004 -5.31168946e-004
      -3.35941877e-004 -4.31825552e-004 6.72768336e-004 3.18347418e-004
      4.90009785e-004 -4.03225975e-004 -2.00533090e-004 -1.45732833e-004
      -3.29437811e-004 -4.38096176e-004 -1.62581448e-004 1.88556121e-004
      -3.57661367e-004 3.16242658e-004 -6.47846784e-004 -2.37561355e-004
      -4.03170648e-004 -3.02829023e-004 -3.76589713e-004 2.04871380e-004
      -3.59397063e-006 1.93713233e-004 -9.68602617e-005 -1.12255089e-004
      -7.10631022e-004 -8.45923438e-004 1.08272048e-004 -2.60524219e-004
      4.57757997e-005 1.34622518e-004 -1.86447374e-004 2.90658179e-004
      2.48142518e-004 -1.25252118e-004 -4.80505842e-004 -2.53389997e-004
      -2.93191057e-004 1.59302246e-004 2.06384531e-004 -1.65186299e-004
      6.27558547e-005 -2.09575854e-004 -4.32656612e-004 -5.56263316e-004
      -6.27798581e-005 -1.76496629e-004 -1.45663100e-004 3.72366776e-004
      -7.46762613e-004 -8.46429175e-005 -4.69100807e-004
      -2.03771109e-004 -6.51439419e-004 2.49461096e-004 -4.87564466e-005
      -3.95151292e-004 9.91267807e-005 -3.00838059e-004 2.16801520e-004
      3.18042410e-004 1.87538782e-004 -6.14801131e-004 1.70931467e-004
      -1.17636075e-004 3.62006831e-004 4.40571835e-004 6.53614930e-004
      4.71497740e-004 5.07302524e-004 -1.28298498e-005 3.23355634e-004
      -3.47655645e-004 -3.93270369e-004 -2.77232873e-004 3.70211987e-004
      2.81350280e-004 -2.15002583e-004 -2.55018153e-004 -4.61049727e-004
      -3.50266666e-004 -8.41468354e-005 -1.73458990e-004
      -1.99372706e-004 1.26386658e-004 -8.74567777e-005 -3.83005623e-004
      -4.73604858e-004 -3.89227236e-004 -2.99800769e-004 4.80120289e-005
      3.74408672e-004 -1.23742735e-004 -5.09473066e-005 8.03293296e-005
      -5.29120676e-004 3.69848276e-004 -8.30087956e-005 -2.63025635e-004
      -3.70136258e-005 -9.22993058e-006 -2.36603169e-004 4.45022946e-004
      -1.96135428e-004 2.90983968e-004 5.84464142e-005 -7.14764212e-007
      9.06884088e-005 -7.30644213e-004 -4.86923527e-005 1.01355137e-004
      9.29135422e-005 -2.17181718e-004 -4.15830611e-004 -6.66079868e-004
      -2.40427369e-004 4.03537597e-005 -1.60382566e-004 1.81306794e-004
      -4.39513358e-004 -3.01712658e-004 7.64272627e-005 1.14916227e-004
      1.47083992e-005 -2.78194115e-004 -2.74994527e-005 -8.76798527e-004
      -7.57848495e-004 3.24876892e-004 8.73699391e-005 -3.49999376e-004
      2.31886646e-004 1.76806861e-004 5.40808833e-005 1.57856528e-004
      -2.17214736e-004 -2.72005273e-004 1.11190086e-004 3.96799791e-004
      4.70066938e-004 -1.77906513e-005 3.25390312e-004 6.32343290e-004
      3.86990228e-004 3.71214730e-004 -2.16357963e-004 -2.12323230e-005
      -7.83180585e-005 3.54293370e-005 4.21172474e-004 3.96058691e-004
      -1.79888608e-004 -1.02842321e-004 -9.61697297e-005
      -7.33070716e-004 -3.03492823e-004 -1.70449101e-004 3.37574602e-004
      1.45155893e-004 1.69522333e-004 2.05815799e-004 -2.84581067e-004
      2.57418607e-004 -4.12348134e-004 -7.49049796e-005 -8.94020268e-005
      -2.48094497e-004 9.80938348e-005 2.08143116e-004 4.44920675e-004
      2.70089833e-004 -2.53322214e-004 -1.38615127e-004 2.18820845e-004
      1.91610729e-004 5.17034729e-004 1.28134983e-004 3.50937858e-004
      4.05493542e-004 -2.20070688e-005 4.48943407e-004 2.29325859e-004
      1.98403242e-004 3.16151069e-004 -1.52608409e-004 1.89975894e-004
      -5.27299053e-005 2.68103700e-004 -3.20600200e-004 -6.74889161e-005
      1.06556814e-004 5.52594793e-005 -9.40874379e-005 -6.11562748e-004
      1.36043745e-004 2.27626806e-004 2.93223973e-004 3.03405512e-004
      -1.45160782e-004 -2.61286448e-004 -1.04043458e-004 5.22056180e-005
      -3.28520633e-004 -1.53144880e-004 -3.49487353e-004
      -8.22627553e-005 3.93395050e-004 2.62448593e-004 7.27176375e-005
      3.82470113e-004 3.48245172e-004 -6.66627238e-005 -1.35116759e-004
      8.36728432e-005 2.85451446e-004 9.29186863e-005 -4.37521412e-005
      -1.59607094e-004 2.04071781e-004 -3.59247242e-005 3.16846650e-004
      -9.64844075e-005 -3.62347258e-004 2.10024504e-004 2.67302355e-004
      -1.69663836e-004 -2.30371079e-005 -3.93526512e-004
      -1.92855470e-004 4.89214326e-005 4.97961999e-004 -2.29989280e-004
      -1.63585020e-004 8.10616184e-005 -3.56335950e-005 -1.08521468e-004
      1.44594509e-004 -1.65864971e-004 -1.55877875e-004 3.78131663e-004
      1.26140847e-004 -2.03618896e-004 2.73219397e-004 2.75125232e-004
      -2.58877462e-005 2.86580500e-004 -2.32260238e-004 -2.61818437e-004
      -2.92495417e-004 -2.40284702e-004 9.74186405e-005 4.86459350e-004
      -1.97963469e-004 -1.39407421e-005 -1.93552376e-004
      -2.24990814e-004 2.03498130e-004 4.34455025e-004 7.42730481e-005
      1.35324270e-004 -2.14731495e-004 6.98222721e-005 -3.13603923e-005
      -3.05550580e-004 -5.67363459e-004 -6.77422795e-004 1.87072437e-004
      4.74153698e-004 -2.11854916e-004 -4.24222904e-004 1.66471538e-004
      -5.38853419e-005 -1.88628095e-004 -2.69216398e-004
      -4.10542154e-004 7.26077851e-005 -9.74675422e-005 1.93777509e-004
      -1.61615069e-004 -1.63656281e-004 2.81858171e-004 -3.00436746e-004
      8.72774544e-005 8.88898867e-005 -1.38245756e-004 -3.47688183e-004
      -5.66421018e-004 4.21049772e-005 6.78345486e-006 -1.40939024e-004
      -4.32973728e-004 5.80989072e-005 6.26047549e-005 2.40601337e-004
      4.12023161e-004 4.04167713e-006 -3.31092975e-004 6.92119647e-005
      -5.44065668e-004 -2.52420083e-004 -6.66661712e-004
      -9.98104879e-005 -7.91212369e-005 -5.65075723e-004
      -3.69875139e-004 8.29642231e-005 -2.23759722e-004 -1.85685276e-004
      -1.81340409e-004 -7.65050470e-004 -1.62405529e-004 1.61103409e-004
      -4.26615239e-004 2.38675595e-004 -4.89495578e-005 3.49611248e-004
      2.77591811e-004 -9.81305930e-005 2.33412447e-005 -2.94393220e-004
      3.44916974e-004 -4.63704171e-004 -6.74805997e-005 -1.52363340e-004
      -4.17584990e-004 -3.21118539e-004 -1.40328702e-004
      -3.75795244e-005 -2.07181118e-004 -2.86174676e-004
      -4.26081999e-004 -2.12018131e-004 -4.42947930e-004
      -1.12066460e-004 -1.82800708e-004 -1.44109741e-004
      -7.29433552e-004 2.15228556e-005 -5.22464688e-004 -7.43493438e-004
      9.85037259e-005 -1.33003181e-004 1.88854610e-004 -2.92142067e-004
      -2.93901976e-004 -7.68228318e-004 1.40871107e-005 -4.43684374e-004
      -5.01664472e-004 -4.77754016e-004 2.27251352e-004 -2.57880456e-005
      -1.51963832e-004 -5.68714859e-005 -1.14101429e-004
      -2.48334167e-004 -4.54072433e-004 -2.68088654e-004
      -3.42913292e-004 -7.56147085e-004 3.12835415e-004 2.10020458e-004
      1.18459349e-004 2.57902517e-004 1.39169264e-004 -2.79530912e-004
      -4.37898154e-004 -4.91468818e-004 -2.68674747e-004 3.45617853e-004
      -3.87644715e-004 1.22229714e-004 -1.68773069e-004 8.89621369e-005
      -3.37147416e-004 -3.68468696e-004 1.52962384e-004 -1.19747579e-004
      -1.94177235e-004 -6.25816465e-004 -4.76931949e-004
      -4.33876412e-005 -5.97433900e-005 1.51613840e-005 1.27096373e-005
      1.18948337e-004 -4.39039548e-004 4.06591607e-005 -3.00219654e-005
      -7.09989108e-005 -1.81149531e-004 -1.60219875e-004 1.18903401e-004
      -1.78968941e-004 -2.55949359e-004 -4.58641916e-005 6.38731581e-005
      -1.39548531e-004 -4.28051171e-005 3.00665124e-005 8.55682665e-005
      -1.61783275e-004 -6.59729048e-005 -7.02832011e-004 2.92701334e-005
      2.55040301e-004 -3.20556894e-004 7.41382828e-005 -1.68628394e-004
      -3.22587177e-004 -5.12318045e-004 -3.01850901e-004
      -2.01683506e-004 -2.69073527e-004 4.74297412e-004 1.94126595e-004
      1.55914910e-004 2.03502605e-005 -6.86929779e-005 -3.56675853e-004
      -3.47025198e-004 6.98598669e-005 7.57821340e-007 -8.64395115e-005
      2.98633240e-004 1.80147428e-004 2.61633413e-005 -9.07944632e-005
      -1.37639232e-004 -6.71281654e-004 3.39424150e-004 6.61891070e-004
      8.52117373e-005 -6.21187792e-004 2.07851917e-005 8.73387307e-006
      -3.01808450e-005 -5.60082612e-004 1.68389422e-004 -6.38312835e-004
      2.69381620e-004 4.53804649e-004 -2.16831613e-004 -1.24839251e-004
      1.62495649e-004 -3.71837785e-004 2.52205820e-004 -1.26723724e-004
      3.79055913e-004 -8.67610215e-005 -9.78049211e-005 -3.77442775e-004
      -1.92988795e-004 1.34732327e-004 -4.05918778e-004 1.82889169e-004
      -4.61805030e-004 6.63967221e-005 -3.36472149e-004 5.60093671e-004
      3.13338562e-004 5.24649367e-005 4.22095356e-004 1.67092934e-004
      -1.74143439e-004 3.80623911e-004 4.05418134e-004 3.55007709e-004
      4.70539264e-004 3.24736960e-004 1.60826137e-004 1.18127638e-004
      -2.82190333e-004 7.43263627e-006 -3.06998903e-004 -1.84828445e-004
      -1.61321019e-004 -1.11944601e-005 -5.16382919e-004 6.46161352e-005
      -5.06421609e-004 4.28376894e-004 5.58299762e-005 1.71677500e-004
      -5.42700582e-004 -7.49233077e-005 -3.51607632e-005 2.48764787e-004
      5.57721301e-004 3.25756700e-004 3.20508203e-004 4.01361263e-004
      4.63451550e-004 -5.53503669e-005 2.68987991e-004 -2.81590153e-004
      7.67113161e-005 2.84671987e-004 2.16919332e-004 1.25353603e-004
      -2.48330689e-005 -1.21679484e-004 1.26074490e-004 -1.83769196e-004
      -6.84920524e-005 3.82305647e-004 -6.39587452e-005 -1.28841741e-004
      -6.60128426e-005 -8.40805296e-005 -1.59773583e-004 2.81258719e-004
      -3.71243834e-004 -1.81968629e-004 2.97102641e-004 6.24096254e-004
      6.56834600e-005 4.00268065e-004 -1.75048583e-004 -4.99180751e-004
      -2.79082014e-004 3.98766046e-004 6.97875366e-005 2.20273228e-004
      3.89940746e-004 7.17415023e-005 -7.90157283e-005 -2.56516301e-004
      -2.17241541e-004 -3.10874311e-005 4.39667201e-005 3.79542675e-004
      1.98363923e-004 1.30686705e-004 3.32859636e-004 -3.02882778e-004
      -1.37880968e-004 1.48029445e-004 -2.39993286e-004 -4.33328416e-004
      1.82215153e-004 7.56532900e-005 2.05478005e-004 -6.07526919e-004
      -1.03254781e-004 1.10649773e-004 -4.69127808e-005 4.34149144e-004
      2.16687215e-004 3.62652732e-004 -4.20790981e-004 -8.61953522e-005
      -8.99450606e-005 2.15852589e-004 -3.55761527e-004 -2.31383048e-004
      -2.24192379e-004 3.97107106e-005 2.30875157e-004 -2.22508661e-005
      2.65695533e-004 -3.76688840e-004 2.54933548e-004 -2.69606418e-004
      -1.73071094e-004 -2.55631312e-004 -3.26327019e-004 3.71839211e-004
      -1.77004287e-004 1.46236780e-005 -7.78749236e-004 -2.32343955e-004
      -2.30142366e-004 -5.31399564e-004 -2.95535137e-004
      -1.88092512e-004 -2.16775457e-004 -5.07071090e-004 3.80189158e-005
      -4.97271132e-004 -7.42656412e-005 2.02020805e-004 -4.61940770e-004
      -5.21332317e-004 -4.35072230e-004 -2.94548634e-004
      -1.66253318e-004 2.00806724e-004 -4.36644732e-005 6.57005294e-004
      6.20257750e-004 -3.84047889e-004 -3.48071917e-004 -3.35105724e-004
      1.38977630e-004 -4.78792994e-004 -6.68136418e-005 1.46374514e-005
      3.24827037e-004 -1.62380311e-004 -1.18215266e-005 1.35023904e-004
      -3.46367829e-004 1.52581677e-004 -5.07504330e-004 -2.69368087e-004
      -4.93775704e-004 -3.55342345e-004 -3.30962153e-004
      -4.85636760e-004 -2.05492746e-004 -3.47821187e-004 5.77582505e-005
      -7.12473644e-004 -4.68913669e-004 -5.76858001e-004
      -1.32452886e-004 7.77749847e-006 -4.76685527e-004 -3.38978221e-004
      -3.90151981e-004 2.99940933e-004 -6.25151210e-004 1.75544206e-004
      -1.85896512e-004 2.20282629e-004 3.71413509e-004 -6.39435893e-004
      -6.83946128e-004 2.16289918e-004 2.71635625e-004 -4.44679725e-004
      -4.06769803e-004 -4.89208032e-004 2.57295378e-005 -7.23353529e-004
      -7.93858781e-004 -5.17846609e-004 2.72353529e-004 8.80485110e-004
      -4.90516541e-004 -2.61798239e-004 -8.75963771e-004
      -7.01440331e-006 -1.55819871e-004 -1.12040747e-004
      -5.55730774e-004 -1.47751911e-004 4.50587890e-004 -3.25395202e-004
      -2.09658247e-004 3.15033358e-005 -1.26047642e-004 1.22628873e-004
      -3.84762388e-004 -3.53505544e-004 -2.87077419e-004 1.54061854e-004
      2.56234984e-004 -2.53133039e-004 -2.59326189e-004 9.92981077e-005
      9.40911268e-005 1.15087409e-004 6.93134134e-005 -1.52322144e-004
      3.42001382e-004 -1.18554221e-004 -9.47757871e-005 -2.92006385e-004
      4.71091887e-004 5.58461834e-005 -7.48521634e-005 -7.45315629e-004
      -3.35789402e-004 3.03378387e-004 -3.82399565e-004 -1.56212438e-004
      -4.30434156e-004 -6.08327158e-004 -4.30001179e-004
      -4.23191523e-004 -2.93818477e-004 -3.19211889e-004
      -2.16114368e-005 -3.02582717e-004 -2.99789157e-004
      -9.97942261e-005 3.88213666e-004 2.34128165e-004 -2.28207529e-004
      -1.06717489e-004 -2.19078982e-004 7.83340220e-005 -9.43289924e-005
      -1.84661127e-004 -4.73510416e-004 -1.90058679e-004
      -9.61266342e-005 -1.59139781e-005 -3.04197718e-004
      -3.55552795e-004 4.09601344e-004 3.00248183e-004 -8.86170659e-004
      5.22175396e-005 1.43162149e-004 -5.83488902e-004 -5.12211060e-004
      -6.90836343e-004 1.11804788e-004 -8.89883268e-006 -5.62461093e-004
      -3.58260091e-004 5.45815856e-004 2.12654322e-005 -8.94943296e-005
      -1.39981217e-004 -8.20531641e-005 2.47535470e-004 -1.79385752e-004
      -7.78528687e-004 -1.25915962e-004 -1.81002455e-004 1.56926035e-004
      2.29555117e-005 -2.31850383e-004 -4.21983605e-005 -2.66504474e-004
      -6.64826599e-004 -1.58224371e-004 -8.98878323e-004
      -6.49229769e-005 -2.19530993e-004 3.43505497e-004 -4.06391628e-004
      -2.79441971e-004 -2.61300971e-004 -3.05897440e-004
      -3.20136402e-004 -6.65513042e-004 -9.67254746e-005
      -1.26244311e-004 -5.01748582e-004 2.84902926e-004 -1.68244718e-004
      -5.18986257e-004 2.41877307e-004 -1.29913242e-004 2.69644195e-004
      1.14033297e-004 2.37554214e-005 4.15044255e-004 -7.22222612e-005
      -2.71758327e-004 4.88830847e-005 -2.60962115e-004 9.16874924e-005
      4.39388357e-004 3.23731743e-004 7.86641394e-005 4.60988143e-004
      -1.44215504e-004 6.12964155e-004 -3.46138695e-004 -2.26055505e-004
      4.24428057e-004 -3.29998264e-004 -3.69820802e-004 2.34432155e-004
      2.48038385e-004 1.44953563e-004 1.84973338e-004 1.57102026e-004
      1.32317946e-004 -3.07048933e-004 -1.34758477e-004 1.34131536e-004
      1.23759572e-004 -1.49538420e-004 -9.85147271e-005 -1.63835517e-004
      4.45938495e-004 -2.28587291e-004 -4.31199915e-005 1.45733662e-004
      1.73701410e-004 -2.45694624e-004 -6.83930557e-005 -1.52641005e-004
      1.33213092e-004 -1.58337876e-004 -3.96626892e-005 -7.10841487e-005
      2.71621597e-004 2.97850638e-004 2.32465172e-004 1.64718702e-004
      -1.69236300e-004 -2.59599008e-004 5.65656555e-005 -3.26423033e-004
      -7.42655102e-005 2.45922074e-005 2.57021777e-004 2.18525704e-004
      -6.40550115e-006 -1.79761279e-004 -9.47783410e-005
      -5.95992024e-004 3.13987075e-005 3.79925244e-004 5.23990137e-004
      2.16434695e-004 3.09586874e-004 7.22305340e-005 1.68171115e-004
      -2.91663950e-004 -3.21818778e-004 3.61130078e-004 4.52048378e-004
      2.71179772e-004 -9.53454291e-005 -1.75003210e-004 -7.41627664e-005
      1.74251880e-004 -1.56995739e-004 1.00374018e-004 1.66967729e-004
      -1.48293795e-004 1.35726979e-004 -2.48253782e-004 -3.15298414e-004
      -3.86040745e-004 -1.67712496e-004 3.42126150e-004 8.67025446e-005
      2.25895390e-004 3.74653260e-004 2.13390653e-004 -4.19683920e-006
      4.58694616e-004 3.13288445e-004 -7.40940231e-005 -4.06553518e-005
      -2.10775197e-005 9.90237095e-005 2.70054472e-004 1.63687524e-004
      5.91633325e-005 3.33562930e-004 3.34784621e-004 -1.70633808e-004
      -1.92118925e-004 -2.70959790e-005 1.81160052e-004 -3.27428104e-004
      9.58596793e-005 3.82290280e-004 4.50617372e-004 -2.24340271e-004
      -2.33722953e-004 -6.10139337e-004 -1.78201502e-004 2.74583348e-004
      1.43759651e-004 1.95148881e-004 1.22874058e-004 4.22272627e-004
      3.91319081e-005 2.43398404e-006 -1.23762118e-004 7.05696366e-005
      3.10254873e-005 -5.34815299e-005 1.26314728e-006 6.38550264e-005
      1.08067805e-004 2.66733667e-004 -3.90540430e-004 -2.86489871e-004
      3.40869155e-004 4.94851964e-004 -4.54389119e-005 -1.98773312e-004
      -3.08511109e-004 -2.73335492e-004 -1.64158642e-004
      -7.02125952e-004 -4.19358403e-004 -6.35928882e-005 1.37054856e-004
      -1.62922166e-004 -2.98512867e-004 2.51694408e-004 2.51124555e-004
      -5.04273572e-004 -3.62633262e-004 -1.55519127e-004
      -2.45617503e-005 4.62131517e-004 -2.27817902e-004 -4.33485024e-004
      -1.40159493e-004 7.71781852e-005 2.71068475e-005 -3.49403766e-004
      6.54381438e-005 3.13457014e-004 7.46569363e-004 -4.91415325e-004
      1.33535912e-004 6.91404130e-005 6.00404281e-004 1.90366947e-004
      -2.88612704e-004 2.99370062e-004 1.41170940e-005 -1.31140769e-004
      1.49311833e-004 1.40868404e-004 4.95482585e-004 -8.13410588e-005
      5.03908668e-004 -1.73754655e-004 -4.88669495e-004 -5.49819903e-004
      2.16883622e-004 -4.96925612e-004 -5.62412664e-004 -2.36801221e-004
      3.16544378e-004 3.32980962e-005 6.38831174e-004 1.87372119e-004
      -1.03230457e-004 1.75306748e-004 -2.56037980e-004 -3.71646980e-004
      -4.92743682e-004 4.51891246e-004 6.72437454e-005 -5.47696472e-005
      1.50412860e-004 -6.35947566e-004 -1.37435258e-004 -7.59426563e-004
      -9.30273472e-006 -4.54374895e-005 3.41486564e-004 8.53790407e-005
      4.45349724e-004 1.80397445e-004 7.98274777e-005 -2.76344566e-004
      -2.74024060e-004 3.91003596e-005 2.37953391e-005 2.54378887e-004
      1.02140912e-004 1.97126996e-004 2.84202106e-004 -3.02489381e-004
      -7.46380538e-005 -3.86534011e-005 -7.14202644e-004
      -3.34128243e-004 6.48415880e-004 -2.50805373e-004 1.22563302e-004
      -9.46694199e-005 6.56366930e-004 2.45436240e-004 -7.40324496e-004
      -5.07524994e-004 -5.38209744e-004 6.18332488e-005 4.55951631e-005
      2.65017123e-004 1.95355533e-004 1.65732243e-004 -2.40032416e-004
      -1.03703256e-004 -1.17108400e-004 1.47741361e-004 1.48232459e-004
      3.54323420e-004 1.67332677e-004 -9.52744631e-006 3.84904677e-004
      5.24338044e-004 2.65146082e-004 -2.13248495e-004 -5.70079195e-004
      -7.36026923e-005 4.30265609e-005 -3.76046846e-005 -3.30532319e-004
      2.43175804e-004 1.15346018e-004 5.94024896e-004 -2.02539377e-004
      -4.38530464e-004 7.98085530e-005 -2.31398008e-004 -5.03465009e-004
      1.77821596e-004 6.80929166e-004 -2.30930425e-004 -4.51304892e-004
      -1.26731800e-004 -2.32625916e-005 -2.87043571e-004 4.62573575e-004
      5.06345350e-005 -2.52964062e-004 -6.42806117e-005 -3.16925143e-005
      6.36055251e-004 -3.11950542e-004 -5.22600370e-004 -8.64655376e-005
      7.37837865e-004 -2.18967936e-004 -4.44955658e-004 -3.48866422e-004
      -3.34108568e-004 -4.41709490e-005 4.14395363e-005 -1.39898446e-004
      -8.31505804e-006 4.10284469e-004 -3.46780260e-004 -1.31732202e-004
      2.63299502e-004 -4.92973370e-004 9.15149758e-006 -2.77941057e-004
      -7.15897942e-004 6.06941059e-004 2.44271476e-004 -7.66224766e-005
      -6.25418179e-005 5.57559952e-006 2.55537947e-004 3.79775651e-004
      8.47262345e-005 7.24971687e-005 3.45773697e-006 5.92965298e-005
      3.85086198e-004 6.30890936e-005 -2.65227427e-004 -2.78599822e-004
      -2.04247845e-005 -1.18330005e-004 -3.55864933e-004
      -4.69500141e-004 -2.01801740e-004 -8.28924567e-006 1.82155258e-004
      -3.51879862e-004 -8.35553161e-004 1.01661441e-004 1.33391775e-004
      -5.29494464e-005 -2.40043373e-005 -1.61526041e-004
      -4.84637974e-004 -1.31247056e-004 -1.67957012e-004 2.31061480e-004
      -2.58694170e-004 1.45365499e-004 -5.75706872e-005 -1.91023617e-004
      -4.69517807e-004 1.58496143e-004 5.59698616e-004 -5.42959497e-005
      -3.31067567e-004 -3.18694219e-004 7.29369685e-006 -2.15745022e-004
      -2.53265578e-004 -6.66915730e-004 -7.82251300e-005 2.26056829e-004
      -1.18492302e-004 3.04955553e-004 -2.53844395e-004 5.30202742e-005
      7.77191453e-005 -6.23031156e-005 4.11550318e-005 -4.75311157e-004
      3.77916003e-004 1.00890811e-005 -4.35477326e-004 5.54374943e-004
      2.54749059e-004 -3.74565774e-004 1.83777505e-004 -4.70081204e-006
      -4.67042060e-004 -4.02224890e-004 -1.67693594e-004
      -2.28880628e-004 -2.26902455e-004 -2.11258113e-004
      -1.41080936e-005 1.74695087e-004 6.62815637e-006 -2.78197927e-004
      -2.48368015e-004 -1.03519844e-004 -9.33630799e-005
      -6.60647987e-004 -2.42873401e-004 3.11244767e-005 7.92538922e-005
      -2.89649121e-004 -8.43638321e-004 3.20493273e-005 3.48987116e-004
      6.91196910e-005 -7.53660788e-005 3.84826155e-004 9.06361311e-005
      2.51434627e-004 -2.89054937e-004 -7.65597157e-004 -9.60230100e-005
      1.03062739e-004 1.23936596e-004 8.91126110e-005 2.92158278e-004
      -1.79525723e-005 2.59094813e-004 3.33185075e-004 -3.34452576e-004
      -6.95027935e-004 3.60888895e-004 2.41681719e-005 -4.83735057e-005
      -8.14265804e-005 3.60039667e-006 1.07891872e-004 -1.24303129e-004
      -2.31696496e-004 -1.27722902e-004 -1.42511781e-004
      -2.56894447e-004 -5.92219403e-005 2.01753399e-004 1.74890360e-004
      -9.31096147e-005 -2.82961875e-004 -4.56057722e-004
      -2.78360443e-004 -1.22584650e-004 5.63774782e-004 2.20477566e-004
      3.43219085e-006 -1.94876979e-004 -2.53173843e-004 -4.25069185e-004
      -3.61165934e-004 3.31227900e-004 -8.91488889e-005 2.33767496e-004
      -3.96873162e-004 -2.57489999e-004 5.36309308e-005 -4.27173218e-004
      3.14687873e-004 -5.39864821e-004 4.61305986e-004 -9.65243671e-005
      1.56273818e-004 5.99475061e-006 -1.23700607e-004 2.68834003e-004
      1.52825029e-004 3.04443703e-004 -4.61409974e-004 1.86788282e-004
      2.62171176e-004 2.45536881e-004 1.66408281e-004 -5.92062483e-004
      4.72856394e-004 3.54008575e-004 -3.14319186e-004 -6.56004704e-004
      3.54540127e-004 6.94257469e-005 -4.13925125e-004 2.84861424e-004
      3.77380784e-004 -1.80277173e-004 5.21736547e-005 3.41256440e-004
      -1.94806111e-004 2.35570682e-004 -1.84736287e-004 2.21043840e-004
      1.75559151e-004 4.35877882e-004 -1.78236558e-004 4.28898056e-004
      2.04432159e-004 2.25112253e-005 3.40655970e-004 2.20623231e-004
      1.66780213e-004 -6.48876376e-005 -1.66489437e-004 3.21657513e-004
      -4.87254292e-004 -2.57261505e-004 3.92110640e-004 7.52509979e-004
      5.05138712e-004 3.08718212e-004 -5.01468370e-004 1.21995705e-004
      -4.43986995e-004 -2.32636012e-004 -6.40876824e-004 1.02238533e-004
      1.97372981e-004 -4.78053436e-004 3.90026078e-004 3.79800505e-004
      6.62823091e-004 -5.42568567e-004 1.43507481e-004 2.11033926e-004
      1.16428477e-004 2.99987645e-004 -1.73566339e-004 3.06901988e-004
      3.84210958e-004 -1.30011715e-004 -4.52576176e-004 -7.62400305e-005
      2.81730667e-004 -6.91144232e-005 1.75267414e-004 1.96072971e-004
      -2.05339937e-004 -4.60688345e-004 8.15745734e-005 -1.87751706e-004
      -4.11373767e-004 -4.76347341e-005 1.43796802e-004 1.16913019e-004
      5.62360743e-004 -7.98200836e-006 -3.40927247e-004 -2.35091153e-004
      -6.17850019e-005 -1.62497046e-004 4.54508961e-004 -1.35261638e-004
      -5.34464489e-004 -2.02687937e-004 -3.24110915e-005 1.03534898e-004
      -6.32610909e-006 -3.20066494e-004 -5.21929702e-004 5.49024495e-004
      -2.06052879e-004 8.72794335e-005 -4.12047026e-004 -5.71067270e-004
      3.52505769e-004 1.00306999e-004 -6.78407814e-005 -5.36034582e-004
      1.99277220e-005 3.54566873e-004 3.71910020e-004 4.39074414e-004
      -1.27794747e-005 -4.13440430e-004 7.23488920e-005 -3.12764925e-004
      -3.68000037e-004 4.63841512e-004 3.27848888e-004 -1.94390650e-005
      -2.63916765e-004 1.55296802e-004 2.41101094e-004 -4.09131317e-005
      -3.48274363e-004 -5.38158172e-004 2.18439382e-004 1.93852276e-004
      6.76570926e-005 -3.61611135e-004 1.91717845e-004 3.82961953e-005
      1.93280721e-005 -5.21033886e-004 -3.46658897e-004 1.11001595e-004
      1.84994016e-004 -3.86324362e-004 -5.61565219e-004 -3.32467724e-004
      -6.35109027e-005 -2.33990504e-004 -2.71834084e-004
      -1.40915407e-004 1.68261668e-005 -4.64994991e-005 2.51166144e-004
      1.31628738e-004 3.58746802e-005 -5.04558673e-004 1.90346938e-004
      -2.36242151e-004 -3.92969145e-004 1.73873865e-004 2.08187048e-004
      2.16477434e-004 -3.75827403e-005 -5.22846822e-004 1.16234740e-004
      2.84718571e-005 1.28684886e-004 9.47272638e-005 -6.24178283e-005
      -1.63499310e-004 -2.84935231e-004 4.38833580e-004 -1.78288290e-004
      -5.68046933e-004 -2.62123503e-004 -1.16146519e-004
      -3.87638807e-004 2.07661229e-004 -2.80941516e-004 -1.36325514e-004
      -8.28680932e-005 6.48757850e-004 1.66961239e-004 6.61061349e-005
      7.27926381e-005 1.78197617e-004 -2.10084589e-004 8.92131720e-005
      -2.41208923e-004 -3.48252710e-004 5.55687875e-004 -5.54716898e-005
      2.97648890e-004 2.31546757e-004 1.57862392e-004 -3.15724974e-005
      2.73987447e-004 -1.61871780e-004 -5.70296907e-005 1.76636764e-004
      2.93528312e-004 1.03081162e-004 -1.53877016e-004 -2.01921168e-004
      -9.77796808e-005 1.14836177e-004 2.23951924e-004 -2.87245784e-004
      -4.45885351e-004 -3.41631749e-005 2.90592201e-004 -2.00189083e-004
      3.26029840e-004 -5.18152956e-004 -1.48701365e-005 1.35093951e-005
      5.90326126e-005 7.97607412e-004 -4.26858431e-004 5.59535583e-005
      4.35131187e-005 -4.97044348e-005 -2.12965475e-004 -2.14737069e-004
      5.21732611e-004 1.42842691e-004 -6.77549033e-005 -1.60142736e-004
      3.09805182e-004 6.14139135e-005 1.65618912e-004 2.16221917e-004
      -2.80513079e-004 -7.41268450e-005 -2.10252256e-004
      -1.08604363e-004 -1.24837272e-004 -2.70027085e-004
      -2.87159870e-004 2.89574877e-004 -2.47129850e-004 2.01194343e-004
      1.52590685e-004 1.30250235e-004 3.35449673e-004 -4.40721662e-004
      -1.68256927e-004 -6.74542389e-005 -4.52300374e-005
      -1.46701335e-004 -3.61864149e-005 4.75295208e-004 2.35513944e-004
      -2.02125360e-004 -8.91719810e-006 2.06025346e-004 -7.78470348e-005
      -7.72050771e-005 -5.14370506e-004 -3.08790128e-004 2.37121960e-004
      5.06220735e-004 2.67826137e-004 -8.51434452e-005 -2.12341576e-004
      -4.57018963e-004 -2.85262882e-004 3.72912364e-005 -3.20600724e-004
      9.94590882e-005 2.58320419e-004 3.11428623e-004 -2.22365357e-004
      -2.11608291e-004 3.15991754e-004 -1.33459820e-004 -3.50632617e-004
      -3.10004325e-005 9.32897165e-005 5.58747153e-004 3.59084515e-004
      1.40520815e-005 -5.26982883e-004 -1.08756736e-004 3.30255367e-004
      -7.13428599e-005 3.82401136e-004 2.60852801e-004 4.76222485e-004
      2.70486955e-004 -1.42241886e-004 4.26333165e-004 -1.60199110e-004
      3.11130658e-004 -2.32349863e-004 -3.14006547e-006 3.12079239e-004
      -1.20623277e-004 7.23138684e-004 -1.40190328e-004 -1.91338244e-004
      -2.01291725e-004 3.33662378e-004 -1.50023843e-004 -2.16402186e-004
      1.25762293e-004 1.02877925e-006 -3.30120878e-004 -1.89194063e-004
      5.21734415e-004 1.10333247e-004 3.13251978e-004 1.84516291e-004
      -4.88794933e-004 -8.07576944e-005 5.32377744e-004 3.08066577e-004
      -1.72166590e-004 9.93951398e-005 2.66408751e-004 5.38796594e-004
      -1.49495900e-004 -2.80127686e-004 1.62952711e-005 2.05837510e-004
      1.54349269e-004 -2.92625889e-004 -1.53091125e-004 -1.03103914e-004
      1.40460063e-004 -3.60936829e-005 -3.17404629e-004 2.45852016e-006
      -3.81377526e-004 1.17009964e-004 -3.59346741e-004 2.97674356e-004
      5.34605351e-004 2.48160388e-004 -2.96745129e-004 -2.32835650e-004
      -3.07034556e-004 -2.70806137e-004 -1.46497609e-004 3.04761983e-004
      3.11723328e-004 -8.22558577e-005 1.67276521e-004 -2.25611424e-004
      5.30438447e-005 3.69290821e-004 1.73288980e-004 -8.16870524e-005
      -3.52906121e-004 2.74670339e-004 -7.74639702e-005 4.81523311e-005
      -1.26213359e-004 2.25934200e-004 2.92591954e-004 -1.30316417e-004
      -6.36349796e-005 1.05278896e-005 -1.19188044e-004 -2.36095919e-004
      -8.53564325e-006 2.13657506e-004 -5.49655582e-004 -2.99119274e-004
      -6.31788978e-004 4.49398736e-004 1.98288486e-004 8.02946379e-005
      -2.92582379e-004 -6.37361722e-004 -1.21074690e-005
      -1.00923564e-004 -2.80114415e-004 1.01814454e-004 1.04403283e-004
      -1.06344822e-004 3.24389315e-004 -1.09629720e-004 -2.87606177e-004
      2.54667277e-004 -3.29739414e-005 4.39867727e-004 3.19747924e-005
      -6.50791568e-004 -1.23312333e-004 -4.85384109e-004
      -3.65784217e-004 -4.49803978e-004 -1.03089493e-004 1.62217460e-004
      1.83144701e-004 -1.73352979e-004 -1.06397638e-004 -2.28198507e-004
      -2.20380040e-004 -1.57618211e-004 -9.33193223e-005
      -2.72951991e-004 -2.91234057e-004 -2.59453867e-004
      -3.92518850e-004 -1.26284169e-004 3.02793505e-005 1.27129941e-004
      -2.33166938e-004 -4.40006930e-004 -3.31199757e-004 2.19958863e-004
      -3.98882985e-004 -3.03387613e-004 -9.51855473e-005 5.44927723e-004
      -9.78476805e-007 -1.58782612e-004 -3.09978030e-004
      -2.24495270e-005 1.60117444e-004 -1.14130846e-004 -7.35540758e-004
      4.38407209e-004 -2.82692727e-005 1.15876486e-004 -3.55864031e-004
      -2.95274949e-005 -5.90143143e-004 1.39319789e-004 2.42561669e-004
      -7.31070584e-004 1.89009850e-004 2.02155294e-004 -1.07141284e-004
      -3.66372522e-004 1.47038896e-004 5.08948033e-005 -2.01067800e-004
      -4.95065877e-004 -6.38201542e-004 -7.58299488e-004 2.30711943e-004
      -2.30363250e-004 -1.08909924e-004 -2.01466522e-004 2.11704872e-004
      -4.52836073e-004 -4.06583160e-004 -6.43178297e-004 2.14295636e-004
      -1.97841728e-004 6.94336995e-005 -2.95278751e-005 -4.58128838e-004
      1.43559519e-004 1.39232754e-004 7.64689394e-005 -5.09546255e-004
      -1.12279158e-004 3.13221739e-004 1.67667138e-004 1.22755329e-004
      -7.31997643e-005 -5.46184347e-005 3.76826756e-005 2.69257347e-004
      -3.56398610e-004 1.02032900e-004 8.37297193e-005 -3.41286883e-004
      -2.22657298e-004 -6.37824996e-004 -4.64002835e-004 2.71165918e-004
      3.16272199e-004 -1.36345465e-004 -2.77164712e-004 3.10879492e-004
      2.50347250e-004 -1.55441248e-005 -5.41734444e-005 -1.19957040e-004
      1.60794531e-004 -7.46170699e-005 2.94226105e-004 7.24721176e-005
      -9.52794726e-005 -9.82005076e-006 3.37613339e-004 1.59416042e-004
      -2.28708122e-005 6.36024970e-006 4.09212604e-004 1.84389690e-004
      -2.07816585e-004 9.73790302e-005 1.67919497e-004 4.46790546e-005
      -1.86888632e-004 -2.50689511e-004 2.80113658e-004 6.38438738e-004
      6.35325850e-005 -6.14440214e-005 1.61272721e-004 1.34333808e-004
      -1.92718609e-004 3.25322253e-005 -2.75540151e-006 -2.08290076e-004
      -1.79700190e-004 1.81502590e-004 5.02919371e-004 -3.90400499e-004
      -1.11689034e-004 1.14857379e-004 1.57006463e-004 -3.23859305e-004
      -5.41574673e-006 9.62264749e-005 -2.28099496e-004 2.48813740e-004
      2.00208087e-005 -3.89431720e-004 1.84781500e-004 4.97565197e-004
      -4.56888636e-004 3.84580373e-004 7.21601653e-004 4.76747839e-004
      1.66415761e-004 2.63084774e-004 1.36472037e-004 -1.57922550e-004
      -4.45040991e-004 -3.03167297e-004 2.95272475e-004 8.06531971e-005
      4.06039180e-004 -1.19398421e-004 -3.68378242e-004 -3.40593651e-005
      -2.57573382e-004 -1.32237634e-004 2.03842734e-004 -7.83519135e-005
      -5.58845022e-005 -3.86756932e-004 3.01579101e-004 7.58436872e-005
      -3.82736507e-005 1.84899807e-004 1.57089118e-004 -5.49677934e-005
      -5.65447030e-004 -2.22477480e-004 8.27974654e-005 6.40440965e-004
      5.14774700e-004 4.31574517e-005 2.43069589e-004 3.28434544e-004
      -2.07172285e-004 -5.35537198e-004 -1.52813605e-004
      -1.69157007e-004 2.02758296e-004 2.62573885e-004 -2.19864905e-005
      -3.60529841e-004 1.50345106e-004 -5.98955143e-004 -2.59806169e-004
      3.65391519e-004 1.83339391e-004 6.23630913e-005 2.31718266e-004
      -1.71344189e-004 3.63013678e-005 3.32108932e-004 -1.35649374e-004
      -1.03668608e-004 4.53636283e-004 3.24692664e-004 2.66274204e-004
      2.61798297e-004 4.37667877e-005 -1.42323930e-004 1.54511494e-004
      -4.14193841e-004 3.19763320e-004 2.80943263e-004 4.32550645e-004
      2.43732575e-004 -3.81458551e-004 8.93525576e-005 -3.13213503e-004
      3.84682266e-004 -4.25045466e-004 1.94277181e-005 -1.09043656e-004
      9.73988717e-005 -5.52783837e-004 -5.71210023e-007 3.62690771e-004
      3.01283115e-004 1.09954584e-004 -5.66409901e-004 -3.44902073e-004
      -4.32612811e-004 -2.53838043e-005 2.64803646e-004 4.58351387e-005
      1.72768225e-004 -1.19209944e-004 -1.13613489e-004 5.09917329e-004
      1.64835626e-004 1.00705467e-004 3.77110351e-004 4.12445152e-005
      -9.70868714e-005 -4.87353449e-004 -1.22366502e-004 1.96762790e-004
      1.34464266e-004 1.56846276e-004 5.56686602e-004 1.87186146e-004
      -3.03046458e-004 -6.21351821e-004 1.34010934e-005 2.60503235e-004
      -2.13106341e-005 7.73477295e-005 2.95360915e-005 6.66833002e-005
      -1.11077912e-004 -1.76020156e-004 2.25621712e-004 -4.22031328e-004
      -2.48531782e-004 1.59875388e-004 -1.49689280e-004 -6.16195102e-005
      7.73038773e-005 -1.66621991e-004 1.40669426e-005 -1.49708707e-004
      -3.91703128e-004 3.27336136e-004 1.16211435e-004 1.38141422e-005
      -2.04538766e-004 8.30483841e-005 3.07670598e-005 4.26219864e-004
      -1.19873090e-004 1.77901617e-004 -7.88191246e-005 -1.76543690e-004
      1.62736455e-004 1.79474897e-004 3.95942407e-005 -1.60069758e-004
      5.01094095e-004 -5.86412556e-004 -6.67204004e-005 -2.45153933e-004
      6.88512155e-005 -2.69187749e-005 -3.05395719e-004 -3.01411870e-004
      -2.60795787e-004 1.92829484e-005 3.04181012e-004 -1.19879121e-004
      4.09813278e-004 -4.55292047e-006 -3.13384735e-005 -2.47939752e-004
      -1.22897080e-004 4.61876887e-004 9.62113845e-005 -1.76001180e-004
      -2.08146681e-004 -7.66424200e-005 2.11543127e-004 3.78628902e-004
      3.58159363e-004 1.75218258e-004 -1.34730071e-004 1.18012918e-004
      2.67540425e-004 -3.00849846e-004 -2.93418881e-004 1.28773361e-004
      2.08959929e-004 4.28647560e-004 2.71539320e-004 -4.55642294e-004
      -9.31758550e-005 -1.90480248e-004 -1.94284046e-004
      -3.36845871e-004 -2.87300238e-004 7.50555482e-005 9.29795642e-005
      -2.06896962e-004 -3.14225879e-004 -7.99028639e-005 4.27521300e-004
      3.17572034e-004 2.15449269e-004 1.79019291e-004 1.22964426e-004
      -1.23097037e-004 -3.91788810e-004 7.71106061e-005 3.57677258e-004
      -3.87643086e-004 -1.12074915e-004 8.61428343e-005 -1.50762280e-005
      1.63171368e-004 3.26531648e-004 1.16105992e-004 3.22631880e-004
      -4.70967643e-004 -3.36810685e-004 -6.52857807e-006 1.36928560e-004
      -1.79587325e-004 -3.46865163e-005 -1.65837861e-004
      -3.42671265e-004 3.87654465e-004 -8.58170970e-005 -1.19720731e-004
      -1.16739124e-004 2.10430502e-004 1.98353402e-004 -2.90395401e-004
      1.83715776e-004 1.39426047e-004 8.76038539e-005 2.10853454e-004
      3.14808043e-004 5.66086892e-005 -2.65674375e-004 1.92117514e-004
      -2.10598533e-004 6.13517477e-005 -2.15614171e-004 6.21000290e-005
      1.22595680e-004 3.26849149e-005 1.84887263e-004 1.59618940e-004
      8.38865235e-005 1.37916417e-004 -2.24886229e-004 -2.16554123e-004
      2.55211024e-004 -9.05904235e-005 -1.22949947e-004 2.06680998e-004
      -3.35430261e-004 4.91206476e-004 1.58677922e-005 -1.39282012e-004
      4.43980593e-004 4.58806840e-004 4.57516202e-004 1.25744948e-004
      -8.76657432e-005 -1.41476936e-004 -3.81995196e-004
      -4.89776066e-005 -1.60801617e-004 -9.76494921e-005
      -7.01763638e-005 7.38862655e-005 -3.36177472e-004 1.87923142e-004
      1.10464272e-004 -2.05457283e-004 -4.65020246e-004 -4.66626545e-004
      -2.73761863e-004 4.26785991e-004 -5.04464842e-004 -2.04881744e-005
      1.51318687e-004 1.30745320e-004 1.59634874e-004 -2.78350617e-005
      -2.24660456e-004 2.66745657e-004 2.42012466e-004 1.81794370e-004
      4.12388636e-006 -2.98427854e-004 3.16328114e-005 -9.57762750e-005
      4.94718042e-005 -4.59676172e-004 2.18186105e-004 -3.55180760e-004
      -7.16154682e-005 -1.30174725e-004 2.21598020e-004 1.47637562e-004
      4.48822568e-004 -9.10833842e-005 -6.46820001e-004 1.88518767e-004
      1.61229589e-004 -3.50761518e-004 -4.65770921e-004 9.63740677e-005
      -2.11976701e-004 3.30027746e-004 2.57680571e-004 9.01489766e-005
      -1.56769529e-004 6.32767260e-005 -4.42368000e-005 -3.81076767e-004
      -3.20181891e-004 6.38692800e-005 -4.66145866e-005 2.41379443e-004
      1.80699881e-005 2.15727941e-005 -1.95359917e-005 -1.62358629e-004
      -3.40601720e-004 1.98739290e-005 -3.11639509e-004 -1.60329058e-004
      -1.97186586e-004 -7.33878042e-005 -1.74868110e-004
      -7.49212486e-005 3.38172977e-004 1.36718532e-004 -3.71082162e-004
      -2.35790241e-004 2.49998062e-004 -1.09208944e-004 -1.53049987e-004
      3.92854854e-004 4.44364850e-004 -4.18152456e-004 -4.38855292e-004
      -2.88031064e-004 -2.78218678e-004 1.18042000e-004 -1.62710479e-004
      -7.85605458e-004 -1.13202557e-004 2.24124422e-004 3.33241944e-004
      -4.94069769e-004 -9.42976476e-005 -1.36952323e-004 5.94785670e-004
      -1.58959505e-004 8.41854271e-005 -3.25845147e-004 1.88919512e-006
      -3.21521540e-004 9.74123832e-005 1.25475242e-004 -4.71537278e-005
      3.85165222e-005 -3.07809736e-004 -3.58449965e-004 -4.30142129e-004
      1.01209807e-004 1.12415051e-004 -1.57584916e-004 3.38725193e-004
      7.23254125e-005 8.30877907e-005 -3.84662526e-005 1.21097197e-004
      -1.93538741e-004 -2.39649773e-004 -1.67064849e-004 1.60486466e-004
      -2.51800462e-004 -2.61758658e-004 1.77247246e-004 1.42876277e-004
      -1.32800837e-004 -2.94673111e-004 1.08967382e-004 3.88057437e-004
      -5.25693642e-004 -1.71726788e-004 -5.19814726e-004 4.36498638e-004
      -1.59360847e-004 -3.55426426e-004 1.54897149e-004 2.43489543e-004
      2.31655085e-005 4.32109548e-004 -5.13709732e-004 2.10719096e-004
      3.57710844e-004 3.68666224e-004 -8.14145642e-006 -2.16048880e-004
      -7.85475568e-005 -1.37533309e-004 1.03257909e-004 6.86569183e-005
      -2.25077747e-005 1.59284042e-004 -3.69036388e-005 3.50695977e-004
      2.40053501e-004 -4.99542279e-004 -2.33568717e-004 -4.17799893e-005
      -3.85020365e-004 3.93675655e-005 2.55390536e-004 3.78417142e-004
      -1.12921101e-004 1.41531287e-004 6.89136868e-006 -3.58236430e-004
      -3.05483554e-004 -2.74951220e-004 -1.19750672e-004
      -1.30279164e-004 4.67580336e-004 5.91283606e-004 3.34707729e-004
      -1.65868216e-004 -1.04317887e-005 3.05310416e-004 -1.97202069e-004
      -5.69945143e-004 -3.44281259e-004 -1.49800457e-004
      -7.58881797e-005 1.01030651e-004 3.36046432e-005 -1.01588725e-004
      -2.24760326e-004 2.13921187e-004 -5.38773384e-005 -4.30048094e-004
      5.45977928e-005 -1.23935009e-004 1.50895130e-006 4.42596618e-004
      9.60991456e-005 2.02514002e-005 -3.61289422e-004 -5.43752685e-004
      -7.96126551e-005 -2.85904855e-004 -3.06733884e-004
      -5.25410469e-005 -3.75956151e-004 5.00213879e-004 2.20213988e-005
      1.64367684e-005 -6.32471056e-004 8.36220643e-005 -1.14160121e-005
      -2.11065726e-005 7.56150112e-005 1.82757736e-004 -7.01572480e-006
      -4.47770988e-004 -6.30828843e-004 3.13620149e-005 -1.82916498e-004
      -1.90420051e-005 8.70979347e-005 -4.88243793e-004 -2.75928207e-004
      3.34429096e-005 -2.14922782e-008 -3.08087532e-004 -1.98630616e-004
      2.36391876e-004 -4.47660022e-006 -3.50666465e-004 -3.99970741e-004
      -1.90710940e-004 -2.17385546e-004 -4.46243299e-004 2.69253622e-004
      1.80111001e-005 -2.82335968e-004 -1.01658450e-004 -1.18709344e-004
      3.86939413e-004 -2.71518311e-005 2.01625575e-004 -3.09560070e-004
      -2.48553697e-004 -2.94927449e-004 -1.77329042e-004
      -4.83483454e-004 5.74899423e-005 1.14986819e-004 1.86074438e-004
      6.08317670e-004 -6.28777838e-004 7.53530767e-005 1.40527831e-004
      3.53643205e-004 5.37757704e-004 -8.45573450e-005 2.54463434e-004
      1.18984986e-004 2.77682499e-004 -2.68451869e-004 -1.64031117e-005
      1.43648809e-004 1.00624471e-004 -3.31027841e-004 2.54253337e-005
      3.01865861e-004 1.27780149e-004 -3.39176710e-004 -2.34328778e-004
      1.11047542e-004 1.75405530e-005 -1.97753776e-004 -8.06286480e-005
      -2.19400390e-005 9.64275569e-006 -3.51800118e-005 -1.96072938e-006
      -5.65117698e-005 2.85424700e-004 2.95023201e-004 -3.10136384e-004
      2.32346007e-004 1.64283738e-005 -1.41671728e-004 -4.74895816e-004
      -4.35085851e-004 -7.74553264e-005 -1.40974065e-004 9.73075294e-005
      8.18875051e-005 -6.88578948e-005 -1.67356411e-004 -2.38078661e-004
      -4.48522551e-005 -4.95214423e-004 -6.53405878e-005
      -3.07345472e-005 -2.27899945e-004 2.81498415e-005 -5.83563087e-005
      5.35074178e-005 2.37092190e-005 1.53146160e-004 -2.19061068e-004
      1.77054622e-004 -9.59234458e-005 -2.44144263e-004 1.50910753e-004
      4.03344893e-005 -6.68666762e-005 -2.27366545e-004 2.87003611e-004
      -2.80541019e-004 2.00874420e-005 3.89732275e-004 -4.13830130e-004
      -7.54140317e-004 4.58941475e-004 -4.15577058e-004 5.54229555e-005
      -1.17470867e-004 2.83058500e-004 -6.05929934e-004 -1.89433165e-004
      -9.61696787e-005 -1.26207408e-006 6.61242157e-005 -1.07088854e-004
      1.54913687e-006 2.88409705e-004 -1.83884913e-004 -2.12335159e-004
      -3.52743256e-004 -4.12473426e-004 -1.34206448e-005
      -1.32235582e-004 -1.28627784e-004 1.17601317e-004 -8.29613709e-005
      -3.25693953e-004 -2.04173029e-005 6.52059243e-005 7.43691126e-005
      -4.42814169e-004 -2.69391341e-004 -9.74502400e-005 3.79559380e-004
      9.65142826e-005 -3.45043227e-005 -3.46835848e-004 -2.67740077e-004
      -3.98607226e-005 5.77784813e-005 1.39831842e-004 -4.45154030e-004
      -1.94030275e-004 3.05561989e-004 6.10957330e-004 -2.55004270e-005
      -3.26287663e-005 -5.15844673e-004 3.36484809e-004 2.66782066e-004
      1.65037185e-004 6.70814334e-005 7.25159422e-004 -2.58830376e-004
      1.34708200e-004 -4.12256515e-004 -6.12351112e-004 -7.19868194e-006
      -6.60450678e-005 -1.72275162e-004 1.48248815e-004 1.13700036e-004
      3.51131166e-004 -3.38183454e-005 -3.36840429e-004 -3.08193878e-004
      -2.69292359e-004 5.19185385e-004 -2.00465060e-004 1.94531211e-004
      1.13703854e-005 -1.92376872e-004 -8.07084507e-005 1.99847360e-004
      -7.93165818e-004 -5.39458633e-005 -6.46765839e-005
      -1.62366719e-004 2.87360686e-004 1.27586449e-004 9.42065788e-004
      -6.19008322e-004 -3.53918556e-004 -2.12976811e-004 1.53641900e-004
      -3.73403396e-004 -7.89331971e-005 1.77018344e-004 2.57169449e-004
      5.54083344e-005 -6.67676330e-004 -1.06243424e-004 -5.14225045e-004
      3.91728332e-004 1.04217019e-004 -1.84616310e-005 3.74027150e-004
      2.16393004e-004 4.93490188e-005 9.70968686e-005 1.05505700e-004
      -4.80301824e-004 -4.18642798e-004 -3.24925524e-004 5.00927308e-005
      2.96372978e-004 5.82188022e-006 -9.16682038e-005 -2.75527156e-004
      2.66998220e-004 -2.05207660e-004 2.17163833e-005 2.44239724e-004
      -4.42374265e-004 1.84411634e-004 -6.41034683e-004 -8.58413332e-005
      4.87400044e-004 -9.62406702e-005 -1.73744862e-004 2.25279029e-004
      1.02755090e-004 -2.96506303e-004 5.79176354e-004 4.38354182e-004
      5.02972398e-004 1.62251352e-004 5.65353082e-004 -3.23628890e-004
      1.27896565e-004 1.07503532e-004 -1.97479400e-004 -3.15841549e-004
      3.18346792e-005 2.91340275e-005 2.40551617e-005 2.13367748e-005
      -3.15827288e-004 2.14940839e-004 6.90244138e-004 6.38586469e-004
      -1.12827096e-004 -6.21272993e-005 3.05504480e-004 -1.16642193e-004
      -9.90456247e-005 -5.61776746e-004 5.63787180e-004 2.89021045e-005
      -6.64560866e-005 -4.71559433e-005 1.59255273e-004 2.49600911e-004
      1.49305284e-004 1.35184076e-004 -2.31904633e-004 3.35331977e-004
      -2.61317709e-005 -2.83556728e-004 -1.31022316e-004
      -1.93533033e-005 -7.04584745e-005 -5.90987584e-005
      -7.97345347e-005 -5.67202689e-004 4.44032252e-004 3.93471273e-004
      -3.23804066e-004 -3.75504023e-004 1.16894356e-004 1.02585182e-004
      -5.84261783e-004 -3.47672205e-004 -8.42334412e-004 3.15446669e-004
      -7.13357003e-005 -4.59584553e-005 -1.13656737e-004 2.01541741e-004
      1.60831041e-004 -9.48046072e-005 -1.48737061e-004 -6.03574561e-004
      7.79722759e-005 1.69706545e-004 -2.34540217e-004 -3.31705058e-004
      1.04140054e-004 2.52283699e-005 -9.81544072e-005 -2.18678761e-004
      -1.34969669e-004 8.87546048e-005 6.24837339e-005 -4.24446407e-005
      -1.64055280e-004 2.18218134e-004 2.53869075e-004 -1.47437182e-004
      1.16528747e-004 1.31593071e-004 1.25059814e-004 9.09241935e-005
      -7.48746461e-005 -4.02560327e-005 -8.19658817e-005
      -4.09497152e-004 -3.93163995e-004 -1.39160284e-005
      -4.31824592e-004 3.57875018e-004 1.56525130e-004 3.05664835e-005
      2.50424127e-005 1.95455053e-004 -7.13119516e-005 -2.32291393e-004
      2.93450512e-006 -5.27266930e-005 -1.09993103e-004 2.14709697e-004
      -9.79087508e-006 1.67216422e-004 3.00642481e-004 -2.94269179e-004
      -5.70200034e-004 1.71317166e-004 2.05574586e-004 3.76797369e-004
      7.68197860e-005 1.16658950e-004 4.95103159e-005 4.93202097e-005
      -8.03423696e-004 -2.67344614e-004 -2.26410029e-005 3.04117042e-004
      -2.40424677e-004 -3.40575134e-005 -3.93225520e-004 3.77665448e-004
      3.85009247e-004 3.05065943e-004 -2.37006479e-005 2.44167109e-004
      -2.95501493e-004 -7.07386280e-005 1.42238699e-004 -3.27956514e-004
      -1.43457422e-004 -8.43690214e-006 -2.76244478e-004
      -1.64406345e-004 2.87537317e-004 2.56263826e-004 5.52669168e-004
      8.94207260e-005 9.07888389e-005 -2.39760302e-005 1.33044203e-004
      1.68514074e-004 1.26397630e-004 6.71101880e-005 -5.97503313e-005
      -2.98563071e-004 -5.43072470e-004 -3.06745460e-005 2.10207072e-004
      3.63230531e-004 -6.39540842e-004 -5.51262419e-005 2.70604854e-004
      8.69586293e-005 -3.63213985e-005 -7.49480532e-005 -5.00798633e-004
      1.34804170e-004 9.76292577e-005 -4.14306764e-004 1.39622003e-004
      1.55605478e-004 5.64129587e-005 3.52033501e-004 2.69568554e-004
      -1.57122151e-004 3.21632360e-005 4.94238811e-005 -3.56091303e-004
      -9.84809813e-005 2.21015129e-004 -9.49789028e-005 3.74980998e-004
      2.48750905e-004 2.25416501e-004 2.59449560e-004 3.33098287e-005
      -1.67712933e-004 -4.05645435e-004 2.90117285e-004 -3.37620848e-004
      -2.09418664e-004 3.50272967e-005 -3.34641518e-004 -2.46811309e-004
      4.09057771e-004 -5.32120699e-004 -2.01438190e-004 2.65450653e-004
      -3.75315576e-004 -1.42667195e-004 1.17638054e-004 3.62405262e-004
      3.29497096e-004 6.56621851e-005 -3.75623640e-004 1.21107885e-004
      2.23871175e-004 -3.76250857e-004 1.66533951e-004 -8.13534789e-005
      -5.05554606e-004 -3.21001717e-004 2.73389247e-004 -5.72828903e-005
      1.24714075e-004 -5.72057579e-005 -4.41095108e-005 -1.52039735e-004
      3.64805543e-004 -2.10681639e-004 -1.81511525e-004 2.24388816e-004
      3.32860131e-004 -2.08601050e-004 7.09030428e-006 -4.52577457e-004
      -8.46153271e-005 -1.58899798e-004 6.74764897e-006 -2.79020402e-004
      1.72795073e-004 5.83297806e-005 1.25164064e-004 3.80394456e-004
      -7.30311294e-005 1.70112049e-004 3.64547770e-004 -2.39049168e-005
      1.85628465e-004 8.01053247e-004 2.94736121e-004 3.70473776e-004
      -9.81781559e-005 -1.43047218e-004 -7.81281342e-005
      -2.27944241e-004 5.04152034e-004 -2.20389338e-005 3.77347606e-004
      5.56442479e-004 7.65672885e-004 -3.43121792e-004 -6.31362025e-004
      -3.72439652e-004 -5.72064368e-004 1.24863116e-004 -2.69218144e-004
      3.02853703e-004 3.86394502e-004 -1.37377292e-005 -2.29799523e-004
      2.24220494e-005 -1.64342462e-004 2.24733994e-005 -5.17938570e-005
      -4.39430645e-004 3.08954659e-005 7.90793783e-005 2.30918580e-004
      -6.16866571e-004 -2.73230020e-004 6.84530278e-006 -1.28280109e-004
      -1.11065558e-004 1.75984140e-004 4.84713528e-004 9.24268970e-005
      5.02961348e-006 -3.25642359e-005 -3.70142690e-004 -7.63001208e-006
      3.37551261e-004 -3.08112270e-004 1.72575863e-004 3.32252850e-004
      -8.24965973e-005 4.74196459e-005 -2.73431389e-004 -5.45077899e-004
      -7.40208952e-006 -6.27945119e-005 6.45517721e-005 2.31379687e-004
      4.24636091e-004 6.62158476e-004 -2.71365207e-005 -3.87140288e-004
      -2.09491351e-004 6.96367943e-006 -5.06802717e-005 -4.27381543e-004
      1.01410997e-005 6.50254602e-004 1.35547575e-003 2.62340298e-004
      1.46512903e-004 -7.29136809e-005 3.55554570e-004 -2.55434832e-004
      -4.12277695e-005 3.79177742e-004 4.98957816e-004 -1.27730946e-005
      5.42323512e-004 -1.04754479e-004 -6.12754200e-004 -1.21549376e-004
      1.50853375e-004 -5.63852023e-004 3.01461056e-004 -1.42916673e-004
      6.47257548e-004 4.06280102e-004 7.53334962e-006 -8.48488475e-004
      3.75429954e-004 1.70776882e-004 -2.18116074e-005 1.85410681e-005
      2.12594183e-004 1.42672419e-004 -1.44267746e-004 -2.48340861e-004
      -4.06357081e-004 1.63606790e-004 -1.14170478e-004 -4.68419690e-004
      -1.69422390e-004 -8.79826621e-005 2.64671893e-004 -2.40459194e-005
      9.94253132e-005 -2.32865568e-004 1.28821834e-004 -1.10140369e-004
      -4.50393301e-004 -3.47954308e-004 9.56373478e-005 2.69108132e-004
      2.22167248e-004 8.92831231e-005 7.03623300e-005 4.30542539e-004
      9.40162208e-005 6.50873844e-005 2.27157143e-004 3.46907531e-004
      -4.35076217e-004 1.33839902e-004 2.33271698e-004 -7.75499211e-004
      -5.70620577e-005 2.21202281e-004 -8.21350623e-005 -4.54957975e-004
      2.86676688e-004 2.70211080e-004 3.11077194e-004 -3.90753994e-005
      -3.11577431e-004 -1.79665702e-004 3.86739470e-004 -1.55342510e-004
      -3.34152312e-004 -1.63206001e-004 9.20015591e-005 6.37000659e-004
      6.29943825e-005 1.21516307e-004 3.02045137e-005 -1.11105574e-005
      -1.58803508e-004 -9.63443090e-005 -2.82150024e-004
      -7.04710401e-005 3.30695882e-004 2.83728383e-004 -4.78757720e-004
      -4.25987819e-004 1.69890292e-004 1.48927153e-004 8.56606421e-005
      1.02064132e-005 2.29732959e-005 -2.30685357e-004 2.39472167e-004
      -3.06553004e-004 4.12650232e-004 2.02394527e-004 -4.81906696e-004
      -1.47909959e-004 -1.39596796e-005 -1.71440712e-004 5.80270134e-004
      -2.11666571e-004 3.36408295e-004 4.76173445e-004 -1.50747568e-004
      -2.73343787e-004 -3.64377571e-004 -4.72747459e-004
      -5.77033847e-004 3.54664189e-006 6.14485296e-004 5.21144306e-004
      1.65640449e-004 1.31850611e-004 -2.58735061e-004 -1.16060446e-005
      -1.66009137e-004 -1.48412673e-005 -1.83832555e-004 5.09425183e-004
      -2.14131040e-004 4.16339841e-004 5.51523699e-005 -5.29619974e-005
      3.35714227e-004 -9.44308849e-005 -9.78656244e-005 -2.31359227e-004
      4.01687503e-005 1.68975839e-005 9.01740009e-007 -3.88840417e-004
      3.72689305e-004 -1.25265724e-004 -3.10917792e-004 -6.00127387e-004
      1.48044841e-004 3.07802577e-004 3.14371748e-004 -2.02927418e-004
      -2.30677848e-004 6.51169801e-004 8.00213093e-005 1.69513514e-004
      -7.34663976e-004 -1.19452277e-004 1.52702865e-004 2.93441350e-004
      -1.78477436e-004 3.31562303e-004 1.94288092e-004 3.50571499e-004
      -1.25602528e-004 -3.25793604e-004 -8.38866035e-005
      -1.22029132e-005 2.44420866e-004 2.32628227e-004 3.35692515e-004
      -4.66327067e-004 3.26607624e-005 2.06363853e-004 -3.93668131e-004
      3.13625409e-004 -8.64328395e-005 -1.57660368e-004 1.81515672e-004
      -2.34238250e-004 -1.25118939e-004 1.37129216e-004 9.46926957e-005
      -4.24074358e-004 6.65559492e-004 5.83835761e-004 3.98461532e-004
      -4.01722180e-004 -2.15327003e-004 -1.61086573e-004
      -1.32852263e-004 3.98265169e-004 -1.51781773e-004 1.61145763e-005
      2.28652971e-005 1.47170373e-004 -1.01558724e-003 5.52922720e-004
      -3.26948240e-004 1.51547472e-004 -4.74220084e-004 -4.58090391e-004
      -3.58651218e-004 9.71567497e-005 2.57337844e-004 2.64276168e-004
      6.80236699e-005 -7.80623886e-005 -1.20929864e-004 1.97238085e-004
      -4.15845774e-004 -4.76395835e-005 1.08511755e-004 6.12567746e-005
      -3.90649584e-005 -1.46400402e-004 -4.34850081e-004 6.06855319e-005
      4.12097070e-005 -1.57698800e-004 2.75182247e-005 2.71378289e-004
      3.80664744e-004 5.51748126e-005 -3.03864275e-004 -3.64693697e-004
      1.25403807e-004 6.17854457e-005 -4.76767273e-005 4.52477863e-004
      -1.08916036e-004 -3.18383827e-005 -5.05607342e-004
      -6.16240941e-005 4.16189374e-004 2.67381925e-004 -6.33939402e-004
      5.39559813e-004 -1.66792179e-005 -2.29094818e-004 -1.34202273e-004
      7.91112907e-005 -4.13782021e-004 -1.13431015e-004 4.55051946e-007
      -1.62930271e-004 3.41416046e-004 3.19415238e-004 -2.87875650e-004
      -7.95706364e-005 -1.09959030e-004 -2.11146689e-004 2.92999030e-004
      2.14083062e-004 -9.17703510e-005 6.71360584e-004 -2.91554141e-004
      -5.00606839e-004 -5.01474657e-004 -2.97727296e-004 5.87241038e-006
      2.46984491e-005 1.34020185e-004 -5.22109855e-004 -1.85072146e-004
      -1.94754597e-004 -2.06324941e-004 -4.43476485e-004
      -7.34937610e-004 8.50067008e-005 -1.02683380e-005 1.56844573e-004
      -7.23280886e-004 -1.80521442e-004 2.99237843e-004 1.22544428e-004
      -3.43330204e-004 -3.32912081e-004 -2.77195679e-004 3.72193841e-004
      1.22456011e-004 -1.43423285e-005 -1.17369200e-004 5.76238708e-005
      7.66127778e-005 -3.57600191e-004 4.11391491e-004 -2.73648446e-004
      -1.20979726e-004 1.07177824e-004 3.01059190e-004 2.68055213e-004
      -4.47029044e-004 -2.01252828e-004 -1.44173275e-004
      -1.92174528e-004 -2.99693871e-004 -3.56841716e-004
      -3.89798573e-004 1.25148115e-004 -1.60762156e-005 -2.82503519e-004
      2.30339720e-004 -5.09633508e-004 2.52777390e-004 -1.95947185e-004
      -6.53670431e-005 1.05991123e-004 -2.20505375e-004 1.18786229e-005
      2.90852651e-004 -5.38190870e-005 -3.95076524e-004 -1.30948290e-004
      -3.17128666e-004 -1.34731192e-004 -5.30438447e-005 4.06233536e-004
      -7.96661043e-005 -3.86397442e-004 -3.31190880e-004
      -3.49233596e-004 -3.37212579e-004 -2.86049781e-005
      -5.83485409e-004 2.75551516e-004 5.58661530e-004 2.20102229e-004
      4.22368961e-004 -3.67659930e-004 -1.31517183e-004 3.83306269e-006
      2.20451795e-004 -6.26871944e-004 -3.15953621e-005 3.21997330e-004
      -1.72521221e-004 1.87694037e-004 -1.23175007e-004 -5.79939224e-004
      3.05164082e-004 1.10059082e-004 -4.01102385e-004 -2.37331973e-004
      2.50383426e-004 -3.06590897e-004 9.16856952e-005 4.67932347e-004
      -1.03006605e-005 4.85054479e-004 -1.41630138e-004 -3.17823928e-004
      1.48552135e-004 3.35906341e-004 4.60325915e-004 1.93657776e-004
      -1.00949932e-004 2.92195269e-004 -1.59420670e-004 -3.21194937e-004
      1.01574660e-005 2.17494584e-004 -1.35541908e-004 -1.14674964e-004
      -1.49418585e-004 -3.90150701e-004 -2.66426621e-004 1.59913427e-004
      -6.89959095e-004 1.05055435e-004 2.01523042e-004 2.25959200e-004
      -1.18778917e-004 1.44041565e-004 1.41019409e-004 -1.03947341e-005
      3.39619699e-004 8.99037404e-005 4.65211342e-005 -7.76958404e-006
      -2.02650830e-004 -1.31151492e-005 -9.27179353e-005 1.91120329e-004
      1.38800038e-004 6.26835681e-005 2.06285637e-004 8.67779236e-005
      2.50521494e-004 2.90817261e-004 -6.63853061e-005 -2.11357692e-004
      -1.02827107e-004 -7.63977660e-005 -1.83283395e-004
      -6.51758281e-004 1.97780784e-004 -4.68116996e-005 2.65539220e-005
      -3.09539872e-004 2.47871852e-004 -6.46244589e-005 2.12252518e-004
      6.10069721e-004 3.03975480e-006 1.88183603e-005 3.70403199e-004
      1.50015956e-004 1.52034117e-004 -3.23032698e-004 -9.17333018e-005
      1.50206455e-004 1.42203397e-004 1.22580503e-004 4.28123953e-004
      1.22972851e-004 -6.16414618e-005 -4.76270070e-004 -1.04236577e-004
      9.05170891e-005 2.83067930e-004 2.28593111e-004 5.75406993e-005
      -3.31152609e-004 4.92240433e-005 7.56891604e-005 -1.84691555e-004
      -2.36855063e-004 2.09230784e-004 7.08636435e-005 -1.85271692e-005
      -1.52955603e-004 3.13107652e-004 -9.03543987e-005 -6.00132917e-004
      -5.55699342e-004 -2.40028428e-004 3.32017080e-004 2.13047664e-004
      5.56522398e-004 -6.38646132e-004 -2.13340289e-004 -5.72188719e-006
      6.33960663e-005 -5.41987029e-005 1.02747044e-005 8.65324808e-004
      -1.45112514e-004 4.03423219e-005 -2.17710316e-004 2.32373379e-004
      2.82147608e-004 -9.46540094e-005 -6.42951287e-004 1.78238872e-004
      1.31793451e-004 4.04948980e-004 1.95568646e-004 -4.37993323e-004
      -5.08582234e-005 3.40569677e-005 5.42531452e-005 -4.05821687e-004
      -1.59879637e-004 5.71853481e-004 4.00841818e-004 -4.90768114e-004
      -1.53852612e-004 -7.60329931e-005 1.08577413e-004 -3.66069726e-004
      3.15051497e-004 6.36213343e-004 2.69786135e-004 -1.76917136e-004
      5.25012612e-004 -5.84168476e-004 -8.30188874e-005 9.91577326e-005
      -1.44153339e-004 6.67939385e-005 -8.61809312e-005 1.33693393e-004
      3.45577166e-004 -2.22604998e-004 -2.51522026e-004 2.21217633e-004
      -2.15721273e-004 -4.71850071e-004 -6.92322574e-005 1.17410891e-004
      -3.56468954e-004 -9.36209835e-005 6.76886470e-004 1.93019296e-004
      1.04125582e-004 9.22954587e-006 -5.29794954e-004 -5.31046069e-004
      2.51222838e-004 9.88862957e-005 -1.47154584e-004 -4.11524175e-004
      1.81677955e-004 2.24384625e-004 -3.15692567e-004 -2.87837494e-004
      3.47250199e-004 -5.05844422e-004 2.28563353e-004 6.75836127e-005
      -9.83411301e-005 3.55423428e-004 -2.87992705e-004 -1.88083985e-004
      3.25345289e-004 -1.40983611e-004 9.93552021e-005 4.63502329e-005
      -1.88419770e-004 -4.58772585e-004 -5.60685177e-004
      -1.35837647e-004 -1.06918938e-004 -4.50820255e-004 1.76215777e-004
      2.09596808e-004 -3.17293307e-005 7.36663424e-006 -1.12036076e-004
      9.56760705e-005 -5.01807837e-004 -2.09460515e-004 3.12063930e-004
      -6.07953873e-004 4.41072567e-004 3.00341362e-005 -4.44311008e-004
      -1.49964428e-004 -1.46231716e-004 -5.50174387e-004 4.30353612e-005
      -1.30169821e-004 -1.07962063e-004 3.90802743e-004 -6.11836003e-005
      1.66107911e-005 7.47533268e-005 -1.18761345e-004 -1.67719641e-004
      2.83763984e-006 -4.87046171e-004 1.30093220e-004 2.07757548e-004
      -2.54496408e-005 -1.27880237e-004 2.08387442e-004 -1.76560905e-004
      -3.73753952e-004 -1.43276149e-004 5.40513174e-005 3.60926788e-004
      7.08800435e-005 2.20051312e-004 -4.79774899e-004 8.75604674e-005
      -1.35783657e-005 -5.81684639e-004 -1.44958714e-004
      -2.98934028e-004 1.23954305e-004 2.02408453e-004 1.25370425e-004
      -1.53646557e-004 -3.45485954e-004 -2.00481736e-004
      -5.28376375e-004 -3.92488990e-004 -4.46935010e-005 3.47706577e-004
      -4.74991481e-004 1.11493127e-005 -2.91484728e-004 -3.48448724e-004
      -4.23408346e-004 3.38284270e-004 -2.93393037e-004 -3.40959086e-004
      2.64430040e-004 -5.45803166e-004 -6.28117486e-005 -1.68992003e-004
      -3.24288965e-004 -6.90266956e-004 -3.01122025e-004 9.32869079e-005
      -4.22564859e-004 -2.18463989e-004 -2.19674606e-004 2.83734989e-004
      -5.32233447e-004 -4.66909318e-004 -7.79715541e-004
      -1.99104004e-004 -2.54098210e-004 5.06841752e-005 1.46629667e-004
      -3.52692645e-004 -3.40220031e-005 1.93602100e-005 -3.54755641e-004
      -3.82652011e-004 -2.89075560e-005 7.44897334e-005 1.64991798e-004
      -2.95449630e-004 1.87912723e-004 4.15668619e-004 -7.00499877e-005
      4.49260173e-004 -2.84908252e-004 -1.67178427e-004 -5.12615778e-004
      -1.61035030e-004 -3.68929672e-004 -5.93379373e-005 4.81326628e-004
      5.27852608e-005 3.18185805e-004 -2.35910280e-004 -1.76945556e-004
      -4.41487820e-004 -9.35407443e-005 -8.57526975e-005 1.05645748e-004
      3.48853500e-004 -8.55680537e-006 -2.32860810e-004 1.39225187e-004
      -9.20017119e-005 -4.15326125e-004 3.95387993e-004 1.31063614e-004
      -2.35456071e-004 -4.14543058e-004 -5.58881904e-004
      -3.68496148e-005 7.62940617e-005 -3.93804148e-005 3.07337497e-004
      -4.43167140e-004 -2.28726436e-004 -4.28969215e-004
      -3.18385173e-005 -1.56969443e-004 -5.06258686e-004 2.22916860e-004
      -5.96598766e-005 5.45295072e-004 2.33241517e-005 2.82543362e-004
      3.38310580e-004 2.46838084e-004 3.24374967e-004 -5.05280215e-004
      -5.19306741e-005 -1.46391321e-004 1.07967964e-004 -3.19564715e-004
      -1.33451424e-004 2.75556067e-005 8.17266264e-005 1.74911605e-004
      -1.63782403e-004 2.15422129e-004 -6.80519879e-005 -6.09315939e-005
      -2.77939071e-005 -5.10728860e-004 -2.04019132e-004 1.55211019e-004
      -3.87793771e-005 -3.00691579e-004 1.70156884e-004 3.68172012e-004
      -2.60545406e-004 6.64938416e-005 -2.12464947e-005 3.56752978e-004
      1.50207998e-004 6.82034937e-004 2.06507524e-004 2.43151939e-004
      2.99857988e-004 2.11188628e-004 -1.40518139e-004 -5.76080987e-004
      7.26443704e-006 1.00702026e-004 4.61937925e-005 1.61009346e-004
      -1.48108054e-004 1.38857038e-004 1.23098653e-004 1.23789694e-004
      1.10974092e-004 -3.77687975e-004 2.45615171e-004 -4.26025450e-004
      2.63716211e-004 3.24219109e-005 2.24451414e-005 -5.03706906e-005
      -2.62646121e-004 -8.11049758e-005 -3.33803240e-004 8.91734599e-005
      1.84063640e-004 1.30216344e-004 -3.93185474e-004 2.92612822e-004
      2.90853350e-004 -2.83441797e-004 -4.85795899e-005 -3.15666577e-004
      2.13344465e-004 4.38618299e-004 2.44144932e-004 9.46528598e-005
      1.84445802e-004 3.28044465e-004 1.62063283e-004 -2.30395344e-005
      -2.20780159e-004 5.27999036e-005 1.12548107e-004 2.83996691e-004
      4.16125404e-004 -1.07176129e-004 -2.99285050e-004 -4.25050326e-004
      2.18711168e-004 -3.31760646e-004 1.53759931e-004 4.58666997e-004
      3.16756312e-004 1.48129155e-004 4.99494956e-004 2.47055377e-005
      -3.91519541e-004 -5.70529199e-004 -6.61109341e-004 1.94016866e-005
      -1.40594377e-004 5.70422213e-004 -4.13785834e-004 -2.97143299e-004
      -8.05833843e-004 5.31955448e-004 8.23144728e-005 4.46500053e-004
      2.80328444e-004 7.56339752e-004 -1.40529155e-004 -2.30170757e-004
      1.15214789e-004 -1.64503406e-004 1.88333957e-004 -9.49212044e-005
      -3.55227210e-004 2.82780355e-004 4.98955051e-005 -6.60062051e-006
      9.19445665e-005 -8.46875249e-004 -2.81535496e-004 -4.21181903e-004
      -1.41170036e-004 -1.39463446e-004 -3.93199269e-004 3.15411191e-004
      4.40171163e-004 4.92750376e-004 3.47746100e-005 -3.52781317e-005
      -9.87454332e-005 -1.41364508e-004 -1.78555609e-004 1.24862549e-004
      -5.25859941e-004 4.05378669e-004 -9.63465482e-006 -1.28833824e-004
      1.17396266e-004 -1.69502324e-004 1.64796176e-004 6.14049786e-005
      3.82836966e-004 4.97589877e-004 -5.64657967e-004 -8.96460188e-005
      -2.73269397e-004 -2.31425511e-004 -3.96676274e-004 4.29982210e-005
      -2.44746654e-004 3.57215293e-004 -5.30195306e-004 -1.21005512e-004
      -3.57950164e-004 -1.49161351e-004 -3.47896013e-004
      -1.88846534e-004 -3.87935142e-004 7.68808241e-005 -2.66553234e-005
      3.66073742e-004 2.58301909e-004 -3.04935529e-004 -5.06863871e-004
      -3.07643146e-004 -2.27739059e-004 -4.86142759e-004
      -1.12332360e-004 3.24177818e-004 -1.47297862e-004 4.07457046e-005
      2.90726864e-004 -8.74491816e-005 -4.88682475e-004 -2.97414750e-004
      -1.18558819e-004 -5.19465073e-004 -4.95175991e-005
      -1.70932952e-004 -1.99661910e-004 -6.79253280e-005
      -1.25466497e-004 -2.47771732e-006 -2.46028358e-004
      -2.12631290e-004 -1.00980957e-004 5.29950157e-005 5.93705809e-005
      -1.51125816e-004 2.09273858e-004 -4.85137425e-004 2.23416020e-004
      -3.67851084e-004 1.84176359e-004 -1.82502627e-004 2.01038230e-004
      -2.07773162e-004 -4.28519386e-004 -5.59635519e-004
      -5.85664297e-004 -1.03359314e-004 -8.69159412e-005 6.65007683e-005
      1.46514794e-004 3.14807141e-004 -2.01035829e-004 7.82685893e-005
      -5.84237161e-004 2.18723435e-005 -2.31974627e-004 -1.70869273e-004
      9.22648615e-005 1.50010586e-004 6.48312445e-004 -3.41184466e-004
      1.34344591e-004 -6.45219043e-005 -1.51454078e-004 -9.87872118e-005
      -3.94097384e-004 3.69866320e-004 -1.33929789e-004 3.99605160e-005
      -2.22489529e-004 -1.98440670e-004 -5.92942233e-004
      -1.56500260e-004 -3.33474338e-004 -3.69739166e-004 4.61224146e-004
      4.50825464e-004 -4.43265935e-006 -3.13279925e-005 6.37229678e-005
      -1.33654627e-004 2.58367127e-005 1.42710865e-004 -3.26687790e-004
      -3.42305197e-004 3.47888039e-004 -4.49919084e-004 -4.95032000e-004
      6.60413571e-005 -4.96157503e-004 -2.78289343e-004 1.52478533e-004
      -6.19114435e-005 9.16983699e-005 2.42710928e-004 5.48388925e-006
      2.22343122e-004 8.87347633e-005 1.86885241e-004 -5.41793670e-005
      -1.11503694e-004 -2.58146993e-005 -4.72582993e-004 9.02624684e-004
      -3.44740925e-004 4.28576004e-006 7.73640786e-005 -1.78112285e-004
      -3.36501980e-004 7.96396198e-005 -3.95885087e-004 -1.21887526e-004
      -8.35568208e-005 -9.44602580e-005 8.41639121e-005 -1.34626782e-004
      -1.11966736e-004 6.22382649e-005 2.34963038e-004 -1.84619596e-004
      7.31352018e-004 -6.70254885e-005 6.65977786e-005 -2.53762173e-005
      3.92125105e-004 -2.41406233e-004 1.21047142e-005 -3.81968362e-004
      -2.17140361e-004 8.45944960e-005 9.41598482e-005 4.66892263e-004
      -1.97503163e-004 -1.10099667e-004 2.01742587e-004 -3.75914300e-004
      -2.21759856e-005 -8.13797524e-004 2.55155057e-004 4.11057554e-005
      1.70964195e-004 6.57203273e-005 -2.47602671e-004 -5.37669635e-004
      -2.90121214e-004 -2.32678212e-004 9.34344735e-006 -1.91281375e-004
      -3.76798824e-004 1.03977742e-004 3.01952765e-004 3.04859306e-004
      -1.85369026e-006 -4.08847773e-005 -1.98585360e-004
      -3.92194961e-005 2.23196446e-004 9.03887940e-006 3.92306596e-004
      5.94226258e-005 -5.23332157e-004 2.16335466e-005 -5.09603182e-004
      -5.87871240e-004 -3.19307175e-004 1.57498129e-004 1.27485502e-004
      5.15850668e-004 -1.91668136e-004 1.09100860e-004 -5.67327370e-005
      -2.51098099e-004 -2.50997342e-004 -9.18227655e-004
      -2.26577249e-004 3.58930614e-004 -4.45501537e-005 9.09863884e-005
      -6.38915953e-005 1.22953730e-004 3.07208480e-004 4.33983019e-004
      6.48907007e-005 -4.49499115e-004 3.40077153e-004 1.78048256e-004
      -2.85144488e-004 -3.87783104e-004 7.63433054e-005 4.40013508e-004
      5.10259524e-005 1.87872556e-005 -2.69171112e-004 -3.66774439e-005
      1.45097089e-004 -1.20255361e-004 3.16076417e-004 3.76405398e-004
      2.94906029e-004 -9.24742999e-005 2.74324120e-004 5.98137383e-004
      6.47182824e-005 3.82491446e-004 1.61845805e-004 2.80470296e-004
      2.66536837e-004 3.39280843e-004 -1.23201622e-004 5.70235541e-004
      8.25896859e-005 -3.91880254e-004 1.86446239e-004 -3.48944333e-004
      3.42563071e-005 5.39217261e-004 4.08235850e-004 -1.52948633e-005
      -3.27008252e-004 1.21713500e-003 4.54824360e-004 2.16408935e-005
      2.75893195e-004 4.05245926e-004 3.87331325e-004 2.32612074e-004
      1.03691244e-004 9.28512090e-005 4.50521504e-004 1.49023908e-004
      4.04135440e-004 -7.11194161e-006 3.30478069e-005 -2.08652680e-004
      -8.44260358e-005 -4.23740625e-004 -2.76208768e-004 2.94949190e-004
      -1.84725111e-004 -2.35246298e-005 5.21522830e-004 -2.14431231e-004
      -1.22066005e-004 -1.27666717e-004 -1.86811623e-004 2.61114164e-005
      -1.21221892e-005 1.27539359e-004 -3.20049439e-004 1.26200190e-004
      -2.12591505e-004 2.37284112e-004 2.76093226e-004 -1.60499421e-005
      -1.65560123e-004 -1.99718837e-004 4.17978226e-005 -1.47730636e-004
      6.44813335e-005 2.70398858e-004 -3.53604468e-004 1.01724545e-005
      -1.07789157e-004 3.08189163e-004 -2.79754255e-004 -2.89409159e-004
      -4.33718924e-005 2.23443712e-005 1.16409792e-004 1.90687264e-004
      -1.46996856e-004 -3.49789363e-004 1.55253219e-004 -2.11241771e-004
      -3.53795258e-005 -1.90185470e-004 8.47246847e-005 1.64685043e-004
      -4.34481481e-004 -9.18467049e-005 -3.41671577e-004
      -4.42349818e-004 7.28293298e-006 2.63144029e-004 -9.25628992e-005
      -9.81393823e-005 7.40369251e-006 -1.04895931e-004 1.04467821e-004
      3.89621928e-005 4.54420951e-004 1.86403136e-004 -3.62412189e-004
      -3.37843550e-004 -1.05993437e-004 4.40478703e-004 3.63722647e-005
      8.02065115e-005 -1.79355833e-004 6.82924117e-004 -5.88540162e-004
      -1.72680084e-004 -1.02037615e-004 1.55150730e-004 -2.66760268e-004
      1.42695528e-004 -3.07514856e-004 -4.28695203e-004 -5.16070926e-004
      -7.88845500e-006 7.07639047e-005 -3.83969629e-004 -3.49253183e-004
      -4.34575311e-004 -1.62642013e-004 2.19872090e-005 -1.07620763e-004
      -2.13829015e-004 -6.06012909e-005 5.45519651e-005 -4.49753919e-004
      -5.46557480e-004 -5.77661907e-004 -7.29349813e-006
      -2.92262848e-004 -3.11823125e-004 -6.33115633e-005
      -2.83946458e-004 -4.13743401e-005 3.95907446e-005 1.32106012e-004
      1.11555921e-004 -3.67289700e-004 -1.21713289e-004 -1.76670947e-004
      2.62434751e-005 1.27856474e-004 -3.03060107e-004 -2.41323301e-004
      -2.14520638e-004 -4.54717519e-005 -2.89337477e-004
      -6.48850575e-004 -9.57043594e-005 -2.03771007e-004 1.03988648e-004
      5.70866214e-005 -3.53282630e-005 -2.62231420e-004 -1.89648010e-004
      -1.43317375e-004 -4.90245991e-004 -2.53410224e-004
      -2.60259723e-004 7.13022309e-005 1.23047530e-005 -8.36605468e-005
      -2.50216137e-004 -3.28124064e-004 -5.57133346e-004
      -2.97368460e-005 1.51178676e-006 -4.49684216e-004 2.21586262e-004
      -1.69529390e-004 -2.79893080e-004 1.16154015e-005 3.39685066e-004
      -4.82835429e-004 -5.60696702e-004 9.61377464e-006 -5.44838607e-004
      -4.08642401e-004 -1.07108652e-004 7.00562014e-005 2.64246482e-004
      -1.20672375e-004 -5.15257241e-004 -4.46334190e-004
      -1.68365645e-004 -1.34661415e-004 -1.46873732e-004 1.01023084e-004
      -2.13516250e-004 -2.16837245e-004 -9.21090977e-005 5.79731888e-004
      -1.70053434e-004 -5.27719676e-004 1.13257207e-004 -2.15441643e-004
      2.28248799e-004 -1.31166234e-004 -2.32229562e-004 -2.23957235e-004
      2.94967667e-005 -4.78230941e-004 -6.57272903e-005 -5.14974818e-005
      -2.85842922e-004 2.58287298e-004 -8.58629210e-005 -4.43646248e-004
      -2.57594918e-004 2.10859667e-004 -1.98551978e-004 -2.56359053e-004
      8.19179622e-005 -1.32491141e-005 1.60745447e-004 -6.12325035e-004
      -3.43443913e-004 3.58905992e-004 3.27089219e-004 4.28139792e-005
      -9.84440048e-005 3.05847498e-004 -4.91752115e-004 2.87544884e-004
      -7.42459670e-004 -3.30014554e-005 -1.53355999e-004 1.84964811e-004
      2.12264524e-004 -1.15220952e-004 -4.52329463e-004 -9.96977324e-005
      1.74269066e-004 -1.48840860e-004 5.21257498e-005 -3.16308608e-004
      5.67423995e-005 1.67763283e-004 1.26033250e-004 -3.02151602e-004
      -8.24496237e-005 1.38185142e-005 -3.93542927e-004 -2.35358573e-004
      -1.14549701e-004 -5.10676000e-005 -4.80882649e-004 7.93679501e-005
      2.08969170e-004 2.18724599e-004 -8.04038427e-005 -2.93527963e-004
      -1.53927613e-004 -1.29298554e-004 -3.92079710e-005 2.69382406e-004
      3.63298226e-004 1.28389665e-005 -7.44426216e-005 4.06103558e-004
      -1.99255999e-004 -2.64752365e-004 -2.36944368e-004 6.28719645e-005
      4.19894350e-004 1.78065166e-004 -1.12784051e-004 2.02211741e-004
      -9.68833992e-005 -2.09686987e-004 -2.87915638e-004
      -1.72341854e-004 -3.68389155e-005 -2.04491407e-005
      -4.99100206e-005 8.84526817e-005 -4.40661388e-005 -2.50410521e-004
      -1.38497009e-004 -8.67728813e-005 4.96449647e-004 1.61526725e-004
      2.84890208e-004 -1.56919763e-004 -1.03412269e-004 -2.14212530e-004
      -5.01609466e-004 -1.65293983e-004 2.36522697e-004 -1.79619441e-004
      2.55452673e-004 5.24575240e-004 1.89361366e-004 -3.58944555e-004
      -1.47529747e-004 -6.38385100e-005 -1.30678993e-004 4.22177720e-004
      6.15638448e-004 2.40829017e-004 5.01717790e-004 1.21355624e-004
      -4.95275657e-004 3.94578645e-004 3.06994916e-004 2.68472475e-004
      5.88710691e-006 3.65035841e-004 6.85809006e-004 4.79548005e-004
      4.55097761e-005 -4.49865678e-004 -4.66460369e-005 -1.68552549e-004
      -3.82949338e-007 1.22448735e-004 1.14270917e-003 6.86102663e-004
      3.68480076e-004 2.09565347e-004 -1.94413791e-004 3.45350418e-004
      -1.32540299e-004 -5.71960467e-004 1.46569160e-004 1.16691971e-003
      5.87508141e-004 3.16647172e-004 1.44785794e-004 2.53305654e-004
      -1.61363845e-004 3.74961324e-004 1.57034825e-004 -2.46902291e-005
      3.28234688e-004 3.33070639e-004 3.96381802e-004 5.71743112e-006
      -3.76418058e-004 4.43686557e-004 1.48417399e-004 -8.90963493e-005
      1.61487522e-004 4.21857025e-004 6.73299772e-004 3.27393180e-004
      5.56921004e-004 2.10556464e-004 2.73513288e-004 -5.39539615e-004
      -1.52595545e-004 9.45910724e-005 9.05608118e-004 5.02939685e-004
      3.62706749e-004 1.77204725e-004 1.46342441e-004 1.44998819e-004
      -1.56991839e-004 -4.21254517e-004 2.57114967e-004 1.32421369e-003
      3.16022488e-004 3.56229284e-004 1.05039915e-004 -1.30127766e-004
      8.76325339e-006 -3.42614861e-004 -2.42171212e-004 -2.81652552e-004
      1.63838515e-004 1.14451272e-004 1.42664081e-004 3.84187151e-004
      -1.61618344e-004 3.15345642e-005 9.25530821e-006 1.16840543e-004
      2.34046543e-004 -2.53379811e-004 7.48693768e-004 6.02245622e-004
      2.02068404e-004 2.42665541e-004 4.30734617e-005 -5.46390482e-004
      -1.02766244e-004 1.90789520e-004 4.56304726e-004 5.02694398e-004
      1.71048930e-004 4.65701945e-004 4.99761605e-004 -1.71383304e-004
      -7.20271491e-004 -7.94359876e-005 -2.96542828e-004 9.51564463e-004
      1.57569026e-004 5.96576661e-004 1.56092938e-004 -1.28209422e-005
      4.71867679e-005 -3.97353811e-004 2.77420768e-004 4.09664412e-004
      -6.54194591e-005 -9.18888400e-005 7.28168015e-005 4.77222493e-005
      1.33086709e-004 -3.12683405e-004 1.60012096e-005 3.23979657e-005
      -1.72849905e-004 -4.51977976e-004 7.65315664e-004 5.18159068e-005
      -7.47543672e-005 1.27507228e-004 3.25266155e-004 -2.06086581e-004
      3.59410828e-004 4.29195439e-004 4.77970607e-004 -9.51519251e-005
      -8.36783511e-005 1.10214118e-004 2.14518383e-004 4.68642858e-004
      6.02975342e-005 2.80659762e-004 2.72740755e-004 4.53476008e-004
      -3.37996054e-004 -1.37554453e-004 -7.77632522e-005 3.75699856e-005
      2.55177263e-004 -1.16593939e-004 2.06295954e-004 2.95189297e-004
      -1.91425002e-004 -2.94158788e-004 3.45839217e-005 1.53978341e-004
      -1.65531295e-004 -1.98724647e-005 -3.13403463e-004 1.38469972e-004
      2.50102494e-006 -2.98179521e-006 5.32063888e-004 1.25180915e-004
      2.45486037e-004 -1.64018114e-004 -3.85801977e-004 -4.64575032e-006
      3.07785886e-005 -4.21754376e-005 5.84519585e-004 7.80841860e-004
      1.80416043e-006 1.88608130e-004 -4.13876172e-004 2.10285565e-004
      -5.59806474e-004 -1.53295492e-004 2.50148936e-004 7.96286855e-004
      -2.38696142e-004 3.00807791e-004 9.92263958e-005 -3.25642322e-004
      -1.83916254e-005 1.91420768e-005 -1.91329804e-004 -2.95484351e-005
      -2.98944040e-004 8.15768071e-005 5.33682714e-006 -1.20231147e-004
      -3.57118290e-004 -1.59668110e-004 1.24359149e-005 8.21784997e-005
      -2.31065831e-004 3.36882833e-004 1.01302366e-003 -1.02872975e-004
      6.68238790e-005 -2.25491312e-004 -4.72806169e-005 -3.00175685e-004
      6.49898211e-005 4.49977706e-005 5.09693928e-004 1.87380545e-004
      1.97426969e-004 1.49752232e-005 -4.09442961e-004 7.92462597e-005
      -1.29542668e-005 3.04034067e-004 -3.56533448e-004 8.47305113e-004
      -1.00901176e-004 1.78440983e-004 3.58004618e-004 -1.45813319e-004
      -2.58820044e-004 -4.94380656e-005 1.24382539e-004 -8.00402850e-005
      3.50163027e-004 -2.90418509e-004 4.72677093e-005 3.50004673e-004
      2.02550345e-005 -4.21983947e-004 5.49465592e-004 -5.20284993e-005
      -3.53772950e-004 1.45212063e-004 6.46881934e-004 3.58698278e-004
      3.48568254e-004 -3.57759651e-004 4.80235485e-006 -5.22006711e-004
      1.06495805e-004 2.22135466e-004 6.53074647e-004 7.78487825e-004
      4.08125954e-004 -6.14572709e-005 -3.77825258e-004 -3.15766491e-004
      4.07208172e-005 -9.25394033e-006 3.23627988e-004 6.13197219e-004
      6.15742974e-005 -2.65402428e-004 -1.44418140e-004 -2.32457809e-004
      -1.19563432e-004 3.45392000e-005 -2.34949403e-004 -1.80614312e-004
      2.45935749e-004 2.75093102e-004 7.98499823e-005 -4.61847958e-004
      -2.40781505e-004 2.36547232e-004 -2.71569384e-004 1.68224564e-004
      3.44417116e-004 -2.43471295e-004 6.04181201e-004 2.89943622e-004
      8.72967794e-005 -8.84750625e-004 1.55787304e-004 5.96995633e-005
      -2.59494293e-004 -2.32409264e-004 5.72163321e-004 4.62265569e-004
      2.75055325e-004 7.65149671e-005 -7.38526345e-004 -1.38977630e-004
      1.03437938e-004 -5.61019551e-005 2.20161426e-004 5.77378494e-004</_></support_vectors>
  <decision_functions>
    <_>
      <sv_count>1</sv_count>
      <rho>-2.6044053132533058e+000</rho>
      <alpha>
        1.</alpha></_></decision_functions></opencv_ml_svm>
</opencv_storage>
