<?xml version="1.0"?>
<opencv_storage>
<opencv_ml_svm>
  <format>3</format>
  <svmType>C_SVC</svmType>
  <kernel>
    <type>LINEAR</type></kernel>
  <C>5.9999999999999998e-001</C>
  <term_criteria><iterations>10000000</iterations></term_criteria>
  <var_count>7552</var_count>
  <class_count>2</class_count>
  <class_labels type_id="opencv-matrix">
    <rows>2</rows>
    <cols>1</cols>
    <dt>i</dt>
    <data>
      -1 1</data></class_labels>
  <sv_total>1</sv_total>
  <support_vectors>
    <_>
      8.11207574e-004 2.45706271e-003 -2.76531954e-003 -1.51494390e-003
      1.09119830e-003 -5.86363545e-004 -1.49103079e-003 -8.73355370e-004
      -3.00745503e-003 -2.53883214e-003 -2.25472427e-003 2.82988441e-003
      2.13602372e-003 -2.81440862e-003 3.87867185e-004 -7.73380511e-004
      -5.46846772e-004 -1.03675062e-003 -1.63144351e-003
      -3.29938577e-003 1.64620718e-003 -1.43787955e-004 -5.53346123e-004
      -1.73681387e-004 -2.71527126e-004 -2.12244736e-003
      -1.09266012e-003 -1.98174181e-004 4.90571896e-004 -1.47429260e-003
      -1.44688529e-003 -6.27892697e-003 -2.24394817e-003 1.43614388e-003
      1.17544383e-004 5.39828208e-004 -5.35690808e-004 -1.25032989e-003
      -1.17825938e-003 -1.30531989e-004 5.03039162e-004 -3.44127766e-004
      3.62979551e-003 3.84172518e-003 1.61651673e-003 1.17046887e-003
      2.92915199e-003 1.01949181e-002 -3.08557122e-004 2.34138151e-005
      3.90581088e-004 2.21184478e-003 -2.34556865e-006 -1.08662550e-003
      4.75389679e-005 -4.49638646e-005 1.29208260e-003 -2.51989439e-003
      6.74062734e-003 -1.45835441e-003 4.04633675e-003 1.01389094e-004
      -3.57760605e-003 1.05360930e-004 -1.35227712e-003 9.69258719e-004
      -2.29606288e-003 -1.43692479e-003 -1.25399325e-003 4.06187680e-003
      2.91818613e-003 3.51786707e-003 -7.01594108e-004 -9.13788006e-003
      1.47928123e-003 -6.92226633e-004 -4.60331881e-004 -1.02824823e-003
      -4.13225684e-003 2.91795423e-003 -5.29467012e-004 -9.30426293e-004
      2.07795121e-004 1.12938834e-003 -8.34759965e-004 -3.26046580e-003
      1.11893623e-003 1.29404172e-004 -3.59313679e-004 -1.59801566e-003
      -8.83786567e-003 -5.58266323e-003 1.72879477e-003 -5.79796440e-004
      -3.45298467e-004 1.99506991e-003 1.47282481e-004 -1.01262808e-003
      -6.78640208e-004 7.71069783e-004 2.19944122e-004 3.98606947e-003
      4.52278508e-003 2.76373257e-003 -1.37025921e-003 1.05872063e-003
      1.59910007e-003 -5.64979418e-005 2.92021159e-005 -9.02797838e-005
      2.35074479e-003 -7.24013153e-005 5.24617790e-004 1.33753882e-003
      -1.02252779e-004 1.67256722e-003 1.17403688e-003 5.18447673e-003
      -3.56593612e-003 2.45310221e-004 6.99688564e-004 3.07934766e-004
      1.04981184e-003 6.02026004e-004 3.71244457e-003 1.46506203e-003
      4.67626471e-003 -5.91721665e-003 1.30310748e-003 -2.05043214e-003
      -1.03069557e-004 -2.14381624e-004 -9.05055180e-003 4.88756690e-003
      -8.85762391e-004 -1.57261826e-003 -2.20229500e-003
      -5.49264345e-003 -2.10812766e-004 1.03391346e-003 -1.44259841e-003
      9.42604616e-004 4.32288012e-004 -7.76932808e-004 -2.90025584e-003
      2.77988240e-003 -3.86494357e-004 -7.17162111e-005 5.65538299e-004
      -4.88287443e-003 -2.04854528e-003 1.47561694e-003 9.12785239e-004
      -4.62395226e-004 -2.09169390e-004 5.33407321e-003 1.01157231e-003
      -5.60286979e-004 9.25626024e-004 -1.21844045e-004 -3.39825841e-004
      3.30898748e-003 1.45908212e-004 -3.58344812e-004 1.32515177e-003
      -1.73821277e-003 9.71217523e-004 5.38894208e-004 2.17562338e-004
      2.38403538e-003 -4.18472278e-004 7.79553025e-004 -1.54194143e-003
      -4.06471459e-004 -1.37109938e-003 2.58975918e-003 4.67901397e-003
      -3.33118974e-003 1.43568078e-003 -1.68370851e-003 -2.43843580e-003
      1.41047419e-003 3.95299459e-004 4.01844503e-003 -4.68985731e-004
      2.66242510e-004 -3.60279577e-004 -3.67702660e-003 -5.90511505e-003
      -1.24946970e-003 2.95549398e-003 -6.42554602e-003 5.24811773e-003
      -1.14045723e-003 8.27276614e-004 -7.89595011e-004 -1.70556782e-003
      7.82870280e-004 1.28333271e-003 -1.35914903e-004 -1.78028783e-003
      1.86453166e-003 1.21369038e-003 9.29693284e-004 -3.29517131e-003
      1.87731028e-004 -8.21730006e-004 -1.40947915e-004 -5.09462459e-003
      3.66458576e-003 9.62564314e-004 -1.47786732e-005 -7.41557596e-005
      3.88526300e-004 2.78863753e-003 3.07487836e-003 -1.66396180e-003
      -1.75510741e-005 3.06295697e-004 -2.37869404e-004 8.88678152e-003
      1.79942942e-003 -6.39865582e-004 -5.62001485e-004 6.38254205e-005
      -8.14909348e-004 9.57037773e-005 1.68289655e-004 -3.83281913e-005
      4.03249636e-004 4.92919469e-004 -1.34876813e-003 4.29744068e-005
      -1.18041236e-003 4.30527172e-004 6.48586371e-004 -1.15403114e-003
      3.55278351e-003 -1.10710412e-003 -7.86994991e-004 2.27951817e-003
      2.05637980e-003 1.76243181e-003 -1.20644097e-003 9.24797438e-004
      -3.16351745e-003 7.08061445e-004 -4.25380981e-003 1.03045464e-003
      -4.74575674e-003 -4.73098829e-003 4.35471116e-003 -5.50399564e-005
      -2.32067006e-003 -1.23267260e-003 -4.33630543e-003 4.70215594e-003
      2.42381147e-003 -2.72003305e-003 -2.31509679e-003 -5.29161701e-003
      3.96963122e-004 -5.25019085e-003 2.43094377e-003 -3.51237541e-004
      -1.16989708e-004 -1.63238659e-003 -3.82682029e-003 4.43511410e-003
      5.79817453e-003 2.18963789e-004 1.87025347e-003 -1.60727664e-004
      -2.69872393e-003 -3.55426077e-004 1.28765439e-003 2.12651747e-003
      -2.19174181e-005 -3.60658672e-003 3.12773394e-003 2.49935174e-003
      1.82066800e-003 1.95816881e-003 -1.64490100e-003 -1.90950942e-003
      1.12759811e-003 -7.71005798e-005 2.68619414e-003 -3.61044404e-005
      1.55451428e-003 2.42537470e-003 -4.05181054e-004 -2.82198773e-003
      -7.46486185e-004 5.52306138e-003 3.66030540e-003 -4.31898003e-003
      -3.21847619e-003 1.43190322e-004 7.91128725e-004 4.33446083e-004
      -2.94418569e-004 1.23641035e-003 1.45839978e-004 -5.11593278e-003
      4.47641592e-004 1.87645340e-003 -3.07622191e-004 -4.93852654e-003
      -2.07318051e-004 1.66851713e-003 7.40095798e-004 -1.69299101e-003
      -7.26341328e-004 -3.72724817e-003 -1.93891407e-003 7.17450108e-004
      -1.35353452e-003 1.18210221e-004 3.94244632e-003 1.60748523e-003
      -1.91538653e-004 -2.33406303e-004 -3.46286135e-004
      -9.47916473e-004 1.13917433e-003 -6.38399273e-003 -3.59505066e-003
      1.71651307e-003 -3.26608424e-004 7.35754671e-004 -2.29079771e-004
      3.94196203e-003 3.82299093e-003 -3.80808371e-003 1.53355894e-003
      4.02059988e-004 -1.44151936e-003 1.98054360e-003 1.94240490e-003
      1.53494126e-003 6.81594072e-004 2.17839167e-003 -1.37062964e-003
      -9.13715994e-005 1.89988132e-004 1.48788770e-003 -4.48190054e-004
      -6.85912208e-004 -1.45727815e-003 -2.12205850e-004 1.92101428e-003
      1.97186973e-003 4.90010297e-003 3.22504272e-003 -1.82606644e-004
      -6.74736744e-004 2.62123649e-003 8.58472369e-004 2.54716631e-003
      -2.70720269e-003 -1.60290732e-003 7.94742315e-004 -5.47852553e-003
      -2.29841695e-004 -8.70185613e-004 -3.71595076e-003
      -1.50956050e-003 -1.30715477e-003 4.37290128e-003 -1.18539401e-003
      1.43613247e-003 -2.06798059e-003 -2.69257487e-003 2.92404392e-003
      1.28336600e-003 -1.39974465e-003 -8.16127344e-004 4.58401082e-005
      -4.77946177e-003 -1.96181820e-003 -1.42346614e-003
      -3.85251187e-004 -2.02920544e-003 1.56471995e-003 -4.64929704e-004
      -2.76296021e-004 4.30123555e-003 2.47521559e-003 1.07856863e-003
      -9.88465501e-004 1.40502793e-003 2.64572282e-003 -1.48298845e-004
      1.34156435e-003 -3.45612469e-004 -2.88550789e-003 1.43681129e-003
      5.70820179e-003 -3.86803673e-004 -2.43928074e-003 -4.80853487e-005
      -2.52902601e-003 -4.94936132e-004 3.89464811e-004 6.02118764e-003
      2.83106900e-004 -2.58046075e-005 1.12743396e-003 1.86224162e-004
      -3.73188499e-003 -9.07860958e-005 1.80198485e-003 -6.27291529e-003
      -3.54566379e-004 -3.23513173e-003 2.95512634e-003 -5.36690094e-003
      2.94871134e-004 -5.33241255e-004 -8.01471004e-004 -1.19793101e-003
      1.51167857e-003 -1.27342553e-003 3.27943405e-003 1.23623840e-003
      -1.95541375e-004 1.64757401e-003 5.09737665e-003 -1.67817133e-003
      1.65411577e-004 -3.04062414e-004 -6.00147410e-004 1.83038600e-003
      -4.72586944e-005 -1.59655453e-003 -5.04936732e-004 1.24551856e-003
      9.38681012e-004 1.52060878e-003 7.77000037e-004 -2.67067826e-005
      -7.37345079e-004 -2.06868965e-004 -3.46677378e-003
      -2.13284767e-003 1.03033334e-003 5.90712531e-004 2.37451241e-004
      -1.08041160e-003 -1.37596950e-003 4.59556846e-004 -1.33830472e-003
      1.28988293e-004 -2.17399123e-004 -4.06835880e-003 3.83355469e-003
      3.08988313e-003 2.03727069e-003 -4.53706918e-004 -2.69744010e-003
      -2.02340842e-003 2.52821861e-004 5.33497776e-004 3.19193420e-003
      -8.96304206e-004 5.25591720e-004 -2.13348540e-004 -6.85372099e-004
      7.05692335e-004 1.36045262e-003 5.10517554e-003 -5.18633612e-003
      6.61006663e-004 -1.66891736e-003 1.04160514e-003 1.19023735e-003
      1.98912778e-004 -8.73947556e-006 1.33345637e-003 1.57536962e-003
      3.68623016e-003 -6.63516461e-004 7.25817052e-004 4.46261227e-004
      -2.16397690e-003 6.37606834e-004 2.42720568e-003 -4.61653544e-004
      -1.42778701e-003 -2.26922962e-003 -6.08388847e-003 1.80729269e-003
      -6.14876335e-004 5.16209169e-004 1.74151862e-003 -4.56002163e-004
      5.96572005e-004 -2.49045668e-004 1.35479751e-003 -8.53337042e-005
      -5.81495347e-004 -8.29911267e-004 -4.46426775e-003 1.93229120e-003
      -7.07298168e-004 -1.40843121e-003 -2.33212268e-004
      -9.38723169e-005 3.36716929e-003 1.94564566e-003 -2.05257573e-004
      1.84477225e-003 -4.44380683e-004 -4.43691970e-005 -5.15534717e-004
      1.62088708e-003 -4.04299790e-004 6.99959273e-005 1.65442098e-003
      7.63558724e-004 1.14304095e-003 -1.86197009e-004 3.86062008e-003
      -1.65391737e-003 -3.06759466e-004 8.73293684e-005 -7.03605241e-004
      -1.95569033e-003 -9.95650422e-004 -1.15637772e-003
      -5.10901329e-004 2.63893954e-003 -1.30999615e-004 -1.01312944e-004
      -7.93036714e-004 4.81446099e-004 -1.30574254e-003 3.88322136e-004
      1.15108502e-003 1.46232534e-003 -1.66716706e-003 5.27915254e-004
      -7.79988826e-004 -6.19935058e-003 -3.45509220e-003 5.61694382e-004
      -4.32113418e-004 -5.76694110e-005 5.19845809e-004 -5.90502517e-003
      -5.87527698e-004 2.48925854e-003 8.15298816e-004 -1.51238884e-004
      1.86935836e-003 2.82814889e-003 -1.73747001e-004 1.34284608e-003
      7.49194820e-004 -2.92841723e-004 -1.18019991e-003 -6.35777647e-003
      3.65437404e-003 3.01006506e-003 -4.72496875e-004 1.60612259e-003
      -4.66371304e-004 -2.04119063e-003 -4.11697943e-003 3.20402184e-003
      -1.76453570e-004 2.20043803e-004 2.77264699e-005 1.10955804e-003
      -2.42242342e-004 -7.11696339e-004 6.57582248e-004 3.03554977e-003
      1.07365742e-003 1.55249203e-003 2.33604645e-004 4.17797739e-004
      -1.24208524e-003 1.71383988e-004 7.27582490e-004 -5.71097538e-004
      4.44028090e-004 -2.01771571e-003 3.16879153e-003 8.30528385e-004
      9.13073891e-005 -1.50439527e-003 -1.26588240e-003 1.55016012e-003
      4.29278985e-003 4.04129550e-003 -2.17767106e-003 2.20857584e-003
      6.10176567e-003 1.40836855e-004 -2.48326547e-003 1.71053491e-003
      2.02229377e-004 -5.77234710e-003 2.42819288e-003 -1.24286278e-003
      -1.28184853e-003 5.61547233e-003 1.91138894e-003 -2.76037143e-003
      1.18160337e-004 -6.78808196e-004 -1.02693064e-003 -8.16914195e-004
      4.03547008e-003 -7.32066692e-004 -1.62969960e-003 5.85359056e-004
      4.72007778e-005 -9.77166812e-004 1.33662077e-004 1.07453007e-003
      -1.73389376e-003 6.22251653e-004 -6.89312525e-004 1.81345327e-003
      1.70810759e-004 -2.72469420e-004 -8.54208542e-004 6.69191999e-004
      -3.65623157e-004 -4.26792540e-003 -3.41974176e-003 2.57355231e-003
      -5.72869496e-004 -1.02048286e-003 -1.36107532e-003 6.31762086e-004
      1.81349184e-004 -3.10788455e-004 1.38290145e-003 -1.39312132e-003
      4.48157021e-004 -1.12329260e-003 -5.41154179e-004 4.63945937e-004
      -1.42918632e-003 -2.37146090e-003 1.20115723e-003 -3.46028758e-003
      -7.07698928e-004 1.72408181e-003 2.98856595e-003 1.33483426e-003
      2.58766115e-003 1.76599936e-003 5.20832080e-004 8.34594190e-004
      -3.11563839e-004 -3.75860363e-005 3.06453602e-003 -6.79523265e-003
      -8.46159738e-003 3.42529127e-003 -3.78327328e-004 3.96800839e-004
      6.26480486e-003 -2.47824332e-003 -1.84398214e-003 1.06132509e-004
      3.07014701e-003 1.81405968e-003 3.64560378e-003 1.47685898e-003
      -1.04340620e-003 -6.74495823e-004 -4.90005943e-004
      -7.25690043e-004 -3.48409009e-003 -3.48246400e-003
      -8.33905535e-004 1.11507194e-003 3.75114905e-004 7.14193680e-004
      -1.79285917e-003 -1.78655435e-003 3.42648337e-003 -2.38949340e-003
      -9.00141138e-004 -6.32132345e-004 4.93220799e-003 6.67040818e-004
      -1.71266485e-003 -2.36004653e-005 -8.95275967e-004 3.57064651e-004
      6.26237364e-004 -1.90547449e-004 -7.73128122e-004 5.94901037e-004
      1.94499746e-003 -6.63880201e-004 -1.18575722e-003 -7.46317965e-004
      -7.94421299e-004 -1.18121866e-003 -9.87045642e-005 2.10903527e-004
      2.71546654e-003 -1.20067666e-003 -2.22643255e-003 1.03963801e-004
      -3.88905080e-003 -1.79336977e-003 1.26721372e-003 2.47932505e-003
      1.74502388e-003 -1.42422551e-003 1.97152724e-003 3.62647069e-003
      -3.58130806e-003 -1.08441021e-002 2.13508727e-003 8.99487000e-004
      5.06543438e-005 -2.37467396e-003 -5.97786950e-003 -1.92937197e-003
      -2.51804071e-004 1.40764634e-003 -1.11625297e-003 -2.66928039e-003
      7.07115745e-003 6.27345697e-004 9.78661468e-004 9.35587377e-005
      1.78121845e-003 -1.10087846e-003 -1.61111087e-003 -3.31053417e-003
      -2.33939360e-003 -7.68240367e-004 1.16755941e-003 -1.05806382e-003
      3.31399543e-003 7.51576712e-003 -2.33845226e-003 2.48318654e-004
      -5.58981672e-004 -4.98303161e-005 1.36051595e-003 2.34850519e-003
      -1.19479222e-003 9.98286065e-004 3.29769286e-003 1.29719300e-003
      8.11729813e-004 -1.11939560e-003 2.96486192e-003 1.32672620e-004
      1.54040847e-003 -5.35441039e-004 -1.90817242e-004 -2.08649319e-003
      2.17666064e-004 1.16095913e-003 5.73284738e-003 2.10249680e-003
      7.35865731e-004 1.24305428e-003 2.00069998e-003 5.58996107e-003
      -1.91603601e-003 -9.23672749e-004 4.93623782e-003 1.77463237e-003
      -7.77152227e-003 -2.27771443e-003 -2.54393635e-005
      -3.20460624e-003 -5.81158791e-003 3.41538177e-003 -2.29121721e-003
      -5.54037280e-003 -4.50308202e-003 -2.86388025e-003 3.75882629e-003
      2.46352720e-004 -1.64858720e-004 -1.68283517e-003 1.34816754e-003
      3.41254217e-003 -3.07527557e-003 -1.46669481e-004 -9.07569425e-004
      1.15443858e-004 2.12195609e-003 -2.30677356e-003 3.43294319e-004
      2.94134603e-003 8.58750253e-004 1.74702634e-003 2.39375629e-003
      1.36969174e-004 -2.39877217e-003 -1.11902913e-003 -9.56571195e-004
      5.99857827e-004 -8.40851455e-004 -1.15179901e-004 3.90867097e-003
      -3.55273514e-004 -2.08611088e-003 3.13074468e-003 -2.16666330e-003
      1.73984712e-003 -7.39792769e-004 -1.36176043e-003 -6.99501019e-004
      -4.68098820e-004 -2.71151960e-003 -3.41758918e-004
      -3.28477286e-003 1.74325204e-003 6.98078843e-003 2.79330090e-003
      1.81108236e-003 -1.78698264e-003 9.11594543e-004 2.16194824e-003
      3.01425252e-003 -5.45979885e-004 3.49320413e-004 5.51880454e-004
      4.20841482e-003 -1.08042089e-002 -9.12951829e-004 3.45283118e-003
      5.35701588e-003 -3.63540114e-003 5.22677321e-004 8.93475779e-004
      -6.95435214e-004 -8.93263146e-003 5.26257278e-003 4.46188170e-003
      1.04155617e-004 -2.20507919e-003 -1.29213091e-003 1.16099400e-004
      2.07049702e-003 -1.32451439e-003 -1.31611992e-003 -1.44938051e-004
      -1.42012874e-003 -5.21964300e-003 -4.77133645e-003 3.10024945e-003
      3.60205281e-003 -1.09557156e-003 1.84276176e-003 -2.26278091e-003
      9.13867727e-004 3.76740727e-003 -2.47706729e-003 1.12978963e-003
      -5.60583023e-004 -8.76124250e-004 1.27921440e-003 4.54171700e-003
      2.11516675e-003 -2.27337843e-003 -8.62298883e-004 -2.83754384e-003
      2.70854962e-005 2.52269499e-004 2.56470684e-003 -4.21979523e-004
      -7.43305602e-004 -6.29770453e-004 -3.32864875e-004
      -4.00450872e-003 7.28300947e-004 4.77669382e-004 6.77332887e-003
      -2.39155279e-003 -2.73000682e-004 -8.11018908e-005
      -1.17711886e-003 4.60732263e-003 -1.23632269e-003 -6.91349327e-004
      3.73840076e-003 -4.40592295e-004 -4.84579243e-003 1.77162979e-003
      2.38716952e-003 8.00603011e-004 -6.11529779e-003 3.44462297e-003
      -7.86934514e-004 -9.83736594e-004 -3.76916258e-003
      -6.81751408e-004 4.67026746e-003 8.31945799e-004 -1.86207879e-003
      -1.23402919e-003 2.53489357e-003 5.82148600e-003 -2.95539823e-004
      6.37589983e-005 5.69419790e-005 -1.07227452e-003 -1.68430840e-003
      -2.32542329e-003 -1.92279438e-003 1.56221120e-003 6.81465550e-004
      9.56366246e-004 -8.21232679e-004 -3.95021314e-004 2.04856414e-003
      -1.06920872e-003 -2.22034636e-004 3.75279888e-005 -5.50205447e-003
      2.84450082e-003 4.07502288e-003 9.33722040e-005 -2.34225020e-003
      9.82713304e-004 -2.00624228e-003 -8.83777684e-004 -6.84285420e-004
      1.22680678e-003 3.24744411e-004 -8.03394127e-004 -7.36038899e-004
      -1.75397407e-004 -2.14436441e-003 -1.87179481e-004
      -4.93022497e-004 -1.15704897e-003 -4.32737201e-004 3.75650969e-004
      9.35094722e-004 -1.03277336e-004 1.77491608e-003 7.04774633e-003
      -7.59133618e-005 2.49408581e-003 2.57051806e-003 -6.97819330e-003
      8.58721731e-004 2.11042748e-003 1.32851768e-003 5.06252190e-003
      -1.92422979e-003 -1.25311385e-003 1.69016351e-003 -5.20667061e-003
      -1.38472999e-003 5.90692391e-004 4.55136847e-004 -6.56599470e-004
      8.16899934e-004 1.21693185e-003 1.58372161e-003 5.87181945e-004
      -2.24174792e-003 2.45267933e-004 -1.28980633e-003 -2.10048212e-003
      -2.21025385e-003 5.52965468e-003 2.12932308e-003 -7.85131415e-004
      2.56366853e-004 -2.62155524e-003 -2.53199949e-003 -2.69678026e-003
      2.50231940e-003 -1.15492707e-003 1.36222690e-004 -1.25096971e-003
      -2.11872882e-003 -3.06551374e-004 -1.71489868e-004
      -2.21850746e-003 3.63051984e-003 -1.20219472e-003 2.26165153e-004
      -6.34940749e-004 1.21820078e-003 2.60173023e-004 1.89647544e-004
      1.60083070e-003 -1.08152418e-003 -4.25928796e-004 2.52794940e-004
      -3.46038188e-003 4.15922143e-004 1.06322276e-003 -9.78354728e-006
      1.16209842e-004 1.91036169e-003 1.70025427e-003 2.39991350e-003
      1.13923440e-003 3.46370484e-003 -1.40427332e-003 -6.92341884e-004
      2.88731558e-003 -2.01354371e-004 7.70459825e-004 -1.85356452e-003
      -1.81068270e-003 -1.93941698e-003 -2.02485663e-003 8.75392347e-004
      1.62059232e-003 -2.22692950e-004 1.19444961e-003 -1.76825479e-003
      -5.43992384e-004 -1.74005560e-004 -2.48355442e-003 5.58424275e-004
      -1.00219005e-003 4.30941989e-004 -9.25625151e-004 -1.03288249e-003
      -5.02693001e-003 1.24845817e-003 4.48822789e-003 2.01576785e-003
      -6.21050945e-004 -6.72722876e-004 -1.44491298e-003 1.05684553e-003
      1.49769383e-003 -2.68129108e-004 -1.27764961e-005 -4.87602130e-003
      5.84464986e-004 6.88056170e-005 -3.78823781e-004 -2.32192571e-003
      8.52432160e-004 2.21067388e-003 -4.78526286e-004 4.22211626e-004
      1.49217411e-003 1.69034858e-004 1.13597361e-003 1.43778205e-004
      1.27597887e-004 -1.44023378e-003 -1.58855881e-004 -2.27015838e-003
      4.49753273e-003 2.42941023e-004 1.36748515e-003 -2.89633521e-003
      2.28215917e-003 -1.82696735e-004 -2.51660403e-003 -6.99940079e-004
      1.71043491e-003 6.34811213e-003 -3.14606936e-003 1.17745809e-003
      1.02337322e-003 -6.55621465e-004 1.74574926e-003 2.83481460e-003
      1.53070359e-004 3.49413510e-003 -1.67683512e-003 -2.24798219e-003
      2.99183885e-004 1.18009164e-003 4.38794174e-004 2.87237996e-003
      -1.96663686e-003 -6.21673418e-003 -2.13227351e-003 1.36775873e-003
      -7.07088970e-004 -1.73199549e-003 -8.85432586e-004 1.73328293e-003
      4.62876353e-003 1.49828184e-003 -7.15489034e-004 3.21481284e-003
      8.95483594e-004 -2.41788221e-003 -4.44945041e-003 -9.04224580e-004
      -2.99825060e-005 5.75644430e-004 1.35071843e-003 5.44676877e-005
      -8.60290078e-004 6.52796763e-004 -1.63816940e-003 1.07581494e-003
      5.27408614e-004 -8.06963071e-004 -5.16802596e-004 -4.67154430e-003
      -7.33802270e-004 5.33238170e-004 -7.05263112e-004 4.53049797e-005
      -3.48042976e-003 -2.53819372e-003 2.30924040e-003 4.64324746e-003
      -5.26240887e-003 -1.14427748e-004 -2.46646861e-003 3.67891067e-003
      2.82884645e-003 9.97628784e-004 2.20197043e-003 5.39140869e-003
      6.34832028e-003 -1.33457698e-003 -1.32159636e-004 1.34217064e-003
      7.07562256e-004 -6.02495018e-003 2.82413792e-003 -4.98932612e-004
      -8.02510534e-004 -1.04157580e-003 6.59389247e-004 -7.65846460e-004
      9.71699075e-004 2.33816169e-003 -1.52714798e-004 -2.99904891e-003
      -5.15853520e-003 -9.68478154e-004 -1.65296253e-003 6.34752563e-004
      -2.81698158e-004 1.55346992e-003 1.65370759e-003 -3.09116184e-003
      -5.60222776e-004 1.14945532e-003 1.03271427e-003 4.85066528e-004
      -1.92155817e-003 -2.23772670e-003 -2.52740155e-003
      -7.76372617e-004 -4.14243026e-004 2.46566441e-003 -8.64286558e-004
      -1.89995440e-003 -8.84162378e-004 -1.89430534e-003 2.89886282e-003
      -1.55000575e-003 -8.15421226e-005 -6.00198517e-004 2.33032042e-004
      -1.29937427e-003 1.61841058e-003 -6.26060180e-004 -2.36130392e-004
      1.16577628e-003 -1.02653087e-003 2.32416717e-003 3.65014770e-003
      -4.89039558e-005 1.24318257e-003 2.66837399e-003 3.45149753e-003
      3.38583812e-003 -3.42685357e-003 1.28691224e-003 5.63944597e-003
      5.33473724e-003 -4.22362762e-004 -2.55779829e-003 7.19651987e-004
      -2.57483945e-004 -6.69656263e-004 1.25227589e-003 6.94972638e-004
      8.94939236e-004 -2.42557190e-003 -6.23910455e-004 -1.39353389e-004
      1.65779598e-003 1.95179041e-003 5.63701440e-004 2.03568093e-003
      -2.00842321e-003 -1.83914974e-003 3.68390669e-004 2.98050331e-008
      2.34481250e-003 1.74685486e-003 -2.12167413e-003 1.48375856e-003
      -3.29851592e-003 1.69112359e-003 1.09543907e-003 -3.32135125e-004
      -4.60605137e-003 -4.35427111e-003 -7.05238781e-004
      -9.08972055e-004 -5.33265644e-004 1.97925442e-003 -3.66072939e-003
      -5.01998002e-003 -2.03445181e-003 -8.74459918e-004
      -9.19931394e-004 -1.04213679e-004 -5.04547264e-004
      -7.50314619e-004 -1.19370024e-003 -4.65933059e-004 2.49907403e-004
      -2.32327118e-004 4.85413562e-004 -1.92858838e-003 -6.52698567e-004
      1.74553832e-003 3.05498485e-003 5.05394710e-004 1.56637514e-003
      -2.35456537e-004 2.45224405e-003 3.23936855e-003 -2.14745407e-004
      7.35786918e-004 3.31316679e-003 5.50791388e-003 -5.14115265e-004
      -4.34606383e-003 2.71647325e-004 1.99656771e-003 -2.69203377e-003
      -2.06254932e-004 7.95189291e-004 -2.92213727e-003 -2.52097263e-004
      -3.26169678e-003 -4.01203579e-004 -2.87556231e-005 1.94624811e-003
      1.51145330e-003 5.39536029e-003 3.88579123e-004 -3.83301289e-003
      -1.04645744e-003 1.49293090e-004 -6.54704418e-005 4.37680224e-004
      1.64663431e-003 7.11777247e-004 5.31166588e-005 1.86841481e-003
      1.21058931e-003 1.20333943e-003 -9.03096795e-003 -2.51126126e-004
      1.32467702e-003 -1.30804721e-004 8.40850815e-004 2.10452126e-003
      -1.73356815e-003 -3.68397241e-003 -1.67488249e-003
      -1.65447814e-003 2.42665317e-003 1.72855961e-003 -5.57462219e-004
      -3.97037569e-004 1.17188836e-004 -1.30071239e-005 1.95145805e-003
      -3.97353666e-003 2.24401054e-004 -3.46409529e-003 -8.17263499e-004
      -3.27773206e-003 1.94999634e-003 -1.78846915e-003 5.55328268e-004
      -1.41043565e-003 2.83613382e-003 6.71538874e-004 -1.86520291e-003
      1.82395009e-003 3.10405879e-003 -2.03016607e-004 -7.13158341e-004
      -2.14445707e-003 4.24107956e-003 3.47725989e-004 -1.98731641e-003
      -5.58678235e-004 1.83879212e-003 -3.79650650e-004 2.01190193e-003
      -7.13599322e-004 4.08202264e-004 8.33234459e-004 2.07028468e-003
      -6.67588902e-004 1.74219254e-003 1.90036779e-003 -1.39188173e-003
      1.00233371e-003 2.87579751e-004 1.82976760e-003 2.44304258e-003
      -6.49709394e-003 2.64402106e-003 1.83523074e-003 1.55797752e-003
      1.04505871e-003 -1.03332597e-004 -3.47026245e-004 -7.69317755e-003
      -7.29421503e-004 2.72426114e-004 -2.26927732e-004 -2.49670423e-003
      4.04225709e-003 -1.98380719e-003 -8.26300704e-004 -3.55453882e-003
      -1.71404309e-003 -1.86776579e-003 7.67697929e-004 -1.50629625e-004
      4.70182771e-004 6.83203281e-004 2.60950910e-004 1.35896937e-003
      2.39533430e-004 -2.09958479e-003 -2.11291155e-003 -8.48299300e-004
      -3.95338656e-003 8.35333019e-004 1.63307565e-003 1.63388869e-003
      5.09175472e-003 1.67043193e-003 1.18881231e-003 -1.15513371e-003
      1.17557729e-003 7.19291437e-003 4.30755172e-004 -2.25616456e-003
      -2.83655361e-004 1.90079596e-003 3.97628918e-003 -6.41760766e-004
      -1.45282083e-005 -3.79337440e-003 -2.37301574e-003 2.02527503e-003
      3.01792927e-004 -4.64881421e-004 -9.49200112e-005 1.18267315e-003
      -1.87252217e-003 2.01438623e-003 -2.74621556e-003 -1.58448180e-003
      -1.79215946e-004 8.97492224e-004 -2.54195859e-003 1.95522560e-003
      -2.37044902e-003 1.90063217e-003 1.50205800e-004 3.59872443e-004
      1.90253812e-003 -5.67940762e-003 -1.98613154e-003 1.38483243e-003
      1.28274341e-003 2.73291604e-004 2.20912974e-003 -4.25613136e-004
      -3.38565500e-004 5.71960176e-004 -9.87724750e-004 -2.17614928e-003
      1.92673877e-004 1.23075661e-004 -1.84993478e-004 -1.04231504e-003
      1.17249717e-003 -2.09527861e-004 -3.08355928e-004 -7.73996057e-004
      -3.01283365e-003 -4.98880108e-004 -2.67976825e-003
      -9.79279284e-004 -1.89255934e-005 2.11010469e-004 1.35983108e-003
      1.42379233e-003 -8.17992608e-004 -3.99506977e-003 -4.20400407e-004
      2.01968593e-003 2.92008719e-003 -3.38610611e-003 2.35409522e-003
      -9.80251702e-004 2.24109855e-003 -3.55317607e-003 -1.70977763e-003
      -1.52951677e-003 2.06157053e-003 -2.08617467e-003 -2.81512109e-003
      -1.77366741e-003 3.87245032e-004 8.81226384e-004 2.62311497e-003
      4.48146462e-003 2.13294639e-003 -5.75630751e-004 1.51682727e-003
      -7.40624864e-006 -7.05228071e-004 1.43264909e-003 -1.07222004e-003
      2.58606998e-003 1.79948588e-003 -2.64732662e-004 -2.20842936e-004
      2.36574467e-003 -1.14304724e-003 2.22001434e-003 -4.56045927e-006
      -5.09436126e-004 -3.71814502e-004 -7.98351655e-004
      -3.29722161e-003 1.12053205e-003 1.80650401e-004 -2.12684902e-003
      -4.49187355e-003 4.38209827e-005 1.47409644e-003 3.07522132e-004
      4.01227316e-003 5.34262159e-004 1.22871669e-003 5.04220370e-004
      3.47397989e-004 -3.15887947e-003 -1.99555187e-003 -1.96234742e-003
      -3.83257843e-003 -3.61478917e-004 -1.50723572e-004 5.66085801e-004
      1.54326344e-003 -1.25278484e-006 3.67987645e-003 3.40686209e-004
      4.43125330e-003 7.37590855e-003 -3.22141498e-003 1.45224831e-003
      -1.02035142e-003 2.36084429e-003 -4.08798782e-003 1.38105452e-003
      1.33091887e-003 8.70052958e-004 1.00921385e-003 -2.39652535e-003
      -1.66549801e-003 -2.51163263e-004 1.83877710e-003 3.21714091e-004
      1.56856875e-003 -1.37892424e-003 -1.80094095e-003 -2.25639233e-004
      1.81604526e-004 -6.92557078e-005 2.55534588e-003 -3.50476755e-003
      2.85407947e-003 -2.11489154e-003 -8.23422801e-004 8.03532530e-005
      2.28626095e-003 -2.34826963e-004 -4.29173326e-003 -7.60919211e-005
      -2.17066472e-003 -1.67515813e-004 2.91101774e-003 2.26989132e-003
      5.85003931e-004 -1.29966915e-003 -1.03072531e-003 -5.87602891e-003
      1.40018342e-003 2.06825929e-003 2.51694466e-004 2.04024557e-003
      1.40324526e-003 1.46397273e-003 -2.27814470e-003 -2.37784159e-004
      -4.17780830e-003 -3.71241337e-003 3.85989406e-005 2.51529063e-003
      7.49840547e-005 6.01867250e-005 -3.21744388e-004 3.19452467e-003
      2.47799628e-003 1.90451322e-003 7.03293656e-004 4.03253594e-003
      5.15955454e-003 -9.82132647e-003 4.39377473e-004 4.75327810e-003
      2.20099534e-003 -5.76915778e-003 -5.66589006e-005 -3.50376911e-004
      2.88817077e-003 4.07997100e-003 -1.85173261e-003 -1.87925238e-003
      -7.93280953e-004 3.57981911e-003 1.89225387e-003 -1.85928564e-003
      -7.30904285e-003 -1.09745550e-003 -3.71452142e-003
      -5.68469113e-004 3.39627550e-005 -1.01177255e-003 6.55579986e-003
      2.35819211e-003 -1.43032882e-003 -3.12823802e-004 2.41041463e-003
      1.85654193e-004 1.13146089e-003 -5.79867046e-004 -6.99865341e-004
      -1.70557620e-003 -9.62002727e-004 -2.12360406e-003
      -6.27912628e-003 -3.99092736e-004 2.86233524e-004 1.44769310e-003
      1.56063610e-003 1.19067321e-003 1.69085746e-004 -1.50609994e-004
      -5.89766016e-004 8.97080638e-004 4.01520520e-004 -1.12608506e-003
      -9.42454964e-004 -8.94332770e-004 -1.68837386e-003
      -2.29716650e-003 6.86895149e-003 3.31570627e-004 1.89074106e-003
      2.17081606e-003 4.62121377e-003 2.86534359e-003 -5.98599156e-003
      4.61963238e-004 2.82106525e-003 1.15599176e-002 -6.55976869e-003
      4.67004502e-005 1.42605428e-003 -1.45460013e-003 -1.23613619e-003
      4.49455285e-004 1.28579568e-005 -2.10654666e-003 7.30103115e-003
      -1.09396921e-003 -2.37113400e-003 1.12555677e-003 6.96692965e-004
      3.93706199e-004 -8.54046363e-003 -2.01466446e-006 -1.68871658e-003
      -2.00177426e-003 -1.38134274e-004 3.98529723e-004 2.48391065e-003
      4.70388588e-003 -3.35662579e-003 -2.80700042e-003 -3.39892344e-004
      6.30032504e-004 9.75365692e-004 -4.35800012e-003 -1.23706792e-004
      -3.81535763e-004 -2.08060932e-003 -9.31413961e-004 3.20097618e-003
      -1.03490334e-003 -2.89816526e-003 -1.41706003e-003
      -2.41971482e-003 -1.33309048e-003 2.11426243e-003 3.48208676e-004
      1.75842259e-004 -5.05130971e-003 -1.05486158e-003 1.49967195e-003
      -1.29864889e-003 -3.60971608e-004 -9.85305174e-004 9.79961595e-004
      2.85777985e-003 6.94042444e-003 -1.57231145e-004 1.71323994e-003
      6.90703819e-005 2.41377344e-003 1.69232115e-003 -9.76210635e-004
      6.80706347e-004 3.04775964e-003 1.07801342e-002 -4.68576141e-003
      6.96530915e-005 -1.28891392e-004 1.32921629e-003 -3.31718521e-003
      2.04983144e-003 1.42918131e-003 -7.61511677e-004 4.19116765e-003
      -1.82592237e-004 -3.05150310e-003 -3.68245499e-004 3.17606353e-003
      2.46369001e-003 -1.78318995e-003 -6.61476864e-004 9.64217295e-004
      -3.01795593e-003 -1.12423289e-003 9.40459780e-004 -1.66833971e-003
      5.89205138e-003 -8.43205210e-003 -2.75380118e-003 6.96773641e-004
      1.54999434e-003 2.89380900e-004 -2.32429174e-003 -4.95428964e-003
      -1.01362786e-003 -1.19800831e-003 3.31751013e-004 9.87925334e-004
      -2.09616078e-003 -2.75764009e-003 -3.10292072e-003
      -1.12453941e-003 -1.22372963e-004 -7.30339380e-005
      -2.90214870e-004 -5.87571179e-004 2.28406070e-003 7.22740195e-004
      3.27013852e-003 -3.22455564e-003 -4.25748949e-005 -1.91777875e-003
      -2.03756336e-003 -3.84004961e-005 2.61146831e-003 -5.71797951e-004
      -3.10486648e-004 2.41112290e-003 3.78107815e-003 1.65142689e-003
      -2.46992626e-004 1.02535170e-003 2.19930219e-003 9.14451573e-003
      -6.09686878e-003 4.31772787e-004 7.44584613e-005 1.44168932e-003
      -3.02661699e-003 9.33800940e-004 -5.61631052e-004 -3.87015380e-003
      3.09730647e-003 8.06937896e-006 -3.83059727e-003 -2.92899960e-004
      1.25651795e-003 8.38882755e-004 -2.41301558e-003 -5.42929443e-003
      3.13559151e-003 -1.15752406e-003 -7.06678024e-004 1.00786879e-003
      1.82492100e-003 3.62052373e-003 -6.48388779e-003 -8.04990414e-004
      1.30780367e-003 1.17033615e-003 1.57675531e-003 -5.67556266e-003
      1.79599470e-003 -1.96193997e-003 1.40419361e-004 -4.65647201e-004
      4.42283787e-003 -2.20846850e-003 1.09610439e-003 -5.93369841e-005
      -1.12217525e-003 -2.82791140e-003 2.88335979e-003 1.77826325e-003
      -5.91093441e-004 -1.29063637e-003 2.69135577e-004 1.47690705e-003
      -2.15560151e-003 -9.10191971e-004 -8.33530386e-004
      -1.32917216e-006 -2.50672596e-003 2.95196730e-003 -1.12284783e-004
      5.49879216e-004 1.77333120e-003 2.00957595e-003 3.25609650e-003
      -4.41261218e-004 1.19013502e-003 1.59703230e-003 3.17110657e-003
      -5.98010700e-003 -1.82025076e-003 -5.51891106e-004 5.09165635e-004
      -5.11226302e-004 -2.73664668e-003 -7.21701963e-006
      -1.80527312e-003 9.26692213e-004 3.47849273e-004 -1.99787013e-004
      -2.88465380e-004 2.88102985e-003 1.46029401e-003 1.99148362e-003
      2.02398724e-003 -1.70845829e-003 -6.64478284e-004 -9.12713062e-004
      -8.25171010e-004 7.01555982e-004 2.48469855e-003 -1.84429635e-003
      -4.92481655e-003 -7.84329546e-004 1.21101283e-003 2.51904386e-003
      5.49466873e-004 1.71348103e-004 -9.23062500e-004 -1.97742647e-003
      -9.20457707e-004 3.90014751e-003 -1.87924434e-003 -2.71908590e-004
      -1.86750758e-003 5.60475281e-004 -9.37567558e-003 2.62694247e-003
      1.42457616e-003 -3.00106272e-004 -4.07920335e-004 2.45732721e-003
      1.43897464e-003 -1.71585241e-003 1.28188985e-004 -1.17593736e-003
      -1.38748728e-003 1.50787621e-003 -1.88757118e-003 1.26817601e-003
      -6.78402837e-004 6.39312610e-004 -2.84233829e-003 3.98691557e-003
      5.03974594e-003 2.47752620e-003 1.10883091e-003 7.40614254e-003
      -3.27459746e-003 -2.66145589e-003 -3.78306746e-003 5.51720848e-004
      -1.91833312e-003 -3.27278674e-003 -1.77591341e-003 1.55065255e-003
      2.01402744e-003 1.07937236e-003 -1.98353943e-003 5.27161290e-004
      1.35975855e-003 4.09727974e-004 -1.77811118e-004 5.05674805e-004
      6.39588572e-004 1.48763982e-004 -1.66211103e-004 1.86214992e-003
      1.43497414e-003 2.07059225e-003 -1.95466424e-003 -6.79874211e-004
      -1.98162554e-004 -8.69793992e-004 2.25576758e-003 -4.75686902e-005
      -4.17658361e-003 -3.01627745e-003 -2.78444058e-004
      -3.42742511e-004 3.97462538e-003 -4.85246722e-003 -1.18527816e-004
      7.15762551e-004 2.38830270e-003 -1.69102883e-003 1.73874068e-004
      1.61243184e-003 -7.76490837e-004 1.04694534e-003 -1.18736440e-004
      1.41600624e-003 -5.19941561e-004 -3.61161510e-005 2.42008929e-004
      -5.15221967e-004 -5.29186893e-003 3.33571993e-003 1.28085306e-003
      -4.93774598e-004 1.81146560e-003 5.71881363e-004 2.25793105e-003
      2.06485696e-004 2.07028748e-003 2.45983992e-003 -1.79813418e-003
      2.26336764e-003 -2.21918989e-003 6.95644587e-004 8.40151188e-005
      -5.16401418e-003 -4.67111357e-003 2.46147439e-003 -2.40761880e-003
      -2.12724949e-003 -1.01656448e-002 7.80130911e-004 1.24619706e-004
      4.64102690e-004 1.92380755e-003 3.63162113e-003 4.80077416e-003
      -7.16708368e-004 -4.13637143e-004 -3.16054182e-004
      -1.72757485e-004 -1.49389799e-003 -2.17060698e-003 3.42084677e-003
      1.99482753e-003 3.83048231e-004 1.37242023e-003 2.34860694e-003
      -2.82991561e-003 -2.29588291e-003 8.00620532e-004 1.01996027e-003
      -2.48544180e-004 -4.08106158e-003 2.18926556e-003 2.78335530e-003
      5.93850331e-004 -1.48759899e-003 -4.01515223e-004 -1.87580765e-003
      -1.51247968e-005 -2.68769654e-004 2.23903160e-004 6.24087872e-004
      2.37052189e-003 -2.56836787e-003 -2.54867955e-005 -3.02032335e-003
      -2.13985295e-005 2.12086248e-003 3.19518894e-003 -2.03332491e-003
      -8.15735330e-005 -2.63472251e-003 2.65016849e-003 5.71380428e-004
      6.87211612e-003 2.18783016e-003 1.71836710e-003 -5.20833256e-003
      1.53814571e-003 -3.06636281e-003 1.92382862e-003 1.35829311e-003
      -2.00152025e-003 -3.79910786e-003 1.37736334e-003 -6.37244957e-004
      -1.75721501e-003 -2.29079719e-003 2.24261850e-004 1.01502216e-003
      1.47778727e-003 5.93240547e-004 -1.96877238e-003 3.45322629e-003
      -1.84195407e-003 6.54890144e-004 -1.61639648e-004 1.91858373e-004
      -5.41665778e-003 1.52945332e-003 6.11363724e-003 2.30810183e-004
      3.81974096e-004 6.63431361e-004 2.00548465e-003 -4.92423773e-003
      3.46223544e-003 -7.62053067e-004 3.66994808e-003 3.17681435e-004
      -4.19374835e-003 -4.79630614e-003 -1.83541630e-003 1.05159386e-004
      1.16095052e-003 5.74572105e-003 -2.63866317e-003 1.07478444e-003
      9.91012130e-005 -2.62760231e-003 4.87781916e-004 9.75285133e-004
      -1.18094927e-003 -2.84515292e-004 -1.58190378e-003
      -1.46238541e-003 1.60597236e-004 -1.96628761e-003 -9.93699185e-004
      -5.39220418e-005 -3.97025782e-004 1.98798068e-003 1.14868116e-003
      -1.31196401e-003 -1.14145107e-003 3.12536722e-003 3.86122451e-003
      -1.11530440e-004 -1.85169955e-003 -3.04443674e-004
      -5.36250370e-003 -2.76626810e-003 -4.66654456e-005
      -8.50732438e-004 -1.36149162e-003 2.89515732e-003 1.29519598e-004
      5.00842056e-004 1.47327926e-004 5.28138189e-004 1.80768862e-003
      -3.24639189e-003 -1.18826889e-003 6.57819095e-004 -4.63190605e-004
      -1.27468538e-003 -5.11799473e-004 -2.25431076e-003 8.89198389e-003
      4.71496768e-003 2.90842867e-003 -4.21641045e-004 -1.16122223e-003
      6.02665357e-004 -3.33391316e-003 -2.57225870e-003 -1.14303851e-003
      -5.36730979e-004 1.10227382e-004 1.07575681e-004 2.94551766e-003
      1.77622563e-003 2.40132169e-004 -6.82203157e-004 -2.35030870e-003
      2.98661646e-003 1.26895355e-003 -1.01386053e-004 7.45786296e-004
      2.13825522e-004 -2.80169246e-004 -8.72124161e-004 -9.98633681e-004
      -2.79911957e-003 -1.50362946e-004 5.58792031e-004 5.74896764e-003
      -2.08526221e-003 1.69071543e-004 1.97587209e-003 2.48006056e-003
      3.76602798e-003 3.54363513e-003 2.11958028e-003 2.93353572e-003
      4.32083989e-003 2.99671432e-003 1.29929162e-003 2.53944072e-005
      -2.07615015e-003 -3.62243340e-003 -8.20875066e-005
      -9.95413400e-004 9.27900895e-004 2.84990110e-003 -7.00467592e-003
      -3.16876080e-003 -1.45062606e-003 8.58796993e-004 -1.25534297e-003
      -7.35642109e-003 4.04588552e-003 3.47280788e-004 -1.15409901e-003
      -5.05850534e-004 -1.89642415e-005 -8.30332632e-004 8.34281556e-003
      -6.05941191e-003 3.15057812e-003 5.72471647e-004 1.54350814e-003
      -6.27489877e-004 -5.73539315e-003 1.92291592e-003 2.21200869e-003
      5.59776032e-004 -6.38333382e-004 -3.28506948e-003 2.76127341e-003
      -9.55986499e-004 8.12233076e-004 1.23600161e-003 -4.50687576e-003
      2.01470754e-003 -1.03693444e-003 1.87549507e-004 -2.41278042e-003
      -7.43850425e-004 1.29983365e-003 -1.39134133e-003 -3.50462651e-004
      -2.57709034e-004 -3.07222269e-003 -4.34414856e-003 7.15350965e-003
      -4.19352378e-004 -1.50549415e-004 -5.89832372e-004 2.94449576e-003
      2.57793232e-003 -4.27984260e-003 4.74613946e-004 1.68471097e-003
      1.21396512e-003 -3.30077368e-003 3.93514661e-003 4.22169658e-004
      5.27212862e-003 -2.43791356e-003 1.09195814e-003 8.43889662e-004
      -1.39955828e-005 3.36566404e-003 3.54363094e-003 2.37404741e-003
      -1.19037973e-003 1.21513964e-003 4.39326948e-004 -4.26931027e-003
      -4.47003264e-003 -1.83577638e-003 4.11331392e-004 -4.13503527e-004
      -1.26312301e-003 -3.83836543e-003 5.18315705e-003 -1.09939855e-002
      -3.52131436e-003 3.52167670e-004 8.74129764e-004 -1.31238822e-003
      -3.32521228e-003 4.15822724e-004 -1.25007087e-003 -2.56989879e-004
      -6.39250618e-004 2.34918599e-003 3.95540195e-003 1.37375132e-003
      -1.44764408e-003 -2.36896565e-003 -3.25293932e-003
      -2.09091976e-003 2.14947667e-003 -1.45603612e-003 7.69312377e-004
      1.72616821e-003 2.95770983e-003 -5.60550368e-004 1.34198170e-004
      7.13338843e-004 -9.82513651e-004 1.40501297e-005 4.02225135e-003
      3.31076956e-003 1.91762450e-003 -5.75391576e-004 2.11674627e-003
      1.54143386e-003 -2.73312395e-003 1.71645579e-003 7.69320701e-004
      1.03184825e-003 -3.28884902e-003 3.10627953e-003 -1.78770535e-003
      1.01568177e-003 -1.43540814e-003 -2.02520238e-003 -1.04957749e-003
      2.35484287e-004 3.53462528e-003 7.01892248e-004 3.29081726e-004
      -9.87058011e-005 6.10316405e-004 6.42122410e-004 -2.57356069e-003
      -7.74784805e-003 -1.92254572e-003 -1.16773524e-004
      -2.36936001e-004 -2.90429170e-006 1.06798473e-003 6.72376808e-003
      -8.34506063e-004 -1.50000944e-003 9.03106557e-005 1.73047360e-003
      3.24278517e-004 -2.39415583e-003 -1.90631824e-003 -1.37437414e-003
      -2.06283736e-003 -6.27844885e-004 -1.04472841e-004 5.63553441e-003
      1.37261010e-003 1.01045868e-003 -1.21262252e-004 -5.10107167e-003
      2.34606420e-003 2.57953722e-003 7.71092091e-005 -2.40709889e-003
      1.34217099e-003 5.65775321e-004 -3.68153513e-003 2.39693138e-004
      6.73855422e-004 -9.57147393e-004 -3.71439219e-003 6.58738567e-003
      1.38542231e-003 1.93652071e-004 2.59169587e-003 2.73488625e-003
      2.83225649e-003 3.69045860e-003 4.92414751e-004 4.52660752e-004
      2.59002438e-003 -7.31873570e-006 -1.57321407e-003 -1.61200040e-003
      -1.50912011e-003 1.13083969e-003 -1.40982692e-003 1.77280547e-003
      2.67390453e-004 -1.79550436e-003 -2.31311051e-003 -1.39489735e-003
      -1.22041488e-003 2.09881365e-003 2.85479310e-003 -4.02903743e-003
      -2.75472272e-003 -8.80138250e-004 -1.08818687e-003
      -3.05180671e-004 1.87538762e-003 6.97230920e-004 1.05325750e-003
      -8.67384579e-003 1.89799478e-003 5.71794633e-004 2.17573863e-004
      2.57278071e-003 -2.64474959e-003 -4.05855849e-003 -2.22135964e-003
      -2.20556720e-003 -6.11917640e-004 -4.29561595e-003 2.86995922e-003
      2.83029978e-003 1.26490521e-003 1.64552231e-003 -1.63454260e-003
      4.18599724e-004 2.63474765e-004 7.80833434e-005 1.89327716e-003
      1.02545141e-006 1.56649039e-003 3.41903105e-005 8.94818164e-004
      -4.44089482e-003 -1.96002866e-003 3.17587983e-004 4.71973699e-003
      -3.15551483e-003 2.05859449e-003 -3.27012199e-003 -2.58512038e-004
      2.27101846e-003 -8.47934163e-004 -1.27442798e-003 1.87784049e-003
      -9.49575740e-004 -2.07090122e-003 2.45999508e-005 2.66949204e-003
      3.87723534e-003 -4.07127524e-003 -6.33981777e-003 7.24917569e-004
      -1.90535199e-003 1.58901478e-003 3.96317476e-003 8.63601454e-004
      -1.14696566e-003 1.02973927e-003 1.44143472e-003 1.29835331e-003
      -1.82742521e-003 -5.21406124e-004 -2.92650633e-003 1.11885318e-004
      2.86753202e-004 5.00204449e-004 -2.96701881e-004 -5.47160394e-003
      -1.51658996e-005 1.75101426e-003 1.31310232e-003 9.48310248e-004
      -1.90179679e-003 1.80260162e-003 3.14104225e-004 -8.41773523e-004
      -3.40299128e-004 1.82169222e-003 -3.00776493e-003 1.53211528e-003
      -6.57420955e-004 -3.57654295e-004 -1.72881444e-003
      -2.31186947e-004 1.20826217e-003 2.55264051e-004 -3.05477792e-004
      -8.14897299e-004 3.05761845e-004 5.48971409e-004 2.87072413e-004
      -2.61759083e-003 2.74214474e-003 5.01587102e-003 6.07678620e-003
      1.13851111e-003 6.11666648e-004 2.07645539e-003 1.74165354e-003
      1.61628716e-003 -4.07364173e-003 7.32675544e-004 3.15082236e-003
      3.70608439e-004 1.61891070e-003 9.60721401e-004 1.17250602e-003
      5.18865511e-003 -2.39583245e-003 -7.40050990e-003 1.50713848e-003
      3.12377024e-003 1.61711103e-003 -3.39835929e-003 -2.20650749e-004
      3.63097759e-004 1.27605439e-004 1.16616779e-003 6.97776035e-004
      -3.44430399e-003 -1.76545104e-003 3.47135610e-005 2.72463774e-004
      4.30745305e-004 -1.24787714e-003 -4.79906006e-003 2.88291578e-003
      2.54340190e-003 6.87982829e-004 3.65013460e-004 3.34190507e-003
      -3.15262034e-004 -1.41998229e-003 -3.41665675e-003
      -4.01156751e-004 -6.63587824e-004 -4.37793368e-003
      -2.29301536e-003 2.82211113e-003 3.11509182e-004 5.82371606e-004
      -2.84378114e-003 -1.37651921e-003 7.70568615e-004 -1.06533626e-004
      -1.70877785e-003 2.03001220e-003 4.67083475e-004 -6.21775573e-004
      -6.02108950e-004 -3.56639829e-003 -1.32357352e-004
      -1.01910673e-005 5.17807994e-003 2.05214205e-003 4.08596999e-004
      7.65435165e-004 -2.73951708e-004 3.70518101e-004 4.36485047e-003
      4.85806464e-004 1.45164027e-003 8.14664963e-005 2.19443347e-003
      1.92556088e-003 -7.63447897e-004 1.15799066e-003 -3.61599121e-003
      -2.48731812e-003 -1.54296553e-003 -2.19472940e-003 3.27189942e-003
      -6.23650383e-003 6.08169765e-004 -6.38790138e-004 5.95154881e-004
      3.41011561e-003 -4.45525721e-003 3.65906092e-003 -2.93575600e-003
      -1.78801268e-003 6.64143765e-004 -1.79983198e-003 -5.37010143e-004
      1.32950197e-003 4.03960468e-003 4.74442681e-003 -2.48821598e-004
      -1.85175717e-003 1.33388129e-003 -1.85995374e-003 -5.64058917e-003
      -2.05003796e-003 4.05291590e-004 -6.60321268e-004 8.61010049e-005
      1.07921442e-004 2.04765867e-003 1.19938445e-003 2.33580405e-003
      -5.31031808e-004 3.30820424e-003 2.40938319e-003 -3.46934161e-004
      -1.59322924e-003 -8.63907844e-005 -1.09756202e-003
      -2.57949554e-003 -5.45786868e-004 -4.11078893e-003 8.09813209e-004
      -4.32977593e-003 9.16435942e-003 1.66699977e-003 1.56362588e-003
      -1.86130899e-004 3.77985323e-003 1.54548232e-003 -2.13975343e-003
      3.50218121e-004 2.75850063e-003 4.36085556e-003 4.26469091e-003
      8.91376869e-004 -9.46921122e-004 -6.91247988e-004 -5.81660820e-003
      1.39687839e-003 -1.95067690e-003 -1.28268427e-003 1.52504456e-003
      -1.74516335e-003 1.23674423e-003 -1.95905770e-004 -7.55583096e-005
      3.55663011e-004 -7.04759732e-003 2.37367372e-003 -4.42497991e-003
      -8.35640822e-004 3.72516224e-004 7.44021439e-004 -2.14067218e-003
      1.60709838e-003 -1.67995051e-004 1.63397973e-003 -2.11121042e-005
      1.04757037e-003 1.01915118e-003 9.81573015e-004 -3.13844020e-003
      -7.40670541e-004 -4.85542259e-005 -1.60093245e-004 3.63794883e-004
      4.96120483e-004 1.80690736e-003 -1.55183763e-004 -2.23486591e-003
      3.39794159e-003 3.13414028e-003 2.04442869e-004 -6.05072477e-004
      -4.39585047e-003 1.76391890e-003 1.02535915e-003 -3.30156111e-003
      -6.72577939e-004 -2.40425649e-003 -2.45844014e-003
      -6.84828823e-003 7.52935791e-003 -9.36612429e-004 -1.64835685e-004
      6.08203816e-004 1.27871882e-003 -5.34813094e-004 -8.62215122e-004
      1.09385373e-003 2.05841125e-003 3.22274514e-003 2.21375981e-003
      2.12443783e-003 -1.41717051e-003 2.30718916e-003 -1.24675373e-003
      1.48114911e-003 -1.52412558e-003 -1.82432809e-003 -1.38678600e-003
      -7.44802458e-003 1.55935402e-003 2.06829910e-003 -2.44937226e-004
      -8.26076197e-004 -2.91308248e-003 -3.32651216e-005
      -1.42737373e-003 -1.54944218e-003 7.04369886e-005 -5.27263794e-004
      1.35228108e-003 3.80435633e-003 2.39356700e-003 9.99344746e-004
      1.19728525e-003 6.46541652e-004 -4.98056121e-004 3.74879409e-003
      -5.33860526e-004 -2.91448855e-003 -1.65719609e-003
      -6.61719881e-004 8.60702363e-004 -3.36100091e-003 -1.17919967e-003
      -1.56555220e-003 1.43747602e-003 3.14206979e-003 3.27012991e-003
      9.58026620e-004 -1.59165706e-004 -3.01694637e-003 -1.85547338e-003
      3.61595798e-004 -1.03515689e-003 -6.14588906e-004 -6.09401322e-004
      -3.85174388e-003 -3.40743153e-003 -3.21905897e-003 3.93133378e-004
      -4.87831072e-004 -6.59265672e-004 3.40266945e-003 3.67343402e-003
      -2.21511954e-003 1.50879263e-003 3.36885732e-003 6.15763618e-003
      -5.00294287e-003 5.23010734e-003 3.45286122e-003 1.42236310e-003
      -2.14070920e-003 2.68390759e-005 -9.43827268e-004 -2.59444257e-003
      2.38791341e-003 -2.33117677e-003 4.40101139e-003 9.03416774e-004
      -6.77920936e-004 -2.03210604e-003 -5.64865222e-005
      -5.48551464e-003 -2.10440834e-003 -1.43835042e-003
      -4.45069221e-004 -2.29265704e-003 -5.55845152e-004 3.56134749e-003
      -2.28787214e-003 -7.98024877e-004 2.79746763e-003 1.88562775e-003
      2.01423559e-003 -4.41997871e-003 2.04687566e-003 -1.15857238e-003
      -1.62474171e-003 -7.61409989e-004 4.37738048e-003 -1.03246886e-003
      1.16619153e-003 -1.13240676e-003 -4.54425724e-004 2.24078959e-003
      1.16258161e-004 2.25174800e-003 1.79582756e-004 -9.67214641e-004
      4.40212520e-004 9.27883550e-004 -1.82251551e-003 -1.06983003e-003
      -2.89578864e-004 -2.45850789e-003 -5.37435478e-003 1.73380156e-003
      5.52447420e-003 1.81312417e-003 5.24080475e-004 1.87432894e-003
      2.77641998e-003 1.39042211e-003 2.55799806e-003 1.30271143e-003
      -2.83791614e-003 -3.01443087e-003 1.03841571e-003 -1.65714213e-004
      3.22755775e-003 -1.00171508e-003 -1.35708950e-003 -1.63238088e-003
      -1.08789257e-003 -4.17894422e-004 3.64691531e-003 2.32486357e-003
      -1.20792072e-003 -1.65396938e-004 -3.10234842e-004
      -2.70991912e-003 -1.96065661e-003 7.96597218e-004 -1.37375097e-003
      -4.29012609e-004 -7.31399981e-004 -2.55629257e-003
      -2.27722558e-004 -4.40170802e-003 2.00739052e-007 3.88878718e-004
      -5.73942321e-004 -1.37027630e-004 -3.73469619e-003 1.73732315e-005
      -3.57029843e-003 -6.42267754e-004 -1.13632468e-005 1.24270550e-003
      -1.73030852e-003 -9.53620416e-004 9.37340723e-004 6.42827596e-004
      -4.53994755e-004 1.05483644e-003 9.90214176e-004 -9.53402079e-004
      3.99081036e-003 -3.54632997e-004 1.22373155e-003 -2.54791789e-003
      -2.17793378e-004 -1.93793807e-004 -1.04974803e-004 2.74845259e-003
      3.84417176e-003 7.49891100e-004 -3.08780407e-004 -7.09493528e-004
      2.18945020e-003 2.38706265e-003 -1.60814717e-003 5.80725959e-004
      1.76126952e-003 2.18968140e-003 -3.73289641e-003 6.61909289e-004
      1.96292927e-003 -3.60152102e-003 -5.35567198e-003 4.11458750e-004
      1.05568761e-004 -3.93263559e-004 1.31337706e-003 2.94823665e-003
      1.73310889e-003 1.67726679e-003 1.28745532e-003 1.82945968e-003
      4.62244905e-004 -3.94324074e-003 9.68908891e-004 5.12310653e-004
      -1.04452949e-003 6.22443273e-004 1.11881609e-003 3.45441978e-003
      -4.37568221e-003 9.20368475e-005 -8.28369812e-004 9.91444103e-004
      2.72134971e-003 -3.56623088e-004 -6.11764117e-005 -1.55502534e-003
      -2.25837319e-003 -7.29125983e-004 1.68481295e-003 -5.89275360e-003
      1.34674003e-004 -1.51307206e-003 -3.65359127e-003 2.42766505e-003
      8.72389064e-005 1.20879826e-003 1.41777171e-004 -8.68663425e-004
      -6.18590100e-004 1.37351197e-003 -4.93880478e-004 3.45738808e-004
      -1.02276134e-003 -3.18647386e-003 2.13049236e-003 1.21572870e-003
      3.15583311e-003 -2.33846740e-003 -1.76978239e-003 2.28610844e-003
      -3.16541409e-005 2.98831984e-003 3.88773577e-003 2.48940033e-003
      -6.22205483e-003 -2.71976204e-003 -2.17255438e-003 1.85147754e-003
      2.14866770e-004 -9.09627043e-003 -2.29208171e-003 2.36548585e-005
      4.41662967e-004 2.30983528e-003 1.51381781e-003 -4.19028685e-004
      -2.52883066e-004 -5.21236543e-005 6.86124666e-004 -3.55575379e-004
      -1.49786938e-003 -4.37387498e-004 6.23476109e-004 9.74005816e-005
      3.68624722e-004 3.03655607e-003 -2.48067291e-003 -2.79157283e-003
      3.36902682e-003 1.11617672e-003 1.01246325e-004 2.13570753e-003
      1.79695460e-004 1.12749916e-003 5.60242916e-004 6.57390687e-004
      -3.95731215e-004 1.41386373e-003 7.87892845e-004 5.77630359e-004
      1.14847324e-003 2.11685343e-004 4.27192790e-005 -8.99655104e-004
      2.25199456e-003 8.69534706e-005 -5.63862377e-005 9.37873148e-004
      -7.07642816e-004 -2.22987006e-003 1.36630275e-004 -2.95096007e-003
      -2.17480492e-003 3.11465439e-004 -2.84767081e-003 4.10864409e-003
      9.60418896e-004 1.70044554e-003 1.80446936e-004 -2.12392956e-003
      -5.57566353e-004 -6.45412656e-004 -2.37240363e-003 2.99916719e-003
      -4.70626308e-003 -2.70463270e-003 7.09691143e-004 2.99994322e-003
      3.10592353e-003 -4.90604620e-003 8.33126076e-004 1.68411550e-003
      1.72812690e-003 -6.23183371e-003 1.53020653e-003 1.17368635e-003
      6.29009082e-005 6.39750040e-004 1.88229431e-003 1.59261050e-003
      -1.32530858e-003 -2.67303025e-004 1.79421360e-004 7.14477734e-004
      4.02322592e-004 6.05776266e-004 -2.39914283e-003 5.89701952e-003
      2.90998491e-004 6.70320936e-004 4.04383149e-003 -1.42863122e-004
      -5.12966560e-003 -2.66173482e-003 1.66959350e-003 5.79281877e-005
      1.39191409e-003 -1.89420651e-004 6.81380916e-004 8.56587198e-004
      2.60521570e-004 -3.62394354e-003 1.29699113e-003 4.24950209e-004
      -6.07675393e-005 3.52817657e-003 -4.22153156e-004 5.56496343e-005
      -2.01862771e-003 4.30763146e-004 -2.42863456e-003 -5.15581400e-004
      -3.06921708e-003 4.51672124e-003 2.36281264e-003 7.59432674e-004
      2.31956970e-003 1.10869447e-003 -1.56022244e-004 8.34806473e-004
      2.07129912e-003 9.90800909e-004 2.09268741e-003 -2.81493855e-003
      -1.01046683e-003 2.09654961e-003 2.84946454e-003 1.52930536e-003
      1.55920221e-003 -3.23951303e-004 -8.62682064e-004 -9.58456309e-004
      -4.38556122e-003 -5.29616780e-004 9.37767967e-004 -6.08991017e-004
      3.65685392e-003 -2.33300519e-003 -1.49850978e-003 -3.57127888e-003
      -5.93905570e-004 -8.23922281e-004 1.72410626e-003 -6.93291426e-004
      3.24108894e-003 -1.95422512e-003 2.48352624e-003 4.96224093e-005
      7.03521771e-004 4.87524114e-004 7.22824305e-004 -6.66356366e-003
      -4.65959590e-003 1.35758647e-003 -6.65671192e-004 1.39442564e-003
      6.54249871e-003 -4.62561089e-004 4.37890849e-004 5.14854910e-004
      1.17790718e-004 2.33345374e-004 1.75658078e-003 5.81956294e-004
      2.73364160e-004 -9.79785109e-004 1.87146303e-004 -4.95875115e-003
      2.20712143e-004 -6.27421890e-004 -3.61355301e-003 -6.96660671e-003
      3.65601946e-003 -3.61624034e-003 2.05756631e-004 -5.43842558e-004
      6.84505678e-004 1.56042469e-003 -1.92959514e-003 -2.73758371e-004
      2.73582572e-003 7.45885447e-003 4.19575395e-003 1.50342355e-004
      7.59058912e-006 2.13481602e-003 9.68000852e-003 2.70976941e-003
      -2.97174905e-003 2.22657327e-004 -2.16303417e-003 -4.18653386e-003
      1.54699525e-003 1.39228196e-003 -2.32827384e-003 -2.67407333e-004
      -4.17020544e-003 -5.01409359e-003 -3.71214631e-003
      -6.70515641e-004 -3.67304834e-004 -2.93042650e-003
      -2.03506742e-003 -1.59822719e-003 -2.25831664e-005 1.23905949e-003
      -2.72533740e-004 7.16774026e-004 -1.09826715e-003 -1.74798991e-003
      -2.67015785e-005 1.81043797e-004 -8.75065976e-004 -5.90186755e-005
      1.44422404e-003 3.20142810e-003 1.11720889e-004 -7.31489621e-004
      -1.23391219e-003 6.09337399e-003 3.64684267e-003 2.02726410e-003
      3.32001015e-004 -3.34810442e-003 -1.47497200e-003 -8.42952519e-004
      2.50254432e-003 -8.64955946e-004 5.78882231e-004 -3.55588831e-003
      -5.48390392e-003 -7.09381304e-004 -1.94199861e-003
      -8.44345137e-004 -9.45816515e-004 3.13229347e-003 5.94555677e-005
      1.25936372e-003 -1.86587684e-003 7.40372227e-004 4.99751652e-003
      2.52496800e-003 5.73636079e-003 3.11194896e-003 2.24189414e-003
      2.41576857e-003 2.26188963e-003 -1.39119430e-003 -1.90819986e-003
      2.64432887e-003 -9.37591121e-003 2.76943506e-003 7.21001648e-004
      -9.27356654e-004 3.42872576e-004 -2.79665366e-003 -5.60703804e-004
      -2.00101337e-003 1.34136155e-003 -6.67124696e-005 -1.55607564e-003
      1.65125402e-003 9.59482044e-004 -1.10738806e-003 -2.79610511e-004
      2.34562508e-003 1.01860485e-003 -1.57921575e-003 1.86101242e-004
      -3.37098935e-003 -2.63759750e-003 8.22959817e-004 -6.16893230e-004
      -1.74297823e-003 3.72007751e-004 -1.07531971e-003 6.22393272e-004
      -2.19811209e-005 3.59605462e-003 1.11204654e-003 -5.70621341e-004
      -1.16180663e-003 -3.80261824e-003 -4.12442023e-004 1.23119762e-003
      -8.35453102e-004 -9.64013336e-004 2.27987231e-003 -1.10521016e-003
      -4.32305317e-003 1.51846802e-003 1.50417502e-004 -1.04322901e-003
      -5.03556849e-003 2.88396166e-003 -6.86520070e-004 -2.42396886e-003
      -3.78051132e-004 3.04859970e-003 1.60856347e-003 2.15307740e-003
      7.95629690e-004 1.84370286e-003 3.26721789e-003 3.07290861e-003
      1.23179471e-003 2.00920738e-004 2.04857686e-004 -5.11457547e-005
      -2.98775150e-003 3.21112602e-005 1.37226540e-003 3.20550898e-004
      1.60443553e-004 -1.82945537e-003 -8.27739015e-003 -2.45664339e-003
      1.91461819e-003 3.47021676e-004 -7.74273998e-004 -3.21116811e-003
      -2.47553602e-004 -1.68992230e-003 3.57207074e-003 7.61585135e-004
      1.93561940e-003 8.94681609e-004 -5.35996165e-003 -6.45370674e-005
      -4.30827914e-003 -4.57548071e-004 9.77522868e-005 8.84839054e-003
      9.75422096e-004 -4.52177646e-003 5.33624610e-004 2.27186782e-003
      -3.03898214e-005 1.97410886e-003 5.04375203e-006 -7.60179420e-004
      -4.90953913e-004 -7.57055939e-004 -4.67535501e-005 4.92840074e-004
      -8.40756577e-004 2.30290927e-003 -7.25510879e-004 -1.33670284e-003
      7.10708369e-003 2.81418185e-003 -9.09348673e-005 2.13093846e-003
      1.33490365e-003 1.78383861e-003 -3.40673723e-003 1.20351941e-003
      1.19040546e-003 3.30347568e-003 -1.99983144e-004 -3.69061902e-003
      1.60731468e-003 2.02918076e-003 4.10968252e-003 9.58708522e-004
      -7.28557468e-004 9.86811239e-004 2.61806627e-003 3.32966913e-003
      2.46102572e-003 5.01167437e-004 6.95441791e-004 8.76395323e-004
      -3.53993638e-003 -4.17518336e-003 -2.28299689e-003
      -2.00704951e-003 1.43334866e-004 2.60103756e-004 1.32136082e-003
      3.23503790e-003 -6.63047330e-003 4.63900418e-004 2.58129468e-004
      -9.40338010e-004 -1.33109535e-003 -2.60521495e-003
      -5.14968811e-003 -3.29598086e-003 2.93463207e-004 1.57606308e-004
      3.02619510e-003 -5.34384511e-003 -9.92659945e-004 1.95348193e-003
      1.73593278e-003 1.16074877e-003 1.32606554e-004 -5.06056240e-004
      1.94273278e-004 -1.66106177e-003 9.17192898e-004 -1.03653538e-005
      -1.88135996e-003 1.52609500e-004 -1.87019061e-003 -1.81649765e-003
      -2.29096250e-003 -2.03208419e-005 2.92226137e-003 2.19932338e-003
      2.55020661e-003 1.31467392e-003 2.31108069e-003 2.67089647e-003
      -1.27857074e-003 5.91351883e-004 2.77915504e-003 6.04485581e-003
      -3.19245108e-003 -3.58785270e-003 -2.04910454e-003 6.49149064e-004
      8.75002064e-004 5.38172666e-004 -2.36669625e-003 -1.81702839e-003
      2.40301224e-003 -2.10968126e-003 2.61614157e-004 1.03241915e-003
      -1.89617800e-003 -4.98094247e-004 9.03476903e-004 -2.69788783e-003
      -1.72546785e-003 -1.12531307e-004 -5.88738651e-004 3.05995950e-003
      1.95618439e-003 -6.88749878e-003 -2.39060450e-004 2.52011837e-003
      -1.38423371e-003 -4.48099563e-005 -1.20227523e-004
      -4.37977677e-003 -1.23060343e-003 2.46442901e-003 7.52348715e-005
      7.04204757e-003 -7.78312283e-003 1.47084909e-004 -1.18895865e-003
      8.75307829e-004 2.50951690e-003 7.92239676e-004 9.55234515e-004
      8.49283242e-004 8.70368211e-004 1.88415195e-003 -8.15793173e-004
      -2.68346485e-004 3.38939135e-004 -2.30011088e-003 -1.18498935e-003
      -4.61861538e-003 1.36556639e-003 3.20106628e-003 1.78170099e-004
      1.63429580e-003 6.71022397e-004 -2.28296639e-003 1.53117173e-003
      1.46525225e-003 -1.65832287e-003 1.34738977e-003 -2.27545900e-003
      1.24988821e-003 1.50336849e-003 2.52790819e-003 -1.19975803e-003
      -2.51162890e-003 1.06947101e-003 1.89746835e-003 1.39760983e-003
      1.63443678e-004 -1.22069265e-003 -4.71766944e-005 6.54746487e-004
      2.27459869e-003 9.72624766e-005 -2.06194469e-003 -3.56606627e-003
      -1.44034842e-004 1.91588071e-004 3.83952312e-004 -8.68669245e-004
      3.75118572e-003 -2.59440183e-003 2.97792163e-003 -9.93836205e-004
      1.14230334e-003 2.31161161e-004 -1.24556466e-003 -1.75343442e-003
      -2.37854826e-003 -1.36539957e-005 -6.30114984e-004 3.59378685e-003
      -3.84696107e-003 -8.36667023e-004 2.22696006e-004 -1.17264711e-003
      2.98761268e-004 -4.67546517e-004 8.63144815e-004 1.48201376e-004
      3.61937855e-004 -1.27953966e-003 1.86809781e-003 7.55883928e-004
      5.01393282e-004 -3.00018233e-004 -3.18697607e-003 -2.98508583e-003
      1.49486552e-003 2.54662428e-003 8.87204777e-004 -5.27327065e-005
      -8.26249016e-004 7.07010215e-004 -1.19445077e-003 -1.36657292e-003
      4.12172521e-004 1.40933937e-003 3.16779246e-003 6.67799206e-004
      -1.29467080e-004 -1.59049162e-003 3.54255340e-003 -5.28643932e-003
      1.72173401e-004 2.05593882e-003 -1.32510287e-003 -3.76685732e-003
      1.42573088e-004 -6.18076738e-005 -1.35181208e-005 2.56379507e-003
      -1.45244726e-003 -1.33328617e-003 -1.72359485e-003
      -1.54031673e-003 -7.39853771e-004 1.52564709e-004 -3.15116113e-003
      -6.71409420e-004 -2.21568020e-003 1.43313024e-003 7.99692993e-004
      6.59641810e-004 5.44811890e-004 -2.33859569e-003 -5.33307204e-003
      -1.40202511e-003 9.38448531e-004 -1.13880553e-004 2.69768480e-003
      -1.04131243e-004 4.25566034e-003 -6.35801291e-004 1.91260726e-004
      1.59331757e-004 2.43699714e-003 2.04055407e-003 -1.96538211e-004
      4.12083371e-003 3.35530262e-004 6.33135554e-004 1.59616314e-003
      -4.75434557e-004 -2.10539042e-003 -1.75751396e-003 1.38538497e-004
      7.13222020e-004 3.42884520e-003 -1.07293192e-003 2.57570925e-003
      1.77454157e-003 2.80271750e-003 5.27733937e-004 1.44639620e-004
      -1.80372386e-003 -1.44868833e-003 -3.11048026e-003
      -3.00144893e-003 -1.63793168e-003 -6.83306251e-004 1.91571075e-003
      2.04727432e-004 2.28718878e-003 4.18052150e-005 1.13828981e-003
      -6.85449922e-003 4.82893724e-004 2.49435776e-004 2.27066851e-003
      -4.77558206e-004 -8.40358553e-004 2.38580047e-004 -3.83987278e-003
      -1.76541414e-003 -5.04014606e-004 -5.56045619e-004
      -2.16181087e-003 5.60614839e-003 -3.11645737e-004 -1.69685297e-003
      7.90436461e-004 4.76601912e-004 -5.76811959e-004 4.19845013e-003
      -4.53288853e-003 4.82536067e-004 6.87150226e-004 -1.96279958e-004
      -5.75634826e-004 5.30653307e-003 -3.20876366e-004 -3.09993653e-003
      2.02839635e-003 3.01404507e-003 7.03351921e-004 1.28750980e-003
      -4.06052015e-004 1.62094529e-003 -1.54330948e-004 -1.54383219e-004
      -5.62667032e-004 -5.18280605e-004 -2.28069630e-003
      -2.04605144e-003 1.92660067e-004 -9.13481694e-004 1.31297996e-003
      6.19597413e-005 1.68389335e-004 2.21628672e-003 2.80007196e-004
      1.29687088e-003 -9.14866396e-004 4.71971650e-003 3.90289864e-003
      2.15278519e-003 1.27551175e-004 -3.44090699e-003 -1.47863117e-003
      3.77883366e-003 2.95700878e-003 -1.96483894e-003 -2.38332106e-003
      5.07037155e-004 -7.19168503e-003 -1.27737888e-003 -1.00830290e-003
      9.92638874e-004 1.39924964e-006 2.79581087e-004 -3.98746517e-004
      -3.19803180e-003 9.35292046e-005 -5.13024337e-004 8.12923245e-004
      -5.12522087e-003 7.26138096e-005 1.43880164e-003 -1.32234220e-003
      2.22385977e-003 2.01476971e-003 1.55942701e-003 8.86750640e-004
      -3.94169381e-003 -1.50458701e-003 8.09976656e-004 3.96360032e-004
      1.03767123e-003 5.46387688e-004 -3.91912472e-004 -2.42253626e-003
      1.30472367e-003 3.95947043e-003 2.80191220e-004 2.34783627e-003
      -1.27513392e-003 1.77365518e-003 2.67728028e-004 -3.35336255e-004
      -7.25105579e-004 -1.04509213e-003 1.76782662e-003 -4.05153085e-004
      -5.17311646e-003 -1.06615131e-003 -4.19947348e-004
      -9.56561533e-004 -1.80206518e-003 2.72213994e-003 2.12758034e-003
      4.18037688e-003 5.51076431e-004 1.67612860e-003 2.01814319e-003
      2.75691622e-003 6.26219856e-003 1.81909197e-003 1.59693579e-003
      1.08572160e-004 1.60365237e-003 -2.36759297e-004 4.47552127e-004
      -1.39340363e-003 -3.41422553e-003 2.50121835e-003 3.06004004e-005
      -9.68778448e-004 5.03448828e-004 -3.27688665e-003 -4.76769404e-003
      -4.51629376e-003 4.72523941e-004 -8.55727285e-006 -1.99532532e-003
      -1.55511836e-003 2.76353589e-004 1.73900113e-003 -3.24136199e-004
      1.37250859e-003 1.50246650e-003 -1.20435754e-004 -1.42531484e-004
      -6.10936480e-003 -6.63191220e-003 1.39203563e-003 -9.64556748e-005
      -3.12263321e-004 3.76002281e-003 1.21806480e-003 -1.88193412e-003
      -7.94371183e-004 3.62272188e-003 1.14970538e-003 -7.82515155e-004
      -1.48356223e-004 -1.87877435e-004 -1.76829030e-003 1.58067560e-004
      5.44823823e-004 -7.18291965e-004 2.27826065e-003 -6.72860944e-004
      -3.32282414e-003 6.50516106e-003 5.52707526e-004 -1.00537355e-003
      -1.69217342e-003 2.21992331e-003 2.68632057e-003 -8.08040379e-004
      4.50021180e-004 -1.39872346e-003 5.76001708e-004 -4.16863058e-003
      -6.78911980e-004 1.93234067e-003 4.13325895e-003 7.75070203e-006
      -6.82033278e-005 5.82878944e-004 1.18626142e-003 1.08859630e-003
      9.04207991e-004 -3.11626878e-004 1.67815582e-004 2.02342961e-003
      9.43587278e-004 1.18519948e-003 4.32762969e-003 -3.44876340e-003
      2.87278581e-005 -4.16406547e-005 -2.74481974e-003 -1.62434741e-003
      2.14716536e-003 -1.64558075e-003 -1.14771735e-003 1.43735076e-003
      1.24884432e-003 7.75517663e-004 -2.07694434e-003 1.80251058e-003
      -1.93553115e-003 1.83324111e-004 -1.98322436e-004 7.70478102e-004
      6.20028179e-004 1.71189575e-004 -1.88673416e-003 -2.45385082e-003
      -1.97130535e-003 2.59751570e-003 1.19933113e-003 4.02998645e-004
      2.00305530e-003 8.69731593e-004 1.20067992e-003 -2.33612629e-003
      3.50549053e-005 -2.21628416e-003 -3.79345147e-003 -9.31349210e-003
      3.04776710e-003 -4.17894160e-004 1.72716752e-003 -4.26249392e-003
      2.60032364e-003 2.89731845e-003 -3.98346689e-003 9.45906912e-004
      7.43782730e-004 4.79495293e-003 -5.23492228e-003 1.74921076e-003
      -4.23394406e-004 3.36151948e-004 1.73148327e-003 3.56076215e-003
      -1.31242978e-003 -2.89321714e-003 5.57097932e-003 3.08109308e-003
      -4.96026187e-004 5.66199073e-004 -4.78606060e-004 9.64062870e-004
      -2.96347262e-003 -1.65042619e-003 -1.10506557e-003 1.16483727e-003
      -5.03986550e-004 1.33260782e-003 -1.60543749e-003 1.70278014e-003
      -2.84379162e-003 -1.19936024e-003 -6.17786718e-004 5.14429528e-004
      2.66240910e-003 -3.91309801e-003 -1.18539017e-003 -2.70754565e-003
      2.27845332e-004 -4.83154872e-004 1.83022290e-003 -2.13640882e-003
      -2.14728015e-003 3.50725051e-004 1.61133509e-003 2.98551889e-003
      2.40568770e-003 1.47653965e-003 -8.63201567e-004 -2.82273325e-003
      3.84082494e-004 9.58060264e-004 -5.51858509e-004 -3.33260105e-004
      -1.47021760e-003 -3.78963840e-003 4.71322914e-004 1.89055083e-003
      -1.31937835e-004 1.53075496e-003 4.64095152e-004 4.10071062e-003
      2.53456808e-003 -1.96681009e-003 -1.15798367e-003 -1.90600019e-003
      2.16838811e-003 -5.91465330e-004 -3.98086291e-003 5.42595400e-004
      -1.60871702e-003 2.04971177e-003 -1.68702129e-004 8.84643523e-004
      2.15796463e-004 3.84605746e-003 6.31649699e-003 -1.54777674e-003
      3.41662380e-004 1.64372800e-003 1.70332845e-003 -1.60170591e-003
      -2.66322400e-003 -2.56703468e-003 -1.24786468e-003
      -7.66256941e-004 1.70437875e-003 -1.79515022e-003 1.21154997e-003
      -2.53677601e-003 1.77186041e-003 5.24686766e-004 2.67073093e-003
      2.12533469e-003 -4.79622604e-003 1.31700060e-003 -4.23650956e-003
      -9.65995656e-004 -5.55911029e-005 3.70425475e-003 -1.92667602e-003
      -1.96078862e-003 -1.22485944e-004 2.97227816e-004 2.83384230e-003
      5.25090611e-004 -1.41210228e-004 -7.39571871e-004 -3.80838616e-003
      -6.05695939e-004 1.45480293e-003 -1.23507949e-003 2.72803067e-004
      -3.48928297e-005 -3.84809705e-003 6.88232394e-005 1.70592510e-003
      -1.25658798e-005 3.31939408e-003 -2.21770862e-003 -1.27350702e-003
      1.83057040e-003 -4.54664143e-004 1.90363382e-003 -2.50101718e-003
      -1.43053150e-003 -1.76550559e-004 -7.31554872e-004
      -7.65703298e-005 -1.13893044e-003 -1.32144487e-003
      -2.58463668e-003 1.82311411e-003 -6.32538053e-004 4.43333760e-003
      -1.19684986e-003 -2.06312281e-003 7.87472993e-004 2.11340864e-003
      -5.94219367e-004 9.83411563e-004 -2.84909154e-003 1.06348225e-003
      -2.29734275e-003 -6.87382126e-004 1.51293899e-003 1.70073425e-003
      2.95364857e-003 -4.53035673e-003 1.04750402e-003 -1.44511490e-004
      -6.00553758e-004 1.82015577e-003 3.41078592e-003 -1.84947485e-003
      -1.76842697e-003 -2.06413344e-004 -2.87194969e-004 1.59573101e-003
      2.52166740e-003 8.58365383e-004 -6.54275354e-004 5.87085378e-004
      1.24387105e-003 -6.92825881e-004 1.89761212e-003 2.95939011e-004
      1.85461668e-003 1.60223385e-003 -2.84820071e-005 -1.52914133e-003
      1.42324148e-004 -2.34657829e-003 -3.65726673e-003 -2.47323350e-003
      6.41100225e-004 -2.16661440e-003 -2.06772774e-003 1.81736599e-003
      2.65105016e-004 1.32412533e-003 -1.44522602e-003 3.25256027e-003
      -2.79313215e-004 -8.74529651e-004 -8.23596492e-003 9.10276838e-004
      1.02138764e-003 -8.84269131e-004 2.00301502e-003 -3.40422476e-003
      7.79318681e-004 -1.93867701e-004 5.07865846e-003 -1.22112653e-003
      -7.44939753e-005 2.86968076e-004 -9.79239194e-005 1.70015526e-004
      2.37881322e-003 -1.99618560e-004 -2.50018225e-003 5.57886204e-004
      -3.49612324e-004 7.65237259e-004 -2.63687689e-004 3.32815922e-003
      1.59761333e-003 -2.62271194e-003 7.17823204e-005 -6.24054694e-004
      3.25008389e-003 -1.38423999e-003 -1.45706814e-003 -9.79194883e-004
      -1.33448595e-003 -3.36674042e-004 6.10683858e-003 1.38218177e-003
      2.37945846e-004 1.26921013e-003 -7.42016346e-005 -4.42841649e-003
      3.24144657e-003 8.54265876e-004 9.66684747e-005 -3.42949701e-004
      6.06816320e-004 -1.10543636e-003 -8.77744635e-004 -1.98798429e-004
      -3.92260542e-003 3.95543553e-004 2.56575615e-004 5.35056926e-004
      1.82012052e-004 6.71609945e-004 -9.34605894e-004 1.30499597e-003
      3.60242580e-003 -4.17631865e-003 -1.00003788e-003 6.72128052e-004
      3.70141679e-005 -1.69284001e-003 -3.50713776e-003 2.11025035e-005
      -3.01433541e-003 1.62919168e-003 -2.60914443e-003 -5.00917609e-004
      -1.46842829e-003 3.95421917e-003 -3.76590854e-003 -1.92632747e-003
      1.03575981e-003 2.84035155e-003 6.28870330e-004 -1.92652957e-003
      -2.93057901e-003 -2.32556532e-003 -1.77100569e-003
      -3.96159769e-004 1.26772420e-003 4.21352161e-004 4.65895375e-003
      9.77809832e-005 2.26586265e-003 1.67943526e-003 -1.00786111e-003
      3.36828153e-003 3.59279662e-003 1.36740902e-003 4.74386965e-004
      -6.43637104e-005 -2.71740748e-004 5.50298905e-003 2.81409477e-003
      1.41571974e-003 9.91367386e-004 8.37808009e-004 -3.68686300e-003
      1.39654521e-003 1.37072837e-003 -6.80115365e-004 -3.05206724e-003
      1.05679315e-003 3.44239670e-004 -2.34286068e-004 -1.93186061e-004
      -1.54384726e-003 -1.75987149e-003 -5.59896324e-003 5.83825167e-004
      1.18919520e-003 8.40044348e-004 -2.99538742e-003 9.81669058e-004
      1.74732867e-003 -1.90984749e-004 -2.99847397e-006 2.58565741e-003
      4.14918689e-003 -3.61487106e-003 2.59230356e-003 -5.34804363e-004
      -1.87940453e-003 -8.03966948e-004 2.42090505e-003 1.64564975e-004
      -3.16327758e-004 2.32243072e-003 -4.97721788e-003 4.63838747e-004
      1.81658566e-003 5.46902302e-004 3.75084899e-004 -2.35173106e-003
      -3.61233857e-003 -4.96574910e-003 -8.52702127e-004
      -6.26485329e-004 4.65943667e-005 -3.76071606e-004 4.80612693e-003
      1.54218089e-003 4.91966319e-004 1.09409762e-003 3.72672657e-004
      1.99224334e-004 1.40205186e-004 3.32425674e-003 -6.96986623e-004
      -1.99945457e-003 -4.88999474e-004 2.71390984e-003 2.88067618e-003
      1.70449261e-003 1.13837852e-003 -7.72026833e-004 -2.90703424e-003
      2.28872104e-003 -7.84080941e-004 -8.30901437e-004 -2.97695654e-003
      -3.66300992e-005 6.18477876e-004 -8.39168148e-004 -3.82354512e-004
      -4.73146298e-004 -1.98049517e-003 -2.87222723e-003 5.31605305e-003
      1.31930725e-003 1.84739998e-003 -2.44660157e-004 2.21614237e-003
      1.06637331e-003 -4.96486528e-003 1.66101602e-003 3.52848833e-003
      2.26891949e-003 -5.48313092e-003 -8.18408327e-004 6.45232853e-004
      1.01163525e-004 1.96330203e-003 -1.09027582e-003 -1.41350058e-004
      4.01782396e-004 -2.28181854e-003 -3.41294613e-003 -1.19217869e-003
      2.14160886e-003 7.63446515e-005 -1.15379269e-004 -4.82044928e-003
      1.55323753e-004 -2.68853572e-003 6.68711669e-004 2.35930675e-005
      1.26510486e-003 -8.26760734e-005 -2.17014994e-003 1.09146512e-003
      -4.08938993e-003 7.29850668e-004 7.16513096e-005 1.80496345e-003
      2.84264679e-003 1.72805492e-004 -7.96234875e-004 5.54833445e-004
      -5.79608721e-004 -6.79895224e-004 2.50892038e-003 1.05857209e-004
      -1.15656119e-003 -1.42755138e-003 1.58658507e-003 1.24372996e-003
      4.17050731e-004 -1.92951120e-004 1.08862459e-003 -2.06317127e-004
      1.75829488e-003 1.22395868e-003 4.20763507e-004 -1.08522142e-003
      -2.04755180e-003 -2.51976191e-003 4.30064509e-003 2.48917751e-003
      -4.60690528e-004 -2.41129543e-003 9.29151429e-004 1.06175488e-003
      -1.61869451e-003 -1.08466425e-003 2.93779513e-003 -4.65903385e-003
      -6.94096880e-003 1.44782523e-003 -1.11510057e-003 1.89019553e-003
      -2.82526808e-003 -1.49048166e-003 8.23422975e-004 7.98891182e-004
      1.49260450e-003 2.72247102e-003 4.63907514e-003 -1.52612367e-004
      -2.99754756e-004 -1.98750175e-004 -2.17861263e-003
      -2.41634203e-003 -1.19675504e-004 -2.33820197e-003 1.17266329e-003
      -2.55709258e-003 -2.50351615e-003 1.81352510e-003 1.29388529e-003
      2.07906216e-003 8.89268063e-004 2.81065493e-003 1.88930857e-003
      -1.57660383e-004 1.88972603e-003 -1.12876645e-003 1.37754425e-003
      -5.89371833e-004 2.43228371e-003 4.17282921e-004 -1.05446001e-004
      -6.07958471e-004 -1.37903332e-003 -6.24534965e-004 2.44495063e-003
      1.05539791e-003 -3.18037870e-004 9.93879745e-004 2.18331421e-004
      1.56262994e-003 1.53239642e-003 -2.93492281e-004 -1.67638948e-003
      -1.72001775e-003 -7.43433461e-003 -1.12070679e-003 1.62717502e-003
      -1.32443290e-003 -8.50246637e-004 1.52537506e-003 1.27525965e-003
      -1.81039935e-003 3.05441994e-004 2.52677291e-003 -2.82026455e-003
      -1.62194439e-004 -1.01695870e-004 7.73241394e-004 4.14495543e-003
      -2.69923848e-003 4.92257648e-004 -7.38621515e-004 4.67348727e-005
      1.84022763e-003 1.99146871e-003 -2.65473151e-003 1.08162628e-003
      1.76544045e-003 4.65816964e-004 1.24844443e-003 1.68563114e-004
      2.00911006e-003 1.45072743e-004 -7.36649090e-004 -1.14942857e-004
      8.38306616e-004 4.44664201e-003 -4.27724421e-003 -4.60027205e-003
      3.02235730e-005 1.63902924e-003 -1.98506704e-003 -1.98089797e-003
      -2.36958987e-003 -3.05422745e-003 -2.25428725e-003
      -9.00611980e-004 3.84009280e-003 -2.89515126e-003 1.75968057e-003
      1.12805435e-004 -1.15262251e-003 2.36956147e-003 3.16468882e-003
      4.09058004e-004 2.51270161e-004 1.39977608e-003 6.41923281e-004
      1.59885897e-003 -4.00479010e-004 -1.05664763e-003 8.93130316e-004
      -1.13509514e-003 -3.63171403e-003 2.09036050e-003 -3.06235394e-003
      -6.24218083e-004 -2.22566980e-003 4.28997632e-003 2.86741386e-004
      -4.29740595e-003 3.97065654e-004 1.84554479e-003 1.79989915e-003
      -1.46235235e-003 -1.50572887e-004 4.34614893e-004 2.04398273e-003
      -7.21883494e-004 -1.98403629e-003 1.42718654e-003 7.79678230e-004
      2.80140433e-003 -2.47594109e-003 -2.99517880e-003 1.61835807e-003
      2.73244991e-003 2.67914450e-003 9.01375955e-004 1.36013841e-003
      -3.96712683e-003 -2.35257647e-003 4.85970522e-005 -4.97898844e-004
      2.25724559e-003 2.53145467e-003 -4.94868401e-003 -4.66245413e-003
      -7.91294209e-004 1.61669927e-003 3.58201517e-003 -1.40981306e-003
      -4.45793895e-003 -5.54975122e-003 -1.84552907e-003
      -9.53785435e-004 8.14864412e-003 1.06232159e-003 2.39491143e-004
      1.62544509e-003 -2.50567403e-003 1.13067520e-003 1.94625801e-003
      1.52273849e-003 -2.74213264e-004 2.19100853e-003 5.67451876e-004
      7.26381782e-004 -2.05477510e-004 7.04246995e-005 -3.19607789e-004
      -3.96002876e-003 1.94669177e-003 5.44345146e-003 -1.89581257e-003
      -2.11729761e-003 -1.83913100e-003 1.72090658e-003 -2.35686288e-003
      7.35321519e-005 1.14050810e-003 -1.56116579e-003 4.74721950e-004
      -6.20927801e-003 -2.07041483e-003 2.18748744e-003 1.46947312e-003
      -4.18224093e-003 -1.95808150e-003 -1.77524107e-005 2.86596222e-003
      3.18055507e-003 2.78450456e-003 -7.70147482e-004 7.46992417e-004
      9.27063011e-005 8.94643599e-004 3.37345619e-003 -3.20917438e-003
      2.85342365e-004 -1.32852769e-003 -1.83952128e-004 9.41977662e-004
      1.81652687e-003 3.85969155e-003 -5.26992977e-003 -1.97211886e-003
      -9.16425022e-004 9.52326009e-005 4.49844287e-004 -3.94800532e-004
      -2.52486742e-003 -1.84347655e-003 -6.59084530e-004
      -7.48288527e-004 4.42891661e-003 1.15993968e-003 2.50777369e-003
      7.66967598e-004 -1.11500476e-003 2.08165636e-003 2.05937051e-003
      1.03982759e-003 5.49756223e-004 1.07930042e-003 -5.63222158e-004
      1.15259807e-003 -3.11259791e-004 2.91701552e-004 -2.34882277e-003
      -1.87192764e-003 -7.76257715e-004 2.85312068e-003 6.36866840e-004
      -9.83663020e-004 -2.70327227e-003 -3.40541243e-004
      -7.09808781e-004 -4.77915537e-003 6.25851040e-004 5.79816347e-004
      -4.29038331e-003 5.81649481e-004 3.59708210e-003 -1.37890375e-003
      -2.35499232e-003 -7.40995398e-003 -1.07158558e-003 7.85922239e-005
      -2.69136066e-003 7.50226551e-004 -1.23256294e-003 6.85601786e-004
      -8.93764372e-004 3.28185572e-003 9.25300119e-004 1.63000822e-003
      -3.51416320e-003 -1.57047960e-003 3.62129911e-004 -1.38144183e-004
      2.15697521e-003 9.25196044e-004 7.98603799e-003 6.30070129e-003
      1.26085582e-003 -1.04082667e-003 6.58667297e-004 1.23926951e-003
      3.30642448e-003 -2.76075443e-003 1.47183845e-003 -1.24047010e-003
      -6.70863432e-004 4.00248030e-003 2.57022772e-003 3.62331886e-003
      6.35485456e-004 -2.40658715e-004 -3.55310948e-003 -6.10556745e-005
      1.11978303e-003 -3.61346756e-004 -1.98891922e-003 3.17066122e-004
      5.69207710e-004 -8.29386001e-004 2.21911600e-004 -6.33786665e-004
      -2.46460480e-003 -3.04503087e-003 3.98148550e-003 9.98698524e-004
      -1.96412686e-004 -6.47220295e-005 4.66198631e-004 2.74127396e-003
      2.14775093e-003 -1.04635058e-003 1.19978690e-003 -4.50872490e-003
      -2.90501630e-003 9.35830933e-004 -6.32486888e-004 6.45664288e-003
      -3.00284848e-003 7.01043638e-004 2.00631004e-003 5.10467624e-004
      4.76305431e-004 5.41103182e-005 1.23758637e-003 6.79566816e-004
      7.57352391e-004 1.50991720e-003 -9.91900568e-004 -4.55677556e-003
      -4.46790596e-003 -2.52525019e-003 -4.36622824e-004
      -1.56568363e-003 -3.74361916e-005 -9.08672635e-004
      -2.18316307e-003 3.32980300e-003 4.30307526e-004 -1.59495440e-003
      1.48118497e-003 2.48575164e-003 2.47135293e-004 -2.06530862e-003
      -6.22178544e-004 8.35848987e-005 3.28664482e-003 2.68035010e-003
      3.77223711e-003 1.46249472e-003 -3.69493314e-003 -2.20797770e-003
      -7.34398491e-005 1.36439712e-003 -4.21753968e-004 2.04325258e-003
      2.07121344e-003 -2.08785976e-004 -5.38177439e-004 1.96746783e-004
      -1.89970748e-003 -4.22665756e-003 -4.21158504e-003 7.05682300e-003
      8.50983954e-004 6.90258341e-004 -1.13909191e-003 1.83682318e-003
      -1.57537742e-003 -5.54745412e-003 -4.80605231e-004 4.08742111e-004
      7.52477627e-003 -4.32083337e-003 1.02405029e-003 -2.01551826e-003
      3.85109219e-003 1.66302151e-003 2.28100386e-003 -1.15652685e-003
      2.03020958e-004 2.03995057e-003 5.80975844e-004 3.15932604e-003
      1.18991337e-003 6.71304064e-004 6.20117702e-004 -4.67464607e-003
      -4.78524482e-003 -5.02715493e-003 -4.72521060e-004
      -2.98426516e-004 4.91399551e-004 -1.15485187e-003 2.54053110e-003
      7.76263885e-004 -1.29811559e-003 1.21539691e-003 2.24047573e-003
      1.16582448e-003 4.59992705e-004 2.38723078e-006 -1.00156828e-003
      -5.18529210e-004 7.81920622e-004 4.50393325e-003 2.66118161e-003
      7.10900640e-004 1.04143994e-003 -2.03974405e-003 2.13969062e-004
      9.39238933e-004 4.91986400e-004 -6.53363997e-004 -3.73183354e-003
      -1.32396352e-003 2.43589934e-003 -1.44894817e-003 -7.10253371e-004
      -4.18926170e-003 -2.65006092e-003 -6.11103000e-003 4.27876506e-003
      -2.09948118e-003 -8.74716789e-004 -1.56847702e-003 1.13252061e-003
      1.16940436e-003 -2.52951030e-003 3.57313693e-004 2.20091688e-003
      4.62504104e-003 2.93444245e-005 1.57776196e-003 -1.27218128e-003
      -2.01188400e-003 3.15687910e-004 2.90976162e-003 -1.87522708e-003
      -2.82278471e-003 6.74442635e-005 6.06832502e-004 9.92381363e-004
      1.30242482e-003 1.48578477e-003 3.69427580e-004 -7.99230393e-003
      -1.23179215e-003 -1.93577004e-003 -2.34185671e-003
      -2.53299833e-004 -1.89905299e-003 -3.28294723e-003 2.95067043e-003
      3.52100725e-003 2.22558226e-003 -6.28116250e-005 9.67511442e-004
      -9.54747316e-004 3.67177115e-003 -2.34575989e-003 -3.93266464e-003
      1.60315214e-003 3.53451731e-004 4.65544360e-003 6.43843273e-003
      2.30898918e-003 1.18375488e-003 2.34518084e-003 -1.85001292e-003
      1.09527993e-003 -3.71793954e-004 -8.27715092e-004 -4.84502129e-003
      -1.23427613e-004 8.28126358e-005 -2.91556399e-003 4.33970359e-004
      1.02635601e-003 -3.80068016e-003 -2.26269546e-003 -1.10944756e-003
      1.64501206e-003 -8.57026782e-004 -1.55595643e-003 3.97492852e-003
      -7.35573936e-004 -2.61883810e-003 1.82605640e-004 -7.14405498e-004
      5.05829137e-003 -1.53109187e-003 1.46095199e-003 -1.47085800e-003
      7.35036447e-004 2.55518884e-004 -2.04691416e-004 -1.84096323e-004
      -9.32023686e-004 2.16021040e-003 2.48559704e-003 -1.25570619e-003
      1.02677033e-003 2.96826451e-003 1.05869700e-003 -1.90973328e-003
      -6.93816273e-003 -4.10617562e-003 -3.12025077e-004
      -5.17154695e-004 -1.16777017e-004 -1.48021092e-003 1.85053120e-003
      -8.57223175e-004 -3.56038264e-003 7.23084609e-004 9.09734925e-004
      -4.14881593e-004 9.27285058e-004 -4.83160047e-003 -5.10405470e-003
      1.13788515e-003 -5.07197401e-004 4.32845112e-003 7.64982356e-003
      2.75781749e-005 -9.56361706e-004 1.14611164e-003 4.20098193e-003
      2.71674059e-003 8.16070591e-004 -3.85270891e-004 7.17082410e-004
      -4.27089370e-004 5.86183567e-004 -2.15338846e-003 -5.30602374e-005
      -1.82911893e-003 2.84737936e-004 -1.40458182e-003 3.88250290e-003
      -1.47990894e-003 -1.04355870e-003 5.13228762e-004 1.55007280e-003
      -1.50618341e-003 -1.33307520e-004 -6.64460065e-004 4.86070232e-004
      -3.67417349e-004 -3.24491831e-003 -4.53325556e-005
      -1.36099814e-003 -1.69938384e-003 -9.74276860e-004
      -4.08310298e-004 -1.79716200e-003 -1.70173321e-003 3.73991719e-003
      4.12251754e-003 2.23545195e-003 9.36643512e-004 1.62073167e-003
      -2.57088162e-004 -3.29707604e-004 -7.65328621e-003
      -3.58065614e-003 8.34182138e-004 -4.46437625e-004 -7.54746550e-004
      -7.38755625e-004 3.25846858e-003 2.00459012e-003 -1.96838542e-003
      4.91967017e-004 1.27968052e-003 -3.79906106e-003 1.57068076e-003
      -1.49397273e-003 -3.55236186e-003 2.03967420e-003 -6.60751830e-004
      3.92328540e-004 3.15654161e-003 3.33161629e-003 7.65177712e-004
      1.12417736e-003 6.13460643e-003 2.85200728e-003 1.47540501e-004
      -1.52619660e-003 -1.86826102e-003 7.74056651e-004 6.37517369e-004
      -3.01984511e-003 -3.64298248e-005 -1.82517382e-004
      -1.69197458e-003 1.05436819e-004 -1.02291640e-004 -3.06795933e-003
      -8.90469644e-004 -5.57300751e-004 3.31693492e-003 1.12971372e-003
      -2.86950311e-003 2.42115255e-003 7.17450457e-004 2.51122547e-004
      -1.40000309e-003 -4.34473986e-005 -2.51711317e-005
      -2.08353929e-004 1.54452329e-003 -2.01434805e-003 7.00565230e-004
      -3.31329787e-003 2.79601058e-003 -1.56793161e-004 7.77765963e-005
      1.51162443e-003 2.11634533e-003 -1.01930555e-003 2.50254851e-003
      2.39448226e-003 -4.62742522e-003 -9.87067120e-004 -1.00959768e-003
      -9.82094440e-004 -2.16792105e-003 4.81185550e-003 2.12291838e-003
      -2.17283494e-003 1.11263932e-003 1.34831399e-003 -3.36041267e-004
      -1.93575048e-003 2.15056725e-003 -4.14806791e-003 -2.98159011e-003
      -4.55429719e-004 4.98234387e-003 5.85010368e-003 -2.96812179e-003
      -2.54635612e-004 2.84560083e-004 2.98053818e-003 1.88642030e-003
      6.18981372e-004 -6.20195584e-004 1.11254072e-003 -3.34495475e-004
      6.50520553e-004 -2.31662532e-003 -3.85020976e-004 -1.84403232e-003
      -4.03079111e-003 -1.16657070e-003 1.79026299e-003 -6.06137654e-003
      -3.92213371e-003 -2.88214791e-003 1.95036596e-003 7.85161741e-004
      6.35269051e-003 -1.09789555e-003 2.40975336e-004 -1.51723006e-003
      -5.97515004e-003 -3.31036048e-003 3.03750578e-003 1.54475658e-003
      1.70500192e-003 2.11460725e-003 -9.38077981e-004 -9.32864845e-004
      3.95873981e-003 -1.84058293e-003 1.42261141e-003 2.82044872e-004
      1.07806956e-003 2.43739062e-003 1.87410810e-003 1.54282304e-003
      -2.74377526e-003 4.48866922e-004 -7.36425980e-004 5.81356115e-004
      -1.17684808e-003 4.50523803e-003 -1.17923308e-003 -3.15616769e-003
      -1.69131628e-004 1.99454356e-004 1.82741042e-003 -1.23232152e-004
      -2.40455288e-003 -1.50844234e-003 -1.57020730e-003 3.67801724e-004
      3.16290767e-003 3.01997107e-003 1.74690940e-004 -6.74205192e-004
      -7.19719741e-004 3.52160353e-003 -5.09416219e-004 -2.46950600e-004
      -3.47895839e-005 1.95035455e-003 1.15875143e-003 5.02150331e-004
      -3.82845406e-004 -5.70487937e-005 -9.12210031e-004
      -2.72934115e-003 -4.02530981e-003 3.24357278e-003 1.47769169e-003
      -2.30093650e-003 -6.18321681e-003 1.67742930e-003 -1.07090548e-003
      -1.33490236e-003 6.85992301e-004 2.67126365e-003 8.50691285e-005
      2.08981615e-003 3.07901995e-003 8.83748071e-005 5.09321131e-003
      -2.54365522e-003 -3.04534798e-003 1.09180815e-004 1.04254263e-003
      4.07629600e-003 -2.37150723e-003 -2.15549534e-003 1.25752238e-004
      8.47346615e-004 1.23516715e-003 1.95397600e-003 -1.29898672e-003
      -3.34009324e-004 -2.01142393e-004 5.21090638e-004 2.53124250e-004
      1.74785079e-003 2.40614172e-003 -3.03732743e-003 -8.62835732e-004
      -1.85236509e-004 8.01114424e-004 1.63437857e-003 -3.14432371e-004
      -2.71937344e-003 -6.46731874e-004 -2.57518631e-003
      -4.51151835e-004 -3.82732903e-003 4.23387578e-003 4.74460283e-003
      -1.34712737e-003 -1.52750674e-003 7.31345906e-004 8.53079080e-004
      -1.51274589e-005 -6.44400599e-004 1.20636029e-003 -1.25673367e-003
      1.11363980e-003 -1.02952938e-004 6.17540965e-004 -2.71190284e-003
      -1.97715615e-003 -3.40323010e-003 2.82445224e-004 2.20399722e-003
      -8.71556113e-004 2.07135896e-003 -2.68549251e-004 1.74642686e-004
      1.38425326e-003 1.59754034e-003 1.44123274e-003 -4.33801068e-003
      1.93859276e-003 2.00123744e-004 4.91121318e-004 1.37420581e-003
      -1.57720782e-003 -1.42898317e-003 4.11159592e-004 1.13071210e-003
      -2.75337865e-004 -6.36240561e-003 -1.23729976e-003
      -4.54011752e-004 2.10420135e-003 1.89275667e-003 3.85615812e-003
      -6.29096385e-003 -2.44458439e-003 -2.26609851e-003
      -5.08136058e-004 7.38898700e-004 3.87074077e-004 2.91496213e-003
      -4.92826337e-004 -6.96570904e-004 5.20047906e-004 -1.35587051e-003
      6.84739964e-004 3.74693843e-003 -1.79063063e-003 -3.44836211e-004
      1.47686678e-003 2.45337054e-004 -9.86574800e-004 -7.97436398e-004
      2.15197005e-003 -1.20867579e-003 2.89528444e-003 2.33559823e-003
      1.66208032e-004 -1.24231400e-003 -8.91247124e-004 -1.64310579e-004
      5.55860111e-004 1.17702561e-003 -1.43883738e-003 -5.59283981e-005
      8.51901190e-004 -1.98767544e-003 -1.62633543e-003 2.95928144e-003
      -2.95961800e-004 9.81568941e-004 1.14950433e-003 1.83958851e-004
      2.22130422e-003 -4.08615044e-004 5.31392696e-004 -4.35048045e-004
      -1.04931160e-005 2.23030639e-003 1.18443754e-003 -1.12467923e-003
      -2.46929959e-003 1.61605619e-003 -3.72356968e-003 3.87876731e-004
      -3.90218175e-003 8.21597234e-004 -1.35298248e-003 -3.00653395e-003
      -3.71940783e-004 1.09409164e-004 2.26132409e-003 -7.18763471e-003
      -2.60853441e-003 -3.46938358e-003 -1.34493958e-003
      -5.53256599e-004 2.81238958e-004 -1.28922821e-003 3.23475944e-003
      1.29320164e-004 -1.58802868e-004 1.35433686e-003 1.07886131e-004
      7.71314488e-004 2.96907290e-003 -3.06463731e-003 -1.73481205e-003
      9.95989074e-004 -1.26478646e-003 6.39697071e-003 3.64242843e-003
      9.34253621e-005 8.64723988e-004 -9.34148498e-004 3.97774111e-003
      1.68061553e-004 1.81598787e-003 5.43099122e-005 -1.56627398e-003
      1.20172603e-003 2.37800507e-003 -2.91697797e-003 -2.98651248e-005
      2.21099518e-003 -2.36818730e-003 -1.69353711e-003 5.76099288e-003
      4.50237101e-004 2.69369618e-003 -1.42748258e-003 2.33629742e-003
      1.97168719e-003 -1.95961702e-003 2.10444164e-003 2.70847254e-003
      4.92797699e-003 3.78846610e-003 -1.74550910e-003 -7.97343018e-005
      1.43512629e-003 -2.10230748e-004 2.58127664e-004 -3.52448638e-004
      -8.37714004e-004 6.98620873e-003 -1.90934690e-004 -1.89313455e-003
      -7.33394991e-005 2.10359413e-003 -4.29106061e-004 -1.53912726e-004
      -4.73191310e-003 -2.44279229e-003 -2.19778361e-004
      -1.02878420e-003 5.82736247e-005 -7.62598007e-004 -8.13213352e-004
      -5.24076913e-003 -9.53648589e-004 -8.29665980e-004 1.22675556e-003
      -1.31370116e-003 1.07625721e-003 -9.71287768e-003 -1.99564826e-003
      -1.26100413e-003 -5.54551661e-004 1.61805307e-003 7.30529474e-003
      -2.61610700e-003 -4.80166345e-004 2.58100824e-003 -2.01768707e-004
      2.44931760e-003 3.65790853e-004 -5.01798291e-004 -2.94455653e-003
      -2.22234544e-003 9.42125451e-004 -2.71211332e-003 -9.44879313e-004
      2.47602398e-003 -1.02504122e-003 -2.76133860e-003 -2.10112846e-003
      3.00318073e-003 -1.76165404e-003 3.17162205e-003 1.91411516e-003
      -3.27533868e-004 -2.75583100e-003 5.02363837e-004 1.81756227e-003
      8.05021636e-003 -1.85537292e-003 3.05488659e-003 -8.84371402e-004
      6.84007711e-004 2.98250932e-003 1.19673205e-004 -2.32927315e-003
      -1.95706123e-003 -2.53294071e-004 -9.06418019e-004 5.15672145e-004
      1.10175682e-003 1.62665301e-003 -1.25574879e-004 3.72539762e-005
      -1.65180652e-003 -4.30956017e-003 -2.50418298e-003
      -2.64461851e-004 1.06967252e-003 -1.93430157e-003 2.68424302e-003
      -4.59932460e-004 -1.42523577e-003 -1.85680678e-004
      -1.52959384e-003 2.98633822e-003 1.33128290e-003 -5.59299439e-003
      -4.39322926e-003 -1.07161142e-003 -2.46240554e-004 6.94747921e-003
      3.75467050e-003 1.55183297e-004 -8.36723717e-004 5.45589253e-004
      1.04329330e-004 4.20001568e-003 9.46487882e-004 2.11087288e-004
      -3.59359756e-003 -7.78100337e-004 1.48762693e-003 -1.18510844e-003
      -4.87583340e-004 1.25905580e-003 -2.05973093e-003 -6.49734633e-003
      -1.95772434e-003 4.11902135e-003 -6.25527580e-004 1.57301227e-004
      3.90496431e-003 1.53010420e-003 -3.42696952e-003 1.71379256e-003
      1.77022617e-003 3.85768618e-003 -1.71462353e-003 2.74822931e-003
      -5.58611064e-004 2.12672073e-003 -1.78155967e-003 1.54354866e-003
      -8.33935803e-004 -2.96109822e-003 4.71224962e-003 2.08020979e-003
      2.73388857e-003 8.61807668e-004 9.48369678e-004 -2.00366229e-003
      -1.57113874e-003 -8.58700927e-003 -3.67695116e-003
      -4.36040689e-004 2.78835156e-004 -9.31033748e-004 -6.28443202e-004
      3.81086115e-003 2.77866238e-005 -2.61162175e-003 2.48065521e-003
      7.78248068e-004 -2.51550321e-003 9.16622463e-004 -6.97600050e-003
      -5.64462645e-003 -2.67724303e-004 -1.39335543e-003 5.19366050e-003
      6.62391493e-003 -1.87642826e-003 -1.65650458e-003 2.72398419e-003
      2.65634083e-003 2.53491942e-003 1.69671269e-003 -2.13297171e-004
      -3.35323112e-003 -3.10799427e-004 2.23613926e-003 -3.43103020e-004
      6.48745663e-006 -3.04500922e-004 -1.06119539e-003 -6.55106688e-003
      -2.05201656e-003 2.48604617e-003 9.68495558e-004 -5.11827529e-004
      1.06892176e-003 6.35206874e-004 -1.45677757e-003 6.19212515e-004
      8.18184228e-004 -4.81170224e-004 -1.44258665e-003 8.66008806e-004
      7.75856315e-004 2.98631052e-003 -1.37306389e-003 2.65319389e-003
      2.78799816e-005 -8.70834454e-004 2.69653695e-003 3.16977408e-003
      1.56099582e-003 -7.79014517e-005 1.54329406e-003 -5.77876170e-004
      2.61956849e-003 -6.92244899e-003 -1.61852804e-003 -9.61892292e-005
      -7.27295192e-005 1.61384919e-003 1.04225136e-003 1.41269283e-003
      -1.92285550e-003 -1.93342532e-003 3.76152253e-004 1.40679115e-003
      1.13938225e-003 6.74812763e-004 1.44337071e-004 -3.35522857e-003
      -1.97875360e-003 2.22156552e-004 -2.59276549e-003 -1.56488386e-003
      -7.11771194e-004 -7.54785433e-004 -1.03064180e-004
      -1.67111211e-004 2.15534703e-004 5.62820700e-004 -7.84509815e-004
      -1.95255643e-003 1.40619231e-004 1.76552031e-003 -1.04612310e-003
      -1.69076418e-004 1.32539344e-003 1.00295612e-004 -1.04723487e-003
      2.08976353e-003 -2.70044524e-003 -2.18097121e-004 -2.08275206e-003
      7.82927033e-004 2.41544418e-004 3.82755441e-003 -7.55915171e-005
      -1.51733996e-003 -7.07419729e-003 -4.39946260e-003 2.52738525e-003
      -1.31104887e-003 5.23588278e-005 -2.77015875e-004 -1.00733154e-003
      -5.07364348e-005 4.54946217e-004 4.15490940e-003 1.12663547e-004
      4.49129473e-003 6.63001483e-005 5.58406813e-004 -6.52514700e-006
      5.32187801e-003 3.74050904e-003 -4.22230223e-004 -9.05879249e-004
      -7.86961289e-004 7.09630374e-004 -1.24947948e-003 5.10936044e-003
      2.40576570e-004 2.23787082e-003 -9.44920117e-004 1.16548757e-003
      -4.05364844e-004 -1.42977398e-003 -4.69506485e-003
      -1.12824680e-004 -1.56226032e-003 -3.16355785e-004
      -3.30820656e-003 -1.38229836e-004 -1.04171457e-003 1.79976213e-003
      -1.08022511e-003 3.18050291e-003 -2.65028269e-004 3.08261631e-004
      -5.96996051e-006 2.40548560e-003 7.44130230e-004 9.01519321e-004
      -2.07734760e-003 -1.05241779e-003 4.32407425e-004 -9.08124202e-004
      -4.22851369e-003 8.29122437e-004 1.37009891e-003 7.46110687e-004
      -2.76189623e-003 2.31768563e-003 2.38544517e-003 1.60317344e-003
      -7.68507540e-004 2.58084200e-003 2.78024294e-004 2.24874078e-004
      2.10100575e-003 -1.07219885e-003 2.51937628e-004 -1.50819868e-003
      1.37825205e-003 -4.60007519e-004 7.54822453e-004 2.09324621e-003
      2.89602554e-003 3.36623634e-003 3.59643920e-004 -8.57968262e-005
      1.18833920e-003 4.75692051e-003 -3.28322873e-003 6.47601672e-004
      -5.59104607e-004 2.55478342e-004 -4.07138286e-004 -1.73485861e-003
      -6.98565564e-004 -6.13606023e-003 2.37417524e-003 -1.19113678e-003
      6.12094664e-005 -6.45710505e-004 6.65605883e-004 1.23142428e-003
      1.14681281e-003 -9.44022322e-004 -1.44866761e-004 -4.97581577e-003
      -1.03788043e-003 2.92979996e-003 -1.23247935e-003 -2.02129455e-003
      -2.20619165e-003 -4.03503096e-003 1.27565421e-004 -1.19911325e-004
      1.78007782e-003 6.95357565e-004 9.71567177e-004 -4.88141086e-004
      -5.78384206e-004 -1.86415459e-003 -2.53959768e-003
      -8.68302421e-004 2.77814106e-003 -2.45857914e-003 4.82362753e-004
      -4.20237426e-004 4.07348620e-003 -2.98478699e-004 3.38842021e-003
      1.33063481e-003 1.35120633e-003 -3.49690858e-003 -1.70531479e-004
      3.57568334e-003 1.00070436e-003 5.27081266e-003 -3.59188067e-003
      -5.68096293e-004 -2.67455558e-004 -9.26989305e-004 3.85122024e-004
      -3.31981364e-003 4.88514022e-004 -1.04374347e-004 -1.89968894e-004
      -3.11699638e-004 -7.43607176e-004 -2.45283102e-003
      -9.20607767e-004 6.55281707e-004 -6.20893901e-004 6.67586864e-004
      3.20349762e-004 2.88286805e-003 4.55365778e-004 1.59344927e-003
      5.88777359e-004 1.67647016e-003 -1.32744538e-003 1.30982907e-003
      -2.97162076e-003 -1.06418156e-003 -1.54507696e-003 8.59110209e-004
      -5.76477358e-003 1.25127565e-003 2.73222500e-003 -6.17148180e-005
      -4.04443592e-003 -3.10076773e-003 -4.10267327e-004 2.10146909e-003
      -3.36714118e-004 4.97074937e-003 -3.31069721e-004 -1.74968474e-004
      -3.57844518e-004 2.25626136e-004 -1.63615891e-003 -2.95994547e-003
      5.34416875e-004 2.10270192e-003 4.14810755e-004 2.59378256e-004
      1.59397698e-003 8.40239285e-004 1.05538219e-003 1.49502035e-003
      2.11519958e-003 2.64046341e-003 2.40457151e-003 -2.38864357e-003
      3.35985824e-004 -6.81973353e-004 -3.79915553e-004 -3.62705742e-003
      -1.74234301e-004 -1.07679307e-003 1.09670695e-003 3.48185818e-003
      1.70388848e-005 -2.21887394e-003 4.99011134e-004 1.64284743e-003
      1.71603123e-003 1.91564765e-003 -3.67495534e-003 -3.37213790e-003
      -2.39161681e-003 -1.60411335e-004 9.47682478e-004 8.34453327e-004
      2.49489048e-003 -1.90093601e-003 3.40193114e-003 2.36689928e-003
      7.53791683e-005 -2.08023912e-003 -4.29887034e-004 -8.82870634e-004
      -2.95830844e-003 -1.96993072e-003 -2.65934446e-004
      -4.44145547e-003 -1.53074270e-005 2.01584143e-003 -1.24179502e-003
      1.75968115e-003 3.99374217e-003 4.44239267e-004 -6.69915287e-004
      -3.24835419e-004 -5.41116984e-004 1.15050096e-003 -7.13525456e-004
      -1.19965419e-003 -5.90104843e-004 -3.31792608e-003
      -3.31036700e-003 1.88861031e-003 6.66351197e-003 1.20995811e-003
      2.94032111e-003 4.96688252e-003 2.92331190e-003 3.54275992e-003
      1.62499060e-003 1.77722436e-003 4.62186988e-003 9.33619682e-003
      -7.86158373e-004 2.19234335e-003 2.55434099e-003 5.60625689e-003
      -2.45445897e-003 -6.71188973e-005 -3.53006501e-004
      -2.17424985e-003 2.54133577e-003 -1.95416762e-003 3.56515113e-004
      -1.34029149e-004 2.32205237e-003 -6.74501294e-004 -4.43112775e-004
      -6.70052925e-003 -4.15131031e-003 -2.05183285e-003
      -4.44154808e-004 -2.28080622e-004 1.00097735e-003 1.81106396e-003
      -1.34391636e-002 -9.01163148e-004 1.22549152e-003 6.92981295e-004
      -2.99475808e-003 2.14122032e-004 -2.31618923e-003 -5.35543496e-003
      1.45219485e-004 -6.91847119e-004 2.64721480e-003 -7.09936896e-004
      -1.62751274e-003 -1.25256530e-003 -1.19774987e-003 2.86838668e-003
      3.18602566e-003 -8.76768609e-005 2.20098460e-004 -3.92692816e-003
      8.64940113e-004 4.36603557e-004 -1.71293691e-003 -1.25016738e-003
      -6.90210843e-003 -2.31059920e-003 -1.19954743e-003 1.21862525e-002
      6.46955892e-003 2.10584397e-003 2.61741085e-003 2.48391787e-003
      4.20893263e-003 -3.81883769e-003 4.79756622e-004 2.93004536e-003
      1.07325066e-003 -8.35896563e-003 1.92529027e-004 1.57762039e-003
      1.70077407e-003 -3.10064340e-003 -2.09898804e-003 8.04346811e-004
      -2.07222532e-004 -2.40324787e-003 -1.02842096e-002
      -1.27839259e-004 -5.84689988e-005 4.31744102e-003 -2.60977075e-004
      -3.56475590e-003 -4.02952405e-003 -6.72180066e-003
      -5.24592178e-004 -2.95170961e-004 1.33551320e-003 4.27656632e-004
      1.03006349e-003 -8.24750494e-003 -8.01365473e-004 1.62580330e-003
      4.22654644e-004 -2.06390410e-004 4.64730110e-005 -1.58944412e-003
      -2.40495102e-003 4.10684268e-004 -7.22691591e-004 9.91551019e-003
      2.50098808e-003 -9.47625784e-004 1.40880933e-003 1.03519484e-003
      4.97011235e-003 1.94150419e-003 5.08484431e-004 -6.96091971e-004
      -3.18999519e-003 3.77567572e-004 1.39158405e-003 -3.05471104e-003
      -6.18841324e-004 -2.13919161e-003 -2.20490736e-003 1.82670134e-004
      1.21304933e-004 3.76026821e-003 -8.70213189e-005 1.16823777e-003
      4.61432937e-004 6.71103364e-004 -2.78589432e-003 -1.39255065e-003
      2.70437682e-003 3.25690908e-003 1.87511765e-003 2.35416694e-003
      1.08899118e-003 8.16275424e-004 -2.07711710e-003 -1.09664851e-003
      -4.22150071e-004 -3.29861650e-003 2.29251018e-004 -7.08899414e-003
      -1.35541137e-003 -7.96394248e-004 1.14528148e-003 -1.21014100e-003
      -1.66865427e-003 8.24730145e-004 -2.88322987e-003 -1.06678787e-003
      7.44921908e-006 3.24421417e-004 -1.10804441e-003 6.86032977e-003
