<?xml version="1.0"?>
<opencv_storage>
<opencv_ml_svm>
  <format>3</format>
  <svmType>C_SVC</svmType>
  <kernel>
    <type>LINEAR</type></kernel>
  <C>5.9999999999999998e-001</C>
  <term_criteria><iterations>10000000</iterations></term_criteria>
  <var_count>7552</var_count>
  <class_count>2</class_count>
  <class_labels type_id="opencv-matrix">
    <rows>2</rows>
    <cols>1</cols>
    <dt>i</dt>
    <data>
      -1 1</data></class_labels>
  <sv_total>1</sv_total>
  <support_vectors>
    <_>
      -3.38695361e-003 1.05473190e-003 -3.46541358e-003 -1.23969265e-004
      3.24028218e-003 -1.19853113e-003 -1.93566608e-003 -1.29770441e-003
      -1.95679325e-003 -2.38714507e-003 -5.06867049e-003
      -1.09769020e-003 -3.72298504e-003 9.82436934e-004 -7.71181146e-003
      2.55081127e-003 1.05107483e-003 -6.25481596e-004 -1.98874180e-003
      -3.42728617e-003 9.64406587e-004 -2.89628399e-004 6.68449502e-004
      1.52068341e-003 1.84434978e-003 1.31696917e-003 2.37152544e-005
      8.68540723e-004 -3.10211093e-004 -1.46542268e-003 2.39381305e-004
      -2.26973929e-003 -5.34122763e-003 3.45728989e-003 -3.40056053e-004
      3.37378937e-004 1.16204971e-003 7.46097183e-004 2.67128972e-003
      6.31879491e-004 1.24972151e-003 -3.26993359e-005 7.41967699e-003
      6.77849492e-003 -8.59242165e-004 1.61132819e-004 4.54813708e-004
      5.87663893e-003 -3.16795195e-004 -6.87507156e-004 5.63195499e-004
      2.65100622e-004 5.26331016e-004 -2.07741134e-004 -1.04100625e-004
      -5.72475488e-004 1.20795390e-003 -7.61305389e-004 3.11811757e-003
      -5.06997015e-003 4.26679570e-003 -1.39273843e-003 1.10402831e-003
      1.56680250e-003 4.63884819e-004 -1.76571123e-003 1.41082768e-004
      2.88964249e-003 -2.85144546e-003 4.12089564e-003 -3.14160017e-004
      6.82881509e-004 1.82585209e-003 -1.81348319e-003 2.57769343e-003
      -3.54159623e-003 -3.73492902e-003 -2.11890391e-003
      -8.82101152e-003 1.86975475e-003 -2.07695455e-004 -1.57500617e-003
      -1.39306765e-003 1.20216387e-003 8.02226074e-004 -1.00113277e-003
      6.81439007e-004 2.84508831e-004 6.80611236e-004 -1.44665281e-003
      -4.71112831e-003 -4.67024883e-003 4.75448760e-004 -5.67409443e-005
      1.62601867e-003 1.55468122e-003 2.06581186e-004 -9.11151175e-004
      -8.07697303e-004 6.37625053e-004 5.33899220e-005 4.30415571e-003
      -5.67143259e-004 2.25364743e-003 -1.21147884e-003 2.31798948e-003
      4.51185042e-003 -4.84986900e-004 6.93717157e-004 4.91159211e-004
      -2.90710526e-003 -2.70312186e-004 1.04211329e-003 3.62944382e-004
      5.25811811e-006 1.12179667e-003 1.62731612e-003 5.19954180e-003
      6.22488151e-004 -8.60817265e-004 -2.54199927e-004 -3.91024444e-003
      9.56158736e-004 -1.36604183e-003 -1.35322625e-003 5.38931461e-004
      1.53006869e-003 -1.09676381e-004 -1.54006339e-004 -2.08342727e-003
      1.09670660e-003 6.26716856e-003 -7.06660375e-003 3.41664068e-003
      -2.10961024e-003 -3.22146108e-003 -4.30834625e-004 2.68357317e-003
      4.93096095e-003 8.06463708e-004 -8.67102994e-004 1.38210133e-003
      3.32035753e-003 -3.50321236e-004 -8.08484183e-005 9.19117767e-004
      -1.90495746e-004 -1.03924342e-003 -1.74472108e-003
      -4.60007228e-003 -6.23636087e-003 -1.81976473e-004
      -6.39921709e-005 3.70653375e-004 -8.99881998e-004 3.21829546e-004
      1.88300051e-004 -3.11293080e-003 -1.59913092e-003 3.91024339e-004
      2.29084073e-003 4.68216836e-004 2.11491948e-003 2.76438805e-004
      7.03543890e-004 6.14659674e-003 -3.20485933e-003 1.61041782e-004
      -3.79140751e-004 -9.74582392e-004 -2.33285245e-004 2.03751470e-003
      -5.11132355e-004 6.98738557e-004 2.18708906e-003 1.75123758e-004
      2.18761945e-003 -8.02664435e-004 -1.28377602e-003 -1.03934656e-003
      -1.55374012e-003 1.41384371e-003 2.67592398e-003 4.16974165e-003
      -1.06147642e-003 3.04127531e-003 -2.72388291e-003 -2.68520904e-003
      2.32874253e-003 -6.24077336e-004 -1.04605709e-003 -3.89924878e-003
      4.22005635e-003 -6.75122428e-004 -9.99333570e-004 -2.81347521e-003
      -2.21313885e-003 -1.75987568e-003 9.78774391e-004 -1.71243830e-003
      -1.23726716e-003 2.19272124e-003 -2.76639103e-003 -3.46216490e-003
      -4.31935681e-004 7.15758069e-005 -8.65235168e-004 -1.93031144e-003
      -2.70825834e-003 -1.31359920e-004 2.96259881e-003 -9.51218244e-004
      2.12247577e-003 -8.12191982e-004 6.68664346e-004 2.03486648e-004
      -1.53473136e-003 -1.16856812e-004 -2.36017775e-004 1.01668818e-003
      4.24294500e-003 7.99853879e-004 5.01038623e-004 1.03480043e-003
      5.45977335e-003 -1.19183573e-003 1.10733788e-003 -6.02988235e-004
      1.99482241e-003 -3.05650872e-004 1.30660122e-003 -1.80490708e-004
      8.60448927e-005 1.08065375e-003 -2.14118845e-004 8.91446776e-004
      -2.34552170e-003 2.92390888e-003 -2.81725568e-003 -1.53713871e-003
      2.37296266e-003 -8.91741191e-004 4.10681963e-003 -1.61089221e-004
      -2.38450360e-003 -3.96477059e-003 -8.95692676e-004 2.50775804e-004
      -2.05572415e-003 2.84918980e-003 -2.51541869e-003 3.69783188e-003
      2.16280896e-004 -3.46535956e-003 -3.28566902e-003 -2.68085604e-003
      5.45879942e-004 8.74186109e-004 7.99333735e-004 -1.51500094e-003
      1.32789370e-004 -1.88231235e-003 -3.62804369e-003 1.09393219e-003
      -1.02972372e-004 -2.86655175e-003 -2.01781467e-003
      -3.16670118e-003 2.89312028e-003 5.18841436e-003 6.83525694e-004
      7.52996420e-004 -4.88557678e-004 4.93182924e-005 -2.04264093e-003
      -1.65985327e-003 1.43860211e-003 -2.41535497e-004 9.37856443e-004
      2.43927981e-003 1.23735657e-003 2.87482981e-003 1.16824638e-003
      3.47562507e-003 -1.88166276e-004 1.11915136e-003 7.47995975e-004
      9.73242626e-004 1.86866891e-004 7.07775820e-004 -4.92724415e-004
      5.46234020e-004 -7.09537300e-004 -1.17340451e-003 3.89222917e-003
      -4.76322748e-004 1.91577291e-003 -4.02205810e-003 -9.29182745e-004
      2.45372852e-004 -3.51383351e-005 -4.74889966e-004 1.42830343e-003
      1.64199877e-003 -4.12223348e-003 -1.65105448e-003 2.66133924e-003
      -2.04057619e-003 -1.19811704e-003 -1.20985915e-003 2.87441025e-003
      1.11538183e-003 -8.24378803e-004 -2.30288040e-003 -4.94169770e-004
      1.50402635e-003 2.15165301e-006 -9.83572798e-004 -2.26621260e-003
      -2.77644792e-003 2.17590248e-003 1.85113910e-004 1.22161023e-003
      1.36902745e-005 -8.95467994e-004 -3.89203639e-003 -3.59553797e-003
      1.04378654e-004 2.42324872e-003 -3.93211812e-005 1.23483874e-003
      -1.30508048e-003 -1.85497018e-004 6.91941613e-003 3.02452827e-004
      1.08463841e-003 -6.30797993e-004 -3.05531407e-003 -3.99772078e-003
      -3.77447810e-004 6.16278383e-004 1.35937997e-003 1.07622752e-003
      -1.22232968e-003 1.57277507e-003 1.04868763e-004 3.34158214e-003
      2.18974325e-004 -6.84592407e-004 9.91196372e-004 -6.23078668e-004
      -6.50258386e-004 1.42905326e-003 7.19719147e-003 2.00451794e-003
      1.50651229e-003 6.28187321e-004 -2.93135713e-003 3.01295263e-003
      4.24275262e-004 -5.80636901e-004 -1.00329646e-003 -9.71968344e-004
      -3.35950986e-004 1.82188454e-003 -3.96719879e-005 1.96056091e-003
      -3.03541368e-004 -2.66207615e-003 2.18095956e-003 -9.39041434e-004
      -4.80372721e-004 -3.80236283e-003 -1.45425508e-003 1.66821410e-004
      2.36777123e-003 8.28638847e-004 -1.24584395e-003 1.59324380e-003
      1.33938284e-003 2.66372488e-004 1.83046985e-004 9.96583258e-004
      -1.00143661e-003 -6.68429886e-004 -2.05595046e-003
      -5.17391274e-003 1.65692752e-003 2.73376331e-003 1.21937587e-003
      7.09302403e-005 -1.99897727e-003 -2.61362433e-003 -5.62140020e-003
      -1.01747003e-003 -4.45799815e-005 -4.50326176e-003
      -2.97060958e-003 1.70263567e-003 -2.36381398e-004 3.23459157e-003
      4.64786775e-003 -2.90426123e-003 -6.13776559e-004 -1.89141254e-004
      1.51751691e-003 -6.09419192e-004 5.95603080e-004 1.11696089e-003
      9.05751003e-005 2.64970679e-003 3.95391136e-004 6.05945103e-003
      -2.17849249e-003 5.74940874e-004 -2.00306458e-004 -2.02203542e-003
      2.77209631e-003 8.88658920e-004 -1.99566828e-003 -2.16489681e-003
      -1.03942363e-003 -1.12928124e-003 -1.89209022e-004 1.15774618e-003
      -1.00433384e-003 -2.62134662e-003 8.82209395e-004 1.69035303e-003
      -4.43308294e-004 -1.38127443e-003 3.70664638e-005 1.53206056e-004
      6.40473794e-004 -4.92179068e-004 7.66978250e-004 -2.04526493e-003
      -6.28066657e-004 2.39053299e-003 1.12300785e-003 -4.48002771e-004
      -2.13046646e-004 -7.27340230e-004 -2.60874769e-003
      -3.01346928e-003 3.51862604e-004 -4.54132125e-004 1.86920888e-003
      1.59244600e-003 -1.29488052e-003 -6.74126728e-004 1.47291052e-003
      3.45426006e-003 -7.86822147e-006 -2.35788189e-004 -3.15798819e-003
      4.37559979e-003 -1.69915869e-003 -1.16261677e-003 4.88235528e-004
      2.25313997e-004 -1.60676136e-003 6.16347825e-004 -2.43179791e-004
      -1.72049928e-004 7.74857996e-004 -8.80258798e-004 7.59052637e-005
      5.74627411e-005 2.66466115e-004 1.77434401e-003 7.66201131e-003
      -3.64750740e-003 9.46480839e-004 -3.42854328e-004 -2.02294183e-003
      3.26327397e-003 1.82607022e-004 2.37706117e-003 1.48734602e-003
      3.35308653e-003 4.39407816e-003 4.40777512e-003 -2.39633862e-003
      1.07476930e-003 5.46993804e-004 -2.28597457e-003 -1.71545672e-003
      -2.11518584e-003 -9.67442465e-004 -1.18066200e-004
      -1.16032304e-003 -7.33660010e-004 7.27112929e-005 3.41050589e-004
      -2.07055593e-004 -1.50302239e-003 7.02250574e-004 -1.01267430e-003
      7.60869181e-004 2.44264957e-004 -9.32331022e-004 -2.65056337e-003
      -3.77983460e-003 2.39860243e-003 5.32107486e-004 -4.19204851e-004
      5.70446427e-004 1.60339719e-003 9.17497731e-004 -2.31483631e-004
      1.50404195e-003 9.58505610e-004 3.87195294e-004 -2.25187233e-003
      -9.30059119e-004 -4.51241882e-004 -1.17992412e-003 2.90850690e-003
      -9.15676181e-004 -1.24055555e-003 7.00286939e-004 -4.81617390e-005
      1.32371637e-003 -6.95892784e-004 -6.28388254e-004 -2.70245684e-004
      -1.44136269e-004 8.40276596e-004 -2.55234051e-003 7.51215906e-004
      1.76865095e-003 8.48255935e-004 -1.51034479e-003 4.76462119e-005
      8.01057147e-004 2.33732793e-003 -1.27346918e-003 4.56618174e-004
      8.75186059e-004 6.97091687e-003 3.51329357e-003 3.25923756e-004
      -6.39286241e-004 -4.82475664e-003 -1.14039797e-003 2.51906621e-003
      -2.38547684e-003 -9.03712993e-004 -2.04603799e-004
      -1.40082696e-003 -1.13782578e-003 8.86294467e-004 4.57541988e-004
      3.69338522e-004 2.04776460e-003 7.57878460e-003 -2.43075448e-003
      -1.59114029e-003 -6.00301544e-004 -1.43710035e-003
      -1.95370498e-003 -2.40391563e-003 2.32608974e-004 -3.06980987e-003
      -2.03376811e-004 2.59481161e-003 -1.47517433e-003 -3.39437113e-003
      -4.24624700e-003 7.45004567e-004 1.09169539e-003 -3.46891349e-004
      1.37258542e-003 -3.21747590e-004 -2.50772829e-003 -9.63411294e-004
      3.69985285e-003 4.40844148e-003 -1.17661979e-003 -1.46230031e-003
      2.31635582e-004 5.18294517e-004 -2.14761100e-003 1.53311167e-003
      -2.20808503e-003 -8.16887245e-004 -1.53709407e-004
      -5.71476645e-004 2.67135631e-003 5.30783844e-004 1.25464355e-003
      -2.28892532e-004 -3.78227048e-003 4.19740658e-003 -5.34643732e-005
      -9.78885684e-004 1.19114167e-003 3.11742350e-003 6.44566352e-003
      1.03136711e-003 -4.01307968e-003 -6.03911525e-004 -4.70293034e-003
      -1.47062715e-003 1.20972865e-003 -2.94163037e-004 -1.08097703e-003
      5.43526653e-003 -5.20953583e-003 1.64112411e-004 1.31359010e-003
      1.35587458e-003 -1.28060195e-003 -2.21422547e-003 4.10906458e-003
      -1.45185168e-003 1.21681325e-004 -1.14486460e-003 -5.76323982e-005
      7.50688545e-004 2.42604245e-003 1.96769624e-003 -1.35489961e-003
      -5.22628427e-004 1.45328348e-003 -3.31711897e-004 1.84742431e-003
      1.76857377e-003 -2.07485911e-003 -1.57206669e-004 -6.48146888e-005
      -5.91440825e-004 -1.28392770e-003 -6.06988731e-004
      -4.57699527e-004 -1.49734993e-003 -1.42550014e-003
      -2.15326378e-004 8.53465579e-004 -4.05335100e-004 7.66944722e-004
      -2.25037476e-003 1.51624356e-003 -1.94510189e-003 -2.30768594e-004
      -2.35192780e-003 4.57142654e-004 1.05052209e-003 -2.16912292e-003
      7.62524141e-004 2.67736235e-004 -6.50249247e-004 5.01055736e-003
      6.22730237e-004 -2.44072562e-005 -1.52132742e-003 1.05664344e-003
      6.41662395e-003 -4.04053321e-003 -1.84233859e-003 2.99619114e-005
      -1.46072672e-003 -5.82014769e-003 1.42515684e-003 1.59557560e-003
      2.14383681e-003 4.63007810e-003 -4.72472003e-003 1.92542479e-003
      1.10789653e-004 2.36236653e-003 2.77960114e-003 4.32626344e-003
      7.99406879e-003 1.48309732e-003 -3.16023565e-004 -3.40277882e-004
      1.08040147e-003 -4.21413715e-004 -2.83673010e-003 -3.36308335e-003
      -1.24758389e-003 -6.40889048e-004 2.19465583e-003 7.84603588e-004
      6.81771315e-004 2.10245000e-003 -3.65066598e-003 -1.73488166e-003
      -3.91988055e-004 -1.66470394e-003 -1.78535504e-003
      -1.93606678e-003 -1.91377738e-004 -2.23343633e-003 4.87048033e-004
      -7.52651322e-005 1.09584711e-004 -5.06641576e-004 -7.44403049e-004
      -7.87079858e-004 2.00202790e-004 -1.41054054e-003 -1.89669867e-004
      -5.38843172e-003 -3.44174099e-004 1.87050283e-003 3.51781305e-003
      -9.25471522e-009 -7.11055123e-004 -2.58012628e-003 1.27730612e-003
      -3.41622042e-004 -2.14141584e-003 1.25428848e-003 1.57459790e-003
      3.16257845e-003 -4.67040855e-003 1.48170255e-003 -3.53203708e-004
      -3.11981444e-003 -5.95430192e-003 3.58222111e-004 -6.80232828e-004
      -2.86655873e-003 -1.26369158e-003 -3.20170773e-003 1.62429269e-003
      6.88655826e-004 -4.82127769e-004 2.71969562e-004 -3.71110602e-003
      5.34094777e-003 5.80317457e-004 -1.43393956e-003 -2.65731040e-004
      -7.93282990e-004 -3.43014346e-003 2.04468868e-003 -5.41780493e-004
      3.68904462e-003 1.67857518e-003 -2.50242942e-006 1.07300491e-003
      -9.24592488e-004 8.49285629e-003 -9.48554487e-004 5.70173783e-004
      4.86128847e-004 -1.57779700e-003 4.00634890e-004 1.72778917e-003
      9.78129799e-004 -6.79687131e-004 -1.27605572e-005 2.24946067e-003
      8.71192024e-004 -4.28034196e-004 2.81733274e-003 8.00999172e-004
      1.34822528e-003 -1.68264983e-003 -4.76033922e-004 -1.42664323e-003
      -5.32140839e-004 -3.12727224e-003 4.47067898e-003 4.47613595e-004
      2.03833493e-004 -2.33764597e-003 6.80834710e-005 2.15091952e-003
      3.85489926e-004 -7.74538959e-004 4.45925491e-003 4.63533029e-003
      -1.03946344e-003 8.96646990e-004 6.13715732e-004 -1.81282673e-003
      -9.48655605e-003 4.82682604e-003 1.42270862e-003 -9.83328559e-004
      1.47125544e-003 4.91009967e-004 3.51170520e-003 -1.01286196e-003
      -1.70758431e-004 -1.08415254e-004 -3.10147094e-004 2.01609614e-003
      1.16576790e-003 -7.96297449e-004 -3.51039460e-004 -1.16893684e-003
      -1.69153942e-003 -2.89398129e-003 -4.80882498e-003
      -4.07043612e-003 6.40668732e-004 1.64632371e-003 3.26202600e-003
      1.57131068e-003 8.79033189e-003 -2.24859384e-003 8.19032139e-004
      9.52105984e-005 -2.26607011e-003 5.98734070e-004 -2.28146743e-003
      -2.40987679e-003 -3.26581695e-003 -4.17447853e-004 4.77835449e-004
      2.03763178e-004 -3.40905448e-004 -8.87708447e-004 -6.42617815e-004
      1.93246396e-003 -2.58580758e-003 -2.36558219e-004 -4.38405667e-003
      -1.36434246e-004 2.64632283e-003 3.34643922e-003 -2.72088801e-003
      9.37411329e-004 -2.07568752e-003 4.52306541e-003 2.33278936e-003
      -1.31487218e-003 1.07036729e-003 1.82725722e-003 1.41913618e-003
      -1.43799381e-002 4.15695645e-003 2.19811429e-003 3.60177597e-003
      -3.99861252e-003 4.18257061e-003 1.52329600e-003 1.92443072e-003
      -4.28692298e-003 -2.68659228e-003 -1.44465434e-004 2.17060151e-004
      9.73309681e-004 2.09449604e-003 4.17796604e-004 1.79609191e-003
      -2.52124993e-003 -1.29509484e-003 -1.98153997e-004
      -1.56549923e-003 -3.95685155e-003 -3.51522956e-003
      -1.64548168e-003 -2.89513264e-004 1.21052936e-003 6.26691151e-004
      -6.62573893e-006 -3.79003322e-004 1.98858068e-003 -2.64907465e-003
      9.59873607e-004 -6.17385667e-004 -7.41214084e-004 1.37899560e-003
      6.15063938e-004 -4.31919907e-004 -3.78416572e-003 4.83649410e-003
      -1.66316004e-003 2.75348517e-004 2.61124311e-004 2.69675947e-004
      -2.49257282e-004 1.56232936e-003 1.34047586e-003 5.74339138e-005
      -1.52968545e-003 2.89486139e-004 4.43207799e-003 -4.15177637e-004
      -2.39822475e-004 -8.09592137e-004 -3.03715747e-003
      -3.46159306e-003 1.46202662e-003 9.59404861e-004 -9.42716608e-004
      4.33533205e-005 1.60580350e-003 -1.99813768e-003 6.33939169e-004
      -1.29046501e-003 4.87074489e-004 -4.39014839e-005 2.07672664e-003
      -9.91033739e-004 -4.77202353e-004 -1.95649103e-003
      -2.97119911e-003 2.60292203e-003 4.32637789e-005 4.65281657e-004
      2.61018542e-003 4.66441223e-003 4.60040849e-003 -1.51699956e-003
      -1.05496263e-003 2.38528490e-004 -1.10935334e-005 -2.37232004e-003
      -2.32510990e-003 3.56743345e-004 2.91200983e-003 9.90232453e-004
      -5.55553939e-004 6.95829629e-004 -9.26820561e-004 5.05164405e-003
      1.67835868e-004 1.75246401e-004 2.20652102e-004 -7.23311584e-003
      -1.80170150e-003 -1.21475465e-003 -1.33442506e-003
      -1.12228771e-003 6.46596868e-003 -9.55901865e-004 1.47061612e-004
      -7.78064714e-004 2.12556077e-003 2.52168888e-004 -5.56437357e-004
      -2.12358762e-004 -3.34601937e-004 -3.61607410e-004
      -4.21153702e-004 1.66947581e-003 -1.14354290e-004 -1.50206639e-003
      -7.86415068e-004 -7.53174652e-004 1.83389895e-003 2.87317671e-003
      2.14391667e-003 -1.03983434e-003 1.93411682e-003 3.13309557e-003
      -1.25950726e-003 -3.80419428e-004 -6.28529524e-004 3.80528928e-003
      1.37336750e-003 -2.24513351e-003 -2.39096908e-003 3.06567352e-004
      1.81238842e-003 3.44496570e-003 1.63369870e-003 1.18450529e-003
      -5.07148025e-006 -1.85418455e-003 -2.25258316e-003
      -3.91748594e-003 1.52685517e-003 -4.45161626e-004 -4.92369873e-005
      9.76403884e-004 -3.92264873e-003 -3.67258186e-003 6.49675028e-004
      -1.66222872e-003 -7.46993115e-004 6.61942991e-004 -2.97355902e-004
      -2.08642072e-004 4.11688071e-003 -1.40235131e-003 -4.38799965e-004
      -3.11664306e-004 2.24042451e-003 -4.31973487e-003 3.75354051e-004
      4.81226569e-004 -1.65938085e-003 3.69014405e-003 2.82638270e-004
      1.14701397e-003 3.61805694e-004 -8.03109084e-004 -4.60497120e-007
      -4.94511216e-004 9.58317192e-004 -3.68028937e-004 2.62454851e-003
      -2.93828011e-003 -2.70131859e-003 -1.48385670e-003
      -8.31602025e-004 -7.83182797e-004 -2.03577988e-003 5.96373575e-004
      -3.08835064e-004 -2.98430584e-003 -9.60284611e-004 3.23166139e-003
      -4.50277061e-004 2.47514341e-004 3.46743793e-004 1.06302078e-003
      2.88935076e-003 -4.15307208e-004 -2.64448230e-004 -1.82600153e-004
      -4.28474043e-004 2.18962063e-003 6.15393103e-004 -1.52543827e-004
      -1.30017567e-003 -1.28782936e-003 8.59243562e-004 -2.83760997e-003
      -5.78891078e-004 4.80046234e-004 -1.12100120e-003 -1.52762179e-004
      -4.23475431e-004 1.09822757e-003 -1.10729248e-003 4.42213891e-003
      2.73814867e-003 -2.06961180e-004 1.64821534e-003 2.48485198e-003
      -2.23204959e-003 1.08944171e-003 -4.36268543e-004 1.05512002e-003
      -3.36165773e-004 -7.24264840e-003 -2.43374705e-003
      -1.32534580e-004 8.02490627e-004 5.04744297e-004 4.03769780e-003
      -1.00102590e-003 8.39885848e-004 6.59009558e-004 -1.68754137e-004
      -9.21120445e-005 1.62427768e-003 -6.47820998e-004 -9.91729321e-004
      -8.05172895e-005 -9.27146466e-004 1.49679824e-003 4.52236319e-003
      -1.74376264e-003 -7.69010978e-004 -8.63707275e-004 2.63126427e-003
      -7.53864646e-004 2.34827376e-003 2.05646691e-004 1.48067284e-005
      3.68996989e-003 -3.68671142e-003 -1.98998605e-003 -2.59630661e-003
      -1.31976244e-003 6.10772008e-003 4.03350033e-003 -7.75074121e-004
      1.28568849e-003 2.74559692e-003 -3.70885152e-003 1.25159090e-003
      8.88139533e-004 2.34597246e-003 1.76345260e-004 -8.13331804e-004
      -2.27599498e-003 -1.18241168e-003 -1.38277654e-003 8.81185057e-004
      -8.52515572e-004 -1.54612004e-003 -1.11753994e-003 4.86161793e-003
      1.60937512e-003 2.67397985e-003 1.88212271e-003 -1.68863905e-003
      5.66047129e-005 -4.01984155e-003 -2.73058168e-003 5.49415345e-005
      -5.67587442e-004 -1.45668560e-003 3.11481743e-003 2.05727629e-004
      -1.40453805e-003 8.50028242e-004 -1.60801539e-003 6.10015239e-004
      2.18368004e-004 -2.92416633e-004 -3.54400207e-003 -2.37270942e-004
      -9.86674568e-004 -1.92349049e-004 -4.56263602e-004 8.58290063e-004
      -2.60217045e-003 -9.59187804e-004 2.84008891e-003 -6.81376609e-004
      -9.24286549e-004 -2.31434475e-003 4.32823971e-003 3.12863244e-003
      -2.69151595e-003 1.64126838e-003 4.25627176e-003 2.85437726e-003
      -9.49562585e-004 6.91694077e-005 -1.83198729e-003 4.54618683e-004
      -2.09112116e-003 -9.62761289e-004 6.82882266e-004 2.16050725e-003
      -1.68026367e-003 -7.35046109e-004 1.90512114e-003 5.94051031e-004
      8.58227490e-004 -1.88732205e-003 -3.13670724e-003 -4.30078449e-004
      -2.87840748e-003 -2.73254979e-003 -5.36986976e-004
      -1.21016428e-003 -1.40235154e-003 3.75480158e-003 6.32613897e-003
      4.35906183e-003 8.42742797e-004 3.11990408e-003 -5.25445619e-004
      -4.32917662e-003 -7.22798426e-003 -4.97374393e-004
      -4.00376011e-004 7.11127592e-004 7.27991154e-003 -2.27244222e-003
      -2.33554211e-003 1.07286160e-003 1.32731418e-003 -3.94917617e-004
      -7.31031294e-004 -6.85600273e-004 -5.22837567e-004
      -2.35945382e-003 -1.74322433e-003 -2.78682681e-004
      -1.05199008e-003 -6.36035285e-004 -1.99675880e-004
      -1.05855276e-003 1.75985659e-003 8.82142223e-003 4.71208885e-004
      1.76317943e-003 -9.74789611e-004 4.22988273e-003 3.66119924e-003
      -2.89462949e-003 -1.25749721e-004 3.00399913e-003 2.17974372e-003
      3.32419993e-003 1.79873756e-003 1.14433200e-003 -1.25151651e-004
      1.78763259e-003 1.99591951e-003 2.16878252e-003 1.11872959e-003
      -1.45245879e-003 -4.45118081e-003 7.35594018e-004 5.19728346e-004
      2.03905976e-003 -1.15844108e-004 1.11399719e-003 -5.88535157e-004
      -3.16163595e-003 -1.86969247e-003 4.91931532e-005 1.30369817e-003
      -2.16590939e-003 -6.54789666e-003 4.92186169e-004 5.59210603e-004
      3.09563766e-004 2.77583580e-003 -1.33570016e-003 -4.98309592e-003
      -3.05327005e-003 -3.00701102e-003 -1.87333324e-003
      -1.22847181e-004 2.31183507e-003 -6.42438512e-003 -2.77783582e-003
      -2.36751209e-003 8.35769693e-004 3.03101988e-004 -1.49414001e-003
      9.63911531e-004 -6.63358776e-004 -1.33678026e-004 2.97804014e-004
      1.64778053e-003 -3.22415290e-004 -4.79855895e-004 -1.19580291e-004
      -1.50857447e-003 1.41282903e-003 8.33680108e-003 1.83630589e-004
      -1.42015598e-003 -3.91473848e-004 2.87568872e-003 1.94743625e-003
      5.11630788e-004 5.78889390e-004 2.05722265e-003 8.86730291e-003
      1.61076162e-003 3.10023106e-003 -8.76167964e-004 -2.09711655e-003
      -8.54844879e-003 -3.06531624e-003 1.38320483e-003 8.81319138e-005
      -3.88024549e-004 -2.57436372e-003 -1.59731484e-003
      -4.13905713e-004 -9.70065244e-004 1.50620646e-004 2.31564045e-003
      -1.83690141e-003 -1.42249535e-003 1.49500003e-004 4.48140403e-004
      5.04736381e-005 -1.56755873e-003 -3.82972951e-003 -1.41424069e-003
      7.19436852e-004 -7.61084317e-004 1.26992480e-003 1.41096825e-003
      -4.89370525e-003 1.99987553e-003 2.76964228e-003 2.90437572e-004
      -3.69727873e-004 5.72157791e-004 -3.84573964e-003 -9.59922909e-004
      2.97856808e-004 -3.42813134e-003 3.49981198e-003 1.19043048e-003
      1.94348709e-003 -1.96179128e-004 1.02867151e-003 3.20509571e-005
      7.61653646e-004 -9.24170134e-004 2.25164604e-005 -2.39591906e-003
      9.09509661e-004 -3.18588037e-003 3.02175828e-003 -3.35252564e-003
      -7.29333435e-004 -1.39406847e-003 1.94297661e-003 3.25186714e-003
      -2.17037881e-003 2.02781102e-003 4.20129998e-003 1.77234272e-003
      7.53758708e-004 -1.66368193e-003 -7.69703242e-004 -2.80475221e-003
      2.05352510e-004 -8.50823562e-005 -7.31084787e-004 6.12306991e-004
      2.09406787e-003 -9.97946248e-004 -2.25379350e-004 2.40755663e-003
      3.27967253e-004 9.06957372e-004 -2.07890334e-004 -6.40091079e-004
      1.43125316e-003 5.90701384e-005 5.96884172e-004 1.31749082e-004
      -2.47512315e-003 -4.62089665e-003 1.12406946e-004 7.56844413e-004
      2.45046010e-003 2.28525884e-003 9.47903551e-004 3.45598004e-004
      -3.52800987e-003 -3.92336678e-003 -1.14265445e-003
      -1.01556972e-004 3.55488248e-003 2.54418468e-003 -1.25646242e-003
      -1.32703851e-003 -2.57789367e-003 1.19297823e-003 3.47438909e-004
      1.61540136e-003 1.44275356e-004 3.39963590e-003 -1.17500592e-003
      -3.13960511e-004 1.12329915e-004 -3.27170914e-004 -1.21158396e-003
      -1.12443266e-003 -4.67750430e-003 -2.73117400e-003
      -2.07645423e-003 1.48565962e-003 -1.48474029e-003 3.50654498e-003
      2.46619014e-003 3.09430156e-003 1.97951653e-004 -6.79588411e-004
      6.79794094e-003 3.15938191e-003 -2.54537608e-003 1.25745742e-003
      2.33578007e-003 -9.91907204e-004 -2.73680966e-003 1.00369670e-003
      -3.10903345e-003 -2.09788443e-003 3.27271735e-003 2.73185619e-003
      5.17429493e-004 1.03101262e-003 2.14374901e-004 6.38486745e-005
      -3.99823859e-003 -1.36808690e-003 -2.57969135e-003 2.87361501e-004
      1.37441413e-004 -1.19382399e-003 2.33381346e-004 6.97004507e-005
      1.79676688e-003 -2.79666623e-004 1.29293592e-003 3.98418459e-004
      -1.65909401e-003 -2.21049995e-003 -1.92548218e-003
      -4.05692204e-004 1.55816233e-004 1.73262542e-003 2.83756643e-003
      4.33208235e-003 -3.70812573e-004 -3.07843182e-003 -1.44655164e-003
      1.24844582e-005 2.78122781e-004 -6.38837984e-004 1.38071645e-003
      -6.68933499e-004 1.29608857e-003 2.06278302e-004 -1.15177897e-003
      -3.84478876e-003 -1.77846802e-003 -2.53208471e-003
      -1.19182921e-003 5.93577046e-004 -1.75065408e-003 1.21922849e-003
      -3.82205675e-004 2.30202073e-004 -1.40670454e-003 8.10383121e-004
      2.67435191e-003 1.64296839e-003 2.01378041e-003 9.48039407e-004
      -1.22028100e-003 -3.83902399e-004 -7.74247339e-003
      -2.76288856e-003 7.43987970e-004 5.43137372e-004 -1.76840101e-003
      1.27161632e-003 -1.25979097e-003 6.70327281e-004 1.62025762e-003
      3.60465911e-003 2.01232778e-003 -1.09690614e-003 -1.03430531e-003
      7.57595466e-004 -5.53320104e-004 -3.11155949e-004 -1.13436882e-003
      -3.69551009e-003 6.03207445e-004 -6.21480518e-004 -2.65429335e-005
      -1.90739418e-004 1.76498119e-003 5.97797218e-004 5.53185353e-004
      -1.52192719e-003 -3.86820728e-004 -6.80335681e-004 6.18272054e-004
      -4.29102778e-003 5.95696387e-004 3.03688168e-004 -1.22024585e-003
      3.44547676e-004 8.21720518e-004 9.31757269e-004 3.26243258e-004
      1.83910970e-003 1.15492381e-003 2.29277255e-004 9.21836297e-004
      3.26112262e-004 -1.57722249e-003 -1.12461613e-003 6.04686048e-003
      3.55996774e-003 -1.67560508e-003 4.11286775e-004 -1.15513126e-003
      1.41557585e-003 -8.13613529e-004 2.09806440e-003 8.78694293e-004
      5.15479734e-003 3.75811593e-003 2.80732336e-003 -1.00578950e-003
      1.86675438e-003 -8.22869828e-004 -5.24787174e-004 -5.40216744e-004
      6.40344981e-004 1.34160824e-003 5.51611697e-003 -1.38078805e-003
      -2.90828547e-003 9.57921566e-006 1.89348590e-003 -5.47703821e-004
      2.67905532e-003 -5.70692262e-003 -2.10355455e-003 -7.43595825e-004
      -2.01149305e-004 5.58417640e-004 9.58017539e-004 -2.86984548e-004
      -3.96938500e-004 -2.44060368e-003 -4.90546459e-004
      -6.92181871e-004 1.70592894e-003 5.12315950e-004 -5.64248592e-004
      -4.75584669e-003 -5.19284862e-004 -1.16042720e-004
      -1.29853725e-003 2.71857512e-004 1.62875932e-003 -1.18317606e-003
      -9.65879066e-004 -3.59168462e-003 2.65027885e-003 5.59017062e-004
      -4.72481042e-004 1.67860044e-003 1.89077714e-003 -7.98785622e-005
      -1.29250839e-004 -4.10896027e-004 -1.40897813e-003
      -2.71032192e-003 -3.80096678e-003 4.04387573e-003 1.42271211e-003
      4.84566845e-004 1.75204405e-004 1.45860540e-003 2.16832897e-003
      2.26557939e-004 7.11654429e-004 3.38203576e-003 3.12917749e-003
      -9.15591978e-003 2.17248360e-003 9.50184884e-004 -1.59581983e-003
      -3.00425012e-003 6.76778087e-004 4.14399547e-004 6.84853410e-004
      3.32417618e-003 -3.55503318e-004 -2.98928446e-003 -4.31917986e-004
      1.36660971e-003 1.24705129e-003 -5.48875052e-003 -4.81207855e-003
      -2.90004048e-003 -3.97513853e-003 -6.20685460e-004
      -1.07214344e-003 2.27383920e-003 1.93759438e-003 4.83265473e-003
      -5.92085207e-003 -1.32457854e-003 2.14240444e-003 1.27892813e-003
      1.19404716e-003 1.22868852e-003 -1.42011535e-003 -1.26815517e-003
      -1.61936186e-004 3.75652802e-003 -4.73693898e-003 1.41839334e-003
      1.26187410e-003 -4.99007234e-004 -5.45123592e-003 3.20660393e-003
      2.14316580e-003 -8.65949318e-004 4.11142176e-003 5.74841397e-004
      1.31456484e-003 -1.27623277e-003 -1.25475068e-004 -1.00149389e-003
      -2.96592223e-003 2.70461943e-003 7.26419594e-003 1.45956132e-004
      1.43666216e-003 1.53948483e-003 9.21575120e-004 4.52527311e-003
      -1.54880655e-003 2.69395229e-003 4.78196749e-003 9.68290120e-003
      -8.11348483e-003 2.77623294e-005 3.96428723e-003 1.30428560e-003
      -7.98056088e-003 4.31996398e-003 2.93957302e-003 -2.17643930e-004
      6.07280852e-003 -2.60642869e-003 -1.92694413e-003 -3.20476211e-005
      1.53336674e-003 1.64335841e-004 -1.58772408e-003 -6.24166196e-003
      -3.80864437e-003 -3.20653175e-003 -1.22331723e-003
      -6.00778963e-004 7.34095578e-004 4.25209012e-003 -2.06521596e-003
      1.80032264e-004 -5.79185180e-005 1.68256310e-003 8.21968424e-004
      -4.50304756e-003 -1.78946392e-003 -1.68939878e-003
      -1.22753682e-003 2.42047143e-004 1.34974089e-003 -3.80195561e-003
      1.20371685e-003 -1.88095041e-003 1.02173937e-004 -5.37168188e-003
      1.00298994e-003 1.10844779e-003 -1.00594934e-003 -4.25432902e-003
      1.24692058e-004 1.33146148e-003 -1.23456551e-003 1.60690979e-004
      -5.70495089e-004 -2.80272262e-003 3.73474369e-003 9.00054071e-003
      2.39985390e-003 1.80815114e-004 2.03567953e-003 1.74304598e-003
      4.25525662e-003 -3.50220967e-003 2.41423186e-004 2.61568348e-003
      6.90191006e-003 4.97603382e-004 -3.09055019e-003 -1.43305247e-003
      -2.42597962e-004 -8.44509108e-004 1.95050437e-003 1.02740945e-003
      -1.71855686e-003 6.23364188e-003 -5.19280031e-004 -4.36319737e-003
      8.32773294e-005 1.53959892e-003 1.30311563e-003 8.91218253e-004
      -2.10251170e-003 3.45495122e-004 -1.93048699e-003 -1.12495595e-003
      -9.00020008e-004 -3.08189564e-003 4.62187966e-003 -6.24396233e-003
      9.30847309e-004 -1.03809044e-003 4.01816797e-004 1.29821966e-003
      7.40289863e-004 7.44533725e-004 -3.78101738e-003 3.18247447e-004
      -7.31016160e-004 1.70074345e-003 -1.35713851e-003 -7.69212260e-004
      -2.24258658e-003 -2.97761476e-003 -1.40128052e-003
      -2.19215127e-003 3.46202840e-004 -1.49204826e-003 -1.06377644e-003
      -4.41143464e-004 9.48730449e-004 -1.42315030e-003 -2.41017988e-004
      -3.98954668e-004 5.37031912e-004 -3.18663078e-003 6.77708071e-003
      1.11231580e-003 6.40465412e-004 -3.16044578e-004 1.46508787e-003
      7.31557142e-004 -3.72900977e-003 1.24050654e-003 1.61622942e-003
      6.74374262e-003 -6.85768994e-003 1.77754299e-003 -7.57702583e-005
      1.71969470e-003 -4.34556138e-003 5.84208872e-004 -9.94891394e-004
      2.13780627e-003 2.27922015e-003 3.40380892e-003 -1.83479523e-003
      -1.57001981e-004 1.31226878e-003 1.03658217e-003 9.10355709e-004
      -5.18963425e-005 -1.61735027e-003 3.04468384e-004 -9.89907421e-004
      6.08715636e-004 2.96084268e-004 2.12455471e-003 -2.35905265e-003
      -3.88578977e-003 6.54898875e-004 -4.04283310e-006 1.71420514e-003
      -7.64664554e-004 -1.53349270e-003 -2.56446330e-003
      -2.39976705e-003 -9.99007258e-004 1.82039267e-003 -4.80698375e-003
      8.71325901e-004 -3.77736706e-003 -1.57770919e-005 -6.87666330e-003
      1.74783391e-003 1.69828080e-003 -5.91555610e-004 -2.02682379e-004
      3.05723399e-004 1.36973721e-003 3.88281216e-004 -2.80849432e-004
      -1.82979755e-004 8.27665441e-004 1.99441519e-003 4.04564524e-003
      -3.11942399e-003 3.01783293e-004 -2.12634521e-004 1.85414939e-003
      2.53800186e-003 -1.06869882e-003 1.40762515e-003 1.43764983e-003
      3.75546771e-003 -2.29788013e-003 -2.03384057e-004 5.93687182e-005
      2.39188480e-003 -4.57736896e-003 -1.64429669e-003 1.90120097e-003
      -9.99574200e-004 4.30402753e-004 3.05842352e-003 -2.44916603e-003
      -2.25216878e-004 2.56044185e-003 5.93573961e-004 2.50994903e-003
      -3.30769632e-004 4.91480343e-004 -8.98250786e-004 -5.89004601e-004
      9.06051020e-004 1.87176897e-003 1.99995426e-004 -3.11395823e-004
      -2.50811432e-003 1.19738211e-003 5.87276474e-004 2.20048940e-003
      3.41298437e-004 -1.67662348e-003 -8.49429984e-004 1.09035449e-004
      -2.45980656e-004 3.81904724e-003 -8.15662730e-004 2.42969822e-004
      -3.19534028e-003 -1.86375470e-003 -3.52898124e-003 3.68957437e-004
      1.08932797e-003 -2.89977994e-004 -8.63115187e-004 -4.54735447e-004
      1.36580039e-003 -1.97416707e-003 -1.13966654e-003 7.49770959e-004
      -1.06490555e-003 -4.98869922e-003 4.32348903e-003 -9.71831560e-006
      -2.39798846e-003 -3.07406532e-004 -1.70947082e-004
      -7.74397166e-004 3.83752724e-003 1.41841755e-003 1.75304920e-003
      3.06539936e-003 -4.05179150e-003 -6.21534593e-004 4.13739705e-004
      1.96494465e-003 -5.69117023e-004 -2.07308773e-003 -1.10994861e-003
      -7.69123435e-004 1.37099402e-003 1.88481633e-003 5.00374124e-004
      -8.89753050e-004 7.24832935e-004 -2.13819160e-003 3.54264484e-004
      2.98179081e-003 -5.97955717e-004 4.72529646e-004 3.93458031e-004
      -5.51405537e-004 2.55369022e-003 -4.50081716e-004 -3.92868649e-003
      -2.18012789e-003 -7.87171419e-004 -2.61794601e-004 1.35184987e-003
      1.79824815e-003 3.41406465e-003 -7.76708359e-004 -1.49170263e-003
      -4.07624699e-004 2.36913306e-003 -1.56495092e-003 -1.20598206e-003
      1.23921875e-003 -1.17855228e-003 -5.98731963e-003 -1.17305794e-003
      1.23168260e-003 -3.35144578e-004 -2.38055029e-004 1.29667867e-004
      -2.10342478e-004 3.24365072e-004 3.60145816e-004 -1.07160689e-004
      -1.32103986e-003 4.06176434e-004 3.66724073e-003 5.05660311e-004
      -8.67650961e-005 -2.46343738e-003 -1.16484880e-004 2.95462560e-005
      -1.49445972e-004 1.66434539e-003 2.01392616e-003 7.79113208e-004
      1.05115317e-003 -1.06731255e-004 3.35216930e-004 3.52941104e-004
      -5.29837376e-003 -5.68025745e-003 1.16989634e-003 6.41326071e-004
      -2.91992165e-003 -2.66687595e-003 -3.19967302e-003 9.74849740e-004
      6.20392675e-004 1.35868788e-003 2.80098687e-003 2.98612332e-003
      -3.64442007e-003 -2.00000382e-003 3.31030024e-004 -6.85335195e-004
      -1.23352231e-003 3.49745643e-003 2.03479175e-003 3.17695783e-003
      -3.17436134e-005 1.08586864e-004 2.70732824e-004 -4.85820201e-004
      1.76803535e-003 -9.60242833e-005 -1.92685548e-005 -1.07205694e-003
      -1.66695146e-003 1.86088099e-003 1.07555359e-003 1.29543419e-004
      -1.35125985e-004 -6.10025367e-003 -1.64746167e-003 9.55817406e-004
      -1.19857199e-004 -1.44423824e-003 1.38330099e-003 6.43997570e-004
      2.48797878e-004 3.06001777e-004 -9.06504050e-004 4.36670416e-005
      5.18999575e-003 -2.08972115e-003 -4.53024259e-004 -9.70447436e-004
      -1.07545045e-003 2.50145677e-003 4.73225839e-004 1.71620084e-003
      7.96765089e-005 1.59467862e-003 3.74613446e-003 2.64891679e-003
      -1.60988595e-003 -3.18337814e-004 -2.83346220e-004
      -2.59811385e-003 -1.09160261e-003 -1.15126465e-003
      -4.20330977e-003 9.30172158e-004 -5.10077272e-003 -3.85268079e-003
      -4.05837403e-004 7.85116354e-005 1.38026883e-003 5.24992647e-004
      5.06336847e-003 -5.05133299e-003 -8.27670214e-004 -8.19101580e-004
      -7.86740740e-004 9.41664213e-004 6.44049142e-003 5.56540862e-003
      3.20659927e-003 -2.62846239e-004 -1.46484468e-003 2.29424285e-003
      -3.47655988e-003 -7.20395590e-004 -3.29034927e-004
      -5.32448757e-004 -2.07517478e-005 -5.05640823e-003 2.79653119e-003
      4.46583377e-003 1.50864152e-003 2.13460345e-003 1.66774832e-003
      1.26799080e-003 -5.41595044e-004 -9.23018088e-005 -1.39643066e-003
      2.78163730e-004 2.34601262e-004 -1.72006758e-003 1.06499741e-004
      -1.85175485e-003 -1.58869498e-003 -1.90384779e-003 3.23519320e-003
      5.15477615e-004 8.79177358e-004 -1.20654446e-003 3.11428332e-003
      1.50341529e-003 -1.08226086e-005 -2.09193900e-006 2.28176476e-003
      4.72796010e-003 1.22375088e-003 9.47550521e-004 2.70008366e-003
      -3.02652549e-003 -5.25227934e-003 7.12844136e-004 -2.97847320e-003
      -4.62266663e-003 5.83339063e-003 -3.14968196e-003 -3.86972621e-004
      -5.51149948e-004 1.59848802e-004 -2.38316949e-003 -6.12159213e-003
      4.26941458e-003 -9.60652018e-004 -2.18350883e-003 -7.67833611e-004
      -1.70505431e-004 -3.07500272e-006 4.14800318e-003 4.10658680e-003
      1.59393263e-003 4.50984488e-004 1.26035907e-003 -2.98481900e-004
      1.16194983e-003 -2.05582334e-003 -1.15431823e-004 -4.41156066e-004
      -2.59307359e-004 -3.43888416e-003 8.01227335e-003 -5.00563590e-004
      -9.65031853e-004 5.57017920e-004 -4.23294166e-003 2.00595311e-003
      9.47161403e-004 -2.37165237e-004 -3.28552397e-003 -7.78318616e-004
      2.44803703e-003 -3.44345882e-003 -7.30155851e-004 1.52539593e-004
      -2.97719543e-003 -1.41196896e-003 7.04437029e-003 -1.62459596e-003
      4.37701616e-004 6.50333532e-004 3.39525449e-003 2.87695904e-003
      1.19443594e-005 -3.40678002e-004 3.61729669e-003 7.25518912e-003
      1.39626465e-003 1.26134197e-003 -1.96211832e-003 -7.91076396e-004
      -3.93995363e-003 1.05856452e-003 1.55787056e-005 -5.96183818e-004
      2.63706804e-003 -5.64301340e-003 -2.87579675e-003 2.32047657e-003
      -1.30062617e-004 -1.54143828e-003 -6.26149261e-003
      -1.05434167e-003 -1.68157532e-003 -9.92139219e-004
      -7.73810374e-004 -1.15063880e-003 8.29773722e-004 2.61046365e-003
      3.62099451e-003 -2.22973432e-003 1.12533348e-003 7.26036960e-004
      2.77547315e-005 -1.56515779e-003 4.05867863e-003 -1.09158410e-003
      -3.29447968e-004 -5.93974022e-004 -8.45160452e-004 4.16494993e-004
      -6.06722781e-004 -1.20114477e-003 6.71933172e-004 -8.98001541e-004
      1.06493745e-003 -2.04866039e-004 -1.17539323e-003 -4.84782597e-003
      2.85803952e-004 1.46367890e-003 -2.87967781e-003 -2.36317384e-004
      3.30609269e-003 -2.49304576e-003 -1.62935129e-003 3.76664312e-003
      1.88170804e-003 4.86867182e-004 9.28594731e-004 1.60061358e-003
      -6.52692324e-005 -4.77356429e-004 2.23733892e-004 1.75407878e-003
      6.15452137e-003 -3.34088830e-003 2.55440385e-003 -6.39168022e-004
      2.46737641e-003 -1.52715622e-003 1.30991987e-003 5.29921264e-004
      1.35479670e-004 1.34259276e-003 5.60218410e-004 1.94019708e-003
      -9.76007082e-004 1.41522277e-003 -1.03389646e-003 -1.18489098e-003
      -3.47118126e-004 -1.69530360e-003 4.35399183e-004 -6.38942409e-004
      -1.11299800e-003 -1.21458643e-003 -3.46086250e-004
      -1.15049100e-002 -3.22605227e-003 1.37768441e-003 2.09563202e-003
      -1.15570647e-003 -1.13408745e-003 1.66974077e-003 -2.19380320e-003
      -1.08322373e-003 -3.96451185e-004 2.63003795e-003 -3.27223737e-004
      2.30606715e-003 4.07848362e-004 -2.16446980e-003 9.95482667e-004
      -1.35930150e-003 1.46297552e-003 -4.55269083e-006 1.91683741e-003
      1.59256102e-003 2.38028774e-003 -1.65638013e-003 3.39230493e-004
      -1.71241630e-003 -2.01377785e-003 -4.12985357e-003 2.57170969e-003
      8.14329949e-004 3.11601820e-004 -1.28441548e-003 1.10839726e-003
      2.18947325e-003 -5.78145171e-003 4.85829718e-004 1.36780133e-003
      1.70533557e-003 -1.78732455e-003 1.67162844e-003 1.13729516e-003
      7.05807563e-003 -2.29646009e-003 -2.15266613e-004 1.76196580e-003
      4.73373017e-004 2.43580411e-003 2.23607919e-003 3.82091943e-003
      -4.35439026e-004 1.23926101e-003 2.45692628e-003 -3.34565691e-003
      -5.13095595e-003 -2.76187842e-004 4.93495492e-004 -3.03950044e-004
      -1.16602902e-003 -4.34611022e-004 4.48521785e-003 -5.70760760e-003
      1.78625470e-003 -5.41563903e-004 4.78242844e-004 1.95374433e-003
      -3.00626340e-003 -1.84701569e-003 -2.30839895e-003
      -8.89293617e-004 6.31713701e-005 4.56229132e-003 3.80626833e-003
      2.02906274e-004 -1.14053744e-003 -4.34766337e-003 -6.68785023e-003
      2.42211507e-004 1.04184670e-003 -1.15695351e-004 -1.71845465e-003
      3.28811962e-004 9.86614497e-004 4.86328325e-004 -2.83744303e-004
      -2.41092849e-003 -1.66873820e-003 -6.31709816e-004 1.39467092e-003
      2.40832916e-003 -2.26037722e-004 4.46344167e-003 1.84345618e-003
      1.65233982e-003 1.10958715e-003 1.71579188e-003 3.47964145e-004
      -4.79109149e-004 -1.81125512e-003 -1.87059908e-004 3.43121850e-004
      5.53181890e-005 3.10936081e-003 -4.41977754e-003 5.86248934e-004
      -3.05382477e-004 -2.05871183e-003 -3.58393230e-003
      -5.07294491e-004 1.64864046e-004 1.23413024e-003 7.03931164e-006
      -4.99188900e-004 -2.32248008e-003 -4.80860285e-003
      -5.01931994e-004 -5.02912793e-004 1.37150788e-003 4.22207220e-003
      3.39788734e-004 -1.03116198e-003 2.28254730e-003 -1.59092597e-003
      -2.14125938e-003 5.69443568e-004 -1.18346617e-003 -1.36641518e-003
      -4.48928127e-004 -3.79973244e-006 -3.90799483e-004
      -3.95805517e-004 -1.37663665e-004 -4.51473519e-004 2.57572648e-003
      -1.48979263e-004 -2.14709993e-003 7.26053375e-004 1.67300273e-003
      1.61705291e-004 1.04434474e-003 1.96228689e-003 1.00702257e-003
      -1.24373692e-004 -3.61875806e-004 -8.45660747e-004
      -3.16401478e-003 -2.23786265e-004 4.32050973e-003 -1.00737333e-003
      3.25130415e-003 -8.85848014e-004 6.65799424e-004 6.31058181e-004
      3.86361568e-003 2.06460361e-003 3.54832713e-003 -3.93459946e-003
      -2.14714045e-003 1.23440113e-003 3.63796426e-004 6.17939141e-003
      -1.09356176e-003 -7.91245699e-003 4.26828599e-004 4.03190788e-004
      5.02584502e-003 2.00800103e-004 1.25656463e-003 6.29349670e-004
      5.40824898e-004 -4.08984604e-004 -2.85860966e-003 -4.78946557e-003
      -5.57666470e-004 -2.20080037e-004 -3.04941641e-004 4.46570426e-004
      -1.01281551e-003 -3.89909663e-004 -5.85975964e-003 3.95053672e-003
      -7.66483136e-004 9.50119749e-004 -1.40952051e-003 1.30407291e-003
      4.59810160e-003 1.41852058e-003 -1.05905277e-003 -6.05852518e-004
      -7.34365778e-003 8.01614602e-004 1.32104673e-003 -1.95247272e-003
      -1.62704068e-003 -4.64231614e-003 -2.52241897e-003 1.46170682e-003
      3.49759386e-004 5.19667810e-004 1.58161693e-003 1.77269895e-003
      3.05279100e-004 4.58014751e-004 -1.85815664e-003 1.17866140e-004
      1.20678055e-003 2.22587795e-003 1.68912823e-003 4.44816571e-004
      -2.59902771e-003 2.00830563e-003 4.04874067e-004 -9.99466167e-004
      1.22920819e-005 1.43102219e-003 -3.10119381e-003 3.35467304e-003
      2.57389736e-003 2.57380214e-003 4.43586195e-003 -5.95456269e-003
      -5.30186109e-003 5.55897015e-004 -1.10938470e-003 6.93680486e-004
      -3.38049093e-003 1.70922640e-003 5.15202584e-004 2.80461553e-003
      2.03490886e-003 7.32417975e-004 -1.39996258e-003 -1.22442318e-003
      -4.38857079e-003 -4.11266810e-004 -9.08225993e-005 3.05229187e-004
      -2.72824918e-003 2.51265639e-003 1.80853112e-003 2.04210097e-004
      4.32108849e-004 1.78708520e-003 -1.65199884e-003 -1.30647421e-003
      -9.44241707e-004 2.03509373e-003 2.13397798e-004 -1.06713432e-003
      -1.77425239e-003 1.11874496e-003 8.20989255e-004 1.26409490e-004
      -2.38886685e-003 -1.08762435e-003 1.01159478e-003 1.26137049e-004
      -4.12202149e-004 1.12552952e-004 1.54968572e-003 -8.87476082e-004
      5.49704651e-004 -3.40120075e-003 -1.82142539e-003 4.51754825e-003
      8.85572750e-003 5.85529720e-003 -3.02871020e-004 7.40257616e-004
      9.23824671e-004 -5.42547205e-004 4.13871650e-003 4.77674737e-004
      2.82024354e-004 1.52694026e-003 2.83339084e-003 1.26206374e-004
      -5.29188197e-004 -5.32452541e-004 -2.50399346e-003
      -4.06591920e-003 -9.92500456e-004 -4.76573221e-003 2.10478739e-003
      -3.26152332e-003 -1.42740528e-003 -7.82732095e-004
      -1.47744466e-003 1.98479393e-003 -2.90939235e-003 9.88057698e-004
      -3.14677879e-003 -3.91144492e-003 -7.88946727e-006
      -1.37043989e-003 -1.97046495e-004 1.24151178e-004 3.10606044e-003
      6.40643388e-003 6.81960257e-004 2.78380990e-004 2.84002302e-003
      -3.80982226e-003 -7.70368008e-003 -3.55813163e-003 1.51898630e-003
      -1.21324882e-003 -3.91800748e-003 3.35342926e-003 1.62655744e-003
      4.37828654e-004 2.57946714e-003 -6.01586013e-004 3.30966897e-003
      7.63270131e-004 -1.28116881e-004 -1.91525149e-003 9.66518535e-004
      -6.01239095e-004 -1.88639015e-003 -9.25656117e-004
      -8.90078663e-004 4.97665023e-005 9.98308416e-004 2.41180859e-003
      -9.75175586e-004 -2.51596473e-004 2.57634732e-004 9.23462940e-005
      2.88935937e-003 3.92551534e-003 3.26134294e-004 1.06615259e-003
      6.92172849e-004 2.77443137e-003 1.36264949e-003 -3.09917727e-004
      -2.13093939e-003 -1.24977343e-003 5.45565505e-004 -9.55094467e-004
      -1.98410149e-003 6.80338778e-003 -5.52062318e-003 -1.81542546e-003
      5.96774917e-004 1.02310360e-003 -8.14434548e-004 -1.64932513e-003
      9.72901005e-004 -2.75774917e-004 -1.49056577e-004 -4.77387221e-004
      1.57872937e-003 -1.21367560e-003 2.68433220e-003 3.15510621e-003
      1.77191000e-003 -7.59624410e-004 1.05363096e-003 1.60239288e-003
      -2.09792424e-003 -7.26135564e-004 1.20691628e-004 -1.78692187e-003
      -3.43777327e-004 4.96121263e-003 -1.37022743e-003 -4.56693146e-004
      -5.90322074e-004 -2.33061495e-003 4.34106356e-003 2.13123183e-003
      -8.13064980e-004 -9.82194790e-004 -3.98133928e-003 6.93354814e-004
      7.52048276e-004 -3.48881655e-003 -5.26553602e-004 2.80801381e-004
      -1.16960972e-003 -9.67032183e-003 1.62436778e-003 -2.58005084e-003
      -1.98123031e-004 2.20944826e-003 2.54072156e-003 2.21535144e-003
      7.14236463e-004 -5.96222992e-004 3.89804970e-003 5.96042071e-003
      -1.41369330e-003 2.60532834e-003 1.88205147e-003 1.11547139e-004
      -2.97280261e-003 -5.23675999e-006 -1.39284763e-004 9.45603708e-004
      1.16726838e-003 -3.04606999e-003 2.21057824e-004 5.75396698e-004
      2.27677461e-004 2.08490819e-004 -3.94847523e-003 2.07606051e-003
      -1.71376462e-003 -6.96853967e-004 -7.83803174e-004
      -2.58746161e-003 -1.47727923e-003 4.24220832e-003 4.67066560e-003
      2.06657290e-003 4.71430511e-004 1.15136011e-003 -2.90031102e-003
      -7.91283674e-004 -8.66722476e-005 -3.72178038e-003 7.63217045e-004
      -1.19286112e-003 -2.62699323e-003 -1.01908529e-003
      -9.15861398e-004 -9.99284210e-004 -2.38468507e-004 6.01746887e-003
      6.38087234e-003 -2.48290089e-005 -7.12430978e-004 -2.65281810e-003
      5.23132447e-004 2.65318522e-004 -2.31394893e-003 -5.39808592e-004
      -8.92242941e-004 -3.36645311e-003 -8.58106930e-003
      -2.14217021e-003 -3.89022840e-004 -1.09627284e-003 8.26984819e-004
      -6.32686832e-004 1.61443357e-004 1.44221738e-003 1.18126313e-003
      4.60069068e-003 3.35449819e-003 -3.07789864e-003 3.63265537e-003
      -7.85873737e-004 1.88012607e-003 -3.48243606e-003 9.09511175e-004
      1.04163447e-003 -1.87987427e-003 -1.60355214e-003 8.81163578e-004
      2.99905497e-003 -6.86939340e-004 1.90619356e-003 7.50019914e-004
      5.84298861e-004 -3.51390848e-003 -4.43401840e-003 -2.08605826e-003
      -6.94512681e-004 -7.59834249e-004 -1.45414576e-003 5.44378255e-003
      -3.68403201e-003 -2.83902814e-003 1.36163749e-003 7.78689282e-004
      -1.30325556e-003 -4.33302112e-003 -1.42046556e-004
      -3.61057045e-003 8.80638312e-004 -2.04193057e-004 2.89770542e-003
      2.07115547e-003 -3.32196971e-004 -6.11701224e-004 2.56285467e-003
      5.10382373e-003 3.74474796e-003 9.46607674e-004 -1.10751612e-003
      -2.12898594e-003 -8.09596444e-004 1.17900816e-003 -3.64546460e-004
      8.72790115e-005 9.14897362e-004 -2.57904432e-003 -1.35564362e-003
      5.19051589e-003 2.96398345e-003 1.82788225e-003 6.95954077e-003
      -3.95414332e-004 3.20720160e-003 4.24384139e-003 -1.58125593e-004
      1.73782872e-003 -1.21347420e-003 -5.64073492e-003 2.03734823e-003
      -2.37833592e-003 2.53818580e-003 -1.01656409e-003 -2.64394353e-003
      -1.82886969e-003 3.20758467e-004 3.28539102e-003 2.79321917e-003
      1.19000580e-003 1.64090932e-004 7.68441590e-004 2.22361134e-003
      -9.88829532e-004 -3.66202812e-003 -3.08473199e-003
      -2.39446410e-003 -9.69526955e-005 -8.29691300e-004
      -1.91909610e-003 3.47901881e-003 -2.55011232e-003 2.24151020e-003
      6.87590393e-004 -1.82442949e-004 5.91975055e-004 -4.98514390e-003
      -2.86124268e-004 1.40259799e-003 -3.02842003e-003 4.41940705e-004
      -8.12173355e-004 -3.43974284e-003 -4.20728186e-003 2.51564896e-004
      1.16657093e-003 -2.96034897e-003 4.49696439e-004 4.13592061e-004
      -1.05672203e-004 1.25560749e-004 -2.18363508e-004 5.65283881e-006
      5.16675529e-004 -7.32103945e-004 1.15338108e-003 -1.99999870e-003
      -6.19989296e-004 2.91479705e-003 3.59961321e-003 1.40430359e-003
      1.49429194e-004 5.28436831e-005 1.74849411e-003 2.75944360e-003
      -7.15461152e-004 -4.07506828e-004 3.02366586e-003 7.24506754e-005
      9.26088658e-004 -1.14230474e-003 -7.01539830e-005 -6.43170392e-003
      -7.15248100e-003 4.83511365e-004 3.24917608e-003 3.14084999e-003
      -1.38442789e-003 1.47425965e-003 6.58055767e-004 6.75559742e-004
      6.29039539e-004 6.19550556e-005 -3.77308042e-003 -1.80975301e-003
      -2.22829077e-003 -2.31356913e-004 7.84950273e-004 2.30702036e-003
      9.52023896e-004 -8.94337799e-003 -5.88338124e-004 8.15769017e-004
      -1.18033466e-004 1.59667805e-003 -1.04621274e-003 2.52689875e-004
      -3.79755045e-003 1.80465766e-004 3.42835905e-004 1.66763144e-003
      -1.63539674e-003 8.39439861e-004 1.82319724e-003 -1.26153638e-003
      -5.20428224e-003 -6.42835163e-004 1.99609762e-003 3.53076204e-004
      2.03036307e-003 1.45266065e-003 1.65509945e-003 2.15005857e-004
      1.41758093e-004 4.27157996e-004 -1.86964858e-003 3.59627558e-003
      3.05788009e-003 1.10654940e-003 -1.45253644e-003 4.36552567e-004
      2.52426788e-003 -4.10462497e-003 4.40677302e-003 1.43726997e-003
      5.03225136e-004 -3.74842493e-004 -2.61226343e-003 -1.08120346e-003
      1.23129680e-003 -5.14660962e-004 -9.57994070e-003 -6.45929435e-003
      -1.23070102e-004 1.59656163e-003 6.82005426e-004 -3.79774789e-003
      -1.96634370e-004 -3.37252073e-004 2.65867356e-003 1.50350400e-003
      3.23869032e-003 -1.27585721e-003 8.39715824e-004 6.29190705e-004
      8.72657038e-005 1.20071124e-003 1.20643445e-003 -3.77012906e-003
      -5.69243543e-003 1.89969863e-003 8.79684405e-004 1.32230599e-003
      1.54618174e-003 -3.83095139e-005 -2.68809288e-003 -1.30474626e-003
      7.94335865e-005 -1.44184829e-004 1.72258902e-003 1.85786199e-003
      2.00623204e-003 1.35039783e-003 6.60119520e-004 4.44905506e-003
      -1.33868616e-005 2.79845437e-003 -2.18848858e-004 -1.07296091e-003
      4.26062063e-004 1.12188619e-003 -4.78511822e-004 -1.93232063e-005
      -2.09267600e-003 -6.16179372e-004 -4.06817155e-004 1.39382831e-003
      3.19115166e-003 1.57038763e-003 -1.97230559e-003 1.46865624e-003
      1.85924070e-003 -5.12554892e-004 -1.82611198e-004 8.54288868e-004
      7.30251602e-004 -4.24379576e-003 -1.52914459e-003 1.20397715e-003
      2.69659748e-003 3.33488826e-003 -4.20178426e-003 -1.53905735e-003
      1.92012498e-003 -3.84047348e-003 -6.51231175e-003 2.86904466e-003
      4.89362690e-004 1.85200211e-003 2.82233162e-003 2.74068839e-003
      4.05585772e-004 -1.28036900e-003 -2.49926816e-003 -4.67374979e-004
      5.42288995e-004 -2.13831780e-004 -3.12139222e-004 -2.92678014e-003
      3.07999458e-003 1.69740140e-003 9.73235816e-004 1.24504173e-003
      1.25979516e-003 -3.54842166e-003 4.62388212e-004 2.54091248e-003
      4.68187296e-004 9.40051919e-004 -1.57533446e-003 -2.08498491e-003
      -9.97442286e-004 4.33701702e-004 -1.66567916e-003 2.14173016e-003
      8.64096917e-004 -7.62798183e-004 -5.44260023e-004 -2.55151128e-004
      1.14748123e-004 -2.08070572e-003 -3.64929263e-004 -2.53063324e-003
      -1.59507792e-003 2.07323744e-003 3.60159227e-003 -1.14028568e-004
      7.01448764e-004 2.95190117e-003 2.27896939e-003 2.05923314e-003
      3.18154274e-003 -1.24613871e-003 9.75883158e-004 7.92551227e-003
      9.88483778e-004 -3.73200746e-003 4.82968142e-004 6.94514369e-004
      3.74662760e-003 6.99161668e-004 7.68784157e-005 -1.40024105e-003
      -2.03288021e-003 -5.82103757e-003 1.66090799e-003 3.02692177e-004
      5.55358769e-004 7.43490411e-004 4.61161137e-003 -3.75622883e-003
      -4.05672053e-003 -6.99563243e-004 -1.28408219e-003
      -5.69895783e-004 -1.65431283e-003 3.26695968e-003 4.31125378e-003
      3.88900144e-003 6.73165079e-004 2.89468298e-004 -6.41858787e-005
      1.95226609e-003 -5.84086962e-003 -1.89587008e-003 5.30929712e-004
      3.49739363e-004 -3.60483606e-003 -7.50213570e-004 2.00078031e-003
      -8.73316312e-004 1.36514928e-003 -7.22258526e-004 6.25471468e-004
      6.76236756e-004 -4.63584118e-004 -1.58878136e-003 -7.47166283e-004
      -2.57803570e-003 -5.29885897e-003 -5.01076807e-004
      -1.87770207e-003 -3.98115860e-003 -1.01414847e-003
      -2.16287212e-003 -2.90645083e-004 2.24957053e-004 -1.73025590e-003
      2.11991952e-003 7.41343363e-004 -2.65239226e-003 -5.02296607e-005
      7.51538551e-004 7.41403457e-003 3.85370175e-003 -4.52558103e-004
      -4.60223993e-003 2.61219777e-003 9.72033013e-003 1.94582879e-003
      3.63988598e-004 1.33806060e-003 4.06394294e-003 -3.41239315e-003
      9.48966190e-004 1.29100331e-003 3.94621311e-004 -6.90095243e-004
      -2.75242119e-003 -1.35107024e-003 -5.29272109e-003
      -9.60081117e-004 -4.48623963e-004 -3.54552385e-003
      -1.87331252e-003 3.75810242e-003 3.07074259e-003 3.25577380e-003
      3.30701732e-004 1.13336463e-003 -7.56017223e-004 -4.48701717e-003
      -6.46964088e-003 -3.32088280e-003 3.08081741e-004 -9.94459959e-004
      5.23712486e-003 7.28011876e-003 -4.61931813e-005 -3.16775986e-003
      -1.44606805e-003 -1.68745534e-003 1.48679584e-003 -1.20135403e-004
      -1.10045669e-003 5.27059427e-004 7.05326383e-005 9.91540845e-004
      -1.87577168e-003 -1.36905292e-004 8.23309412e-004 -2.88630556e-003
      -5.29517885e-003 6.58321427e-004 -2.20420002e-003 -9.03943728e-004
      -6.33705000e-004 5.99166495e-004 4.17709025e-003 1.47341902e-003
      4.26120474e-004 2.48282636e-003 3.76421912e-003 -3.58340214e-003
      6.41565013e-004 -1.57944928e-003 -6.64610998e-005 9.23595577e-003
      3.50997364e-003 -9.00120242e-004 1.93460059e-004 -9.25757398e-004
      -5.06448234e-003 2.78412458e-003 3.05249379e-003 4.42353630e-004
      1.36129896e-003 -2.93748174e-003 2.22441065e-003 -2.79546506e-003
      1.18463347e-003 -7.77439855e-004 -1.43298600e-003 -4.05816874e-003
      1.17899943e-003 1.75094476e-003 1.99014903e-003 1.26206956e-003
      7.49730971e-004 -1.78007424e-004 -7.26530619e-004 -3.75762349e-003
      -4.00214083e-003 -1.58100552e-003 -5.52243844e-004 1.49351696e-003
      3.28653399e-003 -3.55781056e-003 -7.72788131e-004 1.22497696e-003
      2.62024323e-003 1.79935584e-003 3.92193644e-004 -1.94897596e-003
      4.37578536e-004 -1.01086067e-003 7.60635477e-004 -2.33971630e-003
      -9.38295037e-004 1.03714317e-003 -2.79808743e-003 -6.16835663e-003
      1.72063045e-003 -1.26035162e-003 1.08727301e-003 -3.83048988e-004
      1.76366151e-003 -2.27977624e-004 -5.64749003e-004 -1.33104870e-004
      1.82021773e-004 4.73349309e-003 -3.14578135e-003 1.07790157e-003
      -3.89443710e-004 3.52423615e-003 1.90594117e-003 9.32359326e-005
      3.91381822e-004 -1.51543482e-003 3.46510415e-003 -2.90991669e-003
      4.14159894e-003 -2.17045919e-004 2.59728730e-003 -6.36632089e-004
      -2.39747320e-003 -3.82067449e-003 -4.22612386e-004 1.52042741e-003
      -4.22874378e-004 -2.54244800e-003 -3.99535568e-003 1.27320399e-003
      -4.01935482e-004 1.84740394e-003 1.38192473e-003 1.44844395e-004
      5.28781020e-005 -3.11200693e-003 -2.26962403e-003 -2.20693089e-003
      1.15947577e-003 -3.48845468e-004 6.59834174e-003 -5.62810339e-003
      -2.01038830e-003 -7.63386895e-004 3.92837124e-003 -7.88759615e-004
      3.87276825e-003 1.38257199e-003 -1.45790225e-003 4.78144415e-004
      -7.74183311e-004 2.06811703e-003 -2.90518423e-004 2.31824873e-004
      -2.61568092e-003 -1.22334319e-003 -3.74753098e-003 3.58292507e-003
      6.54517207e-004 -1.08292392e-004 -1.08113687e-003 5.94395271e-004
      1.87157688e-003 -3.90743837e-003 8.40460125e-004 5.64529153e-004
      4.62217117e-003 8.69679905e-004 1.36450364e-003 -2.39788159e-003
      -2.44930765e-004 1.12862012e-003 -1.01291458e-004 -1.86811306e-003
      -2.16477318e-003 2.67668394e-003 5.36030100e-004 1.88305217e-003
      8.90790907e-005 9.21292522e-005 7.68015670e-005 -5.30144759e-003
      -1.94507220e-003 -3.74810118e-003 1.12876040e-003 -1.05131185e-004
      1.54640363e-003 6.21233601e-004 3.96552868e-003 -2.74620089e-003
      -1.76148361e-003 6.15271041e-004 -1.53350609e-003 3.54489149e-003
      -3.84922558e-003 -2.98097759e-004 5.01633796e-004 1.02731101e-004
      4.69077277e-005 7.10068783e-003 -1.44641404e-003 -5.47726522e-004
      5.85813483e-004 -1.19283772e-003 3.33313714e-003 9.29316215e-004
      5.08459227e-004 3.76674318e-004 5.72657562e-004 2.43122457e-004
      -1.12009677e-003 -2.31297477e-003 -4.76787041e-004
      -9.86855477e-004 -3.91682005e-003 -2.00774847e-003
      -3.95672303e-003 4.55522258e-003 -9.16568169e-005 4.96909197e-005
      2.46415660e-003 8.22086935e-004 3.64438002e-003 -1.49407319e-003
      -3.03227687e-004 3.81306419e-003 2.08808412e-003 -3.57764540e-004
      -2.02065706e-003 3.12166958e-004 8.33455182e-004 -1.81004230e-003
      -1.05397764e-003 -3.37803224e-003 3.20566673e-004 3.15478211e-003
      1.29407248e-003 1.75197935e-003 1.55197026e-003 -1.23426155e-003
      3.23586422e-003 -2.79435352e-003 -2.09563458e-003 -1.58105884e-003
      -9.26157809e-004 -7.52618478e-004 3.62493936e-003 2.51070969e-003
      -7.91485142e-003 2.13246187e-003 1.34168356e-003 5.09601028e-004
      3.51650198e-003 -1.49078015e-003 6.50041969e-004 -2.00163852e-003
      1.09436607e-003 -2.48863216e-004 1.12162647e-003 2.28852572e-004
      -1.21468375e-003 1.30847981e-003 2.51956008e-005 3.44276312e-004
      -2.17215903e-003 8.40466295e-004 2.41595480e-004 1.86950888e-003
      -8.76922510e-004 3.96623691e-005 -6.83772669e-004 -3.12814780e-004
      -4.62272856e-003 -3.15185403e-003 -2.75020418e-003
      -3.12900078e-003 2.48344312e-003 1.22051674e-003 7.44400080e-004
      6.36579294e-004 2.52931984e-003 3.21715791e-003 -2.51592440e-003
      2.79092672e-003 2.06988654e-003 -8.65269627e-004 8.93735501e-004
      2.99321418e-003 7.33409484e-004 2.63949914e-004 -3.67718516e-003
      -1.40599883e-003 -3.63875506e-003 1.43574271e-003 -1.55378098e-003
      5.97081939e-003 -8.45773844e-004 9.43368650e-004 -4.87631885e-004
      1.91827654e-003 -1.07747864e-003 -9.73176968e-004 -2.14848993e-003
      -1.07429200e-003 -1.40760996e-004 2.95878062e-003 4.03193804e-003
      -2.20095599e-003 2.33313092e-003 1.77634181e-003 7.24082289e-004
      1.06181670e-003 -4.60240571e-003 -2.94227595e-003 -1.76456443e-003
      4.46275168e-004 3.00809392e-004 -1.89542567e-004 -1.85382541e-003
      -7.12907407e-004 -9.25227767e-004 -1.02939550e-003 1.84490380e-003
      -1.16638304e-003 1.16372202e-003 -3.00069605e-005 -2.05017481e-004
      1.03941397e-003 8.68256320e-004 -2.91788056e-005 7.32774861e-005
      1.69368461e-004 -5.14027476e-003 -3.31138261e-003 -2.00466905e-003
      2.45482684e-003 -2.10426026e-003 2.22562626e-003 -9.48005763e-004
      -1.29512846e-004 2.09713564e-003 -2.01160181e-003 -5.03125739e-005
      -1.51201617e-003 -2.15790723e-003 1.69737393e-003 -9.80380573e-004
      -4.66849509e-004 3.18466220e-003 -1.29893865e-003 -7.79121765e-004
      -1.99171109e-003 -2.49975920e-003 -3.65703693e-003 8.88687675e-004
      -1.45976851e-003 6.87605352e-004 2.32569245e-003 -2.96535436e-003
      -1.72964099e-003 5.82790468e-004 1.18716492e-003 2.98493214e-005
      1.64459797e-003 2.75445916e-003 1.74767931e-003 2.61096423e-003
      2.64040590e-003 -3.38614889e-004 1.88114194e-004 1.20522338e-003
      2.37583043e-003 -3.14451521e-003 -2.99314712e-003 -7.28752930e-004
      -7.98730107e-005 -2.15497985e-003 4.88331961e-003 2.71276105e-003
      1.37879525e-003 -1.47242891e-003 -2.97659100e-003 -5.89618867e-004
      2.01138412e-003 4.05603554e-004 6.50341157e-004 -9.14659904e-005
      7.54087407e-004 -1.04203809e-003 -2.64957169e-004 -2.64625088e-003
      5.08996425e-004 1.43610314e-003 7.98701134e-004 2.27659271e-004
      5.53758582e-004 -2.12787359e-004 5.33449871e-004 1.42861530e-003
      -1.92665914e-003 -8.59727268e-004 1.83359394e-003 -4.80406871e-003
      -3.08374059e-004 1.93846086e-003 2.94491445e-004 8.36791703e-004
      4.16023796e-003 -3.63288127e-004 4.70643077e-004 -1.33152958e-003
      -4.17624775e-004 -8.66401289e-003 1.59955432e-003 1.45434891e-003
      4.57849592e-006 3.58173810e-003 -1.14408112e-003 -3.54588334e-003
      -3.31768650e-003 -1.99853349e-003 9.57580924e-005 1.86402816e-004
      -8.82257067e-004 4.07648226e-003 -1.46570572e-004 5.66427479e-004
      -6.72205584e-004 -9.90389613e-004 1.34468672e-003 2.73213489e-003
      -3.16094793e-003 -2.06307764e-003 -7.51626678e-004
      -3.82627331e-004 5.22764027e-003 5.00267465e-003 2.03161850e-003
      6.78486424e-004 3.37424199e-003 4.18746658e-003 1.18799659e-003
      -5.42530732e-004 -2.68781369e-005 -9.65025625e-004
      -9.89766209e-004 -3.78682656e-004 -2.90937838e-003 4.76792593e-005
      -1.60937989e-003 -4.81644459e-003 -2.74274877e-004 1.33547978e-003
      -2.60139094e-003 -3.61453771e-004 -1.52271206e-003 4.53424687e-003
      -2.10907497e-003 1.67850137e-003 -2.60601901e-005 1.63819699e-003
      -1.51820329e-003 5.03537664e-003 -8.03248375e-004 4.25941136e-004
      1.23671698e-003 2.94965808e-003 1.83098379e-003 1.10297569e-003
      -1.83933333e-003 -1.09621766e-003 -1.49572967e-004
      -2.73185712e-003 1.56374963e-003 -2.58623227e-003 4.36506176e-004
      -7.26180151e-003 -3.06562451e-003 -3.62657756e-003
      -2.87049334e-003 -1.85663594e-004 -2.02605594e-003
      -1.42070407e-004 5.36380010e-003 4.65688203e-003 3.06983013e-003
      8.76875303e-004 1.66180637e-003 -1.45593344e-003 -2.60272087e-003
      -5.13565447e-003 -1.45627849e-003 -4.35024704e-004
      -5.78123087e-004 3.99264507e-003 6.11976907e-003 5.22094732e-003
      -1.01271342e-003 1.55185827e-003 1.85864174e-003 5.68006886e-003
      7.92785431e-004 7.74491346e-005 2.43084796e-004 2.97739665e-004
      -1.42641901e-003 2.19846290e-004 -5.00736060e-004 -2.10277690e-003
      -4.35800478e-003 -7.86433462e-003 2.46355830e-005 -1.44745136e-004
      -5.92703407e-004 -2.38332897e-003 -2.30913953e-004 2.01878836e-003
      1.27605279e-003 -2.42715445e-003 -9.61570244e-004 3.98320612e-003
      2.25350540e-003 2.56601465e-003 -3.19422834e-004 1.00952096e-003
      4.31132689e-003 1.01656967e-003 -2.04514409e-003 -1.65831053e-003
      -4.63353470e-004 -5.10790991e-003 -1.63318799e-003 1.64502024e-004
      1.14029448e-003 -6.00524712e-004 -4.83272830e-003 3.31449928e-003
      -2.10302860e-005 -1.23055337e-003 -1.24247948e-004
      -2.45752838e-003 -9.64890118e-004 4.19346290e-003 2.27859081e-003
      2.26728778e-004 6.59784186e-004 2.54997751e-004 -2.88352079e-004
      -5.41926711e-004 1.05879817e-003 -3.32694245e-003 -4.14974842e-004
      -3.96020303e-004 1.46045955e-003 5.68684051e-003 -1.01003498e-004
      2.31906102e-004 -1.20662781e-003 8.97626334e-004 2.67712190e-003
      -1.58667710e-004 -1.30155857e-003 8.06623837e-004 1.57659629e-003
      1.49783504e-003 -1.39614625e-003 -3.34689568e-004 -7.46114179e-004
      -2.03408045e-003 -6.13993593e-003 4.95577464e-003 -1.78278424e-003
      -1.12738716e-003 -3.70259397e-003 1.75109645e-003 -2.88733077e-004
      2.30503222e-003 2.07794277e-004 -6.44848333e-004 -1.05455692e-003
      -3.56174796e-003 4.46937792e-003 1.32578413e-003 7.13563757e-004
      5.27401746e-004 -9.15623328e-004 -5.25264710e-004 3.61472747e-004
      4.60606720e-003 -1.24502473e-003 -1.39136193e-003 -7.63601216e-004
      4.46212580e-005 6.10702962e-004 7.55819667e-004 7.76431058e-004
      -2.83036643e-004 7.54840381e-004 -4.26171709e-006 -5.83496469e-004
      -1.42960716e-003 5.74437669e-004 2.20775441e-003 9.69388173e-004
      5.45640010e-004 2.95988447e-003 2.04037875e-003 4.40345291e-004
      -4.75980109e-003 -2.02510809e-003 -1.96231971e-003
      -5.95717342e-004 -2.70118262e-003 -4.26154409e-004
      -9.60000383e-004 -5.77531522e-004 -1.73377118e-003
      -7.75925117e-004 1.38141355e-003 2.36893189e-003 -6.46058470e-004
      1.31445681e-003 7.92042338e-005 1.46146398e-003 -8.29804922e-004
      9.16831268e-005 9.84370126e-004 -1.96876400e-003 -2.31906469e-003
      5.40357269e-003 1.48755149e-003 1.08407426e-003 -1.80918863e-003
      2.41551985e-004 6.07308408e-004 -3.93448444e-003 2.20751404e-004
      2.19855481e-003 4.37832484e-003 -1.92382629e-003 3.17339576e-003
      9.60826874e-004 3.87036102e-003 1.42173690e-003 1.09329971e-003
      -9.26597859e-004 1.64680346e-003 2.35259067e-003 3.79846874e-003
      2.26726616e-003 1.11636252e-003 8.97370686e-004 -9.08760645e-004
      -2.90577998e-003 -4.54055425e-003 -3.34889535e-003 9.07691778e-004
      -2.01068542e-004 -8.65334761e-004 -2.86076800e-003
      -2.46326183e-003 -6.85458211e-003 -1.45734160e-003 1.00461184e-003
      4.97954432e-004 1.56347960e-004 -7.05252096e-005 -2.59245309e-004
      1.14011473e-003 -2.40107009e-004 -4.88367048e-004 3.18229292e-003
      1.23371591e-003 -3.14293691e-004 3.10743955e-004 -1.94351282e-003
      -2.82671954e-003 2.52341735e-003 2.40422646e-003 -1.05434307e-003
      1.53704220e-003 3.37162375e-004 1.69618963e-003 -1.57437217e-003
      7.24021083e-005 -3.35875922e-003 -3.29686631e-003 -4.79652965e-003
      5.20885736e-003 1.87064998e-005 -7.85585260e-004 4.36711038e-004
      -3.85178544e-004 1.13300746e-003 6.57222001e-004 -1.87968230e-003
      8.39472923e-004 -1.78812898e-003 -2.74223671e-003 3.73685652e-005
      1.22355681e-003 2.33759172e-003 3.29862977e-003 -7.85808777e-004
      6.42654952e-004 -7.70649349e-004 2.61204434e-003 2.75733555e-003
      3.13217286e-003 -1.49423408e-003 1.84162357e-003 -4.23048099e-004
      1.51292991e-003 -1.77347113e-003 -3.07324994e-003 -2.88710673e-003
      -1.20242662e-003 1.28949725e-003 -8.21347567e-005 -5.11231227e-003
      -7.59166107e-003 -1.13015890e-003 -3.75487027e-004 8.34662467e-004
      -4.38065268e-004 -2.90152238e-004 4.31592949e-003 -1.38126547e-003
      -3.79809906e-004 4.44398262e-004 2.10452266e-003 -1.42705991e-004
      1.91577827e-003 -1.48758432e-003 1.40317145e-003 4.83198210e-006
      4.61931899e-003 1.72104279e-003 -1.71260850e-004 -4.92689200e-004
      5.99040242e-004 -6.87267224e-004 -2.72460468e-003 4.73368855e-004
      -8.61279259e-004 -3.44244996e-003 -6.33753836e-004 2.76598497e-003
      -2.62692501e-003 1.18776574e-003 -2.87662609e-003 7.16359355e-004
      -1.54335270e-004 1.83137122e-003 6.28267589e-004 -5.21407113e-004
      -5.15899097e-004 -2.87601282e-003 7.52104330e-004 1.92151419e-004
      -7.08395848e-004 1.95413991e-003 -1.17152894e-003 4.22911631e-004
      2.52560247e-003 2.09577219e-003 -1.33279199e-003 4.89512982e-004
      -8.42590380e-005 8.13531806e-004 1.69439137e-003 2.35127634e-003
      -1.85631914e-003 3.17529542e-003 -1.24262262e-003 -4.03449114e-004
      4.50451698e-005 -1.30400248e-003 5.42604458e-003 -4.95289266e-003
      9.04007116e-004 -9.56546224e-004 -1.05556892e-003 5.35047147e-004
      -5.53455029e-005 1.98177397e-004 -2.40015727e-003 2.99804291e-004
      -8.15419597e-004 1.89872435e-003 1.38834701e-003 -1.38634394e-004
      3.55052121e-004 1.22035644e-003 -3.22058168e-003 2.05710810e-003
      5.84669469e-004 7.23849153e-005 1.36139861e-003 1.44598226e-003
      -8.93131597e-004 -1.11433293e-003 -2.30709236e-004
      -1.62188464e-003 -4.34264727e-003 -1.91616116e-003 1.39021676e-003
      -2.10363371e-003 -1.53732995e-004 -1.09239388e-003 3.22163658e-004
      -8.53962789e-004 -2.83760438e-003 1.12878811e-003 6.77140488e-004
      -2.48323428e-003 -3.89520219e-003 -3.65892891e-004 1.41753396e-003
      2.29806197e-003 4.98204585e-003 -4.48315125e-003 -7.76338158e-004
      -1.91813346e-003 2.57795118e-003 -1.95961911e-003 5.76442922e-004
      -1.42340071e-003 -2.00475391e-004 5.61039778e-004 2.39852839e-003
      -4.32467600e-003 -2.09878641e-003 -1.71496300e-003 4.49686740e-005
      -6.52029921e-005 2.30326876e-003 8.25306773e-003 4.33199806e-003
      1.38792861e-003 -2.49933073e-004 5.30725287e-004 1.89238379e-003
      8.47286370e-004 -1.62021234e-003 -4.56172653e-004 -4.50963533e-004
      -6.07068127e-004 6.30444475e-003 8.24474671e-004 -1.04651896e-004
      7.63286720e-004 -2.11078767e-003 -1.36183097e-003 1.76604558e-003
      8.57773412e-004 -3.55615703e-005 -3.44013097e-003 9.72284528e-004
      1.35071939e-004 -2.17883452e-003 2.91166416e-005 -4.20235051e-003
      -1.19051640e-003 1.18537992e-003 5.76358149e-003 4.97102272e-003
      -2.15354259e-004 1.34241971e-004 2.09073699e-003 2.86411098e-003
      7.81345647e-004 1.85391691e-003 -1.26971700e-003 2.05725501e-003
      -4.84014302e-003 2.13191751e-003 -1.82651216e-003 1.33202365e-003
      -2.66149943e-003 2.36878564e-004 1.76452089e-003 -1.41165964e-003
      5.79177169e-003 -7.10684992e-003 1.26635330e-003 -1.32910896e-003
      2.19114940e-003 -1.90172970e-004 -2.66828807e-003 -3.91231850e-004
      -2.35491805e-003 -2.14467430e-003 -1.07678049e-003
      -1.22381258e-004 4.64819081e-004 4.29896824e-003 1.31773227e-003
      -1.69381814e-003 -3.29387491e-004 1.06890737e-004 7.76803179e-004
      2.90498906e-003 -4.94530599e-004 -2.29543215e-003 1.13761507e-003
      -7.44367309e-004 -2.82788300e-003 2.57228874e-003 6.87465770e-004
      2.64366885e-004 2.83708330e-004 -2.35694484e-003 1.72378181e-003
      1.34077121e-003 -3.58070596e-004 7.07349565e-004 -2.55741586e-004
      -6.14886114e-004 -2.35643564e-003 -2.19145237e-004 2.98465457e-004
      -3.67686292e-003 -6.28404459e-003 7.32408883e-003 3.66478809e-004
      7.60316179e-005 6.40044163e-004 1.21973280e-003 2.31239363e-003
      -3.40207457e-003 -1.02495564e-004 3.21153551e-003 4.53728903e-003
      2.63174559e-004 1.32843270e-003 -4.62717260e-004 -4.52833716e-003
      -7.44810561e-003 -8.47336312e-004 -2.36380496e-003
      -1.63122104e-003 7.48376944e-004 -3.67478235e-003 -2.30031041e-003
      7.35070615e-004 -1.48568593e-004 -1.54620328e-003 1.83652539e-003
      -4.70776577e-003 -1.18678785e-003 -1.68312527e-003
      -8.63807218e-004 5.12485276e-004 -1.96091994e-003 9.13948938e-003
      1.78828801e-003 3.52863426e-004 1.74017937e-003 7.93350046e-004
      -1.80915359e-003 5.87205053e-004 1.22802588e-003 1.56980750e-004
      1.08293677e-003 -6.71132118e-004 1.61299063e-003 4.76430031e-003
      5.76967606e-004 5.89345349e-004 2.82943854e-003 -1.71548536e-003
      2.24685296e-003 1.40945357e-003 -6.55011623e-004 -3.60125722e-003
      -5.34120190e-004 2.92709039e-004 -8.39399814e-004 -3.06130096e-005
      -3.09200608e-003 -2.28654617e-003 -2.20994861e-003 6.39962591e-003
      2.16965238e-003 6.64517866e-004 -1.18689821e-003 4.90115723e-003
      2.34077056e-003 -1.53957331e-003 1.19628641e-003 -8.76714999e-004
      5.92629565e-003 -3.82330571e-003 2.88759940e-003 -1.38699333e-003
      1.45637197e-003 1.95680277e-005 2.81692715e-004 -6.50673639e-004
      -1.24936027e-003 1.25267368e-003 -5.30594029e-003 -1.74429361e-003
      2.21643335e-004 1.52625109e-003 -1.51401211e-003 -2.06796220e-003
      -2.43632542e-003 -2.76241475e-003 -5.34827359e-006 2.24948919e-004
      1.53072109e-003 1.12427457e-003 4.10660263e-003 2.97502731e-003
      -2.36515724e-003 -9.98082687e-004 1.29537389e-003 1.82294461e-003
      7.57828311e-005 -1.57511863e-003 -2.04626494e-003 -1.79554813e-003
      5.04243872e-005 5.30786067e-003 -1.20567693e-003 -1.05348404e-003
      -9.36957949e-004 2.62570305e-004 -4.63605975e-004 8.90240888e-004
      7.19732314e-004 -4.68766084e-004 -2.86036381e-003 2.59226770e-004
      8.62321642e-004 -3.05938232e-003 -7.07877844e-005 1.23635097e-003
      -3.73184099e-003 -4.80765663e-003 6.74074166e-004 4.23368579e-003
      5.17226523e-004 -8.36300547e-004 2.27517821e-003 2.20322609e-003
      -1.91933033e-003 1.69393956e-003 3.81307397e-003 -4.25097998e-003
      -6.32178364e-003 2.44154013e-003 1.59463787e-003 2.02436326e-003
      -3.45807895e-003 -5.54606726e-004 -8.68761796e-004
      -1.73800124e-003 3.35822953e-003 4.84997407e-003 1.31606683e-003
      -5.66106813e-004 -3.62967257e-004 -1.21815316e-003
      -1.73302297e-003 2.65969400e-004 -3.18113808e-003 -1.86228135e-003
      8.81326268e-005 -4.92294785e-004 -2.26461608e-003 3.09269968e-003
      -2.52620270e-003 -4.26631595e-004 2.23671366e-003 1.49984774e-003
      1.63528952e-003 -1.02023315e-003 -2.11122353e-003 -3.11437948e-003
      -1.80955732e-003 -2.97911047e-005 5.82776358e-003 1.65369315e-003
      1.70969509e-003 -2.39222148e-003 1.63144816e-003 2.71837856e-003
      1.42578688e-003 4.82385716e-004 -1.28621934e-004 -8.03144067e-004
      -1.17854460e-003 3.16515449e-004 -6.91485999e-004 -2.94070516e-004
      -1.05060218e-003 -2.66577839e-003 -3.70862335e-003
      -8.34861887e-004 1.48971530e-003 -7.31962442e-004 -2.56948965e-003
      1.89338159e-003 1.86406111e-003 -1.19390641e-003 1.49135885e-003
      1.61023450e-003 -5.34509495e-003 -4.44109598e-003 -8.60726286e-004
      1.86414097e-003 -1.50557631e-003 2.10931129e-003 5.74664038e-004
      1.52440614e-003 -1.93779833e-005 3.43090389e-003 5.73132979e-003
      4.25803504e-004 9.25165019e-004 4.49906511e-004 1.15036921e-004
      -1.23755878e-003 8.91206437e-004 -2.20879703e-003 -1.93042884e-004
      -3.44042230e-004 -1.31946779e-003 -3.29218718e-004 1.09377550e-003
      -4.20811865e-003 -1.80217007e-003 1.48446532e-003 -3.13966913e-004
      9.85264778e-004 3.13418289e-003 -6.18544582e-004 -5.44294540e-004
      -3.29671986e-003 -4.05181723e-004 -3.99647979e-004 2.14790530e-003
      3.94874718e-003 6.17175072e-004 -3.34160263e-003 -2.91811000e-003
      5.13459614e-004 -3.84580286e-004 -5.71895565e-004 1.86707720e-003
      3.83385050e-005 4.28931759e-004 -5.74850303e-004 2.33416125e-004
      6.96293602e-004 -3.99524870e-004 -6.66231033e-004 3.86506249e-003
      1.10947015e-003 -4.51215717e-004 -1.96181587e-003 3.50134983e-003
      2.07402254e-003 3.91321693e-004 8.05439020e-004 2.31316569e-003
      -1.26280545e-004 -2.97609717e-003 -1.74006762e-003 6.06691523e-004
      2.81284470e-003 -3.12600727e-003 -2.70423852e-003 -4.85757919e-004
      -7.23577032e-005 2.44400860e-003 1.79873907e-003 1.89939770e-003
      6.09158596e-004 4.60932410e-004 3.98732460e-004 1.52131438e-003
      9.12196818e-004 -7.74684013e-004 -3.99448269e-004 -5.63765934e-004
      2.88550090e-003 -8.01951828e-005 -1.63718403e-004 -4.87936474e-003
      -1.64617179e-003 2.90587283e-004 -8.33903250e-005 1.36183126e-005
      9.48391040e-004 -5.63784176e-003 -3.97138856e-003 -3.48299928e-003
      3.42871994e-004 1.77549361e-003 -3.58622310e-005 9.16066172e-004
      7.11325498e-004 3.91111523e-003 2.38263584e-003 1.24080107e-003
      1.02196494e-003 -9.25493368e-005 1.17931957e-003 -1.00758800e-003
      -5.67595882e-004 -6.76491181e-004 -1.11009402e-003
      -1.31803285e-003 -3.18273995e-003 -1.82577944e-003 1.26898475e-003
      -1.50019862e-003 8.70195508e-004 -4.54327511e-003 3.98451556e-003
      -5.94909536e-004 -3.17813386e-003 1.09520543e-003 -1.05966767e-003
      3.87552404e-003 -4.20948816e-003 -6.18080609e-004 2.11552088e-003
      3.39533086e-003 -4.91767074e-004 1.14800139e-004 -7.05027021e-004
      -2.31563533e-003 3.07153934e-003 -2.38157483e-003 -2.64739851e-003
      3.03729932e-004 -5.48114367e-005 -1.02220984e-004 2.34431331e-003
      -1.76918367e-003 3.62121500e-004 -3.39970313e-004 7.37064038e-005
      2.22495291e-003 1.76429760e-003 3.41281830e-003 -6.24547340e-003
      -1.89664471e-003 -2.26201344e-004 9.86702275e-004 2.43826234e-003
      -1.07021478e-003 9.01110179e-004 -3.50724818e-004 -9.82676400e-004
      2.39548259e-004 1.61240075e-003 1.43943261e-003 1.99076952e-003
      1.35532056e-003 -9.27361601e-004 4.07432998e-003 9.56014381e-004
      8.57380277e-004 1.59957373e-004 9.49530513e-004 -2.90848111e-004
      3.25545843e-004 1.34684360e-005 -3.78151424e-004 -2.92401086e-003
      -2.97322986e-003 -3.80044989e-003 4.76542534e-003 -8.28711083e-004
      -1.74327157e-004 1.61249621e-003 1.25890248e-003 1.97727140e-003
      -1.29886018e-003 2.61863135e-003 1.53190386e-003 -4.91294684e-003
      -5.71605330e-003 1.63837249e-004 -8.04119976e-004 -8.49273114e-004
      2.65215803e-003 -1.20268529e-003 1.35284220e-003 1.55460590e-003
      3.00926738e-003 -3.90184694e-003 5.20318456e-004 -8.78412218e-004
      3.48525168e-003 2.19772523e-003 3.69414431e-003 -1.86626613e-003
      -1.68071454e-003 7.75074586e-004 -1.16965721e-005 2.17854255e-003
      -4.31795983e-004 4.27161949e-003 -9.56471427e-004 -2.36078212e-003
      -4.52172317e-005 -2.66935996e-004 8.82148161e-004 1.89671805e-003
      2.52796081e-003 -1.26827660e-003 -3.17107566e-004 -1.93697015e-005
      -1.63468719e-003 -3.15554463e-003 3.48888501e-003 -1.24721124e-003
      -2.57391087e-003 2.67636892e-003 -1.67927123e-003 3.42277111e-004
      1.28095809e-004 -6.77411663e-006 2.32837256e-003 -1.01930811e-003
      -8.25155876e-004 4.58371156e-004 -2.57934909e-003 -5.08449785e-003
      -4.75163525e-003 -7.24947255e-004 3.21554544e-004 -4.33334470e-004
      -1.35343254e-003 -4.81415373e-005 1.29719824e-003 -2.88769114e-003
      -2.97591556e-004 1.49920769e-003 -2.82350299e-003 -4.66119871e-003
      1.52663575e-004 3.16179427e-003 2.60985253e-004 5.76240709e-004
      6.30601644e-005 3.45380744e-004 3.09861876e-004 3.12932138e-003
      -9.06876754e-004 4.32487403e-004 3.65175860e-004 3.47043690e-003
      9.17727826e-004 -2.25124590e-004 -4.95947897e-003 -1.48879702e-003
      -1.64656341e-003 6.05902496e-005 1.91585394e-003 1.51755079e-003
      -6.75460251e-005 -1.51186856e-003 2.50784471e-003 8.65095179e-004
      3.42788262e-004 1.59939425e-003 4.72648069e-003 1.25082768e-003
      -1.53414643e-004 -1.41070923e-003 -5.47058880e-004
      -8.88716488e-004 5.34201832e-003 4.69593622e-004 1.90598518e-003
      1.31526787e-004 9.68874723e-004 -1.47040410e-003 1.59446930e-003
      -6.77601900e-004 1.16689174e-004 5.04679163e-004 -2.03862763e-003
      -3.51420790e-003 4.31822496e-004 6.35636388e-004 -5.11973165e-003
      -3.33424937e-003 5.89976832e-003 -3.74341413e-004 2.57311203e-003
      3.33952694e-003 2.33865133e-003 2.49643484e-003 -3.09085054e-003
      4.26013692e-004 4.35596710e-004 -1.27119164e-003 -5.90650039e-003
      -5.22472314e-004 -4.03813669e-004 -3.01156868e-003 5.33380487e-004
      2.60844990e-003 6.88025466e-005 3.64316424e-004 2.38976395e-003
      -5.41486370e-004 -1.93006988e-003 8.85450398e-004 2.67491001e-003
      -2.02209500e-004 -5.41336089e-003 -8.61098431e-003
      -3.58089874e-003 -2.72044237e-003 3.17964645e-004 -2.83067435e-004
      -1.71752385e-004 3.99407744e-003 -1.82638830e-003 2.54691648e-003
      5.35850821e-004 -1.16705887e-004 3.01176653e-004 5.53902984e-003
      4.86107776e-003 -2.79488717e-003 -8.41995818e-004 -1.46056758e-004
      3.69334407e-003 3.54581466e-003 -4.73243650e-004 1.26958557e-003
      -9.59760873e-005 -2.76373443e-003 1.55605259e-003 1.89405386e-004
      -4.45890328e-004 -2.51495535e-003 -4.92400141e-004 2.93784484e-004
      -2.07495573e-003 -6.62980077e-004 4.21131583e-004 -2.63129245e-003
      -1.82917560e-004 6.37270277e-004 2.15558405e-003 1.66142487e-003
      -2.81376718e-003 2.97943479e-003 1.96960988e-003 -4.06414270e-003
      -4.91283194e-004 8.72009667e-004 6.31162617e-003 -3.65348812e-003
      9.14059579e-004 -1.33262912e-003 7.57286762e-005 -1.19268161e-003
      -1.13803013e-004 3.28359223e-004 -3.31373070e-003 -6.32800336e-004
      2.76304805e-003 5.27800934e-004 3.61387240e-004 1.23287539e-003
      1.94236857e-003 -5.34370868e-003 -5.58543438e-003 -6.61884155e-003
      -8.12785875e-004 1.14945309e-004 -1.18198059e-003 -1.09659694e-003
      2.20209500e-003 1.14936486e-003 1.43153861e-003 1.48557127e-003
      1.57174666e-003 1.64575293e-003 3.47381691e-003 -1.19576878e-004
      -5.35227638e-003 -2.71280791e-004 -4.58389288e-004 1.11431326e-003
      6.74741669e-003 4.75193048e-003 -5.91437914e-004 4.08420851e-003
      5.26555232e-004 1.69333350e-003 4.32688190e-004 -7.22323544e-004
      -2.73598009e-003 -2.66864634e-004 6.32012961e-004 -9.65780229e-004
      -3.63049403e-005 -3.00075946e-004 -2.31532659e-003
      -5.40658692e-003 3.50382808e-003 5.54756960e-004 8.87032773e-004
      -2.42284586e-004 2.83898000e-004 9.17691868e-005 -1.20931212e-003
      -8.22043454e-004 1.26909278e-003 1.36459188e-003 -3.71273328e-003
      1.08330534e-003 -3.42543027e-003 -3.83447157e-003 1.36431050e-003
      1.11844483e-005 -4.19587566e-004 -4.72743151e-004 7.47855462e-004
      4.65938123e-003 -9.73221380e-004 3.20083345e-003 2.18642922e-003
      9.89549211e-004 -2.13847286e-003 -5.31726144e-003 -5.80186443e-003
      -2.16674246e-003 -5.09446370e-004 -2.49745650e-003
      -1.67467957e-003 7.66459212e-004 1.78081426e-003 3.10382852e-003
      2.56469648e-004 2.08804337e-003 1.75302464e-003 -1.80740462e-004
      -5.45018259e-003 -2.68492987e-003 -4.21476580e-004
      -3.29291361e-004 5.26043400e-003 7.76156830e-003 -4.78818722e-004
      -7.46315112e-004 2.26536347e-003 6.91490772e-004 2.96882633e-003
      3.64136940e-005 -2.50694953e-004 -7.08006031e-004 1.15695689e-003
      1.70908798e-003 -7.94211577e-004 2.34491483e-004 5.23639261e-004
      -2.12995964e-003 -5.16235270e-003 1.95394573e-003 -3.78231890e-003
      6.27695350e-004 1.58784736e-003 1.13584904e-003 1.08421873e-003
      -2.28785886e-003 1.47000724e-003 3.12591786e-003 1.88161037e-003
      -4.72197030e-003 3.55946901e-003 1.04577013e-003 7.97119923e-004
      2.83449376e-003 -2.51210935e-004 6.35288772e-004 -1.65598851e-006
      1.83862273e-003 3.97899095e-003 -9.67709348e-004 -3.92205518e-004
      3.42854438e-003 -9.37219826e-004 9.20274702e-004 -4.47616167e-003
      -2.25300365e-003 2.54481682e-003 -3.64973035e-004 1.59237883e-004
      -2.97151576e-003 -2.98665464e-003 1.25285552e-003 6.39833335e-004
      -7.53189903e-004 7.16862327e-004 6.60624180e-004 1.12925212e-004
      -2.84948363e-003 -5.34778880e-003 -7.80866132e-004
      -1.03110433e-004 -2.33397493e-003 -7.67749880e-005
      -1.73418201e-003 -6.22953754e-004 7.66200188e-004 1.74944336e-003
      1.97976315e-003 1.85907085e-003 -4.28147468e-004 1.55058538e-003
      3.77754128e-004 5.97024395e-004 -2.50226865e-003 3.54082033e-004
      -5.19445981e-004 -3.70851043e-003 9.28410736e-004 -1.35303754e-003
      -1.49511604e-003 -1.42799487e-004 -2.64156819e-003 2.62314267e-003
      -3.93689756e-004 -2.10268260e-003 4.30486689e-004 4.15793573e-003
      -3.28190951e-003 -5.10664657e-003 1.46178121e-003 -7.89138023e-004
      -1.66780176e-003 -5.37134620e-005 2.27358192e-003 -1.87713152e-003
      -1.91903629e-004 2.46308208e-003 4.06009099e-003 -2.06920481e-003
      -1.88520571e-004 2.56480230e-003 1.05457578e-003 -7.37682742e-004
      9.77260293e-004 -1.82887784e-003 -2.40393449e-003 3.43454711e-004
      -3.26659618e-004 -8.79354367e-004 2.91394861e-003 8.43288202e-004
      -4.68009897e-003 1.32109475e-004 1.10267510e-003 1.15864573e-003
      -1.76388957e-003 -4.23925789e-003 2.69595650e-004 -9.92643996e-004
      2.65463954e-004 2.90296716e-003 3.26703489e-003 3.00967880e-003
      -1.01440353e-003 3.17605468e-003 7.25274673e-003 -3.29262373e-004
      5.62806847e-004 1.18706041e-004 -2.43318081e-003 -6.39480131e-004
      1.52482325e-003 -2.51062727e-003 -4.64768033e-004 -6.68822147e-004
      -2.65014055e-003 1.00720767e-003 3.89690651e-003 -4.78873088e-004
      -2.54448550e-003 -1.46629277e-003 4.64545283e-003 -2.76078540e-003
      5.84140420e-003 2.72032246e-003 2.57955026e-003 1.68332027e-003
      -1.16885104e-003 -2.85955030e-004 2.35495321e-003 -5.65061986e-004
      -1.20633270e-003 -1.18347059e-003 -2.03126809e-003
      -5.30280580e-004 7.24848872e-003 2.98208441e-003 1.76051934e-003
      1.77454832e-003 6.16677164e-004 -2.64127459e-003 2.85560265e-003
      4.68608370e-004 -6.88073749e-004 -1.28652889e-003 -3.65728083e-005
      -1.28021732e-003 -2.62547750e-003 -7.16672221e-004
      -3.03420890e-003 -6.63316983e-004 6.70628098e-004 -5.25007606e-004
      -7.37220224e-004 -2.30388995e-003 -4.67251567e-003
      -8.01307397e-006 7.76836969e-005 -9.82136626e-005 7.52834138e-004
      1.97391812e-004 -6.12575153e-004 -9.53419483e-004 2.74396880e-004
      8.37156840e-004 7.45727331e-004 1.12346560e-003 9.45524080e-005
      2.00417405e-003 1.19389256e-003 -6.30967086e-004 -1.38335885e-003
      -9.57604032e-004 -2.07544328e-003 -4.76996787e-003
      -2.47814530e-003 -3.53542768e-004 9.54006857e-004 -1.46854494e-004
      -1.31102290e-003 1.27350353e-003 1.72331254e-003 6.32621348e-004
      -1.07342307e-003 2.29527405e-003 -7.74582615e-003 4.27897647e-003
      2.04454665e-003 -4.33983514e-004 -9.19399143e-004 -4.62118397e-003
      4.98390931e-004 5.05419273e-004 -1.31421184e-004 7.46207952e-005
      -1.73268782e-003 -1.44931336e-003 -7.04077072e-004
      -5.02524665e-004 2.47279042e-003 6.80529221e-004 -4.61782143e-003
      -1.26838870e-003 -9.31139803e-005 5.81501168e-004 1.40718429e-003
      4.40292573e-003 4.01080912e-003 -1.48738141e-003 1.30156882e-003
      9.41718463e-004 -8.64219852e-004 -1.08710847e-004 3.68436053e-003
      1.54191021e-005 -2.44240998e-003 5.99457009e-004 -1.71250635e-004
      -3.17726634e-003 -4.31539811e-004 4.33115149e-003 8.39563203e-004
      1.61063194e-003 1.68139406e-003 -2.70490255e-003 6.17027050e-004
      -8.36194977e-006 -1.10005308e-003 1.03501021e-003 -2.33146275e-004
      2.06344979e-004 -4.35124617e-004 -2.27938010e-003 -2.95660662e-004
      -1.85606664e-003 7.61305075e-003 -6.45483844e-004 1.59273113e-004
      3.29806097e-003 1.49768533e-003 -2.61528976e-003 3.58270761e-003
      1.35928974e-003 -1.23681943e-003 -3.17089329e-003 7.50183593e-004
      2.08116975e-003 3.22257838e-004 -8.29154567e-004 -1.75973866e-003
      -1.39915128e-003 1.18522905e-003 2.59405060e-004 1.07349968e-003
      -3.36573715e-003 -3.58376745e-003 2.74697784e-004 -7.19290983e-004
      8.40905181e-004 2.15508649e-003 -4.98629408e-003 -4.31857444e-003
      -5.15180698e-004 5.23865980e-004 1.44221901e-003 1.98067981e-003
      3.70468176e-003 9.01197258e-004 1.07713488e-004 -3.80674086e-004
      -2.17947783e-003 2.09488650e-003 3.22999875e-003 -3.67050897e-003
      1.42539517e-004 -6.69220244e-005 -1.97301575e-004 2.48566596e-003
      -3.21028032e-003 3.02102882e-003 1.45103331e-004 -4.58007940e-004
      -1.95313172e-004 -1.38327980e-003 2.19477131e-003 2.01694536e-004
      -1.61651545e-003 1.25685683e-003 4.25978535e-004 -2.32777419e-003
      -1.41279670e-004 -6.20528124e-004 -4.92561422e-003 2.07469857e-004
      3.92444944e-003 5.47998236e-004 1.04788330e-003 -1.54558860e-003
      2.20983685e-003 -5.74503851e-004 8.76974547e-004 -1.06529088e-003
      -2.88481882e-004 2.97432556e-003 2.71646772e-003 -6.08266018e-005
      -3.77725763e-003 -2.13681441e-003 4.74342052e-003 6.84899045e-004
      -8.40242486e-004 -2.94196792e-003 -2.97303894e-004
      -1.96275371e-003 -1.00766926e-003 1.03490567e-003 4.38217167e-003
      3.25529184e-003 -1.80372468e-003 -4.64189285e-003 -2.60597677e-003
      -1.27411832e-003 2.36136781e-004 1.59844663e-003 3.26608191e-003
      2.79848068e-003 -1.42312457e-003 -1.80444244e-004 -2.32485094e-004
      -1.06419600e-003 -2.93854362e-004 1.52184081e-003 -5.88435261e-003
      -1.11001683e-003 9.40705708e-004 2.27041528e-004 4.15425841e-003
      5.21004491e-004 1.36337883e-003 7.21920049e-004 -8.14736122e-004
      1.91797537e-003 3.36718600e-004 1.51622563e-003 3.40234896e-004
      -9.77074145e-004 6.11907279e-004 1.33224239e-004 -4.15216992e-003
      -3.10919859e-004 1.22676033e-003 -3.97064118e-003 -4.59253695e-003
      2.70890840e-003 2.32434156e-003 -6.56572054e-004 1.91364248e-004
      2.47604074e-003 1.52370182e-003 -2.20578490e-003 1.92689139e-003
      1.71332166e-003 4.85657481e-003 -1.84200157e-003 -7.47132348e-004
      4.32006520e-004 -4.25203703e-004 2.33791349e-003 2.03756359e-003
      -3.42089334e-004 1.40295655e-003 1.72718801e-003 -3.76847293e-003
      -2.13951105e-003 1.73011608e-003 -7.64550350e-004 -2.83033529e-004
      1.97613752e-003 -5.83352894e-003 -5.98262623e-003 -1.78007432e-003
      8.13098450e-004 -2.61516448e-006 -2.38209148e-004 2.74672086e-004
      -3.93974595e-003 -1.46571104e-003 1.68889784e-003 -3.17854166e-004
      2.59774644e-003 -1.12861360e-003 -7.87641201e-003 -5.94966952e-003
      2.50292965e-003 2.65584415e-004 9.99288075e-003 5.54947415e-003
      1.48358663e-006 1.03382696e-003 1.08085945e-003 -4.34795860e-004
      4.40349570e-003 7.31819193e-004 -4.69107996e-004 -2.73934612e-003
      -1.22206844e-003 -2.25812220e-003 -4.13199421e-003
      -2.72802718e-004 2.54395214e-004 -1.70357106e-003 3.65030370e-004
      3.79146222e-005 4.87511483e-004 -8.24171293e-004 -1.51380186e-003
      1.77032081e-003 1.87331496e-003 -8.71202617e-004 3.37776670e-004
      1.75251905e-003 7.17666326e-003 -7.98047869e-004 -2.59905471e-004
      1.96622161e-004 -1.13408477e-003 3.14816553e-003 6.02648397e-005
      -3.36701097e-003 -2.69091233e-005 -2.40511983e-003
      -1.62434718e-003 1.83524599e-003 3.27171903e-004 8.07718199e-004
      2.03585936e-004 -3.94878071e-003 -9.28254612e-003 -4.91556991e-003
      2.29962698e-005 -7.92552950e-004 6.17860278e-005 2.01300904e-003
      5.85789513e-003 -4.25383369e-005 -9.02864907e-004 -2.96146085e-004
      1.95055665e-003 1.45645827e-004 3.46220331e-003 -5.15803229e-003
      -2.16899673e-003 -1.43995706e-003 -1.62118158e-004 7.33704818e-003
      8.36474297e-004 -2.37172553e-005 6.41646504e-004 -4.38232615e-004
      3.21048498e-003 2.16369843e-003 1.30120176e-003 1.54040458e-006
      -3.92925041e-003 -1.02132023e-003 1.27546676e-003 -1.21900940e-003
      -1.76960893e-004 1.32492639e-003 -2.84204911e-003 -3.61307866e-005
      9.30581184e-004 9.45770240e-004 2.10231845e-003 1.68558862e-003
      1.96880149e-003 2.38771434e-003 2.69614020e-006 4.99466259e-004
      2.79936870e-003 4.02612472e-003 -3.21549713e-003 -6.29561488e-004
      -1.09880042e-004 -6.62279956e-004 1.53215963e-003 -1.60428684e-003
      -8.20263696e-004 -3.93917784e-003 9.74187860e-004 5.35179162e-004
      1.31438137e-003 5.03278454e-004 -1.19107042e-003 -2.08553439e-003
      -2.52340245e-003 -3.11558810e-003 -5.05467225e-003 1.67018070e-003
      -5.32066741e-004 -1.70190854e-003 -2.63953280e-005 3.98538867e-003
      2.30547879e-003 -2.40674871e-003 4.48777369e-004 1.36012025e-003
      -5.19579044e-004 -1.10466091e-004 -4.14620526e-003
      -1.20521977e-003 1.44469796e-003 8.30726640e-004 2.15200265e-003
      7.30247935e-003 -4.05928731e-004 2.25245458e-004 3.87440249e-003
      -1.43090810e-003 2.06955173e-003 2.05140197e-004 -6.09282055e-004
      -3.66351404e-003 -1.03982107e-003 -2.24204850e-005
      -2.73625972e-003 4.58330702e-004 3.82557366e-004 -2.83574918e-004
      -5.13118366e-003 -1.53121829e-003 -4.46672144e-004 1.58697378e-003
      9.64066421e-004 4.75881575e-003 1.56596862e-003 1.71477569e-003
      -2.02039184e-004 -1.06238958e-003 -2.81923171e-003
      -4.86530503e-003 5.90543728e-004 2.62353639e-003 -2.95896502e-003
      -4.56638139e-004 -1.00941537e-003 4.05905943e-004 2.41619826e-004
      -4.88991718e-005 2.27811188e-003 -1.49351428e-004 -1.30552973e-003
      1.34045689e-003 1.49703608e-003 -1.14646240e-003 -3.34708276e-003
      -3.66065279e-003 1.63793878e-003 1.00179506e-003 1.74748490e-003
      2.90128402e-003 1.79537665e-003 -2.17945874e-003 1.30577770e-003
      5.32511389e-004 3.68624157e-003 2.26719491e-003 1.80691981e-003
      -1.63960177e-003 -2.76274560e-003 -8.61386012e-004 1.50077482e-004
      7.01331883e-004 1.04949670e-003 -4.17638192e-004 1.13486101e-004
      -2.55253282e-004 -2.93218880e-003 -5.58662286e-004 1.16019242e-003
      3.51056602e-004 -5.04755531e-004 -2.00089082e-004 1.91892032e-003
      -3.06686712e-003 -1.48134190e-004 -1.14641211e-004
      -2.99399183e-003 -4.96315188e-005 3.73861799e-003 -3.52123845e-003
      1.34860491e-003 -3.20535409e-003 2.41301465e-003 7.81567593e-004
      5.19859698e-003 5.97664504e-004 2.65221111e-003 -5.30334143e-003
      -8.80074967e-003 4.75943729e-004 1.25191291e-003 1.55981013e-003
      3.61376069e-003 -4.00491292e-003 1.46921910e-003 -1.35797844e-003
      5.99185145e-003 -9.21912084e-004 -1.62490946e-003 1.14264223e-003
      1.06875564e-003 3.04292684e-004 3.46987578e-003 3.58649180e-003
      -1.39674195e-003 -9.11642332e-004 -2.44965893e-004
      -7.32983171e-004 -1.17408682e-003 -2.25184415e-003
      -1.34378858e-003 1.14332209e-003 3.00577994e-005 -4.84597665e-004
      -9.61192884e-004 1.95833552e-003 -3.75949405e-003 2.60751403e-004
      -1.04015041e-003 -1.05507977e-004 -1.15403568e-003 1.56345218e-003
      -3.23181739e-004 1.46024700e-004 7.67565274e-004 4.15527727e-003
      -2.69272109e-003 5.15874592e-004 -1.79964671e-004 -4.05359635e-004
      -3.60179140e-004 4.74544766e-004 6.08010043e-004 -6.16605044e-004
      1.54454424e-003 -1.23763201e-003 -3.71552282e-003 4.39132238e-003
      -3.01912357e-003 1.11726474e-003 -2.85208458e-003 1.71877421e-003
      3.16159823e-003 1.55555829e-003 1.49510230e-003 3.39891249e-003
      1.73793745e-003 -3.74922529e-003 1.18553569e-003 -6.19881961e-004
      2.30300240e-003 -8.45050206e-004 3.26388446e-003 -1.06308027e-004
      2.05194717e-003 -6.27978297e-004 -2.21545552e-003 2.45319190e-003
      1.73169572e-003 -9.87581094e-004 1.52225327e-003 1.32690335e-003
      -1.37448753e-003 -5.44230454e-004 1.30761298e-003 9.18740843e-005
      -1.27951032e-004 1.67987356e-003 -4.02880309e-004 5.01632258e-007
      -4.64573561e-004 1.54468184e-003 -1.32936926e-003 1.22919795e-003
      6.07553404e-004 -5.00818761e-003 -9.57278593e-004 -1.89988164e-003
      -4.57323593e-004 -6.93682721e-003 -1.79824268e-003 2.77807191e-003
      3.35015648e-004 1.29323220e-003 -7.18129659e-003 -2.63003167e-003
      7.76007655e-004 -9.09383598e-005 8.08787649e-004 1.12592196e-003
      2.06292514e-003 -4.41447599e-004 -5.44092734e-004 -1.56406104e-003
      -8.64203088e-004 -4.16148570e-004 5.74269041e-004 -3.75992269e-003
      -2.84798141e-003 -1.82244077e-003 -2.29387340e-004 4.37267270e-004
      1.50454068e-003 -7.69728504e-004 2.35193432e-003 9.11461597e-004
      3.98345664e-003 -6.13804092e-004 1.11374626e-004 2.38702539e-003
      -1.55466306e-003 2.39430135e-003 -4.68033773e-004 2.74944259e-003
      5.19410335e-003 -1.54928863e-003 -4.41963028e-004 -9.78258438e-004
      -7.71130086e-004 1.30038022e-003 -2.07031542e-003 4.33490670e-004
      -1.84507191e-003 -1.07622429e-004 -5.48094840e-006
      -1.35089387e-003 -2.37110653e-003 6.23798871e-004 1.84098817e-003
      -5.93155040e-004 6.85364823e-004 -1.20845705e-003 -1.29166862e-003
      1.12786680e-003 2.51605012e-003 -2.90405261e-003 -1.34698697e-003
      4.43066325e-004 -2.93222372e-003 2.14347290e-003 6.06887334e-004
      4.83586104e-004 8.00805283e-004 9.38957790e-004 6.08534610e-004
      9.89904045e-004 -6.06316025e-004 4.56012785e-003 1.83490745e-003
      7.86867342e-004 1.17758196e-003 -1.37003488e-004 -3.55628086e-003
      -4.01004683e-003 -4.35853098e-003 -9.94148431e-005 2.26776046e-003
      -6.38583326e-004 5.17462671e-004 -7.02607271e-004 6.13920798e-004
      -1.97775487e-004 1.26339472e-003 3.82838631e-003 4.21314593e-003
      4.72154515e-003 1.03328668e-003 -7.67546357e-004 -1.18505757e-003
      -3.22313211e-003 8.38328793e-004 4.10330860e-004 -2.04182128e-004
      3.99700506e-003 -4.45180153e-003 -1.75617146e-003 -3.10164149e-004
      3.23389098e-003 -4.03073354e-004 -4.78065893e-004 1.41567143e-003
      -4.56504663e-003 3.24598164e-004 -1.09783933e-003 -4.45880112e-004
      -7.38459697e-004 2.08271973e-004 -4.68829088e-003 5.28809614e-004
      7.17322051e-004 -1.42139697e-003 9.66354855e-004 -1.91733846e-003
      -3.78166814e-003 -2.24241987e-003 -5.44069509e-004 4.41643846e-004
      -1.85638666e-003 3.95840872e-003 5.65588428e-003 5.69606491e-004
      3.72650102e-003 8.36059626e-004 5.28982899e-004 1.91836630e-003
      -5.75584825e-004 2.93618813e-003 3.20455671e-004 -1.03913341e-003
      -2.71304790e-003 -2.13380379e-004 -1.95246097e-003
      -4.02775221e-003 -3.75385210e-003 7.15934951e-003 -8.91719756e-005
      -9.57010707e-005 2.30588345e-003 1.85425591e-003 2.44430173e-003
      2.32809107e-005 2.02594418e-003 3.69176455e-003 2.01118621e-003
      7.30554224e-004 -1.96425943e-003 3.02086887e-003 3.88284773e-003
      3.76739167e-003 5.65608207e-005 1.05640606e-003 2.27548662e-004
      2.39326083e-003 7.76328554e-004 1.21463835e-003 -3.30183975e-005
      4.70775936e-004 3.09929554e-003 -2.32596858e-003 -6.40001986e-003
      -5.55323716e-003 -1.00691058e-003 -8.66068935e-004
      -9.59206545e-007 -7.85505690e-004 6.30699156e-004 -6.14213897e-003
      -7.28646351e-004 1.87529386e-005 -1.14253373e-003 -1.10795000e-003
      -2.69344804e-004 -7.42744305e-004 -3.28316586e-003
      -8.52972385e-004 1.19063501e-004 -1.87782049e-007 3.70257767e-004
      5.71184151e-004 1.95023225e-004 9.70108435e-004 -8.03073752e-004
      1.85088138e-003 2.99174426e-004 1.62053882e-004 -1.07896820e-004
      -3.30575596e-004 -1.55595946e-003 -1.38304022e-003
      -3.20388877e-004 -3.48632131e-003 -2.38383119e-003
      -3.63805029e-003 1.87411578e-003 2.08280166e-003 8.28627730e-004
      1.11052173e-003 3.64226941e-003 6.71436719e-004 -5.76801831e-003
      5.40012079e-005 2.70507019e-003 2.03057076e-003 -3.66940396e-004
      3.99280107e-003 2.53133266e-003 4.64584678e-003 -5.90123981e-003
      -2.33151135e-003 2.13058214e-004 -5.85782155e-003 -2.25505070e-003
      -6.95764599e-003 2.87237985e-004 -4.25007107e-004 8.36093910e-004
      -8.50722892e-004 5.56727988e-004 -1.23060570e-004 -6.35726051e-003
      -9.90492117e-006 1.59011091e-004 -7.91048689e-004 -1.06464268e-003
      4.53915261e-003 -4.61128913e-003 -1.71565136e-003 1.09931896e-003
      9.18616424e-004 1.26364490e-003 -3.95878451e-005 -5.24219032e-003
      -1.80970784e-003 2.01793970e-003 4.13979404e-004 5.57779241e-003
      4.10285918e-003 -1.38669380e-003 4.01635480e-004 2.84930668e-003
      1.27364579e-003 1.50584872e-003 1.85496954e-003 -1.07150619e-004
      -1.41408783e-003 2.20136644e-004 1.41501438e-003 -1.22750248e-003
      -1.30838729e-004 4.27619263e-004 -1.42536580e-003 6.69356523e-005
      3.35412333e-004 3.20282462e-003 2.06592586e-003 4.71302046e-004
      2.98395986e-003 2.78677465e-003 1.13831251e-003 6.70384092e-004
      8.84907553e-004 -1.56880752e-003 -8.84744164e-004 3.80470045e-003
      -2.35143045e-004 -3.74230294e-004 4.93694388e-004 -2.07220367e-003
      -2.10287212e-003 -1.16607861e-003 3.05654411e-003 -1.24455604e-003
      -4.41089878e-003 6.57390687e-004 4.53801185e-004 1.14767486e-003
      -5.13036386e-004 -2.32359022e-003 -3.75363999e-003
