<?xml version="1.0"?>
<opencv_storage>
<opencv_ml_svm>
  <format>3</format>
  <svmType>C_SVC</svmType>
  <kernel>
    <type>LINEAR</type></kernel>
  <C>5.9999999999999998e-001</C>
  <term_criteria><iterations>10000000</iterations></term_criteria>
  <var_count>12160</var_count>
  <class_count>2</class_count>
  <class_labels type_id="opencv-matrix">
    <rows>2</rows>
    <cols>1</cols>
    <dt>i</dt>
    <data>
      -1 1</data></class_labels>
  <sv_total>1</sv_total>
  <support_vectors>
    <_>
      2.06053403e-004 8.16961692e-004 1.88783422e-004 2.62679416e-004
      1.58142750e-004 -4.04671067e-004 -1.10632776e-004 1.65448684e-004
      3.64105654e-004 4.77442576e-004 5.29269280e-004 1.63213757e-004
      -1.34102025e-004 -1.83381038e-004 1.42734440e-004 -7.37557348e-005
      -1.16824362e-004 -1.05221825e-005 -1.04114755e-004 4.77349269e-004
      9.11493029e-004 1.04927363e-004 -2.45624251e-004 -7.12442034e-006
      8.19869339e-004 -1.59235729e-004 -6.86108600e-004 -2.82865454e-004
      -6.14402350e-004 4.79802082e-004 -1.24720464e-004 -1.59737538e-004
      6.74785464e-004 4.39716649e-004 -3.18348990e-004 -1.56342445e-004
      3.88802640e-004 -8.56186125e-006 -5.10500286e-005 -2.66525225e-004
      1.08834065e-005 -6.14294768e-005 -1.69190753e-004 -3.09480820e-005
      -4.47513594e-005 -1.49647865e-004 -2.12742656e-004 1.37050913e-004
      8.36533800e-005 -1.79829323e-004 -3.13857046e-004 -8.22433321e-006
      2.77555700e-005 3.05232388e-005 -5.19750029e-005 -1.84994176e-004
      -1.71379052e-005 9.53957351e-006 4.21732511e-005 9.04762928e-005
      9.74407594e-005 -7.78482809e-006 -5.62096284e-005 3.03470551e-006
      -5.94468474e-007 -6.05678042e-006 1.27842327e-006 -3.27836460e-004
      -3.64727137e-004 -3.99880046e-005 1.44961859e-005 2.16632106e-005
      6.80658704e-005 8.91682503e-005 -1.58879338e-005 -1.12010013e-004
      1.46443963e-005 -4.79351513e-007 3.27150075e-004 2.17835375e-004
      4.44815814e-005 9.60235957e-006 8.83060147e-006 2.79941043e-004
      3.77191427e-005 1.73640001e-005 3.43569013e-006 7.94211883e-005
      1.76617468e-005 2.21541704e-005 3.59132791e-005 7.46433500e-007
      5.37009000e-005 1.59496976e-005 3.79882375e-004 -1.90000443e-004
      3.46251327e-004 2.21279450e-004 -1.32155765e-006 -5.31767961e-004
      -1.24998711e-004 9.79109464e-005 2.24417905e-004 1.52216278e-004
      -1.99101880e-004 7.37125083e-005 4.80333518e-004 4.63614531e-004
      -3.65911546e-004 1.44019388e-004 4.48137522e-004 4.05554776e-004
      -1.40494420e-004 -2.84246082e-004 -1.64549827e-004
      -2.22562900e-004 -2.93859426e-004 2.64013273e-004 4.55648056e-004
      7.72219850e-004 2.95867882e-004 4.83904674e-004 -6.02242420e-004
      3.29279312e-004 -1.60269905e-004 -5.33151266e-004 -6.37834455e-005
      1.31405046e-004 1.32356572e-003 1.78697504e-004 2.53415124e-006
      4.03720012e-004 4.35638067e-005 -5.37424530e-005 -8.00716880e-005
      4.11643341e-005 -7.83470678e-005 -2.05465447e-004 -8.29613782e-006
      -4.79779737e-005 -2.06032826e-004 -1.94489301e-004 1.51603235e-004
      -2.82715519e-005 -2.23766241e-004 -3.23564134e-004
      -4.13551652e-006 5.59565024e-006 1.22792226e-005 -1.26826286e-004
      -3.11151845e-004 -4.18873024e-005 9.77894797e-006 6.10746138e-005
      7.27502556e-005 6.18349659e-005 1.69320774e-005 -6.13277225e-005
      1.79826372e-006 3.71632450e-006 2.66839452e-005 4.79300843e-006
      -2.36966851e-004 -2.99537322e-004 -8.60377841e-005
      -2.69856241e-006 2.79838059e-005 8.45222094e-005 7.50277759e-005
      2.66147999e-005 -8.31680227e-005 -4.23829624e-005 4.89594981e-007
      3.07168259e-004 2.17999215e-004 8.72398159e-005 4.69973384e-006
      2.97649185e-005 2.05308403e-004 3.81417340e-005 1.97279878e-005
      5.26910981e-006 7.34211280e-005 3.02437347e-005 2.32682214e-005
      2.66753959e-005 -6.24663880e-006 7.41282929e-005 3.08985364e-005
      4.46510297e-004 -7.92303836e-005 3.93048773e-004 4.25508711e-004
      5.94358949e-004 2.35105559e-004 2.92328652e-004 2.09663238e-004
      2.20600632e-004 4.01790676e-005 -5.87074959e-004 1.46654682e-004
      5.00233902e-004 -2.12521427e-005 -4.75858724e-005 5.41045854e-004
      1.06645841e-003 5.89337084e-004 -6.21782092e-004 6.91732348e-005
      8.13816077e-005 2.16655404e-004 1.18290372e-004 -3.37885751e-004
      2.18249115e-004 1.43624246e-004 6.05451118e-004 1.89290527e-004
      6.11025316e-004 -6.65275089e-004 3.47306835e-004 -7.06136925e-005
      -3.79823119e-004 4.60086885e-004 3.87184613e-004 1.41066281e-004
      -1.59615694e-004 3.15817277e-004 1.36567876e-004 -3.28262126e-006
      -1.18632372e-004 -2.14861257e-006 -1.56528840e-005
      -2.53456878e-004 -1.47172959e-005 -4.59371295e-005
      -2.91191187e-004 -1.45683080e-004 3.57132049e-005 -2.37320637e-005
      -1.58445750e-004 -3.36365687e-004 1.56985898e-005 3.49414804e-005
      1.63425702e-005 -1.51180458e-004 -2.29169353e-004 -6.76845084e-005
      9.32878629e-006 3.88183616e-005 6.70930458e-005 1.06131294e-004
      1.14169423e-004 -7.03047117e-005 -1.31723391e-005 6.85232749e-007
      2.01665625e-005 -2.52581485e-005 -3.21246916e-004 -3.55606200e-004
      -7.06613309e-006 7.69490089e-006 7.94259722e-006 5.61329143e-005
      1.18630647e-004 -4.82153773e-005 -1.05712854e-004 4.52080167e-006
      2.68495592e-006 2.97513936e-004 3.48340516e-004 8.52088924e-005
      3.84713203e-005 3.39133512e-005 1.75852852e-004 4.41931297e-005
      1.76547437e-005 7.69141843e-006 7.57079979e-005 1.71060601e-005
      2.43735903e-005 7.46039905e-006 4.35714446e-006 4.07801854e-005
      3.39874059e-005 4.42169112e-004 -1.69512045e-004 1.87269441e-004
      3.29644157e-004 6.17645972e-004 -2.19076421e-004 7.34204950e-004
      5.65583003e-004 1.98284193e-004 3.43115280e-005 4.89551923e-004
      -3.27519607e-004 2.70268793e-004 4.76691435e-004 -3.96158488e-004
      4.00164688e-004 3.63017811e-004 1.84812452e-004 -3.85351770e-004
      -3.71892820e-004 2.57089741e-005 1.69721752e-004 -9.09053138e-004
      -4.29256615e-004 1.79193972e-004 2.66569608e-004 3.88472254e-004
      1.91422499e-004 1.70396743e-004 9.55123571e-004 5.66303315e-005
      -1.18713564e-004 -2.95604346e-004 -7.52233609e-004
      -1.91155894e-004 -2.80008797e-004 -2.06521319e-004 6.11903146e-004
      1.04282728e-004 -1.26555333e-005 -1.00326368e-004 1.38728601e-005
      -5.19584410e-006 -1.36155650e-004 -3.54137228e-005
      -2.28779227e-005 -3.52471834e-004 -2.30959544e-004
      -2.15784094e-005 -4.02997248e-005 -2.35648840e-004
      -4.37701878e-004 4.73670079e-005 2.10990565e-005 1.53768997e-005
      -1.83919692e-004 -2.61616253e-004 -6.22613516e-005 9.37379082e-006
      4.48472310e-005 6.07046277e-005 7.66771773e-005 -1.00220510e-004
      -8.48605923e-005 -7.69764119e-006 -3.69130248e-007 5.15054853e-005
      1.08613103e-005 -2.28007368e-004 -2.71573488e-004 -5.94385783e-005
      -5.92438300e-006 3.49802249e-005 8.06591561e-005 1.20901677e-004
      -1.73555763e-005 -8.57714986e-005 -1.17597201e-005
      -1.23226198e-006 3.69733258e-004 3.12448334e-004 4.58048453e-005
      2.63866496e-005 5.03586307e-005 1.75234149e-004 4.99041671e-005
      3.03889519e-005 7.14160751e-006 7.26432409e-005 2.82405090e-005
      3.37084894e-005 1.13280330e-005 1.57585362e-006 6.31809089e-005
      3.57527824e-005 3.95050476e-004 2.36837819e-004 2.84974463e-004
      1.39628304e-004 5.74047328e-004 -1.81099516e-004 6.92944799e-004
      7.46590958e-004 3.40088154e-004 -3.43763881e-004 4.20906377e-004
      3.01560503e-004 -9.86159575e-005 -1.05929280e-006 -1.53494784e-005
      1.59008312e-004 6.60477031e-004 5.54115395e-004 2.06611119e-004
      -5.31315629e-004 2.65902985e-004 3.97751108e-004 2.61800655e-004
      4.89915605e-004 4.67609112e-007 3.83298582e-004 -6.34437820e-005
      -1.41402183e-004 -6.43800158e-005 -7.86780492e-006
      -3.98049524e-005 2.60579953e-004 -4.68396698e-004 -6.35772652e-004
      -1.15220486e-004 1.81251991e-004 -3.60805861e-004 5.88640338e-004
      8.70903241e-005 -4.22617268e-005 -8.25347961e-005 4.97043366e-005
      -4.11894471e-005 -6.33264353e-005 4.05196488e-006 -6.09076633e-005
      -2.57916254e-004 -2.66379910e-004 -1.04830485e-006
      -3.92366564e-005 -2.22210176e-004 -4.19355434e-004
      -2.15859254e-005 2.25059412e-005 -1.58005660e-005 -1.39120035e-004
      -2.32602979e-004 7.27872612e-006 7.13798727e-006 5.15053362e-005
      4.60010851e-005 2.02057690e-005 -1.39260941e-004 -5.99935047e-005
      -5.77459787e-006 3.67568100e-006 3.28997958e-005 7.78209051e-006
      -1.94868466e-004 -2.34796811e-004 -3.73067014e-005 1.42495637e-005
      2.92696368e-005 6.37353151e-005 6.55910699e-005 1.56449896e-005
      -6.41539373e-005 2.80804488e-005 1.12296880e-006 2.96700659e-004
      1.87831756e-004 5.03595293e-005 4.56823436e-005 4.29147149e-005
      1.09095658e-004 3.92412876e-005 4.32121087e-005 6.82781774e-006
      6.51898881e-005 8.34959565e-007 2.71360041e-005 2.38533758e-005
      1.59317199e-006 -1.33667072e-006 3.29710747e-005 5.23350202e-004
      -2.85488873e-004 6.43099658e-004 7.00635021e-004 -2.45037576e-004
      -2.43620496e-004 1.94655935e-004 1.93286745e-004 2.99649662e-004
      5.22362243e-004 4.32155095e-004 8.44744645e-005 4.53627348e-004
      1.84868739e-004 1.94750210e-005 -9.54743373e-005 8.90640003e-005
      6.92872418e-005 1.02784710e-004 -2.36536929e-004 2.22417715e-004
      3.99136305e-004 -5.47357718e-004 -2.34987048e-004 -9.52157716e-005
      -2.12510073e-004 -2.01862145e-004 2.72045349e-004 6.42333645e-004
      4.35736059e-004 6.64462277e-004 8.83893590e-005 4.07863699e-004
      -2.12913044e-004 4.53521119e-004 1.41529890e-004 8.50069409e-005
      4.42988967e-004 6.13681696e-005 -6.56964767e-005 -5.98248407e-005
      2.52771042e-005 -2.29055186e-005 -2.69249227e-004 -1.65457441e-005
      -3.92324764e-005 -3.29394825e-004 -2.73562619e-004 1.21907564e-004
      1.33470094e-005 -1.34538917e-004 -2.35054205e-004 -1.80077404e-005
      5.08103512e-005 4.05591782e-005 -8.15184030e-005 -2.42863054e-004
      -5.83953188e-005 1.07544529e-005 4.71512321e-005 6.67132263e-005
      8.47387346e-005 -2.23173720e-006 -4.22444173e-005 9.37009827e-006
      3.33777575e-006 1.56447168e-005 1.92275802e-005 -2.42280745e-004
      -3.18602892e-004 -3.44298351e-005 -1.28266156e-005 1.91139025e-005
      6.45230248e-005 1.40490985e-004 1.36228400e-005 -1.17025898e-004
      -1.12336120e-005 2.86365753e-006 1.25237086e-004 1.31748733e-004
      1.31170003e-004 2.96643611e-005 6.58671270e-005 1.15293602e-004
      6.17158075e-005 2.14723204e-005 1.84184864e-006 9.43964042e-005
      2.31096019e-005 2.10446306e-005 4.00535791e-005 5.62155810e-006
      7.92132269e-005 4.74859626e-005 3.78918689e-004 1.08097585e-004
      1.99491900e-004 3.36877245e-004 1.84606048e-004 -7.26897924e-005
      -1.39856667e-004 3.63526866e-004 1.92782260e-004 -5.67016541e-004
      2.54838407e-004 -1.53384608e-004 2.48873548e-004 3.54965596e-004
      2.10957605e-005 2.13600273e-004 4.68354148e-004 -9.08617876e-005
      -3.43639113e-004 1.81136536e-004 5.25227224e-004 7.49940285e-004
      -9.72200578e-005 -3.35442688e-004 -1.70622618e-004 7.46755744e-004
      3.08830815e-004 -7.63397620e-005 -5.04500058e-004 -2.08643090e-004
      2.34888590e-004 1.83057600e-005 -5.77129940e-005 -1.07843298e-004
      4.82307893e-004 1.67806167e-004 3.78307304e-004 6.40632992e-004
      1.05750631e-004 -1.66322898e-005 -4.98976551e-005 2.65178787e-005
      8.02060549e-006 -1.78097238e-004 -3.89874549e-005 -4.94390406e-005
      -3.89316672e-004 -2.26720091e-004 6.34817552e-005 -6.19131679e-005
      -1.31927576e-004 -4.28452418e-004 -4.35614311e-005 4.33352179e-005
      3.93611444e-005 -2.06339188e-004 -1.89514773e-004 -3.62873252e-005
      1.50397955e-005 4.94679371e-005 8.78601713e-005 7.18954761e-005
      -9.83964128e-005 -4.02324877e-005 2.57705869e-006 4.83903159e-006
      3.25389155e-005 5.83882793e-005 -2.21435766e-004 -2.42052207e-004
      -4.88870319e-005 1.52059201e-005 3.35062396e-005 6.58805729e-005
      4.54462388e-005 -6.78002762e-005 -7.52123669e-005 -3.24651264e-005
      -9.39415349e-006 2.60509783e-004 1.98099297e-004 6.83698818e-005
      3.06074326e-005 4.11342189e-005 1.93711356e-004 2.11930546e-005
      3.16061705e-005 2.33933633e-006 8.63371461e-005 2.89037525e-005
      3.67635803e-005 4.57109263e-006 2.89046261e-006 3.08209892e-005
      3.47478199e-005 4.00610938e-004 -4.33314272e-004 6.67242392e-004
      2.26673350e-004 -1.83734839e-004 -4.28680738e-004 4.76880523e-004
      3.10302057e-005 2.09674748e-004 -4.50438500e-004 5.40376968e-005
      2.97140155e-004 3.92256770e-004 -1.42809673e-004 4.40107076e-004
      -3.67582797e-005 5.01538634e-005 3.05922760e-004 3.12112024e-005
      -2.29170997e-004 -9.90385015e-005 -2.04953194e-005 8.04695417e-004
      -3.70006746e-004 -2.22874965e-004 -2.63859576e-004 4.86889883e-004
      1.92502062e-004 4.70324012e-004 -1.47154991e-004 3.00009211e-004
      8.82563822e-004 5.15638567e-005 -4.07969055e-005 2.97157560e-004
      7.98586756e-004 -2.23319264e-004 2.52697588e-004 1.04475497e-004
      -1.71967404e-004 -1.12106594e-004 -1.50633623e-005
      -9.41979015e-005 -1.80790244e-004 -3.92671791e-005
      -5.27140728e-005 -2.09396632e-004 -2.34193183e-004 9.48441593e-005
      6.30475506e-006 -6.07986622e-005 -3.02311790e-004 -5.17419394e-005
      -3.44055337e-007 1.58388702e-005 2.63460224e-005 -1.30188899e-004
      -2.01681887e-005 4.37580638e-006 2.14129286e-005 3.28682254e-005
      8.16722459e-005 4.36146802e-005 -4.03063495e-006 -9.53538984e-006
      2.33945116e-007 1.43617381e-005 8.55234521e-006 -1.73657405e-004
      -1.07629799e-004 -5.44315080e-005 -5.16279897e-006 1.29138516e-005
      4.06419385e-005 2.88859865e-005 6.86424255e-006 -3.92318725e-005
      -3.90472223e-006 -7.28980649e-006 8.59654683e-005 1.63563687e-004
      5.75822123e-005 1.54523805e-005 3.22388114e-005 1.09531567e-004
      2.78044226e-005 1.39178064e-005 2.66978304e-006 1.12026442e-004
      1.47444634e-005 3.63976642e-006 2.53871585e-005 -2.63415586e-006
      5.51177036e-005 4.74484223e-005 5.18763263e-004 -3.61705024e-004
      3.41843406e-004 2.88200827e-004 1.37505995e-004 2.25598618e-004
      -2.60857574e-004 7.56061636e-004 4.13411966e-004 -3.34390294e-004
      -5.62023604e-004 2.91303841e-005 -9.56182339e-005 -3.00439686e-004
      2.77792482e-004 -3.31244344e-004 2.73855199e-004 5.54694503e-004
      2.20740083e-004 -4.76550340e-004 -6.11671021e-006 2.66537041e-004
      7.55955174e-004 5.31126338e-004 -2.96776969e-004 2.35918560e-004
      -3.12520511e-004 -8.53130246e-007 1.33119654e-004 -2.65822891e-004
      4.82430303e-004 5.56768849e-004 3.13833414e-004 -3.41781328e-004
      -4.04301623e-004 2.70580786e-004 -3.51517810e-004 1.11495523e-004
      -6.64303079e-005 -6.05323976e-006 -1.08513836e-004 7.95632659e-005
      -2.43669856e-005 -1.63326276e-005 1.65944075e-005 5.22042101e-005
      -9.03237742e-005 -1.81295909e-004 -1.95467601e-005 1.60617055e-005
      2.86178056e-005 -6.11688010e-005 -3.54349031e-005 3.75749114e-005
      4.69824300e-007 -3.16781152e-005 -2.03187446e-004 -4.09139284e-005
      1.10605961e-005 4.76924215e-005 3.93062001e-005 2.61746463e-005
      6.73396207e-005 -2.52744030e-005 5.64227150e-007 3.99234932e-006
      -7.47758804e-006 -3.02256831e-005 -1.77063150e-004
      -2.17304609e-004 -4.47816346e-005 7.26958342e-006 7.48807770e-006
      3.47663045e-005 9.15810961e-005 2.42743463e-005 -1.12886839e-004
      -5.58615966e-006 7.86556143e-007 9.46505024e-005 4.67687969e-005
      5.42758353e-005 4.15097111e-006 2.62175654e-005 4.43648969e-005
      1.27142221e-005 2.90038570e-005 1.90753531e-006 7.83662981e-005
      2.15763012e-005 1.67297749e-005 1.19657698e-005 -4.28350268e-006
      5.21383408e-005 1.71143529e-005 2.93307501e-004 -4.03596146e-004
      -5.52409678e-004 -4.23985795e-004 -4.48790874e-004
      -1.18438205e-004 1.74388304e-004 3.30367853e-004 4.09535074e-004
      6.65031665e-004 5.63053938e-004 -4.02129954e-004 1.50140972e-004
      -5.73145691e-004 3.88184737e-004 -3.48616188e-004 -1.13781134e-004
      -2.63241585e-004 2.09114180e-004 -6.99007724e-005 -4.19955672e-004
      -3.08739720e-004 6.03032880e-004 7.04347476e-005 2.55661085e-004
      4.31557273e-004 7.56292779e-004 -2.36635373e-004 5.82949084e-004
      -2.48846482e-004 -7.52838794e-004 2.04803306e-004 4.62046650e-004
      5.24056319e-004 2.59520428e-004 5.16956672e-004 -1.25513412e-004
      2.25039214e-004 -4.01164179e-005 -1.12969428e-005 -6.45953105e-006
      4.78410402e-005 4.19451026e-005 -2.04902353e-005 -2.14787451e-005
      -1.08550012e-005 -1.55268819e-004 -7.03900514e-005
      -3.05760409e-006 -1.65943238e-005 -1.66941230e-004
      -3.08906805e-004 1.77033653e-005 -5.21349011e-006 -4.86927729e-006
      -6.96974166e-005 -1.80588366e-004 -7.47817394e-005 4.44003717e-006
      3.73134608e-005 3.88750414e-005 3.54174954e-005 1.06308980e-004
      -3.79209487e-005 6.53877851e-006 -1.03824755e-006 -1.30316448e-005
      -1.67288581e-005 -1.79290510e-004 -1.37685900e-004
      -8.77307230e-006 1.57258874e-005 2.40654063e-005 -5.09924939e-006
      1.17782156e-005 5.18258494e-005 -3.47169189e-005 2.38785901e-007
      1.06783182e-006 1.29693071e-004 8.30000499e-005 6.55254626e-005
      -5.82132543e-006 5.39835673e-005 1.58913303e-004 2.75333405e-005
      7.40188079e-006 -7.17974399e-006 1.86063662e-005 2.27151777e-005
      2.24744545e-005 -5.31708929e-006 -6.30216027e-006 1.41660721e-005
      1.14905197e-005 3.44283879e-004 -6.23227446e-004 5.05040749e-004
      -5.35050873e-004 1.27478015e-005 5.97299950e-004 -3.08239745e-004
      -2.73660611e-004 1.00360194e-004 2.05208053e-004 -5.25611220e-004
      2.09516511e-004 2.42466958e-005 -4.99764341e-004 -4.76720685e-004
      -6.23248285e-004 -3.77194490e-004 4.35314316e-004 5.94142184e-004
      1.99583155e-004 -3.62065679e-004 2.25261261e-004 4.41988923e-005
      -7.36532384e-005 -3.22109147e-004 -9.07695387e-004
      -2.39135683e-004 -5.17155713e-005 2.85515678e-004 -7.56307156e-004
      -1.20968747e-004 -4.04817314e-004 -1.46770020e-004
      -2.76214123e-004 1.89014798e-004 1.42159581e-004 2.58742133e-004
      3.54473654e-004 -4.12120789e-005 2.37403947e-005 -3.41950872e-005
      8.47330157e-005 6.92080939e-005 -4.73382170e-005 2.32054044e-005
      1.64231951e-005 -1.39476499e-004 -2.16500353e-004 -7.53171435e-006
      -5.38715358e-006 -1.69569292e-004 -2.75290775e-004 2.46788750e-006
      3.24240573e-005 -2.99453313e-005 -5.12215374e-005 -1.77015594e-004
      1.47563160e-005 -1.09794507e-006 3.95596289e-005 2.61352943e-005
      2.08459387e-005 9.51976981e-005 -1.90611754e-005 -1.59822212e-005
      3.38651307e-006 2.77132835e-006 -2.49071800e-005 -7.82374627e-005
      -1.82186443e-004 -9.50421454e-005 2.08119945e-005 2.40685404e-005
      3.59091428e-005 1.03885741e-005 2.23588850e-005 -9.03077162e-005
      -1.57083523e-005 6.80757239e-006 8.55336693e-005 6.47285415e-005
      9.49032183e-005 7.21040578e-006 -3.43581887e-005 1.69641571e-004
      4.70389568e-005 2.96010803e-005 -9.53295455e-007 5.43033093e-005
      1.17811596e-005 3.33433418e-005 8.97747577e-006 -2.68551548e-006
      -8.30986437e-007 -1.86409579e-005 2.37947359e-004 2.33598130e-005
      -1.69525476e-004 -8.00646842e-004 -1.15125300e-003 1.46138133e-004
      -4.14162030e-004 1.50134845e-004 3.27715446e-004 -9.47853769e-005
      5.24709176e-005 -5.49982251e-005 -4.09180881e-004 -5.24223084e-004
      2.27977362e-004 -4.72464977e-004 -2.20568429e-004 7.45017955e-004
      -1.01401070e-004 6.47679772e-005 -4.66311030e-004 -2.67920841e-004
      -1.79648341e-004 -6.14588571e-005 -4.60981159e-004
      -2.68521748e-004 5.82419627e-004 -2.32384613e-004 -1.03784732e-005
      -8.93688630e-005 8.49764911e-005 -4.62238764e-004 3.54381918e-004
      -3.97106603e-004 -5.66875387e-004 3.78639757e-004 -3.80541664e-004
      4.10520966e-004 2.07459034e-005 1.46067741e-005 5.45870134e-005
      6.78414290e-005 7.27235893e-005 -7.33723500e-005 1.93849100e-005
      1.76610902e-005 -9.65595900e-005 -3.08586110e-004 -8.01680108e-006
      -1.10425799e-005 -1.76998292e-004 -5.78801904e-004
      -2.74931494e-006 3.52379611e-005 2.00368631e-005 -1.03202619e-004
      -1.96432185e-004 -2.54341958e-005 1.78647588e-005 5.96747595e-005
      7.50112376e-005 9.15585115e-005 2.00367613e-005 -6.81612873e-005
      -2.32763323e-005 -6.20102082e-006 1.70861858e-005 -3.06140500e-005
      -2.03896328e-004 -2.45648815e-004 -2.86504419e-005 1.45362874e-005
      2.52567788e-005 3.37159145e-005 5.05096250e-005 1.40340213e-004
      -9.98818505e-005 -7.63018124e-006 -1.00832460e-006 1.61746706e-004
      2.95088859e-004 6.45278051e-005 -6.10395955e-006 -3.32725213e-005
      1.40867269e-004 2.56645799e-005 1.06072612e-005 3.55230964e-006
      7.77938840e-005 2.62199592e-005 3.36152225e-005 -1.43186717e-005
      2.83883151e-006 -4.21521654e-005 4.28438616e-005 2.27707787e-004
      3.30045063e-004 3.79151053e-004 1.83380849e-004 -8.23162554e-004
      -1.09688634e-004 -1.33657304e-005 1.00074882e-004 3.86979373e-004
      5.64578513e-004 1.48386927e-004 4.72472864e-004 -1.01913800e-004
      -1.48184976e-004 -4.68968647e-004 -3.24228778e-004 4.43790021e-004
      5.72276243e-004 8.83059329e-005 2.79559405e-004 -1.80419549e-004
      -1.66219743e-005 -3.05564550e-004 -2.00280832e-004
      -1.45264683e-004 -7.28614978e-004 5.80786844e-004 -1.07726853e-004
      -3.74959520e-004 -3.29500181e-004 -7.20906610e-005
      -3.45923763e-005 -2.82968918e-004 1.33150170e-004 -6.25902758e-005
      4.21887642e-004 -1.93730462e-004 3.79577337e-004 2.65447816e-005
      -6.43964313e-006 -4.13177040e-005 4.79864138e-005 -4.43266181e-005
      -1.47135434e-004 3.36744743e-005 3.36819539e-005 -1.20617733e-004
      -2.76039675e-004 2.19887734e-005 2.25603690e-005 -7.16080758e-005
      -5.15236054e-004 -2.03418258e-005 5.53843347e-005 1.38363712e-005
      -1.01971214e-004 -2.46041600e-004 -3.34253309e-005
      -7.61443800e-007 4.65020421e-005 5.39614848e-005 6.09309063e-005
      7.66423836e-005 -8.56002589e-005 -3.06983820e-005 4.20833567e-006
      2.11174320e-005 -2.00569630e-005 -1.99932023e-004 -2.01168485e-004
      -7.42985067e-005 -1.57732427e-006 3.56695309e-005 4.83336262e-005
      1.81816344e-004 5.80528140e-005 -3.97316217e-005 -1.06447978e-005
      -6.65717471e-006 2.05744800e-004 2.36731707e-004 1.06341307e-004
      1.37930756e-005 -2.75531929e-005 1.24646540e-004 7.45213911e-005
      3.51530070e-005 -1.55898069e-005 1.30941015e-004 4.88446385e-005
      4.22660050e-005 7.24122674e-006 5.45952162e-006 -4.96568464e-005
      -3.33496246e-006 1.37608760e-004 -1.12261157e-004 3.13123281e-004
      2.40663445e-004 -5.22407296e-004 2.18447589e-004 -1.55907561e-004
      -3.12033051e-004 -2.27222772e-005 -3.49162205e-004 4.17418370e-004
      3.37962847e-004 8.01763017e-005 -1.81074865e-004 -8.50360375e-004
      3.61346320e-004 4.72360640e-004 5.49867109e-004 -2.40813446e-004
      -6.04369852e-004 -4.20545868e-004 2.35867032e-004 -5.52361482e-004
      -1.25602659e-004 9.96758390e-005 -3.34247190e-004 -3.94681789e-004
      -1.99850503e-004 -5.77035789e-005 -4.50831867e-004
      -1.37290379e-004 -2.05909004e-004 -8.31637532e-004
      -6.92548580e-004 4.47534512e-005 -4.18356940e-005 -4.28031897e-004
      4.76226589e-004 -4.99604812e-006 -7.34332252e-006 -1.44761871e-005
      3.22056949e-005 4.07525222e-005 -7.27090664e-005 3.21204607e-005
      8.21143549e-005 -8.80816879e-006 -2.11449835e-004 5.47496311e-005
      -1.34390557e-005 -1.01792721e-004 -4.07764048e-004 2.62495905e-005
      5.34664468e-005 -3.81674145e-005 -9.92935311e-005 -2.23829906e-004
      -6.50970906e-005 1.94870536e-005 4.24566024e-005 6.02339423e-005
      7.38775198e-005 6.78161086e-006 -8.65830443e-005 -3.23223394e-005
      -3.58225179e-006 1.45767872e-005 -3.89496490e-005 -2.60698929e-004
      -1.73354769e-004 -2.84693124e-005 1.36099461e-005 4.70659288e-005
      5.86838541e-005 9.99828844e-005 3.11760632e-005 -5.47818636e-005
      -3.20529325e-005 8.78454648e-006 2.50204284e-005 2.40555513e-004
      6.35061006e-005 1.82402382e-005 -1.23137734e-005 6.67443674e-005
      4.11125329e-005 2.82803867e-005 -3.33198591e-006 4.85759256e-006
      1.90167939e-005 3.91990325e-005 -3.97633230e-005 -1.26101140e-005
      -6.88596629e-005 2.40276931e-005 2.71677651e-004 6.89586799e-004
      6.30397641e-004 -2.67532596e-004 4.43655590e-005 -5.64067217e-004
      -2.85690709e-004 3.02744011e-004 1.23644597e-004 5.46595780e-004
      8.06881326e-006 3.75909905e-004 6.36426732e-004 2.46418378e-004
      6.68829714e-004 -2.48322671e-004 1.37101102e-004 -1.91622967e-004
      -1.54115696e-004 2.62796762e-004 2.06392157e-004 -1.90140519e-004
      9.24107735e-005 -2.92106066e-004 -6.04046800e-004 -3.55826982e-004
      -6.91698660e-005 5.58762586e-005 5.27179582e-005 -1.48754174e-004
      -2.84039386e-004 -6.37337143e-005 3.64105799e-004 -4.22673533e-004
      -3.67120520e-004 1.16152914e-004 -1.53111047e-004 3.29386152e-004
      5.77947285e-005 3.51242284e-006 -5.49835531e-005 6.42135710e-005
      1.69559717e-005 -9.18176156e-005 1.52506509e-005 -1.80204661e-005
      -9.73139759e-005 -3.19726416e-004 3.03533525e-005 -7.93246945e-005
      -5.19185414e-005 -3.23968357e-004 1.10191668e-005 6.77937569e-005
      5.50992718e-006 -2.06208832e-004 -1.09876113e-004 -5.47245145e-005
      2.64384798e-005 5.80784836e-005 6.84666884e-005 2.65427134e-005
      2.25395415e-005 -7.82853967e-005 -4.02463484e-005 4.51379992e-006
      3.33073258e-005 -4.28731691e-005 -2.07978665e-004 -1.92431820e-004
      -4.32276356e-005 8.09900212e-006 2.61175755e-005 3.92728762e-005
      6.39041755e-005 9.94375951e-005 -7.90883787e-005 9.79991455e-006
      3.96998121e-006 1.31594614e-004 3.02950881e-004 1.22229118e-004
      4.35365655e-006 -1.63147706e-005 1.09450477e-004 1.78521714e-005
      3.48615249e-005 5.73525540e-006 4.69161714e-005 2.96424805e-005
      5.55490151e-005 1.24379831e-005 7.94925018e-006 -4.61124473e-005
      2.72123202e-006 1.77920025e-004 -1.41691589e-005 8.45125993e-004
      3.19415005e-004 4.55834816e-004 -9.32456533e-005 -4.07125335e-004
      2.70516932e-004 3.83801031e-004 5.46714000e-004 2.78592139e-004
      6.69373665e-004 5.64954884e-004 -4.11750574e-004 5.25843410e-004
      5.58782660e-004 6.57215191e-004 5.72636956e-004 -1.36154355e-004
      2.69623415e-004 2.91376928e-005 1.94182707e-004 -2.79403786e-004
      4.16803232e-005 2.48192897e-004 2.54977058e-004 -6.95742783e-005
      -7.79716822e-004 3.74383584e-004 3.57167555e-005 4.06210980e-004
      4.73131397e-004 -2.00909708e-004 -1.04354077e-003 2.81781540e-004
      3.90379391e-005 -2.88655690e-004 3.03611654e-004 1.83332577e-005
      -1.15621995e-004 -9.50196700e-005 -1.05266072e-005
      -2.70341152e-005 -9.45342617e-005 5.02621806e-005 -1.50362052e-006
      -1.13960894e-004 -6.82074315e-005 2.07309822e-005 1.25269034e-005
      -9.38856829e-005 -2.58952845e-004 2.48413585e-007 -6.30364184e-007
      -1.27496087e-005 -1.05670675e-004 -1.25763894e-004 2.60277757e-005
      1.88200320e-005 4.93690532e-005 2.93756239e-005 6.53331081e-005
      1.63261546e-004 -3.87545842e-005 -1.99555893e-006 5.80651340e-006
      -5.66819745e-006 -3.28719761e-005 -1.30155750e-004
      -1.34917107e-004 -3.63753861e-005 5.91615071e-006 1.16590923e-006
      2.78697098e-005 3.17622835e-005 5.47410855e-005 -4.49356558e-005
      -2.08401270e-005 5.40313704e-006 -3.98938209e-005 1.30333719e-004
      2.92981204e-005 2.66888910e-005 -1.08196009e-005 5.96503014e-005
      5.35663457e-005 1.56661190e-005 -7.53166478e-006 5.56074046e-005
      3.18201855e-005 3.64229127e-005 -1.13970982e-005 3.35168920e-006
      -1.26907144e-005 2.02915962e-005 2.99646315e-004 4.37982060e-004
      2.49572389e-004 1.53204732e-004 6.59721845e-004 3.06021684e-004
      -3.07202601e-004 6.50461996e-004 4.12191412e-006 -3.72532755e-004
      -2.69256125e-004 4.66277299e-004 3.08054266e-004 -1.54153822e-004
      -2.96245154e-004 -3.75102449e-004 1.85735407e-004 4.02345118e-004
      1.58960553e-004 1.90499792e-004 -3.82003607e-004 6.01456326e-004
      4.51962522e-004 -2.96044222e-004 4.12079971e-005 -6.63912506e-005
      -7.84295727e-004 -3.83399543e-004 8.93194287e-004 -4.27092542e-004
      -4.28047526e-004 4.85823475e-005 -1.72812433e-004 6.01940519e-005
      7.71243940e-004 -4.43291181e-004 -1.13770511e-004 9.27692672e-005
      -9.85074876e-005 1.71062347e-005 2.51855090e-005 4.03284103e-005
      8.29986457e-005 8.98057551e-005 8.39582481e-006 5.44990908e-005
      2.07111472e-004 4.99214875e-005 -1.41194569e-005 -5.12164224e-005
      3.46874476e-005 2.22785340e-004 -1.60191885e-005 -1.46619859e-005
      -2.88146421e-005 -8.99121733e-006 4.40577533e-005 -1.78236587e-005
      3.09374736e-005 5.58140164e-005 -1.88942940e-005 -9.53633134e-005
      -1.15211194e-004 -9.96475137e-006 -1.06218977e-005 6.40611552e-006
      -1.93264550e-005 -6.14648598e-005 -1.12563917e-004 8.82435415e-005
      3.13355231e-005 7.74553337e-006 2.98143132e-005 -5.74007754e-006
      -5.67949428e-005 -7.42596021e-005 -5.70472039e-005
      -3.13259407e-005 2.32183083e-006 -7.58712558e-005 -1.30977438e-004
      -5.02917319e-005 -1.63422135e-006 -7.66445191e-006
      -1.67362916e-004 -6.33917261e-006 6.03600211e-006 -5.90911486e-006
      -7.62078707e-005 1.28931670e-005 2.69644679e-005 -8.82804579e-006
      -8.22847687e-006 3.06109541e-005 -4.99163525e-006 1.64263678e-004
      5.71199576e-004 3.52457893e-004 -1.12822796e-004 -7.07226936e-005
      1.03996535e-004 7.61042989e-004 4.51054977e-004 -1.99981063e-004
      -8.76783524e-005 -2.61342153e-004 -2.03405347e-004
      -7.39626703e-005 -6.05503519e-005 1.10654983e-004 5.57854582e-005
      -3.55089345e-004 -5.25885902e-004 3.31755436e-004 5.51075675e-004
      -8.88886425e-005 1.18846656e-004 -3.44214553e-004 -2.07171652e-005
      -4.95270069e-004 -5.35908621e-004 -4.76392393e-004
      -8.16833170e-004 5.22008166e-004 -7.72881249e-005 -5.37998683e-004
      -1.91270243e-004 -1.12392072e-005 2.10400569e-004 -2.96490907e-004
      -5.06788958e-004 -3.94390867e-004 9.70363617e-005 -7.12595865e-005
      1.49042944e-005 -5.57679323e-006 4.47194507e-005 4.54968758e-005
      6.66675551e-005 3.38478603e-005 5.97741455e-005 2.09225545e-004
      1.22713274e-004 1.08443037e-005 1.89468085e-006 6.47093184e-005
      4.67507125e-005 1.39399463e-005 -1.95680586e-005 -3.28842507e-005
      -6.20084174e-005 -9.36213983e-005 -7.41874283e-006 1.37213522e-006
      2.37969398e-005 4.96202938e-006 -2.54394636e-005 -1.67581267e-004
      -2.77947292e-005 1.38125688e-006 2.46357604e-006 -1.83522989e-005
      -7.56724548e-005 -7.37018345e-005 5.74264377e-005 4.70188679e-005
      1.98468897e-005 4.42687706e-005 6.44629336e-006 -8.95411540e-006
      3.08767230e-005 -1.70564235e-005 7.11376470e-006 -1.21615824e-006
      -3.19889572e-004 -7.51587577e-005 -9.14485463e-006
      -2.28330191e-005 -1.18641256e-005 -1.05482439e-004
      -2.84493963e-005 2.10130729e-005 7.52625419e-006 -1.80170027e-005
      9.43191299e-006 3.55923112e-005 -3.58148372e-006 -1.26066370e-005
      4.25732214e-005 -2.24335545e-005 1.41932062e-004 -1.40189994e-004
      3.46988818e-005 5.24980305e-006 3.88989865e-004 -2.58445536e-004
      1.82176896e-004 -6.03128865e-004 2.02805604e-004 3.74642463e-004
      -5.01819013e-004 -2.58926826e-004 -9.06488975e-004 6.98104122e-005
      2.12088969e-004 2.09315360e-004 2.40573754e-005 -1.33574809e-004
      2.33228231e-004 -2.83765112e-005 3.63520841e-004 4.51234169e-004
      -8.58479034e-005 3.59797210e-004 -5.57245163e-004 -6.85194158e-004
      -9.11744195e-004 -4.16323717e-004 -2.61955953e-004
      -1.36856193e-004 -1.02274062e-004 4.55736503e-004 -3.31093877e-004
      -3.12132703e-004 -2.76557228e-004 -8.96441517e-004
      -2.43236937e-004 1.51455373e-004 -1.88445156e-005 1.29384744e-005
      -7.29822705e-006 8.50180222e-005 7.27106308e-005 7.90217018e-005
      1.75392870e-005 8.23475275e-005 6.18526974e-005 1.29069376e-004
      -1.96908550e-005 -4.64635996e-005 -5.12507322e-005
      -9.27366200e-005 5.86712376e-005 -1.32680555e-006 -2.74464037e-005
      -2.06658588e-004 -2.25825614e-004 2.27641685e-005 1.88870708e-005
      4.14452443e-005 3.48072681e-005 -3.57441895e-005 -2.00516370e-004
      -7.43516939e-005 2.37851436e-005 4.84922566e-006 -1.72282525e-005
      -2.67391897e-005 2.79825684e-007 1.28751170e-004 4.46150552e-005
      5.39390930e-005 4.50800799e-005 1.30431126e-005 2.59450844e-005
      1.19561402e-004 -4.56262787e-005 2.12298346e-006 4.91292712e-006
      -2.30010701e-004 -1.86028356e-005 8.81208689e-005 -2.22412109e-005
      -1.14764671e-005 -1.61853561e-004 1.73087028e-005 2.05977649e-005
      -8.06101434e-006 -7.06782521e-005 -2.68911504e-006 1.22904030e-005
      -1.33138528e-005 -5.49532217e-007 -1.93111027e-005 6.24465429e-006
      1.76560032e-004 4.39460855e-004 -5.36229985e-004 -3.73628391e-005
      3.54819786e-004 -1.09983994e-004 3.59503698e-004 -6.09492301e-004
      -1.85588928e-004 -2.98350846e-004 2.12774787e-004 -7.61823263e-004
      -4.88216057e-004 -2.38241802e-004 -2.98900646e-004
      -1.28092797e-004 -2.47743825e-004 1.88118865e-005 -4.00032121e-004
      -1.17337091e-004 -2.92923854e-004 -6.42979168e-004
      -5.45484130e-004 -3.47422349e-004 -5.59079635e-004
      -2.16812681e-004 -2.10909799e-004 -3.56466975e-004
      -3.60716149e-005 -1.05121918e-003 2.06187397e-004 -5.85021393e-004
      3.68386070e-004 -7.49236438e-004 -2.73839803e-004 -1.01239898e-003
      -3.12764314e-004 4.16690862e-004 -6.35540782e-005 1.99057886e-005
      -3.52692564e-006 6.64830222e-005 9.39427118e-005 -4.16076546e-005
      2.95884402e-005 9.27228612e-005 1.01582140e-004 -1.09827204e-004
      -4.91417632e-005 2.40353402e-005 -3.50688242e-005 -9.39682577e-005
      3.78881487e-005 2.55432733e-005 1.00945817e-005 -2.74200516e-004
      -2.42645634e-004 4.33023961e-005 1.69690793e-005 6.89495428e-005
      -1.17169538e-005 -2.82761830e-005 -3.52611300e-004
      -8.48394266e-005 1.08373742e-005 2.19789399e-007 7.91682032e-006
      -3.50689552e-005 -2.30811584e-005 8.15649692e-005 5.73888174e-005
      5.15535285e-005 1.88718077e-005 -6.67101676e-006 -7.48738166e-005
      -9.99546755e-005 -3.27822745e-005 -2.29240322e-005 6.80559833e-006
      -5.02094736e-005 9.15557248e-005 3.75389063e-005 4.79398250e-006
      -5.71012333e-006 -6.80741778e-006 7.90662580e-006 3.03050729e-005
      -2.45336037e-006 -3.40601546e-005 -4.09214044e-006 2.73063488e-005
      1.52468401e-005 6.07154391e-007 3.34523611e-005 1.42509862e-005
      2.43852395e-004 -2.25149692e-004 -4.86709323e-004 -1.01203425e-003
      1.87250145e-004 2.88206065e-005 -1.08373024e-004 -1.16230403e-004
      -1.97802481e-004 -7.32444532e-005 -3.92317888e-004
      -6.49779104e-004 -5.52179466e-004 -6.78001612e-004 1.52143795e-004
      4.46059043e-004 1.28442043e-004 1.43265162e-004 3.31052375e-004
      -1.50277367e-004 -2.99382606e-004 -5.43232542e-004 4.74207554e-005
      3.14535573e-004 -5.49275253e-004 1.14666967e-004 -4.68956103e-004
      -4.56453621e-004 2.40556565e-005 -7.19921489e-004 -2.71153345e-004
      -3.83363513e-004 -3.40397994e-004 -2.16990200e-004
      -7.13069981e-004 8.91666277e-005 3.98777920e-005 3.46582005e-004
      -2.98962459e-005 2.75668772e-005 -1.98934176e-005 4.69886108e-005
      7.22588884e-005 -9.37683290e-005 4.91204191e-005 9.88402971e-005
      2.13894149e-004 -1.11012829e-004 -6.85788764e-005 1.77777692e-005
      4.82725118e-005 6.04475390e-005 1.89085476e-005 6.30982759e-005
      2.76805458e-005 -6.09149683e-005 -8.09946359e-005 4.81253192e-005
      3.23407221e-005 6.81757374e-005 8.37010302e-005 -2.21557639e-005
      -1.46874940e-004 -4.41507509e-005 3.38346545e-005 2.22012727e-006
      3.88914268e-005 -5.21180664e-005 -1.99367409e-004 -8.72439923e-005
      -8.91414493e-006 2.45310821e-005 3.99447854e-005 1.49325442e-005
      -1.06793217e-004 -2.21818089e-004 -7.09761443e-005
      -2.98233626e-005 -1.62948879e-007 6.19013326e-006 -1.73503417e-004
      -3.70357557e-005 -5.42898051e-005 -5.21907823e-005 2.44222429e-006
      1.01083178e-005 9.84935377e-006 -2.35819994e-006 4.82863652e-005
      5.36835068e-006 3.99165219e-005 -1.05276522e-005 2.21526989e-006
      -3.67908257e-007 -1.51002241e-005 1.98321461e-004 5.67891460e-004
      3.58965539e-004 -5.82989422e-004 -5.01714821e-004 -6.13089243e-004
      9.09895534e-005 -2.38050023e-004 -2.88139505e-004 -6.20816572e-005
      4.86500176e-005 -4.27613239e-004 -2.30728881e-004 -1.44452715e-005
      4.56499169e-004 2.82583409e-004 -6.04184243e-005 -8.23153096e-005
      1.86877820e-004 -6.35991280e-004 -2.81359680e-004 -1.06420484e-003
      -1.17606243e-004 4.08462569e-004 -5.06556011e-004 3.72029404e-004
      5.42759772e-005 -2.60214409e-004 -3.84989660e-004 -5.53252525e-004
      -7.55183282e-004 -3.01212887e-004 6.30178722e-004 1.64715500e-004
      2.21319235e-004 2.84495472e-005 3.69632617e-004 3.45647743e-004
      -4.91584869e-005 1.88688718e-005 7.95082815e-006 4.82277064e-005
      9.50293179e-005 8.19942761e-006 3.12843331e-005 9.55917931e-005
      2.24933974e-004 -1.45935201e-005 -5.74140395e-005 -4.42805649e-005
      2.80229560e-005 -1.07224572e-004 -4.43254658e-006 2.72200232e-005
      -4.84794364e-005 -5.05135940e-005 -4.33366040e-005 1.71322154e-005
      1.05170966e-005 6.78795914e-005 6.67024360e-005 -2.27566325e-005
      -1.27946536e-004 -5.40347137e-005 -2.18591822e-006 2.36559572e-006
      2.80617724e-006 -6.21211120e-006 -1.93905886e-004 5.62711211e-005
      4.97812107e-005 8.64068352e-006 5.34692954e-005 2.86694849e-005
      -1.57118848e-004 -2.04524578e-004 3.46756519e-006 7.89490332e-006
      5.82543043e-006 -1.36750505e-005 -1.62216136e-004 -1.03385019e-005
      1.09219700e-005 -2.54392726e-005 -6.16811594e-005 9.80252571e-006
      1.06943398e-005 5.79521611e-006 -2.94834463e-005 2.60869692e-005
      5.44949544e-005 -5.85850430e-005 -2.56776934e-006 -7.10308304e-005
      -3.63042750e-006 1.96570487e-004 -4.94949520e-004 -1.07933687e-004
      3.39763705e-004 3.15304123e-006 -3.46772540e-005 -1.62266617e-004
      1.24332801e-004 -8.50267679e-005 -3.57494398e-004 -4.26125276e-004
      -1.04065752e-003 2.23854207e-004 7.15660339e-004 -1.98523732e-004
      -5.37878484e-004 -6.24904351e-005 2.68119638e-005 -2.67702941e-004
      -5.13000472e-004 -9.65892177e-005 -3.92209768e-004 1.19635100e-004
      4.42787976e-004 -3.27956514e-004 1.74910412e-004 7.07416679e-004
      -5.36364038e-004 5.01060676e-005 9.13069889e-005 -4.26222432e-005
      -2.49953213e-004 -3.35779769e-004 -3.13182391e-004
      -5.00776456e-004 3.20480467e-004 -9.80148689e-005 1.64713259e-004
      -7.18360316e-005 6.76525360e-006 -2.93963458e-005 7.81747731e-005
      2.45080082e-005 -9.66907246e-005 4.51470878e-005 8.92592579e-005
      1.06310239e-004 4.68128346e-005 -7.46211444e-005 6.69472865e-005
      1.23314763e-004 1.15308030e-004 2.17798806e-005 2.24760879e-005
      -5.84664267e-005 -1.40006796e-005 6.24338572e-005 2.72322468e-005
      2.16989993e-005 4.92443614e-005 1.01792393e-005 -9.13969488e-005
      -8.75859550e-005 -3.36980738e-005 2.83865556e-005 2.51339998e-006
      2.39625515e-005 -1.88534232e-005 -3.09326424e-004 -6.40993458e-005
      3.94246417e-005 4.83316180e-005 1.84464134e-005 6.29226706e-005
      1.51812228e-005 -2.43646413e-004 -5.80412452e-005 1.17782838e-005
      2.36616552e-006 -1.58021983e-004 -6.06339454e-005 5.44344875e-005
      -2.07974790e-005 -2.63101392e-005 -1.33868234e-004 3.06618240e-005
      3.88808112e-005 5.63642743e-006 -5.87898603e-006 2.88219544e-005
      4.03341583e-005 -1.80474478e-006 -3.43494798e-006 -1.95764242e-005
      3.49816110e-005 1.12615809e-004 3.85162188e-004 -6.06029469e-004
      -1.82293661e-004 -3.24654364e-004 7.13425921e-004 4.51597647e-004
      7.21976394e-004 2.94205733e-004 -2.65340437e-004 9.18072838e-005
      4.92328312e-004 3.27797519e-004 6.13654091e-004 5.78156556e-004
      4.91468410e-004 2.68246018e-004 -5.80284504e-005 -1.39014999e-004
      6.31636125e-004 -5.65395807e-004 7.70065817e-005 -1.61539239e-004
      -4.25406906e-005 -6.60763762e-004 8.75666228e-005 -3.40725703e-004
      1.35317270e-004 1.30889603e-004 -1.17821684e-004 -4.84150951e-004
      -3.69732385e-004 1.06110208e-004 4.06561623e-004 1.26733107e-003
      3.65454471e-004 3.86013126e-004 1.29373060e-004 -2.77563431e-005
      9.73453352e-005 3.90469586e-006 -3.15957805e-005 9.70359324e-005
      1.76074915e-004 -1.89273851e-005 5.17009976e-005 2.36490348e-004
      9.22793988e-005 -8.81268934e-005 -8.05285963e-005 4.77789217e-006
      1.21375124e-004 -1.47876635e-005 -1.83822012e-005 -9.61032201e-005
      -1.05333616e-004 1.23370173e-005 3.75222044e-006 7.66893027e-006
      4.14188944e-005 -8.30646695e-006 -6.45852706e-005 -3.93958289e-005
      -4.28491330e-005 -1.05425363e-006 -3.03117622e-006 1.32699788e-005
      -4.38859061e-005 6.48680088e-006 -6.04439992e-005 4.58664763e-005
      2.13626754e-005 8.55968938e-006 7.85686461e-006 -8.65071997e-005
      -7.11844114e-005 -2.75798884e-005 2.60205761e-005 2.23690017e-006
      -1.34211063e-004 -1.50847278e-004 4.15627073e-005 1.82660028e-006
      -1.25286115e-005 -1.45808648e-004 -2.57741540e-005 1.06946945e-005
      -4.74138545e-007 -1.44872665e-005 1.66284717e-005 1.25445040e-005
      -3.73220828e-005 -4.32834076e-006 -3.21817715e-005
      -1.07438254e-005 2.08620710e-004 2.90004071e-004 5.89265081e-004
      4.05774408e-005 2.01185409e-004 -1.78095273e-004 -3.91222165e-005
      4.55809466e-004 9.92011519e-006 -1.96345369e-004 -2.33375977e-004
      1.11521309e-004 -1.01065193e-003 -7.31709471e-004 3.35440476e-004
      2.66188028e-004 -3.21914733e-004 -2.25062104e-004 2.65002280e-004
      3.89791559e-004 8.18010790e-007 7.36496411e-004 -5.06493961e-004
      -6.76911577e-006 5.55119768e-004 7.01818266e-004 -9.24011401e-005
      3.47941037e-004 -6.28256967e-005 -3.90435598e-004 -2.32840216e-006
      -8.49021744e-005 -2.69815064e-006 2.63466762e-004 1.52062828e-004
      3.67991161e-004 2.57317351e-005 2.33582585e-004 -3.44559085e-005
      1.40596730e-005 -5.19120913e-005 1.51136273e-005 2.74318627e-005
      3.48695648e-005 5.26427493e-006 5.07012337e-005 -8.79050185e-006
      8.30810459e-005 -3.37610290e-005 -5.23026465e-005 -2.36227180e-007
      6.50890215e-005 -4.89935046e-005 1.32083505e-005 2.70008077e-005
      2.59639364e-005 4.18197806e-006 1.83023149e-005 1.78459140e-005
      2.70479541e-005 3.29022914e-005 4.13704802e-005 3.14546342e-005
      -3.91053291e-005 1.89806033e-005 -3.90691048e-006 -9.47854642e-006
      -3.01156269e-005 -6.97532887e-005 3.23328459e-005 -8.97363952e-006
      -7.30937609e-006 2.42324095e-005 -2.63306652e-006 -8.08474506e-005
      -1.78371192e-005 -4.28685635e-005 -4.52879613e-006
      -3.46080969e-006 -2.20151305e-005 -2.28619610e-005
      -8.15878957e-006 -4.40886324e-005 -3.04125224e-005
      -1.54485664e-004 3.02298176e-005 4.00892459e-005 -2.60596676e-006
      4.97104411e-005 9.59742374e-006 1.73830686e-005 -5.70325437e-006
      -2.49977631e-007 -5.33049606e-005 -1.46528446e-005
      -8.12172657e-005 -1.99848102e-004 7.46146834e-005 -4.10963439e-005
      -1.38853618e-004 2.56602565e-004 4.42744895e-005 1.16029129e-004
      2.74854072e-004 -5.09976060e-004 -4.13024594e-004 4.52435852e-005
      -6.22077059e-005 -1.84382079e-004 5.15302469e-004 3.53368523e-004
      5.57109364e-004 -6.42098661e-004 2.58817396e-004 4.32628382e-004
      1.13648512e-005 1.50281601e-004 2.50813551e-004 2.09064063e-004
      -2.37009372e-004 -3.33062664e-004 -1.00644524e-004 2.03093674e-004
      1.91873303e-004 -4.13271104e-004 -8.24008952e-004 7.27273655e-005
      5.25924552e-004 -3.52172327e-004 2.05188888e-004 -6.77434495e-004
      3.30609655e-005 3.06687842e-004 -5.00331444e-005 1.42569706e-006
      -4.38962779e-005 3.29802897e-005 3.27777052e-005 6.39098289e-005
      2.77620402e-005 1.09482222e-004 -6.21091822e-005 -8.21388130e-006
      -2.33122282e-005 6.22948428e-005 2.94317651e-005 -1.36419781e-004
      1.49982507e-005 3.84187842e-005 1.11661848e-005 7.28799278e-005
      3.58802737e-007 -1.55582911e-005 4.35636030e-005 5.22586670e-005
      5.70962911e-005 -8.16701577e-005 -2.60284636e-004 -3.29881477e-005
      -1.34952606e-005 2.77622189e-006 5.32804552e-006 -9.01389649e-006
      1.42725048e-005 6.82831742e-005 -4.13372572e-006 2.90632420e-006
      4.64325167e-005 6.96268253e-005 2.21228966e-005 1.24064081e-006
      -4.26499646e-005 -3.22444430e-005 -6.26457495e-006
      -3.83628467e-005 -1.87941896e-005 -1.60761501e-005
      -3.91958201e-005 -7.26385115e-005 -2.33842977e-004
      -6.21654590e-006 4.95407148e-005 -1.31268303e-006 -1.67964317e-005
      2.05975593e-005 2.13847106e-005 -3.75830277e-005 -7.52976030e-006
      -4.24852697e-005 -3.16348051e-005 1.02751757e-004 -7.20713346e-004
      1.55556074e-004 -1.85148136e-004 -4.05933679e-004 4.06270032e-004
      -1.57152914e-004 3.35467339e-004 -3.77456105e-004 6.30997762e-004
      -5.90782729e-004 -1.82759395e-004 1.59199317e-005 -5.86656271e-004
      -1.00829163e-006 -2.49209523e-004 -4.79712995e-004
      -4.98120848e-004 2.21610142e-004 3.89426132e-004 -6.82424361e-005
      -4.08953725e-004 -4.06573090e-004 -4.52525011e-004
      -3.46103712e-004 1.76423229e-004 5.56043378e-005 5.50117926e-004
      5.43572009e-004 -2.88039359e-004 -1.20657045e-004 -7.28112122e-004
      2.44425057e-004 -6.03315595e-004 -5.17798238e-004 -4.80312417e-004
      8.21456313e-004 3.53077136e-004 -2.92915138e-005 1.08688755e-005
      5.18553043e-006 7.09778251e-005 7.28197992e-005 8.94659461e-005
      3.61883103e-005 9.26109569e-005 -4.81215147e-006 -9.87537132e-005
      -6.37021412e-006 7.57452799e-005 -3.77993297e-006 -1.18077500e-004
      6.80753374e-006 2.33842766e-005 5.46974115e-006 -1.28632630e-004
      -2.14453685e-004 -7.69324834e-005 1.53845231e-005 5.70306001e-005
      1.68648130e-005 -1.31342909e-004 -2.61682784e-004 -1.35049428e-004
      -4.33598616e-005 -3.44546675e-006 1.02597069e-005 4.11221890e-006
      1.66476457e-004 2.49159959e-004 1.79053368e-005 1.03002203e-005
      5.37032320e-005 1.65771871e-005 7.81085037e-005 1.73399123e-004
      5.71868577e-006 -2.66691295e-005 9.46261480e-007 -8.21761278e-005
      -2.64264876e-004 2.31006870e-005 -1.75578916e-005 -1.36071203e-005
      -2.06363911e-004 2.88069314e-005 2.48526758e-005 -7.43771216e-006
      -3.36068260e-005 5.31788302e-008 3.75221971e-005 -3.51849885e-005
      -1.02932099e-005 -5.33415478e-005 -1.53736880e-006 1.75141278e-004
      3.18266568e-004 -1.46120423e-004 -3.35675286e-004 -1.27405496e-004
      3.32695199e-004 -8.46408249e-004 -5.11356193e-005 -5.09029371e-004
      -6.31245493e-004 -1.68810191e-004 -6.15408120e-004
      -2.28085177e-004 -7.77458132e-004 1.63757693e-004 -4.55615518e-004
      -4.03679587e-004 -6.21402112e-004 -3.76293727e-004
      -1.56156224e-004 -2.68154370e-004 -1.50974680e-004
      -1.89218277e-004 3.64545849e-004 -4.68944345e-004 -1.03333499e-004
      -4.91891464e-004 3.63704316e-006 3.97023745e-004 -2.53643200e-004
      -6.38609694e-004 -1.43383309e-004 2.00197275e-004 -3.94097820e-004
      -5.97309263e-004 -5.76496182e-004 7.03116893e-005 4.33262176e-004
      5.07110190e-006 4.47951061e-005 -3.07415576e-006 6.18829072e-005
      7.29498061e-005 2.87958992e-005 4.16983967e-005 7.99314221e-005
      1.84686462e-004 -1.25008009e-004 -2.38658704e-005 2.78178723e-005
      7.23039266e-005 -2.94865440e-005 3.15382240e-005 1.26025134e-005
      -6.31459579e-006 -6.87342908e-005 -1.72681423e-004
      -5.27745397e-005 4.31365224e-005 5.67307434e-005 4.58075265e-005
      -1.21242054e-004 -3.09546536e-004 -2.01312971e-004
      -6.94016635e-005 4.08603637e-006 3.79542507e-005 -1.21201583e-005
      1.46651437e-004 1.29504158e-004 3.12827942e-005 1.74185843e-005
      4.80637900e-005 4.34186186e-005 -1.96136243e-005 1.62926572e-005
      -2.12526193e-005 -5.03395568e-005 3.23672498e-006 -1.61666627e-004
      -1.75183450e-004 4.46638660e-005 -1.51663717e-005 -3.51118288e-005
      -2.91993580e-004 1.72064647e-005 3.96307514e-005 -4.60039291e-006
      -5.37620581e-005 1.27337653e-005 4.00592653e-005 -2.23666066e-005
      -1.57180625e-006 -3.35550044e-006 -9.39747906e-007 1.77272799e-004
      -7.08181120e-004 -8.66110087e-004 -7.74881104e-004 1.93542219e-005
      5.36587788e-004 -4.34763118e-004 -2.25179494e-004 -3.42886866e-004
      5.43231377e-004 1.79448078e-004 -2.34710213e-004 -1.19577115e-003
      -7.45771540e-005 5.19673165e-004 -7.50177307e-004 4.96793982e-005
      -1.31966139e-004 -4.44829202e-005 8.26721589e-005 -8.67113064e-004
      -7.41861528e-004 -3.29756906e-004 2.36786378e-004 5.37845306e-004
      -6.81318168e-004 -7.67349498e-004 -2.72470381e-004 3.34935583e-004
      -9.94207439e-005 1.41370139e-004 -1.08059694e-003 5.93266217e-004
      -5.73398604e-004 1.02378624e-004 -1.42877689e-004 9.81315097e-005
      4.00792196e-004 -6.41549850e-005 3.26916670e-005 -5.01066206e-005
      6.48568966e-005 7.54584762e-005 -8.38970082e-005 2.14942465e-005
      6.89100343e-005 2.66208604e-004 -1.57458620e-004 -2.35265852e-005
      1.67263279e-005 1.43654033e-004 -4.09459390e-005 3.80360798e-005
      4.47281600e-005 8.82943550e-006 1.51912260e-004 1.92801512e-004
      -1.90818992e-005 2.46861273e-005 6.52451708e-005 6.40430299e-005
      -3.37773818e-005 4.03178929e-005 2.94237307e-005 -2.11918195e-005
      -1.44138301e-006 2.39427791e-005 -6.62929669e-005 -4.93849875e-005
      -2.46768206e-004 -7.63593853e-005 1.99897586e-005 5.95804449e-005
      1.75146033e-005 -9.01569729e-005 -2.60966859e-004 -9.76942538e-005
      -3.58552461e-005 2.05515789e-006 -1.26222687e-004 -1.48496110e-004
      -2.17354063e-005 -5.15186948e-005 -1.12007780e-004
      -2.87493749e-004 -2.11248243e-005 2.45277915e-005 -8.42836380e-006
      3.45861408e-005 3.84954874e-005 5.40309484e-005 -8.34947241e-006
      1.33243998e-006 -9.95523578e-007 -2.17442206e-007 1.78779752e-004
      1.88407386e-004 -2.48143304e-004 -3.07012349e-004 2.10442377e-005
      3.55176133e-004 -6.33086136e-004 -4.61607793e-004 -2.03554446e-004
      -6.00421743e-004 -2.46277079e-004 -5.14114741e-004
      -5.23986761e-004 -3.83277365e-004 -4.35845577e-005
      -4.80879913e-004 -4.02057631e-004 -2.51416612e-004 3.70054739e-004
      7.23919249e-004 -1.13484903e-005 -3.52508105e-005 5.84935151e-005
      1.94059408e-004 -2.18809349e-004 -5.75200356e-005 -7.47756683e-004
      -8.25677416e-004 2.48621829e-004 -7.41415497e-005 -2.58456945e-004
      -1.54218535e-004 4.35902708e-004 2.13122286e-004 -9.93728390e-005
      -1.72393302e-005 -1.23457372e-004 4.45884274e-004 -1.52998400e-005
      4.20791293e-005 -9.01489693e-006 8.52625162e-005 7.97104512e-005
      2.85636943e-005 4.65321646e-005 5.80369706e-005 2.90992204e-004
      -1.23292630e-004 4.60726296e-005 1.09188950e-005 6.27223926e-005
      -1.25806357e-004 -3.10742621e-006 1.84103465e-005 -1.08797640e-005
      1.25955985e-005 -7.29672756e-005 -1.02677790e-004 2.53084909e-005
      5.18097113e-005 5.85179878e-005 -4.74990011e-005 -9.01122476e-005
      -4.76510177e-005 1.32230170e-005 -7.10637141e-006 -1.94250129e-006
      -2.36564688e-006 -5.85899543e-005 -2.06780722e-004
      -6.45945620e-005 2.24736377e-005 2.00446430e-005 7.13554473e-005
      1.39812382e-005 -8.31921207e-005 -7.61238625e-005 -2.95402588e-005
      -9.76280990e-006 1.59557949e-005 -3.32866075e-005 2.06199966e-005
      -2.51570727e-005 -2.87386865e-005 -4.24059341e-004
      -8.91454692e-006 2.20547208e-005 -3.14819772e-006 -1.58198930e-006
      1.53962901e-005 4.20655560e-005 -2.16337376e-005 -1.34018564e-005
      -1.52766188e-005 -3.54362328e-006 1.46461549e-004 -2.09715959e-004
      -4.19378601e-004 -8.18603789e-004 1.62956538e-004 1.15364484e-004
      -4.11274290e-004 -1.97757108e-004 1.71604028e-004 8.86768219e-004
      4.48553619e-004 -4.09920031e-004 7.95563756e-005 -4.49094186e-005
      6.39013131e-004 -5.27188589e-004 -8.83915927e-005 -3.93550319e-004
      5.22584523e-005 2.97795836e-004 -1.08656241e-004 -1.27767154e-004
      -2.26238786e-004 -2.75597500e-004 -5.71519835e-004
      -1.04730495e-003 -1.84321725e-005 -4.84953693e-004 3.58762045e-004
      -3.31467250e-004 8.85953996e-005 -1.44439342e-004 -2.36620093e-004
      -3.23458771e-005 -3.82179220e-004 -1.10702473e-004
      -2.40375768e-004 2.93484161e-004 1.68959450e-005 1.90439969e-005
      5.89455749e-006 6.93386537e-005 8.43475864e-005 4.45293626e-005
      2.66116367e-005 6.66550113e-005 1.20297940e-004 2.20565726e-005
      -2.41125672e-005 1.36359558e-005 9.13767362e-005 -6.41929655e-005
      2.77688123e-005 1.21858493e-005 -4.47789243e-005 2.15938580e-005
      4.72248612e-005 4.54469991e-005 2.60486922e-005 7.89844344e-005
      -6.89648277e-006 -1.71598167e-005 -2.29784146e-005
      -2.85792175e-005 -1.16221672e-005 -2.55950181e-006 1.19382885e-005
      3.26004483e-005 -1.04532577e-004 -1.92983207e-004 -3.18205966e-005
      2.02999472e-005 2.90192493e-005 2.85045317e-005 -8.81515098e-006
      -2.73104437e-004 -6.07520778e-005 -1.83824613e-005
      -5.40233884e-007 -5.45559778e-005 -4.58609538e-005 4.28307831e-005
      -4.01930374e-005 3.09890902e-006 -4.65357036e-004 1.33332214e-005
      2.60654360e-005 -1.99718693e-006 -3.75177151e-005 2.84313210e-005
      4.01284451e-005 -2.74550111e-005 -4.06738445e-006 3.89048982e-005
      3.94445988e-006 1.38293573e-004 -6.12095580e-004 5.70514589e-004
      -4.62907599e-004 -4.16700699e-004 1.28052227e-004 -1.46858962e-004
      9.84987244e-004 9.84757644e-005 1.23462291e-004 5.90869866e-004
      5.48751559e-004 3.79533827e-004 2.31316619e-004 -5.02489507e-004
      1.24180933e-005 4.47045692e-004 9.99099429e-005 2.96085462e-004
      2.83398462e-004 1.74370201e-004 2.45648174e-004 -8.64665082e-004
      -3.18265840e-004 -2.96071899e-004 -3.56128730e-004
      -3.47381225e-004 2.20559770e-004 8.63332418e-004 1.37205687e-004
      5.00081842e-005 2.61466485e-004 3.48301925e-004 -7.92216917e-004
      -7.89235171e-004 1.64207231e-004 -1.37562660e-004 1.90853490e-004
      -1.91770650e-005 -1.63964105e-005 -1.37707111e-005
      -5.59399487e-005 2.10894032e-005 1.45469006e-004 -1.51731251e-006
      5.93665136e-005 1.20535682e-004 3.15325560e-005 -2.29373054e-005
      -3.66274289e-005 6.20619685e-005 -7.41098556e-005 -2.20419279e-005
      -2.40678073e-005 -4.78904294e-005 -8.18975896e-005 1.66561840e-005
      7.73329612e-006 -6.52909819e-007 3.84311170e-005 -1.36352423e-006
      1.71999309e-005 -2.48669312e-005 -3.85722742e-005 1.96327510e-005
      3.92546781e-006 8.82698805e-006 7.64110700e-006 2.53445287e-005
      -4.93497209e-005 1.26534233e-005 8.11392783e-006 1.19938177e-005
      2.62785979e-005 3.79194171e-005 3.14348472e-006 -2.84277430e-005
      -6.90796196e-006 -5.43285478e-006 -3.09166353e-005
      -8.57351843e-005 3.41815576e-005 -8.51159143e-007 -1.33120348e-005
      -2.68693664e-004 -1.03452726e-006 2.29543348e-005 2.71273916e-006
      -3.97899421e-005 1.76144313e-005 3.02701501e-005 -1.31226170e-005
      -4.31564509e-008 -3.19860956e-005 -1.96623623e-005 9.29592279e-005
      -3.21190251e-004 3.40157130e-005 -4.56797774e-004 2.13885462e-004
      -7.54272551e-005 1.34688933e-004 3.59117723e-004 4.28898755e-004
      -4.20520140e-004 -8.64060494e-005 -9.42162151e-005
      -6.30534896e-006 4.91776911e-004 -1.63596531e-004 -3.90375208e-004
      1.76137779e-004 -8.49577191e-005 1.16886018e-004 -2.52111553e-004
      -1.21457524e-004 6.88497676e-005 1.78323990e-005 -3.30274925e-004
      -1.07439802e-004 -6.77018252e-005 5.33119659e-004 2.26914650e-004
      -3.82867001e-004 2.88232288e-004 4.46295744e-004 -6.61154336e-004
      7.35316353e-005 3.29156086e-004 8.93424847e-004 1.03202889e-004
      4.01345373e-004 2.36243155e-004 1.13753422e-005 1.20135583e-005
      3.31287483e-005 5.44166505e-005 4.85239652e-005 9.81275080e-005
      4.40291005e-005 3.81198697e-005 2.23350071e-004 1.43751400e-004
      1.47218088e-005 -6.80133162e-005 -4.37098679e-005 2.28253357e-005
      1.32111165e-006 -1.11708287e-005 -5.06833967e-005 -6.68655994e-005
      -5.44155482e-005 5.53331665e-006 1.96460078e-005 2.30582573e-005
      -1.16078800e-005 -6.76974159e-005 7.93444997e-005 -4.24273785e-005
      -1.34311440e-005 -3.00765635e-007 -1.87379537e-005
      -3.37343190e-005 5.71981473e-005 -2.93008270e-005 6.46684639e-005
      1.09964549e-005 1.38950136e-005 -3.22567621e-006 -6.38240017e-005
      -6.11891619e-006 -2.43587947e-005 1.67368817e-005 -3.97283020e-006
      -2.55071995e-004 -1.56703012e-004 -1.93196638e-006
      -6.45025330e-006 -2.35457028e-005 -2.95475475e-004
      -1.01420246e-005 1.03781285e-005 -4.47780440e-006 -6.54371252e-005
      1.68453698e-005 3.19341816e-005 -2.19783324e-005 -9.49739274e-007
      -3.67205139e-005 -1.30718990e-005 1.73369932e-004 -1.78788396e-004
      2.82370693e-005 -6.09775889e-004 -2.50660611e-004 7.44135177e-005
      6.58217818e-004 3.75198229e-004 -7.08305597e-005 5.29914214e-005
      2.54343555e-004 1.88074438e-004 -1.53747169e-004 6.06145069e-004
      2.90103751e-004 -3.00313433e-004 1.69546605e-004 -2.52802274e-004
      -2.43528310e-004 -4.17862408e-004 -1.94901775e-004 2.00000402e-004
      2.52912316e-004 9.30558090e-005 -9.13850840e-007 8.16951913e-004
      6.47744018e-005 3.04247020e-004 -1.39612312e-005 -1.57061149e-004
      1.84846445e-004 5.26880554e-004 3.27268033e-004 7.57924136e-005
      3.53501819e-004 6.78265409e-004 4.01221361e-004 2.98343453e-004
      -1.08608729e-005 2.37241675e-005 1.57641080e-005 5.87022041e-005
      5.17138578e-005 1.68781349e-004 2.15428718e-005 2.52553000e-005
      4.08233900e-005 9.30203532e-005 -1.03870392e-004 -7.19078889e-005
      -1.71179519e-004 -8.02590221e-005 -2.18199020e-005 1.61472835e-005
      -1.04925872e-004 -1.90340259e-004 -2.16258486e-004
      -3.18712191e-005 2.09145892e-005 4.31267508e-005 -6.54160522e-006
      -5.62984060e-005 -1.08276123e-004 -1.10125999e-004
      -2.04412408e-005 -3.64389075e-006 8.31725538e-006 -4.28169733e-005
      1.47445870e-004 1.36129514e-004 4.37013659e-005 3.17705890e-005
      1.55076195e-005 3.61681232e-005 1.42913018e-006 2.31160171e-004
      7.92016272e-006 4.30531036e-005 6.78900642e-006 -9.47256631e-005
      -7.45222860e-005 4.34203976e-005 2.84730686e-005 3.53096839e-005
      -1.45784812e-004 -4.26314436e-005 2.77640138e-005 1.00574343e-005
      -1.25990045e-004 3.15156431e-005 2.74793456e-005 -8.28234697e-005
      4.79028358e-007 -3.81986138e-005 4.93159462e-007 1.63870645e-004
      4.29059961e-004 1.58865532e-005 -2.36192893e-004 -1.27138628e-004
      7.07981599e-005 -3.83598759e-004 1.16670817e-004 1.96981418e-004
      7.33130786e-004 -3.28205322e-004 3.56261240e-004 -7.15548231e-004
      -7.00544706e-006 8.92372409e-005 1.24410202e-004 3.61774699e-004
      1.30209824e-004 1.16585143e-004 7.90124523e-006 -3.51926748e-004
      2.10929372e-007 1.41279277e-004 3.13116325e-004 8.55363905e-005
      6.10841031e-004 -9.24297638e-005 2.29812475e-004 1.76425252e-004
      -2.32899576e-004 6.16652178e-005 2.30676640e-004 4.68557497e-004
      8.11423070e-006 -2.84330978e-004 6.13129887e-005 -3.04979658e-005
      2.00399110e-004 -4.71067178e-005 1.09324519e-005 -1.24057451e-005
      7.24526253e-005 7.03256374e-005 9.31624963e-005 5.23173730e-006
      8.44410315e-005 2.86336326e-005 -4.68884500e-005 -9.88605389e-005
      -1.87167166e-006 -1.51340122e-004 -2.07204270e-004
      -2.39203837e-006 -7.97569101e-006 -7.26107319e-005
      -8.07205743e-006 -1.95626330e-004 -1.09380535e-005 2.10527069e-005
      2.74266349e-005 2.56267667e-005 -1.88137146e-005 -1.00293473e-004
      -8.14615996e-005 -1.82318618e-005 -9.00710620e-006 2.18108617e-005
      -3.37225720e-005 2.09930135e-004 1.32027795e-004 6.86506319e-005
      9.75659441e-006 2.79350970e-005 1.75466794e-005 3.39699836e-005
      1.85462981e-004 2.18454570e-005 -3.57636527e-005 7.86036708e-006
      -6.74431722e-005 -6.44213651e-005 -9.40964856e-006
      -1.75082769e-005 -6.14651071e-006 -2.18529531e-004 3.69221889e-005
      2.81458579e-005 1.56504684e-005 -2.45702558e-005 4.00703493e-006
      2.52401514e-005 -2.88205556e-005 4.60027286e-006 -2.50098437e-005
      1.41492874e-005 1.17248877e-004 9.18676506e-006 -2.92008481e-004
      -4.83897398e-004 1.64514393e-004 3.61797865e-004 -2.12149404e-004
      -4.00962454e-005 3.04062742e-005 7.58794427e-004 -1.27205247e-004
      -2.57171359e-005 -5.05706877e-004 3.16919526e-004 3.34475364e-004
      -4.82921932e-005 -6.25428336e-004 -1.34322690e-004 3.45050561e-004
      3.48961621e-004 -1.49775617e-004 2.05556003e-004 3.78289522e-004
      9.01790976e-004 -5.66644245e-004 5.84265836e-005 1.41095079e-004
      7.05889368e-004 1.72132568e-004 -6.58274046e-004 5.94021345e-004
      9.00580926e-005 3.32526106e-004 2.21846305e-004 4.42124292e-005
      -5.55895444e-004 1.56151058e-004 3.67340748e-004 -7.42206466e-005
      5.36206571e-005 1.93588749e-005 7.25034624e-005 8.28336124e-005
      3.97623226e-005 5.34030078e-005 7.25472928e-005 3.88592307e-005
      -5.86573769e-005 -2.78130319e-005 -2.04011612e-005
      -4.38097195e-005 -2.78251828e-004 2.52058762e-005 7.76865545e-006
      -3.98176235e-005 -1.03307117e-004 -2.91645789e-004
      -1.02303666e-005 3.32564377e-005 4.96869034e-005 7.84043732e-006
      -9.23941552e-005 -7.63072967e-005 -6.00445601e-005 5.31241176e-006
      -4.55922145e-006 3.07434457e-005 1.40133197e-005 1.59202435e-004
      3.74878582e-005 1.50402921e-005 4.15531249e-005 4.84102529e-005
      2.99013409e-005 -3.22884953e-005 1.74406698e-004 -1.07785340e-007
      1.31304532e-005 6.03260924e-006 -1.66242331e-004 -7.95346059e-005
      4.97014044e-005 -7.68161226e-006 3.22953456e-005 -3.08996357e-004
      6.77348908e-006 2.75682232e-005 -6.29807892e-006 4.93063417e-005
      4.12366971e-005 4.11862966e-005 1.02333006e-005 -4.08245023e-006
      -2.07771409e-005 -6.35763990e-006 5.63034919e-005 2.99155858e-004
      -4.99841757e-004 -8.93189572e-004 -9.28432040e-004 4.86443227e-004
      -4.21793899e-004 -6.13748911e-004 -7.45568308e-004 3.24755471e-004
      3.49287991e-004 2.04239972e-004 1.45065365e-004 1.60086420e-004
      3.06185160e-004 -1.52481982e-004 6.89683220e-005 -2.78117805e-004
      2.34856434e-005 3.23248358e-004 1.64914672e-004 -1.04512321e-004
      -8.73644429e-004 -2.44525609e-006 -6.18931896e-004 2.46667742e-006
      -2.47421776e-005 1.70536383e-004 -1.39485361e-004 6.33816351e-004
      4.17051167e-004 3.29678907e-004 1.97829533e-004 -3.81990860e-004
      1.77921029e-004 -4.12810448e-004 5.45743795e-004 3.24884837e-004
      -5.50839140e-005 2.32889051e-005 -2.30804144e-005 5.85861417e-005
      7.21923570e-005 -5.25090582e-005 2.78458610e-005 1.07541127e-004
      1.16584670e-004 -1.29576831e-004 7.07807121e-005 9.93233812e-007
      6.18018239e-005 -1.09425142e-004 3.60345912e-005 2.95455084e-005
      1.32890400e-005 1.28537737e-004 1.09738838e-004 6.96559218e-005
      2.88283009e-005 3.12010161e-005 2.27611254e-005 1.45542153e-005
      2.89344644e-005 -1.76586661e-006 -2.03575405e-006 1.68211295e-006
      1.67519938e-005 -6.04036431e-005 -3.84963132e-005 -2.03062213e-004
      -3.00325082e-005 3.16564219e-005 5.34643077e-005 -6.91031846e-006
      -1.66746671e-004 -9.04650515e-005 -5.13209707e-005
      -3.97689801e-005 -4.39126279e-006 -4.13260314e-005
      -2.59513065e-004 2.82984774e-006 -3.90196765e-005 -7.55788642e-005
      -1.58299983e-004 1.44691882e-007 3.90180903e-005 9.58266014e-007
      -2.08225920e-005 2.41884918e-005 3.81619575e-005 -2.27761630e-005
      -2.96115650e-006 -1.05108677e-006 9.19597733e-006 9.07909634e-005
      3.18699866e-004 -8.69006981e-005 8.72642340e-005 -7.77714769e-004
      2.17826710e-005 -4.92337167e-005 -1.33157591e-003 -2.81177170e-004
      8.10204248e-004 -4.75325040e-004 3.17616999e-004 -6.03943423e-004
      5.61101537e-004 5.37825224e-004 -7.60616153e-004 -3.35403543e-004
      -5.96320373e-004 4.71711450e-004 6.05276764e-005 -9.91683628e-005
      3.15165875e-004 -2.30680685e-004 -6.66184234e-004 -1.06782813e-004
      8.03977891e-005 4.62196258e-005 -2.11683626e-004 3.25996778e-004
      4.04266437e-004 -8.35481187e-005 1.55406495e-004 6.05353387e-004
      3.85621126e-004 -5.62112138e-004 -2.87088245e-004 -4.66286525e-004
      2.33841944e-004 1.16963611e-006 1.65313231e-005 -3.40595216e-005
      5.87657087e-005 7.02482575e-005 -9.43032592e-006 9.79571905e-006
      6.51461305e-005 1.98378781e-004 -5.25651558e-005 -7.13522059e-006
      -7.80103619e-006 8.36575418e-005 -5.91605130e-005 3.53133546e-005
      -5.08050243e-006 -2.12656687e-005 -7.18677711e-006 9.45344000e-005
      5.43052884e-005 2.13489111e-005 4.87153520e-005 4.89848971e-005
      -2.08242593e-004 -2.73837941e-005 8.89394187e-007 7.84579697e-006
      -5.85187126e-006 -2.91964043e-005 -3.75250129e-005 6.13909724e-005
      -1.08318862e-004 6.35061515e-005 1.94047570e-005 3.34360338e-005
      4.50808839e-005 -1.58509181e-004 -3.14911049e-005 -1.31611550e-005
      -2.11995593e-005 -6.03216495e-006 -5.67682036e-005
      -5.80469859e-005 -1.99259339e-005 -4.36491791e-006
      -4.26225015e-005 -3.36956116e-004 2.15547298e-005 3.50447917e-005
      2.13349040e-006 -2.40919762e-005 3.11454751e-005 4.43256467e-005
      -5.54431826e-005 7.12764722e-006 -2.05912747e-005 -1.55355693e-007
      5.59398650e-005 -1.61918288e-004 -1.44032354e-004 -6.58793841e-004
      1.22828540e-004 1.99330461e-004 4.88849706e-004 7.18794254e-005
      -3.41009872e-004 -7.92520150e-005 -1.78506889e-004
      -5.48348471e-004 5.61398687e-004 4.25690931e-004 -3.80345242e-004
      -2.30344609e-004 -3.74439289e-004 -4.98133886e-004
      -5.24080860e-005 2.92645738e-004 3.18608247e-004 -4.92822845e-004
      -5.23247872e-005 -3.64030013e-004 1.93267319e-004 -4.48869076e-004
      -8.26137431e-004 -5.98450541e-004 6.80671714e-004 -4.90496634e-004
      1.13360202e-005 9.09163209e-005 2.02337847e-004 -2.61901150e-004
      9.13392796e-005 -1.03817394e-004 -3.72458133e-004 3.35192832e-004
      -3.58024727e-006 2.60730903e-005 -2.09537811e-005 7.40872856e-005
      7.58603128e-005 -9.28922691e-006 2.02065930e-005 7.06564606e-005
      1.12249319e-004 -1.15598115e-004 2.93919929e-005 9.85476072e-006
      1.05992993e-004 1.93288928e-004 -1.57447619e-006 8.16281499e-006
      -4.57292081e-005 -1.87386067e-005 1.40826683e-004 8.17669206e-005
      2.48824363e-005 4.50547632e-005 5.99025441e-007 -1.49848696e-004
      -8.08695258e-005 -6.31881339e-005 -8.90365754e-006
      -6.19372031e-006 1.95653993e-005 -3.40672050e-005 -8.97011196e-005
      -1.24146463e-004 5.69574331e-005 2.14116280e-005 2.87141520e-005
      4.08864835e-005 -2.33523708e-004 -2.58303742e-004 6.51857408e-006
      -4.32948618e-005 -7.05922366e-006 -1.61522694e-004
      -2.89511343e-004 -1.58931798e-005 5.86793522e-006 1.88065260e-005
      -1.18899181e-004 2.72247908e-005 2.07260509e-005 1.54635120e-006
      -1.85610133e-005 3.66333370e-005 2.42443730e-005 1.82443109e-005
      -3.37845819e-007 -5.96966538e-006 2.16256012e-006 2.41601549e-004
      5.13650128e-004 -1.12071626e-004 4.29956621e-004 2.10780971e-004
      -5.00175753e-004 4.29772132e-004 -8.31118377e-004 -9.65242914e-004
      6.13049720e-004 3.82520899e-004 -1.17742120e-005 1.51088723e-004
      3.32111144e-004 2.77448999e-004 1.95700864e-004 -3.56839679e-004
      -7.45238685e-006 -1.06026135e-004 -3.84674167e-005 5.61509863e-004
      -9.20889725e-005 -2.39506189e-004 -5.13322186e-004
      -7.61994716e-006 1.18930191e-004 -4.39043797e-004 -2.67240859e-004
      -6.13615848e-004 -1.26786050e-004 1.56000111e-004 -4.27975843e-004
      -8.27484415e-004 1.20897341e-004 -5.87862050e-005 -2.77299172e-004
      2.86950875e-004 3.58802266e-004 -1.81971391e-005 1.35258015e-004
      -5.36699990e-005 -5.70354632e-006 1.58266121e-004 2.65423951e-005
      3.43026295e-005 6.01721767e-005 -1.33440824e-006 6.03202097e-005
      -2.72715515e-005 -1.16159463e-005 1.55234055e-004 9.13174736e-005
      -6.95684867e-005 -1.10165729e-005 -3.28972455e-005 5.32277045e-005
      9.92420100e-005 7.03289188e-005 6.48201376e-006 3.15010257e-005
      9.74765408e-006 -1.51039480e-004 -1.68232422e-004 -2.86886097e-005
      -2.41366888e-005 -1.31733805e-006 6.01941792e-006 -1.96420133e-005
      2.45122119e-005 -1.21290657e-004 7.46213336e-005 1.86116304e-005
      1.77672100e-005 -2.55218711e-005 -1.27326290e-004 -8.69690484e-005
      -2.97220777e-005 4.06540903e-006 -5.95392612e-006 -6.17219412e-005
      -1.17334086e-004 -3.15940051e-005 -2.89179155e-007 1.49229584e-006
      -1.38745861e-004 -3.07629089e-005 3.44857872e-005 3.37357369e-006
      -3.51910021e-005 1.01788528e-005 4.24503560e-005 -1.92271091e-006
      -4.75984962e-006 -3.65848573e-005 -5.12754332e-006
      -1.03173479e-004 1.57725575e-004 -3.05288064e-004 -2.37538698e-004
      -3.12438613e-004 -3.45453591e-004 -2.18702335e-004 7.32337125e-004
      -1.45325976e-004 1.94588556e-005 -4.20592725e-004 1.55938425e-004
      4.76450630e-004 -2.43207222e-004 -8.05833479e-005 -7.01569428e-004
      4.67721606e-004 -6.47421577e-004 -2.62058980e-004 -6.24945853e-004
      -4.16245864e-004 2.67239720e-005 -1.66122827e-005 -3.94930139e-005
      -1.67835664e-004 1.92802923e-004 6.54584073e-005 1.19300072e-004
      -5.29067984e-005 -5.89606760e-004 9.00529907e-004 2.62112939e-004
      -1.92864303e-004 7.15396774e-004 3.10668838e-005 -2.72543461e-004
      4.68807528e-004 4.59055998e-004 3.54587178e-006 4.78532684e-006
      -8.15104213e-005 4.18963573e-005 1.54714526e-005 -5.05356875e-005
      -1.76048234e-005 4.30186083e-005 8.60673099e-005 7.35735666e-005
      1.02427475e-005 -2.89273503e-005 -1.04772553e-004 -1.02319762e-004
      -4.09380773e-005 -2.07381746e-007 -2.06389886e-005 3.95477909e-005
      -5.79375046e-005 3.25877664e-007 2.77849304e-005 4.46482736e-005
      4.61715399e-006 -2.37073491e-005 -2.14501015e-005 -9.37727418e-006
      -2.14334668e-005 5.34679157e-006 9.41881899e-006 -3.48397989e-005
      2.98111663e-005 7.75392346e-006 7.84229051e-005 2.19563208e-005
      7.88638863e-006 1.91024374e-005 -3.57428507e-005 6.22372099e-005
      -2.31966587e-005 -1.92026018e-005 1.46289563e-006 -5.25778560e-005
      -2.68064789e-004 4.54152505e-005 -1.41306909e-005 -1.58255079e-005
      -1.90929379e-004 -4.56177513e-005 4.80560266e-005 -5.33737648e-006
      -8.26769974e-006 2.29051329e-005 2.53062171e-005 -3.13529781e-005
      6.70665486e-006 -2.01380208e-005 3.52891334e-006 9.66863736e-005
      -2.65748182e-004 -4.13643254e-004 -5.65026829e-004
      -5.74182486e-005 -2.33511992e-006 -5.26353309e-004
      -3.24198772e-004 2.18979447e-004 3.38509155e-004 -3.23945191e-004
      -4.79052658e-004 -9.29776434e-006 -1.41440236e-004 2.25216354e-004
      -6.61670521e-004 -2.92165059e-005 1.59168645e-004 4.10643523e-004
      -7.26583414e-004 -6.09883398e-004 3.66355758e-004 3.11239623e-004
      1.28437401e-004 -2.51357938e-004 4.30740998e-004 1.73424341e-004
      -1.36513161e-004 -2.14620406e-004 -1.20235060e-003 3.57897748e-004
      6.28256312e-005 2.93661258e-004 7.61627089e-005 1.54426423e-004
      -1.69330597e-004 1.84352437e-004 4.42539895e-004 2.79564028e-005
      3.33537828e-005 5.32480080e-005 7.13758345e-005 8.21998692e-005
      8.94016048e-005 3.61957573e-005 5.67055758e-005 2.04199663e-004
      1.70544459e-004 -2.57457341e-005 -1.58199437e-005 -1.57823815e-004
      -2.33971950e-004 2.58349664e-005 1.03817392e-005 -8.95635603e-005
      -3.11524636e-005 -2.41556772e-004 -1.23230266e-005 2.25903204e-005
      4.23222227e-005 1.12284042e-005 -2.07361678e-004 -1.55643647e-004
      -9.26380962e-005 -3.66393579e-005 4.03841113e-006 1.40406780e-006
      -1.00498028e-005 1.57057832e-004 1.87538753e-004 1.63367542e-004
      3.40852894e-005 2.51735910e-005 5.50257027e-005 4.14913302e-005
      1.21220597e-004 5.75755621e-006 -2.92496520e-006 8.65015636e-007
      -3.36737226e-004 -1.87390033e-004 3.72187314e-005 -4.91884930e-006
      4.21495024e-005 -3.73146584e-004 -1.52070961e-005 2.63818874e-005
      -3.51621452e-006 -1.52953638e-004 1.13446295e-005 2.20860729e-005
      -3.93212795e-005 -2.96112535e-006 -4.51435299e-005 1.49233574e-005
      1.43302008e-004 1.63942299e-004 -4.85405530e-004 -6.54503005e-004
      8.21199268e-004 -7.53227869e-006 -4.16367293e-005 -2.53200531e-004
      -1.04262304e-004 2.00924740e-004 9.83905120e-005 -5.09718200e-004
      -3.99437209e-004 -7.92571591e-005 -2.72318313e-004 4.91957944e-005
      5.16408531e-004 2.63525551e-004 1.59525385e-004 -4.86666213e-005
      -7.18465599e-004 -2.29656536e-004 -1.60950425e-004 5.93986537e-004
      5.55686245e-004 -1.85741490e-004 -4.63571021e-004 7.93312938e-005
      2.42659153e-004 -7.63235672e-004 2.93783494e-004 -2.42086928e-004
      4.50114079e-004 -9.50169051e-004 5.39022949e-005 8.53116944e-005
      -1.71502877e-004 3.05161899e-004 -1.39294607e-005 5.27391348e-005
      1.12377138e-005 9.21934916e-005 8.14013620e-005 9.66725274e-005
      4.17306655e-005 7.62474228e-005 1.12910435e-004 5.63955982e-005
      -4.14353053e-005 8.58031308e-006 -4.63455472e-005 -8.12197904e-005
      2.96369017e-005 -6.06205322e-006 -6.75347401e-005 1.41835735e-005
      -2.10730781e-004 5.82488246e-006 2.14782613e-005 3.99845012e-005
      7.85692373e-006 -1.44964681e-004 -1.04774095e-004 -8.12487415e-005
      -1.83799912e-005 2.23647794e-006 2.97477218e-005 -4.39381947e-005
      6.49024150e-005 5.80576016e-005 6.54621035e-005 2.08942292e-005
      3.87946202e-005 3.37132915e-005 1.31831112e-005 1.93507309e-004
      -8.05709351e-006 -4.57904571e-006 2.69217963e-007 -5.51117046e-005
      -1.92320440e-004 1.54297834e-006 -2.71156259e-005 -4.37573763e-005
      -3.03790002e-004 7.72209569e-006 2.26721804e-005 -1.02272343e-005
      -1.18102944e-004 -6.68608345e-006 3.50866540e-005 -6.21246872e-005
      -4.04254479e-006 -2.85829774e-005 -1.87362104e-007 8.32208825e-005
      1.72712491e-004 -8.10052559e-004 2.80808861e-004 3.37380567e-004
      -4.05098690e-005 6.51526090e-004 8.57131381e-005 5.16380707e-004
      3.17370228e-004 1.96850087e-004 -3.89730063e-004 -1.25898296e-004
      -1.86868947e-005 5.43766655e-004 9.21071623e-005 -9.65916784e-004
      6.58235047e-004 9.97770767e-005 -4.77597816e-004 -6.84488041e-004
      1.38754345e-004 3.84706946e-004 -1.26596526e-004 1.21047451e-004
      1.63458622e-004 -3.43574327e-004 2.32438499e-004 1.10636902e-004
      -3.16393533e-004 5.63787908e-005 6.69147539e-006 1.41620243e-004
      3.92230431e-004 3.57517361e-004 -4.97193367e-004 8.65167414e-004
      4.05645085e-004 -5.86152237e-005 4.61321615e-005 8.13404858e-006
      8.01751376e-005 9.89750915e-005 -6.44143620e-006 2.52096906e-005
      7.46949518e-005 2.53493781e-004 4.21642981e-005 -3.52059760e-005
      -4.60755609e-006 7.66033008e-006 5.12569568e-005 5.00699134e-005
      1.26539544e-005 -4.29480206e-005 -5.96998616e-005 -2.73616315e-004
      5.93815421e-005 3.01233504e-005 1.54221161e-005 1.17882728e-005
      -1.26783081e-004 -1.70023108e-004 -7.51136540e-005 8.42058671e-006
      -3.38346126e-006 -5.96199743e-006 -4.29059837e-005 1.58367053e-004
      -2.95274895e-005 6.84853658e-005 4.86903446e-005 5.26417789e-005
      9.24959477e-006 3.01940836e-005 1.10648980e-004 -6.48265132e-006
      -2.09609479e-005 -2.48777360e-006 -2.49009056e-004
      -1.98167763e-004 -3.11874646e-005 -2.61449404e-005
      -1.64771354e-005 -2.37752916e-004 1.22277825e-005 3.01772270e-005
      -1.83996804e-006 -9.01809108e-005 1.83129505e-005 2.63682068e-005
      -4.14996175e-005 -5.86035230e-006 -4.08987289e-005 4.75697880e-006
      5.22617738e-005 -7.34532150e-005 -1.08404362e-004 9.58446981e-005
      2.46626674e-004 2.62103451e-004 3.28987400e-004 -9.44770582e-005
      1.34803704e-004 -2.49789882e-004 2.68961485e-005 3.19257291e-004
      5.85092697e-004 8.30373145e-004 8.65624170e-005 -5.35861647e-004
      -2.02901007e-004 -5.80544511e-005 -5.87967907e-006
      -9.47862631e-004 6.64579784e-005 5.14481275e-004 -5.96586615e-004
      3.96928837e-004 3.18288920e-004 7.71315186e-004 -7.57319038e-004
      2.36341861e-004 -1.38697811e-004 4.00289602e-004 2.30646692e-004
      -2.69377779e-004 5.41441725e-004 3.51221650e-004 1.97791291e-004
      -7.26299768e-004 -6.20496750e-004 1.36426010e-004 -6.07231232e-005
      1.84875935e-005 -1.94656532e-005 8.74744001e-005 9.01184976e-005
      -2.10113394e-005 5.70728771e-005 9.24540145e-005 2.75546045e-004
      -1.52103647e-004 4.26159131e-005 5.39130997e-005 1.26537925e-004
      1.28645297e-005 6.42589366e-005 -1.16489273e-005 -2.20488346e-005
      -3.63983054e-005 -4.24147365e-005 9.08061847e-005 2.07034354e-005
      4.56383677e-005 -3.39211620e-005 3.60331396e-005 -5.66819072e-005
      -3.38222890e-005 -3.26122381e-006 -9.41803137e-006
      -4.73837936e-005 -6.57324272e-005 2.18164114e-005 -1.51208107e-004
      9.34269792e-006 3.65251763e-005 4.17341289e-005 -3.83392362e-005
      -2.06519617e-004 2.92683835e-005 -6.91534296e-005 -1.76927915e-005
      3.19513560e-006 -9.24839769e-005 -1.39732540e-004 -7.53669474e-006
      -4.48537830e-005 -2.34492982e-005 -2.02450683e-004 2.87564017e-005
      3.05645626e-005 -5.19575269e-006 -1.77752954e-005 2.67910436e-005
      2.67839387e-005 -2.63088168e-005 -1.89515345e-006 5.42741373e-006
      -4.28895828e-006 1.53763278e-004 2.52174068e-004 4.43390803e-004
      4.55018249e-004 4.14003502e-004 -3.33648466e-004 -2.16374116e-004
      6.99794909e-005 -7.01498415e-004 -5.34682593e-004 -1.65760895e-004
      1.09863999e-004 -3.15620528e-005 6.13419164e-004 -5.03275252e-004
      -4.02227364e-004 -7.86287637e-005 -2.17409222e-004
      -2.91407458e-004 1.45935090e-004 -2.28875128e-004 -2.96201586e-004
      9.65758372e-005 -1.37147494e-004 -2.43192717e-005 3.13189870e-004
      -1.67842591e-004 -3.66045104e-004 3.00240703e-004 2.94344296e-004
      -8.67185736e-005 -2.26587465e-004 -2.07692516e-004 2.93506426e-004
      -2.06946919e-004 -3.50702176e-005 -4.97123210e-006 2.92911107e-004
      -5.02467228e-005 5.19948007e-005 -1.28523170e-005 5.01960421e-005
      7.12973997e-005 -1.11998934e-005 5.02676885e-005 1.16677213e-004
      1.08460605e-004 -1.47663421e-004 7.07141444e-005 6.86797357e-005
      1.39369469e-004 7.04334743e-005 2.83538066e-005 -4.00909175e-006
      -3.26504160e-005 7.43852142e-005 1.51901826e-004 9.40015088e-005
      2.51593410e-005 4.48624814e-005 1.13724700e-005 -4.14175265e-005
      2.48833749e-005 3.52931384e-005 -1.51627319e-006 -1.36029803e-006
      -3.33805438e-005 -5.87925206e-005 -3.48563663e-005
      -2.46459502e-004 -1.19940187e-005 6.18417198e-006 3.01620967e-005
      -4.48601932e-005 -6.41829174e-005 -1.93237473e-004
      -5.08313860e-005 -2.30748683e-005 5.51152198e-006 -1.16592833e-004
      -2.69825832e-004 -1.04239807e-004 -2.90562330e-005
      -4.31498993e-005 -2.17337991e-004 -2.17714387e-005 1.53815472e-005
      -4.56870475e-006 6.02740147e-005 1.36253675e-006 3.18609673e-005
      -9.12121095e-007 -1.99310625e-006 -2.35704938e-005 2.70855548e-006
      1.62943950e-004 5.48524222e-005 4.21317149e-004 5.09530306e-004
      2.43512433e-004 1.16728159e-004 -3.72687326e-004 2.59526678e-005
      -2.65517709e-004 -3.74158641e-004 2.43242088e-004 4.58519120e-004
      -2.81018525e-004 -6.29283313e-004 -2.56265012e-005 3.00704437e-006
      5.68076386e-004 -1.96843739e-005 -3.26859736e-004 3.49206268e-004
      1.72719694e-004 9.23326443e-005 -1.90420789e-004 1.94909546e-004
      7.24638303e-005 -1.87661615e-004 -1.98894442e-004 -6.74339608e-005
      -1.35078386e-004 5.48280892e-004 -2.73330865e-004 -4.20726748e-004
      -2.45847419e-004 7.99537302e-005 2.49333127e-004 -2.46249285e-004
      -5.71597047e-005 2.23093622e-004 2.41727539e-005 1.12990774e-005
      -3.10018913e-005 4.90730890e-005 7.24145430e-005 -3.75910349e-005
      8.16894044e-006 5.65052578e-005 4.25968974e-005 -2.70850542e-005
      -2.39361689e-005 -4.60291312e-006 7.06453138e-005 -1.12029411e-004
      -4.96929124e-006 1.58411040e-005 -2.03984364e-005 6.48962232e-005
      1.40007527e-004 4.42396376e-005 3.08279341e-005 3.10210162e-005
      5.97641701e-006 -7.69425460e-005 -8.52659505e-005 3.72726527e-006
      8.99034876e-006 8.43543785e-006 4.60540696e-006 -4.04528255e-005
      6.93224210e-005 -1.18848431e-004 1.35851701e-006 2.91686392e-005
      4.53274261e-005 -2.19778758e-005 -1.53558634e-004 -1.02337319e-004
      -4.49559557e-005 -1.79666549e-005 -5.65737582e-006 1.13186950e-004
      -1.00936617e-004 -5.19582500e-005 -3.78457917e-005
      -2.72307989e-005 -2.11372753e-004 5.24286816e-006 2.72475481e-005
      4.85988676e-006 -2.11265592e-006 9.04211265e-006 2.10587514e-005
      -1.25899442e-005 3.35269306e-006 1.89037291e-006 7.44545190e-008
      1.25954117e-004 6.97462470e-004 -2.03455384e-005 4.64174518e-004
      1.55329344e-005 -1.02860387e-004 -6.45774475e-004 3.95114650e-004
      -4.36372327e-004 -4.73807624e-004 3.14528079e-005 1.92788400e-004
      5.01395494e-004 -2.89005256e-004 -2.69624172e-004 1.53989640e-005
      -2.39801244e-004 5.03523799e-004 2.67954543e-004 1.89660968e-005
      -3.19474842e-004 -3.93490947e-004 3.52312694e-004 -1.50124353e-004
      -8.16987085e-005 -5.00763534e-004 4.31467306e-005 -3.43490683e-004
      4.77907743e-005 -1.06372667e-004 -3.84614163e-004 -1.13329057e-004
      4.41635202e-004 2.89077754e-004 3.09581927e-004 1.85045228e-005
      1.07999324e-004 2.87447911e-004 -2.91753640e-005 -5.07168224e-005
      -3.23538479e-005 5.94616722e-005 -1.21813728e-005 4.83611620e-005
      9.56187068e-006 2.81378543e-005 -5.45157818e-005 -1.28308180e-004
      -2.77040472e-005 6.41293809e-005 6.63877872e-005 -9.08396905e-005
      -3.94713752e-005 6.59860234e-006 -2.25659951e-005 2.99406238e-005
      6.07146176e-005 1.50275500e-005 1.43414109e-005 9.74853810e-006
      2.33509782e-005 -2.84998750e-005 -2.38064731e-005 -1.89302602e-006
      1.31510888e-005 1.94716904e-007 5.71771943e-006 9.46683940e-006
      -1.10127312e-005 -1.31521578e-004 -4.59398398e-005 2.73628502e-005
      2.24097439e-005 2.43010491e-005 -1.01878511e-004 -1.05089246e-004
      -2.04481985e-005 5.36179812e-007 4.92735899e-006 1.61214397e-004
      2.57913689e-005 -1.26563609e-005 -9.19978174e-006 5.68455744e-006
      -7.69330945e-005 -2.17185097e-005 3.39704347e-005 -9.19397053e-007
      -6.57379815e-006 5.60697617e-006 2.40350928e-005 -1.75980931e-005
      6.00288604e-006 -2.62672147e-005 1.24894368e-005 2.37155418e-005
      -2.79691041e-004 -7.71312261e-005 4.12152222e-005 -6.12648670e-004
      1.85954472e-004 -5.08962024e-004 4.17008530e-004 3.06486822e-004
      3.25707748e-004 3.04206769e-004 3.91940877e-004 1.00169076e-004
      1.17063144e-004 1.64846017e-004 8.67043345e-005 1.32575427e-004
      -1.95365763e-004 -3.74306983e-004 -4.72957996e-004 2.18035508e-004
      4.27479972e-004 -3.84019571e-004 -8.50799319e-004 4.34865302e-004
      1.97303059e-004 -2.29006517e-004 1.77673588e-004 -7.09219195e-004
      1.28907253e-004 2.28044137e-005 1.12559719e-004 1.02737476e-003
      -5.73168451e-004 -2.27981855e-005 1.03543818e-004 8.20031782e-005
      3.37631267e-004 -5.70259544e-006 5.30925972e-005 -6.11616488e-005
      4.81254028e-005 2.39973415e-005 7.26490980e-005 -1.29461796e-006
      9.94545735e-006 5.94512385e-005 6.14896853e-005 -6.98916847e-005
      -9.16156132e-005 1.97848221e-005 -1.79084782e-006 -1.99052238e-006
      -9.79059314e-006 -2.15341024e-005 1.36090806e-004 4.83037693e-005
      3.02944063e-005 2.23564384e-005 4.15498871e-005 9.92759055e-007
      -5.53401806e-005 5.07932782e-005 -9.72190628e-006 -2.31232716e-005
      1.76527237e-008 2.10459566e-005 1.47911105e-005 8.79252093e-006
      -3.51766471e-006 7.97806933e-005 7.05179900e-006 2.65228427e-005
      4.23734346e-005 -9.81612975e-005 -3.41769664e-005 -4.00012468e-005
      2.68589174e-005 -1.28347119e-006 -1.49252432e-004 -2.98155617e-004
      -3.54268764e-006 -2.81492139e-005 9.07191588e-006 -2.07684701e-004
      -5.20553431e-006 1.14711283e-005 -2.55348800e-006 -1.06751268e-005
      1.30985736e-005 1.85715744e-005 -5.20112735e-005 9.05250829e-007
      -2.16395765e-005 6.34580431e-007 1.14316545e-005 -3.49237031e-004
      -5.99567284e-005 3.81466700e-004 2.39180677e-004 -2.00616705e-004
      -1.58605108e-004 4.69391060e-004 1.11874368e-004 3.53799434e-004
      -2.95794540e-004 -3.19234314e-005 -1.86564648e-004
      -1.42757053e-004 1.12267699e-004 -9.18352162e-005 -6.76112613e-005
      -4.18693526e-004 1.02032864e-004 -3.24144676e-005 -5.03643641e-005
      5.56343351e-004 7.76234083e-005 3.32374475e-004 -4.44389589e-004
      7.78721878e-005 9.11150255e-006 5.30765567e-004 4.87640173e-005
      -2.07790770e-004 5.42625145e-004 6.13610551e-004 -4.42774151e-004
      2.21062379e-004 5.04395983e-004 -1.67570415e-005 2.79528060e-004
      3.60507285e-004 4.19378121e-005 3.06784568e-005 5.42574307e-005
      6.95537456e-005 4.94448650e-005 7.63380740e-005 4.52813219e-005
      6.83863036e-005 1.55651389e-004 9.02277970e-005 -5.83088040e-005
      -2.96987200e-005 3.51831841e-005 -9.73605129e-005 4.64110926e-005
      5.83840256e-006 -9.07561989e-005 -1.57821531e-004 -6.68991124e-005
      -6.51152441e-005 3.29993745e-005 4.79623050e-005 3.72011964e-005
      -1.20286801e-004 -2.66430376e-004 -9.86592204e-005
      -4.30484179e-005 -8.15697967e-006 -1.32318391e-005
      -2.84540183e-005 2.12935658e-004 1.94596956e-004 1.19654651e-004
      3.25371293e-005 2.50357589e-005 3.16188889e-005 1.49304208e-006
      1.22168043e-004 -2.02204683e-006 4.77178537e-006 -1.03063689e-006
      -1.24297803e-004 -2.32435719e-004 8.07494798e-005 -1.20540608e-006
      2.72321722e-006 -3.39650840e-004 -5.91665071e-007 3.15357756e-005
      1.61187120e-006 -8.64147441e-005 3.99803321e-006 1.30978960e-005
      -7.61937627e-005 -5.39241182e-006 -2.60469587e-005
      -4.54540896e-005 -4.14243950e-005 -3.50514194e-004
      -7.06154795e-004 7.53984637e-007 5.81691507e-004 2.68159842e-004
      -2.52504888e-005 -9.08288075e-006 -3.56295524e-004 3.81606296e-005
      -8.47777410e-005 -1.17039286e-004 3.30203125e-004 4.06174222e-004
      -2.03088966e-005 -3.10637755e-004 -4.42748424e-004 2.16900909e-004
      -1.44871941e-004 -2.18623987e-004 6.53922252e-005 -1.07171465e-004
      7.72990112e-004 4.26199520e-004 1.10459383e-004 -4.28655650e-004
      -3.49494134e-004 2.93889927e-004 -6.04105589e-004 7.27997685e-005
      3.70987749e-004 1.84977805e-004 4.62796219e-004 -2.42982045e-004
      7.77886831e-004 3.98131269e-005 3.20021732e-004 2.36402804e-004
      -4.88566548e-005 1.54926274e-005 4.81395873e-005 9.78746175e-005
      9.26558787e-005 5.75021986e-005 3.43180000e-005 5.53637838e-005
      2.76234496e-004 5.60484623e-005 -6.18234044e-005 -1.83017219e-005
      2.97829538e-005 1.43262296e-004 7.05604543e-005 -2.86670329e-005
      -5.40839974e-005 -1.19371813e-004 -1.99374132e-004
      -3.33527860e-005 4.13607668e-005 4.15418508e-005 -3.14344834e-005
      -1.89137689e-004 -3.55791271e-004 -1.19616387e-004
      -1.14525246e-005 -2.32906177e-006 -2.10503913e-005 1.39475662e-006
      2.36398744e-004 1.49353466e-004 6.59117359e-005 2.72950765e-005
      3.23925997e-005 3.67194407e-005 -4.02319783e-005 2.71120196e-004
      3.47407658e-005 2.51054880e-005 -5.67629650e-006 -2.01541436e-004
      -1.95770321e-004 5.11015605e-005 -2.21603623e-005 -3.11081058e-005
      -2.85876857e-004 1.55071193e-005 2.58758828e-005 -1.01636842e-005
      -1.49516607e-004 -2.09985847e-005 3.71988644e-005 -4.66596757e-005
      -1.39619642e-005 -1.53805231e-005 -3.86475440e-005 6.56807824e-005
      -1.68965271e-004 -6.81907186e-005 2.09352715e-004 1.00934565e-004
      6.21001294e-004 -5.70825359e-004 -9.46434229e-005 -3.40186263e-004
      -2.11158214e-004 1.20742618e-004 -5.14747226e-004 -1.37125098e-004
      2.30719306e-004 -2.11110237e-004 -4.18242416e-004 3.69895773e-004
      3.21092404e-004 -4.72039319e-005 -7.99775444e-005 -4.77294932e-004
      7.54169014e-005 3.04816145e-004 2.67360796e-004 -2.20780203e-004
      2.29225872e-004 3.33728123e-004 4.93040425e-004 -4.30457265e-004
      -3.80288897e-004 -4.66727768e-004 2.04662399e-004 1.90875842e-004
      -2.78828054e-004 2.00177659e-004 1.92624328e-004 8.55105754e-004
      2.91931065e-004 -3.03316701e-005 3.36934754e-005 5.59271757e-006
      4.53731409e-005 9.48410598e-005 1.17973344e-004 9.21954506e-006
      5.39897810e-005 1.80237141e-004 4.64217737e-005 8.29543569e-006
      3.87105647e-005 3.68290384e-005 6.48971593e-007 5.92079778e-005
      -8.56162569e-006 -1.30169146e-005 -6.14922683e-005
      -2.95742066e-004 1.88076024e-006 5.49995821e-005 1.94994791e-005
      -7.82299958e-006 -1.60417490e-004 -2.00890441e-004
      -9.29543385e-005 -1.48101635e-005 -3.32210629e-006
      -3.19390929e-005 -1.64041721e-005 4.28678832e-005 9.79066972e-005
      1.31546723e-004 3.69817208e-005 3.39556718e-005 -3.85845451e-005
      -2.06852183e-005 8.44163296e-005 -3.17005688e-005 8.83478788e-006
      4.77875665e-006 -4.19345379e-005 -1.29259584e-004 2.32229504e-005
      1.22844847e-006 -2.08867496e-005 -3.43120744e-004 2.06421987e-006
      1.14856230e-005 -1.29637883e-005 -2.55359682e-005 9.22109757e-006
      3.42040548e-005 -5.43843926e-005 -1.83789070e-005 -2.33133869e-005
      4.15120489e-008 7.63524367e-005 -1.08459804e-004 -2.16564440e-004
      1.60790238e-004 -5.38284541e-004 1.42146848e-004 -4.39344061e-004
      3.83018894e-004 1.17310861e-004 9.92534988e-005 -6.75527554e-004
      -3.84011684e-004 -1.63070450e-004 -1.58794253e-004
      -3.32576310e-004 8.88591894e-005 4.60092095e-004 2.02060692e-004
      -3.97555355e-004 -1.19000062e-004 -5.83248475e-005 2.03642354e-004
      3.10056290e-004 2.61364854e-004 -7.31668319e-004 3.50063841e-004
      -8.63730602e-005 7.65754376e-004 -3.45904613e-004 -1.31712673e-004
      1.17280222e-004 -4.64018376e-005 3.89948982e-004 1.33340684e-004
      -2.48847879e-004 -1.19438737e-004 1.51532688e-004 3.87860229e-004
      -3.97644653e-005 -6.89936030e-007 -4.68681392e-005 7.91990242e-005
      3.47236819e-005 -4.60615738e-005 2.26181783e-005 5.80732994e-005
      2.08353536e-004 -2.60322086e-005 -3.75411837e-005 6.22901280e-006
      7.74310683e-005 -1.63218774e-005 5.97898943e-005 2.66739826e-005
      1.62227680e-005 8.69248252e-005 -2.92078075e-005 2.18022396e-005
      3.37511228e-005 6.38779602e-005 3.56997080e-005 -1.09265093e-004
      -5.00685528e-005 -5.41671106e-005 3.23837703e-005 -3.47448076e-006
      1.88957765e-005 -1.24765371e-004 -2.79083961e-005 -6.32907249e-005
      7.70832121e-005 2.66642728e-005 3.24321009e-005 6.97890118e-006
      -1.27712483e-004 -5.95508682e-005 -9.34085474e-005
      -7.17039893e-006 -2.79221285e-006 2.82636620e-006 -1.75757246e-004
      -9.95935770e-005 -2.55165087e-005 -1.32106861e-005
      -2.32110368e-004 3.26064946e-005 1.88357481e-005 -1.23771551e-005
      -3.51760036e-007 -9.71514874e-006 4.33346868e-005 -2.19814337e-005
      -1.05972613e-005 -3.34443189e-006 -3.20324853e-006 6.25484099e-005
      2.27016237e-004 -3.51582625e-004 -3.45158332e-004 -7.07192463e-004
      5.64507151e-004 1.35765193e-004 2.15722568e-004 -5.03718620e-004
      -1.36648930e-004 2.47734599e-004 -8.54702230e-005 1.32578352e-005
      -1.02227867e-004 -3.56597244e-004 9.59231329e-005 8.24079209e-004
      -1.63635137e-004 -2.74655846e-004 6.37210149e-004 -2.67339492e-004
      7.62668496e-004 -3.03358538e-004 -3.26589070e-004 -2.42856200e-004
      -6.19751343e-004 -7.61312433e-004 9.33267584e-005 -3.81324033e-004
      1.19417331e-004 3.26003938e-004 1.10498935e-004 -4.07969987e-004
      -4.27474530e-004 -1.90986277e-004 -2.16919754e-004
      -3.09671042e-004 3.84391577e-004 -5.33973543e-005 9.79377546e-006
      -5.99163332e-006 4.61726668e-005 4.18121090e-005 -1.67815335e-004
      4.40926342e-005 5.45300136e-005 1.75654408e-004 4.32922061e-005
      -3.78004370e-005 5.83056317e-005 9.38376324e-005 4.47441671e-005
      3.30126386e-005 2.98640134e-006 2.41295384e-005 2.22897404e-004
      1.87296668e-004 1.14848561e-004 4.53120047e-005 4.46247650e-005
      2.29306715e-005 -5.85737398e-005 1.42405304e-004 -8.63894002e-006
      8.74575846e-007 5.35358322e-006 1.31018405e-005 -5.66747985e-005
      6.21943991e-006 -3.38685175e-004 -3.48779431e-005 2.35532316e-005
      4.20148681e-005 3.89837187e-005 -1.24187514e-004 -3.04583664e-004
      -9.47147346e-005 -1.94032327e-005 1.90194180e-006 6.24522509e-005
      -2.61621841e-004 -9.97179595e-005 -3.00007814e-005
      -3.73839939e-005 -1.81872732e-004 -1.82331564e-006
      -5.59598220e-006 -1.80282245e-006 3.01074147e-006 4.14050883e-005
      3.01293148e-005 -4.13503112e-005 -4.96880239e-006 1.16785725e-006
      -4.43367499e-005 -9.14193806e-005 -1.77467708e-004
      -8.12994112e-005 -4.86758654e-004 -2.24054325e-004 8.13614461e-005
      5.61117395e-006 -7.78510366e-006 -3.47862457e-004 -7.17640156e-004
      -3.36313940e-004 -7.57102825e-005 -4.09261265e-004
      -9.01823296e-005 7.09003289e-005 8.63545807e-004 -1.97400819e-004
      9.87725070e-006 1.96642926e-004 6.52127273e-005 3.67496759e-005
      -6.63286028e-006 -3.42336018e-004 2.03553049e-004 1.52010311e-004
      5.70897173e-005 -4.00892663e-004 7.69468897e-005 -2.54042010e-004
      4.85048105e-004 3.79774778e-004 -6.14781457e-004 1.64195546e-004
      -2.41642207e-004 -5.12398583e-005 -3.31392192e-004
      -1.60740910e-005 1.98220398e-004 6.63007222e-006 2.98461982e-005
      1.04416104e-005 9.57690136e-005 2.84425114e-005 2.42522547e-005
      -5.63163167e-006 7.30613465e-005 2.12315921e-004 1.55908303e-004
      -1.04750427e-004 -8.66414121e-006 2.21555001e-005 1.25386141e-004
      4.44278958e-005 -7.05070443e-006 -4.67358332e-005 1.27461521e-004
      1.33161084e-004 4.57812566e-005 3.80902384e-005 4.74923982e-005
      6.70324698e-006 -2.65836297e-005 7.89078258e-005 -1.82825479e-005
      -4.14693313e-005 -8.33752983e-006 4.15291925e-006 4.41651355e-006
      1.95442408e-005 -2.06274533e-004 2.45510000e-005 4.19473326e-005
      3.24837674e-005 7.28492660e-006 -9.46173095e-005 -1.48901570e-004
      -6.98497242e-005 9.05367688e-006 1.24988981e-006 6.36766163e-006
      -3.16702964e-004 -1.19839693e-004 -2.37736058e-005 2.19598655e-006
      -3.11951881e-004 -5.70157954e-006 5.64877519e-006 -2.24009204e-006
      -3.33833450e-005 2.43679642e-005 4.08134074e-005 -3.65842679e-005
      -3.42855856e-006 -6.21071740e-005 -3.63299951e-005 1.06592761e-005
      4.67911050e-005 -3.89603985e-004 -6.19856815e-004 -8.89629242e-004
      -4.93271626e-004 -7.98363035e-005 -2.45720265e-004
      -4.47718630e-004 -2.01580933e-005 -2.81074281e-005
      -5.33393351e-004 -4.71388659e-004 -9.55572876e-004 3.16676014e-004
      -2.05112330e-004 2.19974580e-004 -2.31988073e-004 -2.50528392e-004
      8.52892117e-005 -2.83456728e-004 1.54478839e-004 -9.19786165e-004
      6.27504996e-005 4.84095188e-004 1.63782679e-004 1.13486880e-004
      -1.53597663e-004 -8.85807967e-005 -1.14559161e-005 2.48372875e-004
      -3.12785240e-004 -1.81813535e-004 -3.73953117e-005
      -2.39624293e-004 -3.40135215e-004 -7.46697770e-004 4.09592030e-004
      -1.84678356e-005 6.96379138e-005 -2.87984785e-005 5.81733866e-006
      1.34442394e-004 -3.09908537e-005 -3.77467336e-006 7.09439410e-005
      9.55328287e-005 1.48467852e-005 -2.19559133e-005 2.84734269e-005
      8.14351224e-005 1.71759835e-004 -2.27618966e-006 -5.79892958e-006
      -3.87137989e-005 1.56709539e-005 1.21463756e-006 4.98666705e-005
      2.03111413e-005 3.72055547e-005 3.12213342e-005 -2.24646883e-005
      -1.90366900e-005 -5.51343765e-005 -2.44712173e-005
      -4.07932475e-006 1.28357779e-005 2.93217981e-005 1.70717049e-005
      -3.61547645e-005 3.28945971e-005 1.86801935e-005 2.52296395e-005
      2.75244474e-005 -1.05823579e-004 -1.23793507e-004 -5.18465822e-005
      -1.87920468e-005 -5.31355363e-006 -1.08611472e-004
      -2.61485344e-004 -4.38240932e-006 -1.52649081e-005
      -2.42783572e-005 -1.94028311e-004 -2.02873598e-005 2.36416454e-005
      8.12282360e-006 3.97618942e-006 1.21378926e-005 3.30660660e-005
      -2.54983333e-005 4.74437229e-006 -2.40795907e-005 -3.32387463e-005
      -1.58377210e-004 -5.00936818e-004 -1.49904750e-004 2.76312057e-004
      -2.24594332e-004 -4.12161244e-005 2.42863636e-004 3.85661697e-004
      2.68293690e-004 5.62498521e-004 -7.42258388e-004 -5.01442293e-004
      -2.45928444e-004 2.94739526e-004 -1.48455016e-004 -1.74967441e-004
      1.92578751e-004 5.03362098e-004 -2.24202799e-004 3.65725791e-005
      1.31674082e-004 7.85029042e-005 8.95229532e-005 -1.65769889e-004
      -3.65112828e-005 2.66202027e-004 2.18598056e-004 -3.90929672e-005
      8.47523461e-006 -1.70870859e-004 5.32325415e-004 3.57510289e-004
      -6.79558798e-005 -8.59009106e-006 2.32386446e-004 5.39009534e-006
      -1.02419908e-004 1.51241256e-004 8.30335557e-005 7.85126758e-007
      -3.51546623e-005 5.16902546e-005 1.12964590e-005 5.92852084e-005
      -4.61585223e-005 -1.36713361e-005 -1.74947723e-004
      -8.45721079e-005 2.86064605e-005 -1.04255654e-004 -5.38560344e-005
      -1.33734895e-004 -3.45223125e-005 -8.28797602e-006
      -8.49820717e-005 9.17419820e-005 4.77803951e-005 1.73409990e-005
      1.96639867e-005 4.66547608e-005 2.41497328e-005 -5.66268682e-005
      8.81441520e-006 -4.89998129e-005 -2.12890209e-005 -2.40843883e-006
      2.26109314e-005 -3.18837533e-006 3.38458594e-005 1.72961063e-005
      2.02184365e-005 2.61854821e-005 4.05866958e-005 2.23631450e-005
      -1.48356612e-005 1.06804473e-004 -1.42313811e-005 2.55568084e-005
      5.64110724e-006 5.38865934e-005 -7.13302725e-005 4.50532716e-005
      -1.41063838e-005 -1.08992444e-005 -1.17726573e-004 3.97312351e-006
      3.11030417e-005 -1.14822313e-007 -3.76643075e-005 4.13319640e-006
      3.26080844e-005 -5.05006647e-005 -2.14063084e-006 -4.21821314e-005
      -1.67300077e-005 1.65166944e-004 -2.87443283e-004 -3.24608089e-004
      9.94417496e-005 3.54280783e-004 9.31601680e-004 -7.15690781e-004
      4.12406051e-004 5.53026257e-005 2.69201584e-004 -4.61361749e-004
      -2.59228895e-004 -1.00040995e-006 1.58889423e-004 1.96878798e-004
      2.94295120e-007 -1.03386032e-004 2.20931295e-004 8.67932540e-005
      -5.67275099e-004 2.31551210e-004 8.93618329e-004 4.39815165e-004
      1.99631162e-004 -1.64097422e-004 6.02098124e-004 -1.34892834e-004
      -4.58028051e-004 -6.17907208e-004 -4.20870696e-004 3.22865701e-004
      3.25406319e-004 -4.54313064e-004 -3.51365976e-004 1.03197512e-004
      -2.82499765e-004 -3.42884770e-004 7.32675398e-005 -5.41222289e-005
      9.54126881e-006 2.44638977e-005 6.88234286e-005 5.24690695e-005
      3.89014167e-005 4.35028669e-005 5.33881466e-005 -1.74482266e-004
      -1.03590071e-004 -2.70703349e-005 -1.05469453e-005 1.71055326e-005
      -1.85096491e-004 1.62220167e-005 6.45425325e-006 -5.75331906e-005
      -2.40212285e-005 -1.40996635e-005 -5.13084306e-005 2.14131996e-005
      4.53243520e-005 6.56171978e-005 -9.76186348e-005 -1.63068573e-004
      -6.93687471e-005 -5.91961762e-005 2.88714477e-006 -9.09826213e-006
      -1.23801428e-005 2.10954036e-004 1.72084605e-004 2.25816057e-005
      2.15538294e-005 2.40909285e-005 3.68707733e-005 6.44388638e-005
      8.90547453e-005 1.98569269e-005 -1.03178509e-005 -9.04179433e-006
      -9.37245568e-006 -1.02725069e-004 6.88719301e-005 -6.41513179e-006
      1.29060309e-005 -5.04877898e-005 4.57754795e-005 3.05348731e-005
      -2.45496494e-006 -1.73889964e-006 2.27994315e-005 2.98964333e-005
      -4.01481593e-005 -2.08176562e-006 -2.62912999e-005
      -5.15109095e-005 1.35356604e-005 -1.32562680e-004 1.96357636e-004
      -2.73189275e-004 -9.66972584e-005 2.41379370e-004 4.68659448e-004
      1.08791741e-004 -2.52002792e-004 6.09917101e-004 -1.40671309e-005
