<?xml version="1.0"?>
<opencv_storage>
<my_svm type_id="opencv-ml-svm">
  <svm_type>C_SVC</svm_type>
  <kernel><type>LINEAR</type></kernel>
  <C>1.0000000000000000e-002</C>
  <term_criteria><epsilon>2.2204460492503131e-016</epsilon>
    <iterations>100000</iterations></term_criteria>
  <var_all>12160</var_all>
  <var_count>12160</var_count>
  <class_count>2</class_count>
  <class_labels type_id="opencv-matrix">
    <rows>1</rows>
    <cols>2</cols>
    <dt>i</dt>
    <data>
      -1 1</data></class_labels>
  <sv_total>1</sv_total>
  <support_vectors>
    <_>
      1.15868796e-004 4.18878371e-005 1.37554034e-005 -1.38685818e-005
      5.68910509e-005 1.32559930e-004 4.19330754e-005 5.24977877e-005
      1.49380867e-004 3.02600529e-005 6.89712469e-005 1.82250747e-004
      5.67750467e-005 -4.63446531e-006 -1.94627064e-004 -2.50570622e-004
      -8.46119947e-005 -5.38278255e-005 -1.56056893e-004
      -2.62472109e-004 2.09657792e-005 1.00090008e-004 1.27628344e-004
      1.20885044e-004 9.68844106e-005 1.11224879e-004 4.54866677e-005
      -1.53379835e-004 8.61117660e-005 1.29268810e-004 5.24529023e-005
      2.92792229e-005 8.17847831e-005 -8.56014740e-005 1.40108910e-004
      -3.08779454e-005 -2.97135761e-004 2.01133789e-005 7.01913723e-006
      5.62421519e-006 5.12976658e-006 7.26737426e-006 -3.78500808e-005
      1.37491625e-005 1.10463570e-005 1.84084802e-005 -1.94236122e-006
      2.38076755e-005 -7.18708748e-007 -3.03783963e-005 -2.10135622e-005
      1.83301036e-005 4.06281231e-007 1.78769860e-005 3.68947876e-005
      2.34464778e-006 -6.08665778e-006 6.37675839e-006 1.27348258e-005
      -1.33495553e-006 1.28494421e-005 2.28379631e-005 4.36115715e-006
      2.57522242e-006 5.17024432e-007 7.83477935e-006 1.91180225e-005
      1.71117408e-005 1.46902903e-005 -2.67763198e-006 4.45874502e-006
      7.58597616e-006 1.51331633e-005 1.87145561e-005 2.12252580e-005
      -2.00432896e-006 -1.86484988e-006 3.13170659e-007 -1.47213999e-004
      5.61700290e-006 1.11063509e-005 5.43500346e-006 4.04966067e-006
      -1.76782794e-006 1.15518123e-005 4.24402833e-006 6.59440389e-007
      8.99483621e-006 3.43175634e-006 7.87548652e-006 2.22366748e-006
      6.62011246e-007 5.13299028e-006 1.04374421e-005 9.41111794e-005
      2.83035497e-005 -1.20080322e-005 -1.92659369e-004 -6.05413166e-004
      -2.44544673e-004 2.11725361e-004 1.17578369e-004 1.11112444e-004
      1.89545186e-004 1.00563331e-004 -5.83610126e-005 -9.69449684e-005
      -4.39378491e-005 4.03646409e-005 -4.52579443e-005 4.45235082e-006
      1.00138881e-004 2.17957378e-004 -1.94327295e-005 5.60123044e-005
      -1.00048974e-005 -6.48990463e-005 8.08088880e-005 2.01982366e-005
      1.22975645e-004 4.75064116e-005 6.97030555e-005 1.21896606e-004
      -5.11354265e-005 1.31387778e-005 -4.55584013e-005 1.14758281e-004
      1.50558582e-004 1.24897206e-005 6.95477574e-005 1.32286194e-004
      -4.50902240e-004 9.75742932e-006 1.07466913e-005 -8.59841293e-006
      7.87013732e-007 1.29131804e-005 1.62662000e-005 1.02306994e-005
      1.50727728e-005 2.55833220e-005 2.48025153e-005 6.27658073e-006
      2.30028181e-005 4.91207811e-006 -5.64254769e-005 7.63119260e-007
      2.39968485e-005 2.57723932e-005 5.01878494e-005 2.65480321e-005
      -1.71223985e-006 5.64261518e-006 3.99183091e-006 2.93476896e-005
      3.21422776e-005 3.34951656e-005 8.12573307e-006 7.33609659e-006
      7.84357951e-007 -7.18557749e-006 2.15953446e-006 2.14249812e-005
      9.78494700e-006 7.26923872e-006 5.70124257e-006 -4.72039892e-006
      1.81984785e-006 -6.48055129e-006 -7.57823909e-006 3.59028445e-006
      1.29805164e-006 4.09492401e-007 -1.02689475e-004 1.40939721e-006
      4.03474587e-006 -2.02488550e-007 2.59433568e-006 -1.67126586e-006
      1.26675604e-005 3.21503285e-006 1.00356976e-006 2.20735219e-005
      5.28979217e-006 6.41831821e-006 7.21008792e-006 -3.57357379e-007
      -1.34299717e-006 7.64609922e-006 1.14361319e-004 1.69232313e-004
      8.99623774e-005 1.26118175e-004 -6.42875530e-005 -2.27270430e-004
      -1.88190650e-004 7.08448060e-005 1.44671998e-004 1.86702291e-005
      1.37564086e-004 9.37521327e-005 -3.29109316e-005 -3.95023933e-004
      -3.78822326e-004 2.25053853e-004 9.75057264e-005 6.56395132e-005
      1.85755867e-004 1.55692309e-004 4.69174229e-005 -9.67019150e-005
      -3.40367435e-004 1.75960995e-005 2.88365525e-004 9.36931974e-005
      4.36870141e-005 -1.11313668e-004 5.52357160e-005 5.25235228e-005
      -5.67036659e-005 -1.11283203e-004 -1.29395858e-005 5.19037894e-005
      5.69526637e-005 3.67684697e-005 9.94240618e-005 -1.53391942e-004
      -9.63918137e-006 -1.15628027e-005 -2.21088612e-005 1.47202427e-005
      1.61550124e-005 1.54346089e-005 4.34993217e-006 -4.77285221e-006
      3.58864309e-005 5.72345780e-005 4.29232477e-006 -2.29300513e-005
      2.49915884e-005 2.53982967e-006 2.15405871e-005 6.55757458e-006
      -1.13510969e-005 -8.15499152e-005 4.12615118e-005 -1.93276378e-006
      3.69227359e-006 1.22156680e-005 1.23561713e-005 3.34507822e-005
      2.01219391e-005 4.91842502e-006 1.40952272e-006 1.11731231e-006
      -3.65286069e-005 -2.55412251e-005 -1.53488843e-004 3.21001862e-005
      1.24236922e-005 -6.12943268e-007 7.73162810e-006 1.97219379e-005
      1.49467951e-005 -1.17688851e-005 8.30616136e-006 -1.55800035e-006
      1.60272270e-006 2.84328926e-005 -5.72142671e-005 1.22709241e-006
      2.30357784e-007 1.63277900e-006 1.41274722e-005 4.19746630e-006
      4.69563065e-006 7.46999319e-007 1.37523539e-005 7.75183980e-006
      2.88397405e-006 2.37700738e-006 2.45543958e-007 2.67742212e-006
      -4.24930431e-006 9.41432590e-005 -1.78229442e-004 2.43674504e-006
      -9.45436550e-005 -1.62500783e-005 -4.22439858e-004
      -2.61557463e-004 9.84358339e-005 9.77028903e-005 1.63288409e-004
      6.48405912e-005 8.91474556e-005 -2.17257493e-005 -2.52524827e-004
      -1.74215253e-004 -1.03921237e-004 5.12571314e-005 1.19753829e-004
      2.61286186e-004 -2.00118491e-004 -9.93070207e-005 -1.37057010e-004
      -2.11073508e-004 -1.12390655e-004 1.53171815e-004 8.15564417e-005
      8.61726803e-005 1.63989898e-004 -3.66128515e-005 4.21931400e-005
      -6.04661509e-005 -1.84756907e-004 -6.44993124e-005
      -5.73887201e-006 3.94812996e-005 -3.32445575e-006 2.26237662e-005
      -8.70070653e-005 -4.88284877e-006 7.36930815e-006 1.88845515e-005
      1.05946410e-005 2.25754902e-005 2.92741261e-005 1.34377851e-005
      1.71245101e-005 3.32885102e-005 4.95278618e-005 7.19730042e-006
      -4.86430217e-005 4.62661819e-006 7.72752901e-006 1.43225807e-005
      -4.94058913e-005 -9.62013946e-005 -2.13450825e-004 3.98127486e-005
      8.38745837e-006 3.34716128e-006 -8.68728876e-006 8.73487716e-006
      2.14808642e-005 -9.40723476e-006 3.64035736e-006 3.22498045e-006
      8.95915377e-007 2.46805030e-006 5.49086644e-006 4.64397745e-005
      3.45441440e-005 2.01877137e-005 5.04039053e-006 1.56704982e-006
      5.73111402e-006 1.80070729e-005 3.91965898e-007 -6.70441750e-007
      2.19408594e-006 5.59948717e-007 6.12794975e-006 -4.20712495e-005
      6.11387759e-006 -1.90663661e-006 5.79450716e-006 -1.98833659e-005
      1.01546539e-005 4.67372638e-006 1.45481820e-007 1.20433824e-005
      -3.89896104e-006 6.99415614e-006 1.89446575e-006 1.66850374e-008
      2.47442676e-006 8.50449487e-006 5.30810685e-005 2.63228401e-004
      1.33931739e-004 -5.75143440e-006 -2.68080505e-004 -2.14616259e-004
      -7.47327649e-005 1.03642296e-005 7.46334408e-005 2.89219228e-004
      1.90048449e-004 1.73531444e-004 1.93209908e-005 -2.91831180e-004
      1.07340878e-004 -1.58971277e-004 -1.00265534e-004 -2.54807801e-005
      4.80609669e-005 1.19335964e-004 8.45077666e-005 -2.38849025e-004
      -1.23991267e-004 -1.44296166e-004 -4.64975237e-005
      -7.66546145e-005 1.40079763e-004 1.72644985e-004 1.11463138e-004
      8.21025169e-005 9.22910021e-006 -7.62710260e-005 -1.17434443e-004
      3.53139694e-005 -1.62172975e-004 -8.81013875e-006 7.19399250e-005
      -3.26049194e-004 -4.81642974e-006 -3.56762484e-007 2.03902546e-005
      9.59061072e-006 1.81551259e-005 1.13751057e-005 1.26292543e-005
      1.96494584e-005 2.72018824e-005 3.71289789e-005 -1.60652617e-005
      2.33333521e-005 2.84932976e-005 -8.64160029e-006 1.64879166e-005
      1.57928916e-005 2.15237033e-005 5.56666273e-005 3.72803042e-005
      4.38276544e-007 5.52932215e-006 1.37807965e-005 1.74113961e-006
      2.95865120e-005 2.58010514e-005 2.48991137e-006 8.87948829e-007
      1.06405196e-006 -5.27111079e-005 -1.05687477e-005 1.41536759e-006
      2.99170570e-005 1.55053076e-005 3.72130194e-006 8.74172201e-006
      -3.42082640e-005 -1.87816622e-005 3.20897962e-005 2.36625510e-006
      4.84372379e-007 6.20813921e-007 -4.02352889e-005 -1.12800852e-004
      7.34851392e-006 1.22308847e-006 3.78002869e-006 -3.54199874e-005
      6.58680938e-006 3.69710006e-006 2.41134416e-007 5.30598209e-006
      5.56175974e-006 4.10663051e-006 4.07629301e-007 2.71326741e-007
      5.66806250e-007 1.23696664e-005 7.83089199e-005 2.99880630e-005
      1.39955097e-004 1.20064731e-004 -2.63096677e-004 -1.35199123e-004
      -1.55454414e-004 -8.31849320e-006 -2.19867907e-005 2.89395102e-004
      1.52067398e-004 9.10414892e-005 1.40359843e-004 4.59405273e-005
      -5.82106586e-005 -3.47920548e-004 -1.30156177e-005 1.01033729e-004
      2.77596351e-004 -7.33722118e-005 7.14959533e-005 1.54011956e-004
      -2.21410446e-005 1.79778144e-005 -9.39522070e-005 -2.61856796e-004
      -1.92798048e-004 -3.24889224e-005 1.08136635e-004 1.23008445e-004
      -4.70236591e-005 -3.51887225e-004 -1.02814200e-004
      -4.45703226e-005 -2.91297874e-005 -5.70695920e-005 8.58081621e-005
      -1.79597249e-004 -5.55626912e-007 8.29294822e-006 3.03073393e-005
      1.45236527e-005 1.00568832e-005 7.23172548e-007 3.38592304e-006
      1.58848961e-005 7.70219231e-006 2.91269953e-005 -1.24529897e-005
      6.78689639e-006 1.90095568e-006 -1.51885733e-005 2.17149336e-005
      -6.06338435e-005 -9.35879598e-006 -6.53597453e-005 3.58390098e-005
      -6.91638888e-006 6.71938960e-006 -1.39989356e-006 4.81335064e-006
      -2.21819009e-005 3.34847391e-005 4.55812915e-006 6.14091277e-006
      1.68784038e-006 1.50101107e-006 1.68870301e-005 4.90840575e-005
      2.73290752e-005 1.32453613e-006 3.84927080e-006 8.54954942e-006
      3.01139771e-005 3.87122673e-005 3.25532128e-005 3.54667418e-006
      3.84722443e-006 1.23684026e-006 -1.01955462e-004 -2.29009056e-005
      2.13775147e-005 9.19091235e-007 2.52226732e-006 -8.44712486e-005
      -1.28593738e-005 2.85362808e-006 7.63984190e-007 4.99638963e-006
      6.94471873e-006 5.75116610e-006 3.58597589e-007 6.40646249e-007
      5.47695572e-006 1.06550633e-005 7.03870901e-005 1.32188041e-004
      8.77865168e-005 1.13265327e-004 1.93711065e-004 1.26811574e-004
      -2.36102875e-004 -1.98951253e-004 9.32057810e-005 -2.00083494e-004
      1.89961793e-004 9.88791435e-005 1.33682179e-005 1.35114664e-004
      2.31909842e-004 -4.48921579e-004 -3.80174781e-004 5.01283612e-005
      -4.89258149e-004 -2.06528639e-004 1.16052230e-004 7.37979062e-005
      -2.94637957e-005 -3.44351691e-004 5.06724100e-005 -2.56780622e-005
      -8.31773577e-005 2.12837927e-004 -9.12276082e-005 2.02136362e-005
      6.47501438e-005 1.94161170e-004 -2.83327336e-005 1.05534535e-004
      -3.32734235e-005 -6.30077338e-005 1.99709552e-006 -3.18512000e-004
      -6.66019378e-006 1.01387814e-005 -3.55237062e-005 1.47183682e-005
      2.63407856e-005 -1.91839536e-005 1.16073279e-005 2.07867270e-005
      4.93641055e-005 -1.87574260e-005 5.13375880e-006 1.91116251e-005
      3.01404743e-005 2.85461556e-005 2.25252097e-005 -1.01841079e-005
      -1.20234490e-005 3.58839388e-005 2.65421786e-005 1.26255454e-005
      3.04770219e-006 1.72274104e-005 1.50040350e-005 2.83205463e-005
      2.99202893e-005 7.16606064e-006 1.49916696e-006 1.29106567e-007
      4.28643744e-007 -8.41791734e-006 -5.78449763e-005 2.41228045e-005
      -3.96055038e-005 3.72563591e-006 9.29289308e-006 3.58206148e-006
      7.68257087e-006 9.50093727e-006 4.26525548e-006 3.47936066e-006
      8.63936123e-007 -1.18755510e-004 1.67325179e-005 8.16022566e-006
      1.87126636e-006 1.32613068e-005 -2.20614729e-005 8.28818884e-006
      3.28203691e-006 -4.19535411e-007 -1.51218705e-006 5.61194793e-006
      6.45664159e-006 6.06882713e-006 1.03581738e-006 6.89882927e-006
      5.70725570e-006 1.03363687e-004 -1.84772216e-006 4.71514177e-005
      8.45220202e-005 1.44110018e-004 -2.25879441e-004 -2.71067838e-004
      -2.04708922e-005 1.15993680e-004 2.71352299e-004 -6.31816056e-006
      -5.82589973e-006 5.99627965e-005 5.33820566e-005 1.50522843e-004
      -3.58552847e-004 4.78555467e-006 1.69804080e-005 -3.18661550e-005
      1.48299412e-004 9.45973952e-005 1.20050274e-004 -4.37990311e-005
      4.33146088e-005 2.37428540e-004 4.68314029e-005 4.52539134e-005
      2.10451064e-004 1.72503293e-004 5.05462522e-005 1.17228366e-004
      -6.78129873e-005 3.32870666e-004 1.10942907e-004 -4.61719537e-006
      2.38482539e-006 -1.10789370e-004 -6.16097759e-006 -2.27573287e-006
      3.44455184e-005 -1.90726155e-006 7.91325874e-006 3.87751206e-005
      1.53230503e-005 -5.61361503e-006 1.18985108e-005 2.41770194e-005
      -1.40303619e-005 1.53434667e-005 -4.73884102e-005 2.14135143e-005
      4.05428145e-005 1.59422216e-005 -5.73333491e-005 -8.52215671e-005
      -2.26053555e-004 1.37157613e-005 9.62488684e-006 2.59214175e-006
      8.29488272e-006 6.81086876e-009 -2.19486028e-005 -3.76619100e-005
      4.89925014e-006 1.59963395e-006 2.83287363e-007 5.84467762e-006
      1.76878893e-005 2.83787413e-005 2.88553965e-005 -6.64865001e-006
      4.89366175e-006 4.35817356e-006 5.48031403e-006 1.20592122e-005
      9.11569657e-007 4.09410814e-006 2.30032560e-006 7.73189583e-007
      2.55244468e-005 -2.42152983e-005 1.07037986e-005 6.16083753e-007
      5.89689716e-006 3.81945756e-006 9.15874443e-006 2.51058964e-006
      5.16009663e-007 5.83098608e-006 4.56612452e-006 6.34533808e-006
      2.85295778e-006 7.14457599e-007 2.03353147e-006 6.05002424e-006
      6.68914290e-005 8.64851245e-006 2.72896468e-005 1.53074492e-004
      2.26690609e-005 1.63806271e-005 3.60257909e-005 -5.99149935e-005
      4.12192603e-005 -1.23115038e-004 4.65552002e-005 -2.27410594e-004
      2.28776941e-007 9.89344844e-005 -8.15112580e-005 2.22196119e-004
      -1.69957020e-005 4.56615744e-005 8.32801816e-005 3.68325927e-005
      2.13688181e-005 1.05443723e-004 -8.47750780e-005 -1.19977176e-005
      2.94098609e-005 -2.71585959e-005 5.58830397e-005 -1.70886124e-005
      5.00422721e-005 -1.23799618e-004 -1.02176389e-004 -4.24772297e-005
      -7.11235480e-005 1.68881917e-004 -4.12039153e-005 6.25349203e-005
      7.41430558e-005 3.54742333e-005 -8.95348990e-007 7.75389708e-006
      2.96843973e-005 2.00938521e-005 1.80781444e-005 2.73885034e-005
      1.80701172e-005 1.81908526e-005 8.17473483e-005 6.28733615e-005
      2.69103111e-005 -7.31813634e-005 3.32201380e-005 4.58264549e-005
      1.87129626e-005 -1.31977344e-004 1.20108298e-005 4.18720192e-005
      2.67080359e-005 1.03535313e-005 7.20517983e-006 -5.68684800e-006
      -9.37643781e-005 -2.38941029e-005 1.95068915e-005 3.08836320e-006
      1.90904279e-006 1.05125332e-006 -1.72364489e-005 -5.69049507e-006
      3.35229925e-006 1.01686774e-005 1.35650371e-005 5.35134541e-006
      3.58653460e-006 3.81207087e-006 -2.85801907e-005 3.99529790e-006
      -1.30757087e-006 3.77879314e-006 9.96246740e-007 -1.68065031e-004
      -7.22602708e-005 -3.60494096e-006 2.65531548e-006 4.58000341e-006
      -1.56483511e-004 1.29569016e-005 -3.54038434e-006 1.46630964e-006
      9.80447112e-006 4.23464189e-006 3.43767556e-006 -1.15704040e-006
      1.02130502e-006 1.39517679e-005 1.09421117e-005 1.05938736e-004
      1.80433635e-004 2.95562695e-005 4.43664503e-005 8.81553933e-005
      -1.41409400e-004 -5.33646089e-005 3.45128319e-005 -6.03040689e-006
      7.35822323e-005 7.02174948e-005 -1.51192100e-004 -8.88145587e-005
      -1.88819817e-004 3.06292168e-005 1.64273966e-004 -8.70128715e-005
      1.31385546e-004 2.52430735e-004 9.94627335e-005 -9.04772241e-005
      1.56789810e-007 3.16841470e-005 4.57849419e-005 -5.44333489e-005
      2.22081344e-005 -1.09975936e-005 8.19941342e-005 6.46529224e-005
      6.47942288e-005 6.87238207e-005 1.62912445e-004 5.75027370e-005
      -8.30859353e-005 -8.51350924e-005 -2.56945059e-005 8.49056159e-005
      -6.81029778e-005 9.88659212e-006 1.65905567e-005 1.02796466e-005
      2.01692692e-005 2.00318154e-005 2.64741720e-005 1.18167272e-005
      2.20727816e-005 7.41353288e-005 4.26485312e-005 1.45510667e-005
      1.72712298e-005 7.95478081e-006 3.18088132e-005 1.37982297e-005
      -1.35295297e-004 -3.70536254e-005 2.03084564e-005 3.01746695e-005
      1.53971523e-005 7.10315862e-006 8.03413786e-006 -2.79450560e-005
      -4.49874206e-005 -1.87339538e-005 7.04406330e-006 5.90824220e-006
      1.46293200e-006 -3.59693768e-005 -4.65918765e-006 2.74479189e-005
      2.74176437e-005 5.81862741e-006 6.46743456e-006 8.51781078e-006
      -5.53723621e-005 -1.20487193e-005 4.52818057e-007 3.66704353e-006
      1.60560580e-006 1.62442461e-006 -4.96456632e-005 -3.21460611e-005
      -4.09485729e-005 -5.21998982e-006 7.40542237e-006 -5.74302903e-005
      -1.03651309e-005 -1.38395376e-006 1.47356002e-006 -2.78937550e-005
      5.98357428e-006 7.78381036e-006 -9.19721515e-007 1.06510242e-006
      7.92731771e-006 1.29447908e-005 1.03595870e-004 6.20792416e-005
      4.33488858e-005 -1.71039446e-005 -6.78766010e-005 1.95555858e-005
      1.42541321e-005 1.10339039e-004 6.38148558e-005 -7.29562817e-005
      -9.02248721e-005 4.77527283e-006 5.58431384e-005 -8.69559881e-006
      -1.01933474e-004 -1.17220916e-004 8.82224595e-006 7.08779990e-005
      4.77113754e-005 3.36410485e-005 -8.32764708e-005 -7.93874715e-005
      7.31580440e-005 2.60295892e-005 8.92933604e-005 5.68422402e-005
      -1.81047853e-005 1.30665539e-005 -1.83188640e-005 -8.98601211e-005
      -3.01182881e-005 1.56592258e-004 6.66495725e-006 -1.20417266e-004
      -3.98560223e-005 7.58301894e-007 1.96370966e-004 -1.92519237e-005
      2.09101768e-006 1.68447132e-005 8.29793862e-006 1.38040050e-005
      2.59367262e-005 1.31064398e-005 2.24130308e-005 2.87735475e-005
      7.19564705e-005 1.65782658e-005 2.36203432e-005 3.26711597e-006
      1.08348331e-005 3.38599966e-005 1.41782493e-005 -5.30830621e-005
      -1.03256198e-005 -7.42984557e-005 -1.28494875e-007 1.77675993e-005
      4.85055898e-006 8.61411900e-006 1.31213428e-005 -1.71026404e-005
      1.38896294e-005 2.66183065e-007 2.00225645e-006 1.71013312e-006
      -9.35638964e-005 -7.00155433e-005 -1.69164996e-005 2.38047396e-005
      2.64941855e-006 4.87545094e-006 6.05113701e-006 -2.98846408e-005
      -2.37355889e-005 -3.73633920e-005 -2.82047540e-006
      -3.92652055e-007 1.22397739e-006 1.87509067e-005 -6.12850345e-005
      -6.01704016e-007 2.16562194e-006 3.75733111e-006 3.14771023e-005
      -1.78733590e-005 -1.83604220e-006 7.94133143e-007 1.99760734e-006
      -1.41557928e-006 -1.46359298e-005 6.79032723e-007 7.36757443e-007
      2.27838018e-006 1.12424650e-005 6.62619568e-005 -2.41015863e-004
      4.35038819e-005 3.92203110e-005 -1.74317203e-004 2.46556301e-005
      4.01188190e-005 -4.63824690e-005 -9.82136335e-005 -1.14055125e-004
      1.82815347e-005 7.61703050e-005 -2.00049981e-004 -2.04006239e-004
      -9.89029577e-005 -2.89971824e-004 1.28647453e-005 -2.63550169e-006
      6.56823759e-005 1.15354036e-004 -2.64496135e-004 7.10610620e-005
      1.46227729e-004 3.69900299e-005 -1.79858063e-004 -3.69605172e-004
      -7.06249484e-005 6.60494043e-005 9.28280278e-005 -5.03140363e-005
      3.09767529e-005 -1.24347789e-004 -2.08557365e-004 -2.92759709e-004
      -6.01483298e-005 -6.55007170e-005 1.80781899e-005 2.79252035e-005
      1.80921506e-005 2.57397387e-005 1.35688288e-005 1.44890782e-005
      2.80151235e-005 2.67820760e-005 1.98801299e-005 1.84248383e-005
      4.06204199e-005 -1.99682131e-006 -1.51127060e-005 9.78309527e-006
      6.90965271e-006 -2.43780232e-005 1.90059091e-005 -8.54192258e-005
      -2.38417615e-005 -4.38046700e-005 2.64343653e-005 1.92004372e-005
      6.58339877e-006 1.45128315e-005 -4.36646260e-005 -5.79752486e-005
      -1.61443550e-005 -8.14529176e-006 1.52895791e-006 -4.07465564e-007
      1.35953269e-005 1.50151345e-005 1.94306867e-005 1.40704360e-005
      1.17994534e-006 5.05513663e-006 8.42332611e-006 3.78997947e-006
      -1.74493543e-005 4.47529692e-006 -2.29331295e-006 3.86375541e-006
      6.45729472e-007 -1.25614053e-004 1.90515789e-006 -2.77090439e-005
      -2.76302512e-006 1.20891718e-005 -6.17963269e-006 2.47392745e-006
      2.38529537e-006 6.72102818e-009 -1.59885349e-005 8.88447357e-006
      4.35180254e-006 -1.58707244e-005 7.05094124e-007 1.11180307e-005
      1.36837734e-005 5.01134382e-005 1.68008075e-004 3.80747770e-005
      -1.68485785e-004 -5.02300099e-004 -1.53081855e-004
      -2.65336421e-004 -6.87263964e-005 1.67509032e-004 1.17132418e-004
      1.53143221e-004 -2.23872339e-005 -4.74813496e-005 -1.54017675e-004
      -3.41669293e-005 -2.27803786e-004 -9.59249010e-005
      -3.58146531e-006 3.19321116e-005 -4.02131955e-005 -1.11083267e-004
      -2.07051271e-004 5.78322069e-005 -1.13289658e-004 -1.59162097e-004
      -9.79734468e-005 -8.93088727e-005 -3.18959574e-005
      -6.67246495e-005 -1.31663008e-004 -2.05622593e-004 1.11032248e-004
      1.12228219e-004 -2.29577945e-005 -1.16977681e-004 -2.72229063e-005
      -1.78274160e-004 2.27363620e-004 1.38958776e-005 1.70592066e-005
      1.61868629e-005 1.73576773e-005 1.22126112e-005 -1.57235411e-006
      9.59318277e-006 7.63516709e-006 4.27758496e-005 -1.36243034e-005
      1.39019294e-005 1.07368387e-005 1.89004822e-005 9.32659168e-006
      2.21131941e-005 -4.55457011e-005 2.27104938e-005 3.21241241e-005
      7.56655209e-006 1.85291556e-005 4.97037672e-006 -6.10109782e-006
      -1.18012003e-005 -7.55010115e-006 2.03912005e-005 3.21261246e-006
      3.88352510e-006 5.29290922e-008 -1.70906686e-004 -4.66343226e-005
      2.60357519e-005 2.49061759e-005 2.12331834e-005 7.95051074e-006
      8.68595907e-006 -5.31582627e-005 -1.02117068e-004 -4.78685506e-005
      6.01948886e-006 9.19754484e-007 1.38249015e-006 -5.40327164e-005
      -1.42866455e-004 -2.70207170e-006 3.49519541e-006 3.48727099e-006
      -6.02353575e-005 3.98836255e-006 -2.44426076e-007 4.33423793e-007
      7.43316104e-006 4.63712968e-006 7.04552849e-006 3.49518791e-006
      9.74434556e-007 7.71171744e-006 5.64038874e-006 6.89854860e-005
      -1.60888856e-004 1.22974743e-005 9.10987146e-005 3.82214785e-005
      2.69268230e-006 -1.81174124e-004 -1.32291258e-004 -2.47467688e-004
      -9.46492873e-005 3.97864133e-005 9.39446363e-006 -9.21199462e-005
      1.87997102e-005 -6.16186662e-005 4.88918049e-005 -9.36237630e-005
      -1.21090787e-004 -1.85883728e-005 -1.58804527e-004
      -9.73150090e-005 -5.46287265e-005 6.10681454e-005 -2.15682667e-004
      1.10880494e-004 -1.40872711e-004 -4.31648431e-007 -9.03874825e-005
      5.00081951e-005 -2.16557673e-005 -2.24949719e-004 1.28963075e-004
      -4.55217087e-005 5.48816861e-005 -1.02283811e-004 5.03853471e-006
      -2.32697450e-004 6.93691836e-005 1.35630607e-005 4.28716930e-006
      1.19844053e-005 7.04561307e-006 2.61647165e-005 8.58782096e-006
      2.27514538e-005 2.74924278e-005 9.50904505e-005 2.54370443e-005
      1.56728693e-005 6.97898986e-006 1.91219788e-005 4.05000246e-005
      1.48285353e-005 -5.81493550e-005 1.41638866e-005 -8.06524622e-006
      2.42245424e-005 1.25179868e-005 5.95586653e-006 -1.43464022e-005
      -7.51883053e-005 8.29196506e-006 1.82798540e-005 4.11473911e-006
      4.33417881e-006 6.88755620e-007 -7.94611988e-005 -3.85474141e-006
      -4.14928509e-005 5.65470464e-006 2.22543240e-005 4.50152811e-006
      -2.15484897e-006 -6.91676833e-005 7.08249490e-006 -9.76279262e-006
      4.44190664e-006 3.52356574e-006 3.53668469e-007 -1.39563403e-004
      -7.79962720e-005 -4.75901032e-007 3.95075949e-006 9.98455653e-006
      -6.64035542e-005 -1.72655291e-005 -1.87646710e-005 1.47374169e-006
      -6.16235468e-007 2.94549250e-006 6.65099469e-006 1.25480847e-006
      8.39347308e-007 1.00168118e-005 1.33505728e-006 9.50177200e-005
      -1.12100628e-004 4.96703906e-005 1.65279795e-004 -2.94478705e-005
      -6.27209301e-005 -8.37854168e-005 -5.77549727e-005
      -1.07331456e-004 7.86507007e-005 -1.52400782e-004 6.64558411e-006
      1.21003010e-004 5.45780858e-005 3.18528619e-005 5.58111096e-005
      -2.24900170e-004 4.81111383e-005 1.86392077e-004 -1.73659602e-004
      -3.29650175e-005 3.37041420e-005 -4.28655494e-006 1.37491937e-004
      2.24460266e-004 -1.14087299e-004 -2.00907380e-004 6.22161315e-005
      -7.81007693e-005 -1.49345578e-004 -1.08102598e-004 7.16588038e-005
      -9.69487737e-005 1.37141120e-004 -1.72121509e-004 -8.38564083e-005
      5.67468414e-005 1.78306756e-004 1.16787814e-005 1.55632697e-005
      1.41042910e-005 1.62707347e-005 2.57753891e-005 4.04202046e-006
      1.50215646e-005 1.64630183e-005 8.04618467e-005 4.57480128e-005
      1.60382206e-005 1.78053688e-005 2.25543426e-005 3.48923641e-005
      2.12098475e-005 -2.29350204e-004 -5.49083779e-005 5.88667899e-005
      5.00970054e-005 1.90738228e-005 6.25415441e-006 -7.96768745e-007
      -8.21773756e-006 -1.70889747e-004 -9.42814513e-005 9.80243158e-007
      4.26422775e-006 1.07192807e-006 2.72805173e-005 2.36879841e-005
      -1.98134039e-005 2.90685002e-005 1.61659464e-005 7.71342820e-006
      8.68069037e-006 -1.13786955e-005 -3.83342376e-005 -3.47168898e-005
      1.60793297e-006 3.35262098e-006 1.86575744e-006 -7.74025830e-005
      -6.73487084e-005 1.41972014e-005 5.26519716e-006 9.28071859e-006
      -9.09610098e-005 -4.32136512e-005 4.47443972e-006 1.39088922e-006
      1.70804560e-005 -1.28337149e-006 5.21353695e-006 -8.07834226e-007
      1.18305468e-006 1.23562986e-005 9.88054489e-006 6.74149487e-005
      2.37139888e-004 1.27607767e-004 7.45128709e-005 4.64833138e-005
      -8.61085500e-005 1.12558853e-004 -1.26850369e-004 1.63674649e-005
      2.68467207e-004 1.32946749e-004 1.00932506e-004 1.56768947e-004
      -8.77025741e-005 3.25963811e-005 1.94427572e-004 -1.32613437e-004
      1.23015518e-004 2.57000847e-005 2.78287553e-005 3.95351935e-006
      -6.00985150e-005 3.29324371e-006 1.60122523e-004 -1.08358681e-005
      6.15233648e-006 5.39486018e-006 1.16358970e-004 7.39505340e-005
      7.92027713e-005 6.24959284e-005 -8.67676208e-005 1.21525780e-004
      6.39534337e-005 8.14049999e-005 9.44964704e-005 3.74548363e-005
      1.08759035e-004 1.49221469e-005 3.31411502e-005 3.18691273e-005
      -8.45196701e-005 3.05356407e-005 6.24036184e-005 -1.65082129e-005
      1.25823553e-005 6.68980865e-005 3.55052252e-005 4.12998179e-006
      -5.47419040e-005 2.10777453e-005 1.55874150e-005 1.88733302e-005
      -2.24135001e-004 -1.56178794e-005 4.57431925e-005 3.61368002e-005
      1.02909562e-005 5.28316150e-006 1.39735876e-005 -3.11534423e-005
      -1.61936288e-004 -2.00323357e-005 4.45509704e-006 1.02985382e-006
      4.99270755e-007 1.30299886e-005 1.33401236e-005 4.36000028e-006
      1.92195403e-005 6.76009313e-006 4.29602869e-006 5.79205698e-006
      6.71781936e-006 2.03945801e-005 9.53732524e-006 4.59142348e-006
      -4.42298006e-006 1.39275733e-006 -7.95455635e-005 -9.81872727e-005
      -2.74422928e-005 1.69394957e-006 3.12111160e-006 4.06099332e-008
      7.79592574e-006 2.20052561e-006 1.10073370e-006 3.82248709e-006
      5.88365583e-006 5.66600511e-006 3.17735703e-006 1.35029461e-006
      5.66351082e-006 6.80299672e-006 8.67951603e-005 6.60000078e-005
      -3.95180768e-006 -1.83735538e-005 7.26550134e-005 -4.21293407e-005
      1.19234421e-004 1.35500759e-005 5.93147743e-005 -3.81225327e-005
      -1.49668745e-006 3.47175846e-005 5.03836091e-005 1.16391369e-004
      -5.98070874e-005 1.13823990e-004 -8.62056622e-005 -3.91662943e-005
      1.56387934e-004 3.55366610e-005 -2.53682701e-005 4.88031401e-005
      1.28843836e-004 3.12512966e-005 7.38057133e-005 -5.75930353e-005
      5.17471890e-005 6.42041850e-005 7.91815837e-005 6.04940287e-005
      1.24557919e-004 -1.36118091e-004 1.11150388e-004 4.36659539e-005
      -1.13880400e-004 1.50984515e-005 8.26854302e-005 1.58144147e-004
      1.23325235e-005 -6.22061270e-006 -8.92905427e-006 1.49116586e-005
      -2.30984515e-005 7.54046869e-006 2.14727952e-005 8.02973864e-006
      4.24074315e-005 5.09211386e-005 -2.37779113e-006 -3.96113137e-005
      3.23169843e-005 1.56904825e-005 -1.04370531e-006 -1.70234169e-004
      -7.10985159e-006 4.60873307e-005 2.35900607e-005 8.10259917e-006
      6.02687032e-006 1.59120427e-005 -9.55245341e-005 -7.83133146e-005
      3.04396017e-005 4.25615463e-006 5.81860741e-006 4.14502153e-007
      -1.08479953e-005 -4.24269365e-006 2.32013917e-005 -9.48177149e-006
      8.18690387e-006 5.20146887e-006 5.46073079e-006 4.37439758e-006
      6.88247565e-006 -7.96634686e-006 -2.07460417e-007 2.48341325e-006
      -3.04370388e-007 -4.14479982e-005 -1.90946503e-005 6.84705719e-006
      4.00303719e-007 5.80282494e-006 -1.38370044e-004 1.36481221e-005
      7.89029684e-007 -1.28876081e-007 1.66450150e-006 3.63891127e-006
      4.38998586e-006 3.48600452e-006 8.32463513e-007 7.94755852e-006
      1.76432013e-006 5.31380138e-005 1.20510420e-004 1.75555411e-004
      1.37083902e-004 9.71003610e-005 -5.93383584e-006 -5.66495510e-005
      -3.09552008e-004 5.38879394e-005 1.22472877e-004 7.89033802e-005
      3.42238345e-005 9.33165793e-005 1.26011510e-004 1.48124222e-004
      -4.32493798e-005 -1.82500284e-004 -3.61976017e-005 6.50534421e-005
      1.71095089e-004 1.61159114e-004 7.91624116e-005 7.70447950e-005
      1.92228050e-004 -1.53612229e-004 -1.69770559e-004 2.58046202e-005
      1.01154976e-004 1.12592585e-004 1.35553864e-005 1.06567932e-005
      -1.25785999e-004 -3.57660429e-005 -8.04637966e-005
      -8.54761602e-005 3.83808510e-005 1.47607570e-004 5.04472428e-006
      6.11683959e-007 4.67552718e-006 2.12966142e-006 7.37946607e-007
      1.63709465e-005 1.09654911e-005 1.12898515e-005 1.39955364e-005
      6.73044560e-005 3.68057554e-005 6.92929461e-006 8.85409008e-006
      3.28823880e-005 2.68356071e-005 1.42463859e-005 -1.03386134e-004
      -5.02721086e-005 -3.83514362e-006 4.27076266e-005 1.65632864e-005
      5.01732757e-006 -9.24156575e-006 -7.46938822e-005 -8.85218105e-005
      -9.71458121e-006 -9.04605201e-007 2.45497176e-006 1.25331917e-006
      -1.12147586e-006 -7.64047400e-006 1.92661610e-005 9.46390810e-006
      2.78507127e-006 6.19545199e-006 7.32264107e-006 -3.92245329e-006
      3.80680126e-006 9.90514764e-006 -2.11472661e-006 4.96060557e-006
      4.19160330e-007 -5.41108893e-005 8.63107925e-006 7.49159335e-006
      3.36789117e-006 6.90905108e-006 -4.04309249e-005 4.29036390e-006
      7.63505795e-006 7.63597768e-007 -2.82793771e-005 -3.87354748e-006
      1.16106730e-006 1.88316153e-006 1.41916428e-006 8.17687805e-007
      -2.37869290e-006 4.82718497e-005 9.07372396e-006 -6.03238368e-005
      -2.34564286e-004 1.33368841e-004 2.65700481e-004 1.28660307e-004
      -7.64099823e-005 -3.35776531e-005 4.79010669e-005 2.29227571e-005
      -1.29886335e-004 -2.34867111e-004 7.84240474e-005 2.50236539e-004
      5.84734335e-006 -8.60028449e-005 -2.58156178e-005 7.81066919e-005
      1.08516751e-005 -9.14442135e-005 -2.69432698e-004 -3.25775996e-004
      6.86180356e-005 3.13140954e-005 4.49533836e-005 1.92311036e-005
      8.97245991e-005 1.04769329e-004 -9.49343666e-005 -2.38520588e-004
      -3.26952082e-004 -1.03760038e-004 -3.79477387e-005 1.32942951e-004
      1.14261245e-004 1.62853554e-004 -1.15484130e-004 1.25928418e-005
      1.62866672e-005 1.03050525e-005 1.94830809e-005 2.34632080e-005
      3.05620306e-005 1.19342112e-005 9.79757078e-006 1.71966749e-005
      1.49520565e-005 -8.97736027e-006 7.47792365e-006 1.06274883e-005
      -1.38852456e-005 1.71753909e-005 -3.88104818e-005 -2.50277935e-006
      4.48866876e-006 4.67617065e-006 9.85299539e-006 5.02634066e-006
      1.13188962e-005 -3.13882338e-005 -9.05725847e-006 2.61185760e-005
      -1.73066087e-006 1.33322840e-006 9.24804567e-007 -3.40319857e-005
      -1.34827087e-005 3.30069706e-005 2.57706015e-005 1.98005353e-007
      4.85292594e-006 3.46841944e-006 -2.94268793e-005 -2.70537748e-005
      1.68428360e-005 3.00996180e-006 -6.02749424e-008 -5.40974634e-006
      -2.96736598e-005 -5.06284377e-005 -1.32913592e-005 3.23775862e-006
      1.15880653e-006 -3.66357453e-005 1.08523218e-005 4.88730620e-006
      1.64589619e-006 1.18108674e-005 3.76328239e-006 1.00823509e-005
      -7.49144988e-007 7.20032062e-007 5.03884985e-006 1.16637757e-005
      4.46750200e-005 1.92762498e-004 -4.35309739e-005 -3.87312699e-004
      1.88015867e-004 -3.48239769e-006 3.99739329e-005 -3.03909561e-004
      -5.04913005e-005 -1.90830069e-005 5.33419261e-005 -2.18840205e-006
      -8.06839089e-005 -6.83080070e-005 -1.40866716e-004 4.25134431e-006
      -1.16305127e-004 -1.39681579e-004 -5.06775032e-005
      -2.44377497e-005 -9.19290032e-005 -1.11783993e-004
      -2.65352486e-004 -1.65351885e-004 -1.76203321e-005 1.28722211e-004
      6.69187357e-005 1.17403404e-004 -1.13726172e-004 -2.10692539e-004
      -2.31704864e-004 -5.31945370e-005 5.43350907e-005 9.55124196e-005
      -4.79627961e-005 -8.38073829e-005 -1.24175684e-004 1.54863432e-004
      9.70722522e-006 9.65976687e-006 1.16694064e-005 1.56900733e-005
      9.50408776e-006 -1.17589034e-005 7.95107280e-006 1.11887457e-005
      3.57399258e-005 2.21002574e-005 3.43321653e-006 9.07533104e-006
      -9.11609914e-006 -3.26614900e-005 1.46904358e-005 -1.07555614e-004
      1.80012194e-005 -1.06686298e-006 -5.38274116e-006 -1.58442999e-005
      6.29607121e-006 1.13237929e-005 -9.48695379e-005 8.07662491e-006
      -9.92642555e-008 -4.62175467e-006 1.16884519e-006 9.53195183e-007
      -7.22907134e-006 -5.45169632e-006 7.51472544e-006 -7.54413804e-006
      4.58703380e-006 4.40009262e-006 1.13503584e-005 8.05616310e-006
      1.04325645e-005 2.11426977e-005 2.64678783e-006 9.70415499e-007
      6.35400852e-007 -1.31110835e-004 -7.97143457e-006 -2.78614934e-005
      5.23206427e-006 6.31149396e-006 -1.23025617e-004 1.56712467e-005
      8.78066749e-006 1.11922122e-006 2.90264734e-006 7.59751811e-006
      8.97036080e-006 -2.59403294e-007 9.82150141e-007 8.82057157e-006
      1.37525976e-005 8.04607553e-005 -1.83643846e-004 -4.41225748e-005
      -2.07237288e-004 -6.31448420e-005 -1.70710293e-004 5.22003429e-005
      -3.42844578e-005 -1.34851380e-005 -1.24664934e-004 2.84991038e-005
      -1.53005618e-004 -9.54143979e-005 4.84658085e-005 -7.39857933e-005
      -4.27300693e-005 -1.98191978e-004 -7.25840146e-005
      -1.23026548e-004 6.81787933e-005 -3.66513777e-005 -1.36759045e-004
      -1.02238293e-004 -5.17977460e-005 -2.58984819e-005
      -3.79014818e-005 -4.70551204e-005 -1.35660855e-004 8.80713851e-005
      -7.19465024e-005 -6.40848157e-005 -1.85526194e-004 2.52781338e-005
      -1.56212729e-004 -1.72802233e-004 3.28223706e-007 5.06781580e-005
      -1.22814949e-004 6.74150715e-006 1.41083547e-005 2.59605222e-005
      1.23912687e-005 2.34444014e-005 1.66261325e-005 1.19375682e-005
      1.04694591e-005 3.84379637e-005 -1.48749277e-005 2.30417641e-007
      1.49581911e-005 2.39473388e-006 2.27558485e-005 2.00278664e-005
      -7.60769717e-006 1.71643860e-005 2.01179646e-005 9.17870329e-006
      3.16200590e-006 -4.48989113e-007 3.32048603e-006 -3.25681935e-006
      3.06996008e-005 1.65540514e-005 6.38398092e-007 3.50307300e-006
      7.53174618e-007 -9.67080996e-005 -2.89808963e-006 1.81086452e-005
      2.54592724e-005 1.35212786e-005 7.43070314e-006 7.17017883e-006
      -3.85693857e-005 -6.15917743e-005 -1.61308508e-005
      -7.39648794e-006 1.12443956e-006 1.09481967e-007 -5.40973997e-005
      -1.12009126e-004 -1.69686900e-005 3.16190778e-007 1.02446575e-005
      -1.59570536e-005 -5.08489711e-006 6.60883416e-006 2.09843691e-007
      1.69602408e-005 6.60809337e-006 3.10593873e-006 2.29254670e-006
      1.30551797e-007 9.29672296e-006 1.60039781e-005 1.06137573e-004
      4.33662717e-005 -2.60060304e-004 -1.53357672e-004 4.09690620e-005
      -1.26254527e-004 -1.52077773e-004 -5.80160849e-005
      -7.29500171e-005 -1.07859123e-004 4.56800408e-005 -4.64802841e-004
      -1.27487903e-004 2.08726662e-004 -4.86441786e-005 -2.13626063e-005
      -1.01814796e-004 8.58388375e-007 1.17562977e-005 1.10915476e-004
      -2.58611308e-005 -2.10587183e-004 -2.67982512e-004 7.42465054e-005
      -6.51566224e-005 -5.44449831e-005 9.50259528e-006 -6.42656451e-005
      1.19772063e-004 -2.04220240e-004 -1.53463436e-004 -8.35182218e-005
      1.88445934e-004 -1.86311721e-004 -1.76268935e-004 -7.71857303e-005
      4.20596807e-005 -1.01680962e-004 2.34199033e-005 2.61596256e-006
      5.85366206e-006 1.07304913e-005 1.41013070e-005 5.46136380e-006
      4.28713338e-006 1.93644501e-005 2.43319082e-005 -2.90683056e-005
      1.72786022e-005 2.83335939e-005 1.74542220e-005 1.75787427e-005
      1.02893464e-005 -1.92793796e-005 1.51533477e-005 3.67489083e-005
      1.76770627e-005 6.58753879e-006 6.03710168e-006 2.35929856e-005
      2.00271679e-005 9.68629411e-006 -1.47588589e-005 7.49254582e-007
      -2.83008490e-006 6.10021516e-007 -2.12398591e-005 -8.08905838e-007
      2.36299438e-005 1.51622753e-005 -3.86165027e-007 3.75893796e-006
      6.09899507e-006 -1.73600147e-005 -8.87448987e-005 -9.28169102e-005
      -1.52702819e-006 4.11886549e-006 7.42859129e-007 -1.84971635e-004
      -5.78692707e-005 1.52593730e-005 3.41227337e-006 6.42292889e-006
      3.62466672e-005 1.68714832e-005 7.78418416e-006 1.25899180e-006
      1.16270521e-005 -1.98667612e-006 5.07125469e-006 3.31711271e-006
      -4.54281633e-007 1.48085087e-006 1.59007486e-005 1.19648052e-004
      -2.46391195e-004 -4.98856134e-005 -1.92459251e-004
      -2.20649265e-004 2.18664281e-004 1.78491784e-004 -1.42917474e-004
      -5.97332182e-005 2.24539268e-004 -4.27063555e-004 4.16999274e-006
      1.05284838e-004 7.83146679e-005 1.67902632e-004 5.30604848e-005
      -2.05656019e-004 -6.75412375e-005 1.11862078e-004 -8.33074737e-005
      -7.95505402e-005 -6.66061751e-005 -3.12733901e-004 4.02508012e-005
      -8.89843141e-005 2.17261004e-005 1.24993268e-004 1.91704356e-004
      -2.04165655e-004 -3.48924259e-005 -1.67551058e-004
      -1.24338374e-004 2.25771691e-005 -2.57436659e-005 6.96618081e-005
      -2.85695241e-005 1.99577989e-004 4.96041284e-005 2.16794760e-005
      3.19347564e-005 1.06039342e-005 -1.31000422e-006 3.26811787e-005
      5.39228931e-005 7.59368504e-006 1.94888980e-005 2.44103430e-005
      2.84483158e-005 1.80832449e-005 -2.13375606e-005 -1.99038550e-005
      -4.02337973e-005 1.00236593e-005 -1.57171802e-004 -4.91086575e-005
      -7.66396624e-005 -3.11709446e-005 -7.43320879e-006 3.12835641e-006
      1.31887100e-005 -6.99949680e-007 -7.40869509e-005 -9.01407766e-005
      -2.47956041e-006 -3.13006717e-006 1.40794566e-006 -8.89867442e-006
      2.33272385e-006 6.98699978e-007 2.67151136e-005 2.22742256e-005
      6.35374408e-006 7.51802554e-006 5.91874323e-006 -3.44219438e-006
      -3.31098017e-005 8.15756175e-006 -7.76818297e-007 1.01723629e-006
      4.88577825e-005 2.71671270e-005 7.56866166e-006 3.26392728e-006
      7.13343570e-006 1.33929746e-006 1.93581145e-005 7.24259689e-006
      1.19577408e-006 -9.88579541e-006 -2.20776974e-006 9.12404721e-006
      3.67530674e-006 -5.08971380e-006 8.35374249e-006 1.29186119e-005
      7.38735398e-005 4.86111312e-005 1.55067810e-005 -2.58082528e-005
      1.85908182e-004 2.04329684e-004 -6.63811588e-005 -1.99302667e-005
      3.88911612e-005 1.46684552e-005 1.78027680e-004 6.69457295e-005
      1.10570043e-004 1.15928924e-004 4.48088485e-006 6.39420023e-006
      1.02672406e-004 8.88553332e-005 5.67502866e-005 -3.95765746e-005
      -3.06075890e-005 7.35678695e-005 -7.83153519e-005 1.08562235e-004
      -1.61321186e-005 2.66473544e-005 6.27770060e-005 1.13473856e-004
      1.39375188e-004 -2.99564799e-005 5.86081260e-005 1.06193722e-004
      1.20197583e-004 9.96645686e-005 7.99256086e-005 1.17354626e-004
      4.57665010e-005 -3.90131463e-004 2.06056866e-005 -1.02316778e-006
      -3.59945972e-007 -1.56807873e-005 9.31779937e-007 3.91951835e-005
      1.57589275e-005 4.85148530e-006 6.77353892e-005 -1.17347472e-005
      8.38740652e-006 -6.02624050e-006 -1.03033949e-006 -2.71920871e-005
      1.28759984e-005 -1.86359393e-005 -1.50674589e-006 -7.53882996e-005
      -2.48621774e-007 -6.35187507e-006 3.79407220e-006 1.46951434e-005
      6.18621561e-006 2.04370972e-005 1.09202401e-005 2.79948017e-006
      -1.46567834e-006 7.09989138e-007 4.56030011e-006 3.74153251e-006
      -3.58573088e-005 1.02461936e-005 -1.73167191e-005 -2.97964380e-006
      7.71376745e-006 2.19652393e-005 2.28052504e-005 1.73457320e-005
      6.30808427e-006 2.85593728e-006 5.17077524e-007 1.35585988e-005
      5.08198355e-005 6.00873000e-006 3.51045264e-006 9.94453239e-006
      4.28071507e-006 1.95352695e-005 6.73159821e-006 1.42318800e-006
      2.21771079e-005 6.50989887e-006 6.61726926e-006 5.28514238e-006
      7.17150783e-007 4.69683437e-006 1.17957907e-005 1.11374291e-004
      7.01965546e-005 -2.09100144e-005 1.02472251e-004 1.14507282e-004
      -2.36699183e-004 1.45746206e-004 2.50842986e-005 -6.76585023e-006
      -4.38787356e-005 1.49884916e-004 -3.84377163e-005 -3.28519200e-005
      2.10328399e-005 3.47588575e-005 1.72837885e-004 -1.25116421e-004
      5.58068750e-005 3.60836857e-005 -1.09241635e-004 3.37041783e-005
      1.75253066e-004 1.41006152e-004 -4.60795796e-004 -1.04942301e-004
      5.68102478e-005 9.78189837e-006 -6.64577019e-005 7.40604737e-005
      -4.34946196e-006 9.96348317e-005 -1.24947866e-004 -1.15105649e-004
      -1.35417693e-004 -8.47220435e-005 -4.19541129e-006 5.55031365e-005
      1.97252433e-004 9.38162884e-006 2.01628791e-005 1.32515561e-005
      9.55389442e-006 2.00027771e-005 2.91353444e-005 1.89575403e-005
      2.30516853e-005 1.29491327e-005 3.16757905e-005 1.31626430e-005
      -8.61038425e-005 2.99588773e-005 9.63597086e-006 7.93411618e-006
      -7.96409659e-005 -1.74482523e-006 -3.84353152e-005 3.36680787e-005
      1.21399353e-005 7.15856413e-006 1.21064231e-005 -4.92097352e-005
      -7.23690464e-005 8.76154354e-006 5.74131036e-006 3.59576552e-006
      3.18053935e-007 -4.90574121e-006 -1.51040263e-006 -3.63612708e-006
      2.45052183e-006 8.28797420e-006 2.25158530e-007 3.69794816e-006
      3.40328597e-006 -1.16805149e-005 -1.75037549e-005 -1.66608845e-006
      1.44291414e-006 4.14189827e-007 -1.58827330e-004 -7.13139452e-005
      4.90982438e-006 6.11145606e-006 6.07092170e-006 -1.15929062e-004
      6.51859591e-006 6.47637489e-006 7.61922209e-012 -1.15992534e-005
      6.13323118e-006 4.40369786e-006 5.35279378e-006 7.44144870e-007
      2.62929962e-006 1.16672809e-005 1.15580398e-004 4.20294673e-005
      4.13186808e-006 -7.91736747e-005 1.08953012e-004 -3.88473054e-005
      2.11892821e-005 -1.04625768e-004 5.18093111e-006 1.69469044e-004
      5.28054443e-005 -2.22951363e-004 -1.22584737e-004 -6.07155780e-005
      1.22563200e-004 5.28647834e-005 -1.17386902e-004 2.79808428e-005
      1.17701544e-004 2.30727710e-005 3.89824745e-005 2.28887948e-005
      -3.30675568e-004 -4.38083298e-005 -2.53466387e-005
      -1.65005826e-004 -1.80940297e-005 1.01933787e-004 -1.48759063e-004
      -2.46651529e-004 -6.68969806e-005 -4.05419123e-004 2.37426051e-004
      2.16214743e-004 -6.28350826e-005 1.18115349e-004 6.70966765e-005
      2.60009023e-004 1.04156870e-005 1.17567588e-005 4.92684330e-006
      2.00652903e-005 2.17952766e-005 1.81911255e-005 2.65765921e-005
      3.22781380e-005 6.00871726e-006 4.21181358e-005 6.15358204e-006
      1.34499878e-005 -1.75417827e-005 -3.98804114e-005 1.32816103e-005
      -1.79594703e-004 -5.99514715e-005 -1.97199206e-005
      -1.07869591e-005 6.91143941e-006 4.64691630e-006 1.57549548e-005
      -1.19580960e-004 -1.61169723e-004 -4.04275561e-005 3.28163469e-006
      4.01328464e-008 8.95239054e-007 1.57885788e-005 1.62766878e-006
      3.27181915e-005 1.30800663e-005 1.12631114e-005 5.56367013e-006
      6.23760889e-006 -2.24409978e-005 -4.27499581e-005 2.27109649e-005
      -3.11218650e-006 1.95111988e-006 1.10524729e-006 -2.07062658e-005
      6.70947520e-006 1.28032991e-006 4.82335645e-006 7.15555643e-006
      -5.60611297e-005 9.10742165e-006 -7.34856121e-006 1.69214184e-006
      4.34429310e-008 2.00753880e-006 3.22853936e-007 3.74321849e-006
      -2.34769644e-007 7.35801677e-006 1.15599933e-005 1.14900686e-004
      -5.15895226e-006 -1.46920749e-004 -2.04350901e-004
      -2.55098275e-004 -4.35471447e-005 2.05106713e-004 -8.32449757e-007
      5.21509792e-005 5.72848912e-005 1.46486302e-004 -2.02916763e-005
      -1.61175674e-004 1.49708649e-006 -9.33384217e-005 1.25266830e-004
      5.59794717e-005 1.17321681e-004 9.27893561e-005 1.21548896e-006
      -5.32428021e-005 -1.96025576e-005 1.22329557e-005 -1.33745358e-004
      1.32694797e-004 -1.13578077e-004 4.38848510e-005 4.18270884e-006
      3.12286393e-005 1.95465382e-005 1.02247595e-005 7.62459895e-005
      -2.36457228e-004 1.62531447e-004 -1.00466263e-004 4.51508204e-005
      5.33477541e-005 -1.25472172e-004 3.61871776e-006 2.13435760e-005
      2.25291151e-005 1.51966196e-005 2.22013896e-005 2.15331656e-005
      2.14337833e-005 2.88540541e-005 2.84782964e-005 1.15778112e-005
      2.75900402e-006 1.08340191e-005 1.68372444e-005 -4.62262215e-005
      1.22709635e-005 -9.77157179e-005 -4.69390761e-005 1.20546156e-005
      3.05736467e-005 1.10198471e-005 8.48014588e-006 -1.00503985e-005
      -2.23188181e-005 -7.79479251e-006 -2.50918001e-005 3.68414362e-006
      5.11730104e-006 9.58576720e-007 1.80385211e-006 5.46999843e-007
      2.93315661e-005 2.15345954e-005 1.93096621e-005 3.87972159e-006
      9.78560547e-006 -2.13482963e-005 -2.49909608e-005 -1.09354578e-005
      1.86120553e-006 4.57843697e-007 4.15768085e-007 -1.95885459e-005
      -3.09658462e-005 -1.84690216e-005 5.54296685e-006 1.36883700e-005
      -2.54260049e-005 -2.24165910e-006 -7.67761594e-006 4.91791184e-007
      -2.50114899e-005 3.93896244e-006 6.97843552e-006 5.91421531e-006
      8.59538545e-007 1.14961185e-005 1.55823109e-005 1.03488332e-004
      7.92728824e-005 8.67855397e-006 -1.02660779e-004 -1.58527590e-004
      7.30244719e-005 1.17924254e-004 1.93538101e-004 1.72216733e-005
      -5.92267061e-005 -9.48995439e-005 -6.58774516e-005
      -1.77953902e-004 -2.92071170e-004 1.85845522e-004 1.45798098e-004
      -9.04696644e-005 1.73611152e-005 1.55677277e-004 8.86341368e-005
      6.38995771e-005 -2.02824274e-004 8.91854361e-005 9.77231684e-005
      1.34431262e-004 -6.29558708e-005 5.04006857e-005 2.13377698e-005
      -8.63057649e-005 -1.02016937e-004 -1.83980615e-006
      -1.53336397e-004 8.90914816e-005 7.72362910e-005 -1.49067573e-005
      2.26688189e-005 1.84034288e-004 1.56980386e-004 1.65764322e-005
      1.82513031e-005 1.14260301e-005 1.79095659e-005 2.54500701e-005
      2.39548881e-005 1.70562671e-005 3.16167498e-005 6.27302143e-005
      4.37568087e-005 -7.77572768e-006 1.29140835e-005 -1.94830204e-006
      -5.26521508e-005 1.07849237e-005 -7.61158299e-005 -4.40388576e-005
      -1.00460362e-004 1.53724741e-005 1.12209054e-005 3.84495797e-006
      1.94693457e-005 1.49626585e-005 -4.33638597e-005 -6.74182302e-005
      -5.71490091e-006 4.56689349e-006 6.17944579e-007 -4.16293551e-005
      -3.18004822e-005 -2.55835857e-005 2.37034383e-005 1.50788628e-005
      5.58757665e-006 1.04327601e-005 -3.95806728e-006 -5.32373015e-005
      -3.80693964e-005 -4.40342347e-007 3.96854057e-006 5.87058253e-007
      -1.81022333e-005 -2.70963228e-005 -2.70403816e-005
      -1.56780197e-006 1.34192032e-005 -2.49797104e-005 4.74888247e-006
      4.03683725e-006 5.05516311e-007 7.50529716e-006 2.22020913e-006
      -8.17401360e-006 6.11284804e-006 2.74773652e-006 1.27092035e-005
      1.25470942e-005 5.57932435e-005 9.43030591e-006 -1.48040141e-004
      -7.93306972e-005 4.86970166e-005 5.82729408e-005 -2.39853016e-005
      7.21570177e-005 4.93401749e-005 7.36489073e-006 2.18911755e-005
      -2.13717765e-004 -3.49673683e-005 6.30020295e-005 -8.02055220e-005
      1.35502887e-005 -9.97822135e-005 5.67277821e-005 8.09385965e-005
      6.06521207e-005 -5.99745363e-005 3.01194978e-005 -8.18677436e-005
      -2.98013212e-004 -8.75745229e-007 2.19749869e-004 1.63731253e-004
      1.02384756e-005 3.23518761e-005 -4.54913561e-006 1.25904320e-004
      -3.86430365e-005 -1.78534843e-004 8.10686543e-005 -1.04455466e-005
      1.25186794e-004 1.28919011e-004 -2.62243499e-004 3.29602472e-006
      4.09820823e-005 2.26939865e-005 1.92071857e-005 3.59797632e-005
      1.77738384e-005 1.91304280e-005 2.32837392e-005 4.47071398e-005
      1.11961253e-005 -9.07514368e-006 1.63817876e-005 -1.04054743e-006
      9.94281982e-006 1.32735504e-005 9.02760621e-006 8.69021187e-006
      9.17646048e-006 1.29282334e-005 7.90120339e-006 5.82296707e-006
      -5.06959213e-006 1.41636974e-005 -6.23148890e-006 2.37365966e-005
      6.29956321e-006 5.51423000e-006 4.88772912e-007 -3.42111380e-005
      -9.80326240e-006 -1.16658615e-004 3.84509985e-005 1.36650951e-005
      2.48047263e-006 6.91096420e-006 -1.33572553e-006 -3.87053524e-006
      -3.60867271e-005 5.41885993e-006 4.53633083e-006 1.03004788e-006
      -6.62570819e-005 -2.20161801e-005 -2.08782203e-005
      -9.97505504e-006 1.13716014e-005 3.96660153e-006 9.70595920e-006
      1.57326826e-006 7.63418996e-007 4.12649115e-006 5.06750894e-006
      8.16401553e-006 -4.43057843e-007 9.68080599e-007 7.59463592e-006
      1.12219068e-005 8.65815746e-005 -2.25736258e-005 -6.75374904e-005
      -6.25023404e-006 -1.11446396e-004 2.67054158e-004 -2.44809489e-004
      -5.94243720e-005 2.10617964e-005 -4.71372041e-005 -1.50952355e-005
      2.76223909e-005 -9.15303553e-006 -5.72223325e-005 1.66584825e-004
      -2.14237982e-004 -7.71753257e-005 5.56567393e-005 2.08696420e-005
      -6.20787687e-005 6.49473732e-005 1.01550082e-004 3.18023885e-005
      -5.06857905e-005 -3.98375530e-004 2.77061044e-005 5.07856348e-005
      6.43641979e-005 8.79981890e-005 5.89146694e-005 7.63223034e-006
      -1.38894742e-004 -4.99521921e-005 -1.77105554e-004
      -6.34479584e-005 1.47812689e-005 8.29090277e-005 -2.08151047e-004
      7.82163897e-006 1.02043405e-005 1.87372079e-005 1.42915842e-005
      9.42981478e-006 1.90102674e-005 1.05185536e-005 1.35811779e-005
      2.76708088e-005 -5.74246551e-005 5.96382642e-006 -2.28975914e-005
      1.34904612e-005 -1.71679458e-005 8.80395783e-006 -3.27616981e-005
      -6.86460262e-005 -3.28936185e-005 1.40046768e-006 1.61644493e-005
      4.08124015e-006 -6.46213948e-006 4.28560497e-006 4.57774831e-006
      -2.18598489e-005 -8.50421429e-007 2.91037122e-006 5.35724666e-007
      7.65236655e-006 -1.08067061e-005 4.83687763e-005 3.35693439e-005
      1.23857844e-005 7.96990025e-006 5.93182403e-006 -1.24889211e-005
      -4.50805919e-006 3.16817095e-005 2.97532893e-006 3.30771059e-006
      5.00846966e-007 3.08734634e-005 1.29893160e-005 1.20971317e-005
      4.43260933e-006 9.66838888e-006 9.31784780e-006 1.54460358e-005
      -9.82404254e-006 8.36793731e-007 -1.26709911e-005 -2.81428669e-007
      2.03032891e-006 -1.90309333e-008 6.97490748e-007 9.07648791e-006
      1.19101678e-005 5.25152718e-005 -1.96337569e-004 4.22926387e-005
      1.16945375e-004 1.53162880e-004 1.44238322e-004 -4.41058161e-004
      2.83843510e-005 -5.54298422e-005 1.07016465e-004 -1.82494914e-004
      -1.06226558e-004 -7.94871739e-005 1.82515068e-004 -6.70577429e-005
      -3.75567994e-004 -5.85252565e-005 5.44319955e-005 2.20650094e-004
      -6.08665614e-005 1.25831857e-005 -1.52775119e-005 8.57318955e-005
      2.32233317e-004 -2.20621660e-004 -1.36889648e-004 -1.58855371e-004
      1.16197880e-004 -5.36446169e-005 4.88342630e-005 -8.43836824e-005
      5.80634951e-005 -8.44635542e-006 -2.58105356e-005 -2.33073239e-004
      -9.74339200e-005 9.59893587e-005 6.22253992e-006 1.61199041e-005
      1.97852351e-005 9.49276455e-006 1.04527398e-005 9.92751211e-006
      -9.48439265e-006 -1.44744354e-005 2.89670170e-005 4.80205199e-005
      -4.39270880e-005 8.32964361e-006 -3.24196990e-005 1.80077404e-005
      2.27202072e-005 9.67640153e-006 -2.34424315e-005 -6.75389092e-005
      -2.13633641e-004 -3.40367842e-005 7.59271734e-006 6.76207719e-007
      1.62119541e-005 -3.75986529e-005 -1.91596318e-005 9.31614977e-006
      -8.21789763e-006 -1.65595367e-007 7.68118241e-007 1.67049729e-005
      3.56348778e-006 -9.50868252e-006 2.74377453e-005 1.56853930e-005
      6.03704484e-006 1.10448282e-005 -4.97776864e-006 1.72307518e-005
      -1.74095130e-005 4.42706869e-006 -1.01698117e-006 8.78203934e-007
      3.07028822e-005 3.07039736e-005 5.65948199e-007 6.15742601e-006
      1.32991463e-005 -3.78529967e-006 5.20641106e-006 3.98461998e-006
      1.95720600e-006 -9.91338675e-006 5.34574292e-006 -3.82811868e-006
      3.17139120e-006 1.34375227e-006 7.31301498e-006 1.58334824e-005
      8.36570398e-005 -4.32700726e-005 -1.27099614e-004 5.98765801e-005
      6.94372939e-005 1.13715047e-004 -1.75217123e-004 -7.32548360e-005
      -5.60730441e-005 2.59156135e-004 1.59549614e-004 -8.89488583e-005
      3.06226430e-005 6.82924874e-005 9.65072759e-005 1.95790763e-005
      -5.12270271e-005 5.76969178e-005 2.09877344e-005 2.99782187e-005
      5.05329663e-005 8.34562888e-005 1.06514039e-004 5.92617580e-005
      -1.83943150e-004 -2.96346232e-004 -3.38796599e-005 1.10331472e-004
      2.93784920e-004 2.63459933e-005 -1.21992771e-005 6.15220342e-005
      -6.63634637e-005 -1.96055480e-004 -4.62364551e-006
      -2.34227591e-005 -6.36301338e-005 -1.05637104e-004 8.50160995e-006
      -4.49699019e-006 1.26018931e-005 -1.12536254e-005 8.78690116e-007
      3.29390386e-005 -9.18556634e-006 -9.23915468e-006 6.30928189e-005
      1.58288858e-005 -1.72024320e-005 -1.35244272e-005 -5.01256909e-006
      2.97432598e-005 1.50642154e-005 -5.10230420e-005 -5.43987244e-006
      -5.03633855e-005 2.10512371e-005 4.06397248e-007 6.40854978e-006
      1.10525971e-005 -1.25044662e-005 -4.38797433e-005 -9.09586197e-006
      -1.21472094e-005 3.09176062e-006 1.28062470e-006 4.25044391e-006
      -1.74315246e-005 3.30202693e-006 3.01338896e-005 9.75124749e-006
      -3.66099613e-007 5.53622795e-006 -2.37835811e-005 -2.22746294e-005
      2.47755379e-005 -1.47526703e-006 4.59951934e-006 7.38664198e-007
      5.19007226e-005 -1.08094832e-006 -2.28764929e-005 2.07881590e-006
      4.12147210e-006 -9.04190256e-006 -6.11850965e-006 4.30324735e-006
      1.10550980e-006 -1.87098988e-006 4.52196491e-006 5.34885339e-006
      2.76577794e-006 5.94554422e-007 2.39610131e-006 1.14542290e-005
      7.07050058e-005 6.12341973e-005 -4.41689053e-006 1.03018874e-005
      1.43119265e-004 -7.98189067e-005 2.04651751e-005 4.70492232e-005
      -1.66819354e-005 -8.10535057e-005 -1.07296328e-004
      -7.68068858e-005 -6.65545012e-005 2.07913676e-004 -1.31803332e-004
      8.07713222e-005 5.46596930e-005 4.54535802e-005 5.02557414e-005
      8.50984434e-005 2.87551052e-006 5.61622073e-005 -3.12484808e-005
      -7.07746512e-005 1.03761202e-004 1.19678516e-005 -3.85981803e-005
      5.65880764e-005 -8.61323642e-005 -4.14192837e-005 3.86339234e-005
      9.22653562e-005 1.90829451e-005 1.39451411e-004 -5.18062297e-005
      -1.10656003e-006 -4.08410451e-005 -3.12713673e-004 1.26357636e-005
      1.20984387e-005 -9.55142423e-006 1.21142984e-005 2.07130906e-005
      1.83956454e-005 -6.35103152e-006 3.64266816e-005 5.08930279e-005
      3.84236446e-005 2.16855074e-006 1.01779560e-005 1.26428322e-005
      1.44796495e-005 1.22612082e-005 -1.94518216e-005 -2.58157997e-005
      -9.76829324e-005 -1.44955754e-006 8.72400960e-006 6.85813302e-006
      3.27380212e-006 1.50748974e-005 1.53756973e-005 -1.27958192e-005
      -2.64569589e-005 2.16382045e-006 7.13708062e-007 3.52941220e-006
      1.59315175e-006 -3.39832877e-005 -1.40990153e-006 1.32811247e-005
      6.04130400e-006 9.52472783e-006 3.18622278e-006 -2.20801267e-005
      -1.97099671e-005 2.08912070e-006 2.36656683e-006 9.37892594e-007
      5.39970097e-005 1.01820278e-005 1.78624887e-005 5.75227688e-008
      1.52523910e-006 2.32849834e-005 1.64604699e-005 1.14797297e-006
      3.00194756e-007 -5.68617452e-006 8.25153802e-006 7.88523812e-006
      6.77637490e-006 6.14381804e-007 7.22516370e-006 3.39068492e-006
      8.80128064e-005 -1.28668267e-004 -5.21279944e-005 1.25318402e-004
      -2.22191011e-005 1.71831693e-004 2.43331101e-006 -1.76980888e-004
      -1.13199283e-004 1.47185419e-004 -3.42819112e-004 -1.50528649e-004
      -4.84305456e-005 5.14398562e-005 2.77680520e-004 8.04924930e-005
      -9.06794521e-005 -1.76905651e-005 1.60458760e-004 -4.48052924e-005
      -1.17621756e-004 -2.12372779e-005 1.28319865e-004 1.77958849e-004
      2.57635274e-005 -3.99874771e-005 4.91407434e-007 2.86159338e-005
      -3.04499146e-004 -1.52204884e-005 3.00804168e-005 -1.12138267e-004
      1.47016588e-004 5.20426292e-005 -4.31441804e-005 2.06095629e-005
      9.28052905e-005 1.14410068e-004 8.11119844e-006 1.33033718e-005
      1.45780787e-005 1.99749411e-005 2.56216135e-005 2.32176972e-005
      1.03755046e-005 3.11042022e-005 6.69263172e-005 6.48499190e-006
      1.04959490e-005 -1.52982884e-005 3.98794828e-006 3.67799112e-005
      8.44985607e-006 -1.09224857e-004 -1.16836178e-004 -1.89638755e-004
      -6.28677435e-006 1.21106950e-005 6.79082541e-006 2.21534538e-005
      3.57133786e-006 -4.00360250e-006 -1.09870271e-004 -3.46395645e-005
      1.50834853e-006 1.10199016e-006 3.30121725e-006 8.02797422e-006
      1.22526990e-005 -8.95612447e-006 1.17009395e-005 5.84276961e-007
      9.71650024e-006 -1.68729166e-005 1.85769386e-005 -2.52147447e-006
      3.61102775e-006 -1.85006268e-008 6.06492961e-007 -1.70299008e-005
      1.14319382e-005 -3.67580906e-005 1.92705784e-006 2.00437080e-006
      8.73780209e-006 2.08231322e-005 5.20554295e-006 1.61244003e-007
      -8.50907873e-006 8.29855435e-006 6.45775935e-006 3.56217697e-006
      1.15660009e-006 3.20926893e-006 1.33405192e-005 8.07120305e-005
      -1.35818380e-004 -3.91788526e-005 -3.05958347e-005 6.93588663e-005
      3.11547192e-004 -7.82454590e-005 -1.29024280e-004 1.01330224e-004
      8.42903246e-005 -1.15180160e-006 1.51773211e-005 6.40208600e-005
      1.93504388e-006 5.19228743e-005 -1.78845203e-005 1.15924186e-005
      3.30533221e-005 5.14311032e-005 -6.42654049e-005 -5.40342307e-006
      -9.98810356e-006 9.07514113e-005 1.24708007e-004 7.55559231e-005
      -2.62492722e-005 7.85180021e-007 -1.67555645e-005 5.41993104e-005
      5.67601046e-006 2.59555145e-005 3.46944726e-005 1.78065980e-004
      -5.80466331e-005 -6.63601095e-005 3.33487369e-005 6.82843820e-005
      -1.13167087e-004 7.40032419e-006 1.90697792e-005 1.11946902e-005
      1.32845198e-005 2.38156408e-005 3.62849028e-006 1.33725225e-005
      3.48686845e-005 6.29195783e-005 3.70398520e-005 2.00130253e-005
      9.42726183e-006 2.40210666e-005 3.08675917e-005 1.17391601e-005
      -9.66204898e-005 -6.25961111e-005 3.31391457e-005 7.67382789e-006
      2.16678854e-005 4.89053537e-006 -2.20606180e-005 -1.82258445e-005
      -9.24397682e-006 -4.53102730e-005 2.56967769e-006 3.41711529e-006
      1.37450002e-006 -1.90604180e-006 -2.90139292e-006 3.61628881e-005
      -5.50515369e-006 5.23350036e-006 5.10451673e-006 7.33453317e-006
      -2.68717467e-005 -4.36295668e-005 -1.07931337e-005 2.14545230e-006
      1.74054151e-006 9.76715228e-007 5.90383388e-006 -3.80152960e-005
      -1.65533766e-005 -8.25103507e-006 -2.73727369e-006
      -2.64375685e-005 5.15479405e-006 -1.80004699e-005 -6.07115544e-006
      6.04687784e-006 6.95009294e-006 7.78490630e-006 -7.73112049e-007
      1.34561469e-006 8.20453252e-008 3.61058392e-006 8.26989417e-005
      9.15311612e-005 -2.59693970e-005 1.36102990e-005 8.87603528e-005
      -8.56004135e-006 -1.02191181e-004 5.73916441e-005 7.39428069e-005
      8.18989720e-005 -1.93556567e-004 6.23503074e-005 7.18850933e-005
      1.33458670e-004 1.37055065e-006 7.33970664e-005 -2.48712331e-005
      3.17067497e-005 1.53268978e-004 -1.30256478e-006 -4.09176346e-006
      7.66703943e-006 3.28749520e-005 2.31913931e-004 2.55159739e-005
      6.62695238e-005 7.74184373e-005 5.77645478e-005 -1.84685719e-004
      4.03698323e-005 3.44728542e-005 8.23793962e-005 1.50087784e-004
      6.76491691e-005 7.36337533e-005 5.85907292e-005 9.66983935e-005
      5.14342901e-005 1.49350581e-005 3.63096624e-005 1.41507071e-005
      2.29231428e-005 3.52039024e-005 3.30683433e-005 -9.32158400e-006
      3.06266847e-005 4.90240927e-005 2.15273903e-005 1.41661712e-005
      2.21296668e-005 2.25689218e-005 3.33925236e-005 9.98048017e-006
      -4.20685792e-005 -5.30863108e-005 -1.82802818e-004
      -1.62629840e-005 1.61405987e-005 6.78969081e-006 1.87879850e-005
      -6.61341846e-006 1.98274037e-008 -3.12601369e-005 3.27781868e-006
      4.80957124e-006 1.43831164e-006 -3.08680428e-005 -1.34839574e-005
      -1.29047567e-005 2.32001003e-005 1.58094499e-005 4.47760522e-006
      1.10879946e-005 -2.69173779e-005 3.71661122e-006 -6.18147969e-005
      4.49340405e-006 -1.69693763e-007 9.82482447e-007 -1.30912085e-005
      -2.21092741e-005 5.21466563e-006 -1.16119736e-006 5.24288043e-006
      -4.58213763e-005 4.76289733e-006 -4.78269931e-006 7.05533580e-007
      -1.78283790e-005 6.24588120e-006 -2.39456622e-005 2.63587572e-006
      1.25532779e-006 3.56532792e-006 1.60215222e-005 4.41918601e-005
      3.46768065e-005 -5.01126087e-005 -6.82358732e-005 1.12874859e-005
      1.87899772e-004 -1.63479290e-005 5.75894483e-005 9.79224278e-005
      7.27105944e-005 -1.49900779e-005 -1.76764534e-005 6.00018320e-005
      5.72669960e-005 9.42916013e-005 2.37642962e-005 7.33589695e-005
      1.40524906e-004 3.43206420e-006 -9.45075612e-007 5.20977737e-005
      7.34082059e-005 1.66086029e-004 -3.54575459e-005 -3.24057919e-006
      -2.35072775e-006 1.01263948e-004 1.00069119e-004 -2.84208436e-005
      -3.34979427e-006 1.03018072e-004 1.04462117e-004 1.33039823e-004
      3.18824677e-005 4.48160463e-005 8.16025931e-005 -4.47108778e-006
      -2.99334235e-004 1.22278861e-005 3.23477907e-005 1.52886569e-005
      1.56034021e-005 2.47829121e-005 2.26063803e-005 3.75682703e-006
      -1.35076698e-006 -1.70028397e-006 2.83159825e-005 5.61125034e-006
      2.73136766e-006 6.55075382e-006 8.14480882e-006 -9.53170547e-006
      -7.35249569e-006 -1.61408898e-005 -3.69386216e-005
      -1.22723350e-005 1.40205893e-005 6.82312748e-006 2.68122449e-006
      1.72050404e-005 -2.57415286e-006 1.07463966e-005 2.53987650e-007
      1.55478915e-006 5.89265085e-007 3.03859706e-005 3.61163120e-006
      -4.61707932e-005 4.12361769e-005 1.57073373e-005 4.59301418e-006
      -1.53044169e-007 1.74249308e-005 2.31226095e-005 6.34884998e-007
      -1.38257283e-005 8.27836743e-007 1.43328191e-006 3.17640661e-005
      4.62159960e-006 1.37225070e-005 -3.01872888e-006 7.14777570e-006
      -2.88583451e-005 1.25489423e-005 3.86921602e-006 5.33511582e-007
      -9.14697739e-006 -1.91748632e-006 5.99211307e-006 1.00632974e-006
      1.55899090e-006 1.24268590e-005 1.28543616e-005 1.14202112e-005
      7.27688675e-005 1.14833267e-004 4.21897166e-005 4.24127902e-005
      2.76465755e-004 -1.73104072e-005 -3.80096353e-005 -1.19536497e-004
      -3.69895133e-006 7.03989499e-005 -2.65721701e-005 1.36695817e-004
      7.67692545e-005 7.87830140e-005 1.02198348e-004 -1.63858174e-004
      -2.69848329e-004 7.83064097e-005 9.45639404e-005 2.52809677e-005
      4.76662281e-005 -6.16905709e-006 8.31363432e-005 5.71398923e-005
      1.07498972e-005 1.02801596e-005 -8.55852632e-005 3.64054213e-005
      2.05902470e-005 1.39544340e-004 1.12316455e-004 5.43872702e-005
      -3.54351105e-005 -1.37358671e-004 3.87459932e-006 1.17341922e-004
      -1.67234219e-004 1.82108142e-005 -1.31461120e-005 -8.82248332e-006
      1.16003448e-005 5.93010145e-006 6.54985843e-006 1.33475360e-005
      2.50765479e-005 4.00206118e-005 3.27446323e-005 3.74761885e-006
      6.10838424e-006 9.55380892e-006 1.95444427e-005 9.58979945e-006
      -5.27752745e-005 -2.26073753e-005 1.15799758e-005 3.43943771e-006
      9.93401500e-006 2.91958099e-006 -2.55653754e-006 -2.44942930e-005
      -2.76411465e-005 -6.03352019e-005 3.84548503e-006 4.72725333e-006
      9.11368943e-007 4.64563254e-006 -7.93576419e-006 -3.61538378e-006
      1.60869058e-005 5.12951829e-006 7.67796337e-006 7.73656211e-006
      -5.61029401e-006 2.21419759e-005 2.83706377e-005 5.97332564e-006
      3.48122626e-007 2.03572745e-006 2.63172024e-005 -1.60006512e-005
      6.74969533e-006 -9.84068902e-006 7.88832676e-006 -6.07582006e-005
      8.86251200e-006 3.21209154e-006 2.11207703e-006 1.22889190e-007
      2.67387918e-006 1.05712559e-006 -2.60673716e-007 6.06289859e-007
      8.49744629e-006 1.07171327e-005 6.52896342e-005 -2.60817906e-004
      -1.77045404e-005 4.96720713e-005 3.80213532e-005 1.73135093e-004
      9.79120377e-005 -1.04052415e-004 -2.53508682e-004 1.82074902e-004
      -6.12647855e-005 2.07470430e-006 1.45278726e-004 4.12302688e-005
      5.96474056e-005 1.21542689e-004 -1.13225826e-004 -1.11814377e-004
      3.35916702e-005 1.76129179e-005 3.29416143e-005 -1.39994636e-005
      8.64112226e-005 1.60857653e-005 7.26285652e-005 -7.47634476e-005
      -2.29576312e-004 7.37100418e-005 1.31954919e-004 2.83842564e-006
      4.96759931e-005 5.88504045e-005 -6.08732480e-005 6.03429944e-005
      -9.26656867e-005 -2.09219535e-004 -9.67301094e-005 3.50029131e-006
      6.87567535e-006 1.20083805e-005 1.46584271e-005 1.58046387e-005
      2.21673472e-005 5.59472483e-006 -1.83066932e-005 2.62656413e-005
      2.38287867e-005 4.34204521e-005 6.49781987e-006 1.96029559e-005
      4.87313673e-006 8.79115487e-006 1.61295302e-005 -1.56111375e-004
      -7.60328403e-005 2.43259692e-005 9.63258390e-006 1.05651998e-005
      5.10492418e-006 1.56406350e-005 -2.26150314e-005 -2.13236253e-005
      -7.52107153e-005 5.19908872e-006 4.56776843e-006 1.12113625e-007
      1.59589945e-005 9.50546473e-006 -5.78839463e-005 -1.76390931e-005
      1.22954125e-005 6.35603283e-006 -6.05106970e-006 1.15610055e-005
      1.35108139e-005 -7.12416204e-006 4.31302124e-006 2.71520867e-006
      1.27567387e-006 4.04156754e-006 9.43350460e-006 1.81181713e-005
      -1.82330075e-006 8.27660369e-006 -4.31609769e-005 1.14595477e-005
      -6.67081804e-006 1.01031858e-007 -1.73449007e-005 9.36700690e-006
      7.85915290e-006 2.04021103e-006 5.79034179e-007 3.62994251e-006
      8.32702881e-006 6.14068704e-005 -2.20940274e-004 1.21159328e-005
      1.14724739e-004 1.04050348e-004 -3.76961252e-005 9.95679948e-005
      -2.06448647e-004 -2.27233948e-004 2.03283180e-005 1.97250352e-004
      -3.00224037e-005 -3.18564548e-006 -9.29439011e-006
      -1.69941297e-004 6.96995703e-005 -1.31222303e-004 5.82942957e-005
      -9.72479902e-005 7.92244682e-005 5.15172469e-005 4.76318883e-006
      1.21387420e-005 -5.19983696e-005 5.81992026e-005 -2.04357202e-004
      -1.91461324e-004 -3.04395962e-005 2.24334945e-004 9.68140230e-005
      9.28245063e-005 1.79266972e-005 -1.63772434e-004 2.53489616e-005
      -1.71756576e-004 -5.25687428e-005 -2.14230968e-004 3.37486781e-005
      1.23928967e-005 3.17992744e-005 1.04616292e-005 -3.45879816e-005
      3.76363387e-005 2.04574535e-005 9.78134176e-006 2.04041589e-005
      5.06455326e-005 1.51326567e-005 1.30084572e-005 -2.11758397e-005
      2.71318422e-005 2.43312516e-005 1.05242589e-005 -1.48241874e-004
      -3.82085345e-005 2.90228563e-005 -7.23708672e-006 1.44253136e-006
      -2.75244042e-006 1.32366386e-005 -1.28713145e-004 -3.84806444e-005
      -5.15357278e-005 -1.59030478e-005 3.54467829e-006 6.54772180e-007
      1.94732929e-005 1.45104277e-005 -1.53189758e-005 -4.56114230e-006
      4.67489554e-006 2.96458416e-006 6.64422760e-006 5.05525077e-006
      8.07423203e-006 3.00267966e-005 1.77186621e-006 3.10618725e-006
      9.31023237e-007 6.13914290e-006 1.32260811e-005 6.27050213e-006
      1.67806195e-006 3.02474245e-006 -7.93085928e-005 1.01177175e-005
      6.42702253e-006 8.23556036e-007 -1.17491973e-005 6.06280400e-006
      8.70525582e-006 4.66761003e-006 8.81861638e-007 5.77034280e-006
      1.11627342e-005 5.02267576e-005 9.71367845e-005 -5.27213851e-005
      6.32980082e-005 -5.33288076e-005 -1.98552472e-004 5.87836003e-005
      8.99809311e-005 7.07362924e-005 8.04866249e-006 -2.89635092e-004
      -1.63314078e-004 -1.19822516e-005 -3.00879365e-005 6.63489409e-005
      4.16064322e-005 7.05329585e-005 8.72555902e-005 -6.73596660e-005
      -1.24651915e-005 -7.79739712e-005 7.53916247e-005 -2.70915480e-005
      2.67350842e-005 2.46311338e-005 -1.78045980e-006 1.01539445e-004
      1.25935505e-004 -2.22039060e-004 -1.39612443e-004 9.10620220e-005
      -4.55382469e-005 1.84421879e-004 3.19905666e-005 -2.46212239e-005
      3.19213250e-005 4.96477478e-005 -1.82810676e-004 -7.04635568e-006
      -8.19230445e-006 -8.96134770e-006 1.32273271e-005 -1.90763686e-007
      1.45841159e-005 9.61718456e-007 2.46954642e-006 3.98076845e-005
      1.73910630e-005 1.41640412e-005 1.86136631e-007 9.27478413e-006
      -1.06308626e-005 2.16675835e-006 -4.40566910e-005 -1.15148146e-006
      -1.70125786e-004 6.45397949e-006 -2.03452018e-007 -1.85261670e-005
      1.80626230e-005 2.38142857e-005 1.41668679e-005 -2.71072131e-005
      5.51438416e-006 4.45759633e-006 5.95176630e-007 2.00185004e-005
      5.64765696e-006 -2.63739093e-005 -3.27021589e-005 1.72595010e-005
      4.17851834e-006 5.35864842e-007 2.28259651e-005 2.02094816e-005
      -2.48241595e-005 -1.46685898e-006 3.94113022e-006 -1.46507759e-007
      4.28798994e-005 4.32356028e-005 1.02753711e-005 3.73576768e-006
      5.44178556e-006 1.88313570e-005 1.69317918e-005 9.07815320e-006
      1.08008282e-006 1.53564561e-005 7.14068619e-006 8.14430041e-006
      -1.46642096e-005 5.81334064e-007 7.45348598e-006 7.75021545e-006
      9.93499052e-005 -1.38329866e-004 -9.51519687e-005 -9.89676628e-005
      -3.17764643e-005 1.19006712e-004 2.06721907e-005 5.05791759e-005
      -4.41352022e-005 1.23321763e-004 -3.30135052e-004 8.07413089e-005
      2.44393595e-006 1.67686483e-006 2.08951853e-004 4.62068674e-005
      5.44119393e-005 4.57940987e-005 1.12152949e-004 -1.92845837e-004
      -5.68756695e-005 6.80896483e-005 8.55258695e-005 2.29671292e-004
      -5.19334717e-005 -6.60025034e-005 -8.42994086e-006 6.27935078e-005
      -1.77561524e-004 -7.91094426e-005 1.17352123e-004 1.35193404e-004
      1.48642735e-004 7.07442887e-005 -1.15647645e-005 1.69248615e-005
      -5.75096383e-005 -1.77504044e-005 1.33815756e-005 1.46049451e-005
      -5.09275606e-006 1.03845241e-005 -1.76412905e-005 1.20629857e-005
      -5.68737778e-005 -1.34915354e-005 4.02777659e-005 -3.49276343e-005
      -1.17249083e-005 -6.88780565e-005 1.01412606e-005 -2.41599355e-006
      -4.23892698e-006 1.70054627e-005 -1.41845285e-005 -2.87814386e-004
      -1.10834146e-004 1.46063030e-005 -1.44138594e-005 1.97547179e-005
      3.80054225e-005 2.41941943e-005 1.31203096e-005 3.22620667e-006
      3.02578655e-006 1.68471956e-006 2.37997701e-005 6.69735482e-006
      3.77131582e-005 -3.69562586e-005 6.82156156e-007 -3.99087776e-006
      5.33013463e-006 2.44569746e-005 1.50893475e-005 2.35689931e-005
      1.08536028e-006 3.14568979e-006 1.14742363e-006 8.16982938e-005
      2.33978499e-005 5.94215680e-006 4.86176623e-006 -3.76604748e-006
      3.24946814e-005 1.66046575e-005 1.03194789e-005 2.09051322e-007
      1.40775319e-005 5.27527209e-006 6.65604784e-006 2.89117020e-006
      2.31548142e-006 -3.64198149e-006 1.51098220e-005 1.08591572e-004
      -2.44031871e-005 5.86443894e-005 3.50525552e-005 9.75692183e-006
      1.53941466e-004 6.00312233e-005 -2.42660171e-005 2.32018883e-005
      8.39229615e-005 4.52377863e-005 5.89318115e-005 1.43596306e-004
      8.12368817e-005 -3.96674695e-005 8.58932981e-005 -1.22332334e-004
      -9.82146812e-005 1.42766730e-004 -6.17870392e-005 -7.20017567e-007
      8.52137509e-006 3.40869519e-005 1.38017393e-004 2.94393030e-005
      -3.19937535e-005 9.08981929e-006 7.26480430e-005 2.36567721e-005
      -6.25650355e-005 -1.76015456e-005 1.07288521e-004 2.33468934e-004
      1.91620748e-005 -7.17379589e-005 -1.75871846e-005 -1.90508990e-006
      -2.25788113e-004 1.17563322e-005 -6.89703393e-006 -9.74775958e-006
      4.40632857e-006 -2.05737615e-005 -5.18342094e-005 -1.26908662e-005
      -2.08972870e-006 -2.65117615e-005 -4.08209962e-005 1.18473263e-005
      6.39447194e-007 4.05352375e-006 -1.57232898e-005 -2.27296387e-005
      2.98412078e-006 1.58269393e-006 -4.65721314e-006 1.61580454e-006
      8.10396159e-006 -6.78626066e-007 1.53567671e-005 3.34752112e-005
      3.44612708e-005 1.73309800e-005 -1.32277228e-005 4.74970193e-006
      1.56167334e-006 1.79424405e-005 1.57778720e-006 -1.30576555e-005
      -9.72810631e-006 -6.15689487e-006 -8.54891141e-007 1.28968150e-005
      2.65328345e-005 2.51753027e-005 -5.58999272e-005 2.31544050e-006
      -2.08144274e-006 5.97516475e-007 6.40102298e-005 1.50481637e-005
      6.96226789e-006 3.74191427e-006 6.45718501e-006 3.62681094e-005
      1.97697118e-005 1.01693295e-005 2.01165699e-006 2.57916181e-005
      8.21392587e-006 -3.26014788e-006 -1.25762682e-007 3.74779376e-007
      7.01744784e-006 1.48971976e-005 8.34387247e-005 6.43149542e-005
      2.94368328e-005 -1.34096772e-004 7.94692605e-005 -1.98183225e-005
      5.65290429e-005 1.24025682e-004 7.82845309e-005 1.13262409e-004
      7.18365045e-005 7.20619064e-005 -6.46502886e-005 5.53388745e-005
      9.00681334e-005 1.23386359e-004 -6.68821076e-006 5.46717856e-005
      1.22670739e-004 -1.69369145e-004 7.66427547e-005 -1.06336134e-004
      7.71834821e-005 1.79872703e-004 5.28085820e-007 -1.67086419e-005
      1.59766500e-006 1.65881269e-004 1.40539225e-004 6.10584393e-005
      -1.83173543e-005 1.67703140e-004 1.81387819e-004 2.76779224e-006
      -6.00782914e-005 -1.34436807e-004 1.13550632e-004 6.35466204e-005
      1.98741400e-005 1.56684255e-005 -1.58711136e-005 -1.82055953e-006
      -6.61623062e-006 -3.87025066e-005 -1.63996781e-004 1.13651840e-005
      -2.21634691e-005 -4.06353684e-005 9.05630350e-006 -1.06412008e-004
      -8.62799861e-005 -3.01709060e-005 -5.00473016e-006 1.20742652e-005
      1.25225260e-005 -7.24595811e-005 -7.31776381e-005 6.11263022e-006
      -7.25962536e-007 5.01827390e-006 3.16510923e-005 3.71696151e-005
      3.75996860e-005 3.84855048e-006 4.50534571e-006 4.39751858e-007
      3.62635183e-005 1.89678303e-005 1.79611852e-005 -2.72637408e-005
      -1.24865965e-005 -1.48411186e-006 1.00434249e-006 2.84936705e-005
      1.45807826e-005 1.30074659e-005 4.58640585e-007 1.73091360e-006
      1.04349829e-006 6.17068363e-005 3.45999943e-005 1.71715346e-005
      -1.43388843e-006 3.80183269e-006 2.07532048e-005 2.10168728e-005
      8.48849322e-006 1.16834872e-006 1.92053703e-005 8.90588854e-006
      3.39469648e-006 4.76042169e-006 4.59031526e-007 2.58666842e-006
      1.22733891e-005 8.24483359e-005 1.70249259e-005 1.48164530e-004
      3.51643248e-005 1.09362765e-004 1.29449647e-004 3.48545182e-005
      -6.73714521e-006 8.85898626e-005 1.91716710e-004 1.22622369e-004
      4.08043052e-005 -2.61394762e-005 1.37922194e-004 1.83785203e-004
      1.99735241e-005 3.94842318e-005 8.04301089e-005 -6.30778959e-005
      1.07010470e-004 1.05405219e-004 1.08002016e-004 -4.44599609e-005
      1.42451809e-005 1.06798449e-004 5.77015599e-005 8.58608619e-005
      2.23707088e-004 6.27977643e-005 1.21315315e-004 1.50299693e-005
      -1.78969622e-005 1.65837464e-005 1.30917440e-004 7.58957249e-005
      3.28093956e-005 -9.93808208e-005 -2.50739977e-004 1.25981123e-005
      -1.55388425e-005 2.56938310e-005 -5.50797176e-006 9.95472783e-006
      -4.58707973e-006 -3.53838846e-006 -7.20938078e-006 5.08824633e-006
      -7.82761890e-006 1.02283238e-005 -1.05455847e-005 -1.00478501e-005
      -3.18490784e-005 2.23573875e-006 1.86023190e-005 1.14948671e-005
      2.50438588e-005 2.13447802e-005 -1.62989927e-005 -3.35253549e-006
      2.13277635e-005 1.82433887e-005 1.11415858e-007 3.34031188e-006
      -1.41564278e-005 -1.05859601e-006 8.24435062e-007 -1.69517243e-005
      -1.07860324e-005 -4.75506858e-005 7.29675048e-006 -6.22051948e-006
      -1.01571197e-006 6.61414333e-007 3.38866412e-005 -9.90399371e-007
      -1.66442278e-005 1.40079419e-005 -1.87004196e-006 4.40044715e-007
      6.17122278e-005 3.44006985e-005 4.56630005e-006 2.03566560e-006
      4.44998841e-006 1.00033640e-005 1.04817827e-005 9.10337985e-006
      1.71013642e-006 1.57754730e-005 4.72626289e-006 1.00729894e-005
      4.22989569e-006 1.34533957e-006 2.95206223e-006 1.67231008e-006
      6.26248875e-005 6.33528089e-006 8.55598046e-005 8.66107657e-005
      1.28334592e-004 1.54836263e-004 -6.16044736e-006 6.47628694e-005
      6.05285968e-005 -6.46088120e-006 -2.17374545e-005 1.23351754e-004
      3.38571917e-005 5.03194897e-005 1.65365680e-004 4.12643999e-007
      -4.30924119e-005 3.59304140e-005 1.23763151e-004 -4.14728202e-005
      1.47378218e-004 1.19965134e-005 7.21861506e-005 -9.25439672e-005
      4.38348252e-005 3.15843936e-005 8.73958343e-005 6.55774420e-005
      -1.29268854e-004 7.85896627e-005 -6.50331567e-005 6.90671823e-006
      9.69716129e-005 7.93829749e-005 6.24371314e-005 8.67877534e-005
      1.21787220e-004 -9.28615045e-005 1.18249982e-005 -1.19064680e-005
      1.22739448e-005 -3.51353970e-006 -2.10066037e-006 7.67799793e-006
      -7.27226725e-005 6.06702133e-006 -3.77950273e-005 -2.50087760e-005
      6.45084901e-006 -3.66623244e-005 1.95491978e-007 -3.72833638e-005
      2.57676857e-006 3.88026092e-006 -1.50103133e-005 -1.84604451e-005
      -4.27253945e-005 -1.55279104e-005 5.09163920e-006 5.96087602e-006
      1.53883338e-005 -6.57612418e-006 -1.46853909e-005 4.84540851e-006
      -4.08037522e-006 -9.55793311e-008 -3.65609048e-006 1.86662364e-005
      4.11003093e-005 3.26993249e-005 2.74351783e-006 -4.12976995e-008
      8.17475666e-006 1.29344853e-005 1.91819490e-005 1.87110418e-005
      7.18841056e-006 5.68442010e-006 1.33518984e-006 2.76711980e-005
      3.14600475e-005 2.04132957e-005 1.92016250e-006 9.68184395e-006
      -1.64712292e-005 1.92003845e-005 8.68898769e-006 2.28314138e-006
      5.62642413e-008 2.99547241e-006 -4.35331413e-006 4.66510710e-006
      3.01449882e-006 1.00400375e-005 1.19153301e-005 5.68787982e-005
      2.35984568e-004 1.03700826e-004 -3.05131925e-005 6.67470522e-005
      9.92938149e-005 -2.02910687e-005 -1.07141459e-004 -1.85986952e-004
      -6.13937082e-005 3.49352427e-004 4.34321191e-005 -1.53061592e-005
      1.56586655e-004 5.45653056e-005 -1.53278204e-004 -1.37035604e-004
      -1.13960996e-004 -2.11559978e-004 2.33114362e-004 1.22493293e-004
      -4.74924600e-005 -6.80548183e-005 2.11941995e-004 1.66957383e-004
      -2.82258061e-005 -6.62229213e-005 -2.90492990e-005 2.35739673e-004
      1.29122578e-004 -6.59168363e-005 1.04953533e-005 3.34623765e-005
      7.53710701e-005 -3.90110945e-005 1.94240874e-006 -1.01265694e-004
      -1.23744467e-004 1.42160088e-005 1.27051162e-005 -2.15705986e-005
      1.54395584e-005 -1.12279286e-005 1.74031102e-005 -1.24612794e-004
      -9.91145498e-006 -1.21410712e-005 1.17832415e-005 2.21246537e-005
      -5.90255368e-005 -5.28781347e-005 -2.56845087e-005 1.19969372e-005
      2.00449740e-005 2.08547044e-005 3.58005564e-005 -1.71036863e-005
      -1.06129482e-006 5.90878471e-006 1.70624626e-005 2.33990722e-005
      3.13503892e-006 2.17865945e-005 5.63868207e-006 -2.82595664e-007
      8.04508488e-007 1.10233304e-005 3.80390384e-006 -1.15868468e-004
      5.22937717e-006 -4.38435636e-005 7.35257890e-006 1.04093385e-006
      2.12727191e-005 5.58402280e-006 2.75651678e-006 5.38946961e-006
      4.88245996e-006 8.07459557e-008 6.50173897e-005 1.53625060e-005
      1.95406592e-005 2.66128109e-006 6.53074858e-006 -2.82633096e-006
      1.97255467e-005 8.14566829e-006 1.01948365e-006 1.30377002e-005
      5.28430110e-006 9.35389107e-006 1.73276192e-006 1.37437485e-006
      5.05114713e-006 9.37066397e-006 1.10054236e-004 2.87192142e-005
      3.40798833e-005 2.97256593e-005 -5.34083665e-005 5.70632983e-005
      6.65290781e-006 2.13208714e-005 -1.92157779e-004 9.59397880e-007
      3.53936121e-005 3.60109038e-006 -1.33506037e-004 3.02958488e-005
      -3.78768527e-005 -3.90796731e-006 -1.80005645e-005
      -6.16935868e-005 -1.21119971e-004 2.00455237e-004 -1.19255063e-004
      1.13461456e-005 3.83875740e-005 -6.85226623e-005 4.91089268e-005
      2.07915400e-005 -1.75310761e-005 -1.01470439e-004 8.92107564e-005
      -9.63595157e-005 -3.77882498e-005 -1.32462867e-006
      -1.60574797e-004 7.09487358e-005 -2.08599104e-005 -4.82310788e-005
      -1.39727330e-004 -2.33374536e-004 -2.37780614e-006 1.89169796e-007
      -6.86102339e-006 7.07911067e-006 -3.28666215e-006 -4.81030656e-006
      -2.18865061e-005 5.41281406e-006 -6.62981547e-005 -3.69521922e-006
      -6.39898985e-007 2.15495947e-005 2.20194015e-005 -2.05186006e-005
      9.54022289e-006 -1.24617363e-005 1.74429169e-005 2.38814246e-005
      -7.01998579e-006 -1.20843708e-007 5.22984283e-006 1.80342213e-005
      1.27688427e-005 2.55395298e-005 -1.21936746e-005 -3.94773451e-007
      4.09155382e-006 2.94826037e-007 9.13612712e-006 1.21315861e-005
      -3.83729166e-005 1.06215821e-005 -6.09307062e-006 3.53036262e-006
      -3.69929398e-006 1.58518724e-005 7.45540547e-006 1.69058658e-005
      3.19976925e-006 1.91676531e-006 3.77473867e-007 5.56420637e-005
      2.45338342e-005 1.53577657e-005 2.48681727e-006 6.04868410e-006
      -3.52481402e-006 1.35238752e-005 4.17823867e-006 2.60171674e-007
      8.64035701e-006 6.43267822e-006 -7.71774182e-007 -2.86240174e-006
      3.22339808e-008 6.71652515e-006 1.39974918e-005 3.92129732e-005
      1.60655873e-005 1.17600794e-005 4.57311398e-005 9.38108278e-005
      -3.08810588e-004 -9.74229479e-005 1.17529162e-005 7.08536827e-005
      1.05817977e-004 -2.16996952e-004 -3.96492323e-005 1.67293285e-006
      -7.10149325e-005 -2.19337657e-004 -9.97963143e-005
      -1.55420366e-006 2.73033838e-005 2.08058598e-004 -6.69868750e-005
      -6.85467530e-005 2.25074950e-006 3.83117003e-005 1.46905775e-004
      6.84400366e-005 1.34435526e-004 4.85658602e-005 3.43015308e-005
      -3.09224153e-004 -1.14919894e-004 -1.11240181e-004 8.70315125e-005
      2.26271382e-004 1.17956028e-004 2.52062764e-005 9.15745404e-005
      1.48419131e-004 -3.58038262e-004 -1.13643200e-005 4.69004544e-006
      1.13774095e-005 -5.95272752e-007 3.85913518e-006 4.05460787e-006
      5.80409051e-006 4.40370968e-006 6.10794159e-005 -4.47176244e-005
      2.59786921e-005 2.04207045e-005 1.27132107e-005 7.75322042e-006
      1.83135180e-005 1.95163702e-005 1.81272080e-005 -3.60271573e-004
      1.33381309e-005 5.34091805e-006 6.78136212e-006 2.18427485e-005
      2.46748677e-005 2.68647800e-005 2.46206928e-005 7.18480032e-006
      5.02810417e-006 -7.35448964e-008 1.86202888e-005 1.20033774e-005
      1.44750393e-005 1.47481878e-005 1.99761848e-006 1.89777393e-006
      1.38259543e-006 2.02057072e-005 4.19120369e-007 3.80372103e-006
      -7.46140813e-006 -5.02242938e-006 6.02705029e-007 9.15697965e-005
      1.61113494e-005 1.36365115e-005 5.27256680e-006 -2.47001230e-006
      5.24857605e-005 1.46814955e-005 8.11254813e-006 8.49968899e-007
      2.86654558e-005 4.53607254e-006 7.00932378e-006 4.91847504e-006
      1.18923936e-006 1.19292551e-007 1.14227505e-005 8.55099788e-005
      -1.35928654e-004 7.55066230e-006 -1.47953842e-005 1.01429418e-004
      -7.37472728e-005 -3.58218931e-005 6.07355068e-005 -5.24871139e-005
      6.29883070e-005 -1.51286295e-004 2.31422255e-005 2.51747515e-005
      5.39626089e-005 -1.86322723e-005 3.44965774e-005 7.74413784e-005
      8.10593847e-005 3.79852900e-005 -3.15525103e-004 -7.69151393e-006
      -1.94985623e-005 6.72909082e-005 3.05885391e-004 1.39982207e-004
      -5.52180863e-005 2.65527815e-005 2.36671422e-005 -6.58770150e-005
      -2.10517919e-005 9.01908334e-006 1.15744551e-004 1.28026921e-004
      1.17649281e-004 -5.99327250e-005 6.74279727e-005 8.11597129e-005
      -1.10781162e-004 1.13496062e-005 9.88567444e-006 -1.37331099e-005
      1.90083283e-005 -2.25961685e-005 8.77518573e-007 1.91887848e-005
      -1.13117876e-005 2.60558645e-005 -2.22853942e-005 -4.61374202e-006
      1.05184317e-005 5.02456123e-006 -1.07145552e-005 3.16678847e-006
      -6.71241942e-005 -3.23481108e-005 -2.11990817e-004
      -6.22605967e-006 7.18134015e-006 7.40275891e-006 1.53161127e-005
      8.42201553e-006 1.08342701e-005 -3.93539667e-005 -1.16204819e-005
      3.38390623e-006 1.03338812e-006 2.69074862e-005 1.54916252e-005
      2.84657290e-005 -2.26777847e-005 -1.71528955e-005 3.95097368e-006
      -6.27705049e-007 2.96927738e-005 3.15449433e-005 2.26420398e-005
      2.10935445e-006 1.77244897e-006 5.84446582e-007 7.24079146e-005
      4.43838580e-005 1.58642160e-005 -6.00868816e-007 4.83137819e-006
      3.08115705e-005 1.07987689e-005 6.99056955e-006 1.46237111e-008
      1.80052175e-005 2.78123684e-006 6.96371580e-006 3.19110791e-006
      7.77288335e-007 6.85281248e-006 1.48819117e-005 4.43914432e-005
      -8.14850646e-005 5.65261471e-005 -3.83748520e-005 7.47676313e-005
      -1.75168032e-006 -1.05868894e-005 -2.13455260e-005 8.65391194e-005
      6.30845752e-005 1.32017394e-005 5.69274607e-006 7.07883446e-005
      3.22226538e-006 5.39477805e-005 2.91954057e-005 -1.05224753e-005
      -2.15569307e-005 4.99083872e-005 6.70104419e-005 4.23155216e-005
      4.13705166e-005 8.62512097e-005 -1.65641165e-006 8.21427311e-005
      -7.51290063e-005 2.98681171e-005 -3.71187198e-005 -1.84215914e-005
      9.07558351e-005 1.21274112e-004 1.21256468e-004 -8.83510438e-005
      7.51201296e-005 5.97737835e-006 3.84595951e-005 4.05186584e-005
      -1.78555798e-004 1.04466098e-005 3.27328394e-006 6.03312446e-006
      1.38607056e-005 3.84352597e-006 -1.81035321e-005 -5.56776149e-006
      1.21680687e-005 -4.41947441e-006 -5.61227216e-006 6.17968180e-006
      -1.67321832e-005 2.12964660e-005 -9.23600965e-006 7.39242887e-006
      -3.79694247e-005 -8.34491875e-005 -5.89033662e-005 3.77170581e-005
      -8.98015696e-006 9.90378521e-006 4.56087218e-006 4.75306733e-005
      2.02742649e-005 -3.59562291e-005 8.30290810e-006 5.26533131e-006
      1.94062409e-006 -1.68831666e-005 -9.95495066e-006 -3.34925317e-005
      -2.85856208e-006 1.25810984e-005 7.28063151e-006 -8.47586580e-006
      1.94733020e-005 3.35177901e-006 -1.49743191e-005 -3.01027967e-006
      -8.48152339e-008 1.60986588e-006 4.50337648e-005 3.56901000e-005
      1.88090162e-005 2.57539773e-006 2.38963867e-006 2.63161819e-005
      1.92412081e-005 7.67780148e-006 1.10614246e-006 1.70554704e-005
      5.34634864e-006 1.34402735e-005 2.82380438e-006 1.52600705e-006
      6.98083738e-007 1.37859352e-005 7.54186185e-005 -1.24122191e-004
      -6.55014519e-005 1.24735379e-004 3.85584171e-005 8.94591431e-005
      6.98579897e-005 4.37168310e-005 -5.76255698e-005 6.38551282e-005
      3.43346728e-005 6.38998608e-005 2.07230260e-005 3.05619724e-005
      1.43890866e-005 7.54051653e-005 7.23981202e-006 4.98480840e-005
      1.09313427e-004 -1.04836196e-004 1.24184240e-004 9.88659085e-005
      1.25437058e-004 -1.44956153e-004 1.07668828e-004 8.07727338e-006
      -3.99940400e-005 9.17139769e-005 7.29282474e-005 1.32761241e-004
      1.07952052e-004 9.35818207e-006 -4.78935799e-005 6.77309581e-005
      -1.76047997e-005 6.55766416e-005 7.35055728e-005 -2.00160488e-004
      -1.20234893e-006 1.46320990e-005 1.14422464e-005 1.66938553e-005
      1.28051279e-005 5.67883490e-006 -4.68349899e-005 8.95355788e-006
      1.66297741e-005 -1.15249713e-005 -2.89443906e-005 -2.42220740e-005
      2.68273197e-005 1.47676228e-005 7.16942168e-006 1.32016039e-005
      7.13399686e-007 -2.02810334e-004 -4.35674701e-005 -5.58701140e-006
      5.12313318e-006 7.74572254e-006 2.44229104e-005 1.58979037e-005
      2.77783693e-006 8.86944235e-006 -1.28171023e-005 1.18205583e-006
      9.32212788e-006 6.58629506e-006 -1.07082078e-005 7.00086048e-006
      6.32187493e-007 6.43461408e-006 1.01100140e-005 2.77523595e-005
      4.41653447e-006 1.97810732e-005 7.17394732e-006 -5.77539458e-006
      1.03304228e-006 6.23676679e-005 1.44561682e-005 1.35912896e-005
      4.88612068e-006 5.77292485e-006 2.10244434e-005 1.52397315e-005
      4.25557346e-006 1.10133817e-006 1.95883022e-005 6.59155830e-006
      7.77982859e-006 8.77063428e-007 1.25925612e-006 1.07273599e-005
      6.55429585e-006 8.23049268e-005 2.02992029e-004 1.13183953e-004
      5.94057747e-005 3.45718981e-005 -9.04918707e-005 1.68048806e-004
      3.74520059e-005 2.76805240e-005 1.02788450e-004 9.27220899e-005
      1.14481343e-004 1.76541522e-004 5.64991678e-005 2.44205039e-005
      1.25566148e-004 -2.62581998e-005 4.31700719e-005 -1.78737064e-005
      1.41436991e-004 7.31805339e-005 4.90117927e-005 5.13559717e-005
      -5.03818228e-005 1.62212382e-004 -5.70825905e-005 2.19560370e-005
      1.04273728e-004 8.65159964e-005 8.34703897e-005 -2.52640148e-005
      -4.05277897e-005 6.05201967e-005 1.30610919e-004 2.40958184e-006
      3.95766183e-005 7.42253178e-005 -2.91401637e-004 4.30738237e-006
      -3.75158561e-005 -6.73064133e-005 1.39229242e-005 1.61769299e-006
      7.29279827e-006 6.50842321e-006 7.28450777e-006 -4.68357903e-005
      -1.83372631e-005 1.33321682e-005 -8.54543487e-006 1.20896439e-005
      -2.62914091e-005 7.80322353e-006 2.86074210e-005 1.02701176e-006
      2.14953143e-005 1.75829409e-005 7.62709169e-006 5.26703889e-006
      1.29151585e-005 2.81899520e-005 2.47264088e-005 2.80349796e-005
      -3.06524316e-006 -3.60996779e-007 1.59906079e-007 2.16630033e-005
      -1.70071999e-005 -4.67087266e-005 -5.28660239e-005 4.29135798e-006
      7.06184483e-006 3.02300555e-006 3.16387450e-005 2.62645244e-005
      1.76196445e-005 1.01001688e-005 -1.80062034e-006 1.37115990e-006
      4.77888861e-005 1.73776680e-005 1.16199280e-005 6.27947747e-006
      3.63117374e-006 2.92235054e-005 9.98100768e-006 -7.26863755e-006
      8.92762273e-007 8.16212287e-006 6.26368592e-006 9.40469636e-006
      2.62569597e-006 3.77644341e-007 -1.70382634e-006 1.01433079e-005
      9.04180779e-005 -6.27721383e-005 7.25340869e-005 -1.15938397e-004
      -5.74586238e-006 1.80905772e-004 6.52199669e-005 9.08406946e-005
      1.12625676e-004 1.66377009e-004 1.05108877e-004 4.19877069e-005
      -5.97061226e-005 4.50587941e-005 9.04394910e-005 1.32795874e-004
      1.01007172e-004 -1.05918116e-004 1.83881362e-004 1.52716384e-004
      7.20440948e-005 -9.25462809e-005 2.63653601e-005 1.17490228e-004
      5.19367495e-006 1.02316779e-004 6.08917471e-005 7.61182237e-005
      1.98068283e-005 8.63854730e-005 1.89284983e-005 -2.39570527e-005
      3.21343949e-004 8.96089914e-005 1.40313146e-004 5.20883332e-005
      6.15340323e-005 -1.95792250e-004 5.33712773e-006 -1.45160157e-005
      -3.04131459e-006 -1.29831290e-006 4.72809143e-006 9.48604247e-006
      -8.71856391e-005 8.49548815e-006 -1.66164755e-005 4.70897430e-006
      -3.16183673e-006 -1.03688282e-004 -8.49568823e-006
      -9.09638129e-006 1.39005078e-005 4.36626493e-007 -2.24960058e-006
      -8.99191127e-006 -4.71803723e-005 -1.17671398e-005
      -4.45398382e-006 1.33787144e-005 2.48189408e-005 2.21871724e-005
      1.34737747e-005 8.28818827e-007 3.57856743e-006 1.32622267e-006
      1.72963810e-005 -1.78726407e-006 3.64161860e-005 2.85545284e-005
      7.86661076e-006 -6.06946605e-006 -7.36209176e-006 2.44455878e-005
      1.16154752e-005 2.42734641e-005 5.09268784e-006 2.86404520e-006
      8.49654384e-007 6.46329572e-005 8.14014129e-007 5.52076108e-006
      1.15402088e-006 1.18146784e-006 3.47072310e-005 1.54027057e-005
      -1.18571549e-007 6.73956038e-007 1.25422348e-005 6.07662423e-006
      1.13808801e-005 3.11726649e-006 5.73756779e-007 9.78470507e-006
      1.25464558e-005 6.68038701e-005 -2.37320070e-004 3.16163714e-005
      9.09594564e-006 3.68825495e-005 1.08879882e-004 1.15460731e-004
      4.44878833e-006 6.97186188e-005 3.27352202e-004 1.72873861e-005
      5.78487925e-005 -2.27200930e-004 -1.36549315e-005 2.41975169e-004
      9.58880555e-005 8.64066023e-005 -1.15685667e-004 -8.60113214e-005
      -2.40462439e-004 5.40733563e-005 2.42946571e-005 6.75741030e-005
      1.07099280e-004 1.28787797e-004 1.24629398e-004 4.49443032e-005
      3.65626765e-004 -1.61463642e-004 -1.55571892e-004 -1.91338077e-005
      -1.39437025e-005 1.88418839e-004 6.17106271e-005 -1.55452872e-005
      -9.11104798e-005 -4.07066509e-005 -2.89782365e-005 1.42222079e-005
      -1.27096682e-005 7.33686647e-006 -1.43430052e-005 -1.71988704e-005
      -6.40834457e-007 -4.43906465e-005 1.56511760e-005 2.50103440e-005
      -1.35568257e-007 1.42488088e-005 -7.87958197e-005 -1.86354009e-005
      -1.94469940e-005 6.51078972e-006 1.43442767e-005 -6.00611529e-005
      -2.04630051e-004 -1.66463487e-005 2.67565792e-006 6.81921347e-006
      2.08474303e-005 2.44052826e-005 2.35644075e-005 -1.14960412e-005
      -8.48049058e-006 2.97627821e-006 6.06686513e-007 1.80783863e-005
      7.94299558e-006 -1.53003330e-005 -4.11532237e-005 -7.01375166e-006
      5.72532326e-006 2.08570555e-006 2.50136727e-005 1.64293433e-005
      -2.56781323e-006 4.68926464e-006 4.71785552e-006 2.00345440e-007
      8.38096021e-005 3.76670250e-005 1.77818274e-005 3.15273542e-006
      6.04447996e-006 3.63088839e-005 1.47095971e-005 1.03440152e-005
      1.20388859e-006 1.55908983e-005 6.45095042e-006 8.88952218e-006
      -8.33660522e-007 4.68480920e-007 8.55989947e-006 1.11656773e-005
      7.72081185e-005 -4.88438309e-005 -1.17397060e-004 -1.71685533e-004
      -4.33536952e-005 -9.90575209e-005 -7.53908607e-005 9.39345773e-005
      -2.94189249e-006 -1.12322687e-006 -7.72917483e-005
      -3.21222935e-004 -8.92515382e-005 -1.38222807e-004
      -2.89134448e-004 1.50013821e-005 -7.98148103e-005 -1.40878010e-005
      -4.62476564e-005 8.49350727e-006 -1.58799128e-004 -3.13496741e-004
      3.53888390e-005 1.81404277e-004 1.46132690e-004 1.96791643e-005
      -8.14500454e-005 -5.38974593e-004 -7.53615823e-005
      -2.77401676e-004 -2.97340681e-004 -1.16378033e-004
      -9.38251032e-005 1.09063571e-004 3.92076208e-006 4.74845838e-005
      -1.52834094e-004 2.85567105e-004 1.50191581e-005 -4.45782462e-005
      -3.27057023e-005 -1.26042549e-004 -9.24710366e-006 2.38237099e-005
      -2.15404816e-005 1.95182056e-005 -8.54378413e-006 -9.02294005e-007
      -3.56407763e-005 -3.04665118e-005 -1.60978379e-005
      -4.87192392e-006 1.54792342e-005 1.21887906e-005 1.04478340e-005
      4.17138181e-005 -4.54965084e-005 5.21953325e-007 3.00898432e-006
      1.43347816e-005 1.97232348e-005 1.87924325e-005 1.57792329e-005
      -1.79770041e-006 3.22432834e-006 5.81062693e-007 1.94873319e-005
      1.24976823e-005 -3.27172340e-004 -1.11740037e-005 -8.55703036e-007
      -8.18748867e-006 -2.46764694e-006 1.75569094e-005 2.31767262e-005
      -5.26648219e-005 3.00619513e-006 2.55648251e-006 5.19599723e-007
      6.48077475e-005 1.84534802e-005 2.41722455e-006 5.05434946e-006
      2.89195555e-006 2.18953955e-005 1.03166603e-005 6.45690261e-006
      1.52810017e-007 1.03990396e-005 5.13905752e-006 5.72486499e-007
      8.55510848e-007 1.48158335e-006 6.58041427e-006 3.42367139e-006
      4.10303292e-005 5.57916683e-005 1.30399312e-005 -5.83008623e-005
      -2.89262734e-005 -1.59600786e-005 1.00560457e-004 -3.31534102e-005
      9.59629688e-005 -2.51255242e-005 -3.57521048e-006 2.66273241e-006
      -2.52228347e-005 4.89952690e-005 -6.25918210e-006 4.02254263e-005
      -4.81980096e-005 -9.29972448e-005 -4.78285838e-005
      -8.87080823e-005 -2.56883341e-005 -3.22259693e-005 7.83009455e-005
      -1.23138307e-004 4.52924578e-005 -7.25356149e-005 3.24169014e-005
      -9.32812836e-005 7.30859174e-005 -5.60832559e-005 -1.13690745e-004
      3.12143493e-005 1.96216970e-005 1.11853442e-005 -1.57254617e-005
      -2.09503778e-004 4.02409605e-005 -1.59557821e-004 -3.26908012e-005
      -9.20223647e-006 -2.32317652e-005 -6.64253412e-006 1.64645462e-005
      -1.05441704e-005 6.15211206e-008 1.16474484e-005 -3.21930784e-005
      -2.81986431e-005 2.79583332e-006 4.45819242e-005 -3.04726727e-005
      -3.48190370e-005 -8.33401464e-006 -3.12165539e-005
      -5.23345880e-005 -1.00209778e-004 6.12235090e-006 -2.60532374e-006
      -7.83105497e-006 1.98576181e-005 2.03927884e-005 2.78140433e-005
      -1.85567023e-005 -8.81821870e-006 2.44422813e-006 1.29807700e-006
      1.97932641e-005 1.52639204e-005 -1.43067764e-005 -3.43916327e-005
      3.05648598e-007 8.53617894e-006 -7.95486130e-007 2.32039929e-005
      1.81524920e-005 1.31569941e-005 -2.54931956e-006 -1.72040939e-006
      1.18861465e-006 1.35521157e-004 2.77587533e-005 1.51766308e-005
      2.51216716e-006 4.30195860e-006 4.66925085e-005 1.96474284e-005
      2.75162938e-006 9.60769171e-007 2.90146818e-005 5.99354962e-006
      7.02927991e-006 4.61168838e-006 1.71441366e-006 3.24860252e-006
      1.24370308e-005 7.87688841e-005 -8.28453267e-005 -8.50798242e-005
      3.45248700e-005 1.43060943e-005 1.82519085e-004 1.21068870e-005
      -5.24168208e-005 -2.04572425e-004 -1.09430221e-004
      -4.90063599e-007 -1.33865215e-005 1.03599625e-004 7.20776152e-005
      1.82641845e-004 -5.52883321e-005 8.00839480e-005 7.79572656e-005
      -2.92588138e-005 -1.23698061e-004 -2.35416432e-004
      -5.54701473e-005 1.83498181e-004 1.24050988e-004 -2.41195667e-005
      -2.54121289e-004 -1.71413107e-004 -1.09175387e-004
      -1.12022361e-004 -1.34219692e-004 4.74909466e-005 1.70177344e-004
      7.69244944e-005 -5.43228180e-006 -1.04914674e-004 -7.47975137e-005
      4.46707054e-005 -2.41365851e-004 1.08068780e-005 1.12275520e-005
      1.74654833e-005 1.50452597e-005 -1.83905449e-005 -3.59276746e-005
      2.15023956e-005 -1.05783502e-005 -3.13390192e-005 -8.25483949e-005
      1.43594325e-005 2.06012719e-005 7.09729329e-006 3.58917553e-008
      -5.59648652e-005 -3.60628437e-005 -8.24121671e-005
      -1.32584100e-004 -1.59078700e-005 2.23413681e-005 8.73501176e-006
      2.42621736e-005 2.42539681e-005 1.53556248e-005 -4.51748929e-005
      -1.21642779e-006 5.60169156e-006 1.00712555e-006 2.06277873e-005
      2.43241484e-005 4.08713713e-005 -2.24509731e-005 6.27633153e-006
      3.00348631e-007 1.06846364e-005 2.41974740e-005 2.57137071e-005
      2.15639157e-005 7.18430897e-007 1.80544521e-006 9.31429895e-007
      8.43889065e-005 3.84003361e-005 1.12434764e-005 2.04084540e-006
      6.87128886e-006 6.43868843e-005 1.85825320e-005 5.93950790e-006
      1.06764446e-006 1.84468554e-005 1.38222333e-006 1.25642337e-005
      4.26172210e-006 1.63484106e-006 5.95213896e-006 1.22810270e-005
      1.24766069e-004 -2.72451653e-005 -4.04592429e-005 1.40582430e-004
      1.26392624e-004 9.80119221e-005 -1.34640334e-006 -7.76224333e-005
      9.69420144e-005 9.92052883e-005 7.42316797e-006 8.64260292e-005
      1.54675334e-004 -4.90572602e-005 -7.26287981e-005 9.90174740e-005
      -2.96887574e-005 1.33957481e-004 2.15708482e-004 -3.33303069e-005
      -4.99334965e-006 6.45562759e-005 7.19111631e-005 1.99586393e-005
      -1.36629187e-005 3.57198332e-005 6.80684752e-005 5.12387269e-005
      1.38294490e-005 1.11306239e-004 1.90374165e-004 7.70148181e-005
      7.26482131e-006 -1.26997606e-004 -2.30048554e-005 1.16785479e-004
      1.56684226e-004 1.19459237e-005 3.04429705e-006 1.53111559e-005
      7.54606435e-006 2.20697148e-005 -2.76461760e-005 3.92802303e-006
      2.44973362e-005 6.45699583e-006 -1.49596570e-004 -1.12717695e-004
      9.66473635e-006 1.83307675e-005 3.76355529e-005 -3.21954940e-005
      -1.90024039e-005 -1.88549951e-004 -4.15491886e-005 5.40616347e-005
