<?xml version="1.0"?>
<opencv_storage>
<opencv_ml_svm>
  <format>3</format>
  <svmType>C_SVC</svmType>
  <kernel>
    <type>LINEAR</type></kernel>
  <C>5.9999999999999998e-001</C>
  <term_criteria><iterations>1000000000</iterations></term_criteria>
  <var_count>4608</var_count>
  <class_count>2</class_count>
  <class_labels type_id="opencv-matrix">
    <rows>2</rows>
    <cols>1</cols>
    <dt>i</dt>
    <data>
      -1082130432 1065353216</data></class_labels>
  <sv_total>1</sv_total>
  <support_vectors>
    <_>
      2.97438208e-004 9.76229087e-004 2.89506046e-004 2.73816899e-004
      2.23434428e-004 -3.63547064e-004 -1.29933163e-004 1.93283166e-004
      5.83526853e-004 6.00976637e-004 6.15451427e-004 1.54579611e-004
      -1.17793184e-004 -2.40273177e-004 2.25251613e-004 -4.96850116e-005
      -1.90702398e-004 -3.82331746e-005 -9.60038305e-005 5.53490245e-004
      1.05226261e-003 1.27850290e-004 -2.71173194e-004 -1.54250029e-005
      1.00216467e-003 -2.07733930e-004 -7.17135728e-004 -2.96405167e-004
      -7.45997590e-004 5.22938673e-004 -1.81277064e-004 -2.09084610e-004
      7.08058709e-004 6.08378439e-004 -2.93073215e-004 -2.36516556e-004
      -8.17104374e-005 4.28176951e-004 1.88967446e-004 1.34304298e-006
      -5.94089448e-004 7.79259426e-006 1.90421095e-004 1.50882508e-004
      1.31095367e-004 -2.35705113e-004 1.93347878e-004 6.89153734e-004
      5.83355257e-004 -4.49203508e-004 2.54555693e-004 5.84511610e-004
      4.01638681e-004 -2.03279385e-004 -2.62331159e-004 -2.24429838e-004
      -2.63257505e-004 -2.69956596e-004 2.83132686e-004 5.54971339e-004
      9.18771198e-004 4.29429434e-004 6.12493313e-004 -6.07397757e-004
      3.99065320e-004 -1.15769835e-004 -4.89025842e-004 -1.46029895e-004
      1.80374351e-004 1.68085890e-003 2.08794649e-004 1.02271188e-004
      -9.85364240e-005 3.22779902e-004 5.29170386e-004 6.60955207e-004
      3.77748831e-004 2.72799167e-004 3.56575707e-004 1.99060902e-004
      -4.76594323e-005 -5.62720699e-004 1.76477508e-004 6.20616192e-004
      -4.34534486e-005 -2.06178884e-005 6.59720215e-004 1.25038612e-003
      6.62767328e-004 -7.60751951e-004 1.21863537e-004 2.05285105e-004
      1.14849041e-004 2.45247957e-005 -3.97945871e-004 1.13196584e-004
      2.61506648e-004 7.09755812e-004 3.74330324e-004 8.20732210e-004
      -7.17672170e-004 4.14920243e-004 -9.75571820e-005 -3.56971781e-004
      5.07137796e-004 3.72602197e-004 1.71987675e-004 -2.03388190e-004
      -1.72681146e-004 1.57779155e-004 4.33306792e-004 8.11872247e-004
      -1.30070985e-004 8.62306391e-004 6.39579608e-004 2.48431345e-004
      2.67197294e-007 5.30067424e-004 -3.71733564e-004 3.37768113e-004
      5.87894931e-004 -5.28935750e-004 5.34010294e-004 3.96710093e-004
      1.72040949e-004 -4.39340190e-004 -3.43835243e-004 4.77841022e-005
      1.67263293e-004 -8.96637444e-004 -5.45514922e-004 2.09673861e-004
      2.14296015e-004 5.16290835e-004 1.85547615e-004 1.43144483e-004
      9.83585487e-004 1.07072083e-004 -2.44574359e-004 -3.23757908e-004
      -8.19808396e-004 -1.47078361e-004 -3.89418768e-004
      -2.26227217e-004 1.97950998e-004 2.96994258e-004 4.34298636e-005
      5.89395990e-004 -1.59089119e-004 7.60719122e-004 9.04407061e-004
      3.87785549e-004 -3.07240203e-004 3.49495327e-004 3.05819529e-004
      -1.53719448e-004 3.59800797e-005 1.11785252e-004 1.79561262e-004
      7.90833670e-004 6.23483444e-004 2.35196785e-004 -5.74440171e-004
      3.38883983e-004 4.05559083e-004 4.01508296e-004 6.33815129e-004
      3.85756139e-005 3.72537063e-004 -1.37862735e-004 -1.29523731e-004
      -7.76510060e-005 -6.69511719e-005 5.21878028e-005 3.49798240e-004
      -4.71429346e-004 -7.76588568e-004 -1.51304688e-004 2.59855646e-004
      -5.09074831e-004 -3.31553601e-004 7.78666639e-004 7.18780502e-004
      -1.97271074e-004 -3.27732123e-004 9.38692392e-005 2.70334305e-004
      3.94997332e-004 5.69193449e-004 5.54123253e-004 9.57182347e-005
      4.79224487e-004 3.13940225e-004 -7.03332626e-006 -1.34972652e-004
      1.25984283e-004 8.26957912e-005 4.54149522e-005 -2.53945560e-004
      3.39008868e-004 4.44636709e-004 -5.99852239e-004 -2.74776627e-004
      -1.60368218e-004 -1.89534214e-004 -2.41949441e-004 3.20897758e-004
      6.80983765e-004 5.84552065e-004 8.43796879e-004 7.45294747e-005
      4.56330425e-004 -3.26137524e-004 4.84027027e-004 1.40408942e-004
      1.32781977e-004 1.49279542e-004 2.09070538e-004 3.90403293e-004
      2.57629930e-004 -1.47886763e-004 -2.04909011e-004 5.10245387e-004
      2.36788241e-004 -7.16263894e-004 3.27734364e-004 -2.20460148e-004
      3.14007251e-004 4.89076832e-004 5.96021309e-005 3.32160940e-004
      5.54568367e-004 -1.46287523e-004 -4.62362077e-004 1.64197845e-004
      5.27384167e-004 8.81991291e-004 -2.42869399e-004 -4.88343183e-004
      -1.67913240e-004 8.42527719e-004 2.52551079e-004 -1.27764943e-004
      -5.44477080e-004 -2.54266633e-004 2.34565319e-004 2.06092562e-004
      -2.23587103e-005 -7.57086236e-005 5.69642114e-004 3.43614927e-004
      4.76752961e-004 -6.33808202e-004 7.91410392e-004 4.28131490e-004
      -1.96549649e-004 -5.17799461e-004 5.15264575e-004 -1.90231401e-006
      1.62582131e-004 -6.18582184e-004 1.15681316e-004 3.78103665e-004
      4.19319811e-004 -2.33337792e-004 4.41318145e-004 -8.99114457e-006
      1.96465073e-004 4.06569947e-004 2.80802906e-005 -1.20331548e-004
      2.51472193e-006 6.87139109e-005 9.21894098e-004 -2.32475039e-004
      -2.84957001e-004 -2.77117884e-004 5.36396401e-004 2.41203859e-004
      4.96980152e-004 -1.22290774e-004 3.77033517e-004 9.65165789e-004
      2.70568271e-005 -1.29613720e-004 4.26908140e-004 8.70828750e-004
      -2.55714724e-004 -4.36612783e-004 5.09924779e-004 2.95821024e-004
      1.91842890e-004 2.14338390e-004 -3.19550250e-004 8.27535870e-004
      4.97272355e-004 -4.76635090e-004 -6.82161306e-004 -2.53503695e-005
      -2.33198560e-004 -3.29103175e-004 1.96228546e-004 -2.16288216e-004
      2.24450923e-004 6.70316513e-004 2.59745109e-004 -5.94409939e-004
      1.47266619e-005 3.37951060e-004 9.72056761e-004 6.54703414e-004
      -3.59569298e-004 1.30429587e-004 -2.79438187e-004 -1.13209244e-004
      8.77130660e-005 -2.61083129e-004 4.41357581e-004 5.41223155e-004
      3.35231598e-004 -4.77379945e-004 -4.48822277e-004 3.67383094e-004
      -4.28929081e-004 -5.63998066e-004 -6.14683260e-004
      -4.54202003e-004 -4.60326322e-004 -2.08731712e-004 2.32594859e-004
      3.17944301e-004 5.24306262e-004 6.05010428e-004 5.97052043e-004
      -4.00526595e-004 1.33825713e-004 -6.82044949e-004 4.98069567e-004
      -4.66458092e-004 -7.15810456e-005 -3.55347205e-004 2.72482634e-004
      -8.20694622e-005 -4.53311543e-004 -4.16544179e-004 5.78190782e-004
      5.87548238e-005 2.38191831e-004 3.95038893e-004 8.38563137e-004
      -2.68108241e-004 7.37901253e-004 -1.83460361e-004 -9.36278433e-004
      1.72129410e-004 4.98877605e-004 6.26247900e-004 4.33193840e-004
      6.11533411e-004 -1.58464652e-004 -7.25672522e-004 4.53226297e-004
      -6.18456630e-004 2.28811223e-005 7.05527375e-004 -3.70629830e-004
      -2.21405004e-004 4.19614735e-005 3.21904750e-004 -6.55435259e-004
      2.52721336e-004 7.18823285e-005 -4.30660933e-004 -5.54107362e-004
      -7.88686040e-004 -4.71930311e-004 5.22090239e-004 7.79344642e-004
      1.68999919e-004 -2.78705615e-004 3.47398542e-004 5.24421848e-005
      -9.69685061e-005 -3.50867893e-004 -9.53866576e-004
      -2.12482264e-004 -3.37701895e-005 3.41505918e-004 -7.44895136e-004
      -1.06787826e-004 -5.56784158e-004 -1.77598587e-004
      -2.88753712e-004 2.61334411e-004 2.29632409e-004 1.94946915e-004
      -9.08082075e-006 -2.43498769e-004 -9.62058839e-004
      -1.27183937e-003 1.43365032e-004 -3.72623443e-004 4.00695972e-005
      4.43980040e-004 -1.54970883e-004 -7.82057468e-005 -3.15869547e-005
      -2.92679557e-004 -6.44559157e-004 1.70348692e-004 -6.00130879e-004
      -2.69348035e-004 8.91629315e-004 -1.04520012e-004 1.61531963e-004
      -5.27678640e-004 -2.98690284e-004 -1.52781198e-004 2.63722559e-005
      -6.38930884e-004 -3.95133888e-004 6.46520755e-004 -2.79555155e-004
      2.65707877e-005 -6.51066512e-005 9.17127545e-005 -6.58052042e-004
      3.63558356e-004 -4.72737651e-004 -7.25106511e-004 4.76240413e-004
      -5.97680744e-004 3.31941643e-004 4.15019720e-004 2.13462379e-004
      -8.75249156e-004 -4.48040773e-005 6.97430733e-005 -7.36968650e-005
      3.97108583e-004 6.33827178e-004 1.18236996e-004 5.37962653e-004
      -1.08633583e-004 -2.27527169e-004 -5.14032086e-004
      -4.92647057e-004 4.17116098e-004 6.80923753e-004 1.98235357e-004
      3.83516890e-004 -1.53755143e-004 -6.09238487e-005 -4.13092668e-004
      -2.24417920e-004 -1.45087397e-004 -7.90754973e-004 6.19976490e-004
      -1.44792750e-004 -4.15891380e-004 -3.32147029e-004
      -2.51571437e-005 3.59142614e-005 -2.97483202e-004 5.62147252e-005
      -5.24445386e-005 6.09858951e-004 -2.24140167e-004 -1.45646234e-004
      3.31549702e-004 2.41351343e-004 -5.48400858e-004 2.89181335e-004
      -2.86585011e-004 -2.60707340e-004 -8.69852447e-005
      -4.32418368e-004 5.00441354e-004 4.63771896e-004 8.19799388e-005
      -2.53276958e-004 -1.00127689e-003 3.62410210e-004 4.75138164e-004
      6.63936662e-004 -2.84770824e-004 -6.37537567e-004 -4.65047255e-004
      3.05094552e-004 -6.56127348e-004 -6.70238151e-005 1.31392779e-004
      -4.63976176e-004 -2.83310481e-004 -1.19841090e-004
      -4.40641998e-005 -5.73056925e-004 -1.60149662e-004
      -2.23532275e-004 -9.75318952e-004 -8.35882209e-004
      -1.65017426e-007 -2.13365602e-005 -3.15640122e-004 8.17321765e-004
      7.20232667e-004 -3.31516378e-004 9.60613688e-005 -6.94960763e-004
      -2.63441296e-004 3.56757577e-004 1.31792433e-004 5.43563161e-004
      -8.40371285e-005 4.12901281e-004 7.05367245e-004 3.91513284e-004
      7.29683728e-004 -2.72913108e-004 1.89516388e-004 -1.78676477e-004
      -2.00873154e-004 3.13680473e-004 8.41777510e-005 -2.76759238e-004
      1.43250378e-004 -3.25173751e-004 -6.55980839e-004 -4.28840896e-004
      -1.11962523e-004 -1.58693874e-005 2.07435776e-004 -1.31657915e-004
      -3.72249109e-004 -1.61539152e-004 4.23952588e-004 -4.34665097e-004
      -5.87129558e-004 7.83758442e-005 -1.60483905e-004 3.76158278e-005
      8.81273532e-004 4.04085789e-004 5.71327459e-004 -1.62454642e-004
      -4.32392029e-004 4.02017817e-004 4.36620117e-004 6.74822833e-004
      3.12968274e-004 7.94684107e-004 7.61691073e-004 -3.68180190e-004
      6.34574913e-004 5.07879653e-004 7.52388849e-004 5.91142802e-004
      1.16262777e-006 3.18792765e-004 -3.02566350e-005 3.61520273e-004
      -4.29984444e-004 9.51335733e-006 2.76316510e-004 1.89465951e-004
      -3.24715918e-004 -8.91526288e-004 4.15064889e-004 4.74519293e-005
      3.88565095e-004 5.74767531e-004 -2.79803557e-004 -9.68359178e-004
      3.87534790e-004 6.57136115e-005 -3.30103707e-004 4.62498778e-004
      3.42659390e-004 1.84592529e-004 7.30527798e-004 2.33178536e-004
      -4.01810423e-004 7.38795439e-004 -1.73165041e-004 -2.97371211e-004
      -3.33964883e-004 5.48059586e-004 3.42269399e-004 -2.58431886e-004
      -3.43454682e-004 -5.10110869e-004 7.98131878e-005 4.58032358e-004
      9.10208983e-005 1.66353071e-004 -4.81119700e-004 7.78345508e-004
      5.45321323e-004 -3.02125147e-004 2.01099447e-005 -3.08781819e-005
      -8.59710213e-004 -3.79670702e-004 1.01633416e-003 -5.20168454e-004
      -5.56639512e-004 1.82656368e-004 -1.44195874e-004 4.88862606e-005
      8.85307207e-004 -5.66787028e-004 -1.53725385e-004 6.03375724e-004
      4.02770180e-004 -9.26918219e-005 -1.16634408e-004 1.24401296e-004
      9.27790941e-004 5.39876753e-004 -2.83342379e-004 -9.14053817e-005
      -2.33769213e-004 -1.05449195e-004 -1.27782725e-004
      -1.02653357e-004 2.33350496e-004 3.90667708e-007 -3.20131250e-004
      -5.14312240e-004 3.14006116e-004 6.69835194e-004 3.98642878e-005
      2.14090192e-004 -4.75678797e-004 7.66789435e-006 -5.60758053e-004
      -6.17562153e-004 -5.36086678e-004 -1.04899262e-003 6.15022960e-004
      -1.12219801e-004 -6.56637538e-004 -1.40226373e-004
      -1.40518969e-004 3.06067435e-004 -1.74098765e-004 -4.84417076e-004
      -5.75292390e-004 -1.37903073e-004 4.95377899e-005 1.55905902e-004
      4.87951474e-004 -2.20821137e-004 2.51177029e-004 -5.61962428e-004
      1.98502181e-004 3.86221800e-004 -5.28246106e-004 -2.21017690e-004
      -1.13840401e-003 2.46242926e-005 1.94998443e-004 1.78747025e-004
      7.19106974e-005 -1.79142531e-004 1.00270394e-004 7.02666439e-005
      3.81001271e-004 4.70307481e-004 -1.28423068e-004 3.52035917e-004
      -4.82899020e-004 -8.04898213e-004 -1.12912594e-003
      -4.86430596e-004 -1.41480647e-004 -2.38970388e-004
      -4.36367773e-005 5.04146097e-004 -3.35745397e-004 -2.77977728e-004
      -3.25339730e-004 -1.00478355e-003 -3.68785812e-004 4.97995585e-004
      -5.90738258e-004 1.28208718e-004 3.24970868e-004 -1.17162039e-004
      4.57142509e-004 -7.58249313e-004 -8.55437320e-005 -5.05387317e-004
      3.06877919e-004 -9.35776683e-004 -4.90706356e-004 -1.39667594e-004
      -5.44118637e-004 -1.82491771e-004 -1.28087137e-004 1.56574286e-004
      -5.36228006e-004 -6.49246504e-005 -2.22266317e-004
      -7.99434143e-004 -6.21913874e-004 -3.87683976e-004
      -6.78098178e-004 -2.81361194e-004 -2.63333728e-004
      -3.51646711e-004 -8.69438954e-005 -1.22900901e-003 3.00007523e-004
      -5.72863268e-004 4.36601316e-004 -8.56699247e-004 -3.70534166e-004
      -1.15187524e-003 -3.57604556e-004 -2.26403004e-004
      -6.56417164e-004 -1.07393553e-003 1.96377179e-004 8.16526790e-006
      -1.69235151e-004 -2.50212819e-004 -2.17141700e-004
      -2.60103352e-005 -5.38870168e-004 -7.00252189e-004
      -5.58807922e-004 -8.78212217e-004 1.59543313e-004 4.31187800e-004
      1.05921914e-004 1.39434254e-004 4.58682596e-004 -1.32926041e-004
      -4.26428305e-004 -7.52711203e-004 -6.56101329e-005 3.02194152e-004
      -6.39179081e-004 1.91874700e-004 -5.52487851e-004 -5.38050546e-004
      -6.97751875e-006 -8.51422665e-004 -3.07520066e-004
      -4.62208671e-004 -3.59385915e-004 -2.62348301e-004
      -8.23709823e-004 4.67025457e-005 -7.54932398e-006 5.95812453e-004
      4.15702350e-004 -5.81290922e-004 -6.61189435e-004 -6.58322999e-004
      1.70572588e-004 -2.56370084e-004 -3.33122967e-004 6.23297092e-006
      1.62863871e-004 -5.05172415e-004 -1.01848949e-004 5.84924346e-005
      3.89453053e-004 3.51779920e-004 -5.20510439e-005 -2.40399444e-004
      2.30236343e-004 -8.10056925e-004 -2.92600278e-004 -1.23915996e-003
      -1.21206533e-004 3.94066912e-004 -5.93237637e-004 3.72908718e-004
      3.26300033e-005 -3.95542069e-004 -4.11775371e-004 -7.46048696e-004
      -8.87668284e-004 -3.57749173e-004 7.01208890e-004 7.26725775e-005
      2.27779878e-004 -2.21580449e-005 3.23764747e-004 -5.77173196e-004
      -1.04909894e-004 4.86459699e-004 8.85675690e-005 -1.34548332e-004
      -1.87430531e-004 1.30815301e-004 -1.18239048e-004 -4.44105972e-004
      -5.33860992e-004 -1.17988640e-003 2.75757164e-004 8.11442151e-004
      -1.70600353e-004 -6.35094475e-004 -4.32601628e-005 8.92404787e-005
      -2.29552985e-004 -6.28432143e-004 9.95525897e-006 -4.13595611e-004
      1.49987027e-004 5.69825701e-004 -5.00717084e-004 1.77219219e-004
      7.56564841e-004 -6.77299919e-004 5.18247507e-005 1.92650565e-004
      5.98031074e-005 -1.42257850e-004 -4.51635919e-004 -4.20046272e-004
      -4.85414901e-004 3.48039699e-004 -1.93522996e-004 3.50473914e-004
      -6.49254187e-004 -1.33442765e-004 -4.63079050e-004 9.32044233e-004
      4.81815863e-004 8.46946612e-004 2.60185770e-004 -2.98280997e-004
      1.32544737e-004 5.65500522e-004 4.22042533e-004 7.55245856e-004
      6.66460837e-004 5.18251210e-004 3.11421725e-004 -6.80253943e-005
      -2.13545296e-004 6.82594487e-004 -5.47276170e-004 3.84621671e-005
      -4.40346594e-005 1.74253528e-005 -7.01346027e-004 1.29936598e-004
      -3.32606345e-004 1.19879223e-004 2.30935024e-004 -7.55055371e-005
      -5.45606134e-004 -3.72973736e-004 1.03277576e-004 5.13648265e-004
      1.47337106e-003 4.01089404e-004 4.48017265e-004 4.33531764e-004
      6.66653330e-004 7.93103027e-005 3.24084162e-004 -1.72742584e-004
      -2.36760789e-005 5.55363193e-004 -5.87980794e-005 -3.00761487e-004
      -1.88593462e-004 1.66292419e-004 -1.07116683e-003 -7.95184460e-004
      3.14818055e-004 3.39649909e-004 -3.49139096e-004 -3.02981527e-004
      2.73428159e-004 4.75138222e-004 -9.23500047e-005 8.80084874e-004
      -5.93908655e-004 3.90853311e-005 6.69872970e-004 8.16370768e-004
      -1.20946708e-004 4.11014014e-004 -1.41118790e-005 -5.79090789e-004
      -1.28541767e-004 -7.79361144e-005 -2.97031193e-006 2.47572869e-004
      1.87326921e-004 4.28447820e-004 -2.74905924e-005 -1.42078599e-004
      1.02719896e-004 -2.12484461e-004 -5.99099876e-005 2.82634748e-004
      3.75000272e-005 1.93757500e-004 2.84935755e-004 -6.80128403e-004
      -4.97823290e-004 4.68083563e-005 -3.06921684e-005 -2.56341416e-004
      5.44046576e-004 3.01342079e-004 7.20055250e-004 -6.73301925e-004
      3.30931623e-004 4.33765963e-004 -8.15568201e-005 1.03075567e-004
      2.28281249e-004 2.31472062e-004 -3.16147372e-004 -4.60942771e-004
      -4.24819118e-005 2.54082785e-004 1.95518747e-004 -4.31022898e-004
      -9.78374388e-004 1.00935067e-004 6.47444336e-004 -4.56871523e-004
      3.18451930e-004 -5.94442128e-004 1.70938547e-005 -7.52524706e-004
      1.36520233e-004 -2.38029592e-004 -4.92301886e-004 3.65573302e-004
      -1.19021228e-004 4.42069693e-004 -3.61426326e-004 7.48837192e-004
      -6.57946744e-004 -1.88496517e-004 8.53659949e-005 -5.53557475e-004
      1.33229973e-004 -1.70992746e-004 -5.35748433e-004 -5.37114393e-004
      1.94921173e-004 4.54168126e-004 -1.77875045e-004 -5.11879858e-004
      -4.26318526e-004 -4.53493703e-004 -4.63225908e-004 2.60224537e-004
      1.35470807e-004 5.62017842e-004 6.41881023e-004 -3.64069216e-004
      -1.03303399e-004 -8.30867270e-004 3.40859959e-004 -7.44129589e-004
      -5.70835196e-004 -4.34142654e-004 1.03255478e-003 4.02637088e-004
      -1.24800237e-004 -4.13748086e-004 -7.75456865e-005 3.15049052e-004
      -1.01488514e-003 -1.69027524e-004 -6.43391337e-004
      -7.07587111e-004 -2.98229366e-004 -5.86965820e-004
      -4.03199141e-004 -8.58745247e-004 1.19889271e-004 -4.10952780e-004
      -5.51298319e-004 -6.59476384e-004 -4.43241879e-004
      -1.18254597e-004 -2.34977066e-004 -1.59011863e-004
      -3.79688427e-004 3.37414647e-004 -4.74158616e-004 -1.43409590e-004
      -4.81235300e-004 -2.55346786e-005 4.75026318e-004 -3.02343426e-004
      -6.11797732e-004 -2.07019621e-004 1.92896041e-004 -4.37416922e-004
      -4.94455628e-004 -6.22928608e-004 1.47277286e-004 -8.32415884e-004
      -9.80153563e-004 -9.12472082e-004 -1.58299335e-005 6.13301294e-004
      -5.27047494e-004 -3.01857450e-004 -4.70496801e-004 4.73854510e-004
      2.32099643e-004 -3.07882729e-004 -1.45091221e-003 -4.28412677e-005
      6.15675584e-004 -8.35913816e-004 1.28689671e-005 -2.59302149e-004
      -1.01857418e-004 -6.79422692e-006 -9.45501553e-004
      -9.16833698e-004 -3.31876014e-004 2.26258970e-004 6.33394870e-004
      -7.82311021e-004 -8.10038415e-004 -3.23773129e-004 4.84833086e-004
      -1.05899751e-004 1.36774033e-004 -1.23318401e-003 6.81330333e-004
      -6.23946486e-004 1.45534330e-004 -1.74093570e-004 1.79147173e-004
      2.37677828e-004 -4.20007389e-004 -4.42674063e-004 5.28780329e-005
      2.98920902e-004 -6.55696320e-004 -5.04353433e-004 -2.63807306e-004
      -7.43161305e-004 -2.80189182e-004 -6.03966473e-004
      -5.77107072e-004 -4.63071978e-004 -2.01998882e-005
      -6.31847710e-004 -3.76548705e-004 -2.70329561e-004 3.50485527e-004
      7.56657857e-004 -2.28692388e-005 -9.08155562e-005 -1.98059806e-005
      3.05031193e-004 -2.38833716e-004 -7.31495766e-006 -8.50862823e-004
      -9.84855113e-004 2.62945949e-004 -2.07152971e-005 -2.96916434e-004
      -2.51438294e-004 6.00103522e-004 1.89876286e-004 -8.71162629e-005
      5.39064640e-005 -1.87431986e-004 -6.02461259e-005 -4.44104342e-004
      -9.68409877e-004 2.14312895e-004 1.10711429e-004 -4.87470155e-004
      -2.04501979e-004 1.82195348e-004 1.06415316e-003 5.68872667e-004
      -4.71167121e-004 7.82863208e-005 -1.07263360e-004 7.64767989e-004
      -5.75044716e-004 -1.06480460e-004 -3.75611096e-004 9.49694586e-005
      2.63814407e-004 -1.34845643e-004 -1.98701484e-004 -3.03196954e-004
      -2.76762061e-004 -5.93637349e-004 -1.27197441e-003 7.41717013e-005
      -5.33869024e-004 3.74593830e-004 -4.61239659e-004 1.67315651e-004
      -3.57877929e-004 -2.12438244e-004 1.12016678e-004 -5.23562601e-004
      -1.71358581e-004 -2.89472431e-004 -6.59864105e-004 5.67325915e-004
      -5.11799706e-004 -4.72467451e-004 8.89880903e-005 -1.59375704e-004
      1.19753100e-003 1.41559925e-004 1.37914350e-004 5.92152588e-004
      5.16929897e-004 3.77849763e-004 2.87949515e-004 -5.51725272e-004
      6.69459496e-006 5.08718775e-004 1.74393979e-004 2.77668325e-004
      4.01156081e-004 1.14545946e-004 4.03407757e-004 -9.27303103e-004
      -3.46515706e-004 -1.84369957e-004 -3.57908488e-004
      -4.08007938e-004 1.88084756e-004 9.17829806e-004 2.30266101e-004
      1.28929431e-004 4.61789226e-004 2.10316444e-004 -8.72589997e-004
      -8.95415200e-004 2.08300684e-004 -1.96159337e-004 -2.91829463e-004
      -2.79629985e-005 -4.69734106e-004 3.42872518e-004 -9.01100066e-005
      1.58970564e-004 4.30837419e-004 5.04622818e-004 -4.65496501e-004
      -4.57009337e-005 -8.65774782e-005 3.73925213e-005 5.62502071e-004
      -1.75035661e-004 -4.31528752e-004 3.46066110e-004 -4.90988496e-005
      1.23499136e-004 -3.15930374e-004 -3.50461851e-005 4.63136021e-005
      4.29783249e-005 -3.20511317e-004 7.03019759e-006 -7.27466540e-005
      5.95875434e-004 2.33602710e-004 -3.22578446e-004 3.33053584e-004
      5.82423061e-004 -7.35309732e-004 -1.23597711e-005 4.52954875e-004
      1.06139353e-003 8.52599042e-005 4.94629901e-004 -2.82476423e-004
      9.97435200e-005 -7.71604362e-004 -2.40753870e-004 -4.16751682e-005
      7.93668500e-004 4.74576169e-004 -7.88034013e-005 6.76760901e-005
      2.97570863e-004 1.96694004e-004 -1.74198271e-004 6.56956574e-004
      4.23268124e-004 -3.61754704e-004 1.15433126e-004 -2.63579917e-004
      -2.50494195e-004 -4.39749827e-004 -2.27736382e-004 3.36625875e-004
      3.57811165e-004 4.61775853e-005 9.95201481e-005 8.62919260e-004
      7.30173779e-005 3.00316693e-004 3.30511539e-005 -1.77929382e-004
      1.99968927e-004 5.91385993e-004 4.31158463e-004 1.81250027e-004
      3.69817659e-004 9.13790835e-004 4.81299474e-004 5.10232232e-004
      1.32797450e-005 -3.06954025e-004 -2.71659053e-004 3.05731664e-005
      -5.26206393e-004 8.05498712e-005 2.90296477e-004 8.64453847e-004
      -3.67623725e-004 3.53131385e-004 -8.58953688e-004 -4.01882935e-005
      9.08398724e-005 2.44273513e-004 5.51005593e-004 1.70066764e-004
      3.12849646e-004 4.07624469e-007 -3.22758220e-004 1.01462356e-004
      1.12244903e-004 3.55369615e-004 5.39614375e-005 7.47480080e-004
      -6.49350841e-005 2.36400694e-004 1.76517919e-004 -2.31338330e-004
      3.29541081e-006 3.34591808e-004 5.29254845e-004 7.73367574e-005
      -2.83581117e-004 4.60822739e-005 -8.33329686e-005 2.13729454e-005
      -2.46079027e-004 -5.39233151e-004 8.97745122e-005 5.03507268e-004
      -2.97918072e-004 4.63317838e-006 1.08567612e-004 9.16413905e-004
      -2.36208434e-004 -1.31029999e-004 -5.76562539e-004 2.96509737e-004
      3.99201177e-004 -4.86468016e-005 -6.30248105e-004 -4.28408675e-005
      2.50295270e-004 3.36774305e-004 -2.68742064e-004 2.88922922e-004
      4.65016230e-004 8.90605093e-004 -6.86201092e-004 7.10561289e-005
      1.70799132e-004 7.66916783e-004 3.95661657e-004 -7.21106655e-004
      6.76191470e-004 4.24266364e-005 3.86931089e-004 1.05076877e-004
      9.66311854e-005 -6.31744624e-004 -1.49053376e-005 4.28015861e-004
      -4.60659532e-004 -1.02766079e-003 -1.03985425e-003 4.58022318e-004
      -5.22454386e-004 -6.16811507e-004 -8.69689044e-004 3.19003564e-004
      3.11700307e-004 3.39009886e-004 9.92563655e-005 3.02204600e-004
      3.68009962e-004 -1.71502281e-004 -7.66599624e-006 -3.11570446e-004
      1.28941858e-004 3.35948891e-004 2.26832752e-004 -4.23527199e-005
      -1.06558215e-003 -8.80272346e-005 -7.84689677e-004
      -1.21468411e-005 2.03116761e-005 1.27473846e-004 -1.03882929e-004
      6.33475080e-004 4.00380668e-004 2.08611396e-004 2.36101376e-004
      -4.22895711e-004 1.90146471e-004 -3.51753639e-004 7.52662832e-004
      3.32706288e-004 -6.29914575e-005 2.21644641e-005 -8.95012345e-004
      2.18595560e-005 -1.33291993e-004 -1.54202140e-003 -3.40625411e-004
      8.69797601e-004 -5.22608403e-004 3.39385471e-004 -7.88858684e-004
      6.36390876e-004 7.09322805e-004 -8.69297131e-004 -5.35596220e-004
      -6.34609954e-004 4.20367607e-004 4.93544794e-005 -1.46066872e-004
      4.27209307e-004 -3.11542681e-004 -6.60669350e-004 -1.79654453e-004
      7.02217003e-005 4.57371025e-005 -2.22752045e-004 4.99197922e-004
      4.22387267e-004 -5.57861370e-007 2.29951023e-004 6.09807437e-004
      3.88169196e-004 -6.32514362e-004 -2.98963772e-004 -5.00490540e-004
      -2.17133813e-004 -1.40534539e-004 -8.10385623e-004 1.45703481e-004
      1.95039072e-004 4.97628236e-004 -7.80327537e-006 -3.99336684e-004
      -1.38794830e-005 -2.15613996e-004 -7.47408252e-004 7.03690806e-004
      5.00228896e-004 -4.04072314e-004 -3.07943817e-004 -3.52653558e-004
      -5.88133465e-004 -1.72713029e-004 2.65920535e-004 3.19836254e-004
      -5.62214118e-004 -1.06894833e-004 -4.45510930e-004 1.96588750e-004
      -4.57160815e-004 -8.60237284e-004 -5.80931257e-004 7.43785640e-004
      -5.62831410e-004 6.69095898e-005 5.03040537e-005 2.31633108e-004
      -2.14385145e-004 1.78193164e-004 -1.40646924e-004 -4.17127827e-004
      5.93228382e-004 -2.41178757e-004 4.75930108e-004 1.81041949e-004
      -4.42152901e-004 3.86771193e-004 -9.13615746e-004 -1.13929005e-003
      7.71270483e-004 5.90252050e-004 7.69152248e-005 2.03224816e-004
      3.45906883e-004 2.70434160e-004 3.12581426e-004 -3.46893881e-004
      -4.90119783e-005 -9.68305903e-005 -1.33197682e-004 6.19100640e-004
      -1.19925004e-004 -3.30304436e-004 -4.86973586e-004 1.11194560e-004
      3.06225236e-004 -4.61275020e-004 -2.44365627e-004 -6.59127661e-004
      -1.81446827e-004 1.47194645e-004 -4.56511159e-004 -9.86437080e-004
      1.91009545e-004 -1.75318433e-004 -2.67599011e-004 3.72058013e-004
      2.17047826e-004 -4.08192485e-004 -3.66642460e-004 -3.75025265e-004
      -3.52126226e-004 -2.85374670e-004 8.16319953e-004 -1.06013809e-004
      -4.37402887e-005 -4.80307790e-004 1.17247211e-004 5.67484298e-004
      -3.24919791e-004 7.48960383e-006 -7.38962844e-004 4.94566280e-004
      -7.13246933e-004 -3.44699743e-004 -7.40348012e-004
      -4.70373110e-004 6.08361152e-005 4.01574871e-005 -8.51918376e-005
      -1.93288652e-004 1.64343015e-004 7.33928828e-005 1.90881285e-004
      -1.25805935e-004 -5.98784420e-004 9.78781143e-004 2.67149735e-004
      -2.64660885e-005 8.05957010e-004 9.81627672e-005 -3.35865858e-004
      5.20951231e-004 -3.90726025e-004 -3.54634918e-004 -6.30742637e-004
      -1.74526314e-004 5.25924879e-005 -6.56205346e-004 -3.43837368e-004
      1.45410304e-004 4.11785761e-004 -3.33455275e-004 -4.88671998e-004
      -3.93951232e-005 -1.85018784e-004 2.47791526e-004 -7.59658753e-004
      -6.10716306e-005 1.11949230e-004 3.81622143e-004 -8.45708128e-004
      -5.99563820e-004 4.09288885e-004 2.64947681e-004 9.72879716e-005
      -3.80377955e-004 5.17247012e-004 2.51445163e-004 -1.28161759e-004
      -4.07460640e-004 -1.31497905e-003 3.34722077e-004 5.26701624e-005
      1.92832187e-004 -6.21382378e-006 1.66347672e-004 -2.23423165e-004
      1.80925199e-004 2.27036842e-004 -5.69562078e-004 -7.97963818e-004
      8.71341384e-004 4.60091142e-005 1.03683269e-005 -2.11826875e-004
      -5.09172678e-005 3.09620897e-004 1.44646416e-004 -4.63719975e-004
      -3.93465598e-004 -5.09256424e-005 -3.42375599e-004 1.84495730e-005
      6.50757051e-004 2.82328605e-004 8.85280242e-005 -1.01954167e-004
      -7.76387053e-004 -1.51464978e-004 -2.29720623e-004 7.00278964e-004
      5.33580955e-004 -3.08232207e-004 -6.09107199e-004 7.25238351e-005
      2.29404977e-004 -7.46770645e-004 3.44368047e-004 -3.76256794e-004
      4.62426367e-004 -1.11888652e-003 7.38580347e-005 8.06427342e-005
      -1.82619478e-004 2.62243469e-004 -9.09532770e-004 2.46171461e-004
      4.35206195e-004 4.54717410e-005 7.37774535e-004 5.26697804e-005
      6.66033593e-004 2.67968077e-004 3.94285395e-004 -4.34240763e-004
      -7.60988987e-005 -3.77770448e-005 4.82183270e-004 1.33611713e-004
      -1.05438835e-003 7.34363159e-004 1.71962733e-004 -5.17205626e-004
      -7.13781628e-004 1.90015882e-004 3.59751517e-004 -2.58022716e-004
      1.95275206e-004 1.53977482e-004 -3.06289439e-004 9.97133320e-005
      -2.40263107e-005 -2.78085441e-004 7.91621133e-005 -8.32497972e-005
      1.97362591e-004 3.93258088e-004 4.87541402e-004 -5.08133788e-004
      9.26619279e-004 -2.07261801e-005 -1.47055543e-004 1.11484413e-004
      3.31550691e-004 3.08567978e-004 3.76603100e-004 -1.71971071e-004
      1.53049376e-004 -3.46000306e-004 1.18985343e-004 3.94758477e-004
      6.06019050e-004 1.06134790e-003 2.00320093e-004 -7.33744935e-004
      -1.25985229e-004 1.90311293e-005 -3.62108112e-005 -1.24219595e-003
      1.83416763e-004 5.76502294e-004 -8.31287121e-004 4.70383151e-004
      3.07816081e-004 1.01954420e-003 -8.03096220e-004 1.83249256e-004
      -1.03613806e-004 4.64346667e-004 3.18739389e-004 -4.39816562e-004
      6.63234445e-004 4.10483713e-004 1.46206337e-004 -8.14567262e-004
      -7.06313702e-004 3.19337851e-004 5.33873215e-004 6.07294554e-004
      5.03233285e-004 -4.06702544e-004 -3.52467177e-004 9.16196004e-005
      -7.70628336e-004 -5.51747100e-004 -2.34315245e-004 2.20292859e-004
      6.87614520e-005 8.23049631e-004 -5.40223089e-004 -5.30949619e-004
      -1.12728230e-004 -2.61107372e-004 -3.94532457e-004 1.12447226e-004
      -2.37838874e-004 -3.44535598e-004 1.05675281e-005 -1.73370805e-004
      -1.51370579e-004 3.25040659e-004 -1.09387307e-004 -3.63900763e-004
      2.71569035e-004 2.73496698e-004 -1.33814843e-004 -2.62055866e-004
      -2.95064267e-004 2.66226998e-004 -2.82506953e-004 -1.33266412e-005
      5.19722889e-005 8.98425060e-005 6.12949545e-004 6.38189202e-004
      3.41946376e-004 1.47084487e-004 -4.06022096e-004 -8.55400867e-005
      -4.11051704e-004 -5.43627248e-004 2.98495957e-004 5.79339569e-004
      -3.69776651e-004 -6.59890124e-004 -2.58653999e-005
      -2.23244606e-005 5.61346533e-004 1.46216171e-005 -5.19983354e-004
      4.33285633e-004 2.18462563e-004 6.71676462e-005 -2.78256775e-004
      2.08279744e-004 1.11744783e-004 -2.75629311e-004 -2.61818292e-004
      -9.68965032e-005 -2.21039489e-004 6.83652936e-004 -3.72139126e-004
      -4.90437844e-004 -1.93514905e-004 1.68000493e-004 2.39827656e-004
      -3.40448605e-004 -5.46725969e-005 6.89587381e-004 -1.23241589e-005
      4.66282072e-004 6.64360341e-005 -1.19597535e-004 -7.47528044e-004
      4.67966078e-004 -5.74376318e-004 -5.64870075e-004 4.73519503e-005
      2.57121166e-004 5.79852203e-004 -2.34143357e-004 -2.37935252e-004
      3.22420929e-005 -3.59747326e-004 5.69941301e-004 2.28011297e-004
      1.20068325e-005 -4.07079264e-004 -5.17040316e-004 3.86587984e-004
      -1.05721214e-004 -1.17102078e-004 -5.86472801e-004
      -4.63981087e-005 -3.86670930e-004 1.88691774e-005 -2.57503911e-004
      -3.56504082e-004 -1.40041535e-004 4.84236341e-004 2.76076724e-004
      2.64306524e-004 -7.00465243e-005 1.41021228e-004 -1.90789782e-004
      -2.82411092e-005 1.44330057e-004 -7.78678863e-004 3.17086058e-004
      -4.40361648e-004 5.11775434e-004 3.79791803e-004 2.65659706e-004
      4.09418164e-004 4.33424750e-004 1.09333028e-004 1.24357786e-004
      2.54061510e-004 1.12735461e-005 1.99927090e-004 -2.28728415e-004
      -4.53433109e-004 -3.87960376e-004 2.33865678e-004 4.20785596e-004
      -3.90749978e-004 -1.03402650e-003 5.16541884e-004 2.84006674e-004
      -2.58542830e-004 1.83026554e-004 -6.61571452e-004 1.50811960e-004
      -1.20434823e-004 -8.47266074e-006 1.28233619e-003 -6.82851009e-004
      7.42621387e-006 -2.10222188e-005 6.67774475e-006 -3.99453798e-004
      -8.74098841e-005 4.38252871e-004 3.42918502e-004 -2.67010473e-004
      -6.22056905e-005 4.88838006e-004 5.19720634e-005 2.77616258e-004
      -2.63871625e-004 1.92908883e-005 -3.55128606e-004 -1.28503059e-004
      1.23166101e-004 -2.38055276e-004 -1.25601000e-004 -4.37815004e-004
      1.13628877e-004 -8.71913435e-005 5.69217882e-005 5.92493045e-004
      5.54446888e-005 3.95320443e-004 -5.41611691e-004 1.62764354e-005
      -5.13525993e-005 6.40815124e-004 -3.50515038e-005 -1.64613142e-004
      5.41236892e-004 7.26245227e-004 -4.09167988e-004 2.29042285e-004
      6.05225738e-004 2.72444522e-005 2.75423634e-004 -3.78010474e-004
      -8.82814813e-004 4.44420675e-006 7.61900970e-004 3.13966942e-004
      -8.28074917e-005 1.55439247e-005 -3.96832213e-004 1.02748681e-005
      -1.41205615e-004 -1.25838284e-004 4.86102508e-004 4.80364339e-004
      -4.30185100e-005 -4.59823699e-004 -6.29443151e-004 2.82939116e-004
      -2.21691298e-004 -3.09345836e-004 1.61322416e-004 -1.42308578e-004
      8.52081866e-004 4.92336403e-004 8.06312455e-005 -3.85752966e-004
      -4.79018810e-004 4.25392878e-004 -7.26859318e-004 8.08834229e-005
      3.74406925e-004 1.23288191e-004 5.75656304e-004 -3.72196140e-004
      8.90978903e-004 3.64329717e-005 3.86423373e-004 -1.67557548e-004
      -7.66512894e-005 1.34372385e-004 5.44652903e-005 9.29853471e-004
      -7.21664168e-004 -1.30447288e-005 -3.77900316e-004
      -2.72212754e-004 3.76972603e-005 -5.36223408e-004 -1.72397195e-004
      9.64351784e-005 -2.23320385e-004 -5.46192110e-004 4.32181434e-004
      2.83132569e-004 8.45029936e-005 -1.28476604e-004 -6.55449810e-004
      1.64880097e-004 3.44570348e-004 3.11880605e-004 -2.44633149e-004
      2.86103779e-004 3.55383061e-004 5.94602607e-004 -4.62638971e-004
      -3.75258707e-004 -4.98813402e-004 2.43308619e-004 2.88624375e-004
      -1.75769965e-004 2.69673765e-004 6.64204199e-005 9.77875898e-004
      -5.06153083e-005 -3.58360325e-004 8.38248234e-005 -6.97258394e-004
      2.86318482e-005 -5.25908836e-004 4.97218571e-004 1.19078039e-004
      -6.70735835e-006 -8.14232684e-004 -4.25837468e-004
      -2.72978214e-004 -2.20482616e-004 -3.13961762e-004 2.08170532e-004
      3.64639971e-004 2.14188069e-004 -4.13780217e-004 2.48781544e-005
      -1.47233499e-004 1.41356752e-004 5.09008998e-004 2.02170253e-004
      -9.59149445e-004 3.75026109e-004 -6.52295421e-005 8.45197705e-004
      -2.37462664e-004 -1.72756671e-004 2.05813223e-004 -1.39162032e-004
      4.83887416e-004 1.18070122e-004 -3.78115423e-004 -1.22661790e-004
      1.11758302e-004 2.47422024e-004 -4.09326487e-004 -4.59730363e-004
      -7.95215252e-004 6.12224219e-004 1.29427362e-005 2.05658638e-004
      -6.14312128e-004 -2.37691347e-004 3.06568021e-004 -3.22551699e-004
      1.27015373e-004 -2.20824935e-004 -2.94802972e-004 1.84115648e-004
      1.04484672e-003 -1.24226412e-004 -3.43517429e-004 7.82682037e-004
      -2.86103139e-004 8.32310645e-004 -2.54856597e-004 -3.62526858e-004
      -2.91793491e-004 -7.79836206e-004 -8.87622300e-004 5.54271901e-005
      -4.42788063e-004 1.09059205e-004 4.06801089e-004 1.57359478e-004
      -5.58408385e-004 -5.33417857e-004 -1.63948018e-004
      -2.31069629e-004 -3.66397842e-004 -1.22546713e-004
      -1.92568128e-004 -6.37125224e-004 -2.53657257e-004 9.03912514e-005
      -6.77362405e-005 -3.66744862e-005 -2.56112195e-004
      -6.86322746e-004 -3.88322340e-004 -9.40828977e-005
      -3.72306822e-004 -2.22888950e-004 1.32549503e-005 9.98643809e-004
      -2.03215459e-004 1.32923582e-004 2.74443999e-004 1.43909128e-004
      7.75824446e-005 6.89101216e-005 -4.69683262e-004 2.26917371e-004
      2.56364758e-004 1.07560438e-004 -4.83466109e-004 -1.24885155e-005
      -2.69053242e-004 6.11055002e-004 4.74959437e-004 -7.50346226e-004
      1.19894532e-004 -1.98242953e-004 -4.89393133e-005 -3.97212134e-004
      -1.16529691e-005 3.55707271e-005 -4.32971836e-004 -6.86234504e-004
      -9.34885757e-004 -5.63859474e-004 -1.64880228e-004
      -2.50047102e-004 -4.47980827e-004 -1.88347276e-005 9.29902581e-006
      -6.38257829e-004 -5.74823935e-004 -1.03587704e-003 3.64282809e-004
      -3.74160794e-004 1.58102470e-004 -3.55413329e-004 -3.36101250e-004
      1.46079241e-004 -3.76615761e-004 2.19227397e-004 -9.92316869e-004
      1.20601064e-004 4.85563360e-004 1.29159453e-004 1.45059850e-004
      -8.07856195e-005 -1.70661762e-004 9.67170945e-006 3.22599313e-004
      -3.17043770e-004 -2.41702466e-004 -8.79488944e-005
      -2.15638764e-004 -4.55493486e-004 -9.44254687e-004
      -4.70796716e-004 -1.53918198e-004 1.98811351e-004 -3.12089687e-004
      -1.29515856e-005 2.69135839e-004 4.29005187e-004 3.77636257e-004
      6.76532567e-004 -7.22878787e-004 -5.37058862e-004 -3.41926294e-004
      4.01431433e-004 -3.12204094e-004 -1.81205483e-004 6.92593967e-005
      5.84657886e-004 -2.51904159e-004 2.22036961e-005 2.40134628e-004
      1.10818291e-004 8.35237661e-005 -1.86909834e-004 -5.98270017e-005
      2.70039425e-004 7.83278592e-005 -2.46380587e-005 -9.48841353e-006
      -1.46765175e-004 6.71289046e-004 4.73177090e-004 -9.33004922e-005
      1.01823192e-004 2.87726551e-004 -8.54092577e-005 -6.73440518e-005
      -2.16195214e-004 -3.47770634e-004 9.11033858e-005 3.48093745e-004
      1.05069089e-003 -8.04179814e-004 4.04874008e-004 8.51282093e-005
      3.73898947e-004 -4.91997693e-004 -1.98386173e-004 -1.39160029e-005
      1.98022681e-004 1.60266121e-004 7.62972468e-006 -1.91026156e-005
      2.63802154e-004 8.35626852e-005 -5.52762242e-004 1.14136645e-004
      1.05519663e-003 5.65937080e-004 3.93984024e-004 -1.57898830e-004
      7.38131930e-004 -1.21117839e-004 -5.65561466e-004 -7.58622191e-004
      -3.44952830e-004 4.51504020e-004 3.73941148e-004 -5.39213826e-004
      -4.23774298e-004 1.13579212e-004 -3.61143786e-004 -4.82641481e-004
      -1.66835569e-004 2.27611919e-004 -3.97111347e-004 -1.24534912e-004
      3.21817643e-004 4.31508961e-004 1.10643356e-004 -3.84253566e-004
      5.94487763e-004 6.56379780e-005 -8.31209763e-004 -1.44063160e-004
      6.85003586e-004 4.64999670e-004 6.89940178e-004 6.16652600e-004
      -3.12336429e-004 7.26867816e-004 -5.25640033e-004 -8.50142271e-004
      -4.29420295e-004 -6.84121624e-005 3.69488407e-004 -5.18699308e-005
      -5.87819377e-004 -5.09666686e-004 2.80126085e-004 -7.39023031e-004
      2.47003540e-004 -4.82372358e-004 -1.32190253e-004 -2.31977494e-004
      2.12483312e-004 -8.64625094e-004 -1.84494740e-004 2.35998319e-004
      -4.67734877e-004 2.67038209e-004 7.94351508e-004 7.68225655e-005
      4.24862199e-004 1.57187533e-004 7.48049060e-004 2.04540382e-004
      1.12942602e-004 2.16574888e-004 4.01335245e-004 5.66115428e-004
      7.76743400e-004 2.81995250e-004 -3.01681051e-004 -4.66708210e-004
      -4.27495252e-004 6.18006045e-004 -8.51867080e-004 2.69830460e-004
      -2.30043530e-004 2.12830841e-004 -8.12169514e-004 3.32641182e-004
      2.58929707e-004 2.69264536e-004 6.20044069e-004 -1.14536990e-004
      -3.64341715e-004 -1.23556456e-004 1.03973849e-004 5.84254216e-004
      -3.50112387e-004 3.27253802e-004 3.90903369e-005 -1.15151546e-004
      7.26583705e-004 7.65164034e-004 5.78452426e-004 2.44018680e-004
      7.23743142e-005 -4.40513322e-005 -5.32380247e-004 3.05687077e-004
      2.97069200e-004 4.49520530e-006 4.17950010e-004 3.99503188e-004
      2.57177802e-004 -4.53468121e-004 -5.24101721e-004 -5.11502367e-005
      5.77112543e-004 2.49015895e-004 3.62259045e-004 2.84977374e-004
      -1.15918905e-004 -4.42530378e-004 -1.49762636e-004 6.85257692e-005
      -2.42573034e-004 -1.10788758e-004 -1.73604043e-004
      -2.14627260e-004 -1.69650550e-004 1.51255270e-004 -8.00997732e-005
      9.77408672e-006 -3.77798307e-004 1.96817782e-005 6.48861111e-004
      -7.17799194e-005 -2.01961608e-004 -5.39159782e-006 1.11544134e-004
      -1.60898402e-004 1.41754703e-004 -2.26803197e-004 -3.05440975e-004
      -1.25572958e-004 -4.45041776e-004 4.89636150e-004 2.54616840e-004
      -9.85550141e-005 -5.13170147e-004 7.25674268e-004 -6.90021669e-004
      -6.36844270e-005 -5.00181748e-004 -4.79813229e-004 7.07398140e-005
      -5.73114259e-004 -7.29022955e-004 -4.21174977e-004
      -1.23691003e-004 8.80410371e-004 -1.49879459e-004 2.65324925e-004
      -2.61346693e-004 -2.34868829e-004 -2.32125996e-004
      -7.62303462e-005 1.50129781e-004 4.03691200e-004 -9.19623591e-004
      -6.25729444e-004 -2.30587848e-005 5.38972381e-004 2.53871112e-004
      7.16062204e-004 1.94698423e-005 2.15361011e-004 -1.97630543e-005
      6.20427309e-004 -6.30143622e-004 -5.46976982e-004 8.11680162e-004
      -1.76984002e-004 6.88958797e-004 6.18239108e-004 -7.15577859e-004
      -2.02829731e-004 -5.34789695e-004 -6.00799685e-005
      -1.34894639e-004 -4.23682010e-004 4.42214427e-004 3.99627723e-004
      -2.85440823e-004 1.82205258e-004 1.22881349e-004 4.96436143e-004
      6.78308366e-004 1.91242463e-004 2.56130850e-004 1.31052657e-004
      6.97090072e-005 -1.09706994e-003 1.40314412e-004 6.75572606e-004
      -1.76989153e-004 2.23783398e-004 -8.28317498e-005 -2.24339965e-004
      -2.57831824e-004 3.08914314e-004 2.75456841e-004 4.54544614e-004
      -5.91997872e-004 -5.03858842e-004 -3.69731075e-004
      -4.66513557e-005 -3.77288634e-005 -1.75649169e-004
      -3.62030667e-004 -7.66086625e-004 2.70438235e-004 -8.58861240e-005
      9.78329699e-005 -1.73847278e-004 2.01015879e-004 6.75521267e-004
      -4.68278275e-004 5.32154285e-004 8.85916525e-004 -1.70937419e-004
      2.13746360e-004 5.94373305e-005 -2.07441146e-004 -4.93077270e-004
      3.15588521e-004 1.53191024e-004 7.65125660e-005 -2.49379023e-004
      1.36859584e-004 -1.94269651e-005 1.58569004e-004 5.22106886e-004
      -1.33181180e-004 -1.87840196e-004 2.53242062e-004 -1.82150368e-004
      -3.82004888e-004 1.92643143e-004 -1.39902448e-004 -1.72888322e-004
      1.25828126e-004 -1.29737149e-004 7.80483184e-004 2.40456022e-004
      -3.58019082e-004 5.16546832e-004 4.28243337e-004 3.67593428e-004
      -3.60865408e-004 -2.34583451e-004 -2.15959299e-004 7.03365949e-005
      -7.65838893e-004 -2.10363854e-004 3.66421096e-004 2.29612342e-004
      2.57198350e-004 -2.92941433e-004 5.65284936e-005 2.96709535e-004
      2.11730163e-004 -4.08519380e-004 -4.31373803e-004 4.10031760e-004
      5.64433867e-004 -6.45298511e-004 3.84495297e-006 4.75451583e-004
      -2.43963164e-004 8.91801028e-005 -4.33761626e-004 -8.04789132e-004
      1.27542502e-004 8.01940405e-005 7.49973187e-005 3.77475917e-005
      -4.23937163e-004 1.27443593e-004 1.07500136e-005 4.78473958e-004
      -4.66228637e-004 5.87687537e-004 -4.79253533e-004 -1.22160011e-004
      1.54642374e-004 1.34420290e-004 4.92767082e-004 7.76431465e-004
      2.09729915e-004 -1.26150833e-003 3.98370525e-004 2.53501377e-004
      -1.41390687e-004 -6.69732632e-004 -2.69983895e-004
      -3.05591617e-004 2.88390147e-004 -1.90733208e-005 2.15499997e-004
      3.60322738e-005 3.15832091e-004 -2.87256582e-004 -5.14177198e-004
      -2.73008889e-004 2.10764429e-005 -6.99157172e-005 4.30879227e-005
      3.02952627e-004 -4.09734988e-004 3.91418900e-004 -1.98536392e-004
      -3.31298157e-004 3.94026109e-004 -8.47294868e-004 -3.11679265e-004
      -2.68776115e-004 -2.25985394e-004 -3.26998648e-004
      -1.41792625e-004 1.06103218e-003 -1.83416432e-005 -1.50165273e-004
      -3.11546522e-004 6.95737428e-004 1.60291034e-004 -6.49394642e-005
      7.91519647e-004 1.73338820e-004 -8.03633942e-004 -3.12757743e-006
      -8.06902710e-004 -6.72806404e-004 7.55473855e-004 -3.62659834e-004
      -7.09865999e-004 -2.85994523e-004 3.83052655e-004 2.30843681e-004
      -2.82048801e-004 1.28884552e-004 -1.87763188e-004 4.87090903e-004
      5.12135557e-006 1.62927885e-004 -2.06265075e-004 1.29798776e-004
      -4.57457791e-004 2.18307337e-004 6.07307375e-005 -2.73022830e-004
      7.86443823e-004 -4.65111771e-006 -5.37480577e-004 -2.30011181e-004
      1.77442926e-004 -1.20759432e-004 -5.53392165e-004 -7.28657833e-005
      7.80657429e-005 3.41298146e-004 4.18671007e-005 -3.80812504e-004
      -4.28121239e-005 -3.37564386e-004 -4.42167075e-005
      -3.61067127e-004 -4.10980108e-004 1.42789009e-004 2.61271285e-004
      -8.38626758e-004 -2.10787563e-004 -3.38090467e-004
      -4.62131371e-004 4.35340247e-004 -8.83280474e-004 -5.03588060e-004
      -9.12192161e-004 8.09535384e-004 2.65593815e-004 -4.66474972e-004
      -9.74409195e-005 -1.35286362e-004 3.64778942e-004 2.42584429e-004
      -3.94868810e-004 1.92938489e-004 9.34366952e-004 4.31642518e-004
      9.55790820e-005 -2.50965008e-004 -3.83772829e-004 -4.14518552e-004
      4.37456765e-004 1.30978136e-004 4.00476456e-005 -7.72472238e-004
      7.30380780e-005 -1.10343695e-004 3.04374233e-004 -8.17129854e-004
      1.02856371e-004 -2.19325593e-004 -4.11402347e-004 6.82392492e-005
      6.59672834e-004 3.96192394e-004 -2.20417805e-005 3.26420309e-006
      1.30706816e-004 5.79877633e-005 -2.75491620e-004 -3.70931171e-004
      6.05986424e-005 -4.22815705e-004 7.08848005e-004 3.98849981e-004
      2.21180206e-004 2.37706976e-004 1.90860635e-004 2.69400829e-004
      -3.23197659e-004 -3.26235138e-004 -1.76082802e-004
      -6.02635962e-004 -3.44180095e-004 9.02801985e-005 5.37586893e-005
      -6.17644982e-004 -5.93025528e-004 -2.45854844e-005
      -2.52125319e-004 -2.45010364e-004 9.57673183e-005 3.74865194e-005
      -2.28793026e-004 4.44701727e-004 -1.24291415e-004 2.10755425e-005
      -7.84907956e-004 -7.96063046e-004 -4.35818329e-005 2.55955129e-005
      -8.20751156e-005 3.83667939e-004 -6.20255363e-004 4.74323315e-004
      4.50826119e-005 -1.10909605e-004 -9.59397294e-004 7.69547187e-005
      -6.91278023e-004 1.33289213e-005 -9.33084375e-005 8.24866765e-006
      5.55982333e-005 -4.47221479e-004 -5.96694881e-004 -6.10112295e-007
      -5.07910736e-004 -1.92070394e-004 -8.68338248e-005
      -5.09628269e-004 -2.42145790e-004 1.29493681e-004 -5.66782546e-004
      -2.76725361e-004 -2.63829948e-004 1.06146050e-004 1.52254608e-004
      -3.24041612e-004 -3.67853296e-004 -7.35555601e-004
      -3.55738419e-004 -3.01183813e-004 4.47970553e-004 -1.68824845e-004
      -7.72908039e-004 -2.36549327e-004 3.64820880e-005 5.91336808e-004
      -4.35980881e-004 5.70326694e-004 -5.93648991e-004 -7.01600045e-004
      -7.58890121e-004 -2.91475793e-004 -3.19962739e-004 2.36499745e-005
      4.10887587e-004 -9.70347319e-005 9.51759226e-004 -9.72114562e-004
      6.90003508e-005 3.60911305e-004 5.04072348e-004 7.81225623e-004
      -2.32665028e-004 1.55044923e-004 2.28683813e-004 6.87662512e-004
      -6.16628909e-004 -7.49683968e-005 1.37501280e-004 2.23970244e-004
      -1.56125505e-004 5.10787591e-004 6.07502356e-004 3.46033747e-004
      -3.92566086e-004 -4.73841705e-004 4.35647671e-004 -7.32251137e-005
      -4.63162258e-004 1.15091570e-004 5.08351832e-006 2.73824058e-004
      -4.57276154e-004 2.95595208e-004 -6.03500463e-004 4.72400628e-004
      1.01324222e-004 -3.33359960e-004 -7.43123601e-005 -1.46766586e-004
      3.23664499e-005 -3.38321028e-004 -3.47785739e-004 -2.60183617e-004
      1.78845687e-004 1.12311362e-004 -1.79490569e-004 -1.72037951e-004
      -1.18255863e-004 -6.09218550e-004 5.12066239e-004 -7.69655860e-004
      1.02709644e-004 -2.29700774e-004 -4.33273381e-004 -3.85855557e-004
      -4.47468556e-005 -1.19123993e-004 3.99611483e-004 -4.89966595e-004
      -4.13064481e-005 2.20473739e-005 -1.49028623e-004 -1.17874260e-005
      1.23599850e-004 -1.75902285e-004 -3.78585682e-004 6.01572538e-005
      1.52272274e-004 -1.67948238e-004 -2.91086908e-004 2.52869038e-004
      -3.04814137e-004 -6.86499348e-004 3.35252698e-004 -4.81174822e-004
      -5.10747414e-005 2.26292352e-004 -1.39058306e-004 -4.99043206e-004
      -3.47541471e-004 -3.97686177e-004 -1.72455766e-005 7.94193329e-005
      -5.47995325e-004 3.74939264e-004 1.80215182e-004 -3.52465082e-004
      1.09540400e-004 -6.42838015e-004 -5.25671465e-004 -5.17731591e-004
      -2.83811416e-004 -1.03589715e-004 2.95147533e-004 -2.23395614e-006
      -4.07464686e-004 8.05786476e-005 5.68331670e-005 2.17087756e-004
      1.48001709e-005 -2.37908404e-004 -4.98808804e-004 4.01485682e-004
      6.63044688e-004 -3.34510987e-004 -1.67866732e-004 -3.60635546e-004
      -3.78752942e-004 -6.84061379e-005 2.43029441e-004 3.67767716e-005
      5.24162024e-004 3.42014711e-004 7.50572770e-004 1.20378136e-004
      -6.84154104e-004 -1.17405783e-003 1.47518891e-004 5.06489479e-004
      2.71522906e-004 2.40961905e-004 7.14311842e-004 -3.39056423e-004
      5.68331743e-004 -5.79072977e-004 -9.17033758e-004 -2.33572922e-004
      3.01276887e-004 -1.75194000e-004 1.11575682e-005 -1.49483443e-004
      2.60746281e-004 5.11000457e-004 6.72417809e-005 -1.69770938e-004
      -6.37477060e-005 5.41205867e-004 2.23788433e-004 6.42983941e-005
      7.00336241e-005 1.96146793e-004 -1.50830252e-004 2.25961136e-004
      -1.26188470e-003 -3.40159779e-004 3.01470456e-004 -4.89655009e-004
      6.49163208e-004 3.56465054e-004 7.38864706e-004 -7.53727974e-004
      -4.31563931e-005 -2.17375185e-004 2.66692718e-004 -7.25375314e-004
      5.21067297e-004 2.19983936e-004 4.87739977e-004 5.14440937e-004
      -6.54071686e-004 -1.34048634e-004 -3.86876141e-004 3.67035944e-004
      3.90533416e-004 -7.09728571e-004 3.62057122e-004 2.82733527e-004
      -3.27488560e-005 5.26999938e-004 4.24805417e-004 -7.39999639e-004
      -4.08717402e-004 -4.92751060e-005 -2.44092429e-004 2.44606868e-004
      4.24611702e-004 1.07284159e-005 -7.33570894e-004 5.30990983e-005
      -4.63316479e-004 6.83046164e-005 1.03434890e-004 -4.97456058e-004
      -1.07000760e-005 -5.59572189e-004 -1.51393848e-004 6.84958941e-004
      -1.53275585e-004 -7.56442256e-004 1.88402500e-005 7.54633584e-005
      -3.30499985e-004 6.78059238e-004 5.44996583e-004 8.89438787e-004
      -1.38172327e-004 7.98488967e-004 -5.21450769e-004 -1.13715847e-004
      1.37549432e-004 -1.40735458e-004 -4.51197411e-004 4.31469642e-004
      7.94903026e-005 3.25195870e-004 -1.51158951e-004 -3.55507858e-004
      4.37640323e-004 9.75587056e-004 6.11735624e-004 -4.02517180e-004
      2.03942880e-004 4.09585860e-004 -1.01744736e-004 1.63908087e-004
      -7.22544675e-004 1.09150796e-003 2.14291125e-004 1.61116477e-004
      -5.33776998e-004 2.38121880e-004 4.17480449e-004 -2.43019298e-004
      6.88235101e-004 -5.07896009e-004 -1.54540438e-004 8.20644782e-005
      -1.80803851e-004 -4.49829560e-004 4.06068357e-005 1.27795967e-004
      -1.89160797e-004 1.84828186e-005 -6.10559480e-004 2.74959690e-004
      8.30168647e-005 -2.35747430e-004 -3.41395877e-004 4.91459723e-005
      3.30121547e-004 -6.18637074e-004 -5.98307350e-004 -8.05679592e-004
      8.92180949e-004 7.87675017e-005 1.36056668e-004 -5.38959808e-004
      4.04652121e-004 -2.85779272e-004 8.90900919e-005 -2.40923153e-004
      -6.03365363e-004 3.05491267e-004 -1.40222546e-004 2.61675770e-004
      -3.23308603e-004 -6.04988236e-005 -2.66184179e-005
      -3.57276353e-004 3.93947645e-004 -5.37347944e-007 1.05713763e-004
      -2.88807845e-004 -2.64754362e-005 -4.67048048e-005 3.52859905e-004
      3.90423404e-004 2.55789520e-004 3.64765525e-004 1.25954597e-004
      -2.55810446e-004 3.87005042e-004 -4.02634352e-004 1.44079546e-004
      -3.78102006e-004 -3.37268895e-004 -6.00633561e-004
      -1.25773950e-004 -2.88958603e-004 9.40668760e-005 5.39964007e-004
      -1.18750679e-004 7.06381281e-004 2.84524831e-005 -5.19120913e-005
      2.70726072e-004 -5.94755285e-004 -1.22868893e-004 -3.86995125e-005
      4.31069842e-004 1.43070662e-004 4.16328578e-004 1.77119044e-004
      -4.92696417e-005 -3.74358380e-004 3.10863106e-004 -6.84103652e-005
      2.98634695e-004 7.50133622e-005 4.58584778e-004 -1.28614396e-004
      8.85804184e-005 -1.18500716e-003 -7.51287225e-005 1.19157725e-004
      5.67291689e-004 -3.54454620e-004 4.22290526e-004 -6.54446267e-005
      8.23309820e-005 5.80538588e-004 5.71881712e-004 -1.14910144e-004
      5.18919027e-004 -4.24008991e-004 4.83303389e-004 2.40576464e-005
      -2.84108275e-004 2.93551261e-006 -9.44718777e-005 -6.49972819e-004
      4.00025237e-005 7.52717140e-004 3.81957856e-004 4.33552399e-004
      6.08533155e-005 3.30508308e-004 4.05704595e-005 3.98639822e-005
      -4.90229169e-004 -1.64987403e-004 4.03665734e-004 -3.13603559e-005
      -7.97485001e-004 -8.70418036e-004 -4.27835912e-005
      -3.03545744e-006 3.11226206e-004 -7.37912138e-004 3.09949450e-004
      5.92727389e-004 -3.21579224e-004 -1.14428134e-004 2.05428412e-004
      -6.12951524e-004 1.83141863e-004 -1.26522544e-004 -3.62120511e-004
      -1.95340705e-004 1.21050070e-004 -3.14949197e-004 -2.82308756e-004
      5.86526061e-004 -4.47553648e-005 -2.90864933e-004 3.19015417e-005
      -2.45720148e-004 -9.83188147e-005 5.31188038e-004 -2.78496533e-004
      4.45289421e-004 5.87224145e-004 4.09478729e-004 6.36190933e-004
      -3.84724772e-005 1.79763534e-004 -5.65733819e-004 7.66122655e-004
      -5.80345572e-004 -4.27123450e-004 -1.08744825e-004
      -3.19582992e-004 -1.44199745e-004 -3.83446459e-005
      -7.18458614e-004 -7.44817778e-004 1.03721500e-003 -3.46655026e-004
      3.38730082e-004 -1.39502648e-004 6.95376832e-004 2.31339203e-004
      7.53951463e-005 -1.68074330e-004 8.74040779e-005 6.93136302e-004
      -8.36148509e-004 4.74145199e-004 4.45756195e-005 -6.06459856e-004
      -1.60744850e-004 4.11106048e-005 4.02633363e-004 -3.45710228e-004
      3.70953021e-005 -3.84436280e-004 2.15131775e-004 -4.05325045e-005
      -6.22356310e-004 -3.09184019e-004 8.98199622e-004 1.24022990e-004
      -7.06140825e-004 3.88470944e-004 -9.59720404e-004 -2.75193277e-004
      -3.82539671e-004 -4.54597786e-004 -4.62205295e-004 6.80029800e-004
      1.63367353e-004 4.08704873e-005 2.96350656e-004 9.27032379e-004
      -6.98235381e-005 7.35072303e-004 -2.94620404e-005 2.72642152e-004
      3.42882704e-004 -1.70231651e-004 8.54630256e-004 -2.01118251e-004
      3.51774506e-004 -4.60219657e-004 3.02576489e-004 -4.28132043e-004
      -2.84725138e-005 2.75617465e-004 4.31682682e-004 7.25567341e-004
      -2.55397084e-004 -7.01792014e-004 -3.68083362e-004
      -1.03911362e-003 -2.43287519e-004 -5.56107145e-004 2.89349875e-004
      1.83695141e-004 1.99243732e-004 -3.36989324e-004 -1.13702333e-006
      -5.48868789e-004 1.33136191e-005 -6.18343547e-005 -1.77408423e-004
      2.22233313e-004 1.15553979e-004 6.97634357e-004 -7.51972038e-005
      -9.79356701e-004 -8.91400032e-006 -2.67278490e-004
      -4.06813429e-004 3.98145552e-004 1.00397260e-003 -2.49358091e-005
      7.66199300e-005 -2.14965839e-004 2.16024404e-004 1.00258003e-004
      -9.30194437e-005 -2.19029258e-004 6.55990094e-004 4.71224921e-004
      -1.30624467e-004 8.44294918e-005 -6.01740088e-004 -9.44518019e-004
      8.58324929e-005 -1.38197836e-004 1.12200927e-004 -7.54483044e-005
      8.85737070e-004 1.19611283e-003 3.73292511e-004 -4.50741383e-004
      1.32597095e-004 -6.37901903e-005 4.43404097e-005 -2.58182437e-004
      1.35760029e-005 6.28412177e-004 1.34129776e-003 3.96498071e-004
      5.98341168e-004 -2.92302400e-004 3.03242472e-004 -4.41322627e-005
      -2.37323591e-004 2.96993734e-004 7.15100556e-004 2.05472053e-004
      5.36720094e-004 -3.68947018e-004 -1.17672887e-003 -2.54023704e-004
      3.59176047e-004 -3.89897497e-004 2.05064789e-004 1.08335160e-004
      1.05533609e-003 1.45429885e-006 -9.82195270e-005 -1.22575357e-003
      3.50460148e-004 6.52071962e-004 5.80857195e-005 5.17581248e-005
      -1.05002960e-004 -1.54897847e-004 7.30544736e-004 -6.26284673e-005
      -7.35838024e-004 -1.13835747e-004 6.44813190e-005 -1.33074645e-004
      5.74071928e-005 -3.00433661e-004 -5.80139967e-005 3.34317418e-004
      -7.49263709e-005 -5.33430255e-004 -6.37958656e-005
      -2.14785628e-004 -8.34483537e-004 -4.86557634e-004 6.39293139e-005
      -4.03068298e-005 -1.05377105e-004 3.84299026e-004 -1.45305865e-004
      1.57013361e-004 -3.81371239e-004 -3.17013677e-004 4.05776082e-004
      4.86647245e-004 -2.82314897e-004 4.49980871e-004 4.68668935e-004
      -1.10899122e-003 -8.26533578e-005 -1.85683894e-004
      -1.15647061e-004 -3.71429458e-004 1.28230968e-004 2.83531670e-004
      3.40938801e-004 -9.02083630e-005 -5.83396060e-004 -7.60456487e-006
      6.10738469e-004 -2.12333311e-004 -7.64287368e-004 1.08095461e-004
      1.25090053e-004 5.94589685e-004 -1.81028136e-005 -7.97960893e-005
      3.81027712e-005 -3.80678859e-004 1.11767822e-005 3.19428684e-004
      -5.55204868e-004 -8.14762898e-005 -6.53990865e-005 6.55203650e-004
      -4.85476543e-004 -4.16692696e-004 -3.34260316e-004
      -2.54252140e-004 2.40296096e-004 -5.91846474e-004 8.38629276e-005
      -1.48827763e-004 4.32082015e-004 -7.01147073e-004 5.10302838e-004
      -2.59703265e-005 -6.34712167e-004 2.44391849e-005 6.50857373e-006
      -2.47386604e-004 4.82605014e-004 3.66879161e-004 3.34699434e-004
      4.44615318e-004 -4.03858721e-005 -5.26089047e-004 -3.68441251e-004
      -4.37177398e-004 -1.01190375e-003 -6.97323587e-004 7.95343018e-004
      6.12975040e-004 -4.38323841e-005 1.77063397e-004 -2.21048118e-004
      2.41659698e-004 -1.32607747e-005 4.76702326e-006 -2.26831122e-004
      1.19344192e-003 -3.07111361e-004 5.07418648e-004 4.10781911e-004
      1.49521338e-005 2.48117052e-004 -1.57183778e-004 -1.67079648e-004
      -4.26207989e-004 5.12752740e-005 8.34146631e-005 8.34393722e-005
      -1.35372233e-004 8.62911867e-004 -1.58458533e-005 -3.72967595e-004
      -8.58381158e-004 -3.35346092e-004 2.16538640e-004 7.86684745e-004
      -6.51590875e-004 -2.78446096e-004 3.25336470e-004 -1.05787040e-004
      4.23244492e-004 -6.87638763e-004 -8.61819208e-005 6.42029860e-004
      4.68388607e-004 -5.12963743e-005 7.98285822e-004 3.33283650e-004
      8.55476319e-005 1.79723633e-004 -4.98764217e-004 -2.03891745e-004
      -1.29312859e-004 3.22558364e-004 1.07127407e-005 4.76850400e-004
      -3.14874487e-004 -8.64645117e-005 3.95810814e-004 -3.20931285e-004
      1.19043631e-004 -7.38378963e-004 -6.23429587e-005 3.10609175e-004
      -5.90052537e-007 4.27764200e-004 5.21412003e-004 2.01239280e-004
      -8.38688502e-005 6.92382629e-004 7.97500019e-004 6.14399207e-004
      -6.10690040e-004 -5.88864845e-004 -6.76409923e-004
      -6.17419937e-005 3.52201256e-004 -1.00193953e-004 1.48908104e-004
      4.64531739e-004 4.75298963e-004 -1.31800619e-003 9.99170239e-004
      -4.19501768e-004 3.93939699e-004 -4.22954326e-004 -1.67387072e-004
      -6.46007247e-005 1.58929164e-004 5.13506784e-005 3.28684633e-004
      -1.26985527e-004 -1.86733276e-004 -6.04640285e-004 2.32315215e-004
      -4.03540325e-004 1.74256784e-004 2.69265693e-005 3.12668388e-004
      -5.65711489e-005 -4.82347823e-004 -4.60276467e-004 2.98596482e-004
      3.35881807e-004 -4.27459599e-004 6.10220450e-005 2.32416423e-004
      2.84546230e-004 5.53962192e-004 -3.37572099e-004 -7.93415122e-004
      7.81630370e-005 -4.01673955e-004 6.99656375e-005 4.31190798e-004
      2.07824105e-005 4.73986322e-004 -7.81119015e-005 -1.36331553e-004
      1.24775170e-005 2.00703464e-004 -7.00097706e-004 1.29148393e-004
      1.04666768e-004 -3.02974513e-004 -3.46678746e-004 5.30023608e-005
      -2.69289914e-004 -3.58418329e-004 -1.17718773e-004
      -5.64321410e-004 1.98338879e-004 1.15261867e-003 1.37531766e-004
      -1.35842245e-004 2.17305162e-004 -2.98837200e-004 3.70742549e-004
      7.77354464e-004 2.11978277e-005 6.68078486e-004 -2.46431329e-004
      -6.45168882e-004 -7.11893430e-004 -2.59383756e-004
      -3.29699687e-004 3.20378313e-005 -2.05636476e-004 -6.85015228e-004
      2.19838170e-004 -2.73321057e-004 1.49533691e-004 -6.54001546e-004
      -6.77840435e-004 3.96570889e-004 -3.06271715e-004 -2.90243624e-004
      -4.00396821e-004 -3.25483532e-004 1.34184680e-004 2.94511090e-004
      -4.32176748e-004 7.63393109e-005 -1.69972453e-004 -2.13796346e-004
      5.47382457e-004 2.46197276e-004 -5.93460340e-004 6.25645218e-004
      -1.52051536e-004 -4.29136824e-004 6.88849948e-004 -3.69846908e-004
      -6.88027591e-004 3.10969335e-005 2.37437853e-004 1.46687889e-004
      -5.67600713e-004 -1.09894572e-004 -1.75479930e-004
      -8.69174801e-006 -1.14722189e-003 -1.89902712e-004
      -2.54553888e-004 6.17481535e-004 -1.90104009e-004 -3.10966629e-004
      4.41786746e-004 -8.31398822e-004 1.32251662e-004 -4.36703966e-004
      8.43268208e-005 6.29266025e-004 -2.51996156e-004 4.24770638e-004
      1.94114924e-004 2.65905896e-004 -2.12437430e-004 -3.41668230e-004
      -3.39152903e-004 -6.96203206e-005 4.70724171e-006 2.93209479e-004
      1.50294538e-004 -3.73006944e-004 -6.26877008e-004 -5.77892119e-004
      -3.42833409e-005 -2.85050861e-004 -1.00758777e-003 5.68407377e-005
      5.02464187e-004 7.92010323e-005 6.53410912e-004 -5.60338493e-004
      -9.35702628e-005 -6.32162846e-005 2.33008526e-004 -7.47051439e-004
      -9.27167130e-005 4.19589283e-004 -2.19281530e-004 -3.42075873e-005
      -1.97638947e-004 -6.88559609e-004 3.49832640e-004 -1.59347837e-004
      -6.99171098e-004 -8.60021682e-004 5.98949664e-005 -7.52506079e-004
      3.54804244e-004 2.55061081e-004 2.94553232e-004 8.65325448e-004
      -3.43066640e-004 -2.49038480e-004 2.34028281e-004 5.82496054e-004
      6.81084290e-004 2.33286191e-004 -8.89452058e-005 6.25125482e-004
      -2.52577505e-004 -3.73685500e-004 -1.16730247e-004 3.50229908e-004
      7.45422949e-005 -2.73170561e-004 1.85425597e-004 -4.67867998e-004
      -7.05840939e-004 7.46533449e-004 -4.03643236e-004 1.14156035e-004
      1.75017805e-004 2.76897277e-004 -1.98173060e-004 6.69874018e-004
      4.26896760e-004 -3.05105877e-005 4.11598390e-004 6.12892618e-004
      5.17237291e-004 1.53011060e-004 4.27591985e-005 6.38293859e-004
      -1.31446999e-004 2.83449655e-004 -5.62030255e-005 4.10793931e-004
      3.23157583e-004 8.79701111e-005 -3.65706546e-005 1.34206159e-004
      4.17175761e-005 -2.56092375e-004 -4.05161991e-005 2.25062468e-004
      -1.00257254e-004 -8.40826542e-004 4.95980552e-004 -3.61361628e-004
      3.78782242e-005 -5.50436205e-004 2.24199277e-004 1.28369342e-004
      1.16491028e-004 1.27914199e-003 5.27823031e-005 1.13854840e-004
      5.54149272e-004 5.99060266e-004 1.08120897e-004 -6.55820302e-004
      -2.53642502e-004 -7.65561272e-005 -5.04275631e-005 1.64710073e-004
      5.05423173e-004 -2.90646403e-005 -5.87075832e-004 -8.00904469e-004
      -1.52424502e-004 -7.50141917e-005 3.52885079e-004 2.67322175e-004
      -2.37429107e-004 -4.81730880e-004 3.22643493e-004 -2.73801677e-004
      1.59397430e-004 -2.17701730e-004 5.64045098e-004 3.73929739e-004
      9.72411144e-005 -2.51083169e-004 3.65908927e-004 2.03538075e-004
      -1.11547043e-003 -6.07791590e-004 1.89454731e-004 2.99054984e-004
      1.67638937e-004 8.50895827e-004 -5.79351094e-004 -4.62430937e-004
      -4.51148262e-005 -1.52539687e-005 -1.34967311e-004
      -5.09823731e-004 6.84868312e-004 -2.60252331e-004 -1.88817328e-004
      -4.70947598e-005 4.71733190e-004 3.37643432e-004 -2.75091908e-004
      -4.78531321e-004 -5.28956843e-005 7.57360540e-004 7.64692260e-004
      3.91433394e-004 -4.05241735e-004 1.41513829e-005 -1.21833771e-004
      3.31649062e-005 -1.79470677e-004 -3.45932756e-004 1.10770913e-003
      7.68201659e-004 -3.47318564e-004 -4.76861896e-004 9.35491425e-006
      -3.69359368e-005 -9.83700957e-005 -1.50461827e-004 7.08494917e-004
      2.21223352e-004 -8.57007180e-005 5.77227620e-004 -6.83281920e-004
      -1.13653587e-004 1.20962293e-004 -5.68208226e-004 1.72102518e-005
      -3.86578875e-004 1.80973162e-004 3.41359904e-004 -3.21124651e-004
      -2.41428512e-004 7.00776291e-004 -1.95253437e-004 -5.63999871e-004
      1.58749477e-004 4.45248937e-004 -1.89154234e-005 -1.09738576e-005
      8.20737798e-004 2.37761793e-004 5.30172023e-004 5.05524804e-004
      -7.00120232e-004 -4.09530330e-004 6.10105853e-005 5.06267534e-004
      3.09634110e-004 3.89913301e-004 -2.57218082e-004 -4.86942619e-004
      -6.82625279e-004 -6.25658431e-005 -1.72808330e-004
      -8.72975914e-004 6.83126971e-004 1.32340992e-005 -1.23391701e-005
      4.53963061e-004 -3.24411085e-004 -4.98187437e-004 3.12038930e-004
      1.71696356e-005 6.65599073e-004 -3.34217650e-004 -1.71502979e-004
      -4.26121202e-004 -6.10291667e-004 -1.72576154e-004 4.84029260e-005
      -7.01525074e-004 3.60411010e-004 6.13345823e-004 2.78401130e-004
      -3.68991241e-005 5.25447467e-005 -1.65999882e-004 -8.41961359e-004
      1.87930258e-004 2.52216152e-004 -4.31611406e-004 -2.92939774e-004
      2.45906976e-005 -8.61982291e-004 -4.37018753e-004 -3.96063784e-004
      -1.37645612e-003 3.39517341e-004 -1.62398035e-004 8.50860743e-005
      5.53441118e-004 -1.99130925e-004 -2.01023431e-004 -1.03329090e-004
      -7.18002775e-006 -9.06936475e-004 -4.26871527e-004
      -3.69599788e-004 -2.34592982e-004 4.31426248e-004 3.19174287e-004
      -5.08324534e-004 5.65150003e-005 -1.91026498e-004 -6.97814918e-004
      -5.58292144e-004 3.63233179e-004 4.77244495e-004 1.05360807e-004
      2.82216526e-004 -7.18968688e-004 1.96505949e-004 1.15682065e-004
      -5.24036994e-004 -2.21425682e-004 1.23573598e-004 -3.12888878e-005
      -2.58990505e-004 -9.75523071e-005 -6.50863454e-004
      -6.37390476e-005 -4.50366759e-004 -3.00820160e-004
      -4.89601633e-004 -1.63596720e-004 2.05874647e-004 -3.69759277e-004
      -2.66475981e-004 -1.93461368e-004 -2.93897290e-004
      -5.80148597e-004 -2.99239065e-004 -6.08427617e-005
      -6.24128210e-004 1.52476525e-004 -1.98260732e-005 -4.98627312e-004
      1.20404293e-004 -3.34884768e-004 7.51181287e-005 -6.95488925e-005
      2.80176027e-004 -4.89001861e-004 -2.12930841e-004 -1.65926540e-004
      4.42683959e-004 -3.13630328e-004 -9.22843697e-004 -5.11811289e-004
      5.77987870e-004 4.07754182e-004 -4.22347570e-004 3.58891732e-004
      -4.31544700e-004 2.53940612e-004 3.55184966e-005 4.13132038e-005
      -7.22205965e-004 4.40624775e-004 -2.48246710e-004 -4.81183873e-004
      -2.10047103e-004 6.19458791e-004 6.45451539e-004 -6.61664410e-004
      1.86800986e-004 -3.34890705e-004 -1.40331016e-004 -5.98756480e-004
      -1.04595085e-004 -2.55445542e-004 7.37229784e-005 4.89357917e-005
      -5.55558538e-004 -5.00413480e-005 -4.60887350e-005 4.20794269e-004
      -8.76285660e-004 1.03386075e-004 9.10623203e-005 5.45435236e-004
      4.16782364e-004 4.66227386e-004 -5.36273059e-004 5.71391647e-005
      -1.53748202e-004 -5.98166895e-004 2.97014893e-004 -2.59726396e-004
      2.95436967e-005 -1.90186867e-004 -6.34537544e-004 -1.58883864e-004
      4.63028933e-004 -8.03816132e-004 2.67351948e-004 -1.18946984e-004
      -2.38638604e-004 -5.09052596e-004 -2.36505206e-004
      -5.82190289e-004 -4.68774757e-004 4.13350033e-004 -4.35919705e-004
      3.82632606e-005 8.65892944e-005 -1.56218652e-004 9.34252690e-004
      -1.74964007e-004 -1.93434695e-004 -4.53500106e-004
      -3.30512994e-004 -1.35165348e-004 1.97004323e-004 -1.07217312e-003
      -1.18921444e-005 2.78163818e-004 5.58009051e-005 7.58834707e-004
      -1.60355165e-004 -5.51851554e-005 -1.27201356e-005
      -1.65930789e-004 -3.54819058e-004 -5.78920415e-004
      -3.75618431e-004 -1.47359024e-004 -3.38703772e-004
      -1.64934376e-004 5.69942385e-005 5.61806723e-004 -2.98037223e-004
      4.02005971e-004 3.40319966e-005 8.19203386e-004 3.30609910e-005
      3.07799986e-004 1.57390619e-004 -2.02854844e-005 7.28851533e-004
      5.23612252e-004 7.79641778e-005 -9.29786474e-004 2.05043456e-004
      -1.28050218e-004 3.28165654e-004 -1.16398471e-004 -1.25813298e-004
      9.70568857e-004 8.23229318e-004 -6.60234291e-005 4.46403556e-006
      -5.51112869e-004 1.18700511e-004 -8.66139831e-004 2.46360723e-004
      1.54447160e-004 4.40910750e-004 -9.65921936e-005 -2.26203614e-004
      -1.67736598e-005 -7.29456020e-004 2.14719286e-004 5.02216630e-004
      4.13901638e-004 -4.77569440e-004 7.31879612e-004 7.55741261e-004
      -2.59828230e-004 2.23942807e-005 -2.39976071e-004 4.15523420e-004
      4.72143904e-004 1.97283612e-006 9.74964278e-005 -2.51825986e-004
      4.08303982e-004 2.11199134e-004 -8.60955915e-004 1.00075376e-004
      4.73737600e-004 3.31968215e-004 4.25259750e-005 5.26846619e-004
      -5.12220940e-005 -4.07804328e-004 -5.10288577e-004 6.35983772e-004
      -3.60860460e-004 2.52970727e-004 5.91683900e-004 4.61385120e-004
      -6.60134596e-004 3.61144717e-004 -3.61101935e-004 -4.25509788e-004
      -6.82657235e-004 2.55712017e-004 3.64454958e-004 2.85225047e-004
      7.50366074e-004 -4.61568736e-004 -6.11853029e-004 -3.36955476e-004
      1.61135365e-004 3.32125579e-004 1.32002024e-004 4.47141705e-004
      1.15405640e-003 -8.98175698e-004 -2.24691947e-004 1.24016486e-004
      -1.89714992e-004 2.92953249e-004 -3.78517725e-004 -1.03664519e-004
      3.17010185e-004 1.13712966e-004 1.89424361e-004 5.62512359e-005
      -1.12972234e-003 -3.97255906e-004 -7.82983028e-004 1.95183107e-004
      -1.01724261e-004 -4.66841651e-004 5.76785707e-004 2.91911681e-004
      5.05561591e-004 5.11642138e-004 -1.43250378e-004 -1.28981454e-004
      -2.14676547e-004 -2.70017103e-004 5.09188336e-004 1.01263075e-004
      6.42631348e-005 -3.55491102e-005 -4.97646979e-004 2.95730919e-004
      -6.61224534e-004 8.11223890e-006 7.24161859e-004 5.12191502e-004
      4.65229823e-004 -6.16080244e-004 4.93264641e-004 -5.08878147e-004
      -4.06823492e-005 -8.03725095e-004 1.11911555e-004 -3.40703788e-004
      9.66928550e-004 -7.37160211e-004 4.76051682e-005 -6.75830117e-004
      -3.30799696e-004 -3.22112843e-004 -2.05674893e-004
      -4.39374126e-004 3.22401669e-004 4.75027628e-004 3.63989559e-004
      -1.20369565e-004 -5.27398777e-004 -9.68679495e-004
      -2.31797923e-004 -6.88038359e-004 -5.20242553e-004
      -3.51745141e-004 2.47841963e-004 -2.60588975e-004 -2.68686359e-004
      4.64717101e-004 3.15636775e-004 -3.66107415e-004 9.04454937e-005
      -1.61421107e-004 -6.24447246e-004 4.57421236e-004 2.64520873e-004
      -2.96734856e-004 3.46108340e-004 1.85663921e-005 -2.06544952e-004
      2.64566443e-005 1.70049883e-004 2.70545337e-004 -7.52661799e-005
      -3.74998810e-004 -2.91015487e-004 1.52627807e-004 1.97949281e-004
      -9.10807867e-005 -4.79951923e-005 -1.75325666e-004 1.54212248e-004
      1.13281573e-003 -3.27811576e-004 -4.87186597e-004 -1.03118771e-003
      -3.71397124e-004 -2.18134228e-004 -4.08126187e-004 4.78961847e-005
      -7.67846868e-005 1.33248584e-004 -2.31285594e-004 2.68236385e-004
      -3.88096261e-004 3.15539219e-005 1.98717447e-004 -1.65610065e-004
      -3.20701540e-004 1.94110457e-004 4.79818700e-004 -2.52455065e-004
      3.11296753e-004 -2.18577188e-004 -6.98139193e-004 -1.83315307e-004
      -5.77661442e-004 9.29555041e-004 -1.43877032e-005 -7.60168405e-005
      -1.84362943e-004 -4.87360201e-004 -8.22478032e-004 7.73421707e-005
      2.04591110e-004 -6.30060560e-004 7.31459004e-004 6.00701198e-004
      3.03132128e-005 -3.16788064e-004 1.96257723e-004 -7.22750265e-005
      -1.09679915e-003 -3.11759417e-004 -2.55081599e-004
      -5.61550551e-004 4.21255449e-004 -4.16640629e-004 -5.13678242e-004
      2.18581175e-004 -3.09536787e-004 -5.74344420e-004 -1.28560612e-004
      3.11030977e-004 -1.62205950e-004 4.38192626e-004 3.30437178e-004
      3.29093746e-004 5.51814097e-004 4.42305027e-004 2.74055928e-004
      -6.63112907e-004 -3.26999470e-005 -4.70879808e-004 1.12939486e-003
      -4.51044936e-004 -2.00268929e-004 -1.21372417e-004 6.08671398e-004
      -7.99383153e-004 3.57776269e-004 8.11201608e-005 6.55138865e-005
      -3.93571740e-004 -9.24054184e-005 -5.54644677e-004
      -2.56622996e-004 -2.57931737e-004 -1.02771760e-003 2.45180941e-004
      2.46520472e-007 5.99384308e-004 4.13759612e-004 3.75065603e-004
      -6.60245496e-005 7.97400018e-004 -4.49734478e-004 1.39249416e-004
      -4.92258929e-004 -3.46867717e-004 -3.12232325e-004 3.53981712e-004
      3.15273413e-004 -3.11138312e-004 -2.70256773e-004 6.64736261e-004
      -5.07913937e-004 9.90299159e-005 -6.99388795e-004 6.24294044e-004
      -7.74581858e-004 4.39256428e-006 2.36266933e-004 -2.90604308e-004
      -5.64232236e-004 -2.10782600e-004 -1.76431349e-004 4.49794643e-005
      -1.24357015e-004 1.06506486e-005 1.59902964e-004 1.87995989e-004
      8.38022170e-005 4.46399426e-005 2.56776843e-006 2.65738316e-004
      2.18255096e-004 6.24745007e-005 -1.08889581e-004 9.44776402e-004
      3.24429624e-004 -4.63093922e-004 5.20006870e-004 -6.45321503e-004
      2.22683433e-004 -1.54115260e-004 8.74444522e-005 3.50775284e-004
      1.08428285e-004 -5.46031457e-004 -1.36351300e-004 -3.40946281e-004
      -1.20965000e-004 -6.00224652e-004 -1.50827854e-003
      -4.94578679e-004 4.84308781e-004 1.03886574e-004 7.31170003e-005
      5.19747737e-005 3.90042143e-004 -8.86472990e-005 6.92460337e-004
      2.12008061e-004 -1.69822262e-004 4.98452922e-004 2.11510240e-004
      3.89486231e-004 -6.39047881e-004 -1.80585863e-004 4.39847121e-004
      -2.12693907e-004 2.73840589e-004 -4.87578101e-004 -8.77887884e-004
      3.23088083e-004 2.78491265e-004 2.74035760e-004 3.31821444e-004
      4.38575051e-004 -9.44140629e-005 7.78780814e-005 7.10075372e-004
      2.95658479e-004 3.19748098e-004 2.20061876e-004 6.06224639e-004
      4.35439812e-004 3.74617695e-004 -2.24614749e-004 7.18400232e-004
      -6.12565142e-004 -2.12134430e-004 6.71955291e-004 9.08772490e-005
      -1.90000806e-004 9.81736928e-004 4.35577356e-004 1.96403140e-004
      -6.73361879e-004 1.45923044e-003 -2.35093888e-004 -3.70347057e-004
      5.12133585e-004 8.31402838e-004 3.80372076e-004 2.87561707e-004
      9.89996533e-006 -3.00025975e-004 1.39951357e-004 -2.77911429e-004
      1.82029558e-004 -1.71659311e-004 2.49635777e-004 -3.07542621e-004
      2.71627214e-004 -4.01855097e-004 -3.96970136e-004 5.43612929e-004
      -4.72322252e-004 -3.76637094e-004 7.47279089e-004 1.84112316e-004
      -1.50287553e-004 6.17184633e-005 -5.19042835e-004 2.85087241e-004
      -2.02457377e-004 3.57789599e-004 -1.82237156e-004 -1.40940596e-004
      -6.15030294e-005 2.92453595e-004 3.95668292e-004 -1.72491156e-004
      -3.55781754e-004 2.57193518e-004 -5.59875276e-004 -7.32383807e-004
      2.75698665e-004 6.06278307e-004 -1.92291889e-004 -1.82879317e-004
      -1.24848375e-004 8.40507564e-005 -2.83200672e-004 6.33633579e-004
      1.06321269e-004 -6.18338745e-005 -8.95194098e-005 -2.05311851e-004
      -4.29211475e-004 -8.09914724e-004 3.81183461e-004 -5.47455391e-004
      -1.91588362e-004 -4.96237015e-004 -7.51381449e-005 1.03289014e-004
      -6.84297178e-004 -2.39496381e-004 -5.55721286e-004
      -4.43493773e-004 -1.84915742e-004 2.15118678e-004 -9.75361909e-004
      -1.12634320e-004 2.55392108e-004 -2.48574914e-004 -3.23401327e-004
      -1.62302822e-004 -1.61584263e-004 3.95133538e-005 -2.94897181e-004
      -1.69272374e-004 -8.99161023e-005 1.07765396e-003 1.51431095e-005
      1.99496630e-004 -6.13179523e-004 7.60468480e-004 -9.16776597e-004
      -4.16664756e-004 -1.33774101e-005 6.18743579e-005 -3.26118461e-004
      1.96690726e-005 -2.95055361e-004 -4.74420376e-004 -1.08926697e-003
      3.53478157e-004 1.69052801e-004 -1.31924200e-004 2.30806792e-004
      -3.12306394e-004 -2.13745385e-004 -5.60557179e-004
      -1.19213400e-004 -5.43341448e-004 5.19747962e-004 -1.08945547e-004
      -8.64413159e-004 -1.09597307e-003 -9.08946909e-004
      -6.94137052e-005 -5.96816244e-004 1.33278925e-004 -5.28236487e-005
      -2.11409824e-005 -4.24987840e-004 8.61026056e-005 -6.40513434e-004
      9.03076725e-005 -8.00206792e-004 -3.74841446e-004 5.97641811e-005
      2.27795914e-004 1.77768470e-006 -4.93689149e-004 -7.30194151e-004
      8.25588213e-005 -1.59105184e-004 -4.31840832e-004 -7.88991340e-004
      -8.51262812e-005 -2.77876970e-004 -1.07532032e-004
      -8.72094315e-005 -1.89184604e-004 -6.10914605e-004
      -1.54753361e-004 -4.30840882e-004 -5.41478978e-004
      -6.23725704e-004 -6.26942085e-004 6.59216661e-004 -6.19147177e-005
      -4.24295489e-004 -2.05018558e-004 -7.14268972e-005
      -6.59783662e-004 -1.96123045e-004 -5.19307388e-004
      -2.61454697e-004 3.35928111e-004 4.49253508e-004 -2.31615792e-004
      8.87657661e-005 3.17937229e-005 -5.97324106e-004 -6.87660126e-004
      1.46136925e-004 -6.07260445e-005 -1.35761366e-004 -2.26763281e-004
      -1.23972786e-004 7.46849924e-004 -5.95494756e-004 -3.63577536e-004
      -6.90950314e-004 -1.50297172e-004 -5.93116798e-004
      -4.39973592e-005 -3.53344221e-004 -5.62896712e-005
      -8.11075908e-004 4.39344760e-004 3.34568525e-004 -1.40194970e-004
      -6.73224626e-004 9.21848623e-005 -7.90304839e-005 5.28063865e-005
      1.96107212e-004 -7.09520464e-005 -2.23087292e-004 1.83949051e-005
      -7.09860644e-004 3.10966658e-004 6.39550999e-005 -4.66721947e-004
      -1.22705140e-004 -1.26222658e-004 -2.49118719e-004
      -5.18845685e-004 2.30907826e-005 -3.31879739e-004 -5.19069959e-004
      -1.91373241e-004 -1.15774374e-005 1.84282108e-004 -5.30508580e-004
      -4.91820043e-004 1.96757406e-004 -1.20554332e-005 4.13610360e-005
      -5.73769736e-004 7.50060053e-006 -2.91783421e-004 4.64974764e-005
      -7.94089050e-004 -3.22440319e-004 5.18645829e-005 -2.73588055e-004
      3.84174054e-004 3.45330627e-005 -3.35764984e-004 -1.40342992e-004
      2.35603162e-004 -6.14541887e-006 -1.32046218e-004 -8.18106870e-004
      -2.21042166e-004 -9.19564700e-005 -3.47917194e-005
      -7.68766389e-004 8.11270584e-005 -1.33485773e-005 -5.80910593e-004
      -4.09897999e-004 -2.44353781e-004 2.52456521e-004 -4.03352082e-004
      -3.55004420e-004 -1.39128242e-004 4.20396565e-004 -1.75011839e-004
      -4.66921192e-004 -3.23829328e-004 -1.36557486e-004
      -4.78473637e-004 3.02599423e-004 7.16671580e-004 3.76272277e-004
      -2.80406151e-004 6.62521692e-004 -3.38893966e-004 -3.04505345e-004
      -3.93535913e-004 -3.46890622e-004 6.49633992e-004 2.03850213e-004
      -2.89172487e-004 4.84812597e-004 3.45040695e-004 -6.98251126e-004
      -2.37524204e-004 3.13507131e-004 -3.21859465e-004 6.50018337e-005
      -1.55142534e-005 1.50425520e-004 -2.66469608e-004 2.33806990e-004
      -2.47046410e-004 -3.24631197e-004 8.17167747e-004 3.87577486e-004
      5.29319339e-004 -3.55940778e-004 -4.33282752e-004 -2.09108868e-004
      -1.22313784e-003 -3.70870621e-005 -1.50597261e-004
      -2.06885670e-004 1.33570138e-004 1.23720558e-003 1.37039518e-004
      -7.88763748e-004 -1.86228528e-004 -4.52720386e-004
      -5.30454039e-004 6.99495140e-004 9.76944459e-004 1.99338829e-004
      7.51586223e-004 1.74440604e-004 -6.19831728e-004 7.61653180e-004
      1.01489823e-005 5.32374135e-004 1.73380438e-004 7.76902598e-005
      1.16822449e-003 8.69468204e-004 2.51906924e-004 -2.78042280e-004
      -1.01736754e-004 -2.86114198e-004 9.47949302e-005 2.44765077e-004
      1.72980956e-003 1.27478456e-003 6.09242299e-004 7.57416885e-004
      1.82708623e-004 4.47471015e-004 -5.97159902e-004 -8.98678554e-004
      3.85566236e-004 1.70269306e-003 3.56843928e-004 8.43552174e-004
      -1.03173392e-004 1.81415875e-004 -3.18358070e-004 2.63276626e-004
      6.36997051e-004 3.74723750e-004 8.70015065e-004 6.50344475e-004
      5.12781437e-004 4.05168772e-004 -1.55504371e-004 2.32266335e-004
      8.64755566e-005 1.00393670e-004 2.54854822e-004 1.79303373e-004
      9.98661271e-004 5.44508046e-004 8.58515268e-004 4.52290347e-004
      3.53382347e-004 -9.93464491e-004 -3.01481021e-004 3.07460286e-004
      1.69543689e-003 2.05058372e-004 6.76025753e-004 -1.41157579e-004
      2.50659272e-004 4.49990839e-005 2.72383040e-004 -4.87470126e-004
      3.83168692e-004 1.91455160e-003 1.93449538e-004 8.08888799e-005
      3.11860029e-004 5.71485580e-005 -5.76406528e-005 -3.11861717e-004
      -6.20531500e-005 -3.11401411e-004 8.48712007e-005 1.44553720e-004
      -1.60533855e-005 4.97652334e-004 -2.04412354e-004 1.65355232e-004
      2.93934456e-004 9.32476614e-005 4.33063717e-004 -4.73293941e-004
      1.08359044e-003 8.94738536e-004 1.51722939e-004 5.14702173e-004
      1.70019666e-005 -4.25631617e-004 9.91387697e-006 6.61868762e-005
      3.44704982e-004 6.27573638e-004 3.20414751e-004 6.84002705e-004
      1.05603668e-003 -4.38106596e-004 -7.59844086e-004 -1.18272670e-004
      1.11451918e-004 1.19169930e-003 1.32460613e-004 3.85856722e-004
      4.54599533e-004 -1.28694082e-004 -3.69681831e-004 -6.52280403e-004
      7.12743786e-005 2.87601375e-004 -9.07639987e-005 -1.90456107e-004
      3.01782364e-007 3.05516965e-004 9.48970992e-005 -1.03663479e-003
      -6.82952596e-005 -2.16166547e-004 -2.09993712e-004
      -8.01682065e-004 1.27158570e-003 4.08475898e-004 8.37753178e-005
      2.49355973e-004 6.68807043e-005 -2.75749102e-004 3.41811712e-004
      2.56879284e-004 7.13299203e-004 -3.48982925e-004 6.22831692e-004
      3.79048084e-004 -1.85875979e-005 7.77155918e-004 -5.94979610e-005
      2.36538268e-004 3.68949142e-004 1.24418398e-003 -1.41257042e-004
      -1.50128297e-004 9.19681843e-005 -7.83900032e-005 5.02662384e-004
      -1.70491941e-004 1.23705468e-004 2.92475394e-004 -3.46813351e-004
      -1.30928267e-004 1.77692869e-004 1.13959955e-004 -2.67496449e-004
      -1.55093207e-004 -8.27747805e-004 2.61316280e-004 -1.15520539e-004
      -4.40240197e-004 3.12842691e-004 2.04400858e-004 2.44832103e-004
      -6.11283176e-005 -2.08711906e-004 1.71490334e-004 1.16716910e-004
      -9.08790607e-005 1.89453736e-003 8.25739407e-004 -9.45494176e-005
      2.46461219e-004 -2.91773060e-004 4.61780641e-004 -8.42636742e-004
      3.97303054e-004 7.35288486e-005 1.36107870e-003 -2.24694420e-004
      1.64243815e-004 -2.98939471e-004 -6.43554260e-004 -3.65693777e-005
      2.05711171e-004 -7.80623013e-005 -2.47578082e-005 -4.51418018e-004
      1.33593567e-004 4.26135492e-004 -2.61524867e-004 -3.86301195e-004
      -2.72651145e-004 4.68562575e-006 -3.14260687e-004 -2.75019527e-004
      2.28585312e-004 1.22690469e-003 -5.16731488e-005 6.28744368e-004
      -3.07321665e-004 4.00984572e-004 -7.47574493e-004 -3.64449894e-004
      1.04971754e-004 3.61620827e-004 6.05153560e-004 7.47135724e-004
      -5.63617832e-005 -2.33377272e-004 6.97098731e-005 -3.28275200e-004
      4.95595858e-004 -2.40014604e-004 1.17842609e-003 -1.72474960e-004
      6.80448022e-004 6.04745117e-004 -9.86174418e-005 2.21477367e-005
      3.42856307e-004 -4.79912153e-004 -2.72151985e-004 3.07186565e-004
      -3.58225196e-004 -3.73672781e-004 4.75363398e-004 1.29463457e-004
      -5.08764409e-004 6.83600258e-004 -2.78215855e-004 -2.43159229e-004
      4.25055594e-004 1.11205224e-003 7.15637580e-004 6.42470666e-004
      -5.24159055e-004 -3.76139593e-004 -3.20528954e-004
      -5.40360888e-005 -2.38925713e-004 7.88275211e-004 1.01898389e-003
      6.59150595e-004 -2.55170366e-004 -9.46735439e-004 -4.48806386e-004
      5.26832882e-004 -2.25515687e-004 3.93550756e-004 6.42116996e-004
      -8.25236348e-005 -3.68563924e-004 6.14181681e-006 -4.71434032e-004
      -2.60358120e-005 -4.05281171e-004 -4.13356582e-004
      -9.58542878e-005 6.04212575e-004 2.93862249e-004 4.97035624e-004
      -3.22772539e-004 -4.23514517e-004 2.54779879e-004 -1.30007596e-004
      4.50504100e-004 -7.88726393e-005 -4.25992912e-004 1.50958961e-003
      5.61508408e-004 3.19695100e-004 -1.04567094e-003 -2.72295059e-004
      4.72491636e-004 -2.57997133e-004 -2.81313551e-005 8.76595208e-004
      4.68269136e-004 5.60325279e-004 2.89851479e-004 -1.01059349e-003
      6.65946223e-004 -3.78161203e-004 -3.21754313e-004 3.00261570e-004
      1.07715139e-003</_></support_vectors>
  <decision_functions>
    <_>
      <sv_count>1</sv_count>
      <rho>-3.1226353021803153e+000</rho>
      <alpha>
        1.</alpha></_></decision_functions></opencv_ml_svm>
</opencv_storage>
