<?xml version="1.0"?>
<opencv_storage>
<opencv_ml_svm>
  <format>3</format>
  <svmType>C_SVC</svmType>
  <kernel>
    <type>LINEAR</type></kernel>
  <C>5.9999999999999998e-001</C>
  <term_criteria><iterations>10000000</iterations></term_criteria>
  <var_count>4608</var_count>
  <class_count>2</class_count>
  <class_labels type_id="opencv-matrix">
    <rows>2</rows>
    <cols>1</cols>
    <dt>i</dt>
    <data>
      -1 1</data></class_labels>
  <sv_total>1</sv_total>
  <support_vectors>
    <_>
      -5.70090087e-005 3.21650790e-004 2.12431783e-004 -1.11970767e-004
      1.28545307e-005 5.15867541e-005 3.88294975e-005 3.99556535e-004
      5.75153899e-005 4.23437363e-004 1.65529476e-004 3.67702771e-004
      -1.88336839e-004 9.54874704e-005 2.13020365e-004 8.10840284e-005
      -3.49992188e-005 -3.48990521e-004 1.07125561e-004 1.61212476e-004
      3.78842815e-004 2.49982577e-007 1.06154665e-004 3.89714551e-005
      3.60142149e-004 -1.23263002e-004 -4.47224127e-004 -8.85203990e-005
      6.07914153e-005 4.01687430e-004 -5.65128517e-004 2.87344355e-005
      4.83226002e-004 3.15456273e-004 3.69720685e-004 -2.19851427e-005
      -1.50644133e-004 5.06901590e-004 2.38398730e-004 -3.90393761e-005
      -7.58283713e-004 1.96833716e-004 4.05595711e-005 6.92250396e-005
      -5.74205988e-005 -2.72690551e-004 1.15080358e-004 3.30339972e-004
      3.11679469e-004 -2.78794905e-005 4.40981676e-004 2.49914068e-004
      -2.93369595e-007 3.07492446e-004 -3.97345546e-004 2.18726427e-006
      -2.03735544e-005 -6.15921163e-005 2.43193383e-004 4.09044587e-004
      5.44894254e-004 1.49561063e-004 6.05924906e-005 1.40343418e-005
      -8.05984819e-005 3.21323081e-004 -1.47394225e-004 -1.58765426e-004
      3.16460704e-004 8.28689663e-004 1.24692859e-004 6.35849137e-005
      1.33351277e-004 2.19307243e-004 3.37008940e-004 4.75204317e-004
      -3.24619650e-005 1.33576425e-004 1.73192995e-004 1.09188753e-004
      -1.48488180e-004 -2.14999061e-004 2.62690010e-004 5.34001156e-004
      -1.73116016e-004 -6.89925218e-005 4.57689690e-004 6.44573243e-004
      2.40991023e-004 -3.35769175e-004 -2.30793630e-005 3.71648435e-004
      9.40612299e-005 -4.15413408e-004 -2.81501387e-004 3.27665271e-004
      2.40197027e-004 5.54254686e-004 -1.24330341e-004 6.79779158e-004
      -6.35376316e-004 2.78847496e-004 -6.50744369e-006 -2.63634953e-004
      6.69597575e-005 3.03917099e-004 1.01590049e-004 -1.20288925e-004
      8.54831887e-006 -1.98507361e-004 6.53960706e-006 3.61850602e-004
      -1.64042576e-004 5.91496588e-004 5.34483173e-004 1.66106955e-004
      -2.41975096e-004 1.46246384e-004 -3.19312421e-005 3.18452949e-004
      2.56046682e-004 -9.54323259e-005 4.70199768e-004 2.83604313e-004
      -6.62845050e-005 -8.51011355e-005 -4.37188952e-004 1.46123130e-004
      5.45493793e-004 -2.42737558e-004 -6.93826005e-004 4.53347835e-004
      -5.77732426e-005 2.17317516e-004 -1.05416337e-004 -3.85411331e-005
      3.10125557e-004 8.47930132e-005 -8.77899292e-005 1.04842424e-004
      -3.76533368e-004 1.54913010e-004 1.01393729e-004 -8.11856662e-005
      -1.29668770e-004 3.57997866e-004 4.65829857e-004 4.80901916e-004
      -6.62340753e-005 1.03858321e-004 3.03372275e-004 2.26549499e-004
      -9.22995605e-005 7.55004803e-005 3.55820288e-004 1.06733496e-004
      3.52605915e-004 1.73615874e-004 2.95206719e-005 5.61111723e-004
      4.37055947e-004 3.07384435e-005 -7.76760862e-005 3.55256256e-004
      2.35304236e-004 3.97060154e-004 -3.10777468e-005 -4.45688696e-004
      6.10059709e-004 -3.08951130e-004 5.15812935e-005 -3.74401134e-005
      1.10280067e-004 1.95123983e-004 3.42521700e-004 -2.10029757e-004
      -5.50221594e-004 2.15483655e-004 3.70720110e-004 -3.87043576e-004
      -5.35339350e-005 5.81983295e-005 2.16391345e-004 -9.30388342e-005
      -2.85619346e-004 3.49048729e-004 4.92891821e-004 2.19026871e-004
      6.01636770e-004 1.83276628e-004 1.63458841e-004 1.17466960e-004
      7.19697127e-005 1.25213401e-005 -1.12114656e-004 1.99088376e-004
      9.81040575e-005 2.57638720e-004 -2.56795483e-005 2.18104295e-004
      1.52899054e-004 -1.76813192e-005 -2.66698131e-004 -3.92852729e-004
      4.00092802e-004 2.10617320e-004 2.78318126e-004 5.62680361e-004
      5.97442617e-004 4.78188012e-004 -1.60668948e-004 1.55375717e-004
      -1.75243302e-004 7.01985118e-005 -1.84083096e-004 -2.85291608e-005
      -2.34590261e-005 7.38701565e-005 2.16818851e-004 1.52733352e-004
      1.79581242e-004 1.48370546e-005 5.30274818e-004 9.72956404e-005
      -3.44547065e-004 3.76578828e-005 -3.89438574e-005 3.37077247e-004
      2.68201315e-004 -2.29672296e-004 2.55279767e-004 3.16612306e-004
      -1.94970868e-004 -1.21231889e-004 2.19532594e-004 1.72866159e-004
      3.94925883e-004 -4.19646385e-005 -1.89256811e-004 -1.89520826e-004
      4.60905314e-004 1.11023168e-004 8.78298088e-005 -1.11027592e-004
      -7.14484995e-005 7.49426690e-005 5.36620901e-005 -3.10020871e-004
      1.66328275e-004 2.83704692e-004 3.18864186e-004 5.35902858e-004
      -9.56850563e-005 4.47628991e-004 2.50767538e-004 1.33168593e-004
      -6.05199777e-004 5.00476337e-004 3.53719151e-005 1.30179949e-004
      6.19435959e-005 2.53274833e-004 1.72827567e-004 2.90876342e-004
      -1.30155735e-004 3.21304717e-004 1.27509862e-004 2.19140187e-004
      -5.18126353e-006 -1.35093896e-005 -2.36998079e-004 7.11412868e-005
      -5.97078761e-005 4.19137126e-004 -8.17569889e-005 1.27293082e-004
      4.04614111e-005 2.69580778e-004 4.84796583e-005 3.45827342e-004
      -1.48351348e-004 4.07778061e-005 2.46392534e-004 1.32672751e-004
      5.05514799e-005 2.57308391e-004 4.03664511e-004 1.42847639e-004
      -3.90878937e-004 3.35714110e-004 1.15593110e-004 4.47014354e-005
      -1.80268311e-004 1.64717876e-005 2.75057653e-004 3.99721066e-005
      -2.53331120e-004 1.12753878e-004 -6.09624476e-005 -1.53803310e-004
      -2.88769261e-005 -9.59511817e-005 1.19695818e-004 4.21197183e-004
      2.61829031e-004 2.92139099e-004 -4.63085045e-004 -1.16855234e-004
      7.77847526e-005 1.24490791e-004 6.32174953e-004 -2.51888705e-004
      1.02286009e-004 -6.97074865e-005 -4.62929347e-005 2.45418691e-004
      -2.30676902e-004 4.19531891e-004 2.72935868e-004 2.71885685e-004
      -4.66424885e-004 -6.15149111e-005 1.99996328e-004 -2.83855974e-004
      -4.65021410e-004 -4.26867045e-004 1.68249462e-004 -1.58901476e-005
      4.16951370e-005 -2.30228907e-004 1.08597378e-004 3.17816826e-004
      2.70699966e-004 4.14204522e-004 -3.50302987e-004 -1.39276191e-004
      -3.01445747e-004 2.49189237e-004 -1.67223116e-004 -1.12078800e-004
      -2.41211877e-004 2.71685538e-004 -3.76220152e-004 -4.59115341e-004
      -3.07576091e-004 3.85140593e-004 -9.35831849e-005 8.62443630e-005
      3.32706550e-004 4.79776820e-004 -2.10574595e-004 5.53052232e-004
      -5.03671647e-004 -3.30953219e-004 -2.08357378e-004 4.58741706e-004
      2.91832403e-004 9.80849727e-005 1.07385276e-004 8.93618781e-005
      -1.12112801e-004 2.76020961e-004 -4.96333814e-004 -7.51442058e-005
      4.13386006e-004 -3.84008483e-004 -3.98192118e-004 -2.91745266e-004
      4.02189646e-004 -4.99463713e-005 2.45206407e-004 -2.30176433e-004
      -6.33589079e-005 -1.74020577e-004 -4.55300295e-004 1.42280542e-005
      1.47249346e-004 3.79139296e-004 3.35302138e-005 -1.70753745e-004
      1.06240470e-004 9.39151942e-005 3.64141946e-004 5.41358058e-005
      -4.72687650e-004 -2.38125474e-004 -8.48808631e-005
      -1.30101791e-004 -2.18875852e-004 -9.89381733e-005
      -9.36320212e-005 -2.55651248e-004 -2.88202340e-004
      -1.48780993e-004 3.22473206e-004 2.01883086e-004 -8.65048860e-005
      1.25359365e-005 -4.37598646e-004 -7.82609277e-004 3.93819209e-005
      -8.35084575e-005 5.44990653e-005 2.14342173e-004 2.15810724e-004
      -1.54434339e-004 -2.70096989e-005 -4.48648352e-004
      -7.23371457e-004 2.86370378e-005 -3.72996117e-004 -2.52821977e-004
      7.21711025e-004 1.29263080e-005 1.67393373e-005 -8.68600735e-004
      -1.14928444e-004 1.79367162e-005 1.47925617e-004 -4.49451007e-004
      -1.53709130e-004 4.22348414e-004 -2.23049748e-004 2.45509786e-004
      -1.68083672e-004 -4.73084772e-004 -2.96596321e-004 2.28089295e-004
      -5.45648276e-004 -7.37968221e-005 1.32607543e-004 1.32150153e-005
      3.33264557e-004 -1.97332469e-004 -7.68722748e-005 -4.12858237e-004
      4.07986554e-005 -2.37924105e-004 1.35675960e-004 -2.36233740e-004
      3.10840493e-004 1.44227670e-004 2.16668705e-004 5.83918772e-005
      -9.22047358e-004 -1.57435046e-004 -1.36718969e-004 3.08864692e-004
      4.28441679e-004 7.26851576e-005 2.04169744e-004 -4.26495564e-004
      1.03674975e-004 -4.70707164e-004 -2.35480140e-004 -3.10707014e-006
      -4.54174151e-004 3.80964368e-004 4.45297665e-005 2.43529226e-004
      -5.32403537e-005 2.48050346e-004 -6.95682480e-004 -2.56253959e-004
      -1.93705055e-004 6.92191170e-005 1.32430592e-004 -2.88508774e-004
      2.16622590e-004 3.20440828e-004 1.73447173e-004 -1.81974319e-004
      1.67520149e-004 -3.56097647e-004 -1.59286152e-004 -2.78495514e-004
      2.67281248e-005 4.87938931e-004 5.70036529e-004 -1.27682448e-004
      -2.81146698e-004 -4.84533986e-004 1.66660320e-004 3.11587995e-004
      2.73768266e-004 -2.29520701e-005 -2.41060319e-004 1.64552603e-005
      -1.51925226e-004 -8.11927312e-004 -3.21940664e-004
      -2.66561081e-004 3.43979736e-005 -3.02472094e-004 -2.74560152e-004
      3.60356935e-004 -4.25648293e-004 4.24141290e-005 -3.84325424e-004
      -8.72071032e-005 -1.16358729e-004 6.05836358e-005 -2.68948497e-004
      -2.50317942e-004 1.31554887e-004 3.44815489e-004 -6.70346417e-005
      -2.81213197e-005 -5.15507825e-004 -1.03779777e-004 3.96480958e-004
      -2.30404021e-005 1.54789028e-004 -4.92267573e-005 1.68497761e-004
      2.87709991e-004 8.19205379e-005 3.38353420e-004 6.39885911e-005
      -2.70326709e-005 6.38283746e-006 -2.64763657e-004 3.10058531e-004
      4.02490368e-005 -2.26457967e-004 -5.31589831e-005 -4.46073827e-004
      -1.04138453e-004 6.18777340e-005 1.31080029e-004 -2.85194925e-004
      1.05166881e-004 -6.86379644e-005 -1.73903827e-004 -5.00099668e-005
      3.99481098e-004 -5.24663075e-004 -3.68681067e-004 -1.23729100e-004
      1.46680777e-005 -2.29287456e-004 5.21338778e-004 2.20958755e-004
      4.09976958e-004 4.60973497e-005 -2.82581368e-005 -1.91035519e-006
      1.12346897e-004 2.85093120e-004 2.20961141e-004 5.11272403e-004
      5.26198943e-004 -5.01548566e-005 4.02022211e-004 4.52882814e-004
      3.02332017e-004 3.05566296e-004 1.76614602e-004 1.07314365e-004
      9.78474491e-005 9.51499242e-005 -1.94970518e-004 -3.47711088e-004
      3.55871889e-005 2.25412557e-004 -3.87021937e-005 -2.13495034e-004
      1.98482769e-004 2.29773970e-004 3.72363400e-004 2.02985742e-004
      -1.29514985e-004 -4.77433787e-004 3.42679501e-004 1.27811800e-004
      -1.60207986e-004 2.72183388e-004 4.44936799e-004 1.25873732e-004
      2.91370146e-004 1.77109949e-004 -6.28617418e-005 1.81983982e-004
      -1.57655886e-004 1.34375350e-005 9.04616900e-006 2.79672648e-004
      1.66250145e-004 1.89695333e-004 -2.30816004e-004 -8.39586355e-005
      -2.59031047e-004 -7.38163653e-005 -2.53774633e-004 2.35714077e-004
      -9.87583771e-005 3.51915718e-004 7.80983319e-005 -1.13714996e-005
      -3.54742224e-005 1.88788501e-004 -3.32804018e-004 -1.66213722e-004
      6.21609855e-004 -1.19167627e-004 -2.68911448e-004 -3.30189359e-004
      -1.01198297e-004 3.97768817e-005 5.42430149e-004 -8.22133807e-005
      -4.31884226e-004 1.37980765e-004 1.27337582e-004 -3.00757471e-004
      -9.34333657e-005 -1.78853734e-005 9.41397098e-004 1.33055917e-004
      1.33697773e-004 -5.41199333e-005 -2.48338765e-004 -2.67958821e-004
      -3.12542601e-004 -5.16772678e-004 3.60244419e-004 3.27330083e-004
      1.65570782e-005 -4.31747874e-004 2.59719905e-004 5.43894421e-004
      6.77740754e-005 1.34688162e-004 -4.09636355e-004 -7.34278874e-005
      -3.01115360e-004 -1.58362323e-004 -1.20219876e-004
      -5.48549287e-004 7.78020039e-005 -3.33289005e-004 -1.56027687e-004
      6.51299342e-005 -3.58846271e-004 1.19021963e-004 3.60927734e-005
      -3.75392789e-004 -4.43771540e-004 -3.50487157e-004
      -4.09378234e-004 1.51545464e-004 5.06920449e-004 -1.02663153e-005
      -2.70195269e-005 -4.96582245e-004 -6.94151313e-005 2.77008279e-004
      -1.08374530e-004 -1.00067336e-006 -4.90088190e-004 1.31050838e-004
      -1.29656037e-004 8.02355789e-005 2.09661332e-004 -1.61730073e-004
      -3.53542302e-004 -1.26616156e-004 -3.38069476e-005 2.85748218e-004
      -3.66555265e-004 2.57824431e-004 1.13185895e-004 -3.00215848e-004
      -5.14357584e-004 -1.10971203e-004 -1.80578118e-005
      -6.75319316e-005 -1.07097192e-004 3.54431133e-004 9.84758371e-005
      -4.49440558e-004 -2.75566097e-004 -6.04261237e-004
      -1.17294403e-004 3.03461216e-004 -8.16818210e-004 -1.95220302e-004
      2.52258382e-004 -5.33610408e-004 -4.85330238e-005 -3.60416889e-004
      -8.01887727e-005 -2.93839345e-004 3.74080287e-006 -6.06635294e-004
      -2.70527817e-004 -3.84498635e-005 -1.82882781e-004
      -2.77128347e-005 -1.88973936e-004 -1.57857285e-005
      -1.93541258e-004 2.42149676e-004 -7.55392888e-004 -6.56961231e-004
      -3.72003822e-004 -2.01420233e-004 -3.83113831e-004
      -2.05987235e-004 -3.10441450e-004 -3.47743422e-004 2.66442585e-005
      -1.25903694e-003 -3.96307063e-004 -4.82148840e-004 1.66246245e-004
      -8.25117517e-004 -3.41893319e-004 -6.88942207e-004
      -4.79611888e-004 -3.20925901e-004 -4.47442930e-004
      -4.69786813e-004 1.98048423e-004 -4.53576067e-005 -1.29369131e-004
      -2.79842672e-004 -3.52947391e-004 -1.17498734e-004
      -3.41367297e-004 -6.24492648e-004 -4.20922268e-004
      -5.55122446e-004 -1.28273468e-005 7.12679539e-005 4.55667987e-006
      -1.41346565e-004 4.26432467e-004 -9.67504020e-005 -7.61678675e-004
      -3.73342569e-004 -2.45240051e-004 1.94137509e-004 -8.14148050e-004
      -3.25052271e-004 -5.27155004e-004 -2.64066883e-004
      -1.42868157e-004 -1.01056532e-003 -4.94589156e-004
      -1.56741502e-004 1.09034254e-005 -1.25485152e-004 -6.39672042e-004
      2.56034982e-004 1.45300932e-004 7.96336972e-005 2.72043835e-004
      -3.52943200e-004 -3.36997124e-004 -4.53152141e-004 1.47500847e-004
      -2.92955374e-004 -1.49216867e-004 -4.76965331e-004
      -8.18215049e-005 -4.17298928e-004 -1.63158838e-005
      -1.15054921e-004 5.18214947e-004 5.40950452e-004 3.40630970e-004
      -4.75408247e-004 -1.48418214e-004 -5.21420268e-004
      -1.55459842e-004 -6.29095943e-004 -9.28798763e-005 3.14860255e-004
      -2.87659408e-004 2.17757100e-004 1.29469161e-004 1.08960834e-004
      -4.17710282e-004 -5.40757435e-004 -5.65467926e-004
      -2.75485945e-004 8.15266685e-005 1.01378755e-004 2.53835664e-004
      2.79603355e-005 7.49389874e-005 1.11356885e-005 2.01542935e-004
      3.51258728e-004 -2.00400827e-004 -3.44104425e-004 -3.65356740e-004
      3.11285839e-004 1.13646374e-005 -2.13947351e-004 -7.39309180e-004
      -3.33587581e-004 7.50332256e-005 -1.36501665e-004 -3.08599556e-005
      -4.66171885e-004 1.65460151e-004 4.07350337e-004 -2.43312825e-004
      -2.67249125e-004 -2.43595787e-004 1.96216555e-004 4.82510186e-005
      6.16679026e-004 -4.71360283e-004 3.30007140e-004 8.02698953e-004
      -3.49805894e-004 -4.07620479e-004 -1.38008050e-004
      -7.64330325e-005 -1.98280075e-004 6.88606306e-005 2.16976288e-004
      -2.21614653e-004 4.96350985e-004 -2.88225943e-004 1.18035903e-004
      -1.58142124e-004 -2.98472855e-008 7.08896696e-005 5.51460253e-004
      3.17308622e-005 3.84342711e-004 -5.32436352e-005 -4.13168338e-004
      1.75085093e-004 2.88763142e-004 3.46931221e-004 4.03753889e-004
      3.60682840e-004 2.21318696e-004 -7.83897340e-005 -4.23618621e-005
      -7.58035312e-005 7.06653344e-004 1.84852943e-005 -1.90691339e-004
      -8.38378619e-005 1.86844831e-004 -1.02504666e-004 -2.61773414e-004
      4.94414744e-005 8.58677304e-005 3.11491196e-004 -1.93204774e-004
      9.44336425e-005 -2.17450142e-004 -7.57751477e-005 2.23695446e-004
      9.77209187e-004 5.98809092e-005 1.19647753e-004 2.82803405e-004
      1.74162669e-005 4.01662401e-005 -3.89056477e-005 -9.22605832e-005
      3.02208442e-004 2.39543195e-004 -2.76710518e-004 -4.01273835e-004
      8.63362948e-005 1.32068264e-004 -5.79332875e-004 -6.80485449e-004
      5.16210101e-004 2.08142359e-004 -4.34936490e-004 -1.52346940e-004
      8.31886209e-005 3.11521813e-004 -5.18869383e-005 2.10747501e-004
      -9.01426847e-006 2.72788777e-004 3.89488239e-004 4.04269143e-004
      6.70857407e-005 1.01792080e-004 -2.83590285e-004 -1.50558073e-004
      2.23185052e-004 -5.32939506e-004 5.04534182e-005 8.26591277e-005
      -3.71784008e-005 1.28501153e-004 3.89374036e-004 1.63547520e-004
      9.33022529e-005 -3.11524665e-004 -2.64262344e-004 5.43577538e-004
      -3.08249117e-004 2.56962121e-005 2.13914245e-004 -1.49238564e-004
      -4.01751196e-004 -9.91882480e-005 -4.35699803e-005 6.26169276e-005
      1.42817618e-004 1.54162713e-004 2.43858958e-004 -2.14490356e-005
      1.31860768e-004 2.02184863e-004 -1.10638703e-005 -5.22200542e-004
      1.59736417e-004 -2.03516523e-004 9.92518035e-005 1.51638436e-004
      1.68724597e-004 7.82338830e-005 3.45574226e-004 -2.72062869e-004
      -8.25336261e-004 -4.17125149e-004 6.02576067e-004 -1.61071497e-004
      1.50991094e-004 -2.86930299e-004 -1.98932903e-004 -4.71042964e-004
      4.52006847e-004 -1.21179619e-004 -3.07281676e-004 2.07359510e-004
      -3.77848992e-005 5.47922740e-004 1.09534762e-004 6.45377790e-004
      -1.80580653e-004 2.16737346e-004 3.45755310e-004 -6.46845787e-004
      4.28854866e-004 -1.60129610e-004 -7.92803650e-004 -8.81045999e-004
      -9.55201322e-005 -7.72274434e-005 1.38839838e-004 -2.78148917e-004
      -4.46427526e-004 -1.34110087e-004 -6.05981586e-005
      -9.63970597e-005 2.96816270e-005 1.78261369e-004 2.62974936e-004
      -6.87423017e-005 -2.01851217e-004 -5.70175180e-004 7.15862334e-005
      -5.30873891e-004 -6.60432444e-004 -1.95820510e-004 3.48821515e-004
      -1.27672029e-004 -2.09035265e-004 -2.41864618e-004
      -4.76611138e-004 5.68663672e-005 -6.77004107e-004 -9.78694879e-005
      -8.11068807e-004 -6.39015459e-004 -2.04704760e-004
      -4.92723368e-004 -3.63678293e-004 -8.44456954e-004 4.91490704e-004
      4.00441641e-004 -1.26502870e-004 -4.52372158e-004 -5.45925694e-004
      2.39797555e-005 1.61635344e-005 3.10873584e-005 -2.09889666e-004
      -1.08048444e-004 -4.45007434e-004 -6.36544370e-004
      -3.75198084e-004 -4.56358684e-005 1.11522073e-004 -1.38820367e-004
      -4.46090649e-004 -1.26805811e-004 6.37284975e-005 -1.88753591e-004
      -3.75547388e-004 -2.84075013e-005 2.17657056e-004 -1.75216526e-004
      -6.07946946e-004 -4.77175345e-004 -3.41310399e-004
      -7.52951019e-005 -1.94913999e-004 -6.49915310e-005
      -2.39753572e-004 3.07283539e-004 1.43919824e-004 -5.34802850e-004
      -1.11406611e-003 -4.96883818e-004 2.85748742e-004 -6.98452117e-004
      2.34665131e-004 -6.58546051e-004 -2.23752184e-004 3.63629078e-005
      -3.82368657e-004 -5.69303287e-004 -3.90715053e-004 8.33084341e-005
      3.78724857e-004 -3.90780420e-004 -3.51691328e-004 -1.89280454e-005
      4.33694542e-004 -2.41995192e-004 -4.30039800e-005 -7.89263868e-004
      3.52135219e-004 -3.42910498e-004 -5.36387815e-005 -1.57488932e-004
      -4.23759629e-004 -3.34983852e-005 -3.07475711e-004
      -1.59367861e-004 -2.84062349e-004 1.79102833e-004 -7.63031188e-004
      -3.91713285e-004 3.33644130e-005 -1.43146070e-004 1.05392137e-004
      -4.80093469e-004 -4.03546117e-004 -3.71711532e-004
      -1.90661245e-004 -1.84697885e-004 1.71745429e-004 -2.70905439e-004
      2.79361731e-004 3.09540250e-004 -6.34573298e-005 -5.17952431e-004
      -9.67323213e-005 3.19432816e-004 -2.08824218e-004 -5.36583597e-004
      -8.03115487e-004 -5.82065433e-004 -2.48797387e-005 2.29786292e-005
      -3.44382017e-004 1.00109188e-004 2.11320803e-004 1.08596259e-005
      -8.18222325e-005 -1.50479900e-004 -4.15907183e-004
      -1.52859444e-004 -2.17678593e-004 -6.33831223e-005 3.36222256e-005
      9.95492592e-005 -3.44659347e-004 1.26347295e-004 1.38336865e-004
      8.57840641e-004 3.37115664e-004 -1.48949301e-004 2.93668427e-006
      -3.96176503e-004 7.17122573e-004 -1.39377635e-005 6.32647061e-005
      -2.01184565e-004 5.86847673e-005 1.84932898e-004 -9.61011319e-005
      3.70542257e-005 -3.97704163e-004 2.61410343e-004 -3.24419350e-004
      -8.87814895e-005 1.37210984e-004 -5.66415256e-004 2.02267460e-004
      3.67314467e-004 -7.97043249e-005 -4.36373288e-004 -3.38698213e-004
      1.97956368e-004 -2.11759965e-004 -2.73278099e-004 -1.25418315e-004
      -3.07307084e-004 3.29445553e-004 -5.37401938e-004 1.12340946e-004
      1.38791089e-004 -5.14862826e-004 7.76350906e-004 1.26009414e-004
      3.84797371e-004 2.50435580e-004 3.66134132e-004 2.36035892e-004
      4.30034197e-005 -1.61575808e-004 -4.45057412e-005 2.13183652e-004
      8.18062181e-005 6.90004163e-005 1.59445917e-004 1.21667043e-004
      -5.62320893e-005 -2.62686051e-004 -2.89360964e-004
      -6.31557079e-004 -1.76867572e-004 -2.58308079e-004 1.18434087e-004
      7.94102380e-004 2.41824182e-005 -8.04526135e-005 3.27392918e-004
      -3.22159067e-005 -4.29671869e-004 -6.41936902e-004
      -1.38701871e-004 -2.96940561e-004 1.70667681e-005 -2.23897965e-004
      -3.46246670e-004 -2.29216676e-004 2.68874603e-004 -1.03133043e-005
      2.08890604e-004 3.34380369e-004 -1.27767926e-004 1.84559947e-004
      -2.59893510e-004 2.70176206e-005 3.18405859e-004 1.04448023e-004
      -1.97195463e-004 3.30490526e-004 5.62374371e-005 -1.13978698e-004
      -4.94238688e-004 -4.41176453e-005 2.41553222e-004 -2.44674666e-005
      -4.19900345e-004 -2.99267995e-004 -3.16884652e-005 2.61907931e-004
      -5.35263280e-005 -2.48676341e-004 3.16037709e-004 -1.01638587e-004
      -3.29711096e-004 -7.44793681e-007 -2.41152899e-004 5.99621388e-004
      2.13819061e-004 4.69594816e-004 -1.24653918e-004 -4.84488119e-004
      -3.62522056e-004 1.38597665e-004 2.25938184e-005 3.35349294e-004
      2.64838309e-004 2.00187773e-004 -5.47145864e-005 4.79901413e-004
      -2.44215080e-005 -1.04795741e-004 3.99744196e-004 5.22853516e-004
      -4.07703657e-004 5.34314277e-005 1.05862695e-004 -6.93258553e-005
      -4.23503283e-004 -2.10637256e-004 -1.23602076e-004 1.35462717e-004
      -2.10024882e-005 -2.42890543e-004 4.36738628e-004 3.43191030e-004
      2.99538107e-004 -3.37769656e-004 8.52457788e-007 4.58874769e-004
      3.12069489e-004 5.11978462e-004 -8.02492432e-005 1.75104651e-004
      5.41070360e-004 3.46385612e-004 2.05853168e-004 2.09460104e-005
      5.66690942e-005 -6.26985420e-005 -1.50336578e-004 -1.44723759e-004
      1.25491322e-004 7.05162529e-005 7.20882264e-004 -6.18802878e-005
      1.17777519e-004 -3.36181140e-004 -1.36918670e-005 -1.42628662e-004
      -3.55622105e-005 -1.11746427e-004 4.65891790e-005 2.65696552e-004
      4.28680833e-005 -1.26750208e-004 9.57771481e-005 -2.40891502e-004
      6.60604856e-004 1.12193644e-004 4.33239300e-004 -8.65563852e-005
      1.59940653e-004 4.04689990e-006 -1.08414992e-004 9.36187519e-007
      1.50320906e-004 5.71021170e-004 1.46440521e-004 -2.56661529e-004
      1.11434769e-004 1.60746247e-004 2.67141513e-005 -1.95320245e-004
      -2.78220657e-004 -6.79087461e-005 4.30918764e-004 -3.74530973e-005
      -5.33698258e-005 -1.91751766e-004 5.91603632e-004 2.32910184e-004
      -3.93383234e-004 -5.70753647e-004 3.84347106e-004 1.43753568e-004
      -2.98726343e-004 -6.24388398e-004 -1.98219219e-004 4.07724991e-004
      -5.61240995e-005 -1.19506454e-004 1.37729963e-004 2.77744024e-004
      8.58441461e-004 1.44613863e-004 1.19093747e-004 2.44764000e-004
      1.02356149e-004 -1.74535744e-005 -5.17854991e-004 1.77228969e-004
      1.60376745e-004 1.53482950e-004 1.04264109e-006 -3.19671090e-005
      -4.84611461e-004 1.66010926e-004 5.05942553e-005 -5.79353014e-004
      -3.55045981e-004 -3.35882214e-004 4.43475757e-004 -2.21050475e-004
      -5.45015384e-004 -5.24865522e-004 -1.21411489e-004 2.55511608e-004
      -2.99505860e-004 -1.45672908e-004 9.46971559e-005 3.58087709e-004
      -1.36834278e-004 -1.22840880e-004 -5.83432149e-004 1.90454361e-004
      2.71344325e-005 -9.47683293e-005 1.07503794e-004 -6.67810615e-004
      1.33078007e-004 -3.05990892e-004 1.09611137e-004 1.43236084e-005
      -2.79415806e-004 3.38750862e-004 1.95984496e-004 -2.25680014e-005
      -1.77037771e-004 -1.63733042e-004 -6.33358082e-004 7.89252153e-005
      -5.57705760e-004 4.53514862e-004 1.40251432e-004 -2.11239487e-004
      4.13620292e-005 -4.51621774e-004 4.20948636e-005 8.92250973e-005
      -8.96669168e-004 -4.11580782e-004 2.61959794e-004 -2.39183195e-004
      -7.53130826e-006 -5.88963623e-004 1.36434697e-004 4.57540766e-004
      -5.12186787e-004 -5.94000856e-004 -4.17440548e-004 5.19474095e-004
      -1.02207021e-004 -1.86418532e-004 -1.25879829e-004
      -7.77848996e-004 -5.62423025e-004 -5.57696563e-004
      -7.91331513e-006 6.88246073e-005 -1.85705241e-004 -5.63054782e-005
      -3.58148391e-005 -1.83033670e-004 3.06371978e-004 1.31497844e-004
      -1.32881876e-004 -5.37998159e-004 -9.95307710e-006
      -3.10552219e-004 1.11723139e-005 -4.44082951e-004 -3.54199845e-004
      -2.53504491e-004 -2.35631705e-005 1.10562854e-004 1.84188684e-004
      -2.04940879e-004 1.50736261e-004 -1.89093495e-004 -2.50919285e-004
      5.47632168e-004 2.92293786e-004 -2.86629336e-004 7.57300950e-005
      -2.70608725e-004 -3.74262832e-004 -1.63205386e-005 3.06543225e-004
      2.13078951e-004 -2.31688275e-004 3.75939962e-005 -4.06670239e-004
      5.40145447e-005 -3.62611347e-004 -5.95883874e-004 -2.64964823e-004
      9.97173047e-005 -3.26888432e-004 7.96663589e-005 4.38339805e-004
      -5.65599294e-005 7.89331898e-005 -2.59305089e-005 -3.36830446e-004
      1.76051297e-004 9.31546747e-005 2.67363532e-004 7.15171103e-004
      5.37166605e-004 -4.05833271e-004 -1.40299657e-004 -3.71268659e-004
      -7.77065638e-004 2.21486000e-004 1.47402490e-004 3.09206371e-004
      3.13531025e-004 3.79209145e-004 3.46753834e-004 2.59550288e-004
      -4.21256031e-004 -1.32327637e-004 1.99849601e-005 -1.04333332e-004
      2.07082427e-004 -8.85941627e-005 -7.21239630e-005 -2.59308435e-004
      3.32352618e-004 2.07970894e-004 -4.51663393e-004 1.47971718e-004
      8.23354912e-006 -1.27320251e-004 1.27039937e-004 -1.69227624e-005
      -4.24271624e-004 9.49978494e-005 -2.59142253e-004 -2.20425427e-004
      5.45183721e-004 2.12975156e-005 -2.01863222e-004 -2.17909852e-004
      -2.90389056e-004 -4.58340248e-004 2.86780618e-004 4.15601273e-004
      -1.83857937e-005 -8.69383293e-005 -5.59129330e-005
      -5.27391931e-005 2.72689824e-004 -3.27215093e-005 -7.06416831e-005
      -5.77073602e-004 4.20537195e-004 -2.80662876e-004 5.25403448e-006
      -2.73323705e-004 -2.07556994e-004 2.85177302e-005 2.81545072e-004
      -3.29097616e-004 1.12626745e-004 2.16059809e-004 -9.36565266e-005
      1.53850760e-005 -1.58786588e-005 -4.20826953e-004 7.02710473e-004
      1.71154650e-004 1.82087533e-004 3.67726112e-004 -1.03228660e-004
      4.37937415e-005 4.97591158e-004 -4.65599849e-004 -5.46126394e-005
      -3.80179699e-005 7.16207978e-006 -7.74529180e-005 -1.08033979e-004
      -1.74066648e-004 6.37392441e-005 1.76020563e-004 -3.67898872e-004
      -5.27785043e-004 6.29937203e-005 -4.82980948e-004 1.07416876e-004
      -2.18023742e-005 3.02639150e-004 1.24037124e-005 3.76998476e-004
      -4.17470350e-004 4.45002433e-006 4.07895248e-004 -5.47500858e-005
      -9.30468595e-005 -2.11474398e-004 -6.73200411e-005 1.80974821e-004
      -3.41388572e-004 -3.07431270e-004 -6.44427899e-004 3.16715799e-004
      1.56936105e-004 2.68213742e-004 -7.80477567e-005 -1.37092487e-004
      -7.78009326e-006 9.27308156e-006 -3.15439043e-004 -4.68728336e-004
      -2.59409455e-004 2.46938638e-004 4.31141583e-004 2.53749778e-004
      -5.53652717e-005 -2.85544171e-004 3.29461793e-004 2.90448777e-004
      -5.36578533e-004 -5.19016699e-004 9.40269601e-005 2.95792124e-004
      2.31826780e-004 1.70142855e-004 -1.08953209e-004 5.07318182e-004
      -2.52945261e-004 -5.20748901e-004 -1.15774295e-004 2.30056598e-004
      4.47494851e-004 8.95439880e-005 9.75840740e-005 -3.82029364e-004
      9.46278305e-005 3.84576269e-004 -6.48644287e-004 4.23635247e-005
      -1.21999226e-004 3.46775254e-004 -4.88938123e-004 -9.40013051e-005
      -1.47333822e-005 1.96646695e-004 8.93976030e-005 -3.40869039e-004
      -3.82055179e-004 1.57430244e-004 9.81421254e-005 3.38984537e-004
      -6.61036320e-005 1.55632675e-004 4.02643258e-004 -8.74699981e-005
      -2.79232190e-004 4.23668025e-005 -1.54079389e-004 1.56076916e-004
      2.60128727e-004 -3.67677421e-004 -1.32544868e-004 -1.90403458e-004
      -5.56504310e-005 -1.05549596e-004 -1.00525307e-004 2.18744026e-005
      2.39622837e-004 4.24875943e-005 -5.33790480e-005 -1.30464832e-004
      2.47672695e-004 1.37210998e-004 -2.14935586e-004 1.19576682e-004
      2.65527400e-004 2.29416386e-004 -1.22529294e-004 2.32930106e-005
      -4.86958801e-004 4.09991015e-004 -1.71148102e-004 -8.84769761e-005
      1.67636070e-004 -3.34796387e-005 2.48167518e-004 1.00223348e-004
      1.19813987e-004 -5.42469788e-005 2.45631876e-004 5.02244744e-004
      -5.83174333e-005 -2.37081404e-004 1.46885126e-004 -2.88290576e-005
      -3.64322390e-004 -1.34708986e-004 8.16821484e-005 -1.08500637e-004
      -4.17551317e-004 2.01190822e-004 3.39619932e-004 -2.59566383e-004
      3.52660631e-004 -4.55843365e-005 6.62078019e-005 -2.00814728e-004
      7.54763505e-006 -1.86937090e-004 2.46323005e-004 -1.27645762e-004
      -4.37514595e-004 7.64770375e-004 8.28497286e-005 9.98728865e-005
      -2.11944309e-004 -4.96256689e-004 2.67345778e-004 3.49167967e-004
      2.26644406e-004 2.17570283e-004 -5.76593564e-004 -2.34093590e-004
      4.04830571e-005 -8.43616144e-004 -6.17637299e-004 1.65660986e-005
      3.10487172e-004 -8.38115375e-005 3.30521114e-004 -4.65420628e-004
      -1.29397580e-004 -2.90685221e-005 -1.39901997e-004
      -2.64432485e-004 1.86893405e-004 -1.76156289e-004 -1.05268467e-004
      -8.57016312e-006 -3.31414456e-004 -5.95740457e-005 2.75538594e-004
      -1.68191575e-004 -2.34335675e-004 -2.33367507e-004 2.82894442e-004
      -1.21021614e-004 -1.33234513e-004 1.41131197e-004 -9.22662639e-006
      -1.29493739e-004 1.73802327e-004 -2.52485970e-005 -1.64852710e-004
      1.05322062e-004 3.14741221e-004 1.69477367e-004 1.46806342e-004
      1.06534164e-004 -2.94494879e-004 -2.33920393e-004 -2.49627628e-004
      -1.92194682e-004 -6.25364482e-005 -2.02457086e-004
      -3.60561593e-004 -4.87545767e-005 3.03581357e-004 3.40372935e-004
      9.50512276e-006 -4.96065128e-004 2.23447001e-004 3.59951926e-004
      -1.21511133e-004 -2.67264055e-004 3.18924394e-005 6.25659868e-006
      -2.84720882e-004 -1.63437420e-004 1.53949135e-004 -7.39274983e-005
      -1.56329843e-005 -1.28088926e-004 -6.98774704e-004 3.45613167e-004
      3.36883269e-004 4.30348184e-004 -1.59377523e-004 -3.14432575e-004
      7.52931752e-004 1.97707661e-004 1.73707478e-004 2.11559804e-004
      -3.35816265e-004 1.22689162e-005 -6.58346980e-005 -3.82120430e-004
      -2.88214680e-004 -1.92312626e-004 2.31953803e-004 3.40265309e-004
      -1.10591885e-004 5.86044953e-005 -2.50537501e-004 -3.73561285e-004
      1.23249192e-004 -1.09424182e-004 3.72818642e-004 1.27854160e-004
      -2.20715374e-004 1.69675805e-005 -4.65878111e-005 2.82834080e-004
      -3.98313539e-004 -1.61293778e-004 -6.39334539e-005
      -9.83480713e-005 1.01162383e-004 -2.58100888e-004 -5.53579275e-006
      -3.26145637e-005 1.45833954e-004 -2.63213675e-004 -2.65668350e-004
      -1.84122138e-004 -4.22336423e-004 8.37568950e-005 4.47520317e-004
      -7.25119971e-005 2.38689303e-004 -2.64485367e-004 2.31791928e-004
      1.32754547e-004 2.11887193e-004 -1.49689848e-004 1.75864567e-004
      -5.09466190e-005 -1.66057405e-004 -1.36014118e-004
      -1.94327663e-006 -3.12016382e-005 -2.12995263e-004 4.65536978e-005
      -3.02117784e-004 -8.04048395e-005 3.33558302e-004 1.07124317e-004
      -1.94027030e-004 1.73021661e-004 -2.60932957e-005 3.90500587e-004
      1.27597004e-005 -4.74096771e-004 1.41468860e-004 1.92660576e-004
      8.69944415e-005 7.60751253e-004 -5.03812684e-004 -6.05053829e-005
      -2.45663774e-004 -3.05121474e-004 1.88785125e-005 3.08565854e-004
      -2.02571609e-004 5.23150047e-005 1.87699028e-004 -2.15655309e-004
      6.31543444e-005 -7.09092603e-007 5.98786282e-005 -2.16577217e-004
      7.24907077e-005 -2.22896066e-004 1.67060702e-004 2.99671781e-004
      -5.09128222e-005 1.66556943e-004 8.92016396e-005 -2.13654403e-005
      -2.17672641e-004 2.38127075e-004 1.93510947e-004 -1.31685490e-004
      3.88749148e-004 -3.76457494e-004 1.04714352e-004 2.03185351e-004
      4.44494013e-004 -7.01225072e-005 -2.88189676e-005 2.17288529e-004
      1.81684794e-004 -1.15744537e-004 6.93547699e-005 1.89846847e-004
      8.51017103e-005 4.47647006e-004 -2.00585608e-004 -5.22070623e-004
      -3.72639693e-006 2.76830222e-004 2.54870829e-004 -7.05377315e-005
      -1.39891839e-004 -2.98190775e-004 4.90239254e-005 4.82996838e-005
      -1.24086262e-004 3.67510977e-004 4.09274042e-004 -9.40795653e-005
      -3.87624954e-004 -2.53147358e-004 -4.27001251e-005
      -1.33656809e-004 -8.29972341e-005 -9.62666381e-005 4.94197411e-005
      4.24117490e-004 4.95872926e-004 -4.05496066e-005 -1.95930377e-004
      -3.59061232e-004 3.89524037e-004 -6.53057010e-004 -3.45242806e-005
      8.94659315e-005 2.80716020e-004 6.78569369e-004 -4.72930318e-004
      2.41097645e-004 3.32468975e-004 2.00067559e-004 -2.01800751e-004
      2.69545737e-004 3.01589287e-004 4.96465946e-004 2.03207805e-004
      -5.01383853e-004 2.66973104e-004 -4.16619587e-005 -2.48512952e-004
      8.42391091e-005 -2.54149432e-004 6.13354059e-005 2.04167736e-004
      -1.77474954e-004 -1.48106832e-004 -9.47487133e-005 1.17840236e-005
      7.56610025e-005 -3.56870878e-004 -4.62293770e-004 3.92621499e-004
      -2.86590944e-006 4.11283807e-004 2.31325947e-004 1.23609556e-004
      -5.96114733e-005 2.55268562e-004 -1.74174667e-004 -2.39149624e-004
      -2.21488197e-004 2.23782932e-004 2.89579679e-004 -1.18907665e-004
      -1.22229485e-005 3.63122846e-004 9.42921732e-004 -4.31480585e-004
      -1.95404282e-004 3.23288841e-004 -2.26944947e-004 -2.45908333e-004
      -2.05614051e-005 -6.95889757e-005 -1.36487753e-004 5.50554600e-004
      -4.42838791e-004 -2.02269162e-004 -1.14094655e-004
      -2.07452846e-004 -1.18366057e-004 2.72686302e-004 1.78053713e-004
      9.88391475e-005 -6.63562212e-004 3.30986695e-005 -3.94671166e-004
      -2.85134993e-005 3.29070666e-004 2.92672485e-004 -6.38024241e-004
      8.03262992e-006 7.97442699e-005 5.34730265e-004 1.76282716e-004
      -5.38281864e-004 -1.02619539e-004 -3.77469027e-004 2.64240400e-004
      2.58312211e-004 -9.73689894e-005 2.89234536e-004 2.11216629e-005
      1.36718663e-004 1.38909323e-004 -3.44063941e-004 -3.68719135e-004
      3.26675305e-004 -1.15390852e-004 2.65770417e-004 -9.57136945e-005
      5.16581604e-005 -8.08180921e-005 -2.32322622e-004 -5.31297119e-005
      -2.92216602e-004 -1.30321016e-004 2.86229420e-004 3.56894132e-004
      -1.38710719e-004 -3.51706927e-004 5.70561329e-004 -3.74830888e-005
      2.34595063e-004 -2.39032233e-005 -4.19404358e-004 -2.95282553e-006
      -1.09820154e-004 -5.63608541e-004 -3.91570611e-005
      -2.04068507e-004 -1.92748659e-004 1.25844483e-004 2.56718602e-004
      -1.42487013e-004 -9.02140891e-005 -8.49297212e-005
      -4.04821185e-004 -2.69299373e-004 -7.74485034e-006
      -3.04069079e-004 -5.96368227e-005 7.03761762e-005 6.32201845e-005
      -8.37659973e-005 -1.39019292e-004 -3.41699546e-004
      -2.87374074e-004 1.10297973e-004 -4.52347245e-004 -3.68336943e-004
      -1.95573186e-004 3.22287633e-005 3.20441177e-004 -2.83248868e-004
      -2.77989660e-004 2.16879605e-004 4.06348205e-004 9.13710319e-005
      8.09316043e-005 1.70106905e-005 -4.23672191e-006 2.52596568e-004
      -8.27318945e-005 -2.55592284e-004 1.19658798e-005 1.22662541e-007
      4.26367886e-004 2.95304257e-004 -3.37046513e-004 2.53914241e-005
      -8.09909179e-005 -1.63108649e-004 -2.35073618e-004
      -2.32754377e-004 6.98842177e-006 -3.42145381e-006 -5.63507550e-004
      -8.61839508e-004 -1.27471780e-004 -1.34636211e-004
      -1.00879159e-004 -2.85975984e-004 -5.75581507e-005
      -2.50411598e-004 -1.55425529e-004 -5.32131584e-004
      -6.45639375e-004 3.27354704e-004 -2.03554489e-004 -4.32272609e-005
      -7.96442619e-005 1.27452484e-004 2.44751660e-004 -1.24707498e-004
      -2.87440256e-004 -4.00029792e-004 6.58175341e-005 2.61948968e-004
      2.04507392e-004 -7.90563790e-005 -1.20656878e-004 -1.80474191e-004
      -7.22271507e-005 1.21480653e-005 -1.28116837e-004 -3.04479734e-004
      -2.28149001e-005 1.71697757e-004 8.27248004e-005 -1.42694043e-004
      -4.21841978e-004 6.18802369e-005 4.13633883e-004 -8.71192969e-005
      1.37464624e-004 7.81486669e-005 3.15147219e-004 2.50909099e-004
      3.13821598e-004 -6.66495063e-004 -3.20124585e-004 -2.12037103e-005
      1.37942639e-004 -3.61819693e-004 7.80747796e-005 -6.32228766e-005
      3.56708915e-004 -3.64337669e-004 -5.95370366e-005 3.84066865e-004
      -1.13314563e-004 3.01939639e-004 -2.33623010e-004 7.83888463e-005
      2.55639054e-004 9.91301276e-005 1.11438036e-004 4.09621316e-005
      1.50037857e-004 2.17329143e-004 2.21619877e-004 -1.31259905e-004
      -2.13958829e-005 2.12509796e-004 4.39520845e-005 2.25268232e-004
      -4.56137146e-004 -4.90749779e-004 7.85038537e-006 -8.57267587e-005
      4.18007985e-004 -2.23773415e-004 2.22143717e-004 -1.04347855e-004
      4.17241885e-004 -3.73341347e-004 -2.71178520e-004 1.59667718e-004
      1.70517364e-004 2.25676165e-004 -1.22774421e-004 -4.37379858e-005
      3.52510106e-004 -2.19600071e-004 -2.07598481e-004 -1.08518063e-004
      3.00470449e-004 2.57799577e-004 -8.46176117e-005 -3.96811432e-004
      4.52736742e-004 -7.78568938e-005 -5.04502910e-004 -3.21696367e-004
      -2.09677091e-004 2.22906805e-004 7.81123090e-005 -1.28328538e-004
      -5.19823981e-004 3.10579635e-005 -1.03601786e-004 -2.17074892e-004
      -2.98227998e-004 -9.49704845e-005 -1.54549052e-004
      -1.81900192e-004 1.56060807e-004 2.84216600e-004 -1.39707830e-004
      -3.61993094e-004 7.00399512e-004 -2.02478768e-004 -2.05458069e-004
      -8.04727824e-005 3.60843464e-004 -5.57183048e-005 1.07448768e-005
      8.56571496e-005 -1.26400104e-004 6.06391171e-004 -1.98687922e-004
      -5.66874223e-004 7.79531110e-005 4.15375689e-005 -1.82228294e-004
      -1.89134313e-004 -1.69089399e-004 -6.05318382e-005 1.30621920e-004
      -6.66111475e-004 3.39053920e-004 -6.40208717e-004 -1.22303274e-004
      3.20984873e-005 2.41378628e-004 -3.22712091e-004 -7.94419975e-005
      -9.60099078e-006 -4.86561883e-004 1.58507086e-004 3.76893615e-004
      2.20252012e-004 1.15951494e-004 -5.90995696e-005 4.62806376e-004
      2.26103599e-004 5.28335877e-005 5.86558715e-004 1.21591202e-005
      2.12617524e-004 4.80483635e-004 1.81694108e-004 -3.23842833e-005
      -1.86133882e-004 -3.04338697e-004 7.74765067e-005 -5.78286941e-004
      1.08608758e-004 -3.87633037e-008 -1.11676272e-005 -1.32409783e-004
      1.36101473e-004 7.84135846e-005 2.04133277e-004 3.77607590e-004
      -2.67267078e-005 -3.10068135e-004 -1.29135906e-005
      -9.16838835e-005 3.51807015e-004 -1.28320520e-004 3.53333453e-004
      3.10765390e-005 6.60662845e-005 9.61579281e-005 1.94346328e-004
      5.00854687e-004 -3.38814629e-004 4.07421496e-004 1.56315139e-006
      7.53384011e-005 3.53839510e-004 1.17006239e-004 3.56073724e-004
      2.46769050e-004 -1.71780484e-004 3.05611029e-004 1.76762289e-004
      -4.87957412e-004 -1.00315265e-004 1.53746339e-004 4.21190198e-004
      4.16283263e-004 2.89392367e-004 1.94923457e-004 -2.39030560e-004
      -8.46519179e-005 -3.69744230e-005 1.53414250e-004 1.56281953e-004
      -2.14918808e-004 1.04702267e-004 -7.54811190e-005 3.21174084e-005
      1.50661479e-004 1.71510284e-004 -1.86336489e-004 3.23245884e-004
      2.93033256e-004 -1.01755890e-004 -3.11304699e-004 6.44240617e-006
      -4.02240839e-005 -4.31250723e-004 -3.52834701e-004
      -1.78820788e-004 -2.16850094e-004 -1.80064308e-005
      -2.74135178e-004 2.93883513e-005 -1.56701397e-004 2.11465114e-004
      -1.63033023e-004 1.91233354e-004 -9.30066089e-005 -1.49319414e-004
      -2.96334416e-004 -4.68680286e-004 2.05489370e-004 -2.29093945e-004
      -3.26136709e-004 -1.11956651e-004 -1.52697321e-005 4.57430084e-004
      -4.40690856e-005 -2.21718059e-004 -1.34446309e-004
      -7.21338656e-005 -7.81915442e-005 2.70941091e-005 -5.07049954e-005
      4.21136850e-004 -3.41080624e-004 -3.55762953e-004 2.79568976e-005
      4.11919784e-004 4.59537250e-006 2.42422291e-004 -8.83654211e-005
      -4.75387897e-005 3.23644810e-004 -2.01608913e-004 -1.25436112e-004
      -1.97522648e-004 4.09423810e-004 -2.52027967e-004 2.05725664e-004
      5.20357396e-004 -8.03981893e-005 -5.12997394e-005 -5.00155089e-004
      -4.07601692e-005 -1.03981991e-004 -1.33656984e-004 1.15671057e-004
      -7.78040630e-005 -1.60448617e-004 2.55573133e-004 2.37495071e-004
      -8.14387568e-006 -1.15461633e-004 -6.88865621e-005 2.18280431e-004
      3.61981016e-004 -9.88643151e-005 -2.61900830e-004 2.49198405e-004
      3.57440847e-004 1.55102083e-004 1.62106473e-004 -2.09811667e-004
      -3.94889299e-004 -2.78550084e-004 2.24434552e-004 1.30581393e-004
      3.61075872e-005 -3.90631438e-004 -4.88955993e-004 -3.93800379e-004
      -9.56458534e-005 -6.11902506e-005 4.96037899e-007 -5.46334632e-005
      -1.09130931e-004 9.19566446e-005 7.36582224e-005 2.66565912e-004
      -3.18753911e-004 3.17158738e-005 8.21524518e-005 -6.03197077e-005
      1.29189328e-004 5.05629636e-004 -4.69323240e-005 2.48905591e-004
      -3.29172442e-004 2.88955507e-005 -1.17392236e-004 1.88032471e-004
      3.23993736e-004 2.21088103e-005 -2.64543458e-004 -1.70573971e-004
      -1.08565573e-005 2.03585951e-004 4.25983686e-004 -9.79319884e-005
      -1.53371497e-004 1.43962592e-004 -6.46452318e-005 3.85578278e-005
      -7.19252130e-005 -3.75302421e-004 6.55404074e-005 -1.47421146e-004
      2.57256586e-004 2.90593482e-004 2.56821193e-004 -4.96519497e-004
      1.04039391e-004 -7.92503488e-005 7.40905161e-005 -4.05300467e-004
      -7.01037352e-005 3.40198312e-004 2.27696946e-004 -5.08213066e-004
      -2.53459439e-004 4.96165827e-004 6.24848646e-004 -1.43800746e-004
      -2.70175748e-004 -1.39195326e-004 2.16275612e-006 3.66169435e-004
      -3.33018288e-005 -1.29276377e-004 5.76837803e-004 3.02407425e-004
      -4.98035864e-004 -2.63197056e-004 1.51285480e-004 -1.77682974e-004
      1.14709219e-005 -5.70802018e-004 -7.53669709e-004 1.22949583e-004
      3.13948440e-005 2.98815983e-004 -2.19226305e-004 -3.21658270e-004
      7.05601196e-005 3.65169653e-005 2.11065810e-004 -4.52731969e-004
      2.93452205e-004 7.38953022e-005 -5.88533294e-005 3.45103240e-006
      -1.47672108e-004 1.21995872e-004 4.27000574e-004 -4.45176302e-005
      -4.69240535e-004 1.67707913e-004 1.55381771e-004 5.37889893e-004
      -7.46285194e-004 -1.91979503e-004 -3.16344114e-004 1.28939981e-004
      -4.30902815e-004 -7.68413011e-005 2.84207606e-004 2.28709090e-004
      -2.68454634e-004 -9.44121202e-005 -1.99933856e-004
      -1.93496511e-004 1.46202132e-004 -1.88615668e-004 2.18797446e-004
      -1.65059319e-004 4.10524139e-004 1.90514969e-004 -1.12671965e-004
      1.81181051e-004 -4.05484287e-004 -1.27318635e-004 -5.69986332e-005
      -2.68561707e-004 -1.96663197e-004 -3.81027348e-004 4.10261564e-004
      -6.57386627e-005 -1.11874608e-004 -5.24082207e-005 3.93454917e-004
      -3.77297365e-005 2.37956920e-004 4.24134108e-004 3.92347974e-005
      -3.95530689e-004 1.38053612e-004 -5.37756074e-004 -3.50272632e-004
      5.96742379e-004 5.77047394e-005 4.04449893e-005 -8.96510101e-005
      6.25128159e-005 -2.76372812e-005 -7.83265496e-005 -6.07595794e-005
      -1.67784005e-004 -5.84323388e-005 -1.83245123e-004
      -8.32554433e-005 -1.06752523e-004 -1.66709709e-004
      -2.31976795e-004 -1.34958129e-004 -1.43028970e-004
      -3.43079795e-004 7.06039602e-004 -1.38700620e-004 -4.86646692e-004
      -2.82842593e-005 1.50482356e-005 -2.10246784e-004 -6.14133314e-004
      -1.08771230e-004 2.44464230e-004 2.38644716e-004 -1.55130823e-004
      -4.10986511e-004 8.64587855e-005 3.02615481e-005 3.71329865e-004
      -4.84640797e-004 -2.25880678e-004 3.09246680e-004 1.54643072e-004
      -8.20554968e-004 -7.50181862e-005 4.86724020e-005 -3.80516954e-004
      8.59207721e-005 -3.87567736e-004 -1.07253880e-004 -2.23327384e-004
      3.86222295e-004 4.61034360e-004 5.79730076e-005 -6.71053538e-004
      -2.37096217e-004 -9.62715858e-005 9.18717633e-005 1.15000170e-004
      -1.98558075e-004 6.68225461e-004 2.98634259e-004 -8.53517122e-005
      -2.18660512e-004 -5.27599477e-004 -2.57479987e-004 3.96306685e-004
      3.06260947e-004 -4.00296631e-005 -6.89174631e-004 1.25874867e-005
      -1.27806023e-004 8.79496201e-006 -2.26083270e-004 8.55068065e-005
      -3.08134040e-004 -4.33128735e-005 -2.57464308e-005 4.13913687e-004
      3.91281268e-004 1.27762658e-004 -3.83587001e-004 -2.73686426e-004
      2.00741910e-004 -6.55151089e-005 -2.66323215e-004 9.23849439e-006
      -1.81261115e-004 1.25438746e-004 -1.18757623e-006 1.10020796e-004
      1.18706805e-004 -2.14699859e-004 1.44906866e-004 -2.54913350e-004
      -1.37103198e-004 -1.32605623e-004 -3.24362860e-004
      -7.18105512e-005 -5.17732879e-005 1.74724300e-005 -3.31943011e-004
      5.98309214e-007 2.49460631e-004 4.99331181e-005 4.70640589e-005
      2.97070528e-005 3.62434774e-004 -3.43558233e-004 -1.60295633e-004
      -2.42669237e-004 9.84395592e-005 -6.28808222e-004 -4.05019586e-004
      9.92338464e-005 -2.82558158e-005 2.96695780e-005 3.53141193e-004
      -2.45081115e-004 1.75637906e-004 -3.16138176e-004 -4.03794838e-005
      -4.20910859e-004 -3.83051120e-005 -6.43075444e-004 6.57171986e-005
      -2.55510182e-004 -9.17410362e-005 5.27525379e-004 -2.14850821e-004
      -2.18387708e-004 2.10862854e-005 -1.72781307e-004 -1.87908401e-004
      -1.35869457e-004 -6.70594964e-005 -3.55876837e-004 3.75860800e-005
      -1.31826324e-004 3.80766614e-005 -4.90232887e-005 3.46802080e-005
      -2.24183037e-004 3.42293242e-005 5.21779657e-005 -3.39913968e-004
      2.09918508e-004 2.69939541e-004 -1.43936850e-004 -2.95002945e-004
      -4.02107835e-004 -1.64698649e-004 -1.02747821e-004 2.23792973e-004
      -3.96317977e-004 -2.66905208e-005 -2.43337476e-004
      -3.09585535e-004 -3.27642221e-004 -2.82534078e-004
      -9.64726642e-005 4.14460257e-004 2.78236024e-004 -1.25410355e-004
      2.57517997e-004 -3.99817800e-004 1.21376806e-005 1.83296375e-004
      -4.96211869e-005 3.00962041e-004 1.63237724e-004 2.66139996e-005
      -9.57468437e-005 5.54472790e-004 -2.00255861e-004 -7.86850724e-005
      -6.16470061e-005 2.29479210e-005 -5.77058090e-005 1.14334514e-004
      2.80752865e-004 2.10269616e-004 -3.75638338e-004 -2.57052074e-004
      3.12971853e-004 -2.12217012e-004 -1.19240409e-004 2.73663376e-004
      -6.09563649e-005 1.30669170e-004 1.40158067e-004 9.53711715e-005
      -4.71806154e-004 2.25914147e-004 3.29251234e-005 -3.84757644e-004
      -2.25377415e-004 -1.16874930e-004 5.45256189e-005 5.59204782e-004
      -9.26865323e-005 1.06838570e-006 3.73755145e-004 1.90814448e-004
      -2.64497910e-004 -5.62089408e-005 -9.50279500e-005
      -1.35446826e-004 7.42828997e-004 -6.02578861e-004 4.14835900e-004
      -1.73155422e-005 -2.37208587e-004 -1.91075756e-004 1.29196720e-004
      3.19413703e-005 3.12464254e-004 -7.03679398e-005 -2.49564968e-004
      -1.21492019e-004 6.11414653e-005 2.47567572e-004 -1.09449749e-004
      -4.53045301e-004 -1.17419288e-004 -6.78159631e-005 1.56288996e-004
      4.85672754e-005 -3.77681834e-004 -1.59096744e-005 -1.70198007e-004
      -2.17591223e-004 4.42311866e-004 8.44630558e-005 2.64889004e-005
      3.59402300e-004 -4.86818142e-004 -2.16022090e-005 7.42007906e-005
      -4.05923696e-004 -1.35502036e-004 9.57558295e-005 -1.41135140e-004
      3.63159023e-004 4.67561389e-004 -1.95817251e-004 9.09069131e-005
      -5.65183174e-004 -4.68960439e-004 -3.70793772e-004 1.43425583e-004
      -7.23532648e-005 -3.33390963e-005 -6.04844427e-005
      -4.22204845e-004 1.06156956e-004 -7.19423333e-005 2.53904174e-004
      1.13721799e-005 -2.97267106e-004 -8.40415378e-005 -1.13294962e-004
      6.57866360e-004 4.13595990e-005 7.89014957e-005 -5.70067004e-006
      -4.41057549e-004 -5.95582649e-004 5.04203665e-004 1.47462459e-004
      4.15916467e-004 3.61019978e-004 1.89337752e-005 1.29881621e-004
      -8.03177827e-004 -7.12346635e-004 4.69949082e-005 3.31572082e-004
      2.00850685e-004 7.38192393e-005 1.66355909e-004 2.89136398e-004
      2.82855763e-004 -5.15163410e-004 -6.61029713e-004 -5.80296910e-005
      4.61774674e-004 -3.30902840e-004 4.62693715e-005 -6.64410254e-005
      7.30445463e-005 1.56764188e-004 3.45188251e-004 -3.53176583e-004
      -9.61726764e-005 1.09764136e-004 2.46628799e-004 -1.03914994e-004
      1.08192282e-004 5.63181420e-005 8.50619472e-005 -4.21562378e-004
      -3.04530200e-004 -3.08809482e-004 5.63806097e-004 -7.55912624e-005
      2.23596180e-005 -1.29748572e-004 2.51055491e-004 -6.38251950e-004
      1.60088501e-004 -1.73800756e-004 3.53558222e-004 -3.01230088e-004
      -5.76892344e-005 8.03239309e-005 1.37252617e-004 5.41764544e-004
      -1.44550999e-004 7.22607801e-005 -9.79501128e-005 3.09030263e-004
      -4.27806481e-005 -4.76389541e-004 -1.38342642e-004 1.28338841e-004
      -5.74127334e-005 8.17084292e-005 -9.51265702e-006 -4.48783248e-004
      1.85593643e-004 1.96089532e-004 -4.39737691e-004 -1.24221697e-005
      2.41244605e-004 -1.73481487e-004 -1.71955224e-004 -3.74538708e-004
      -3.28925147e-004 1.36105024e-004 -5.89122574e-005 3.06641829e-004
      -1.28922140e-004 -1.53315748e-004 9.01415988e-005 1.37757834e-005
      -1.71416919e-004 -3.05804249e-004 1.01366015e-004 1.47148967e-005
      1.71557520e-004 1.23514634e-004 -5.45683142e-005 3.80595447e-004
      -1.76137037e-004 2.69743381e-004 -8.63885361e-005 -8.52313678e-005
      -1.58534138e-004 -6.18471458e-005 -2.42176829e-004 6.14840072e-004
      7.30228203e-005 3.95226089e-004 -1.04584251e-004 -7.36761795e-005
      5.42452268e-004 4.14198090e-004 1.39291456e-004 -2.23928932e-004
      2.41028058e-004 3.53410636e-004 -1.57595219e-004 2.67287251e-004
      -7.58054884e-005 1.62196535e-004 -2.15655582e-005 5.55713086e-005
      -1.58422816e-004 2.77728599e-004 3.85990541e-004 -2.32575796e-004
      1.64537880e-004 -2.57359061e-005 -5.20309259e-004 1.74803281e-004
      2.62774673e-004 -2.73407466e-004 -2.77512991e-005 3.45142995e-004
      -2.91249366e-004 1.37173440e-004 -1.97559246e-004 -2.09034159e-004
      -1.83160751e-004 -2.71465484e-004 -2.01625269e-004 3.28938972e-004
      3.83308216e-004 6.56615157e-005 -1.28577434e-004 -4.81892457e-005
      6.28634647e-004 7.01955578e-005 -4.91293358e-005 -2.07258214e-004
      -1.07329135e-004 -8.86430280e-005 1.76820351e-004 -7.15122005e-005
      -1.05007988e-004 6.83988561e-004 -6.32855445e-005 -1.99824543e-004
      -1.81249634e-005 -2.30670339e-004 -1.36740506e-004
      -4.10254397e-005 2.77711631e-004 8.51653604e-005 -6.81136662e-005
      -4.67928039e-005 -7.13344853e-005 1.72527987e-004 -2.89035029e-007
      -2.43825722e-004 2.43459697e-004 2.18389818e-004 -8.16722895e-005
      7.32596309e-005 2.71239493e-004 -2.83364527e-004 -4.23358433e-005
      -2.52798898e-004 1.46067294e-004 6.28212001e-005 1.24073427e-004
      8.20972782e-005 -1.16608040e-004 2.99561274e-004 -1.65052756e-004
      3.34237906e-004 2.52847130e-005 -1.47870582e-004 5.11383463e-004
      -6.40735789e-006 2.98691040e-004 -1.92630789e-004 7.61838164e-005
      1.80392119e-004 3.80976417e-004 1.95369030e-005 4.83772783e-005
      -1.39666525e-007 -2.70136861e-005 -5.95294514e-005 4.29083557e-005
      6.67149943e-005 1.28661573e-004 -9.26703360e-005 1.29955617e-004
      -6.90665038e-004 1.28191794e-004 2.76957551e-004 -2.46605541e-005
      -3.80250567e-004 2.13866035e-004 1.65108635e-004 -2.57465173e-004
      1.90740888e-004 3.94028029e-004 -4.13062982e-004 2.22785806e-004
      7.36768270e-005 4.26748738e-004 2.71726924e-004 -2.75300234e-004
      -1.51312794e-004 -2.44748022e-004 -3.05048045e-004 1.99374059e-004
      4.91734594e-004 8.95923513e-005 -1.08205815e-004 2.71207857e-004
      3.05480469e-004 9.47643348e-005 -6.32384108e-005 -5.97549719e-004
      -3.62114952e-004 2.01986157e-004 5.09929632e-005 -2.35065498e-004
      -3.12530930e-004 1.64957717e-004 2.37772838e-005 -1.06517226e-004
      -1.01791928e-004 1.45882615e-004 -9.78713215e-005 -3.53004172e-004
      -3.32708471e-004 1.67801791e-005 -1.11019026e-005 1.05145577e-004
      1.67257473e-004 -2.39136716e-004 -9.67162923e-005 6.34081953e-005
      -2.01427974e-004 -1.39670898e-004 -2.79932923e-004 3.16846301e-004
      7.93488798e-005 -2.34966530e-004 -2.06329234e-004 5.27962693e-005
      3.36838682e-004 -2.70978308e-005 1.75850364e-004 3.52182280e-004
      -4.96558932e-005 2.97452643e-004 -1.41001990e-004 -1.96092617e-004
      -3.18118429e-004 7.56336303e-005 -2.37211265e-004 -1.52271750e-004
      -1.38343821e-004 -2.42111812e-004 1.52716326e-004 -4.56837617e-004
      -6.33912452e-004 -2.20102069e-004 5.32186183e-004 -4.20826618e-005
      3.64442298e-004 3.67537650e-005 3.85626990e-005 -2.01870775e-004
      2.55534796e-005 1.60942436e-004 2.10049635e-004 5.19452042e-005
      -3.45875102e-004 4.16630122e-004 3.32607218e-004 1.76492147e-004
      1.69832943e-004 2.46712116e-005 6.46080080e-005 -3.57428333e-004
      2.29191923e-004 -3.79242789e-004 -1.19013799e-004 -3.16863698e-005
      -6.36559780e-005 3.99219571e-005 1.71383464e-004 2.02867712e-004
      -2.61329260e-004 2.17154484e-005 -2.39694171e-004 -4.90762941e-005
      -2.78010208e-004 -2.16083921e-004 -3.22133041e-004 5.44362934e-004
      3.13883036e-004 8.71103111e-005 4.89690938e-005 4.72032902e-004
      -1.45075246e-004 1.45514627e-004 -3.40006867e-004 2.46463605e-005
      2.46805808e-004 -5.27645985e-004 4.76058194e-004 3.01212331e-005
      -1.18295495e-004 -4.62005934e-004 2.92587443e-004 -5.38341352e-004
      2.31171180e-005 1.84939563e-004 -1.02373167e-004 1.24598751e-004
      2.53386766e-004 -1.29815817e-004 -2.78623047e-004 -5.27844182e-004
      -5.73470199e-004 -1.82762946e-004 2.93244811e-004 1.99860646e-004
      2.44300521e-004 -1.00873105e-004 -3.14984267e-004 -3.97413038e-004
      -4.89975573e-005 -1.83746335e-004 2.17924389e-004 1.08831286e-004
      5.03981661e-004 3.86911153e-004 3.97721131e-004 -9.12602234e-004
      -3.86158863e-005 -3.65821674e-004 -3.30127164e-004 1.88653881e-004
      7.27144827e-004 2.09411854e-004 -1.51897024e-004 -2.53989332e-004
      1.00815869e-005 3.99670935e-005 -3.09474504e-004 -2.10824262e-004
      3.76882468e-004 5.30467660e-004 4.23836813e-004 -2.18472444e-004
      -2.08434183e-004 -4.25359758e-004 -1.57195347e-004
      -9.65507570e-006 -1.78816394e-004 -2.33683008e-004 2.53850449e-004
      1.04456081e-003 -3.60090089e-005 -3.63306783e-004 -1.00060039e-004
      -6.24471286e-005 3.01582331e-004 1.09887995e-004 -5.82172579e-005
      2.77687213e-004 3.81199818e-004 2.35622327e-004 -2.29219469e-004
      -6.60482852e-004 2.47722637e-005 -2.80229997e-005 -3.27277317e-004
      -1.43816971e-004 2.18147223e-004 8.28386692e-004 8.57792547e-005
      -1.35889321e-004 -7.58681505e-004 -1.67628765e-004 3.25999514e-004
      -2.69806642e-005 -8.61943045e-005 1.83457174e-004 5.51410310e-004
      -2.98016166e-005 -2.15980675e-004 -9.03686800e-004
      -2.94542813e-004 5.64934802e-004 -2.01788935e-004 -1.49020401e-004
      -1.06266736e-004 -6.31727016e-005 2.78538995e-004 -3.71134156e-005
      2.80322674e-005 -7.85620286e-005 -7.59670947e-005 -1.43064710e-004
      5.70833181e-005 -5.91745666e-005 -1.20406636e-004 -1.53794792e-006
      -7.37406808e-005 -2.09049002e-004 -8.70383446e-005
      -2.44099516e-004 -5.14735177e-004 -2.73270503e-004
      -3.06416187e-004 2.61360168e-004 -1.30234548e-004 1.83234242e-005
      -1.35040071e-004 1.51041197e-004 -6.72730210e-004 -3.79784236e-004
      1.20543496e-004 4.75435460e-004 -2.66084739e-004 2.51127174e-004
      1.31450739e-004 -1.57434653e-004 6.39590189e-006 -1.79967334e-004
      -3.53579206e-004 -3.59629805e-004 -6.18303966e-005
      -1.67624283e-004 1.52148001e-004 5.49630713e-005 -7.26239305e-005
      1.75436307e-005 3.59431200e-004 1.43572552e-005 -5.16023196e-004
      8.19976485e-005 -2.05926539e-004 1.43545636e-004 2.21697454e-004
      -1.34458256e-004 -2.06306373e-004 -1.31033405e-004
      -1.90231716e-004 1.93934815e-004 -4.04789062e-005 -3.62797466e-004
      -5.00301685e-005 1.59969728e-004 -5.33797902e-005 -1.40818502e-005
      -3.74937517e-004 -3.28238275e-005 -1.09801651e-004
      -2.11413746e-004 7.66891390e-005 -1.41457160e-004 6.29761125e-005
      -4.74144443e-004 -5.24544230e-005 -1.52769891e-004
      -3.90778412e-004 1.08988279e-004 2.01381226e-005 -3.47951718e-004
      -1.57253671e-004 6.29501243e-004 6.24917229e-005 2.90159485e-004
      4.26185812e-004 -4.04253369e-004 5.91531389e-005 4.63027027e-005
      -4.66858211e-004 -4.32205066e-004 1.61887147e-004 3.16331978e-004
      9.31678078e-005 1.49893182e-004 3.57653630e-006 2.79330328e-004
      2.44085197e-004 5.18937522e-005 5.01433851e-006 5.00936934e-004
      -1.06627995e-004 -2.60983128e-004 4.23910999e-004 -4.76861146e-007
      5.06358447e-005 1.56430237e-004 -3.35826451e-004 5.66225935e-005
      8.44127353e-005 6.78733850e-005 2.21596172e-004 3.62972314e-005
      3.62645456e-004 8.90225856e-005 3.49911308e-004 -6.93353708e-004
      -2.65853625e-004 2.95116071e-004 4.45904239e-004 -2.18886547e-004
      -5.33793354e-005 5.40822839e-005 1.68480794e-004 1.89515020e-004
      -5.49882941e-004 2.65946642e-006 5.55260282e-004 4.58332739e-004
      -5.40246365e-005 6.61920989e-004 1.44428908e-004 -6.87906504e-005
      -2.89273939e-005 -2.96085695e-004 -2.46936161e-005 2.80500011e-004
      2.79557193e-004 -5.99490113e-006 6.32406663e-005 2.50444253e-004
      -1.56216192e-004 5.66019371e-005 -2.74256163e-004 -1.59807227e-004
      -2.98314815e-004 2.15542808e-004 3.74960073e-005 3.41802923e-004
      1.97497051e-004 1.46806924e-004 -1.19669321e-005 2.55731138e-004
      3.82899161e-005 2.20544403e-004 2.93092744e-004 -2.42125854e-004
      3.30928560e-005 -1.95178683e-004 -3.41150940e-006 3.93290509e-004
      8.21870490e-005 1.57670147e-004 4.74389599e-005 1.40737233e-004
      -8.22407834e-004 5.49020362e-004 3.93220289e-005 4.20486067e-005
      -3.37336853e-004 3.44387881e-005 3.20961233e-004 1.09465291e-004
      4.73575201e-005 -2.98595296e-005 -3.08228337e-005 2.83708534e-004
      -1.98661786e-004 -4.22280937e-005 -2.77358689e-004 2.93469871e-004
      7.51103071e-005 1.33130554e-004 -6.63615065e-005 -7.14477559e-004
      -2.68097181e-004 6.98259173e-005 -2.63206675e-005 1.13589493e-004
      2.89971562e-004 1.56183320e-004 -1.43034064e-004 4.05614817e-004
      -1.11601585e-004 -3.81039426e-004 9.97212283e-006 -1.62961718e-004
      5.73769903e-005 1.17976735e-004 4.24281170e-005 4.50217543e-004
      9.51448601e-005 -5.83813016e-005 -3.39277089e-004 -3.31974676e-004
      -3.08903807e-004 -1.69009345e-005 5.50860190e-004 -1.95076485e-004
      7.76714442e-005 -1.16553470e-004 7.49851024e-005 -2.13741034e-004
      -1.94292035e-004 -1.95293236e-004 7.32925255e-005 6.82959042e-004
      3.78839555e-004 -6.64106483e-005 9.13485273e-005 1.16188727e-004
      3.79856319e-005 2.45790085e-004 2.64866248e-004 -2.59950320e-004
      -1.42330755e-004 -2.17728957e-004 -4.17826755e-004
      -1.51076683e-005 1.72176788e-005 -2.43023009e-004 -4.98959926e-005
      -9.53518702e-006 6.58510486e-004 -1.50786815e-004 2.98405124e-004
      -2.72528559e-004 -2.40614172e-004 1.45056139e-004 -1.57774237e-004
      -1.36141796e-004 1.70128376e-004 -3.56401404e-004 -7.03952173e-005
      3.14239005e-004 -1.96445995e-004 -7.58381138e-005 -2.71810888e-004
      -1.21877893e-004 -2.63034563e-005 -1.73134336e-004
      -2.94507598e-004 6.72945462e-004 -2.35109110e-004 -3.24704015e-004
      1.68035058e-005 -2.72571750e-004 -5.04156807e-004 8.65790716e-005
      1.08706699e-004 -2.07032339e-004 -2.65808369e-004 1.22328798e-004
      -2.58156622e-004 -1.49260290e-004 -9.02173517e-004
      -3.04936024e-004 -1.65326564e-004 1.28241998e-004 -2.21276932e-004
      2.03049749e-005 9.80830955e-005 -4.83739888e-004 -1.84716380e-004
      -4.85030789e-004 -4.01559446e-005 8.74611869e-005 -4.87545412e-006
      3.10009404e-004 8.14449741e-005 1.82976000e-004 4.09814238e-005
      -1.35667142e-004 -2.41655362e-004 -1.77240348e-004
      -2.64962673e-005 -7.85977172e-005 2.00832379e-004 3.65194195e-004
      -5.46759518e-004 -4.03769576e-004 1.46208506e-004 -2.21783441e-004
      -5.71343058e-004 -2.06414086e-004 2.12063562e-004 1.56367474e-004
      3.28883645e-004 8.45801187e-005 -1.67960061e-005 -3.20966537e-005
      -1.90822189e-004 -2.90420954e-004 -3.66913737e-004 3.82191094e-004
      4.88449296e-004 -5.02486655e-005 -1.17599404e-004 1.78499409e-004
      9.70678084e-005 -4.06273641e-004 -1.25006365e-004 -2.25119598e-004
      -5.16433938e-005 -5.42670721e-004 3.05429654e-004 1.40879856e-005
      1.11294758e-004 3.84324288e-004 -2.74769176e-004 1.15502015e-004
      2.09498685e-004 2.00397644e-005 4.41925513e-004 -1.37187948e-004
      6.66740598e-005 9.31570321e-005 1.92768668e-004 2.90010703e-005
      -3.00528191e-004 -2.43712675e-005 1.24960206e-004 -3.31671181e-004
      3.12586868e-004 -5.69329532e-005 -4.79566050e-004 4.55371424e-004
      2.58444652e-005 1.54261783e-004 -2.93096073e-005 1.84453427e-004
      -2.05411576e-004 2.09776132e-004 -2.58216696e-005 -2.74960821e-005
      -6.22869557e-005 5.35393228e-005 -1.04554056e-004 2.65263487e-004
      2.60041619e-004 2.00221228e-004 2.06460740e-004 9.98001342e-005
      4.01459802e-005 2.28606717e-004 5.10787766e-004 -2.29667730e-005
      -6.31724615e-005 -3.84048646e-004 1.24453349e-004 -1.07718697e-004
      -1.64529138e-005 1.01143356e-004 -8.71388183e-005 -1.60848882e-004
      1.34839123e-004 -1.48057225e-004 2.05769902e-004 -3.66727472e-004
      -1.11334339e-004 1.53386456e-004 1.28459083e-004 4.62911732e-004
      2.49067671e-004 -6.61399156e-007 5.68994845e-004 3.19870072e-004
      -3.32170923e-004 -3.92204005e-004 -9.73698989e-005
      -6.03532062e-005 2.52344558e-004 1.06764375e-004 -7.69808539e-005
      -1.22531274e-004 -4.54517227e-004 -4.16263647e-004
      -7.61537667e-005 4.68400867e-005 2.81123328e-004 -2.29152720e-004
      1.23228110e-005 -1.06671410e-004 1.93669810e-004 -4.03139420e-004
      -9.57235316e-005 -3.31158168e-004 2.82443536e-004 3.16432095e-004
      4.19012620e-004 -3.49638460e-004 2.20358561e-004 3.32763011e-004
      1.18913367e-005 -4.51895728e-004 2.71968602e-004 1.29600012e-004
      6.66270207e-005 3.67841247e-004 1.15764728e-004 -1.32185451e-004
      3.32047493e-004 3.91917056e-005 -1.47088271e-004 -7.10342487e-004
      2.30018559e-004 1.55848378e-004 -1.94781824e-004 -2.77799205e-004
      4.57156333e-004 4.16729272e-005 -2.60890665e-004 -3.90256726e-004
      -8.77107668e-005 2.82610970e-004 4.71155770e-004 3.71957780e-004
      -1.29499647e-004 1.28615095e-004 1.62204000e-004 -3.48520989e-004
      -2.46365002e-004 -2.39017652e-004 7.91361090e-004 6.27387082e-004
      -1.83341675e-004 -7.37193215e-004 -7.61179544e-005 1.31135472e-004
      3.02936882e-004 -1.37131559e-004 1.11442947e-004 2.38801920e-004
      -3.98098427e-006 5.37182845e-004 -2.68232892e-004 -1.99360056e-005
      1.17341195e-004 -5.22089656e-004 -5.91280055e-004 -4.17159405e-004
      -3.94456310e-006 2.16549801e-004 4.23345155e-005 -3.13687022e-004
      1.13995062e-004 1.77684560e-004 -4.83293494e-004 1.67861377e-004
      2.41999194e-004 4.32071043e-004 -2.15266823e-006 1.32561472e-004
      -1.71516192e-004 2.46859039e-004 1.19167387e-004 -1.19206925e-005
      1.98349473e-004 -2.86424824e-004 3.32514697e-004 2.73510377e-004
      4.68534126e-004 -2.08342259e-004 -4.80577903e-004 -1.65238162e-004
      -2.51165475e-004 -3.42970190e-004 -2.53236882e-004 1.24064230e-004
      5.79175794e-005 2.39624889e-004 1.80119445e-004 -7.22869954e-005
      5.27888960e-006 5.54847757e-005 1.75340581e-004 2.54626240e-004
      -2.37326658e-005 -3.52691510e-004 1.00689380e-004 -3.57829616e-004
      -1.73972789e-004 1.98165901e-004 -3.07551498e-004 3.16730911e-005
      4.32022935e-004 2.21568233e-004 -2.10638857e-004 3.59905476e-004
      2.64937225e-005 -3.40143626e-004 -1.31464258e-004 1.38592193e-004
      -3.80713682e-005 -2.25731579e-004 1.95990287e-004 -3.15389247e-004
      -2.64367263e-004 -2.01072020e-004 -6.63845334e-004 3.15429061e-005
      -4.26701226e-005 7.24531768e-004 3.98362841e-004 -2.96287239e-004
      -1.08143176e-004 -2.71456840e-004 9.90554327e-005 -3.48955597e-004
      -6.13452983e-004 -2.94110388e-004 2.17877332e-005 4.08520515e-004
      3.81344202e-004 -4.19345160e-004 5.97244580e-005 -3.44361819e-004
      -5.70091535e-004 -1.71352993e-004 2.26265929e-005 4.40403783e-005
      4.19102726e-004 2.54003080e-005 -3.88688823e-005 1.05172279e-004
      1.97640620e-004 -1.05285966e-004 -2.45740957e-004 2.42835435e-004
      1.36728835e-004 1.90303123e-004 5.93925688e-005 -5.25074371e-004
      6.54811374e-005 2.61724526e-005 -2.23310290e-005 -1.70656931e-004
      -1.70522631e-004 1.21364646e-004 -3.89837776e-004 1.05511754e-005
      -8.05381715e-005 -2.05003991e-004 -2.36978129e-004 1.02772865e-005
      3.79837693e-005 -4.78021160e-004 7.70946426e-005 -2.72342440e-005
      -3.49573005e-004 -2.69540789e-004 -5.74207399e-004 8.65841648e-005
      2.74775903e-005 -4.40254953e-005 1.46812046e-004 -1.45240992e-004
      1.49270836e-005 3.47081601e-004 -1.82208489e-004 -5.99305960e-004
      -7.51005427e-005 3.73689545e-004 2.06608107e-004 -5.38843742e-004
      2.35092826e-004 6.15356294e-006 3.03574692e-004 -8.65341281e-005
      -9.27930960e-005 -4.56597103e-004 2.85953720e-004 -3.53970914e-004
      -7.30824540e-004 -3.09489900e-004 -6.21074423e-006 3.38935730e-004
      -1.47213548e-004 -2.42106442e-004 1.68821760e-004 -2.79660048e-006
      -9.74121285e-005 1.36617746e-004 -1.30077256e-004 1.90759863e-004
      -8.58382919e-005 -6.67346467e-004 -1.74733468e-005
      -1.80885050e-004 1.81654439e-004 -3.96296819e-004 3.39990002e-005
      1.41741271e-004 1.16790026e-004 2.74586520e-004 2.24547126e-004
      -3.65054526e-004 2.72999605e-004 6.71796297e-005 1.78665796e-005
      1.99169532e-004 -1.57001690e-004 -2.09580889e-004 4.37745839e-005
      -2.86073744e-004 -2.37041342e-004 2.86061288e-004 -4.55998117e-004
      -1.18720913e-004 8.31715952e-005 -1.90133491e-004 -6.63114770e-005
      1.24776096e-004 -8.85030240e-005 -3.80084442e-004 3.02987755e-004
      -7.27200895e-005 -4.66329948e-005 -1.28970220e-004
      -3.10300617e-004 3.62965191e-004 -1.31127264e-004 -2.64576753e-004
      -2.29335652e-004 -2.23634779e-004 -5.35486251e-005
      -1.45384882e-004 -3.85369465e-004 1.49031242e-004 -9.10468807e-005
      4.17703086e-005 5.68411488e-004 -1.15318777e-004 -1.87736907e-004
      1.07568820e-004 -8.84344263e-005 1.75069305e-004 -2.61346722e-004
      -4.10882552e-004 -2.69562879e-004 -2.02373019e-004
      -3.09032876e-005 -2.38481211e-004 7.04283666e-005 1.70106388e-004
      1.26146304e-004 -2.10346465e-004 1.29040782e-004 9.35337994e-006
      6.21572269e-007 8.16343963e-005 -1.64732424e-004 2.66900228e-004
      3.73609102e-004 -1.03646817e-004 -5.94631420e-004 1.45087761e-004
      1.15310926e-004 3.39548249e-004 5.66137933e-005 4.40222735e-004
      7.35814567e-004 1.42679390e-004 -2.47291144e-004 -1.12041329e-004
      -5.06791053e-004 7.30153042e-005 -2.11976803e-004 -3.01543041e-004
      3.57610086e-004 7.01438112e-005 -1.71538646e-004 -8.26007818e-005
      -2.66988965e-004 -3.81350401e-004 8.56847910e-005 3.97322816e-004
      4.60337091e-004 -2.27280383e-004 3.76203912e-004 3.20172723e-004
      2.37187312e-004 -2.60811881e-004 -1.27596053e-004 4.17308795e-004
      2.51051562e-004 -5.13466584e-005 -2.01031013e-004 -2.42625392e-004
      3.42610700e-004 -3.65338274e-005 -7.40168558e-004 1.98329974e-004
      5.04606811e-004 6.66981039e-004 -4.06574036e-005 2.99045787e-004
      1.51761516e-004 -7.88764955e-005 -3.39929131e-004 3.50518007e-004
      -1.98943875e-004 1.30787725e-004 1.70972446e-004 3.18692735e-004
      -3.33903532e-004 -6.23736469e-007 -3.55652301e-004
      -9.47775843e-005 -2.98856292e-004 1.92435036e-004 3.02467583e-004
      5.64576942e-004 6.48929796e-004 -1.86538149e-004 -3.90502071e-004
      1.07840977e-004 -6.35903416e-005 -9.43632840e-005 8.07165052e-005
      4.62533935e-004 4.20355762e-004 -5.10892831e-004 -5.86724345e-005
      1.31706969e-004 7.90470513e-005 3.09562805e-004 -4.44255187e-004
      -3.45345819e-004 7.77806927e-005 4.21621255e-004 2.03010044e-004
      1.46929024e-005 -5.50843659e-004 -1.26146653e-004 -2.71510362e-004
      3.09854600e-004 2.30043865e-004 -4.83879157e-005 3.43140928e-005
      1.87834376e-004 -1.54273279e-004 3.16651480e-004 5.29975041e-005
      -4.48121951e-004 -2.25280557e-004 -2.34258114e-004 1.34619913e-004
      2.92881858e-004 -1.36876391e-004 -5.35381587e-005 -3.45021515e-004
      3.07858900e-005 -6.21512590e-004 -3.04823993e-006 2.04375654e-004
      1.95955101e-004 -2.74130998e-005 -1.69554594e-004 4.07110289e-004
      -5.57996100e-004 -2.76427774e-004 -5.71954646e-004
      -1.12298127e-004 -8.76722479e-005 4.01714962e-004 -4.53477085e-004
      9.36064389e-005 -2.34960738e-004 -9.32800176e-005 -2.76553154e-004
      -2.97658960e-004 -3.90478090e-004 1.18268536e-005 4.07854619e-004
      1.43534126e-004 -1.71972817e-004 -4.91196814e-004 -5.39661734e-004
      -1.63927238e-004 -3.47561145e-004 -2.09713107e-004
      -1.55407542e-004 -1.33761598e-004 -4.28961066e-005
      -9.62524718e-005 5.30236975e-005 -1.77176153e-005 1.73717272e-004
      -7.48998064e-005 -2.01908406e-004 2.19675363e-004 4.45222977e-004
      3.95257463e-004 -3.72906448e-004 -7.91588100e-005 -2.59819644e-004
      -2.53157399e-004 -1.98930829e-005 -2.20364363e-005 7.80283764e-004
      9.89806358e-005 -1.40552424e-004 -1.10471141e-004 1.78322982e-004
      1.72013839e-004 -1.77858921e-004 -8.38676260e-006 2.56825715e-005
      -1.48298001e-004 3.07719631e-004 4.90846469e-005 -4.26960527e-004
      -4.06854844e-004 -2.43877934e-004 2.94224058e-008 -5.18296554e-004
      -2.26725271e-004 -1.17374104e-004 -1.27746680e-004
      -2.84128357e-004 -1.84326655e-005 -1.72738859e-004
      -2.32406732e-004 2.65133458e-005 -5.40289038e-005 -9.42890329e-005
      2.65190902e-004 5.15949105e-005 -6.15065801e-005 -1.45324986e-004
      8.31788784e-005 -4.43266123e-004 -1.17154683e-004 -2.66154209e-004
      7.17353658e-004 4.01658996e-004 4.11562287e-005 -1.39652300e-004
      -2.46802025e-004 -7.07554747e-004 -1.20641398e-005 2.33232771e-004
      -4.62142838e-004 5.85620292e-004 1.03898899e-004 1.22404046e-004
      -3.84803483e-004 -1.86880279e-005 -2.56352923e-005
      -8.83730885e-004 -2.22385599e-004 -6.29148053e-005
      -4.25275473e-004 7.47960061e-004 -3.00148211e-004 -1.38729534e-004
      -2.37741660e-005 5.39861758e-005 -3.11292941e-004 -6.25341636e-005
      -1.84235305e-005 -2.65532326e-005 2.63212947e-004 3.12712480e-004
      -8.03333241e-005 6.46221961e-005 3.58917081e-004 -4.52067216e-005
      -3.70730588e-004 -2.39788584e-004 -1.38300762e-004 1.60382100e-004
      2.16568427e-004 -1.04053717e-004 -5.46040646e-005 4.42334334e-004
      -4.89664380e-004 1.58363531e-004 3.16065620e-004 2.23206953e-004
      -2.99967389e-004 -3.35512625e-004 -1.65043384e-004
      -8.15669337e-005 8.41195142e-005 -9.15501674e-004 -7.08970110e-005
      -1.04921688e-004 -8.43112794e-005 6.65176776e-004 1.09246626e-004
      1.81725365e-004 7.29627442e-004 -2.46380921e-004 -2.09664995e-005
      7.39834795e-005 -9.66274820e-005 -1.62203709e-004 4.50717751e-004
      1.10598354e-004 -6.43277090e-005 -1.01640886e-004 2.81084504e-004
      -2.64767423e-005 1.50319553e-004 -1.38150688e-004 1.59869523e-004
      -5.39967266e-004 1.42451507e-004 6.31811636e-005 -4.50945401e-004
      2.28742095e-007 -2.89240386e-004 -9.00362356e-005 -2.37281838e-005
      4.21196630e-004 1.78732647e-004 2.95626640e-004 9.62010199e-006
      -4.92031904e-006 2.72978559e-005 2.84991140e-004 2.57831998e-004
      2.46219977e-004 1.74092333e-004 -6.20934370e-005 5.40604931e-004
      5.60034241e-005 -2.96515238e-004 3.34069598e-004 -6.98971326e-006
      4.97087778e-004 1.33672875e-004 -2.13495397e-004 6.67244240e-006
      -1.69323510e-004 -1.08763728e-004 -2.27407319e-004
      -2.05562028e-004 2.03596937e-004 -2.25013966e-004 -5.51979989e-004
      -2.01379618e-004 7.16536451e-005 2.36884487e-004 2.43937175e-004
      1.18270014e-004 4.15535120e-004 8.83538523e-005 2.35438536e-004
      1.58679890e-004 -6.77580902e-005 -1.63804463e-004 3.07334296e-004
      4.72459476e-004 -4.17406525e-004 -6.34341923e-005 2.08714904e-004
      -3.41557061e-005 1.82681411e-004 -3.36064084e-004 -9.30793933e-004
      1.36416638e-004 4.54888912e-004 6.19460188e-005 3.50737158e-004
      1.17725795e-004 -3.23306813e-005 -9.73273636e-005 5.14329586e-004
      2.63223978e-004 1.95926259e-004 1.61447344e-004 4.16883209e-004
      2.34190564e-004 1.47237472e-004 -3.53264972e-004 1.70899220e-004
      -2.90060183e-004 -3.25796327e-006 4.38449031e-004 3.42054060e-004
      2.11939216e-004 4.36617906e-004 1.07569656e-004 3.45148874e-004
      -1.15057890e-004 9.29547648e-004 -4.50658466e-004 -2.98744446e-004
      1.21996265e-004 5.56217390e-004 1.21598168e-004 1.38587755e-004
      3.77534132e-004 1.28442960e-004 -1.08016575e-004 -4.33851848e-004
      -5.18150046e-004 -4.12911104e-005 2.67709634e-004 1.84221804e-004
      2.69026408e-004 -3.04530258e-004 -4.80473740e-004 2.50829675e-004
      -2.58378976e-004 1.34289858e-005 3.50536109e-004 1.32654706e-004
      8.37438929e-005 1.84668286e-004 -2.96063634e-004 -2.53073376e-004
      -2.69469398e-004 1.70887375e-004 1.55359798e-004 -1.54021371e-004
      -1.90239778e-004 6.09489143e-005 2.49720004e-004 9.90136959e-006
      1.07780970e-005 1.69062128e-004 -5.47907082e-004 -3.92840651e-004
      2.46873533e-004 4.23309757e-005 2.51603833e-005 -1.84414210e-004
      -1.54013076e-004 -1.86082107e-004 4.34559624e-005 5.60595945e-004
      -4.51691667e-005 5.50760633e-005 8.51855020e-006 -3.88910674e-004
      -2.57366046e-004 -3.77770775e-004 2.81789398e-004 -2.24188218e-004
      -4.81232273e-004 -3.02628090e-004 -2.18595480e-004 9.04631452e-005
      -1.50008986e-004 -1.69368504e-004 -5.12357103e-004
      -2.15679960e-004 -6.30513969e-005 -4.05806204e-005
      -7.88908801e-004 -2.48821219e-004 1.38983116e-004 -3.29105096e-004
      -1.28792453e-004 -1.11857240e-004 -5.94865356e-004
      -2.71949830e-004 3.56465956e-004 -2.24782707e-004 -2.27782773e-004
      5.31087047e-004 1.36735616e-006 -2.11982420e-004 -2.19603331e-004
      1.19531876e-004 -1.81526790e-004 -6.25715533e-004 -7.57574981e-006
      -3.11318436e-004 9.71522022e-005 -1.53049725e-004 -2.61344772e-004
      -3.90464178e-004 -8.05086107e-004 2.76436505e-004 -4.64543955e-005
      -3.23000095e-005 2.10923055e-004 -2.26229298e-004 -4.00206307e-004
      -3.09336843e-004 -1.49701096e-004 -6.58009900e-004 6.23111904e-004
      -1.43133133e-004 -7.33665438e-005 -3.54241783e-004
      -7.74747226e-004 -2.84894340e-005 -5.66708797e-004 3.63305386e-004
      -4.09123080e-004 3.70922135e-005 -5.81634755e-004 4.29034772e-005
      -2.27945522e-004 -1.87671147e-004 -6.68656081e-004
      -3.34986398e-004 -1.10793917e-004 -2.88421928e-004
      -1.02327422e-005 -2.00982817e-004 -3.36173776e-004
      -2.37721237e-004 -1.14970819e-004 -5.40939509e-004
      -4.97957226e-004 -1.70851068e-004 -2.77607673e-004 8.79716317e-005
      -1.60932002e-004 3.66775312e-005 -2.63770315e-004 -4.99417714e-004
      -2.76215462e-004 -4.94201551e-004 -3.92329413e-004
      -6.21437677e-004 5.28375793e-004 2.04031257e-005 -3.32476862e-004
      -3.40150931e-004 7.17952862e-005 -2.79181957e-004 -5.37386979e-004
      -4.59797622e-004 9.78485987e-005 -1.29167456e-004 1.79617491e-004
      -6.09917479e-005 -2.12224812e-004 -1.02328697e-004
      -1.79540584e-004 -3.01004358e-004 -1.08792832e-004 7.37368646e-006
      -4.35034190e-006 -4.73975990e-004 -1.79728318e-004 1.51476037e-004
      -4.36335657e-004 -2.70968565e-004 -2.51734804e-004
      -2.51158082e-004 -3.38842859e-004 -2.47893971e-004
      -4.35430469e-004 -1.29724474e-004 -2.26575663e-004 6.65306521e-004
      -2.13171570e-005 6.10605275e-005 -3.13617813e-004 -3.59760481e-004
      -1.51438129e-004 -3.11657815e-004 9.12949181e-005 -1.74549728e-004
      4.77853173e-005 3.11617914e-005 -4.64495039e-004 1.53617220e-004
      -1.78387010e-004 -3.05135531e-004 -6.86129846e-004
      -1.75543362e-004 1.40956865e-006 1.67321396e-005 -2.94973608e-004
      -1.17447948e-004 -6.86233456e-004 -3.66978464e-004 2.24274219e-004
      -4.03808168e-004 -2.42714159e-005 -1.38461910e-004 5.98542247e-005
      -4.26942745e-004 -2.23669456e-004 -4.49622981e-004
      -4.03242942e-004 9.51325637e-006 3.32934404e-004 -6.06525246e-005
      -1.87585887e-004 2.85160175e-004 -2.31419952e-004 4.77406778e-004
      2.19986512e-004 -1.15323193e-004 -4.08471766e-004 1.19335702e-004
      7.09522283e-005 -2.47603864e-004 -4.42557328e-004 -2.88562762e-004
      -1.96124718e-004 -2.84746093e-005 -4.34776593e-004 1.72575266e-004
      1.58300420e-004 -4.93856729e-004 -2.37607441e-004 -1.76894191e-005
      3.19858111e-004 7.08436637e-005 -1.76711372e-004 3.22369269e-005
      2.96040002e-004 3.79924786e-005 -2.88503768e-004 -3.63959640e-004
      -1.03692757e-004 -2.67166819e-004 3.33762961e-004 5.84085938e-004
      3.28917522e-004 -2.06053053e-004 1.84844146e-004 -4.36596834e-004
      -3.13569508e-005 -2.90559081e-004 -1.87651327e-004 2.24092262e-004
      -8.34741440e-005 -1.24960628e-004 4.06018080e-004 6.06920730e-005
      -3.01792374e-004 8.14514860e-005 4.81641648e-004 9.82052152e-005
      2.74012360e-004 -3.19393730e-004 6.16958714e-005 -2.17681314e-004
      2.93914898e-004 -3.50372313e-004 -2.24140560e-004 2.48721219e-004
      2.30659294e-004 4.91967716e-004 -1.24503436e-004 -3.08177463e-004
      -1.09175126e-004 -3.88812769e-004 4.96945461e-007 -1.37012437e-004
      5.47650343e-005 2.19033056e-004 4.89962869e-004 1.01846446e-004
      -4.46776743e-004 1.84060482e-005 -2.19844704e-004 -3.01810273e-004
      2.17435620e-004 6.56519143e-004 3.38635145e-004 2.94501806e-004
      -6.65335028e-005 -2.83748523e-004 -1.65760393e-005
      -3.83904990e-004 2.77809508e-004 2.22642338e-004 3.10851086e-004
      6.17051031e-004 2.92202225e-004 1.89702085e-004 6.00556596e-005
      3.84597282e-004 -1.23618549e-004 1.24062397e-004 2.07532488e-004
      7.04203965e-004 7.70766870e-004 4.90504201e-004 4.33799432e-004
      2.43647883e-004 1.08905173e-004 -4.05862986e-004 7.01965328e-005
      2.77655316e-004 9.58427612e-004 2.66717194e-004 4.13989386e-004
      -5.26901276e-005 -1.62289551e-004 2.47561329e-005 -2.20623449e-004
      2.53662583e-004 1.69734820e-004 2.31051090e-004 1.40419899e-004
      2.21768467e-004 5.10127051e-004 -2.57768206e-005 -1.42838428e-004
      1.35997498e-005 -3.08704039e-005 2.11721475e-004 -6.75948686e-005
      6.73485454e-004 2.91023229e-004 2.14029307e-004 3.76384211e-004
      4.28131054e-004 8.89161092e-005 -2.38731474e-004 1.56338705e-004
      1.21937122e-003 3.36311263e-004 3.20634776e-004 2.26521624e-005
      4.76967907e-005 3.45624314e-004 -1.41152064e-004 1.59913121e-004
      2.68419855e-004 1.07967248e-003 2.08619327e-004 -1.53096742e-004
      4.98261245e-004 -6.09347153e-005 1.76252128e-004 -1.47969520e-004
      1.01313097e-004 1.27646141e-004 2.36362204e-004 1.31431094e-004
      -2.07436868e-004 2.59540684e-004 -6.13835218e-005 4.58027353e-004
      8.53527526e-005 -2.66272782e-005 2.55103543e-004 1.41682773e-004
      4.76635294e-004 3.58533289e-004 1.16547650e-004 3.33935197e-004
      -7.34234127e-005 -2.08221987e-004 7.94181324e-005 1.35433424e-004
      5.75569109e-004 5.83514920e-004 3.18522158e-004 2.46564829e-004
      1.40928722e-004 -1.75062582e-004 -5.74994017e-004 -1.02739214e-004
      2.88085866e-004 7.75447348e-004 2.05242875e-004 -9.18839360e-005
      3.81488382e-004 -2.00323717e-004 -4.12540190e-004 -2.55717550e-005
      -2.08780795e-004 2.43787246e-004 2.14442261e-004 -3.65957894e-005
      1.51422370e-004 3.81539867e-004 1.27264750e-004 -3.92660004e-004
      -3.48328649e-005 -3.73328105e-004 -1.99671893e-004
      -4.99101006e-004 5.10067330e-004 3.91637965e-004 3.49131624e-005
      5.71380551e-005 -2.25116368e-004 -6.39137870e-004 1.20246305e-005
      1.89039376e-004 6.24897250e-004 -2.28684832e-004 3.29167233e-004
      1.01543221e-004 -2.29497615e-004 3.83006118e-004 9.00221567e-005
      3.68516630e-005 2.88470736e-004 4.04741178e-004 7.61025294e-005
      1.83790151e-004 1.41914730e-004 1.79798197e-004 -4.07923158e-004
      -2.19790512e-004 -2.29191253e-004 -2.38035122e-004
      -2.27256514e-005 -1.31742054e-005 3.90177738e-005 -1.34734175e-004
      -2.11785533e-004 -6.12287622e-005 -2.11676452e-004
      -8.83923421e-005 -7.06136052e-005 -2.12715691e-004
      -1.26611383e-004 1.79920855e-004 1.04674953e-004 -1.44469654e-004
      1.14817580e-004 1.59914489e-004 3.11315118e-004 -2.44927884e-004
      1.03140075e-003 1.34662245e-004 -6.03137269e-005 5.63679896e-005
      -9.16460631e-005 4.27053514e-004 -4.16746538e-004 2.85004149e-004
      -5.13027422e-004 7.66888261e-004 -4.77672693e-005 -1.80592524e-005
      -4.02052654e-004 -2.83228408e-004 -2.20600457e-004
      -1.42710007e-004 -2.01168205e-005 -1.59307092e-005
      -1.31249881e-005 1.51067870e-004 2.75971106e-004 -5.91264179e-005
      -2.57196225e-004 3.24834000e-005 -4.66995807e-005 -8.80444204e-005
      8.05269738e-005 7.73935317e-005 5.49666700e-004 -8.29209530e-005
      1.39951997e-004 -1.60713913e-004 4.91409970e-004 -5.36271953e-004
      -1.31576118e-004 2.12685336e-004 1.88341335e-004 6.74732146e-004
      5.19569381e-004 -2.31767350e-004 7.69487960e-005 1.01646161e-004
      -3.00834683e-004 3.39250313e-004 -3.69884474e-005 8.43758637e-004
      6.64820182e-005 4.44068806e-004 1.44045320e-004 1.00430269e-004
      -1.66825455e-004 3.85906715e-005 -5.70432923e-004 1.29710879e-005
      1.86888974e-005 -2.90851953e-004 -1.59065858e-005 2.80728476e-004
      2.61348123e-005 -3.68198991e-004 -4.45935766e-005 -4.67166508e-004
      3.79926787e-004 1.14090886e-004 5.23781346e-004 2.73486512e-004
      6.00818421e-005 -3.27233683e-005 -4.36995702e-004 5.15672909e-005
      -1.27296589e-004 -1.32894362e-004 2.64391478e-004 5.82255598e-004
      3.53651121e-004 6.81257661e-005 -4.52209701e-004 -5.37896762e-004
      3.14399309e-004 -1.67587961e-004 1.17707015e-004 2.30656893e-004
      9.18074584e-005 -4.74249100e-005 1.03929946e-004 -4.79566253e-004
      4.32256173e-004 -3.24359513e-004 -4.58530150e-004 2.02950294e-004
      2.42171300e-004 4.01884579e-004 3.86213273e-004 5.82361463e-005
      -3.36653538e-005 -2.42828886e-004 1.01777354e-004 3.43519605e-005
      -2.89303280e-004 2.80345448e-005 9.65109153e-004 3.64547013e-004
      2.11351828e-004 -7.29788851e-004 -1.66425438e-004 2.61481437e-005
      -1.07147243e-005 3.88251065e-004 7.20904849e-004 1.82113115e-004
      2.75371305e-004 3.08653398e-005 -4.23675257e-004 5.58803848e-004
      -2.54702318e-004 -1.06434367e-004 1.94418564e-004 6.98879361e-004</_></support_vectors>
  <decision_functions>
    <_>
      <sv_count>1</sv_count>
      <rho>-2.5881123437469755e+000</rho>
      <alpha>
        1.</alpha></_></decision_functions></opencv_ml_svm>
</opencv_storage>
